<<<<<<< HEAD
7023 13 87
0.0339226 -0.032389 0.0353779 0.00168337 -0.00595896 0.017768 -0.0322143 -0.0115768 -0.036712 0.0266663 -0.00326664 -0.0024396 -0.0194437
-0.0284166 0.0347718 0.010476 -0.0310011 -0.0189686 -0.0350736 0.0181207 -0.0119417 -0.0108242 0.034819 -0.0100739 -0.0116284 -0.00754724
-0.0047015 0.0394743 0.0188356 -0.0169517 -0.0208378 -0.0100144 -0.0196327 -0.0403495 0.0195475 -0.0175854 0.00478186 -0.0183971 0.0202355
-0.298476 0.059454 0.1175 -0.0103645 -0.160071 0.0825143 0.231139 -0.326767 0.0760295 0.168426 0.23159 -0.141568 -0.0620671
0.0115509 -0.0129941 0.00532781 -0.033204 -0.0341627 -0.0350537 -0.00288974 -0.0308326 -0.0128187 -0.0156566 -0.00131173 0.00468377 0.00402958
0.0209126 -0.0334316 0.0322286 0.0328492 -0.0358932 0.0200568 -0.0312369 -0.0203856 0.0225079 -0.0172357 0.0343671 -0.0201528 0.0257154
-0.00599083 -0.009187 0.0451978 -0.0393112 -0.038933 0.00829994 0.0363539 -0.0103726 0.0158175 0.0698954 0.0316688 0.0133176 -0.0102015
-0.0371101 -0.0271556 -0.00857951 0.0349719 0.0250515 0.023795 -0.0183303 0.0358397 0.0380361 -0.0199012 0.0387736 0.0151077 -0.0184529
-0.0146123 0.0112631 0.0136417 0.00719308 0.0132553 0.00466422 -0.0349133 -0.0381832 -0.00422606 0.00770444 0.0211604 -0.019124 0.0208117
-0.0101953 0.00365014 -0.00256677 -0.0351962 0.0123985 0.0103151 0.0298385 -0.0321185 -0.0303639 0.0116477 0.0029703 0.019509 -0.0239143
0.0090395 -0.025538 -0.0126568 -0.0041311 0.00600335 -0.0323217 0.0150116 -0.0394432 0.0127076 0.0221777 -0.0322493 0.017071 0.0356144
-0.0356056 -0.0323967 -0.00263337 -0.0125039 0.0314677 0.0123395 -0.0363403 0.026168 0.0145954 0.0280298 -0.0138774 -0.0321965 -0.0106929
0.0331256 -0.0303574 0.00130362 -0.015601 -0.00761569 -0.0359578 0.0239625 0.0293121 -0.0023814 0.023403 -0.0101334 0.00265031 -0.00624155
0.00664269 0.00948147 0.0320017 -0.0270892 0.0310196 -0.020977 -0.00920558 -0.0108745 -0.0255958 -0.0287742 -0.000648224 -0.0261457 0.00808111
-0.00229351 0.0253714 0.0421407 0.0317754 0.00437898 0.0325462 0.0335522 -0.0306995 -0.0328142 -0.0155717 0.00288084 -0.0134518 -0.0305115
0.0180007 0.0277782 0.034468 -0.00847782 -0.0310657 0.00984259 -0.0190942 0.0103119 -0.021372 -0.0144061 -0.0164726 0.000378632 -0.00269201
0.0358748 -0.0355539 -0.00816579 -0.0324161 -0.0187309 0.0379292 0.0101665 -0.0269879 -0.0210608 0.022971 0.00252932 -0.0227276 0.0236937
-0.017869 -0.0259461 -0.00126294 0.0307248 0.0171959 -0.0162501 0.00967067 0.0224049 -0.0252625 0.0253794 -0.0194818 -0.0118563 -0.0379214
0.0318863 0.0393043 -0.00858137 -0.0335569 0.033173 -0.0334105 -0.0292471 0.00984989 0.0199046 -0.000664507 -0.0245933 -0.0051725 0.0147969
0.00659795 -0.00100305 0.00882682 -0.00724106 -0.0221553 -0.00606026 -0.0311564 0.0131633 -0.00614757 0.0211184 -0.0242381 0.00472256 -0.000251213
-0.177137 0.194092 0.229834 -0.0923416 -0.195634 -0.00740078 0.0583464 -0.240407 0.0858278 0.271671 0.240928 -0.113736 -0.0850996
-0.00299583 0.0185289 0.00278873 0.0108052 -0.0123304 -0.000768443 0.0263307 -0.0384342 -0.013367 -6.16157e-07 -0.00159697 -0.0249831 -0.0312662
-0.0285098 -0.0190568 -0.00364951 -0.0255556 0.0365168 0.0153982 0.0120809 -0.0263705 0.0281538 0.00435867 0.0231893 0.00642833 -0.0302927
-0.028961 0.0198134 0.0214127 -0.0197515 -0.0212579 0.0154342 -0.0040641 0.00650333 -0.0198835 -0.0289495 0.00190711 0.00843786 -0.0277918
-0.00447741 0.000536644 -0.012279 -0.0193999 0.0260957 -0.0198079 0.0208015 0.00384394 0.00750178 0.00159122 0.0255698 -0.00706019 -0.00227838
-0.146609 0.0440744 0.155639 -0.0140019 -0.111655 -0.00292064 0.10827 -0.173064 0.0702991 0.123327 0.152617 -0.0301977 -0.0146406
-0.0180871 0.0364883 0.0871566 -0.00990166 -0.0233857 -0.00124755 -0.0118676 -0.10152 0.0393774 0.0525791 0.0638378 0.00778622 0.0113693
0.0317291 0.0143005 0.0200933 -0.00853401 0.0312089 -0.00704439 -0.0026762 -0.0362399 0.0339709 -0.0124005 0.044678 -0.0187085 0.0145605
-0.00685682 -0.00942488 -0.0281314 -0.0130575 0.00510752 0.0234584 -0.0142813 0.0284761 -0.0131769 -0.00728683 0.0182083 -0.0136495 -0.0148889
-0.0783996 -0.010252 0.00572846 -0.0353266 0.00158255 0.011416 0.0356345 -0.0785156 0.0483936 0.0658459 0.0909114 0.00741207 0.0130782
-0.00921666 0.0353049 -0.0156857 0.0129529 -0.0341076 0.015325 -0.0271734 -0.0311446 -0.00599259 0.0237164 0.0381721 -0.0360991 -0.0183713
-0.0329763 0.0291208 0.0311964 -0.00401162 -0.0165948 -0.00831548 -0.0239043 -0.00362517 -0.0110789 0.033783 -0.00821821 -0.00968467 0.00259747
0.00120997 -0.0129693 -0.0250408 -0.0080064 -0.0179684 -0.0375427 -0.00821836 0.0102496 -0.013446 -0.00621113 0.00130092 -0.0102226 0.0380621
-0.0274872 0.0341296 -0.0357254 -0.0300494 0.00057177 -0.0279614 -0.00452979 -0.031747 0.0163042 0.0156084 0.010695 0.0226136 -0.0201705
-0.00678914 0.02516 0.0123311 0.0360968 -0.0375283 0.00414396 -0.00276216 0.00107801 -0.00185489 0.00935263 -0.030767 -0.00949698 -0.0369224
-0.0112108 0.0304118 0.0151634 -0.0307964 0.0364509 0.0225628 0.00677894 0.0338378 0.0377618 0.0196911 -0.0353596 0.00636389 0.0317998
-0.0091589 0.0340398 -0.0278708 -0.0276198 -0.0097216 0.00566262 0.0256698 0.025739 0.0149567 -0.00716521 0.0341499 -0.0359104 0.0220278
-0.0626906 0.0498073 0.136601 -0.0394623 -0.119282 0.0379765 0.0222771 -0.125802 0.0521667 0.185661 0.131623 -0.0352415 -0.0107586
-0.0210281 0.0711767 0.0268237 -0.0350816 -0.0320314 0.0180024 -0.00670144 -0.0412233 0.0150329 0.095142 0.0746227 -0.00775154 -0.00888285
0.0240878 -0.00455891 -0.0291219 -0.0314042 -0.00144335 0.00912485 0.0246599 0.0181824 0.0319205 -0.000830024 0.0272823 -0.0235131 -0.0160085
0.0181517 0.0275097 -0.0321498 0.0337026 -0.0345834 0.0175596 0.0228774 0.0329574 -0.00728798 0.0392375 -0.00627691 -0.0250572 0.0242487
0.00222114 0.0353438 0.0543842 0.0113318 0.0135014 0.00980832 0.0225907 -0.0709836 -0.0090967 0.0418319 0.0491021 -0.0414104 -0.0447291
0.0132967 0.0113182 0.014939 0.0291459 0.0180625 0.0354403 0.0314828 0.026839 -0.0287322 0.0155173 0.00510162 -0.0268869 0.0295977
0.00878192 0.00685241 -0.0333969 -0.0130322 -0.0153028 0.0131391 0.00649342 -0.00246623 0.0280012 -0.00657885 0.00261565 -0.0215843 -0.0372273
0.0104601 -0.0336705 -0.0351201 0.00155677 -0.0266274 -0.0103481 -0.0014324 -0.0372628 0.0142361 0.00872383 0.0368028 0.00289867 0.00233747
-0.015218 0.0367934 0.000791747 -0.0066654 -0.0270552 -0.0293705 0.0111588 0.0255062 -0.0199643 -0.0112361 7.58106e-05 0.0137055 -0.0312485
-0.010184 0.00261615 0.0326086 0.0276713 0.0219749 0.0277047 0.00655643 -0.045498 0.0407866 0.017821 0.0306037 -0.0132963 -0.0314648
-0.0680634 0.0346747 0.123447 -0.0352814 -0.0879379 0.00262546 0.0474523 -0.102809 0.0378577 0.0994997 0.162375 -0.048687 -0.000344915
-0.00919016 -0.0139881 -0.0260119 -0.0314999 -0.0353043 -0.0176251 0.039521 0.0195529 -0.00573556 -0.00494647 0.0480551 0.00488885 -0.0112928
-0.00880447 -0.00434334 -0.00397925 -0.0070622 0.0248313 -0.00202002 -0.0250816 -0.0093578 0.0280676 0.00125484 0.0261444 -0.0366644 0.0210125
0.0149957 -0.0212643 0.0216257 0.00568783 0.0239589 0.0206047 0.00969688 0.0210427 0.00425112 -0.00133937 -0.0124136 -0.0272057 -0.0413157
-0.0409846 0.0464416 0.0510364 -0.0306272 -0.00977999 0.0244626 0.0467567 -0.0432037 0.0359641 0.0433225 0.0293223 -0.0255865 -0.0181879
-0.0244223 0.036269 -0.0127844 0.0303918 0.011117 -0.000434396 -0.0148362 0.0328967 -0.0271325 -0.0254844 -0.0106118 -0.0035743 0.023948
-0.0379459 0.0178823 -0.0290118 -0.00765879 0.00568319 0.0131384 -0.010798 0.0193081 0.0330725 -0.00614946 -0.00563189 -0.00399072 -0.0231422
-0.0270344 -0.0291665 -0.0205739 -0.000632655 0.00900508 -0.0126958 -0.0305176 -0.0164211 0.0377906 -0.00878213 0.0216841 0.00867168 -0.0237756
-0.00762068 0.0136218 0.00700498 0.0120163 -0.0348388 -0.0287464 -0.0170671 0.0251224 -0.0156618 -0.00296557 0.0401086 0.0251821 0.00133279
-0.0209099 -0.000680964 0.0223217 0.0151618 -0.00794593 0.0186922 -0.0145797 0.00623526 -0.00500082 -0.0145678 -0.0194841 -0.00127465 0.0347392
-0.0318766 0.0151709 0.0217399 -0.0263184 -0.0202949 -0.0383035 -0.00282962 0.030333 -0.000987092 0.0204948 -0.0256604 -0.029969 0.00373211
1.39076 0.924388 0.572857 0.337394 -0.295363 1.13165 -2.15867 -0.814356 1.23767 1.99809 1.18407 0.215345 -0.525282
-0.0124771 0.0374624 -0.0315873 -0.0290223 0.0103553 0.0305907 -0.00365011 0.00080663 0.0191804 0.0379899 0.0307565 0.0154966 -0.0115986
0.000322195 -0.00224547 -0.0335382 0.0097018 0.00506618 -0.0185849 0.028618 0.0194826 0.0148139 -0.031124 0.00836969 -0.0192572 0.00973913
0.00365788 0.0242514 0.0172451 0.00633671 0.021337 -0.00216518 -0.0371887 0.00548148 -0.00232889 0.0285393 0.0309269 -0.0114586 0.0143291
-0.0270734 0.0294572 0.0217772 -0.0231997 -0.0239851 0.0133497 -0.00274157 -0.00666726 0.0310148 0.0126335 0.0379298 -0.018716 0.0287137
0.00485225 0.00206964 -0.0154259 -0.0204509 0.000271274 -0.0370468 0.0177848 0.022128 -0.0121538 0.0364295 0.0296277 0.0278552 0.0106446
0.0266666 0.0130871 -0.032556 -0.0168151 -0.0134573 -0.0243485 0.00750426 0.0264449 0.00233182 0.0291608 0.00698005 0.026962 0.00664199
-0.0177078 0.00149925 -0.000608656 0.0348647 -0.018729 0.0126422 0.0295089 0.00251437 -0.0166863 0.0211652 -0.029871 0.0024713 -0.0277117
0.0208437 -0.0300359 -0.0124257 -0.0228147 -0.0169649 -0.0124744 0.0250179 -0.0274868 -0.0114337 0.0228116 0.026707 -0.0173704 0.0242436
-0.0461364 0.066911 0.0844783 -0.0283699 -0.0896008 0.0529614 -0.00354799 -0.116775 0.0164125 0.119957 0.0764705 -0.0486307 -0.025676
0.00774264 -0.0059488 0.0323931 -0.0238935 0.0253657 -0.00530219 -0.0164258 0.0187101 -0.0299315 0.0106748 0.0326354 0.016293 0.00378521
-0.00829558 -0.0331248 0.000520217 0.00892528 0.00806622 -0.0176838 0.0290138 -0.00295804 -0.00500116 -0.0282735 0.0320701 -0.0288672 -0.0168739
-0.0249388 0.00938355 0.0300003 0.0154136 0.00979752 0.0401022 -0.0257937 0.00505655 0.00113872 -0.00352413 0.0219826 -0.0146211 0.0092982
-0.00662726 0.0265801 0.0195262 -0.0239167 0.0175228 0.0343818 0.0142898 -0.00346662 -0.000630436 0.0113347 0.026319 -0.0375621 -0.017332
0.0147016 0.0053964 0.00234055 -0.00793242 -0.0358252 -0.000235289 0.0101775 0.0252977 0.0404775 -0.0141344 0.0404385 0.022544 -0.0284533
-0.03113 -0.010328 0.0484748 0.00910365 -0.0302209 0.02062 0.000789957 -5.29823e-05 -0.0291128 0.0467316 0.00723954 0.0238593 0.0100161
-0.0150161 -0.0263028 -0.01924 0.0288962 0.0326192 0.0258098 0.0266246 -0.0161326 0.0210184 0.0133498 -0.0232964 0.0276397 0.0129343
-0.0400803 0.00385393 0.0759209 -0.0221114 -0.0121203 0.0275747 0.0248704 -0.0265577 0.00167602 0.0331332 0.0187421 -0.0109358 -0.0132642
-0.0283759 -0.00363333 0.0270218 -0.00656074 0.000360728 -0.0278281 -0.0343976 0.0344644 0.0283517 0.0150814 0.00981014 0.00662661 0.0330086
-0.0214238 0.0273437 0.00879297 -0.0319068 -0.0175667 0.0150679 0.0216501 -0.054482 -0.00903032 -0.00252193 0.0359743 -0.0177594 0.0265049
-0.101762 0.0975297 0.143776 -0.0137083 -0.128693 0.00583702 0.0638056 -0.162046 0.115595 0.184744 0.194523 -0.0634888 -0.061428
0.00875445 0.0237059 0.0225391 0.0115496 0.0166776 0.00104927 0.0180289 0.011407 -0.0337279 0.00873483 -0.00513982 -0.0281543 0.0236296
-0.0890148 0.0547205 0.105537 0.00212756 -0.0606839 0.0224273 0.0793748 -0.155016 0.0341825 0.148959 0.117576 0.00222587 -0.00121856
-0.0130479 -0.00336012 0.00424717 -0.013457 -0.00543135 -0.0220673 -0.00593183 -0.0304848 0.00928202 0.00221853 -0.014465 0.0178819 -0.00678179
-0.0137375 0.00277407 0.0236899 -0.0271708 0.0198848 -0.0273933 -0.00879367 0.000261107 0.0270366 0.0253633 0.0580134 -0.0193612 0.0169366
-0.0737023 0.0620039 0.163916 -0.0266737 -0.118654 0.0305196 0.065831 -0.127293 0.0578692 0.120062 0.110173 -0.0342162 -0.0412463
-0.0136104 -0.0234179 -0.0349933 -0.0158313 -0.0310987 -0.0294789 -0.0142404 0.032284 -0.0101885 -0.0364358 0.0298335 0.0116626 -0.026913
0.0168588 0.00780032 0.0400019 0.0315543 0.000783526 0.00544808 -0.0310182 0.0194779 -0.00328908 0.0498111 -0.0210611 -0.0384393 -0.0231021
0.00521099 -0.01977 0.0256384 0.0308274 -0.0268638 0.0057815 -0.032989 0.0156255 -0.0244449 -0.00351519 -0.0196042 0.0243806 0.0244962
-0.0233202 -0.0104737 0.0214966 0.0374038 -0.0281794 -0.00372813 -0.0289589 -0.0352752 -0.0122705 0.0285519 -0.0361957 0.0113245 -0.00302666
0.0111892 0.0116315 0.0376387 -0.0310623 0.0261239 0.00488419 0.00345364 -0.00119519 0.0106094 0.0184362 0.0371533 0.00990262 0.0261652
0.0380515 -0.00843918 0.0165348 -0.0376175 0.00555666 -0.0355643 -0.0223222 -0.0312411 0.0186241 0.00367296 -0.0210313 0.0328919 -0.0176221
-0.0125593 -0.0187085 0.00418832 -0.0385394 -0.0321679 0.0137273 0.00401134 0.0217243 0.00969973 -0.0151284 -0.0298452 -0.0369452 0.0375066
-0.0456346 -0.0119792 0.00809553 0.00228675 0.0183429 -0.0246382 -0.0137991 -0.0361691 0.0337578 0.00624486 0.0363769 -0.00833882 0.00922643
-0.0362313 0.0464603 0.0635482 -0.0263332 0.0045034 0.0459502 0.0291708 -0.0635833 0.00429862 0.0448506 0.0390728 -0.0375623 0.0226256
0.0134452 -0.0174158 0.00212735 -0.0104976 -0.0334872 -0.00278982 -0.00744648 -0.0333366 0.0262182 0.030179 -0.0048485 0.0296679 -0.0165292
-0.0706647 0.0912583 0.0891683 -0.0535979 -0.0834449 0.0117776 0.00510308 -0.161187 0.055462 0.101229 0.12512 -0.0267329 -0.00711474
-0.00197013 0.0331888 -0.0256263 -0.0149949 0.0228435 -0.00266604 0.0219103 -0.00864441 0.0355892 0.00449464 -0.031087 -0.0231045 -0.0114699
-0.0671692 0.0236225 0.0618499 -0.0321057 -0.0638141 0.0341301 0.0230957 -0.0834395 0.0195915 0.0541755 0.121876 -0.0607852 -0.0626826
-0.164096 0.136872 0.164283 -0.0783364 -0.15992 0.0158312 0.155239 -0.25872 0.0434657 0.177508 0.252313 -0.0648272 -0.0241175
-0.00154396 0.00606524 0.00434778 -0.00884347 -0.0226897 0.0153902 -0.0121952 -0.0147338 0.015009 -0.0375985 -0.00626459 0.0320093 -0.0295055
-0.133134 0.106499 0.213706 -0.0434753 -0.121215 0.0192681 0.0747539 -0.14622 0.049802 0.189481 0.161406 -0.0453954 -0.0494414
0.0134397 -0.011221 0.021568 0.026444 0.000678542 0.0226359 -0.0331213 -0.0029838 0.0223149 -0.0191345 0.0174227 0.00165026 0.00469015
0.00726494 -0.0249928 0.0235954 0.00371366 0.00174233 0.0165625 0.0129747 -0.0164587 0.0421206 -0.00389496 0.00906862 -0.0204027 0.0142358
-0.0925594 0.125768 0.124479 -0.0500375 -0.0989835 -0.013938 0.0511699 -0.179522 0.0534619 0.165686 0.189324 -0.0604403 -0.0337178
0.0346809 0.0274394 -0.0332461 0.00772654 -0.00563266 0.0318518 -0.027877 0.0356017 -0.00998381 -0.0146268 0.0250736 0.0340275 -0.0236142
0.0247429 0.00585524 -0.0232734 -0.0364034 0.0318407 -0.00995943 -8.83651e-05 -0.0228272 0.0363388 0.0304934 -0.0191895 0.000674771 -0.00365552
-0.202985 0.151067 0.265358 -0.109103 -0.211736 0.00539948 0.109543 -0.266911 0.0858019 0.244646 0.253242 -0.11145 -0.108911
0.0173077 0.0337176 -0.0263375 -0.0249577 0.0136914 -0.0233438 0.0225468 0.0078827 0.0116997 0.0255504 0.00241911 -0.0150186 0.0126622
0.334308 0.473345 0.213158 0.0938506 -0.0972465 0.292505 -0.881193 -0.258054 0.57444 0.976736 0.332062 0.0588344 -0.333379
-0.788496 0.688466 1.33179 -0.251375 -0.755702 -0.572307 0.694016 -0.673364 0.281838 0.548416 0.85709 0.0862821 -0.223067
-0.0100998 0.0241266 0.0347647 -0.000835957 -0.0112063 0.00768229 0.0380461 -0.0155177 -0.00141277 -0.0180965 0.0324474 0.0238667 -0.0388581
0.0214609 0.0369132 -0.0184325 0.0169929 -0.0153758 -0.0298321 0.0159679 -0.0295121 0.019497 -0.0102167 -0.000589826 0.0198762 0.00192505
-0.0225306 0.0355937 0.0580659 -0.0417483 -0.0189187 0.0178961 0.0305619 -0.00655462 0.0476193 0.0179354 -0.00257172 -0.0145287 -0.0260651
-0.0223626 -0.0172667 -0.0337992 -0.0126866 0.0318694 -0.0213892 0.00354066 -0.0336356 0.0203504 0.0374707 0.0113173 -0.0186977 0.0283885
-0.00593047 0.00549811 0.0440592 0.0329545 -0.0104507 0.00843243 -0.0174582 -0.0289093 0.00672046 0.0188354 0.0441538 -0.0275681 0.0121508
-0.00818099 0.0279318 0.0270133 -0.0367823 0.00634321 0.0375804 0.0154384 -0.00900375 -0.00616727 0.0143804 0.0124248 -0.011704 -0.00995447
-0.0327023 0.0328981 -0.0246459 0.017607 0.0242765 0.0322683 0.0349938 0.0334263 -0.0378469 -0.0254562 0.00835802 -0.00338879 0.0373763
-0.0245132 0.0335432 0.0240816 -0.0368974 -0.0297099 -0.0125404 -0.0370874 -0.00718824 0.00141736 0.0263486 -0.0143349 0.0281088 0.0130699
0.027308 -0.0236621 0.0351086 0.0284608 0.00946522 0.000398396 -0.0126093 -0.00317703 0.0106405 -0.0121179 -0.0285308 1.58087e-05 -0.0316273
-0.153364 0.091839 0.10892 -0.0698002 -0.145619 0.0292846 0.110553 -0.231293 0.0922613 0.176787 0.193179 -0.0931399 -0.051783
0.0312928 -0.0204094 0.0205323 -0.00191342 -0.00843314 -0.0197024 -0.0233512 -0.0204661 0.033807 -0.031948 -0.0296761 -0.00635104 0.00105883
-0.00400598 0.0169241 0.0203749 -0.0183271 -0.0032633 0.0186406 -0.0366322 -0.00680401 -0.0147384 -0.024528 -0.0074276 0.00917866 -0.00181718
0.0224616 -0.0120043 0.0252444 -0.00589191 -0.02753 -0.00788604 -0.0129888 0.0174589 -0.0353889 0.0210753 0.0336353 0.0243224 -0.02878
-0.0223569 0.0659218 0.0102647 0.0156963 -0.00405743 0.00557379 0.00248292 -0.0696214 0.0710095 0.0558381 0.0279244 0.0221562 -0.0296655
0.00520707 -0.0113107 0.0241186 0.0315004 -0.0119215 -0.00599701 0.00306276 -0.0127901 -0.00785302 -0.00140909 0.0392954 -0.0116057 -0.00466688
0.0271709 -0.00573477 0.020447 -0.0026668 0.00852208 0.014459 -0.00398905 0.0223974 0.0388207 0.00327671 0.0188952 -0.00968456 0.0239309
-0.0305139 0.008082 -0.0224127 0.034846 -0.0146815 0.0377591 -0.0313621 -0.019827 0.0374206 -0.0214152 0.00143436 -0.00687626 0.00375738
0.00749135 -0.0232079 -0.0132377 -0.0401628 0.0107948 -0.0247223 -0.00708133 -0.0333013 -0.022717 0.0100782 0.027088 0.0209159 0.0297272
-0.000305816 0.0309776 0.0127598 0.031254 -0.0315433 -0.0326504 0.0127187 -0.0390788 0.0127155 -0.0236285 -0.00732973 -0.0213083 0.00101633
-0.0849889 0.0911122 0.0887912 -0.0136738 -0.100288 -0.00167557 0.0872712 -0.146877 0.0382147 0.175253 0.141169 -0.0469037 -0.00671612
0.0164919 0.00850967 0.0180911 0.013307 0.0073798 -0.0245923 0.0159916 -0.00147695 -0.0065355 0.0220086 0.0156635 0.00498904 -0.0359716
-0.0144161 -0.00879464 0.0318203 -0.00793591 0.0296457 0.00235396 0.0152483 -0.0162358 0.0320697 -0.0282431 -0.0159816 0.015893 0.0323642
-0.0155583 -0.0169224 -0.000490762 -0.0076043 -0.0331717 -0.0221384 0.0358346 -0.0021446 -0.0213222 0.000679508 -0.0203429 -0.013844 0.0313247
0.0132995 0.0426758 -0.0154863 0.0314561 -0.0134343 -0.016739 0.0327943 -0.0337725 -0.0200504 0.0263946 0.0278026 0.00960714 0.0300891
-0.0272422 0.0253966 -0.0309571 0.00297018 -0.0319368 -0.0232849 0.00348752 0.00323777 -0.0228577 0.0165037 -0.0260519 -0.0340946 -0.0347067
0.0130996 0.0258567 0.0113179 -0.0187722 0.00710414 0.0262764 -0.0155445 0.0332106 0.0310678 -0.0293748 -0.01997 -0.00889789 0.0034224
-0.328367 0.186581 0.393333 -0.0745236 -0.284673 -0.13763 0.259232 -0.286478 0.098732 0.212092 0.307189 0.000271463 -0.124205
-0.00751631 -0.0313878 0.0114048 -0.0129084 0.0321055 -0.0170325 -0.0368128 -0.0467267 0.00291491 0.00254502 0.00374811 -0.0128039 -0.00791045
0.0159538 0.0206755 0.0145423 -0.0225297 -0.0251098 0.0127025 0.00283569 0.0230028 -0.000765612 0.0119978 -0.0323109 -0.0279574 -0.00122241
0.00832881 0.0425438 0.0681496 -0.0300715 -0.0115879 -0.00546956 0.0508562 -0.0680684 0.0103867 0.00708856 0.0237464 0.0157009 -0.0277866
-0.022772 -0.00426409 0.0155043 -0.0201282 -0.0162291 -0.0273704 0.00894201 0.0326221 0.01266 -0.0261958 0.0221619 0.0319888 0.0203908
0.0246508 -0.0217983 -0.0166266 -0.0153667 0.0239213 -0.0209156 0.0370185 -0.0268559 0.0376405 -0.0039308 -0.00367837 0.00764023 0.0241232
0.00553256 -0.00856342 -0.0227805 -0.00132979 0.00683226 0.0316696 0.0257936 -0.0293397 -0.006046 0.0311239 -0.0201094 0.0248173 -0.0390043
-0.0200666 0.0158498 -0.0076023 -0.0255362 0.00757256 0.0262893 0.0146278 -0.0396802 -0.00472031 0.0270357 0.0591248 -0.0377256 -0.0349995
-0.0155132 -0.0230967 -0.0264836 0.000698282 -0.0303762 -0.0329928 -0.0250214 -0.0260361 -0.0193614 0.0390922 0.0291647 -0.00089257 0.0379822
0.00502924 0.0364237 -0.0362149 -0.0300646 0.00675695 -0.022869 -0.0192972 0.0227377 -0.00370378 0.0133212 -0.0136187 0.016288 -0.0222988
-0.0318425 0.0454512 0.05909 0.0118789 -0.0211803 -0.0152373 -0.0278978 -0.0608566 0.0014109 0.0723107 0.0534151 -0.0293597 -0.0519055
-0.00435093 -0.0287941 -0.00782192 0.0261279 0.0150407 0.013357 -0.0204801 0.0045359 0.0342296 0.0228751 -0.0107146 0.0168049 0.0319305
-0.0898475 0.0579903 0.124191 -0.0474977 -0.102965 -0.00825972 -0.00721584 -0.110625 0.101063 0.198452 0.163055 -0.0409468 -0.0743195
-0.00131856 0.0398183 0.0257584 -0.00622445 -0.0382214 0.0289692 0.0347975 -0.0660353 0.0340462 0.0667515 0.0681212 -0.026502 -0.0212629
-0.00815479 0.0381708 -0.00627957 -0.0229253 -0.0017733 0.00412628 0.0186425 0.0312286 -0.0351152 -0.00862818 0.0177781 -0.00081813 0.021216
-0.0219394 -0.0340506 -0.0178052 -0.0215571 0.00733263 -0.0160504 0.0123177 0.0284647 -0.0177063 0.00805499 -0.0292272 -0.00909216 -0.00813698
0.0243695 0.00147939 -0.0240294 0.0130748 -0.027773 -0.0289329 -0.0339539 0.0231157 -0.0301577 -0.025 0.0293146 -0.0139325 0.00237793
-0.027187 0.00379561 0.00811498 0.0279503 -0.0133095 -0.00738808 0.0252343 -0.0288911 0.00913383 -0.011494 0.0108103 -0.0370123 0.0257463
0.011933 0.0233969 0.0218624 0.0284763 0.010298 0.0355586 0.0289292 -0.00454639 0.00240786 0.000142235 0.000746573 0.0130438 -0.0263218
-0.00375188 -0.00872101 -0.017032 -0.0164481 0.00600125 0.0150723 -0.0351387 0.00268079 -0.0371017 0.00725759 -0.0223945 -0.00839532 -0.0234874
-0.0350429 -0.0219325 -0.0129956 0.0261492 -0.0401076 -0.0108812 0.0272329 -0.0424715 0.0110792 0.0280318 0.0236541 -0.00085731 0.0131331
-0.0433394 0.0230357 0.0603115 0.0129038 -0.0327385 0.0324613 0.019014 -0.038222 -0.00434221 0.0322037 0.0766635 0.0168393 0.0120239
-0.0111289 0.0131809 0.0231997 0.00188221 0.0040314 0.0386482 -0.00935926 -0.0525983 0.0136331 0.0497761 0.0331377 -0.00796347 -0.0440263
-0.0465 -0.0259337 0.0422957 0.019342 -0.0253405 -0.0107301 0.0319606 0.0190044 -0.0158956 0.0350532 -0.0176788 -0.00895838 -0.0103426
-0.0328251 0.009468 0.052805 -0.0506799 -0.0648529 0.0356212 0.0331293 -0.0954194 0.0553768 0.0937229 0.103163 -0.0404912 0.00155281
-0.00852865 -0.0145632 0.0186737 0.0328639 -0.0114948 0.0268037 0.0174287 -0.00883256 -0.0361929 0.0206175 0.0350067 -0.0369499 0.0185281
-0.0280806 0.00888473 0.0224559 0.00261347 0.00329129 0.0343523 -0.00646539 -0.0373476 -0.00467354 0.0529432 0.0243239 -0.00887672 -0.00453612
-0.132788 0.108401 0.115814 -0.0133519 -0.109474 0.00744142 0.0655761 -0.21336 0.0907319 0.153472 0.184466 -0.037142 -0.0707106
0.0122894 0.0103569 0.0295385 -0.0127649 0.00170969 0.00553666 -0.0333305 0.00640375 0.00421581 0.00825529 -0.0338395 0.00965708 0.00205789
-0.023905 -0.0166166 0.0143443 0.0114437 -0.0271739 0.00167234 -0.0375192 0.0287821 -0.0242594 0.00353391 -0.00365169 0.0151022 0.014116
-0.0325297 -0.0292967 0.0441991 0.0309749 -0.00657565 0.0297399 0.0231953 -0.0142505 0.017888 0.00521895 0.0100566 -0.0370943 -0.0139298
0.025808 -0.000453088 -0.0243712 0.00427986 0.0195789 -0.0119795 -0.0206014 -0.0317657 -0.001573 0.0146369 0.0431463 0.00745995 -0.0198466
-0.0189893 -0.0196114 0.00424544 -0.0194476 0.000739506 -0.00371285 0.0303809 0.0251652 0.0344668 0.0272344 -0.0245548 -0.00253961 0.0186873
-0.195814 0.167978 0.264227 -0.0447872 -0.177755 -0.0256271 0.16904 -0.299252 0.0897617 0.244171 0.210909 -0.0869817 -0.0542997
0.00570294 -0.0236684 0.0014112 -0.00368437 0.00733247 0.0191124 -0.0201026 -0.00762143 -0.0205776 -0.00489049 -0.0154412 -0.0352438 0.0120404
-0.0107939 0.0253794 0.0366711 -0.0186618 -0.00592437 -0.0139205 -0.0276557 -0.00608765 0.0042626 0.0193848 0.0402642 -0.0206414 -0.039533
-0.0527678 0.0067177 -0.0140593 0.0110214 0.0128043 0.0402587 0.0370918 0.00205749 -0.00365798 0.00660774 0.044831 0.0138979 -0.0403224
0.0331866 0.0257642 0.0372974 -0.0345653 -0.0320302 0.0247192 -0.0270832 0.0173973 -0.0198855 0.0103995 -0.010966 -0.0223179 0.0248687
-0.0119733 0.0173774 -0.0102363 0.0119001 0.00548909 0.0179593 0.00940845 -0.00250424 0.0265156 0.0293771 0.0122874 -0.0233916 0.0298845
-0.0194317 0.0246344 0.0421267 -0.000373767 -0.0136025 0.0397011 0.00867919 -0.0197345 0.0305431 -0.000979653 0.0559111 0.0101866 -0.0265813
-0.0306236 0.0120116 0.0173326 -0.00437867 -0.0185229 0.0164562 0.0371962 0.0307837 -0.0133081 -0.0071408 -0.021681 0.0364286 -0.036309
-0.0350143 -0.0123803 -0.00414618 -0.0183131 -0.00676602 -0.00251671 0.00746157 -0.0389143 0.0221657 -0.0269737 -0.010022 -0.0026168 0.0163552
0.00302946 0.0227281 -0.0272905 -0.0111638 0.0355635 -0.0355051 0.0360478 0.0180908 0.0318562 -0.0315096 -0.0143993 0.0173242 -0.0388093
-0.0684898 0.0803708 0.112299 0.00717598 -0.0801613 -0.00500176 -0.00397741 -0.0991703 0.0121317 0.0917916 0.0732134 -0.0377013 0.00507511
-0.0130869 0.0120454 -0.0284019 -0.0359475 0.013257 0.0129037 0.00145101 -0.00112505 0.0335174 -0.00539276 0.0415795 0.0269314 0.0157195
0.00504983 0.00329564 -0.0037165 -0.0160009 -0.0175023 -0.0177456 -0.0360073 -0.0377086 -0.0140281 0.0219274 0.028293 0.0190098 0.030109
0.0222246 0.0210451 0.0317377 0.0197058 0.0193714 0.0108311 0.032309 -0.0310855 0.0289352 -0.0336434 -0.00312356 -0.0241423 -0.000603601
-0.0670093 0.0587685 0.0167743 -0.012036 -0.058534 0.0123176 0.00552678 -0.0502305 0.043957 0.0400427 0.0860044 0.0268656 -0.0200271
-0.0440061 0.0749034 0.0822014 -0.0279624 -0.0799931 0.0227172 0.0203561 -0.145377 0.0102752 0.0527727 0.1148 -0.0338511 -0.00727286
-0.0315566 -0.0195598 0.0135521 -0.000883827 -0.000171901 0.0442125 -0.0152383 -0.015105 -0.0042117 0.0668038 0.0443289 -0.014034 0.00644017
0.0065746 0.031187 0.0134487 -0.000513098 -0.00838914 -0.0238927 0.0184678 -0.00667797 -0.00952508 0.0225685 0.0115043 -0.018348 0.00468954
-0.133945 0.10607 0.145675 -0.0211323 -0.108377 -0.0144214 0.107101 -0.0915169 0.011439 0.0650959 0.13354 0.0210157 -0.0198342
0.0166783 -0.0253455 -0.002331 0.0200511 0.00607432 0.0265341 -0.0355437 -0.0165556 0.0289535 0.0317162 0.034975 -0.0382788 0.00982505
-0.00580608 0.0204082 0.0425299 -0.0271052 0.0036507 0.00583419 -0.0269836 -0.0481677 0.0230239 -0.0197368 0.0316069 -0.0220058 -0.00538861
0.037497 -0.0281353 0.0012543 -0.011925 0.0113416 0.0218189 0.00142161 0.00488374 0.014043 0.00983304 0.0136351 0.023416 -0.0122421
-0.0204751 -0.0368744 0.030432 0.00454273 -0.0063328 -0.0378088 -0.0283332 -0.00675259 -0.00207472 0.0126548 -0.0204534 0.0292527 0.0225703
0.009975 0.02616 0.0130369 0.0208317 -0.0417123 0.0370757 0.0099829 -0.0200035 0.0180646 -0.0113323 -0.00101411 0.0235763 0.0203606
-0.406636 0.265331 0.570528 -0.0887773 -0.341304 -0.291701 0.338618 -0.316246 0.113841 0.233495 0.361925 0.0243977 -0.0984766
0.00598048 -0.023292 -0.00788795 0.00847728 -0.0288235 -0.0321749 0.00678226 0.0124173 0.0248883 -0.0285657 0.003687 0.00965991 0.0233755
-0.161105 0.183438 0.264439 -0.0809306 -0.216089 -0.00248727 0.0900892 -0.287374 0.0847292 0.285555 0.257126 -0.0893149 -0.0616155
-0.0171764 -0.00375835 -0.0171982 0.0187443 -0.00803302 -0.0267584 0.0285277 -0.0230567 0.020476 0.033423 -0.024708 0.033338 0.00498311
-0.0097978 0.0668399 0.0498596 -0.0368843 -0.0453376 0.0130684 0.0450684 -0.0213216 -0.0101965 0.0281858 0.0316485 -0.0289457 0.0134339
0.00227552 0.0079773 -0.0140002 -0.00181267 -0.0283173 -0.0122256 -0.00563171 -0.0278052 0.0175153 -0.00674107 0.0049834 -0.0356919 0.00932812
0.0150367 0.015624 0.00151206 -0.0103222 -0.015813 0.0258096 0.00807291 0.00640291 -0.00564501 0.0434256 0.0036256 0.0231046 -0.00623584
-0.037797 0.0240506 0.0359247 0.0359397 -0.00139756 0.0263117 -0.0255253 0.00705018 0.00590825 0.00735483 0.0203426 0.0334693 0.0282775
0.251326 0.256149 0.0850806 0.0545474 -0.0612493 0.329043 -0.501383 -0.176096 0.337873 0.517558 0.275521 0.0457357 -0.146947
-0.00155679 0.016815 -0.0155303 0.018048 -0.0203008 0.000160755 -0.0164993 -0.0386428 -0.0195452 0.0027197 0.0325788 0.00444414 -0.015627
0.0178604 0.00717309 -0.0238881 -0.0259792 -0.00852734 -0.0373639 -0.0154721 0.00589389 -0.00593802 -0.00595894 0.0140993 -0.0288738 -0.0182429
0.00622581 -0.0184543 0.0120907 -0.032808 0.0348509 -0.0121082 -0.0186034 0.0317877 0.0394091 -0.0323189 0.0210051 0.0361071 0.00652026
-0.0292604 -0.0281625 -0.0222298 -0.0158043 -0.00623735 -0.0169477 0.0175556 -0.0346316 -0.00931286 0.00473207 -0.0290691 -0.0238046 -0.0194617
0.0195526 0.00175998 -0.00978976 -0.0222269 0.0177432 0.0306898 -0.0265862 -0.00870663 -0.0262708 0.0287096 -0.0177581 0.018222 -0.0110212
0.00565655 0.0390804 0.00718619 0.0012109 -0.0476088 -0.0193537 -0.0135919 -0.0186725 0.0435575 0.0193485 -0.00583543 -0.0463293 0.0254277
-0.00364591 0.0195724 0.0112984 0.0186308 0.00169042 -0.00455665 -0.0175922 -0.0415855 0.00971727 0.0576011 -0.0111479 0.0321471 0.029186
-0.085304 0.0408422 0.100169 -0.0267732 -0.0801914 0.0155921 0.0525375 -0.127734 0.0604477 0.143609 0.090877 -0.0574614 -0.0316521
0.0162392 0.00263049 0.000359368 -0.00700096 0.0178521 0.0347254 0.0211537 -0.00377666 0.0294938 0.014616 -0.0149914 -0.0182487 -0.0114816
-0.127606 0.0794288 0.109081 -0.0482277 -0.0561384 0.0196624 0.0175399 -0.184547 0.093793 0.132994 0.124103 -0.00866113 -0.0748021
0.0264826 0.0210349 0.0260352 -0.030137 -0.0385545 0.0226461 -0.0340007 0.00234446 -0.0122506 -0.0162582 -0.0215894 0.0296875 0.0064572
-0.00141134 0.0389806 0.0188454 0.00257293 -0.0318286 0.0283879 -0.0019896 -0.0161897 -0.0328174 0.0393407 -0.0135667 -0.0128292 -0.0110792
0.00326914 -0.0219195 0.0211003 0.0145639 -0.0193871 0.00828182 0.0126886 -0.0485134 -0.0227126 0.0524311 0.00577682 0.0289922 -0.0377147
-0.029412 0.0252273 -0.0265752 -0.0233601 0.0113777 -0.00164131 -0.00345376 0.0066524 0.0344885 0.0266587 -0.0327176 0.00527595 -0.0379493
0.0122708 0.0529119 0.0378977 0.00920351 -0.0158174 0.053962 -0.022787 -0.0224164 0.0524196 0.0640508 0.0469207 -0.0244476 -0.0474011
0.0126851 0.0267376 0.00713518 0.0101285 0.00031452 -0.0363322 -0.0344266 -0.0259652 -0.0208775 0.0052834 -0.0148736 -0.0271256 0.0210655
-0.109775 0.0671593 0.154025 -0.0427028 -0.128716 0.0369475 0.103489 -0.254952 0.0843308 0.145344 0.230657 -0.0212366 -0.0227875
-0.120242 0.0663745 0.113894 -0.033336 -0.0713688 0.0728042 0.0793211 -0.211321 0.0887688 0.14466 0.184205 -0.0182788 -0.0412568
-0.0280006 0.00204325 0.0204863 0.000271973 0.00434445 -0.0320727 -0.029234 -0.0387603 0.00583884 -0.0259086 -0.00602808 0.0198617 0.0293128
-0.181307 0.0794924 0.16183 -0.0346693 -0.120004 0.0123068 0.0988961 -0.25012 0.0921572 0.174558 0.244457 -0.0620201 -0.023635
-0.107706 0.115065 0.163688 -0.0357969 -0.0941859 0.0195708 0.0325628 -0.197233 0.0490262 0.195588 0.161815 -0.0605912 -0.0817872
-0.00543755 0.0200385 0.0293613 -0.0049167 -0.00991417 -0.00334925 0.0114474 0.00145866 0.00133675 -0.0177916 -0.0176518 0.0332748 -0.0375791
0.0268399 0.0311336 -0.0296641 -0.0027219 0.00410992 -0.00895392 0.00746826 -0.00448518 -0.0159045 -0.00567148 -0.0120519 0.0234231 -0.0147135
-0.100734 0.0522439 0.125406 0.0158451 -0.0843546 -0.00380931 0.0462414 -0.156443 0.0809496 0.151098 0.14537 -0.0388574 -0.0642044
-0.148451 0.0901926 0.228573 -0.0916464 -0.143027 -0.0353073 0.130771 -0.209589 0.072491 0.145043 0.218822 -0.0658206 -0.0970752
0.024826 -0.0200062 -8.78288e-05 -0.0308661 -0.0173796 -0.0138516 0.0196137 -0.0127374 -0.0291229 -0.00882148 0.0143127 -0.0216157 -0.0145495
-0.234225 0.0414905 0.137958 -0.0141183 -0.118739 0.0377119 0.125894 -0.260442 0.0795184 0.216118 0.234849 -0.126451 -0.0518019
0.0149038 0.00727597 0.032145 -0.0170169 0.00243773 -0.028549 0.0383743 -0.0121768 -0.0097033 -0.0294222 0.0376567 -0.0178791 -0.020383
0.0263565 0.0246206 0.0365596 0.00507476 -0.0304952 0.00951814 0.000542026 0.0255434 -0.0314376 0.00141483 0.0433925 0.0121122 -0.0180414
0.0133836 0.00482303 -0.0234208 0.00700087 0.0126558 0.0229405 -0.0315509 -0.0285412 -0.00773233 -0.0199513 -0.0322761 -0.0373331 -0.00476369
-0.0118706 0.0109845 0.0099559 -0.00899745 0.0311658 -0.0184433 -0.0101309 -0.0382166 -0.00272276 -0.0222377 -0.0061297 -0.0118632 -0.0246824
0.0146384 0.0239894 0.00875226 -0.0124495 -0.00473605 -0.0269798 -0.0167441 -0.0297813 0.0142497 0.0314279 -0.00457359 -0.0104093 0.0120179
-0.030529 0.0468272 0.0310039 -0.0222941 -0.0131972 0.0426691 0.0250776 -0.0567368 0.0476831 0.0609085 0.0914955 -0.00138763 -0.0464357
-0.0451362 -0.0121442 0.041522 0.0128966 -0.0116354 -0.0329733 -0.0233413 -0.0145747 0.0370435 -0.0110629 0.0468924 -0.00536626 -0.00691076
-0.0175796 0.00635989 0.00762988 -0.0328624 -0.0289718 0.00239026 0.00423256 0.0258084 -0.0164253 0.00944975 -0.00460686 -0.013934 -0.0113287
-0.125672 0.0801029 0.126251 -0.0353344 -0.0708497 -0.00531532 0.106077 -0.145735 0.0815934 0.129663 0.147234 -0.0447114 -0.049055
-0.0359762 0.0361443 0.0408106 0.00866031 0.00792374 -0.0105918 0.0158014 -0.0279181 -0.0123715 0.0291088 0.00245084 0.00952655 0.0113629
-0.185642 0.0821808 0.20223 -0.0242284 -0.16218 -0.0214591 0.157232 -0.24613 0.0871039 0.181783 0.169215 -0.0256967 -0.0441628
0.00898318 0.0144309 -0.0195653 0.000907695 0.0122763 0.0381483 -0.0237396 -0.0175732 -0.0161403 -0.00994339 0.0241617 0.0226528 0.0322806
-0.026286 -0.0153681 -0.0231288 -0.00903566 0.0116346 -0.0154466 0.0127344 0.0319527 0.000136979 0.0160479 0.0324471 -0.0358002 -0.0355421
-0.0347203 0.0335516 0.029698 -0.0359543 -0.000989615 -0.000206033 -0.00502345 0.0177414 -0.0295364 0.00674322 0.00348493 0.021339 -0.0363578
-0.00238772 0.0777181 0.0738009 -0.0417104 -0.0573917 0.0322897 -0.0133275 -0.0801871 0.0668419 0.110572 0.0805895 -0.0181276 -0.00411917
-0.0165348 -0.0298744 -0.00239541 0.00274616 0.0317675 -0.00366902 0.011835 0.00690257 -0.00495825 0.0195229 -0.0130402 0.00593738 0.00778772
0.0175244 -0.0106867 -0.00594661 0.0269385 0.0319488 -0.00735151 -0.0108856 -0.0447233 -0.0246328 0.0134102 0.0291605 -0.0151897 -0.0223927
0.00119998 -0.0210498 -0.00364139 0.0353201 -0.0301723 0.0117053 0.0145798 -0.0402308 -0.0317797 -0.0275208 0.0282772 0.0094308 -0.0169069
0.0256536 -0.0154649 0.0232511 0.0158061 -0.00298055 -0.00704053 -0.00461111 0.0147476 0.00210636 -0.0204804 0.00717494 -0.038645 0.0341157
-0.0431874 0.00266112 0.0125772 -0.00487062 -0.0094944 0.0154173 0.0101333 0.00117337 0.00775645 0.00621798 0.0440102 -0.0364166 -0.0176876
0.00850179 -0.0216448 -0.0122091 -0.0244031 -0.018573 -0.0224527 0.00980181 -0.0174386 -0.0185388 -0.00111546 -0.0207743 -0.0302822 -0.0351616
0.0148571 0.021486 0.00111795 -0.0303347 0.0260083 -0.0321705 -0.0122077 -0.028838 0.0258151 0.0183096 -0.0352758 -0.0183611 0.0274951
0.0218286 0.0177758 0.0305311 -0.000977964 0.0252411 0.0198877 0.00715991 -0.0341308 -0.0161985 0.00227964 0.00329596 0.0121062 -0.0188283
-0.00337258 -0.0283686 -0.0151631 0.0193109 0.013626 -0.0367386 0.00393763 -0.0240638 -0.0257194 0.0235666 0.00900527 0.0300158 -0.0244942
0.0217391 0.0161321 0.028441 -0.00307452 -0.0383425 -0.00311514 -0.0321243 -0.035604 0.0081711 0.0506009 -0.0065164 0.00211566 -0.029399
-0.0335658 0.0438768 0.0330954 -0.0371635 -0.0650744 -0.00366149 0.0160722 -0.03133 0.01247 0.0826273 0.00934404 -0.0334317 -0.0124715
0.0151993 0.00647329 0.0616539 -0.0116764 -0.0154001 0.0393912 -0.0141516 -0.0216031 0.0307757 0.0417517 -0.00286535 0.0073877 -0.00897022
-0.0116918 0.107528 0.122795 -0.0465715 -0.106659 0.0638683 -0.0384621 -0.128637 0.0937258 0.180102 0.13725 -0.0320179 -0.094583
-0.0933041 0.0784925 0.0430125 -0.00346602 -0.0549011 -0.00116113 0.0381628 -0.0759017 0.0260909 0.0559583 0.119245 -0.0158422 -0.0217047
-0.0355383 -0.00727896 0.0164726 0.0129385 0.0167471 -0.00936153 0.0108212 -0.0442364 0.0151888 0.0621535 -0.00232088 -0.0167246 0.00150882
0.0275588 0.0196879 0.020103 0.0305069 -0.029637 -0.0301284 0.000319827 0.0193871 0.0113498 -0.00238425 0.0327825 0.0251531 0.0133708
-0.0396215 0.0338689 -0.0238621 0.00741544 -0.012755 0.00568675 -0.00308563 -0.0405158 -0.0296644 0.0150146 -0.0241894 -0.00935928 0.0104697
0.0310643 0.0307312 0.0172943 0.027351 -0.0164079 0.000554457 -0.0250831 -0.0377664 -0.00600137 -0.0311774 -0.000667198 0.0202695 0.0083543
-0.0200456 0.040078 0.0301175 0.0165663 -0.0640913 0.0398645 0.0230452 -0.0283658 0.0371144 0.0796408 0.0359893 0.000191782 -0.0074621
0.00152326 0.00116344 0.0371813 -0.0122571 0.0022885 0.0347253 0.00955224 0.0324846 -0.0306025 0.0111508 0.00334986 0.0103956 -0.0191693
-0.00288517 0.00890561 0.0743228 0.0262256 -0.0300849 -0.00627309 -0.013604 -0.0419719 0.0181475 0.0129769 0.0882658 0.00528713 0.0227692
-0.0169104 0.0403683 0.0144202 0.0279631 0.000612661 -0.00523082 -0.0221544 0.0170834 0.0161134 0.00125563 0.0124259 -0.0342479 0.00421505
-0.00669628 -0.0194817 -0.0170533 0.0175523 -0.0362135 -0.0181043 -0.0333165 -0.00703733 -0.0117849 -0.0138229 -0.0220111 0.00264583 -0.00634451
-0.016221 -0.0221423 0.0405721 -0.0330656 -0.0389797 0.0139408 0.0296068 0.0100714 -0.0191981 -0.0085641 0.0421128 -0.0185669 -0.0101395
-0.180741 0.116947 0.186834 -0.0659288 -0.168734 0.0371323 0.195285 -0.303737 0.0317438 0.196437 0.2063 -0.107785 -0.098272
-0.0206702 -0.0145731 0.0511985 -0.0410204 0.0124605 0.0196837 0.0232927 -0.0207973 -0.0163387 0.00436177 0.0356207 -0.0116624 -0.0348735
-0.0156508 -0.0185501 0.00860895 0.00423054 -0.0385401 -0.0291935 0.0121142 0.0270437 -0.029622 -0.0288568 -0.0163979 0.0254747 0.0148687
-0.0356239 0.0233933 -0.00658165 -0.0164172 0.0338821 0.0350578 0.00548242 -0.0258457 0.025771 0.0132827 -0.0324239 -0.016534 -0.00200777
-0.0413104 -0.02727 0.0457138 0.0226994 -0.0231199 0.0178861 -0.00352346 0.0204995 -0.027919 -0.00453849 0.0344276 -0.0294243 0.0271011
-0.0415185 -0.02175 0.00477123 0.0302038 0.0155958 -0.0192713 0.0266952 0.0181199 -0.0150148 0.00776247 -0.0232356 -0.032638 0.0043812
0.0219265 -0.0088117 0.0126276 -0.0273848 0.0312533 0.00696346 0.0162707 0.018906 -0.0184886 -0.00686467 -0.0299721 -0.0145894 -0.0139336
-0.0256359 -0.0240987 0.0534507 0.0195027 -0.0561072 -0.0308987 0.0255492 -0.00060376 0.0408666 -0.00296308 0.0558917 -0.0435062 0.012751
0.00852043 -0.0144592 0.0323661 0.0238041 -0.0244176 0.0120279 -0.0248842 -0.0123651 0.00161458 0.0200474 -0.0152047 0.0245827 -0.0271874
-0.0563473 0.0161956 0.0947784 0.00885166 -0.0771008 -0.0186176 -0.0072996 -0.0997534 0.0233748 0.0333904 0.0917379 -0.00405077 -0.00686355
-0.0474986 -0.0131413 0.053693 -0.00568311 -0.0115417 0.0254762 0.00693267 -0.00392205 0.00100373 0.0341616 0.0102223 0.0152156 0.0234406
-0.0698956 0.0613332 0.0195432 -0.0122995 -0.023619 0.0151331 0.0288285 -0.0763263 0.00512595 0.0297443 0.0502972 -0.0511163 -0.0190855
-0.0216452 -0.0219477 0.040475 0.0232874 0.0289977 -0.0244843 -0.0109851 0.0200386 0.0233245 0.0151779 0.0475658 -0.0268012 -0.0304002
-0.18406 0.157028 0.238209 -0.0183501 -0.146542 0.0274927 0.0836678 -0.252358 0.0723211 0.211288 0.243735 -0.0518799 -0.0636016
1.96179 1.18408 0.86641 0.526046 -0.381535 1.65939 -2.91592 -1.09367 1.79495 2.84821 1.77679 0.591826 -0.811989
0.0328918 0.0371878 0.0404793 -0.0217939 -0.0159053 0.0294998 0.0055212 0.00102164 0.00720673 -0.00219447 -0.0267995 0.0363026 -0.0107632
0.0336682 -0.0141712 0.0279158 0.0268663 0.0287805 0.00129195 0.00880199 -0.00208391 -0.0268653 -0.0260645 -0.019932 0.0209507 -0.0359294
-0.00478772 -0.0270151 0.023699 0.0208041 0.0108917 0.0325939 0.032192 0.00566952 0.0112179 -0.0147775 0.0114303 0.0322206 0.0260871
0.00909065 0.0465328 0.0547629 0.0130597 -0.0046362 -0.0171492 0.0186151 -0.0484384 0.0230151 0.080909 0.0763442 -0.0512338 0.00155732
0.00954686 -0.00429624 -0.00287214 0.0324554 -0.0227166 -0.0299287 0.0149947 -0.0172305 -0.0343108 0.0441889 -0.0253248 -0.0386902 0.0235383
-0.0401415 -0.00109242 0.0701654 0.0239777 0.000760114 -0.0196541 0.0168737 -0.0568541 -0.0128313 0.0640583 0.0638996 -0.0461549 -0.000853702
0.0189142 -0.0254779 -0.00840209 -0.0339801 0.0358059 0.0325821 0.0301834 0.010321 -0.0189656 -0.0213196 -0.0224281 0.0233376 -0.00951331
0.0191731 -0.0214534 0.0188624 0.0094184 -0.0497971 0.0214817 0.0174515 -0.0300158 -0.0115776 0.0451318 0.0164097 -0.00672326 -0.0425512
-0.102766 0.10266 0.121064 -0.0477926 -0.0851534 -0.00541286 0.0507939 -0.121903 0.0722122 0.17355 0.125544 -0.0204575 -0.040523
-0.0325779 -0.0066986 0.0134889 -0.00386022 0.0218609 0.0239229 0.0187946 0.0231044 -0.00282137 -0.0213167 0.0291016 -0.0321531 0.014707
-0.0277515 -0.0217451 -0.0357165 0.0238744 -0.000506134 -0.00622051 0.0125016 0.0155348 0.0257122 -0.0195703 0.0314904 -0.0052969 0.00369511
-0.00149262 0.0167299 0.0594671 -0.0113832 -0.0169931 -0.00439859 0.0299914 -0.0375846 -0.0158259 0.0673783 0.0267919 0.0106734 -0.0144959
-0.0114619 -0.00712377 -0.0142441 0.00269438 0.0285722 -0.00345926 -0.020793 -0.033306 0.0394426 -0.010664 -0.0042698 -0.0267362 0.0141729
-0.00108003 0.0183457 0.0174436 -0.040853 -0.0128099 0.0390458 0.000625385 -0.00843543 -0.011064 0.0398709 0.00389275 -0.043708 0.0160305
-0.0705633 0.0575988 0.0409561 -0.0153804 -0.0640614 -0.0106482 -0.00242601 -0.110839 0.0134928 0.0820149 0.0429283 -0.0470114 -0.0217105
-0.025379 -0.00396686 0.0358148 0.0264732 -0.0182803 -0.00206429 -0.0143951 0.0245635 -0.0126221 0.0312742 -0.0201938 0.0222951 0.0134645
-0.0734288 0.0682736 0.0298078 0.0228402 -0.0186049 0.0206891 0.0106113 -0.0813062 -0.0128212 0.0277441 0.0384041 -0.0111722 0.00501904
0.0242307 -0.0177087 -0.00407671 0.0265954 0.0307422 0.0220434 0.0280147 0.00758643 0.0219876 0.0188743 0.0396269 -0.0258771 0.00347741
-0.00293244 0.0234581 -0.00668296 0.037637 0.0325134 0.0237552 -0.0318148 -0.0346834 -0.00326078 0.0225855 0.0271343 -0.0338846 -0.0200749
-0.0360664 0.00552965 -0.0345797 -0.010641 -0.030374 -0.000369673 0.004556 -0.0422065 0.036342 0.0151244 0.0197652 -0.00865545 -0.020736
-0.00349571 0.012778 0.0226876 -0.0300661 0.00546493 -0.0365976 0.00533554 -0.031475 0.007576 0.00478854 -0.0217718 -0.0276094 -0.00275667
-0.130306 0.0871255 0.170266 -0.0390888 -0.0705322 -0.0144836 0.0540238 -0.161609 0.0988906 0.135287 0.144092 -0.0566617 -0.0218896
0.0215048 0.0182681 0.00821562 0.0308922 -0.0100076 0.0345244 0.011296 0.02938 0.0330528 0.0296136 0.0293478 0.0264473 0.0243732
-0.00739704 -0.00957229 -0.0157481 0.0272375 0.00580541 0.00331597 0.0298473 0.0113812 -0.0103035 -0.0342548 -0.0104922 0.0110934 0.0372517
-0.0161175 0.0187596 0.0231529 -0.0140168 0.0101508 0.0388651 0.0142142 0.0168525 0.0187103 0.0324315 0.0242025 -0.00405744 -0.0124556
-0.0366344 0.0525436 0.00686611 0.0299758 -0.0236588 -0.0193925 -0.00288093 0.0060727 -0.0044794 0.0429085 0.0252226 -0.0128179 0.0117325
-0.0664903 0.078317 0.113751 -0.00989088 -0.0341245 0.00298788 0.0137787 -0.124103 0.0710778 0.154165 0.0801538 0.00234605 -0.0124269
0.11231 0.103999 0.0859879 0.0353312 -0.00645211 0.112102 -0.178383 -0.14132 0.115134 0.219202 0.16181 -0.0012464 -0.0563182
0.456038 0.0926541 0.899538 0.0692687 0.923371 -0.261946 -0.406621 0.265309 1.13545 1.17533 0.896412 0.0719588 0.39025
-0.253413 0.0780027 0.132175 -0.0526172 -0.120824 0.0244178 0.182017 -0.324336 0.0783998 0.16613 0.249884 -0.0954971 -0.0511148
-0.112018 0.0616786 0.16323 0.00905446 -0.0901134 0.0155309 0.0581406 -0.253082 0.0488521 0.20132 0.229987 -0.0543686 -0.0588141
-0.00171665 -0.0242178 -0.0305391 0.0239121 0.016452 0.0335772 0.0350129 -0.0250175 0.0350593 0.0171645 0.00564932 -0.00453328 0.0283463
0.0120449 -0.025412 -0.0319415 -0.0128472 0.0160089 0.0138177 -0.037933 0.0362726 -0.0203143 0.018639 -0.028336 -0.0270173 0.0349001
0.0106294 0.03077 0.034976 -0.017756 -0.0104089 0.0317364 0.00932694 -0.0168464 -0.00827582 0.0291439 0.00717936 0.0135992 0.00544024
-0.0116699 0.0341479 -0.00786482 -0.024404 -0.00409045 0.0357521 0.00432529 -0.023996 0.0377766 0.0315284 -0.000298455 -0.00836461 0.0303678
-0.0188341 -0.00300239 -0.00683666 -0.022228 0.0199489 -0.0317689 -0.016552 0.0029954 0.0225014 -0.00680861 -0.017262 0.0272616 -0.0104839
-0.0488757 0.0539721 0.0541316 0.012496 -0.0264996 0.0164695 0.0227185 -0.128767 0.0416923 0.0686684 0.10599 -0.0283859 -0.0325155
-0.0230033 0.0515212 0.0316145 -0.0229149 -0.0333355 0.00181396 0.0159412 -0.0300757 0.0130276 0.0455524 0.059624 0.0274601 0.0186845
0.0133598 0.0121349 0.0207488 0.0317764 -0.000165519 -0.0221419 -0.00510199 -0.0221164 -0.00730581 -0.0305452 -0.0229356 -0.00335704 0.00995208
-0.0108389 0.000312784 -0.0199507 -0.0125655 -0.0331609 -0.0223084 0.016828 0.0339773 0.01965 -0.0335056 -0.0335835 -0.0145544 -1.41892e-05
-0.00751108 0.022276 -0.0362323 0.0126568 -0.0311512 0.0348989 -0.0112376 0.0369678 -0.00433126 0.0354133 0.0191162 -0.0281461 -0.0121273
-0.0269808 0.0355988 0.0176858 -0.0122054 -0.0330506 -0.0287551 -0.0012404 0.0155325 -0.00908637 0.0386262 0.0409832 -0.0330551 -0.0129032
-0.0112755 0.0136619 0.00918704 -0.0359718 0.0286116 0.00399589 0.0252917 -0.0456751 -0.00669039 -0.00510115 0.0404218 -0.00668284 -0.0215152
-0.0260257 -0.0018376 -0.0255387 -0.0093281 0.0121782 -0.029809 0.0302144 0.0286565 -0.0336237 -0.0308743 -0.0270757 -0.013732 0.0133704
0.0238566 -0.0269738 -0.00294183 -0.00200989 -0.00135666 -0.0300379 -0.0308421 -0.0327301 -0.0333488 0.034486 -0.0059278 -0.000927508 -0.0402031
-0.0358292 0.042821 0.00575084 0.00936098 -0.0369568 -0.0230374 -0.0202547 0.00165491 0.0267364 -0.0111101 0.0304157 -0.014528 0.0030027
-0.0304516 0.0149104 -0.0115683 0.0254474 -0.00554211 -0.00764239 0.00261745 0.00347149 0.0291125 0.00887496 0.0335466 0.00248773 0.0139012
0.00939156 -0.00804674 -0.031827 0.0339911 -0.0287949 -0.00559548 -0.0202471 -0.0246033 -0.0332199 -0.026686 -0.0266613 0.0243289 0.0157527
-0.00947415 -0.0265656 -0.0296912 0.0237743 -0.0322247 -0.00366125 0.000444281 0.0133095 0.0322196 0.0158147 0.0389478 0.0201401 -0.0145427
-0.0829242 0.0572318 0.0357535 -0.0112384 -0.0282593 -0.00952003 0.0438306 -0.0651745 0.0110054 0.0917567 0.0382874 -0.0178638 -0.0156702
-0.00568194 0.0192053 -0.00141503 -0.0314084 -0.0181128 -0.00374364 -0.0278467 -0.0432643 -0.0280815 -0.00105861 -0.00130461 0.000821035 0.0254084
0.0110924 -0.00637853 -0.0381993 0.0153835 -0.0195268 -0.0113611 -0.0329269 -0.032782 -0.0368057 -0.0094623 -0.0313297 0.0366439 -0.0180435
0.00218487 -0.0354743 0.00886889 0.0119801 -0.0370799 -0.0113643 0.00901834 0.024556 -0.0189255 0.0132219 0.0269572 -0.00160117 0.0327243
-0.00928906 0.00576746 0.000349727 0.00781858 0.0265573 0.0195407 0.0170865 0.0232252 -0.0193791 0.00750272 0.00747879 0.00600276 -0.0366437
0.0252817 -0.0331323 0.0251789 0.0213268 0.0179714 -0.0344708 -0.0136925 -0.00156294 0.00638458 0.0162754 0.0249809 -0.00846066 0.0218984
-0.00400956 0.0357112 -0.0298386 -0.0360573 0.00971332 -0.00870691 0.0138622 0.0360092 -0.00585626 -0.0100414 0.00350955 -0.01433 0.0133157
0.0207936 0.0177545 0.00255644 0.00899473 0.0136466 0.0311688 -0.0208017 -0.0214589 -0.0133623 -0.0137227 -0.0161436 -0.010611 -0.0292833
0.014038 -0.0101986 0.0148789 0.00544861 -0.0201973 0.0279034 -0.0203378 -0.0465242 -0.0276787 -0.0134601 0.033085 0.0136495 0.0109637
0.0109097 0.0126187 0.0204401 -0.0217774 0.032989 -0.0212865 -0.00640771 0.000526908 0.0225971 0.0212834 -0.0216171 -0.0139041 0.0204211
0.000509217 -0.0104779 0.0539578 -0.030063 0.0118021 0.0106322 -0.00188227 -0.011479 0.0299119 0.00591296 -0.000170076 -0.0190016 -0.0372473
0.009271 0.0312988 -0.0213129 0.0206752 -0.0354669 -0.0294614 -0.00158507 0.0206119 -0.0110082 -0.0124284 0.0127641 -0.0309486 0.0165366
-0.0396186 -0.0314051 0.0166902 0.0294466 0.0330279 -0.0171372 0.0114551 0.0343663 -0.0187615 0.005023 0.0160287 -0.0238786 0.0106217
-0.169212 0.150179 0.203671 -0.0730903 -0.177679 -0.00987619 0.130634 -0.258127 0.101493 0.257411 0.218177 -0.0866528 -0.0660348
0.0143395 0.00773946 0.0362644 0.0261241 0.0146164 0.00296282 0.00189293 0.00444069 -0.0289935 0.0395585 -0.0276169 0.0163945 0.0173347
-0.00128505 -0.00221992 0.0117427 -0.0239658 -0.0480664 -0.0298042 0.0148785 -0.0795764 0.0528869 0.0725327 0.0815357 -0.0399227 0.00472343
0.0221643 -0.00450224 0.00125927 -0.0193316 0.029012 -0.00567286 -0.0174967 -0.0344541 -0.0238392 0.0119539 0.0361222 0.013115 -0.0371318
-0.0403452 0.0700568 0.0647848 -0.00558244 -0.0530486 -0.0142566 0.00364882 -0.0826443 0.038248 0.0584139 0.104443 -0.0436167 -0.0517861
-0.00815985 0.0351425 -0.0256314 0.0280516 -0.0157888 0.0050004 0.00158244 -0.0158264 0.0120511 0.00984347 -0.0114175 -0.0203457 -0.0312991
-0.0183634 -0.0108843 0.00554401 -0.00164832 0.0247364 -0.0150609 -0.0290466 0.00340184 -0.0266547 -0.00450821 -0.0130278 0.0225027 -0.00864857
-0.0491981 -0.0115842 0.00920442 0.0139496 -0.01595 0.0325222 0.00582262 -0.0215419 0.0204811 0.0395721 0.0535956 -0.0250414 0.0174914
-0.40124 0.256151 0.618295 -0.152447 -0.381291 -0.206171 0.53729 -0.392909 0.139636 0.184682 0.409663 -0.00173699 -0.0996565
-0.0364939 0.0236348 -0.00151951 0.0234519 0.0291853 -0.0195358 0.0311717 -0.0161397 -0.0272429 0.0142593 0.00285088 0.014188 -0.040738
-0.00601507 0.00948405 0.019839 0.00939591 0.0185888 -0.0357942 0.0406642 0.0222123 0.0229235 -0.0259025 0.0493723 -0.0191768 0.023304
-0.00511332 -0.00728532 -0.0246941 -0.0309696 0.00958733 0.00334793 -0.00554538 -0.0130958 0.00226791 0.0354575 0.000729552 4.40575e-05 -0.0308052
-0.0325476 -0.0144947 0.00298892 0.0336899 -0.0341636 -0.0297806 -0.0231392 0.0318519 0.00562226 -0.0250557 0.00109278 -0.0122416 -0.0317072
-0.0159918 -0.00307128 -0.0239024 -0.01593 0.00324867 0.0214255 -0.00207905 0.00242713 0.0233493 0.0324252 0.0273984 -0.00216535 0.0221646
-0.0179019 0.0256374 0.0293689 -0.00536396 -0.0324301 0.0083284 0.00883369 0.0349801 0.00479226 0.0149269 -0.0187097 0.012537 0.0311074
-0.01212 -0.00178396 -0.00381295 -0.0217253 0.0161959 -0.0102109 -0.0272308 -0.0257565 -0.0207094 -0.0129986 -0.00634287 -0.027687 -0.00438113
-0.0418538 -0.0132912 -0.0027429 -0.0293648 0.0100032 0.00813438 0.0282724 -0.0285834 0.0124563 0.0416264 0.0391218 0.0319265 -0.0389112
-0.0115514 -0.0108539 -0.00113342 0.0263033 -0.0181849 0.0076964 0.00325505 0.000365091 0.0311379 -0.0084594 -0.0169759 0.0346302 0.014
-0.232132 0.117525 0.247922 -0.101295 -0.211096 0.00334929 0.0995063 -0.289229 0.0591093 0.206908 0.244997 -0.0979083 -0.0872343
-0.0461292 -0.0153105 -0.0212977 -0.0026188 0.0234815 0.00450716 0.0116293 -0.0183785 -0.0209069 -0.000240515 -0.0111531 -0.00332434 -0.000877887
0.0317904 -0.00382413 -0.0095594 -0.0144257 -0.0205179 0.0304309 0.0114139 -0.0289421 -0.00475815 -0.0148382 -0.0141036 0.0307338 -0.0351389
-0.0445262 -0.0144667 0.0179615 -0.00793963 -0.0192353 0.0335363 0.0310428 -0.011341 -0.00554634 0.0486343 0.0173767 0.0168728 0.00118729
0.0157681 -0.022043 0.0293337 0.0191902 0.0124016 0.0238413 -0.0244005 -0.0201629 -0.0208197 0.00174292 0.00353839 -0.0167353 0.0376169
-0.0401726 0.00927391 0.0309766 -0.0236957 -0.00803973 0.0169328 0.0291488 -0.0305585 0.0188683 -0.0141114 0.0391133 0.0181817 -0.00378901
-0.0442379 0.0430958 0.0262513 -0.0212936 -0.0366793 0.00927721 0.000526597 -0.0292218 -0.0163112 0.0109244 0.000371686 -0.0328707 -0.0217531
-0.164533 0.0811907 0.153911 -0.0630308 -0.0659586 0.0417798 0.0747537 -0.222731 0.0708242 0.113587 0.193965 -0.0959452 -0.0579696
-0.0212745 -0.0151097 -0.0239344 0.0185303 0.00338141 0.00308283 0.0253544 0.00985064 -0.00194016 0.0102539 0.0317059 0.000417414 -0.029922
-0.0159289 0.0358541 0.0651884 -0.00379178 -0.0840119 -0.00915962 0.0543912 -0.0787775 0.0214996 0.0928193 0.0981354 0.00389812 -0.0313459
-0.0396149 0.0100715 -0.0192581 0.0134219 -0.0421128 0.0302413 -0.00665494 0.00919806 0.040567 0.0190655 -0.0037663 -0.00783294 0.0295669
-0.0250491 -0.0280166 0.0310279 -0.0250925 -0.0159143 -0.02536 0.0171248 0.0210864 -0.00749953 -0.000904664 0.0198857 -0.0239471 0.0318604
-0.00572295 -0.00635548 0.00133427 -0.0250914 -0.0260748 0.0304632 0.00180326 -0.0186303 0.0237536 0.0403352 0.00637666 -0.0331944 0.00986522
0.0212909 -0.0182985 -0.0160025 0.0215144 -0.0379033 -0.0196116 -0.0205731 -0.000259916 0.0401514 0.0272407 0.0228747 0.0179645 0.0132239
0.00903682 0.0228883 0.040061 0.0278997 -0.0540257 -0.0267897 -0.00343012 -0.00973639 -0.0121164 0.021608 0.00789142 0.00648005 0.0263286
0.0310917 0.00311435 -0.0120614 0.018381 -0.00853697 0.0122071 -0.0298011 -0.0304615 0.0217538 -0.0334793 -0.0327639 -0.0151965 -0.0307414
0.0331168 -0.010704 -0.022117 -0.0339759 0.00322063 -0.00120394 0.0106604 -0.0336602 0.027185 -0.0274008 -0.01476 -0.0172503 -0.00528627
0.0365226 0.033309 0.0153594 -0.0111781 0.0320207 -0.0242149 -0.000753412 0.00674849 0.0318982 0.00675682 0.0203066 -0.0358881 0.0111359
-0.0348151 -0.0192907 0.0352277 0.00914577 -0.0206042 0.0237485 -0.0203096 -0.0357158 0.0112939 0.0410399 0.0408896 0.0239014 -0.00523581
0.0357016 -0.0310708 -0.00648683 0.00947931 0.0265539 -0.00594857 -0.0175119 0.0156169 0.00671543 -0.00791797 -0.0287515 -0.00037568 -0.0269051
-0.140601 0.120508 0.139629 -0.0417413 -0.136912 0.0610555 0.0741918 -0.194775 0.0970352 0.202162 0.159037 -0.0422742 -0.0838515
-0.00244243 0.0105132 -0.0152637 0.0192168 -0.0360878 0.0376244 0.0244666 -0.0254735 0.0346725 -0.0185609 0.0105356 0.0106387 0.00586373
0.031565 -0.0338892 -0.000671034 -0.00377115 -0.00310351 0.0364195 -0.0276316 0.0210068 0.000121052 -0.0175162 0.0391996 0.000525133 -0.0149426
0.0213054 0.0227726 0.0146769 0.0370782 -0.0168297 -0.022612 -0.0305511 -0.0412795 0.0085862 0.0313814 -0.0106434 -0.026222 0.0197779
-0.0160151 -0.0312945 -0.0218504 0.00759145 -0.0282905 0.0268728 -0.000575579 0.0186672 -0.00825093 0.0116855 0.0232645 -0.0301582 -0.0186029
-0.010036 -0.023498 -0.00116746 -0.0315638 0.030094 -0.00598262 -0.0134085 0.0113278 -0.0113102 -0.0289518 -0.00385586 -0.0310881 0.0321134
0.0190695 -0.00574981 -0.0154481 0.0256465 -0.0359602 -0.00255311 -0.00163318 0.0325583 0.00408205 0.00152172 0.0314565 0.0347436 0.0297588
-0.0388517 0.0348442 -0.000552567 -0.031808 -0.0347996 0.0100963 -0.0290955 0.0346334 -0.0320453 0.0184097 0.0161096 0.00500811 -0.0197715
0.0306806 -0.0231967 0.0281849 0.0144689 -0.0224812 0.0340368 -0.00162191 -0.036699 -0.0377584 0.00106861 -0.0116675 -0.0326152 -0.0271691
-0.0879099 0.0375046 0.0912557 -0.00958501 -0.0680702 0.00773488 0.0105277 -0.134123 0.083751 0.141199 0.147266 -0.0769743 -0.0353057
-0.0189538 0.0674502 0.0723351 -0.0147333 -0.0576762 0.0141859 -0.0432753 -0.0810681 0.049988 0.0908078 0.0853393 -0.00978706 -0.0486414
-0.038274 -0.0218884 0.0349225 -0.00650594 0.031057 0.00424453 0.0309286 -0.0436104 0.0230323 0.0251627 0.0348811 -0.0263566 0.0304085
0.00897054 -0.0187695 -0.00959777 -0.00373137 -0.00108708 -0.0355029 0.0140475 -0.0076122 -0.0149323 -0.0137341 -0.0340404 -0.0280906 0.019792
-0.032614 0.000556991 -0.030427 0.000346736 0.0315841 0.00174231 0.0221553 -0.014667 -0.030292 -0.0276473 0.00348099 0.00765736 -0.00320114
-0.205683 0.0777362 0.221249 -0.0646508 -0.134602 0.00611392 0.116712 -0.3077 0.0719769 0.174123 0.198575 -0.068362 -0.0294669
-0.0345844 0.00629232 0.0433496 0.0295695 -0.0286963 -0.0156597 -0.0135015 -0.00715201 -0.0245326 -0.00913164 -0.00994944 -0.0134621 0.0222908
-0.00275106 0.034303 0.0234472 -0.0118284 -0.00807428 0.0277683 0.00913326 -0.0625053 0.0240555 0.0168079 0.0702292 -0.0186168 0.0130983
-0.0730969 0.0148876 0.0973006 0.00136293 -0.0318552 0.0264851 0.00341172 -0.0763641 0.0325267 0.0717659 0.0931608 -0.00637781 0.0135423
-0.0231352 -0.0332279 -0.0300376 0.0220885 0.0148967 -0.03707 0.029534 -0.0145696 -0.0300758 0.0314857 -0.0167056 -0.000123407 -0.0191314
-0.0709821 0.0632681 0.137229 0.00349894 -0.103234 0.0588846 0.0426653 -0.185938 0.0856695 0.139144 0.11219 -0.019109 -0.00646461
0.0170909 0.0227683 0.0253823 -0.0147678 -0.00245789 -0.00704547 -0.00793918 0.027142 -0.0199192 -0.0113024 0.0158625 -0.0233085 0.0339934
-0.100037 0.100047 0.107847 -0.00381599 -0.105343 0.0634703 0.0180933 -0.14382 0.087543 0.155216 0.173582 -0.0737369 -0.0610291
-0.00782899 -0.0201526 -0.0156476 0.00538343 0.0239818 -0.0176343 -0.0128979 -0.0347643 0.025377 0.0121817 0.0411591 0.0178358 -0.0252928
0.0149213 0.0333805 0.0288987 -0.035076 -0.0165055 0.0101166 0.0122441 0.00885396 0.00621992 0.0249387 -0.0122496 0.00312549 0.0225115
0.0319833 -0.00194067 0.0104805 -0.0308538 0.00666982 -0.00179663 -0.0172369 0.0260339 -0.0195847 0.0210526 0.0294348 -0.0219897 0.0347804
0.0111144 0.0371152 -0.0080795 -0.0355649 -0.00064698 -0.0359635 0.0109419 0.00669124 0.00313189 -0.0099068 0.00969166 0.0150092 -0.0218529
-0.0265984 0.00405508 -0.01041 -0.0268684 -0.0226829 -0.0241015 -0.00765429 0.0233089 0.0204125 -0.0251746 0.0140759 -0.02964 -0.0244645
0.000803263 -0.0164941 0.027126 0.0235457 -0.045802 -0.0337436 -0.0215786 -0.0650854 0.0167553 0.00619698 0.0413593 -0.0405545 0.0202437
0.0112416 0.0330068 0.00158129 -0.0394379 -0.0052145 0.0295081 -0.0139538 -0.0132021 -0.0257756 0.00889567 -0.00393893 0.00190015 -0.0311299
-0.0358506 0.0140891 0.0129504 -0.00515887 -0.0241789 -0.0342661 0.0373069 0.0190603 -0.0350152 0.00715246 0.0257348 0.00956532 0.0322357
0.00181228 -0.0161168 0.0297969 -0.0179789 0.0142787 -0.0210454 -0.0221015 -0.0263055 0.0169879 -0.00369231 0.0155565 0.016062 0.022693
1.48346 1.33753 0.522458 0.369971 -0.379061 1.87601 -3.27193 -1.11269 2.24521 3.45353 1.39838 0.7708 -1.33572
0.0128888 -0.00101327 -0.00475183 -0.0265466 -0.0044982 -0.0314533 -0.00319208 0.00960158 0.015623 0.0311679 -0.0168179 -0.00847379 -0.0163021
0.0154652 -0.0081569 -0.0252524 -0.00767673 -0.0222618 -0.0361311 -0.0303553 0.000437471 0.0150365 0.0121114 0.0122463 -0.033153 -0.00730704
-0.032965 -0.0231058 0.0129767 -0.0280299 -0.0307592 0.0132959 0.0352131 -0.00954427 0.00765588 -0.035497 0.00145419 0.0368758 -0.035137
0.0200593 0.0277077 -0.00882681 -0.00163139 -0.0404202 0.018293 0.00527378 -0.0243851 0.0308794 -0.00474279 -0.0181021 0.0304591 -0.0252351
-0.0162484 0.0298341 -0.0244814 -0.0383026 -0.0350737 -0.0356374 -0.0320996 -0.0399432 0.0292216 -0.027979 -0.00320147 -0.00998851 -0.00875117
-0.0217282 0.0544368 0.0621727 -0.00559573 -0.0579333 -0.0308243 0.00446703 -0.0368888 0.0388487 0.00983907 0.0506908 -0.0132401 -0.000691738
-0.0318552 0.0395209 0.0385999 -0.000446832 -0.0272818 0.0185986 0.0191752 -0.0406634 -0.0219574 -0.0254369 -0.0300323 -0.0359257 0.0242239
0.0235085 0.0369993 0.00857882 -0.0166605 0.0084713 0.0204768 0.0399268 0.00409617 0.0416871 0.00241699 -0.00235857 0.0217124 0.0100403
0.0187569 0.0153441 0.0194053 0.0138492 0.0324074 -0.0148358 0.0335638 0.0174144 0.00238082 -0.0319408 0.0136996 -0.0348713 0.0175254
-0.035704 0.0105736 -0.00454692 0.0204919 -0.0154962 -0.0131565 -0.00628268 0.0127016 -0.0209836 0.0376074 -0.0100704 -0.0244366 -0.00253015
0.00273066 -0.036796 -0.0242933 -0.000853336 -0.0109675 -0.0355065 -0.0281647 0.0293336 -0.0172766 -0.0142564 0.0233589 0.0269245 0.0180572
0.00407926 -0.00325188 -0.0101416 0.00972574 -0.0217546 0.013199 -0.0223965 -0.0493345 -0.0101321 0.0324487 0.0421808 -0.0399867 0.00598276
-0.0171205 -0.0377599 -0.022077 -0.0323744 0.0340533 0.0344756 0.014213 0.0222125 -0.0249926 0.0255789 -0.0247738 0.0329222 -0.00277653
-0.144863 0.133216 0.146821 -0.0716124 -0.17103 0.0662173 0.117858 -0.26581 0.0615953 0.23845 0.202681 -0.0746861 -0.0427199
-0.156857 0.0534494 0.119434 -0.0628734 -0.134975 0.0440897 0.0746653 -0.16552 0.0547758 0.154971 0.164842 -0.0780093 -0.0628712
-0.0143717 0.0183498 -0.0220959 0.0126919 0.0124185 0.0253063 0.0259159 0.0341873 -0.00704064 -0.0317455 -0.0109175 -0.0100014 0.0186745
-0.0163392 -0.0193976 0.0298582 0.00989073 0.0234845 -0.00553184 -0.0187792 -0.0246203 0.0163486 0.00524585 0.0331535 0.0286123 -0.0195341
-0.14491 0.113863 0.212834 -0.0398782 -0.132009 0.0358625 0.116382 -0.225312 0.0799326 0.210592 0.233478 -0.0855327 -0.0799479
0.0120904 0.0113921 0.0364273 0.0084995 -0.0193728 -0.0303188 -0.000190957 -0.0023733 0.0319013 -0.0077251 0.0220686 -0.0275228 0.01194
-0.0945487 0.065211 0.142182 -0.000259898 -0.12178 0.00597125 0.0255911 -0.177252 0.0678338 0.142543 0.182631 -0.0534715 -0.00709949
-0.0147064 0.0466388 0.0270415 0.0187888 -0.0132872 0.0185122 0.00105944 -0.0355198 0.0429931 0.0397629 0.024237 -0.0292214 -0.00211518
-0.0455064 -0.0190491 0.0384007 -0.00308089 0.020187 0.0213017 0.00973329 -0.0435698 0.00593065 -0.0213846 0.00646331 -0.0132267 0.0102754
-0.00725321 0.0287685 0.0357016 -0.00897876 0.0297651 -0.0286727 0.00694651 0.0139153 0.0125229 0.0244885 -0.0253577 0.0345129 -0.0215914
0.0228598 0.0157633 0.00968187 0.0226515 0.0365088 0.0363116 0.0068966 0.03007 -0.0302323 -0.00504768 -0.0102315 -0.0297325 0.0117779
0.00636359 0.0244901 0.0350273 -0.00272067 -0.0339844 -0.00196443 0.0137125 0.0348475 -0.012368 -0.015555 -0.00110427 0.0155869 0.0345536
-0.0344533 0.0226117 0.0357928 0.00405254 0.0170142 -0.0132774 0.0124778 0.0123257 0.0303897 0.0382889 0.00177559 0.0281259 -0.0194111
0.00231032 0.00367159 -0.0258275 -0.0209642 -0.0118117 0.0106981 0.00708378 -0.0105441 -0.0293543 0.00742695 -0.00983096 -0.0143033 0.018603
-0.038169 -0.0145964 0.00363877 0.0262476 0.0229205 -0.031159 0.004149 0.0204006 0.0318033 0.00915466 0.0301397 0.0214848 0.0180638
-0.00718897 0.0110298 -0.00939386 -0.0205552 -0.00735174 0.0162977 0.0325263 0.0340403 -0.00439718 -0.0254287 0.0135994 -0.00453638 -0.027481
0.0289793 0.0119201 -0.00988289 -0.0275041 0.0074907 -0.0302275 0.0261048 -0.0161567 0.00627819 0.0295906 0.00371963 0.0190547 -0.0314959
-0.01597 0.00937925 0.00460081 -0.000231247 -0.0424389 -0.00210478 -0.027386 -0.0341266 0.0335069 0.00384174 0.0210495 -0.00459397 -0.000545262
-0.0212563 0.00135567 0.0426909 -0.0393015 -0.0382229 -0.0296725 -0.00720972 -0.0441365 0.0418925 0.0402351 0.0604798 0.015671 -0.0434118
-0.0407404 -0.0212362 -0.0275541 -0.00827977 -0.00966775 -0.00292398 -0.0215688 -0.0157141 -0.0172243 -0.00591473 -0.00953623 0.0288194 -0.0206189
0.00269767 -0.0148091 0.0101561 0.0358266 0.0103529 -0.0266796 0.00452529 0.0309363 0.02759 0.016093 -0.0147755 -0.0184977 -0.00716979
0.0118834 -0.0191338 -0.0222561 0.0240415 0.00805656 0.0213135 -0.0167442 -0.0107197 0.0244463 0.00725675 0.0398034 -0.0081202 0.0264081
-0.179507 0.139075 0.239799 -0.07966 -0.136787 -0.00995045 0.166995 -0.196827 0.11908 0.191569 0.209324 -0.0116286 -0.0452569
-0.0437382 -0.00877174 0.0478625 -0.0434503 -0.0092199 -0.00409841 -0.0101262 -0.0127083 0.0112896 0.0125422 0.0212109 0.00392987 0.0241309
0.0338293 0.0135773 0.00299762 -0.0304848 0.00933388 0.0316313 0.00350246 -0.0420055 0.0251172 0.00349331 -0.014146 -0.000154913 -0.0216175
-0.0333441 0.0238087 -0.00580497 -0.0136953 -0.0195739 -0.0314345 0.0196625 0.0262472 -0.0303939 0.0317143 0.00874325 -0.0114713 0.00935923
0.00575378 0.0128651 -0.00357082 -0.00443539 -0.0201878 0.00718189 0.0322603 -0.0178951 -0.0254377 0.0435035 -0.0212745 0.00510498 0.0189644
0.00125217 0.0295795 -0.0182893 0.0327359 -0.00668522 -0.0348997 -0.0021069 -0.00136909 0.00357267 -0.00336955 -0.020704 -0.0142907 0.0149745
-0.434575 0.362426 0.730229 -0.164265 -0.429853 -0.351553 0.461427 -0.372939 0.142263 0.327417 0.4697 0.00983293 -0.0832468
0.285058 0.424779 0.210221 0.0666169 -0.0917885 0.207788 -0.642997 -0.218593 0.418168 0.860381 0.293069 0.0432586 -0.225701
-0.0387388 0.000258278 -0.00550763 0.0308651 -0.0223579 0.0118244 0.0204234 -0.0231991 0.0263948 -0.0180898 -0.00664995 0.00898252 -0.0112713
-0.0174553 -0.0324575 -0.014944 0.0250509 -0.015157 0.0193837 0.0243146 0.00523846 -0.0157614 0.00214002 0.0345016 0.0162049 -0.0281147
-0.0216041 0.0156531 -0.00451252 -0.013732 0.0288587 0.0200601 -0.00935621 0.0128843 0.00764765 0.0359502 -0.0290379 -0.0260478 0.00616103
0.0361342 0.0151246 -0.0301871 0.0275081 -0.0250282 0.0133003 0.00463441 0.007375 -0.0205846 -0.00172457 0.0240594 -0.00584548 -0.0318619
0.0225303 0.0108819 -0.0274551 -0.0109711 -0.013584 0.0152601 -0.028374 0.0181036 -0.0199435 -0.013916 0.00601725 -0.0198021 0.0196961
-0.0180589 0.0329464 0.0407453 -0.00384779 -0.0340291 0.0292191 -0.0391383 -0.0358573 0.0131428 0.0489402 -0.0137111 -0.0350057 0.0105393
-0.0364288 0.0228842 0.0350115 0.0102279 0.0178344 0.0245338 0.00158942 0.0291941 -0.0373943 -0.00633476 -0.0102824 0.00731365 -0.0231463
-0.027551 0.0186712 0.0178015 0.0310178 0.0107485 -0.0187434 -0.000120321 0.0204537 -0.00441205 -0.0163062 0.0211721 -0.0143568 0.0137842
0.00707595 -0.0270363 -0.000458371 -0.0219272 -0.00583531 -0.0195483 0.032137 -0.01228 0.0333501 -0.00185432 0.0526068 0.0225793 0.00131357
0.00364889 0.0206294 -0.00704952 0.0233074 0.0107757 -0.0325194 0.0305903 0.00736631 0.0354169 -0.00502477 -0.00540579 -0.0157685 -0.0173691
-0.00397226 -0.00574696 -0.00638044 0.00137457 0.0087152 -0.0330533 0.01272 -0.0102403 0.0177268 -0.00527019 -0.035601 0.0371995 0.00763345
-0.0430775 0.0292273 0.0158322 0.0328968 -0.0362206 -0.00365923 -0.00101686 -0.0393027 0.0181083 0.0517534 0.0261064 0.0155151 -0.0187479
0.0182231 0.0170942 0.0130099 0.0322807 0.0169816 0.00775874 0.0280851 -0.0293354 0.0247475 0.0338178 0.0195785 0.0207983 -0.0331632
-0.0164163 -0.0031691 0.00406151 -0.032532 -0.0134023 0.023676 0.053066 -0.0636117 -0.0174612 0.0781526 0.0223777 0.0196051 -0.0121616
-0.0347721 0.0189008 0.0267679 0.0182432 -0.00915967 -0.00417125 0.0119826 0.0178077 0.0136692 0.0136237 -0.0112376 -0.023142 -0.0103956
-0.110003 0.0551079 0.137818 -0.043185 -0.122012 0.040582 0.114515 -0.171599 0.0526429 0.174082 0.199656 -0.0903621 -0.0392253
0.0375859 0.0226698 0.0236295 0.00426297 -0.0272038 0.0341531 -0.0186284 0.0321324 0.0184721 0.0307259 -0.0120379 -0.000939327 0.0146473
-0.00749186 0.0263988 0.0140194 0.0294482 -0.0438512 0.0212049 -0.0109517 0.00194623 0.00966615 -0.00711798 -0.00388137 0.0154915 0.00682172
0.0300183 -0.0275266 -0.0171495 0.0343248 0.0301105 0.0234647 0.00195058 -0.0223084 -0.0305626 0.0252458 -0.0142371 0.0363795 0.00264081
0.00315313 -0.012103 0.0318887 0.000431626 0.0135312 0.00183838 0.0113406 0.0243405 0.0206608 -0.00629473 0.00917446 -0.0144695 0.0139887
0.019186 -0.0192485 0.0175545 -0.0148416 0.0256551 0.0161417 0.0207487 0.0199589 0.0261626 0.00624116 0.0386693 -0.00477167 0.017203
-0.173207 0.077827 0.207547 -0.0194378 -0.120286 0.0419154 0.133877 -0.23374 0.0786277 0.213087 0.224851 -0.0629867 -0.0874676
-0.00398995 -0.035693 0.0265841 0.0188412 0.0129012 -0.00154974 0.0167593 0.0201985 0.028522 -0.000863702 0.00428957 0.0301761 0.0157043
-0.0163866 0.043263 0.021891 -0.0445434 -0.0179919 0.0116224 0.0448458 -0.0860574 -0.00113471 0.0467974 0.0488692 -0.0503771 -0.0487226
-0.0175495 -0.0210985 0.0215187 -0.0187059 0.0172077 -0.0363604 -0.0216136 -0.00361267 0.00204357 -0.0284252 0.0349297 -0.0324521 0.0142227
0.019891 -0.0375214 0.000509823 0.00607277 -0.0315171 -0.0211216 0.0135504 -0.00718943 0.0185627 0.0241055 -0.015263 0.0299498 -0.0273731
0.00859608 0.0346252 0.000578529 0.00464512 0.0180124 0.0134095 -0.0312888 -0.0212736 -0.021395 0.033989 0.0285209 0.00239841 -0.00746393
-0.122499 0.0820535 0.104881 -0.0211976 -0.127871 0.0244688 0.0389925 -0.210816 0.0714849 0.18459 0.185213 -0.0404494 -0.0318531
-0.0294659 0.0263203 0.0167462 -0.0227703 0.0371898 -0.0342244 0.00742751 -0.0368186 -0.0364966 -0.026104 -0.00961856 0.00379196 -0.0369619
0.00455347 -0.0303402 0.014643 -0.0361784 0.0343993 0.0264048 0.000125483 0.0326591 0.0343971 0.0206438 -0.0323707 0.0351979 -0.0394014
-0.0128928 0.00977974 0.0284616 0.0239028 0.00395796 0.00698969 0.0270017 -0.0380499 0.0386203 0.0382568 0.0302721 0.0324588 0.0251006
0.00258266 0.0286057 0.0232669 0.0351143 0.0156066 0.0320863 0.0254672 -0.0130851 0.0232853 -0.00339164 -0.00349237 -0.0215162 0.0304056
0.029498 0.0143778 -0.00235511 -0.0391597 0.0353313 0.00416612 -0.0263832 -0.0347722 0.0391313 0.0023337 0.0209081 0.00452108 -0.00536566
-0.0536538 0.0242839 0.0510574 0.00783532 -0.0121812 0.0352825 -0.0136883 -0.0625019 0.012805 0.0312574 0.0181617 -0.00877363 0.0223923
-0.0034472 0.0401136 0.0134696 -0.0384175 -0.0053541 0.00951269 -0.0335184 0.0113015 0.0345617 -0.0243497 -0.0266231 -0.0130244 -0.0352491
-0.00860174 -0.0269711 -0.0223792 0.010306 0.0312518 0.0184953 0.0312434 -0.0186021 -0.00107876 -0.0212203 -0.0301855 0.0366895 -0.0370134
0.027428 -0.020974 -0.0106507 -0.0333595 0.0211077 0.0133194 0.00130208 0.0159958 0.0320819 0.00509752 0.0245235 0.0240929 -0.00852141
0.0218804 -0.0218739 -0.0304152 -0.00277379 -0.0119652 -0.0332774 -0.0204013 0.00721661 0.0287336 0.000273165 -0.0121262 -0.0153572 -0.0267769
-0.00588192 -0.0130647 -0.0276642 -0.0257945 -0.0128719 0.0148926 0.037093 -0.0070375 -0.0101635 0.0331038 0.0391257 0.012687 -0.0279289
0.00575355 0.0121749 0.00590968 -0.00954124 -0.0169003 -0.00929387 -0.0324634 -0.0316831 -0.0332095 0.0283242 -0.0173296 -0.0158385 0.00536269
-0.0138524 -0.00136237 -0.0241256 -0.0320536 -0.0287741 0.0100516 -0.0153246 -0.00865262 -0.00840972 0.0290011 -0.00618722 0.0139895 -0.0313006
-0.0360799 -0.00274923 -0.018729 0.0236628 -0.0248713 0.0042141 0.000358122 -0.0369169 0.0136188 0.0367263 0.0162932 -0.009368 -0.0104541
0.00859435 -0.0227851 0.0375783 0.0185236 -0.0169771 -0.00922787 -0.0121641 0.024897 -0.0133328 0.0112534 0.0079879 -0.0165556 0.00958715
-0.00342583 0.0247374 0.00673064 -0.02022 -0.0360692 -0.0282331 0.00751603 -0.00315267 0.0218713 -0.00658249 0.00835354 -0.0131276 0.0243638
0.0105416 0.037092 0.00761186 0.0131862 -0.0143392 0.00588203 0.0377589 -0.0336195 -0.0195374 -0.00781322 0.0329305 0.0340107 0.0162795
0.0307605 -0.0311303 0.0207796 -0.0377379 0.0300632 0.0361288 0.0361357 0.0216296 0.0289788 -0.00193774 0.00687727 0.014234 0.0322456
-0.00573586 -0.0126337 0.0279571 -0.0200851 -0.00575069 -0.02737 -0.0302429 -0.0308112 0.0316608 0.0403807 0.0324743 -0.0268437 -0.0109344
0.0295448 -0.0317813 0.00513475 -0.0344719 0.0148777 -0.0110576 0.00811474 0.0199041 -0.0326705 -0.0251348 0.0409313 -0.0146781 0.0324434
-0.0211654 -0.00163547 -0.0286176 0.0323581 0.0197086 0.0175023 -0.0179935 -0.031796 0.0290445 0.018043 -0.0125616 -0.0335201 -0.0111709
-0.0941455 0.123406 0.158784 -0.0465178 -0.127368 0.0373941 0.0451246 -0.155363 0.0362718 0.145159 0.149408 -0.0751504 -0.0683015
-0.0608782 0.125508 0.144596 -0.0456207 -0.142476 0.0295222 0.0142203 -0.1938 0.136833 0.27742 0.227215 -0.0707181 -0.0681095
-0.0423553 0.0913459 0.123496 -0.023338 -0.0669909 0.0147098 0.0453578 -0.159393 0.0319916 0.0898883 0.100328 -0.0294452 -0.0222332
-0.0268184 0.00933131 0.00308452 -0.0347688 -0.0106226 -0.0202421 0.00873763 -0.0107217 0.0405431 0.0215349 -0.0131059 -0.0241153 0.00706873
-0.144858 0.0670193 0.194037 -0.00679528 -0.11991 -0.00805667 0.0726636 -0.137475 0.0493708 0.173942 0.16685 -0.0650331 -0.0449049
-0.0342078 -0.0292713 -0.0208733 -0.0025729 -0.0336391 -0.036738 -0.0134696 -0.0129291 -0.0100891 0.0275425 -0.0330085 0.0364055 0.0285538
0.0218247 0.0325876 0.00879472 -0.0222205 0.0159454 0.0243054 -0.0189844 -0.0373026 0.0341179 -0.0068589 0.0173184 0.0358141 -0.0305471
-0.00445854 -0.0146948 -0.00057818 0.0128806 -0.0437161 0.00377867 0.0400055 0.0244354 0.00256072 0.0160873 -0.00444155 0.0263932 -0.00491293
-0.092978 0.0931347 0.136311 -0.0255633 -0.113839 0.00547419 0.0302838 -0.131092 0.0546508 0.142252 0.13006 -0.0308034 -0.0392413
-0.0472059 0.0149475 0.0352714 -0.00293075 -0.0534632 0.00599166 0.0289377 -0.124587 0.0142493 0.0816974 0.059646 -0.0547203 0.00722193
-0.0341203 -0.0164677 0.00740941 -0.0381903 -0.0422595 0.00770736 0.00748173 0.0213876 -0.0245036 -0.0220561 -0.000977741 -0.0205253 -0.0158374
-0.0130416 -0.0336501 -0.0275869 -0.00548979 -0.0307637 0.0171409 -0.0347794 -0.0267555 -0.0046335 -0.00164959 0.00560965 -0.0220195 0.0128459
-0.229432 0.146388 0.337908 -0.0367247 -0.217209 -0.0614907 0.193824 -0.299939 0.0804323 0.196591 0.270109 -0.0734454 -0.0756342
-0.0318433 0.0321476 0.0366553 0.0183762 -0.0334231 -0.0173597 0.000156872 -0.0353012 -0.015531 -0.0019544 0.0619266 -0.0386619 0.0163817
0.0209188 0.0339788 -0.0140575 -0.00347941 -0.00125947 0.00487189 0.0352144 -0.00229627 0.0327815 0.00713956 -0.0162277 -0.0221017 -0.0343209
0.034027 0.0361367 0.00937961 -0.0333068 0.0060746 0.0136156 0.0228508 0.0330124 -0.00774893 -0.00750097 -0.00175658 0.035078 -0.0364368
-0.0793367 0.0231902 0.12102 -0.0034697 -0.0744577 0.057683 0.0253531 -0.15956 0.011343 0.0821129 0.140745 -0.0418484 -0.0684405
-0.0243326 0.0102871 0.0738086 0.0221721 -0.00316306 -0.0127408 0.0123217 -0.0455989 0.0674437 0.0525179 0.0959737 -0.0282275 0.00895344
-0.149284 0.139494 0.213378 -0.0432906 -0.178195 0.0152162 0.0419804 -0.233911 0.0832091 0.202822 0.18472 -0.0338209 -0.104085
0.0354696 -0.0209702 -0.00794472 -0.0235805 -0.00920771 0.0168866 -0.0278689 -0.025391 0.0215221 -0.0332484 0.0162832 -0.0159798 0.00908908
0.0123559 0.0304957 0.00598179 0.00768158 0.0128448 -0.00827286 0.00680423 0.015297 0.0108045 -0.00677595 -0.0211349 0.0230936 -0.00734609
0.0165704 0.0177218 -0.00224607 0.00132486 0.00913024 -0.019331 0.0145845 -0.0604007 0.0493651 -0.00433171 0.0467964 0.00311081 0.00760014
0.0284395 -0.0152598 0.0155803 0.0160469 0.0330868 0.0373034 -0.00126426 -0.0323017 0.0126622 -0.0308236 0.00923565 0.0163296 -0.0196673
0.0176995 -0.0335815 0.0225803 0.00090739 0.00662056 0.0228749 -0.0208131 -0.0239394 0.017297 -0.0162607 -0.0213116 -0.0065623 -0.0360375
-0.023276 -0.0336187 -0.0162186 -0.00201204 0.0250745 -0.0318339 0.0235725 -0.00268208 0.021024 0.0259654 -0.00212634 -0.00596368 0.00294438
-0.0447663 -0.0102766 0.0359921 0.000873475 -0.0231522 0.00340572 -0.00392424 -0.0517462 0.00520766 0.0254496 0.00215199 -0.0219614 0.0110118
0.0249457 -0.0137922 -0.0113429 -0.00584514 -0.00710826 -0.034103 0.00415675 0.0318426 -0.0141643 -0.037611 -0.0168405 -0.0197601 0.0326679
-0.0186133 0.0173576 -0.021792 0.0351366 -0.0296394 0.0316595 0.0347485 0.00374843 0.0185035 0.0279316 -0.018279 -0.00907761 -0.0345532
-0.0126705 -0.0276764 -0.00621739 0.0261815 -0.0351118 0.0384597 0.0197529 -0.00273588 0.0411807 0.0358298 0.00373799 0.00184154 -0.0142594
-0.0334288 0.0261264 0.0237119 0.0249566 0.0152163 0.0339263 0.0105362 0.00440276 0.00616934 0.0382865 -0.0238803 -0.0189116 -0.0215102
-0.0155684 0.0519447 2.62212e-05 -0.029093 -0.037937 0.00163527 -0.00082021 -0.0763395 0.01789 0.0845686 0.0338783 -0.00637148 -0.0358685
0.014284 0.0150002 0.04053 -0.0309958 0.013012 0.00782749 0.0381247 0.0137485 0.0023029 0.0163282 -0.00210605 0.0124326 -0.013416
-0.098099 0.100157 0.118792 -0.0159025 -0.0933764 0.00118854 0.0904553 -0.173081 0.0667305 0.193121 0.194909 -0.0680028 -0.0420857
-0.0972567 0.0853677 0.142552 -0.00918893 -0.147268 0.00789605 0.0603479 -0.215727 0.103119 0.205524 0.196413 -0.071112 -0.0349434
-0.0877247 0.0586382 0.111549 -0.00897239 -0.0662376 0.0395746 0.0573213 -0.1123 0.0547778 0.131718 0.149897 -0.0652127 0.000562175
0.0206515 0.0325178 0.00618669 -0.034163 -0.0313932 0.0052293 -0.0161604 0.0180191 0.0045084 -0.00762275 0.00532244 0.0170862 0.0225983
-0.0301135 -0.0340451 0.0144787 -0.0001522 -0.0354501 -0.0369128 0.0215504 -0.00345564 -0.00736416 0.0378928 -0.0283014 0.0232815 0.0208886
-0.022387 -0.0328928 0.0398063 0.00868025 0.0127895 -0.0129452 -0.000452863 -0.0267734 0.0391507 0.00888158 -0.00505278 -0.0268824 -0.00149098
-0.0472999 -0.0144856 0.0454865 -0.0124455 0.0158686 -0.0136785 0.014292 -0.0287754 0.0269598 0.0636565 0.00295467 0.0266083 0.0226487
0.121331 0.0355837 0.0437642 -0.00403455 -0.0482965 0.0943336 -0.123608 -0.125508 0.0886721 0.18556 0.0879499 -0.0118823 -0.0464803
0.00514705 0.0176563 0.0126334 0.0120923 -0.0329592 -0.014082 0.015983 0.00209222 0.0210049 0.0298452 -0.00838789 -0.0338746 -0.0168622
-0.0302797 0.0239369 0.0200671 0.0279258 -0.0468706 -0.0200759 0.00309372 -0.00263553 -0.0293497 0.0285879 0.0321949 0.032163 -0.0238946
-0.0346996 0.0342418 0.0151557 -8.65209e-05 0.0311266 -0.0279711 -0.0104938 -0.020818 0.0221026 -0.0105677 -0.029706 0.0152923 -0.0161882
-0.0189327 -0.0314805 -0.0152369 -0.0233115 0.0231092 -0.0168993 0.0237802 -0.0407018 0.0161665 0.0300923 0.0114181 0.0141609 0.00361001
-0.104163 0.122516 0.21653 -0.0317126 -0.132099 0.00168981 0.0786553 -0.219089 0.099661 0.223292 0.20741 -0.0959336 -0.103163
-0.030812 -0.00400159 0.0524723 -0.0190808 -0.0406905 0.0199946 -0.0132371 -0.0145111 0.0158799 -8.46457e-05 -0.00358929 0.00438467 -0.0270327
0.00630002 0.0266077 -0.0108673 -0.0383187 -0.0159083 -0.013027 0.0320805 0.0168399 -0.0352617 0.029285 0.0334501 -0.0241234 -0.00089957
-0.0856051 0.0333601 0.153245 0.00539714 -0.104853 -0.0437006 0.0714168 -0.103825 0.0380402 0.0971782 0.143164 -0.0453828 -0.00882314
-0.0369407 -0.00856579 0.0251145 -0.000356351 -0.0166445 -0.0082546 0.00108284 -0.0512092 0.0253573 0.0179271 0.024718 0.0240733 0.00205915
-0.0482741 0.0104936 0.0233186 -0.0011988 -0.00563019 0.000139973 0.0448056 -0.0721632 0.0335047 0.0019421 0.0572451 0.0207908 -0.0392385
-0.066108 0.0771072 0.0638214 0.0112002 -0.0425225 -0.00357277 -0.00285382 -0.139696 0.0520119 0.158229 0.118998 -0.040313 -0.0717785
0.0113058 0.038185 0.0272442 -0.0128478 -0.0182043 -0.0343407 -0.0313822 -0.0286077 -0.0173067 0.01672 0.0347741 -0.0365109 -0.0269437
-0.0311673 -0.0244951 -0.0152244 0.031837 0.000364987 -0.0119442 -0.00620612 0.0191178 0.00220568 -0.00813791 0.0076244 -0.00842069 -0.00320151
0.0266734 0.0622586 0.0331105 0.0257163 -0.0667322 0.113924 -0.125327 -0.111602 0.123788 0.183921 0.108522 -0.0279258 -0.0683748
0.0288602 0.0273794 0.0268418 -0.0345731 -0.00353 -0.0281735 0.0129983 -0.0290758 0.0131525 -0.0321019 0.0234463 -0.0161944 0.0254667
-0.032849 0.0147575 0.0177422 -0.0357663 -0.0191004 0.0382324 -0.0258286 -0.00121567 -0.0327493 0.00569145 -0.00857424 0.0121782 -0.0228752
0.00455794 0.0285115 0.0157928 0.0307492 0.0103199 0.0152918 -0.0343472 0.0138936 0.0239074 0.0365522 -0.00928681 0.0338309 -0.0189785
-0.0809347 0.0630415 0.0532834 0.015188 -0.0514806 0.0403845 0.0288894 -0.08738 0.037355 0.0917615 0.107227 -0.0298663 -0.00624532
-0.0224641 0.0833601 0.0524433 -0.0242788 -0.0689019 0.0469037 -0.0508307 -0.0569562 0.0787372 0.1031 0.114742 0.0107434 -0.0512889
-0.00953182 -0.0340069 0.00669751 -0.0275949 -0.0148488 -0.00299111 0.0276613 0.0276161 0.00611205 0.000693023 6.21608e-05 0.00198356 0.0275342
-0.014151 0.0113518 0.00446176 -0.0312042 0.0221822 -0.0371824 0.0370499 -0.00570009 -0.026289 -0.00540029 0.00184087 0.0375759 0.0242249
-0.141075 0.0552322 0.176609 -0.0303793 -0.124151 -0.0518768 0.0699281 -0.161892 0.0314193 0.102561 0.13078 -0.018283 -0.068457
-0.0294574 0.0063374 -0.0206642 0.00931204 0.0224991 0.00646028 -0.0198945 -0.032254 0.00254483 -0.00451076 -0.0222342 -0.0111578 -0.0295156
-0.0265706 -0.0024578 0.0292755 0.0234764 0.032117 -0.00224744 -0.00197481 -0.0337709 -0.0191612 -0.0195162 0.00674927 0.0263561 -0.00780074
-0.0189399 0.0287519 -0.00243835 0.0339373 0.0335317 0.0193782 0.0369177 0.0171353 0.0179819 -0.00364251 0.012442 -0.0253724 0.013166
0.0103068 0.00182493 0.0137968 0.00169182 -0.0202798 -0.00224211 -0.022721 -0.0197252 0.00478542 -0.0287611 -0.015087 -0.0282498 0.0333777
-0.0625037 0.0380596 0.0743264 -0.0181874 -0.0208064 0.0322628 0.0128396 -0.0667727 0.0118443 0.0778193 0.0499346 -0.0353454 -0.00867165
0.0177894 0.034308 0.0404438 0.0106529 0.0230595 0.016092 -0.0129337 -0.0496762 0.0404009 0.00571802 0.000589249 -0.0095012 0.0184079
-0.0318721 0.0144288 0.0340646 -0.0392447 -0.0148446 -0.0159731 0.0137649 0.022028 0.0300416 -0.00901262 0.00429195 -0.0153162 -0.0327204
-0.042737 -0.00494368 0.0491397 -0.0205351 -0.0546983 0.0236389 0.0493018 -0.058414 0.0219785 0.0494093 0.015605 -0.0165352 -0.000955942
0.000567311 -0.0358731 -0.0168491 0.00687946 -0.0258068 -0.0120062 -0.0152626 0.0269225 0.0382391 0.016623 0.0236086 -0.0251498 0.00932835
-0.0612243 0.0602564 0.0876427 -0.0165303 -0.0654195 0.00387772 0.0132108 -0.14574 0.0336555 0.0856303 0.0811417 -0.0420198 -0.0344283
-0.0105277 0.0322768 -0.0163383 0.00843546 -0.0236891 0.0145936 -0.0309753 0.0199489 -0.000598554 0.0120953 0.0131468 0.0365808 0.0174363
-0.00545291 -0.0217281 0.0275099 0.0291171 -0.00127154 0.0396321 0.0280377 -0.0543412 -0.0170907 0.0628912 0.0522936 -0.0157789 0.0173928
0.00799903 -0.0274047 0.0050855 -0.00232453 0.00320939 0.00633727 -0.0124341 0.036481 -0.0191271 0.0328411 0.000801251 0.0145964 0.00495573
-0.041073 -0.0215897 0.0255282 0.00853347 -0.00878907 -0.0109111 0.0273831 -0.00983962 -0.0342768 0.0385824 -0.0249824 0.009427 -0.00374921
0.0222318 0.0299746 0.00177451 0.0337797 0.0342324 0.00162982 0.000101192 0.0242788 -0.0156106 0.0381303 -0.0146607 -0.00758513 -0.00192064
-0.0525504 0.121448 0.185615 -0.0381151 -0.0743025 0.026501 -0.026036 -0.129562 0.0890888 0.189611 0.169187 -0.0544239 -0.072442
0.0344298 -0.0345207 -0.0238306 0.0266927 0.0169901 0.00651055 -0.0208379 -0.000982059 -0.0251228 0.0249621 0.0282902 0.0262443 0.00782283
-0.0262794 -0.014725 -0.0246844 -0.0353837 -0.00861772 -0.00718064 -0.0348347 0.0118124 -0.00243366 0.034247 0.0351322 -0.0217256 -0.0120931
0.0129544 0.0159134 -0.000907051 -0.016421 0.0263948 -0.027288 -0.027997 -0.0467341 -0.0283575 0.0122393 -0.0286204 0.00787594 0.0229513
-0.0361274 -0.00360471 0.0361286 -0.0151685 -0.0038042 0.000105239 0.040296 -0.0352464 -0.0245284 0.0551973 0.0319637 0.00503072 0.0260135
0.00603711 -0.0102743 0.00787061 0.0150384 0.0206283 -0.0356183 0.0285152 -0.0271596 0.0217657 0.0346174 -0.0360137 -0.00936606 0.0353383
-0.0464948 0.0221406 -0.00266808 -0.0263046 -0.00992099 -0.00882084 -0.0166686 -0.0262042 0.0186472 0.0419631 0.0148203 0.0224443 -0.0217636
-0.0278927 0.0245881 0.0979531 0.0231869 -0.054992 0.00557994 0.0182773 -0.112062 0.011326 0.0889324 0.0956147 0.0090456 -0.05677
-0.0276322 0.0531258 0.0366938 -0.00816083 0.0129722 -0.00781326 -0.0258064 -0.0216271 -0.0104824 0.0389014 0.0617758 0.0218431 -0.0418247
-0.00480692 0.0369993 0.0349788 -0.0326403 -0.0390991 0.0241261 0.0123847 -0.0419971 -0.00180538 0.0483375 -0.0115605 -0.0179289 0.0039616
-0.0355752 -0.0255703 -0.026539 -0.0293957 0.0177064 -0.0162047 0.00725927 -0.0259635 -0.0270685 -0.0117446 -0.017257 -0.000694634 -0.0107564
-0.0222111 0.0516498 0.0705633 -0.0183265 -0.0462834 -0.015582 -0.0104255 -0.0532316 0.0674928 0.0979991 0.0911158 -0.00734303 -0.0266512
0.0106953 0.0245802 0.0246808 0.0158723 -0.00353141 -0.0191091 0.00754071 -0.000183318 0.0158484 0.0373617 0.0202917 0.0272122 -0.0283694
0.00666757 0.0137556 -0.037638 0.0246291 0.0354193 0.00325429 0.00973899 -0.0127043 0.034261 0.0116981 -0.0062973 0.000637101 0.0217422
-0.0861218 0.0596585 0.0494352 0.0135836 -0.055455 0.0320349 0.0458974 -0.108521 -0.0120269 0.0572766 0.0719102 0.00434072 -0.0328296
0.0122102 -0.0240005 0.00893559 0.0135911 -0.0407297 0.0367969 -0.0134287 -0.0357571 0.0301392 -0.0115885 -0.0275434 -0.00713046 -0.0094761
-0.0325268 -0.0065061 -0.0035176 -0.0145001 0.0357818 0.00322888 -0.0197765 -0.0114367 -0.0328922 0.00794667 -0.0218178 -0.0125858 -0.000676141
-0.051437 0.00442852 0.0495909 -0.00337909 -0.0467797 -0.0267968 -0.023913 -0.0527322 -0.0270179 0.0379092 0.00471245 -0.000753171 0.0156599
-0.0393454 0.0680055 0.022753 -0.020117 -0.037852 0.0366406 -0.00367614 -0.0628291 0.0179448 0.0379974 0.025386 -0.0243465 -0.0252727
0.0349074 -0.0274298 -0.0139077 -0.0198826 -0.00794545 0.00166968 0.00385133 -0.0179822 -0.0108656 0.0398379 0.0223436 0.00779799 0.0107463
-0.0305705 -0.0356529 -0.00367317 0.0105384 0.037133 -0.0210956 0.00317393 0.0125928 -0.024223 -0.0265577 -0.0328822 -0.0296694 0.0340185
-0.0283964 -0.00676207 -0.0107145 0.008641 -0.0259391 0.0368293 0.0377102 0.00111237 0.0302286 0.0158181 -0.00127798 -0.0356758 -0.00416726
0.0260701 -0.0325113 0.0311153 -0.0212399 0.0370424 0.00279456 -0.0314697 -0.0246968 -0.0220925 0.0186915 0.0341469 0.030769 0.0268815
0.0188096 0.00224051 0.00688964 0.0156178 -0.0111002 -0.00135275 0.0111887 0.0242669 -0.0306054 0.0223508 -0.0042731 -0.0286487 0.0241581
-0.0044421 0.000258433 0.0270689 0.00318115 -0.0187664 0.0041173 -0.0254336 -0.0380856 -0.0327475 -0.00110108 0.000245839 0.00217516 -0.00758039
0.0275133 -0.0244707 0.0302338 0.0046506 -0.0303827 0.0453265 0.00302405 0.00398124 0.0017931 0.0576583 -0.0159341 -0.0144625 -0.0252145
-0.0236817 0.00729315 0.00446443 0.00496355 -0.0215978 -0.0334354 -0.00877328 0.0148151 0.0271872 -0.0295285 0.00309735 0.000472386 0.0323864
-0.104435 0.0415972 0.155281 0.00752276 -0.121306 -0.0411084 0.0944651 -0.112099 0.0640195 0.151989 0.133168 0.00141902 -0.0662926
-0.0148106 0.0337989 0.0123828 0.0142754 0.0252761 0.0371861 -0.0264237 0.0365432 0.0382082 0.0138576 0.0340462 0.0115725 -0.035303
-0.0343056 0.0184099 0.00409563 -0.0187332 -0.00688253 0.00412693 0.00111618 -0.00196437 -0.0288185 -0.0223131 -0.028779 -0.0188973 -0.0199011
0.0272079 0.035453 -0.0152098 0.00890897 -0.00624395 -0.0207938 0.0346474 0.0126608 0.0336549 0.0174467 0.0254701 0.00119388 0.0328756
-0.0649517 0.0460072 0.04184 -0.017419 -0.0115154 -0.0140683 -0.0094024 -0.0907847 0.0367714 0.089165 0.0927002 -0.00909493 0.0177824
0.0118708 -0.0257877 0.011465 -0.0158649 -0.011064 0.0128279 0.025751 0.0231228 0.0191167 -0.0168629 -0.0253084 -0.03374 -0.00135121
-0.0307165 -0.0371275 -0.0312424 0.00717187 -0.00177556 0.0302653 0.0100319 0.0347185 -0.0128229 -0.0132832 -7.36812e-05 -0.0116839 0.0037823
0.0177958 0.00255779 0.00356609 -0.0363684 0.00319086 0.0169238 -0.00300285 -0.00811956 0.021763 0.068333 0.0511097 0.0247008 -0.00485853
0.0165768 0.0016292 0.0332295 -0.00713036 0.029642 0.0309254 0.022044 0.0256942 -0.0211236 0.00455433 -0.00156311 0.0186119 -0.0105689
0.0315463 -0.0215996 -0.00137378 -0.024382 0.0101206 0.0203902 0.00794101 -0.0110679 0.03154 0.0175897 -0.0038203 -0.0359209 -0.0346847
0.0138895 -0.0367594 0.00271762 0.0141109 -0.0203939 -0.0294451 0.00454117 -0.0208994 0.033519 -0.00121939 -0.032002 0.0303956 -0.0151614
0.00226007 0.0133352 0.00351987 0.0333703 0.00949144 -0.00470098 0.0179711 0.012537 -0.0107268 0.0424342 0.00948062 -0.0147798 -0.0363895
0.0314524 -0.0239982 -0.0268248 -0.0312192 0.00791843 0.00155107 -0.0244058 -0.013257 0.00736171 0.0174518 0.0132395 0.036178 0.0155782
-0.0356826 -0.00503205 -0.0273555 -0.00962034 -0.0261686 -0.0292955 0.0256498 0.0239471 0.0327675 -0.0250755 -0.0343032 -0.0276338 -0.0103412
0.0228084 0.028291 0.017905 0.0200519 0.0218965 0.0377552 -0.00239957 -0.0195639 0.0141169 -0.00477541 0.0312887 -0.0328367 0.0289674
-0.0374974 0.0562683 0.038987 -0.0152023 -0.0617505 0.0235909 -0.00591607 -0.0399355 0.0314485 0.0483834 0.0726248 -0.0107065 0.00265947
0.0246173 -0.0314033 -0.00816242 0.0298528 -0.0103851 0.0233453 -0.0185757 -0.00579933 0.014033 0.0256564 -0.0178585 -0.0329761 -0.0100243
-0.027361 -0.0147804 0.000955416 0.0339193 -0.0302619 -0.000481979 -0.0259747 -0.000345219 -0.00889471 0.0358476 -0.0227793 -0.0315617 -0.0236468
-0.020302 0.00824063 0.0293806 0.0278128 -0.0399441 0.0148046 -0.024592 -0.0362455 -0.0297331 -0.00338819 0.00874064 -0.000138526 0.00204209
-0.0350662 -0.0312041 0.0278282 0.0213762 0.0132603 -0.0124307 0.0241227 0.00428288 0.0208152 0.0198666 -0.0212244 -0.0337366 -0.024253
-0.0105492 -0.00474036 -0.0146236 -0.0395412 0.00149074 0.0103633 -0.0234753 -0.0291909 -0.0171717 0.0297161 0.0551778 0.00774264 0.00254211
-0.0319517 0.00202281 0.00713085 -0.00491632 -0.0084943 0.0112997 0.0264477 -0.0338608 0.0225299 0.0289481 0.000957438 -0.009272 0.0246014
-0.0083099 0.0150931 -0.00587166 -0.011754 -0.0100503 -0.0278183 0.0180256 0.0293905 -0.0174478 0.0182185 -0.0100452 0.00762298 -0.0104569
-0.0107872 -0.0201834 -0.000254714 -0.0291222 -0.0108937 -0.0173134 0.0309456 0.0144676 -0.0344707 0.0289024 -0.020954 -0.0220519 -0.0131345
0.0129687 -0.011268 0.0124798 -0.0363635 -0.0343991 -0.00540233 0.00577011 0.00531412 -0.0327084 -0.0101186 -0.0305355 0.00206111 0.00543339
0.00430355 -0.0188758 0.0351459 -0.0115858 0.00297767 0.0237836 -0.0282742 0.0322073 -0.0162562 0.0305401 0.0192473 -0.0311425 -0.00787008
-0.0170041 -0.0312766 0.015132 0.0254224 -0.0352136 0.0146615 -0.0166296 0.0188398 0.0221808 0.0453297 0.0017043 0.00261757 -0.00963624
-0.0677629 0.060954 0.0781225 -0.0431492 -0.068909 0.0244045 0.0140168 -0.116034 0.0893468 0.134811 0.160505 -0.0719306 -0.0653888
-0.164455 0.133252 0.189726 -0.035058 -0.149726 0.0649655 0.0848819 -0.243343 0.0876823 0.20882 0.21038 -0.0697453 -0.0541644
0.0258619 -0.0358866 0.0315089 -0.0325202 -0.0129119 0.0168219 -0.0287419 0.0167623 0.00639683 0.0344339 0.0289692 0.000642641 -0.0264629
0.0125983 0.0279733 -0.0271879 -0.0130203 0.0356622 -0.0276498 0.0248649 0.0321571 -0.000723974 -0.000829765 0.000734206 -0.00703123 0.00650967
0.0111382 -0.0330097 0.0017147 -0.0332893 -0.0102546 0.0314078 -0.0177262 0.028395 0.0289869 0.0279744 0.0088281 -0.021459 0.0303792
0.00197159 -0.00430969 0.00437612 0.0106542 0.035903 0.01286 -0.00883671 -0.0061706 -0.0146978 0.0065703 0.0128512 0.0368692 -0.0126567
-0.0385983 -0.0176484 0.0229863 -0.04745 -0.0627433 0.0335509 -0.00396397 -0.0456334 -0.0123363 0.011979 0.0535215 0.00580561 0.0113731
0.0924179 0.287265 0.304964 -0.106378 -0.0660969 0.052426 -0.278567 -0.114169 0.330337 0.489408 0.221852 -0.0737605 -0.0926346
0.00452216 0.00524929 -0.0126349 -0.037631 0.0081553 -0.0165658 -0.0318684 -0.0306142 -0.030288 0.0176438 0.0159689 0.0343189 -0.0126136
-0.0334654 0.00242795 0.0201777 -0.00358157 -0.0103463 0.0401541 0.0310007 -0.0241046 0.0190173 0.0498849 0.0654589 -0.0188786 -0.0391003
-0.0305666 -0.0216731 -0.0241194 0.0373996 0.000239382 0.0207118 0.0356082 0.0252784 -0.0305873 -0.0213494 -0.0169787 0.0327069 -0.0367225
-0.00802911 0.0393853 0.0430798 0.00819009 -0.0409252 0.0251359 0.0320713 -0.0493726 0.0177322 0.0455171 0.00588488 0.032576 0.0320021
-0.0633739 0.0515133 0.0121764 -0.0464944 -0.00464309 0.00788902 0.0598955 -0.0802603 -0.016799 0.0675083 0.09355 -0.00768271 -0.0212001
-0.033957 0.037756 0.0386246 0.0113406 -0.0170624 0.0289404 -0.0319336 0.0297998 0.0156211 0.0352717 -0.017972 0.0373236 0.0121834
-0.133241 0.0723278 0.0665719 -0.0414592 -0.05146 0.00564706 0.030335 -0.164058 0.0574963 0.118495 0.136606 -0.0687139 -0.0463167
0.0251944 0.0326851 0.00523811 -0.00810408 -0.0247907 0.00243773 -0.0310404 -0.0242104 0.00742851 -0.0211142 0.00193374 0.017911 -0.00231083
-0.0318208 -0.0145831 0.0139735 -0.0250168 0.0157502 0.0294676 0.00703486 -0.0109931 0.00878481 -0.0305987 0.026964 -0.0165349 0.021893
-0.0385386 0.0280039 0.0223761 0.0224605 0.0202192 -0.000671965 0.0173058 -0.0366649 -0.000207582 0.0122701 0.0139935 -0.012696 -0.0407575
0.0326897 0.00242038 0.035551 0.0185448 0.0109067 0.0265314 -0.0246054 -0.00615713 -0.0376894 -0.0172118 -0.00116201 0.0314396 0.00496024
0.0226554 -0.00523074 0.00955184 0.0308837 0.0107527 0.0317965 0.0214385 -0.0095251 -0.0147537 0.00707632 0.0391705 -0.00267812 -0.0341427
0.0195956 -0.0217724 0.0498877 -0.0379828 -0.0557872 0.0228504 -0.00369058 -0.0534314 -0.0175121 0.0397741 0.0341681 0.00531768 -0.00163738
-0.0323997 0.0233061 0.0186355 -0.0290076 -0.03236 0.0296641 0.00481246 -0.030369 0.000389489 0.0127221 0.023062 0.0296695 0.024788
-0.0176736 0.035187 -0.00825713 0.00418101 0.00530769 -0.00511069 0.0375181 -0.00436925 -0.0080292 0.0268775 -0.0305254 0.0121937 -0.0287982
-0.0199861 -0.00572663 0.0104205 -0.040133 -0.0257433 0.0424096 0.035296 -0.0348266 0.00396544 0.063827 0.0204004 -0.023371 0.0183573
0.00156599 -0.00557166 -0.00489427 0.0119013 -0.00957422 0.0104273 -0.0174437 0.0342578 0.0274512 0.0384009 -0.0339027 -0.00190825 -0.0134186
-0.00946409 -0.00834119 0.0437108 -0.00195407 -0.00492249 0.00251988 -0.0326651 -0.00343345 0.0196319 -0.018646 0.0324854 0.0298855 0.0205205
-0.175455 0.16872 0.317558 -0.0960292 -0.144526 -0.0485177 0.128816 -0.282012 0.0835353 0.216785 0.220711 -0.0269816 -0.0826411
-0.0338687 -0.0322143 -0.0148997 0.0318721 -0.0104651 0.0253167 0.0115308 0.00390545 0.000734817 -0.0356861 -0.0207997 0.00160581 -0.0209406
-0.0224489 0.00123677 0.0376457 -0.0124569 -0.0261622 -0.0217552 -0.0152926 -0.0278789 -0.0192424 0.036472 0.0228859 0.0363198 0.00512268
-0.0397837 -0.0248604 0.00604322 0.0109537 0.0149936 -0.0151587 0.0367402 -0.0315365 0.00612226 0.0102554 -0.0323823 -0.00497621 -0.00293184
-0.141683 0.13742 0.224707 -0.065377 -0.1376 0.0258563 0.0540386 -0.193581 0.102737 0.223552 0.229872 -0.0506592 -0.0420391
-0.0018703 -0.0222913 0.0267746 -0.021524 -0.00842308 0.033783 0.00528531 -0.0255136 0.00106076 -0.0239026 0.021174 0.00156277 -0.0368954
-0.00862605 0.0187209 -0.0133758 0.0316858 -0.017636 0.0356674 -0.0246861 0.0143264 0.0388233 0.0108456 -0.0141757 -0.0242891 0.0329949
-0.0963448 0.0835413 0.12589 -0.0498813 -0.0905569 0.0109755 0.00859209 -0.120769 0.0563016 0.144337 0.112138 -0.0077084 -0.0149952
-0.0131625 -0.0169935 0.0208092 -0.0269014 0.00963973 0.0232878 -0.0183858 0.0051713 0.0380845 -0.00228572 0.00976963 -0.0051444 0.0351665
-0.320889 0.21375 0.501973 -0.101179 -0.299645 -0.218416 0.309811 -0.291197 0.108679 0.207693 0.327206 -0.0212526 -0.095774
0.0351561 -0.0163439 0.0326103 -0.0133853 0.0142485 -0.00479192 -0.0253096 -0.00197719 0.010347 -0.0262792 -0.0292631 0.0240476 -0.00686049
-0.0220815 0.0230091 -0.0352531 -0.0295161 -0.012732 -0.000813221 0.015939 -0.0221071 -0.00212315 -0.0128256 0.0192144 -0.00504366 -0.00584588
0.0165178 -0.0205986 0.00320146 0.0172289 -0.0302933 -0.0229068 0.0317598 -0.00856594 -0.0207975 0.0422126 -0.0124052 0.0311187 -0.0126475
0.00595709 -0.00207274 0.0235453 0.0136273 -0.00504164 0.0405964 0.0251699 -0.0764704 -0.0107151 0.0743071 0.0145316 -0.0177077 -0.0431249
-0.0307738 0.0262974 -0.000422888 0.0144428 -0.0392631 0.0208605 -0.0280177 -0.0272337 0.0231188 0.0290585 0.0200586 -0.0378634 -0.0207074
0.0265842 0.00965654 0.0163925 0.0314551 -0.0134626 0.0166374 0.0264399 -0.0219025 0.0129187 -0.0327736 0.00607251 -0.0321759 -0.00837256
0.0150884 0.0263506 0.0315189 0.0136231 0.000404587 0.0381984 0.00250807 0.0242393 -0.0224238 0.0338516 -0.0175994 -0.0119014 -0.0035208
0.0124856 0.0387645 0.0430694 -0.00175352 -0.0238198 0.0153045 -0.00381639 -0.00135128 -0.00268012 0.0295035 0.00968635 -0.023238 0.0200036
-0.00814674 -0.00275192 -0.0116883 -5.36396e-05 0.0071155 -0.00852001 -0.0279856 -0.0334211 0.0165576 0.00991571 0.00486714 0.00156275 -0.0107393
0.00548786 0.0295469 0.0279827 0.0279208 0.00510008 0.00279327 -0.0361592 0.00483595 -0.0146892 -0.0051161 0.0116381 0.0342631 -0.0248788
-0.0246999 -0.0197979 -0.00659254 -0.0208143 -0.0149811 -0.0208237 -0.0332823 -0.0201633 0.0350506 0.00949117 -0.0346039 0.01175 -0.0122056
-0.00346988 0.00693577 0.0387993 0.00840971 -0.0370302 -0.0273866 -0.0284779 -0.0263906 -0.0330104 0.0131599 -0.01162 -0.00163751 0.0341227
0.00950513 0.0232622 -0.0182821 -0.027971 -0.025164 0.0130132 0.0139312 0.0219182 -0.0177513 -0.0262371 0.0195357 -0.0393219 0.00734937
0.0209582 0.0269475 0.0345953 -0.0136448 0.0229597 0.0101683 -0.0300507 -0.0142368 -0.0102895 0.0114519 0.00843749 0.00718302 0.0158532
0.0341835 -0.0327009 0.00759805 0.0346494 0.0344377 0.0145555 8.27061e-05 0.0276683 0.0308623 0.0308776 -0.0146149 0.000678217 0.00360027
-0.00415907 -0.0165129 -0.021495 -0.0375745 -0.0174648 0.0190678 -0.0348986 -0.00280697 -0.0276897 -0.0185433 -0.0308526 -0.0327427 0.0116049
-0.00250027 0.00104524 0.0247909 0.0350909 -0.0216288 0.0082178 -0.0263331 0.00443827 -0.0350986 -0.0244082 -0.0210166 -0.0100572 -0.0074323
-0.339644 0.0525164 0.133086 -0.0391345 -0.107583 0.0860643 0.220643 -0.396271 0.0192201 0.123994 0.258508 -0.186249 -0.0714368
-0.0144025 -0.00427101 -0.0201131 0.0223965 0.0144167 -0.00228043 0.0266569 0.0105629 0.0240985 -0.0223 -0.000466254 0.00578622 -0.0106558
0.012315 -0.0231104 -0.0228388 -0.0209612 -0.00831575 0.0343647 -0.00396953 0.0231196 0.0264665 0.0125895 0.0171182 0.0128903 0.026701
0.0100631 0.0222508 -0.0065047 -0.0352994 -0.00294437 0.0103292 -0.00353972 0.00336047 0.0345155 0.0381921 -0.0146705 -0.00862459 -0.0281584
-0.0398556 0.0372073 0.00933916 -0.00368558 -0.0352485 -0.022112 -0.0168067 -0.0322874 0.0467812 0.0575306 0.0669081 -0.0257686 -0.0214711
0.00722224 0.0372291 -0.0271254 -0.0330463 0.00555344 -0.0033907 -0.0345434 -0.0244133 0.00199625 -0.0144342 0.0361152 0.0110261 -0.00491273
0.0110573 -0.00186709 0.00924966 0.00317673 -0.0205994 -0.0299927 0.0228009 0.00898133 -0.0298951 0.0254462 -0.00727576 -0.0300755 -0.0278416
0.0187618 -0.00558064 -0.0256772 -0.000101325 -0.0303255 0.000563386 0.0232545 -0.0320825 -0.0354551 0.0250214 0.014655 -0.0126339 -0.038119
0.0242654 0.0211673 -7.52016e-05 0.0195905 -0.0303193 0.0314278 0.00943062 0.00131487 0.00207676 -0.00296734 0.0215549 -0.0101647 -0.0360292
0.034248 -0.0249595 0.0229732 -0.0270723 0.018505 -0.0265854 0.0353852 -0.0246625 0.0270507 -0.0275942 0.0206531 -0.0324811 -0.0395456
-0.309161 0.204733 0.459966 -0.113716 -0.233082 -0.179523 0.28709 -0.308967 0.106663 0.216069 0.332576 -0.0655973 -0.115863
0.0040562 0.015375 0.0441608 -0.0263763 0.00745462 -0.00556711 -0.0185954 0.0135271 0.0184928 -0.0192127 0.00585716 0.00198122 0.019323
0.0122046 -0.0129315 0.0287438 0.00720498 -0.0279842 -0.0264522 0.0132754 0.0175455 0.0348747 0.0219706 -0.0233304 0.00251709 -0.0271655
-0.13353 0.0456899 0.170103 -0.0389669 -0.0637152 0.00061138 0.0525445 -0.148297 0.0333397 0.0783867 0.159381 0.0056545 -0.00385034
-0.0264719 -0.0245321 -0.00018443 -0.0223227 -0.00399432 -0.00377106 0.0193999 -0.00749215 0.0339966 -0.00979974 -0.0117009 0.0291719 -0.00165769
0.0339942 -0.03591 0.0141805 -0.0303939 0.0197856 0.0283788 -0.0241022 -0.00457176 0.0242132 -0.0241976 0.0120478 -0.0307481 0.0359269
-0.175025 0.0855962 0.206167 -0.0574457 -0.161196 -0.0257307 0.114758 -0.232504 0.0610375 0.211834 0.207934 -0.0924078 -0.038313
0.0277947 0.0246103 -0.00481434 -0.0276482 0.0138746 0.0155993 0.0267791 -0.0421077 0.0425807 0.0120901 -0.00802551 -0.0269493 0.00667216
-0.00892854 0.0135139 -0.0108318 -0.00818391 0.0108027 -0.0202739 -0.0105945 0.00662377 -0.00606303 0.0454733 0.0353454 0.0249425 0.0122273
0.0166401 -0.00997319 -0.028719 -0.0326467 -0.021224 -0.00260167 0.0292781 -0.0397756 0.0218697 -0.0198936 -0.025667 -0.0258022 0.012916
0.0196862 -0.0169987 0.0561317 0.0181592 -0.00294941 -0.0249203 0.0292562 -0.0254093 0.0233807 0.00165336 0.0608219 -0.0190121 -0.0269371
0.00988657 0.000105794 0.00246852 -0.0297633 -0.0405817 -0.00690192 -0.026821 0.0210158 -0.0326501 -0.013605 -0.026486 0.00269976 -0.020579
0.0164465 0.0467986 0.0280758 -0.0287984 -0.0308393 0.0121462 0.0162939 -0.054251 -0.00947968 0.0109021 0.0565038 0.00155468 -0.0438459
-5.65356e-05 -0.013081 -0.00215863 0.0336221 -0.0175285 0.0303797 0.00517862 -0.0137801 -0.0248726 -0.0108507 -0.0265213 -0.0332914 -0.0246318
0.0272434 0.032103 -0.0283952 0.0242381 0.0227584 0.0363501 -0.00859963 -0.000964178 0.0321649 -0.0350374 -0.0228953 -0.0330565 0.0199658
-0.00773379 0.0242836 -0.0349805 0.00525576 0.0300968 -0.0221228 0.0177185 -0.038981 -0.0266487 -0.0325709 0.0323952 0.0186106 -0.0287079
0.0308798 0.0145956 -0.0242242 0.00174261 -0.00281072 -0.0313808 -0.0013197 -0.0226817 0.0272185 0.0281395 0.0412873 0.0341812 0.006196
-0.0227114 0.0237957 0.0134475 0.0248785 0.0108856 0.00126906 -0.0019032 -0.0244813 -0.0182182 0.0366852 -0.00275246 -0.0172692 -0.0466506
-0.0822409 0.0336945 0.0364409 0.0237935 -0.0230822 0.0330867 0.0346999 -0.0951895 0.00418153 0.100218 0.107292 0.0093748 0.00232647
-0.106092 0.0557361 0.112171 0.00756276 -0.0895256 0.00966957 0.0893526 -0.214173 0.0609048 0.172802 0.127929 -0.0722843 -0.0221767
-0.0913859 0.0588477 0.068176 -0.00526768 -0.0494012 0.0381529 0.0410314 -0.126947 0.0562643 0.0571195 0.0733832 -0.00548882 -0.0232178
-0.0389055 0.0321926 -0.023363 -0.0258098 -0.0171615 -0.0213778 -0.0336644 -0.0347409 0.00871074 -0.00960962 0.0157583 0.0189082 -0.0120841
-0.0391087 0.0360371 0.0159919 0.0149908 -0.0295221 0.0255386 0.0376488 0.0241749 -0.0171627 -0.023801 0.0349129 0.00497129 -0.0185705
-0.0300811 0.0215742 0.0421844 -0.0373858 0.0274921 -0.0329488 -0.0316688 0.022375 -0.00408112 -0.0063456 -0.0172642 0.0308812 -0.00731745
-0.178186 0.124484 0.144709 -0.0536141 -0.0993322 0.0142787 0.11713 -0.253835 0.123902 0.233373 0.204632 -0.0658519 -0.0809631
0.0207169 -0.0111883 0.00116421 0.000941487 -0.0243669 -0.0215696 -0.027864 -0.00629778 0.0190521 -0.00911697 -0.00356444 -0.0221134 -0.00459308
0.0111747 -0.013356 0.0409779 -0.0335063 -0.0332216 0.0010106 -0.022841 -0.06461 -0.0211461 0.0129161 0.0660653 0.00547636 -0.023827
0.00118937 0.00686066 -0.0344514 0.0267319 0.00605159 -0.0371391 -0.0338627 -0.00776424 0.0363756 0.00404986 0.0237226 -0.0157734 -0.0385677
-0.0379581 0.0212076 0.019887 -0.0293461 0.0286249 0.0158457 0.0403951 -0.0165248 0.034181 0.000575767 -0.00539486 -0.0108143 -0.0268469
