<<<<<<< HEAD
4424 13 66
-0.0267382 0.0344144 -0.0361955 -0.0381343 0.00339359 -0.00474988 -0.00472068 0.0158912 -0.0165948 -0.0168831 0.012602 -0.00808069 0.0298695
-0.142321 -0.0957395 0.0173681 0.116998 -0.0277473 -0.151353 -0.526705 0.153782 0.0295383 -0.11998 -0.170877 -0.009584 0.0870793
-0.0200938 -0.0155166 -0.0257198 0.0323061 -0.0128984 0.0276496 -0.000913167 -0.0244205 -0.0136501 0.000415428 -0.00740467 0.00974126 0.0206527
-0.0364265 -0.0354521 -0.0274103 0.00487868 0.0243073 -0.0224854 -0.0276884 -0.0289194 -0.0269201 0.0139606 -0.0337917 0.00244044 0.0014147
0.012457 -0.0083664 0.038329 -0.00529596 -0.0151743 -0.00244927 0.0156604 0.038226 -0.000978348 -0.00754833 0.0322847 0.0172082 0.0185577
-0.030157 0.0307669 0.0142286 -0.0229255 -0.0223501 0.00859494 0.00730995 0.0304203 -0.00488676 0.0310936 -0.0142868 0.0166991 0.0373737
-0.0281128 0.0292152 0.0227348 -0.0308534 0.0277253 -0.0321696 -0.0187551 0.0213166 0.0318972 0.00256659 -0.00709762 -0.000937513 -0.0089553
0.0182312 -0.000814083 0.0090352 -0.0363325 0.0148711 -0.0397429 -0.0178085 -0.00854578 0.0237122 -0.00338634 -0.0341049 0.00132939 0.00765537
-0.0297578 0.0227832 -0.0197443 0.027361 -0.0116515 -0.00502398 -0.0396161 -0.0303064 0.0344231 -0.00589516 0.0205717 -0.03135 -0.00778611
-0.0352056 0.00664454 -0.0288501 -0.00914623 0.0215276 0.0309508 0.0154223 -0.00909554 0.0253167 0.0147488 0.0233475 0.00313461 -0.0274053
0.0246321 -0.00864958 0.00794716 0.0102107 -0.030818 -0.0239699 -0.00900331 0.00809201 0.00818933 -0.0208613 -0.00256001 0.00284484 -0.0240429
-0.0216934 -0.0323509 0.00958212 -0.0221969 0.0116662 0.0190595 9.48897e-05 -0.0094424 -0.0153185 0.0348237 -0.0228762 0.0376569 0.0248658
0.0234706 0.0357481 -0.0179209 0.00994597 -0.0150777 0.0196411 -0.00222571 0.0320305 -0.00528553 0.0296617 0.0263216 -0.0221205 -0.0234446
-0.021919 -0.0205491 -0.0350063 0.0036606 0.00558587 -0.0397998 -0.0347875 0.000262082 -0.0328859 0.0241325 -0.00404906 0.0351008 -0.0136595
-0.0291112 0.0141889 0.0322601 0.00811854 0.01823 -0.0143948 0.0273002 -0.017748 -0.0354944 -0.0303582 -0.0128878 0.0200457 -0.025611
0.0247716 -0.0055333 0.0347284 0.0161833 0.0134129 0.00805794 -0.00216081 0.00589039 0.00701289 0.0333429 -0.0284991 -0.0331867 -0.0294512
0.0358985 -0.00408381 -0.00405817 0.0198471 0.0319887 -0.00171898 0.0250197 -0.0365551 0.00216265 0.00553006 0.0146581 0.0164462 -0.0298871
-0.00632478 -0.0242826 0.0196275 -0.00439345 -0.0158613 -0.0632302 -0.0718609 0.0440585 -0.00122098 0.0119889 0.0183299 0.000216681 -0.0287038
-0.0303721 -0.0372992 0.0309141 0.00865267 0.0394079 0.0227683 -0.0326581 0.000161509 -0.0183353 0.0252338 0.00933028 0.029383 -0.0299677
0.0370773 0.00882779 -0.0134832 0.00969194 -0.00706922 -0.0221437 -0.0216729 -0.0163679 0.00224895 -0.0172734 0.0144816 -0.0153298 -0.0288647
0.0134166 0.0178602 0.00525594 0.00868244 -0.0271108 -0.0378396 -0.0322024 0.00136911 -0.0298197 -0.0356293 0.024395 0.0213589 0.0305029
-0.0199531 0.0242121 0.00376431 0.0165674 -9.89961e-05 -0.0163758 -0.0265948 0.0313444 -0.0361634 -0.00199159 -0.0342469 -0.0134651 0.0150563
-0.00235104 0.0225691 -0.0234604 0.0237812 0.0366603 -0.0261652 -0.0222524 0.0130664 0.0164089 -0.00811414 -0.0243356 0.00584981 0.0378334
0.0207707 0.0244554 0.0108307 0.0410651 -0.0141299 -0.0562389 -0.0344543 0.0358582 -0.0128843 0.0286467 0.0361388 0.00607225 -0.00789138
0.0195825 0.02258 -0.03477 0.0253181 0.0306195 0.0148599 0.0311694 0.0230174 -0.0146444 0.0202122 -0.0238834 -0.00678478 0.0069687
-0.0409717 0.000109851 -0.0242207 0.0381046 0.00555231 0.00689244 -0.0102002 0.00436759 -0.0294213 -0.00136567 -0.0325046 -0.0182753 0.00322041
0.0223873 -0.0284508 -0.0265725 0.0381618 0.0252944 -0.00550386 -0.019637 0.0247617 0.0294072 -0.027814 0.0054214 -0.0270681 0.0113649
0.0271052 0.0211277 0.0239068 0.0187865 0.0114909 -0.0294531 -0.00894793 0.00187039 0.00615587 0.0116241 0.0340407 -0.0236666 -0.0194874
0.0192498 0.0201258 0.0246222 -0.0248358 0.00415823 0.0192948 -0.0377057 -0.0100509 0.0332944 0.000740665 0.0231788 -0.0284983 -0.0224481
-0.0279206 0.0255428 0.034294 0.0289285 0.0116077 -0.0409606 0.00161124 -0.00587485 0.028061 0.0163048 0.028635 -0.0360931 -0.0303488
0.0283959 0.00955315 0.00608542 0.0197799 -0.0348161 -0.0272673 0.0331559 -0.00263642 -0.00150184 -0.0113417 0.0261184 0.00527202 0.0128947
-0.0331183 0.0183917 0.00800923 0.0148725 -0.0301007 0.0281638 0.00574053 0.00192365 0.035728 -0.0224148 0.0303276 -0.0106773 0.0265778
-0.0299295 0.0308138 0.0221634 0.00500488 0.0309194 -0.0135767 0.00659298 0.0199411 -0.00539927 0.0196593 0.0277219 -0.0277124 0.0136445
0.00262452 0.0315137 0.0239557 -6.3672e-05 0.0214037 0.0158366 -0.0322934 -0.0085285 -0.0115857 -0.0321897 0.0189236 -0.00824017 -0.00340828
0.0178719 -0.0179379 -0.00625114 0.0148539 0.0307154 0.0354627 0.029007 -0.0207481 0.0153587 -0.0163182 0.0242043 -0.0221544 0.0345068
-0.0320019 0.0299752 -0.0338433 -0.016043 0.00736824 0.00534386 -0.00167364 0.0374378 0.0198215 -0.0285153 -0.00729408 -0.0221328 0.0254005
-0.0220823 0.0118748 0.00474246 -0.0167891 0.0365487 -0.0142705 0.0221454 0.036674 0.0107304 0.0348804 0.00289424 -0.00614117 0.00855277
0.00899349 0.0135853 0.0191121 0.0294555 0.00624106 -0.0125589 -0.0270925 0.033046 -0.0304874 -0.0214097 -0.0241241 -0.0168653 0.0215679
-0.0214041 0.0205388 0.0298381 0.0327856 0.00128499 0.014634 -0.0189567 -0.0312525 0.0241545 -0.0165274 -0.0164983 -0.00958995 -0.0255
0.968315 -0.156922 -0.129836 0.406857 0.713686 -1.01181 -0.77381 -0.143196 0.464166 0.00257511 0.787335 0.36668 -0.677846
-0.00837324 -0.0325996 -0.0301439 -0.0338797 0.0259777 -0.00755422 0.030224 0.00597506 0.0227857 -0.00365823 -0.0300354 0.00299416 -0.0207299
0.00948245 -0.00416129 0.00319462 0.0151631 0.00209057 0.0257762 0.017485 -0.0248089 0.0157318 -0.00373652 0.0189549 -0.0142183 0.0167896
-0.0196773 0.0299731 -0.0154198 0.0176593 0.00620025 0.0363518 -0.00217102 -0.022458 -0.0240046 0.01288 -0.000785376 0.0329279 0.0332034
0.0258265 -0.00686668 0.0335912 0.061658 0.0284824 -0.0678413 -0.102299 0.0255766 -0.0230846 -0.028531 0.00270741 0.0263931 -0.00755122
0.0225483 -0.0237167 -0.0354392 -0.0183229 0.0118562 0.0370454 -0.0136961 -0.0024051 -0.00292054 0.000421343 -0.0113016 -0.0287669 0.0252335
0.0194884 0.0151331 -0.00471482 -0.00856956 0.0154856 -1.17823e-05 -0.0387192 0.00951769 -0.00590046 0.00060311 -0.00915613 0.0262332 -0.0160183
-0.0127742 -0.0306299 0.000522685 -0.0305135 -0.0192371 0.0178239 -0.0243046 -0.00328977 -0.00441377 0.0306359 0.00564235 -0.0293506 -0.0374921
0.0254254 -0.0131417 -0.0307938 0.00156701 0.0326641 -0.0287399 -0.018933 -0.0232212 -0.0218564 0.0133343 0.0138276 0.0349269 -0.0187286
0.0310639 0.0248156 -0.0254461 -0.0362399 -0.0355041 0.0306586 -0.0128414 -0.0144279 0.0152865 0.0252791 -0.029916 0.0171287 0.0377626
0.0120884 0.0179006 -0.0111047 0.00623986 0.00844369 0.027962 0.0253718 0.000866411 0.00382289 0.0105728 0.00688875 0.00526601 0.000639042
-0.0347181 0.0226826 0.00467146 0.0368361 0.0203019 -0.0455876 -0.0362648 -0.0196075 -0.00459815 0.00763023 0.0253476 -0.0145195 0.0137583
0.0224282 -0.0266547 0.0116244 -0.0171897 -0.0176724 0.0219721 0.0291762 -0.00988396 0.0305814 -0.0343537 0.00197288 0.0232157 0.0356747
-0.0175026 0.000133088 0.0310954 -0.0240533 0.035815 -0.00693573 0.0306899 0.0265978 -0.0138378 -0.0273276 -0.0358101 0.0148878 -0.0359972
-0.0201095 -0.0247745 0.0213264 0.00422966 0.033143 0.0146548 -0.0250987 0.0166456 -0.00221176 0.0212058 0.00220421 0.0256409 0.0225379
-0.0160293 0.0046167 -0.00334076 -0.0293111 0.00118677 -0.00695742 -0.0312672 0.0117281 0.0235527 0.00741504 -0.027723 -0.00111702 0.0324432
0.011739 0.0234273 -0.0288169 0.0275022 -0.033273 0.000697549 0.0119803 -0.0105034 -0.00099915 -0.0010515 -0.0013353 -0.0326662 0.00342979
-0.0335917 -0.00868673 0.00641345 0.0175313 0.0366548 0.00643524 -0.018401 -0.0089517 0.0129933 -0.020748 -0.0145809 -0.00256279 -0.0258934
0.0203491 0.0134234 0.00830832 0.0247696 0.0251623 -0.0458368 -0.0447647 -0.00755238 -0.00683146 -0.01464 0.00365622 0.030635 -0.00385064
-0.00851083 0.0163946 0.000339846 0.0061127 -0.0190718 -0.00728788 -0.0626101 0.00698097 0.00794547 0.0241114 -0.001174 0.00401229 -0.00933887
-0.00903298 -0.0590674 -0.00155465 0.0492243 0.0570875 -0.139965 -0.161921 0.00125479 0.0483969 -0.0234093 -0.0233241 0.00100128 0.00282258
0.00403214 -0.000811277 0.0238163 0.0133849 -0.0302654 -0.00160028 -0.00321733 -0.034936 -0.0173382 0.02446 0.0303011 -0.03534 0.0164009
-0.0298968 -0.0255468 0.0206822 0.00207858 -0.0239691 0.034521 0.00438495 0.00433956 0.00151335 0.0186779 0.0125649 0.010651 -0.0144132
-0.0142858 -0.028919 0.028013 0.0241658 0.0245702 -0.0284979 -0.0104577 -0.0328971 0.0374154 -0.00101103 -0.0148786 0.0259661 -0.0180687
-0.0147984 -0.00169045 0.0270148 0.0301943 -0.0158479 0.00450733 -0.0182897 -0.0112409 0.0290359 0.0144422 -0.0178056 -0.0379112 -0.0346377
-0.0359488 -0.0278345 0.00206602 0.0118496 -0.00530827 -0.000393399 -0.0411734 -0.0215445 -0.00182052 -0.0158205 0.0326945 -0.000373832 0.033586
0.0693077 -0.114625 -0.0647108 0.286042 0.165034 -0.445357 -0.54338 -0.0103129 0.157045 0.00430645 -0.0956758 0.058403 -0.133734
-0.3068 -0.182281 0.132082 0.212196 0.0631679 -0.268838 -0.782527 0.148519 0.0212539 -0.112428 -0.53339 -0.142605 0.0933878
0.00148884 -0.0316298 0.0264365 -0.0297755 0.0249568 0.00185804 -0.00855645 -0.0168251 0.0163683 -0.0295506 0.0117035 0.0367288 0.0301933
0.000515679 0.00322711 -0.0213658 -0.0106201 -0.0124311 0.0222146 -0.00770816 -0.030647 -0.0182197 0.00232009 -0.0354354 -0.00490826 -0.011529
-0.0164791 0.000302724 -0.0315866 -0.0283212 0.0370204 0.0198415 0.0146896 -0.00901554 -0.0348691 0.00505414 0.0375902 -0.0228139 -0.00222576
0.0141241 -0.034192 0.0173702 -0.012206 -0.0332155 -0.023786 -0.0258138 -0.0233092 0.0274726 -0.00482477 0.0197863 0.0190083 -0.0349704
-0.0205176 0.00082106 0.0100659 0.0251355 -0.00274743 -0.0357703 0.0156401 0.0262569 0.0190619 0.0133176 0.00925773 0.00789482 0.0232622
0.0234281 0.0168375 0.0296446 0.0140983 -0.0132135 0.0142736 0.0342172 -0.015429 0.0076746 -0.013667 0.0377958 0.0265187 0.00169176
-0.0174649 -0.00492723 -0.0277957 -0.0260578 0.0318346 -0.029162 -0.0106429 0.00515627 -0.0203338 0.000551197 -0.00762985 0.0242924 -0.036094
-0.0506265 -0.0711503 0.0105136 0.0703099 0.0436744 -0.142623 -0.359257 0.0678545 0.0637575 -0.0495484 -0.100982 -0.00285892 0.00349335
0.00958026 0.0223852 0.0153743 0.016355 0.0141466 -0.0330115 -0.0391974 0.00874734 0.0204538 -0.0254868 -0.0341396 -0.023523 -0.0302719
0.0368722 0.0247701 0.0233737 -0.0175983 0.0185506 0.0129926 -0.0180104 -0.00226582 0.0350851 0.00173577 -0.0220285 -0.00791684 -0.00491114
-0.0278694 -0.0302034 -0.012125 0.0028952 0.0200461 -0.00116826 -0.016913 0.0331354 0.00456973 0.0242187 0.027541 -0.023737 -0.00236323
-0.0293415 -0.0241492 0.0117811 0.0617681 -0.0228257 -0.074582 -0.0989129 0.0475016 0.034479 0.0199116 -0.0166303 0.0357286 0.0230633
-0.014671 -0.0372839 0.0191639 -0.0315577 -0.010297 0.0235271 -0.0271087 -0.0141487 -0.0219276 -0.0117121 0.00331167 -0.00842431 -0.0134536
0.00209004 0.000576623 -0.0384356 -0.0154376 0.00174638 -0.00831417 -0.0209663 -0.0203657 0.022637 -0.0329785 0.0217319 -0.00283197 0.0353459
0.0170555 0.014158 0.0120486 -0.0259278 -0.0178711 0.0274735 0.00333632 0.00219618 -0.00444741 0.0231602 0.0257288 -0.00297544 -0.0334957
0.00530904 0.016478 -0.00902356 0.0307862 0.0334259 0.00323039 -0.0300611 -0.0156559 -0.0354904 0.0150139 0.00645172 -0.0173919 0.0218819
-0.028914 -0.0337018 -0.00204946 0.00942403 -0.00445924 0.00942079 -0.0530562 -0.00962356 0.0105797 -0.000706049 0.0231833 -0.000976553 -0.00467132
0.0200078 -0.0346904 0.0191624 -0.0217505 0.00126956 0.0301225 -0.0100048 0.0259647 0.0211933 -0.0329243 -0.0139133 -0.0236193 -0.00447277
0.0254547 0.0133524 -0.00981465 -0.00396929 -0.0121747 -0.0221278 -0.0173439 0.0309792 0.0351359 0.00497545 0.00585852 -0.0039596 0.000255775
-0.00728957 0.0147353 0.0284897 0.0268094 -0.0315552 -0.0407855 -0.0225153 0.0343519 -0.0159051 -0.00108801 -0.0320992 -0.0211065 -0.0082425
0.0145625 -0.0109485 -0.0270957 -0.024122 -0.0289715 -0.0288042 0.0375522 0.0278945 0.0346527 -0.0293428 0.0260499 -0.00170152 -0.00803908
0.0189807 0.00273095 0.0317691 0.00231618 0.0261678 -0.0195809 -0.0831392 -0.000565617 0.000681511 0.0134472 0.00892308 0.0192887 0.00105666
-0.0353436 -0.0313187 -0.0212501 0.0201787 -0.0330382 -0.0236622 0.0268676 -0.0117625 0.0159417 -0.00561066 0.0120572 0.0245347 -0.00351576
-0.0350918 -0.0323816 0.011673 0.0222485 -0.00503345 0.0339904 0.0133696 -0.000891369 -0.0317456 -0.000995833 0.00434183 0.0195687 -0.0139714
0.0144688 -0.0319346 0.0281874 -0.00415626 -0.00321528 -0.00658772 0.0283148 -0.0123233 -0.00862435 0.00624246 0.0291112 -0.00942572 -0.0052099
0.0122761 0.0336633 0.0332436 -0.0195545 -0.0314534 -0.0120776 0.015298 0.00218775 0.0247724 -0.0164743 0.00812834 -0.00763536 -0.0180801
0.0357568 0.00705278 0.018566 -0.0101795 -0.0309128 0.00382408 -0.00397613 -0.00854653 0.0100107 -0.0277069 0.0355179 0.0327183 -0.00112096
-0.0193353 -0.0269434 -0.022959 0.00498868 0.0362008 0.00354212 0.0136906 0.00757689 0.0332853 0.0317479 -0.0331929 -0.0229757 -0.0268849
-0.0222112 -0.00644329 0.00519482 0.00516157 0.00803744 0.0138474 0.0237156 -0.0130549 -0.00123814 0.00906421 0.0165357 0.0206435 0.0241417
0.00331261 0.0112606 -0.0185147 -0.0128629 -0.0249469 -0.0416461 -0.0589857 0.031491 -0.00179809 -0.01523 -0.0361842 -0.0232018 -0.00781213
-0.0291546 -0.0402875 0.00254794 -0.034527 0.0245352 -0.00560001 -0.0348761 -0.0314302 0.0157791 0.0323102 0.0180171 -0.00910542 -0.0334159
-0.0292549 0.0105638 0.0127132 0.0299063 0.0346595 -0.0163823 0.0243091 0.0298904 0.0130134 0.00399284 -0.0226641 0.0348668 0.0120933
0.0262158 -0.00369234 -0.0363273 0.0299734 0.035857 -0.0262352 0.00580259 -0.0368734 -0.0236079 -0.0236146 -0.00548544 -0.0347235 -0.0208983
0.022621 -0.0224958 -0.0274923 -0.0147206 0.0110289 -0.0330822 -0.0349169 0.0288708 -0.00979529 -0.0165798 -0.0233006 0.0217013 0.00462848
-0.00395192 0.00647506 -0.00924027 -0.0343792 -0.0152807 0.0193012 -0.0384938 0.0314381 -0.0375678 -0.0239747 0.00335929 -0.0179853 -0.0201304
-0.00401283 -0.021088 -0.00159498 -0.0282991 0.0200423 0.0335223 -0.0270327 0.0258323 -0.0261054 -0.00589634 0.00272279 0.0132719 0.0150683
0.0107022 0.0257397 0.0168778 0.0379836 0.0319099 -0.0399144 -0.0168476 -0.0117915 -0.0149274 -0.0304288 -0.0164151 -0.00942202 0.000158358
-0.0195451 0.0154313 -0.0234277 -0.0252032 0.0155894 0.00711892 -0.0268526 0.0318877 -0.004434 0.0260818 -0.0099156 -0.0044782 0.0355045
-0.0185929 0.00612933 -0.0133009 0.02225 -0.00486218 -0.0175693 -0.0165407 0.0108259 0.00603351 0.0106042 0.0331331 -0.0317063 -0.0142065
0.00492446 0.0271339 0.0281454 0.0195174 -0.00123798 0.0147437 -0.00718535 -0.00964177 0.00865844 0.00501941 0.00141299 0.0285362 -0.0268664
-0.0245157 -0.0383465 0.0219745 -0.0135143 0.0111649 2.41183e-05 0.00162432 0.00935874 0.0278365 0.00827004 0.0222431 0.0201843 -0.000113618
-0.0242724 -0.00615304 -0.00234485 -0.034124 0.00196322 -0.0402928 0.0171688 0.0271762 0.0247199 0.0314737 0.00352976 -0.0187066 0.0124905
-0.0196195 0.0204887 0.0316879 0.00903341 0.0037377 -0.0281323 -0.00295083 -0.0365896 -0.0298131 -0.0247112 -0.00966036 -0.00709453 -0.000854662
-0.00218321 0.0368721 -0.0228304 -0.0331284 -0.0338859 0.0177809 0.0189095 0.0343135 0.00573356 -0.0323693 -0.0172863 -0.00377796 0.0178987
-0.0197602 0.0215203 0.00855601 -0.0195154 0.027065 0.0151661 0.012651 0.000151635 0.00322291 -0.0251177 0.02741 0.0131793 0.0126711
0.0242833 -0.00180842 0.00400106 0.00505397 -0.0225951 8.01015e-05 -0.0774147 -0.0122483 0.00156141 0.0170799 -0.0338905 -0.0072253 -0.0250334
-0.043445 -0.032783 0.00475394 0.0252934 0.000288193 -0.0802373 -0.127173 0.0139308 -0.00267221 0.0132613 0.0049852 -0.0156936 0.00803791
-0.0205348 -0.00890757 -0.00666124 -0.005553 0.0180484 -0.0182896 0.0296653 0.0101696 -0.0180879 0.0233419 -0.0345857 -0.0343786 0.0192849
-0.0218024 0.0223636 -0.00996733 0.0173848 -0.0108989 -0.0268847 0.0183312 0.0309765 -0.0169871 -0.0341989 -0.0234751 -0.0211018 -0.0019858
-0.03117 -0.0160222 0.0218174 -0.0275084 0.0250812 0.0147322 0.0171123 2.89209e-05 0.0334645 -0.00318681 -0.0071291 -0.0343018 -0.0361966
-0.0617184 -0.0307114 -0.0112726 0.127413 0.00262913 -0.13953 -0.292208 0.0793572 0.0442455 -0.0512481 -0.105965 -0.04382 -0.0222587
-0.0209916 0.022219 0.000783191 0.0315865 -0.00402441 0.0122115 -0.0218657 0.00547298 0.00123564 0.0056586 -0.0163149 -0.0287707 -0.020884
-0.0363222 0.00637825 -0.0187466 0.0302107 -0.0165482 -0.036249 -0.0163065 0.00375018 -0.0030812 -0.00580067 0.00346916 0.0139923 0.0025299
0.0365642 -0.0379986 0.0051247 0.00409279 -0.00344601 -0.0100836 -0.0367573 -0.0261801 -0.00506875 -0.0300887 -0.0211317 0.0351202 0.024404
-0.0111867 -0.0136724 0.0144047 0.0355075 -0.00370546 -0.032621 -0.0141375 -0.019877 0.0173404 0.0271261 0.0127845 0.0102007 -0.0278781
0.0964397 -0.0308616 0.00452072 0.0830527 0.0635788 -0.22987 -0.258589 0.00433453 0.0414689 -0.0385596 0.0451993 0.0524089 -0.0934414
-0.030884 -0.0109063 -0.0376627 -0.0314614 0.0292506 0.0113532 0.0201755 -0.014437 -0.0171142 -0.0199551 -0.0193169 -0.0113932 -0.0222755
0.0186038 0.0307482 0.0102569 0.0178517 -0.00664416 0.0298516 -0.024718 0.014265 0.0290721 -0.000532689 0.0195247 -0.0167253 0.0271559
0.0217274 0.0155365 -0.0256561 -0.0376801 0.0148212 -0.00949735 0.0262666 -0.0144629 -0.00930041 0.0276811 -0.0291916 0.0175563 -0.0357406
-0.0151803 -0.0271266 -0.0285345 -0.0127937 0.00704892 -0.0329586 -0.0372933 0.0132705 -0.0254973 -0.0292698 0.0365536 0.0045352 -0.017224
-0.0370009 -0.0370509 0.0156209 0.00495864 0.0408897 -0.0335765 -0.0548827 -0.0151311 0.0194771 -0.0166145 -0.0312901 0.0260189 -0.00639327
-0.0050656 0.00668334 0.0141556 -0.0280333 0.038315 -0.000592044 -0.0229372 -0.0121803 -0.0255396 -0.0282405 -0.00628241 -0.0306687 0.0048787
0.0240807 -0.0162678 -0.0180373 0.0776556 0.0352942 -0.109145 -0.226702 0.0481179 0.0227221 0.00479867 -0.0559504 0.0188711 -0.00684376
-0.0202999 0.010489 -0.0366033 -0.0334146 -0.0354513 -0.00911126 -0.0409952 -0.0165072 -0.00501685 0.0185315 0.00800015 0.0127426 0.0357829
-0.00456519 -0.0250632 0.0335173 0.024797 -0.00124194 -0.0276928 -0.0563561 0.0194356 -0.021227 0.00284172 0.0062395 0.0316917 -0.00508059
-0.00230394 0.00661013 -0.0334772 0.00984635 -0.021296 -0.0362593 -0.0254356 0.0216614 -0.0111702 -0.00505481 -0.0173672 0.0257795 -0.0164602
-0.011325 0.00487944 0.0270824 0.0197433 0.032416 0.0350197 -0.000411002 -0.0191463 -0.0269176 0.0268427 0.000114449 -0.0203898 0.030967
0.00860544 -0.074883 -0.0365655 0.106454 0.00714281 -0.123749 -0.282031 0.0818973 0.0138648 -0.0527265 -0.0807236 0.00314435 -0.0192841
0.000709303 0.00177141 -0.0211126 0.0288435 0.00754529 0.0294654 -0.0148602 0.00302896 0.0348945 0.0358741 0.0304509 -0.0303782 0.0308306
0.0122575 -0.0112825 0.0186931 -0.00480841 -0.0216358 0.011613 0.0158584 -0.0255345 -0.0188867 0.00468866 0.021375 -0.0288316 0.031108
0.0310631 -0.00780777 -0.0173167 0.0145131 0.0169804 -0.00760583 -0.0170284 -0.0340097 -0.0170621 -0.0341621 0.00694728 0.0279002 0.00945894
0.0160114 -0.0229277 0.0274305 -0.0335387 -0.0241726 0.00493804 -0.0236054 0.00664476 0.0285375 -0.0202039 -0.0239722 0.000712996 -0.0297149
-0.0136741 -0.00750995 -0.0276252 0.0439442 -0.0115867 -0.0600263 -0.173229 0.0663649 0.0167294 -0.000486874 -0.0411423 0.0510949 0.0142476
-0.0101459 0.0226904 0.0139862 -0.0114625 0.0153226 -0.0177343 0.00601575 0.00497527 -0.0129999 0.0177088 0.0180236 0.0267891 0.0317215
-0.0101129 -0.0386626 -0.0255616 0.0484384 0.0485638 -0.125715 -0.281438 0.0576871 0.0422078 -0.0501414 -0.0604612 0.0394676 -0.0102635
0.0207652 -0.0152028 0.00549206 0.0239285 -0.0309261 -0.0247625 0.0105882 -0.0112385 0.00107074 -0.0117372 -0.00109195 -0.022654 0.0191184
0.00753937 -0.0204481 0.034206 -0.0162404 0.00997975 0.0309667 0.0252844 -0.0271401 0.00888552 -0.0203084 -0.0104222 -0.0241942 0.0195791
0.00108973 0.00574167 -0.00226929 -0.00119104 0.00711357 0.00249612 -0.0384432 0.0148854 -0.0353512 0.00988359 -0.0341936 0.00807059 0.0265992
0.0208472 0.0239833 0.0338785 0.0160034 0.0377446 -0.0227878 -0.0416331 -0.0158522 0.000526023 0.0296238 -0.00714855 0.0214385 -0.0312417
-0.0210957 -0.0193357 -0.0279101 0.0102598 -0.00484488 0.0145553 -0.00635258 -0.0217848 -0.00138801 -0.0228292 0.0270734 0.0106578 0.00108176
-0.00502893 -0.0362318 0.00872207 -0.00633319 -0.0274417 0.0262547 -0.0420534 -0.00809429 0.0299828 -0.00628177 0.0257531 -0.0352634 0.000525585
0.0302166 0.0300997 -0.0373721 -0.0263049 0.0244374 -0.0366249 0.00476542 -0.0261143 0.00690687 -0.0314153 0.021792 -0.0159779 0.0347167
0.0333945 -0.0154541 -0.0160807 -0.0295692 0.0196924 0.00170639 -0.0379006 -0.0355456 -0.0209224 -0.00421636 0.0266884 -0.0104414 0.0337007
0.0236173 -0.0353175 0.0272352 -0.0263377 -0.0352639 -0.0289058 0.0326085 -0.0223645 -0.0127917 -0.00253526 -0.00979909 -0.00912844 -0.0256493
-0.00972551 -0.0219935 -0.0260987 0.0244447 0.0370492 -0.0489667 -0.0526713 -0.0115962 -0.00909406 0.020316 0.0298259 -0.00932545 -0.0160156
-0.00375475 0.00739583 -0.0277596 -0.0295244 -0.00150593 -0.0134916 0.0131995 -0.0278342 -0.010293 -0.0209089 0.00363579 -0.0128281 -0.0152318
-0.0151093 0.0174139 -0.00220806 -0.0108054 -0.0150952 0.00122038 0.0222841 -0.00624345 0.0108785 0.029483 -0.026846 -0.0200641 0.0180376
0.0309108 0.00566673 -0.0336136 0.00964808 -0.0358304 -0.0116397 -0.0315375 0.00817986 -0.013807 0.0270809 0.00280584 0.00213653 -0.0312986
0.0238107 0.01172 0.01424 0.024428 0.0142738 -0.0304067 -0.00719809 0.0263146 -0.0374808 -0.0136299 0.0234203 -0.000143156 0.0041131
0.0113089 0.0340465 -0.00725975 -0.0346904 -0.0132576 0.00828696 0.0213175 -0.0276652 0.00830256 -0.0312003 -0.00661996 0.00478752 0.0325361
0.037287 -0.0384356 -0.0382866 0.0239748 -0.0215437 0.00425191 -0.000997906 0.0378547 -0.018538 -0.0185064 0.0145111 -0.0202534 -0.0220184
0.0183781 -0.013542 -0.00947162 -0.024846 0.00344382 -0.0440339 -0.0290132 0.020282 0.00989619 -0.0294861 0.00486658 -0.00424031 -0.0143483
0.0215277 -0.0334239 0.0335773 0.0290409 0.0160495 -0.0438704 -0.0388286 0.0434795 -0.00135315 0.0252765 -0.0311641 -0.00413932 -0.0358936
-0.00567964 0.0280339 -0.0119323 0.00632836 -0.0218972 0.00055073 -0.0631199 -0.0108046 -0.00500885 -0.0150042 -0.0204935 -0.000334897 -0.00521713
0.0383178 -0.0552629 -0.0397658 0.0179877 0.034017 -0.0677793 -0.176973 0.0367086 0.047472 0.0190136 -0.0433159 0.0218627 -0.0316564
0.019798 -0.035941 -0.0212148 0.0355694 -0.00397672 -0.0431145 -0.162448 0.0403055 -0.000697729 -0.0132575 -0.0431912 0.0167063 -0.0275926
0.0309666 0.020304 0.0300559 0.0256592 -0.0321955 0.0268978 0.0239902 -0.017162 -0.0346709 0.0140176 0.0242498 -0.0140464 0.0225685
0.0155625 -0.0378896 0.00411108 0.0260837 -0.0153192 0.0026233 -0.0310414 -0.00984092 -0.00807836 0.00521164 0.0201915 -0.0370756 -0.0246295
0.0122305 0.0222191 0.0100255 0.0408353 0.041507 -0.0533939 -0.0363287 -0.0235264 -0.0273458 0.0323842 0.00525161 0.0343364 0.00958198
-0.0148373 -0.0124717 -0.013942 0.00505309 0.0273601 -0.0275047 -0.0772702 0.0384353 0.0463856 -0.0248231 0.00424405 0.0371316 -0.00465365
0.0263862 -0.037704 0.0022438 0.0142227 0.0307404 -0.0120742 0.0159253 0.0304224 -0.0347065 0.0370879 0.0260338 0.000578737 -0.020662
-0.0272038 -0.0253232 0.037434 -0.0257359 0.0185637 0.0296871 -0.00778225 -0.024684 -0.014835 0.0115194 -0.00912342 -0.0241691 0.019342
-0.0333022 -0.0436207 -0.00246014 -0.0150154 -0.000942279 -0.0162076 -0.0273834 -0.0101983 0.0267567 0.0194434 0.00386344 0.0170515 0.0251878
-0.00813753 0.0331593 -0.027013 0.0124936 -0.0132814 0.0364638 0.00361439 -0.0274831 -0.0360349 0.0276208 -0.0143428 0.00732119 0.0151676
0.0141046 -0.00684996 -0.00859501 0.0290266 -0.00845308 0.00849371 0.00164559 0.0191745 0.0315576 0.0294031 0.000405921 0.0120806 -0.0197352
0.00137375 -0.0299495 0.00900419 -0.0218893 0.00691246 0.0122802 -0.0146116 -0.0368642 0.0296507 0.0106034 0.0308976 0.0307847 0.0356872
0.0205754 0.0211538 -0.0299701 -0.00790428 -0.0245598 0.00529977 -0.0668641 0.0331285 -0.00576615 0.0283159 -0.0393072 -0.00699943 -0.0210785
-0.0226748 -0.0259302 0.028033 -0.00325878 0.0369439 -0.0154163 0.0216456 -0.0103338 0.0341825 -0.0307152 -0.00941686 0.0375901 -0.00601317
0.0138596 0.0186789 0.00744436 -0.0271983 -0.0285141 -0.0416938 -0.0283315 -0.000979618 0.0358632 -0.0219932 0.025836 0.0121824 0.0321631
0.0214417 -0.0395604 0.0251835 -0.0243316 -0.00764326 -0.0359204 -0.0409986 -0.00992233 -0.0139008 -8.77363e-05 0.00265152 -0.0304892 -0.0286092
-0.000904152 -0.0342757 -0.0140405 -0.00757929 -0.0122942 -0.0161197 0.0180766 0.0353482 0.0332243 0.00252637 0.0186762 0.0132735 -0.033925
-0.0283733 -0.00818595 -0.0248073 -0.0297137 0.0202325 -0.0406007 0.00755892 0.0123477 0.00855853 -0.0332545 -0.0396639 -0.0332243 -0.0282835
1.37571 -0.0715295 -0.10014 0.630301 1.14781 -1.52497 -1.22964 -0.551476 0.594616 -0.0827643 1.31393 0.33046 -1.05168
-0.0217302 0.0148283 0.00386666 0.0251528 0.0103857 0.0148812 0.00109424 0.0211916 0.0287573 -0.0321284 -0.0276396 0.016623 0.02013
-0.00575248 0.0253493 -0.0345383 0.0190053 -0.0344465 -0.0386372 -0.00315098 -0.0208861 0.0328176 -0.0372323 0.0190717 0.0237972 0.00705791
0.0308224 0.0351309 -0.0168977 -0.0314338 -0.0129715 -0.0223229 -0.0199342 0.00669286 -0.0174023 -0.0180793 0.0311937 -0.0237047 -0.0220761
0.0144216 0.0274624 0.0368142 0.031161 -0.0204272 0.0361894 -0.0209377 -0.0235244 -0.0324425 0.0296095 -0.0379534 -0.0262213 -0.0351656
-0.0192839 -0.028514 0.0260981 0.0387774 0.027342 0.0235618 -0.00505599 -0.0313226 -0.00121389 -0.0283848 0.0247374 -0.00431223 -0.0109201
-0.0165514 -0.0149869 0.0204301 -0.0204352 -0.00934945 -0.0140102 -0.0588223 -0.020657 0.0382299 -0.0253499 -0.0249509 0.0274146 0.0108608
0.0146915 -0.0160971 0.0133653 -0.0221685 0.0265583 0.0329912 -0.0157484 0.000959231 0.0263298 -0.0129461 -0.00196396 0.0363789 -0.0193669
0.0260668 -0.0309124 0.0108603 -0.0141792 -0.0126048 0.0203482 0.0026557 0.0114588 -0.00578519 -0.0368706 -0.000700724 0.00327958 -0.00211459
0.00491068 -0.015453 0.0054553 0.0215693 -0.0170657 -0.00708643 0.029111 -0.022029 0.0345478 0.0353014 -0.0263251 0.00559205 -0.00647839
0.00898814 -0.0226985 -0.0283683 0.0147767 0.0123613 -0.0490326 -0.00819925 -0.0067269 0.0320205 -0.0269427 -0.029171 0.0121549 0.0068116
0.0342029 0.00930229 0.0122311 -0.0272175 0.024771 -0.0100755 -0.0261475 -0.0152746 0.00843072 0.028624 0.0194999 0.0106068 0.00464267
0.0377864 0.00151961 0.0213775 -0.0249112 -0.00859876 -0.0111269 0.0308856 0.0331906 0.0328472 0.0239537 0.0151069 0.00470845 0.00775146
0.0297598 -0.0397195 -0.00737173 -0.00456848 0.0170912 -0.028004 -0.0562158 -0.0120605 0.0436055 0.0199757 -0.0372877 0.0400422 0.0136239
-0.00494995 0.0154569 0.0159505 0.0374855 -0.0331576 -0.0117535 0.00590816 -1.28151e-05 0.0138685 0.0384069 -0.0122164 0.0119169 -0.0240737
-0.0378052 -0.0281463 0.00852356 0.0292507 -0.033578 0.0150547 0.0151578 -0.0219337 0.0319208 -0.0145027 0.0155162 -0.0381885 -0.0157052
-0.00277574 -0.0296878 0.0342443 0.00208935 0.017188 -0.022291 -0.013945 -0.0322774 -0.0292329 -0.00502608 0.027883 -0.0120251 -0.0031711
-0.0148912 0.00560139 -0.00411446 -0.00443715 0.0367492 0.0329225 0.0157967 0.025768 0.0224341 0.0370882 0.00907035 0.021845 0.0066632
-0.00252534 -0.016404 0.0258789 -0.0378769 -0.0212259 0.0331495 -0.00268072 0.0159653 -0.00423047 0.0188157 -0.0157371 -0.0375269 -0.0151047
0.0133482 0.0342206 -0.0377579 -0.0175522 -0.0200129 -0.0392414 -0.0564427 0.0301979 -0.00897938 -0.0225712 -0.0175175 0.0372917 0.0123135
0.0074481 -0.0209896 -0.0245883 -0.0301447 0.0227211 -0.0357381 -0.035377 0.00421027 0.0318468 -0.00437168 0.0105358 -0.0315261 -0.0181573
0.373911 -0.5354 -0.278272 0.428488 0.143535 -0.349958 -0.532224 -0.0616616 0.247965 -0.251434 0.0934135 0.0175958 -0.883391
-0.0421996 -0.0210697 -0.0282478 0.113683 0.0137155 -0.184527 -0.328716 0.0527915 0.0762022 -0.0154918 -0.0801799 0.0291653 0.000643361
-0.0505671 -0.0157659 0.00128345 0.078123 0.0580391 -0.166056 -0.3597 0.066138 0.0697688 -0.0651598 -0.0663957 0.00997094 -0.0296419
-0.0254728 -0.00270605 -0.0314754 0.0253785 0.0348752 -0.0140751 0.0128301 0.0121244 0.0181798 0.0381637 0.0185534 -0.00769145 0.00496011
-0.00396805 0.0102617 -0.0237508 0.0329147 -0.000105086 -0.014798 0.0253528 0.029402 -0.0110146 -0.00228131 0.0345236 -0.0239276 0.0217751
0.0234341 0.0134929 0.0226014 0.0373693 -0.00153319 -0.0678849 -0.126695 0.0322801 -0.00865276 -0.0269011 -0.0248476 0.0388405 0.0314029
-0.0381651 0.00367489 0.024225 -0.00250462 0.0152515 -0.0469682 -0.044114 -0.0200848 0.00194357 0.0124838 0.0248619 0.00593328 0.0266473
-0.0154968 -0.0183091 -0.0156117 0.00136775 0.00963147 3.11275e-05 0.0246781 0.00964665 -0.0212608 0.00900591 -0.0162584 -0.00664872 0.00952906
0.000490107 0.0323731 -0.00704745 0.00712782 -0.024199 -0.00427811 -0.0118965 0.0366839 0.0274604 0.0195401 0.0207645 0.00499727 -0.011489
0.0359967 -0.00172945 0.0251657 0.0375369 0.0207986 -0.0115549 -0.0332667 -0.010203 -0.0146246 -0.031354 -0.0315554 0.0166936 -0.0381056
0.0347299 -0.00458773 -0.0168134 -0.026327 0.0119402 -0.0290011 0.010764 0.0227991 0.0112225 0.0191454 -0.0286017 0.0125194 -0.0157402
0.0196934 -0.0395831 -0.0293394 -0.0108042 0.0152974 0.0220715 0.0126714 -0.0327128 -0.0149075 -0.0314533 -0.00991834 -0.03099 0.00162804
0.0219443 -0.0169764 -0.0295561 -0.0119789 0.0314809 -0.001465 -0.0268763 -0.0177301 0.0238253 -0.0378796 0.00286108 -0.037206 0.0155233
0.0178661 8.54649e-06 0.0367063 0.0140648 0.000242166 -0.016794 -0.014773 0.00744318 -0.019223 0.0271685 0.00298152 0.0373884 -0.0268265
-0.0249257 -0.0289951 -0.017027 0.0337597 0.0314182 0.0084949 -0.0343448 -0.0173508 -0.00115768 0.034224 0.0351569 -0.0145935 0.0235485
-0.0283805 -0.039977 -0.0371551 0.0108155 -0.0260416 0.0141041 -0.0466932 0.0367085 -0.0308572 0.0211616 0.0327336 0.0101296 0.0300081
-0.0380018 -0.00900423 0.0263225 -0.00448616 -0.0212123 -0.0116386 0.020752 0.0357425 0.00266996 -0.0156194 0.0188852 0.00334165 -0.0239504
-0.00619036 -0.0374674 0.00794515 0.00876834 -0.0337252 0.0211798 -0.0171998 -0.0125235 0.0294928 -0.019509 0.0311073 0.0290193 0.01159
-0.409289 -0.171895 -0.000857933 0.0767214 -0.211574 -0.127627 -0.694712 0.314614 -0.0347072 -0.115264 -0.366891 -0.0811826 0.254882
0.0313639 -0.0249616 -0.0319906 -0.015437 0.00185069 0.0188922 -0.0397683 -0.0113084 0.0285884 0.0162758 0.0262832 0.028955 0.0221376
0.00110102 0.00281621 -0.0116273 0.0385652 0.0326631 -0.0137298 0.0116779 0.0244813 0.000156348 -0.036515 -0.0110613 0.0123263 0.0121366
0.0305531 0.0128557 -0.0333401 -0.00486927 0.0167344 -0.0236819 0.00250284 0.0182388 0.0327834 0.0341774 -0.0194355 0.0297642 -0.0323638
0.0225596 0.0279416 -0.0236395 0.0378105 0.0322746 0.00831329 0.0315486 0.02072 -0.00635688 -0.00685399 -0.0241939 -0.0348488 0.007894
0.0158801 -0.0139699 -0.00146516 -0.0233178 0.00958638 -0.0226574 0.00892833 0.0195132 -0.0346681 -0.0343381 0.0158106 0.0343326 -0.0279471
-0.0278348 -0.110367 0.0409064 0.143921 0.0297904 -0.198764 -0.447565 0.124002 0.0645351 -0.0228457 -0.100888 0.0224562 4.02624e-05
-0.0278675 0.000362742 0.000989042 -0.0110546 0.00189505 -0.0288685 0.022649 0.0325815 0.00734254 0.0307545 -0.0223663 0.0280839 -0.0302684
-0.00200177 -0.0070401 0.0185327 0.0250515 0.0205394 0.0271217 -0.00750825 -0.00286629 0.0176424 -0.0302735 -0.0349261 0.0210529 0.0359884
0.02734 0.0262379 0.0102835 0.018165 -0.00292353 -0.0208756 0.00405427 -0.0290227 0.0256933 -0.0234738 -0.0272099 0.0296643 0.0313069
-0.0224267 0.0371681 0.0216401 0.0152514 -0.0327754 0.0359434 -0.0247461 -0.0300987 -0.0281667 -0.00583897 -0.000607866 -0.023787 0.0248397
-0.0400261 -0.0150384 -0.0349111 -0.0133662 0.0297609 -0.0178903 -0.0351285 0.0273374 0.00738998 0.0278352 -0.0113551 -0.0207276 -0.00497884
-0.0132959 -0.0183247 -0.0016709 0.0252507 -0.0272597 0.0197557 0.0137043 0.0241942 0.0279686 0.00652585 -0.034306 -0.0231657 0.0338698
0.0245404 -0.0160116 -0.00694553 0.0392928 -0.0255372 -0.00789374 0.00958667 -0.0198539 -0.0261728 0.0148338 0.0148549 -0.0102206 -0.0203847
-0.0135389 0.0243356 -0.0151032 0.00601162 0.0283865 -0.00788606 -0.0570742 0.0184969 -0.0289241 -0.013173 -0.0278658 0.00705818 0.0112792
0.0244708 0.0327787 -0.0298485 0.029545 -0.0318143 -0.0490607 -0.0561868 0.0340174 -0.00112528 0.00354159 -0.0257279 -0.02726 -0.0399194
-0.0205791 -0.016935 -0.015376 0.0404224 -0.0057371 0.00752008 -0.00529368 0.00572293 0.00837126 0.0313794 -0.0143346 -0.000835335 0.0288048
0.029739 -0.00782509 -0.000132504 0.000603845 0.0142336 -0.0297221 0.0245237 0.0191228 0.0114454 -0.00300089 -0.00418531 -0.0216091 -0.0365125
-0.0541429 -0.0680193 -0.00174103 0.102194 0.0258406 -0.136003 -0.310646 0.0803034 0.00590651 -0.0787142 -0.0789359 -0.00236896 -0.0046557
-0.00708825 -0.0130544 0.0156607 0.0154989 0.0374952 -0.00445517 -0.0211373 0.0173899 -0.00903715 0.00922546 -0.00687524 0.0118994 -0.00350842
-0.0223266 -0.0365573 0.0118163 0.0328393 -0.00161588 -0.00346247 -0.0115523 -0.0355559 -0.0317565 0.0261148 -0.0257505 -0.0333017 0.027158
0.0133662 -0.00356812 0.00256726 -0.000257206 0.0349008 -0.00315955 0.0226535 0.0349298 0.0135001 0.00228665 -0.00594563 -0.0377304 0.0120997
0.0205361 0.0223362 -0.0336675 -0.00103188 0.00292255 -0.0340684 0.0171001 -0.00491225 0.0119129 0.0108952 -0.0157734 0.0361834 -0.0243984
0.00730149 0.0245563 0.00366934 -0.0112391 0.0058629 0.0116899 -0.00688887 0.0175762 0.0231335 -0.0260094 -0.000778718 -0.0309842 0.0204257
0.000902853 0.00345241 -0.0100277 0.0252834 -0.0350994 0.0046391 0.00448606 -0.0201921 0.013001 0.00987509 -0.035875 -0.0105052 -0.00912945
-0.0158677 0.0346513 -0.0267072 -0.00105253 0.0352392 -0.0262285 -0.0386743 0.0328101 0.0286349 -0.0330669 0.0350556 0.00334593 0.000621156
0.0327596 0.0104745 -0.0311957 0.0118956 0.00433004 -0.00411911 0.0156484 -0.0322867 0.0330625 -0.00581313 0.0369787 -0.0321815 0.00945445
-0.00670806 -0.00535459 -0.0248824 -0.0125448 0.0127758 0.0022754 0.0176339 0.0324298 0.00624275 -0.0195051 0.00176021 -0.0350393 -0.0167668
0.0112795 -0.00515133 -0.0337156 0.0122809 0.000843832 -0.0361631 -0.0253702 0.0382855 0.0229676 0.0301713 0.0306398 -0.0204947 0.0373859
-0.0301326 -0.0236518 0.0249284 0.0127405 0.0041353 0.0212006 0.0143083 0.0220453 -0.0106328 0.0122309 0.0287351 0.027165 0.0212663
0.00564955 -0.0271342 0.021813 0.0180157 0.017937 -0.0282065 -0.00956606 0.0158865 -0.0309821 0.0332417 -0.0201316 -0.0258098 -0.0326739
-0.0182243 -0.0317718 -0.0325905 -0.0370748 -0.000285238 -0.0274384 0.0142008 -0.0284613 0.00279257 0.001698 -0.0141706 -0.00568197 -0.0203822
-0.0284907 -0.0217129 -0.0166623 -0.0243663 0.0360641 0.0184313 -0.0393051 0.00762549 -0.0138952 -0.0310431 -0.0235541 -0.00397739 0.0136948
-0.0272172 -0.011832 0.0185264 0.0392648 0.0123655 -0.0683041 -0.0511893 -0.00244634 -0.014057 0.0206227 0.0292881 0.0209031 -0.0331226
-0.00335129 0.00932893 0.011943 0.0167839 0.0375029 0.0048712 0.00276571 -0.0261531 -0.0354837 -0.00513546 0.0300532 0.0132019 -0.0253773
0.0232975 -0.0376699 -0.0287259 0.0356838 0.0147614 0.0358334 0.00449711 0.00782099 0.025588 -0.022298 -0.0382913 0.0147249 -0.0106752
0.0321275 0.0145145 0.0374457 0.00837396 -0.014709 0.0145872 -0.0187213 0.00190393 0.00419365 -0.00136433 0.00148143 0.00340926 0.0169306
0.015725 0.0242027 0.00386356 0.00553525 0.0143758 -0.0113585 0.0350577 -0.0377046 0.00765016 0.00576833 0.00806555 5.12936e-05 0.0257017
-0.0283141 0.0283036 0.0335889 -0.0241348 0.00504182 -0.0200821 -0.0295382 0.00190301 0.0315741 0.0264851 -0.0286454 0.0333002 -0.0354204
-0.0380895 -0.0190824 -0.00245276 0.000365263 0.0371789 -0.0432913 0.00722341 -0.00197386 -0.01341 -0.0077444 0.0182794 -0.0123212 0.030301
-0.0294899 -0.0271268 -0.0270331 -0.0168006 0.0412884 -0.0358371 -0.0433969 0.0378163 -0.00968667 0.00779876 0.0124815 -0.0222014 -0.0181675
-0.0217019 -0.00461702 0.0318246 0.0274532 -0.0298349 -0.037712 0.00901681 0.0243337 0.0162086 -0.0378679 -0.0387111 -0.0270133 0.0135268
0.0185874 -0.0185746 0.0179759 0.0243387 0.0284373 -0.0189958 -0.0982963 -0.00170691 0.0246721 -0.0233301 -0.0536664 0.0286571 0.0245693
-0.0055609 -0.0368732 -0.0176786 -0.0336159 0.0133991 -0.0342409 0.0158367 0.0351245 -0.0148549 0.00123155 0.0278445 -0.0196698 0.0122383
-0.0168247 -0.0213369 -0.00353423 0.00274154 -0.0200785 0.0202215 -0.000437982 -0.013525 -0.0175605 -0.0137102 -0.0132503 -0.0132892 0.00533172
-0.0278241 0.015547 -0.00263695 0.0169765 -0.0034141 -0.0200278 0.0240379 -0.0164943 0.0204956 0.0164642 -0.0301379 0.0240981 0.0126726
0.0260757 -0.0362969 0.0382507 0.00701105 -0.00651573 -0.0130055 -0.0363773 0.0316136 0.0204913 0.0139895 -0.00304517 -0.0221314 0.0205097
-0.00417804 -0.0121907 0.0153524 0.0118441 -0.0372397 -0.0159828 -0.00922028 -0.027788 0.0300557 0.0248531 -0.0251118 0.0121918 -0.00416229
-0.0351585 0.00389378 0.0172848 0.0350878 -0.0290119 -0.0349288 -0.0186641 0.0254278 -0.010136 -0.0193761 0.0190038 0.0269917 -0.0176315
-0.00719339 0.0175689 0.018554 -0.0194773 -0.00638492 0.00758518 0.00187572 0.0121587 -0.0319777 0.0286525 -0.0360471 -0.0164375 -0.0121572
1.65544 0.544772 -0.496559 1.05466 0.94547 -1.52164 -1.31036 -0.298912 0.479144 0.552387 1.05482 0.834491 -1.19029
0.000440809 -0.010435 -0.016788 -0.0183728 0.0191745 0.0272499 0.00419013 -0.0104398 0.0206444 0.0347474 -0.0151206 -0.0353111 -0.0259927
0.0293523 -0.0204011 0.00253637 0.0280407 0.0148443 0.0138191 0.00467133 0.0148215 0.0360346 -0.0141733 0.0185245 -0.00577462 0.0029412
-0.0372342 -0.0287518 -0.0110999 0.0328865 0.00212106 8.98543e-05 -0.0098237 -0.00925993 0.0103503 0.0171763 -0.01358 -0.0183895 0.0146213
-0.0364224 0.0197595 -0.00341267 0.0276772 -0.0255188 0.0305989 -0.0223069 0.018283 0.00960038 0.0273066 -0.0324126 -0.0326706 0.0183639
0.0270999 0.0247932 -0.0324751 0.0334977 0.0118484 0.0139642 -0.00904481 0.0355756 -0.00427597 0.0296646 -0.0213118 -0.0271225 -0.0336391
-0.0202724 0.00351278 0.0154804 0.0340741 -0.00475397 0.00845905 -0.00902015 -0.0164904 0.0289214 0.029877 0.0241038 0.0376487 0.00790763
0.0273343 -0.0306141 0.0300921 0.0099629 0.0161563 0.00599585 0.0283879 0.0215293 0.0205933 0.0306555 -0.0345021 0.0300838 0.0106985
-0.0280004 -0.0241022 -0.00303035 0.0400695 -0.0113159 -0.0473372 -0.0342591 0.0413188 -0.00228255 0.0299388 -0.0391873 -0.0079512 0.0139697
0.00700777 -0.00303892 0.00770657 -0.0075661 -0.00923068 -0.0391612 0.0278514 -0.0203293 -0.0198685 -0.0304557 0.0133666 0.016039 -0.00392365
0.0235129 -0.0355044 -0.030578 -0.00228382 0.0383774 0.0217313 -0.0180554 -0.0321916 -0.0305896 0.0241967 -0.0136201 -0.0094183 -0.0223143
-0.0101269 -0.00551838 0.0363607 -0.0168121 0.0222797 -0.0122025 -0.0528871 0.0264771 0.00682717 -0.00564685 0.00606072 0.0106389 0.0179159
0.01537 -0.0125472 -0.00496637 -0.0343932 -0.000425532 0.0320403 -0.0204147 -0.0265364 0.0333385 -0.0108658 -0.032065 -0.00433098 -0.0274711
-0.0308107 0.0222173 -0.00821907 0.0411185 -0.0116618 -0.0231536 -0.0480616 -0.00751762 0.0268461 0.0133803 -0.0344996 -0.0319426 -0.0136937
0.00989549 -0.00450302 0.021958 0.00718827 -0.0107691 0.0119547 -0.00408776 0.0193626 0.000411358 -0.0220252 0.0324113 -0.0293833 -0.020608
0.0172328 -0.016105 0.0304337 0.00656686 0.0220598 -0.0292703 0.0268431 -0.00229677 -0.0301657 -0.0202739 -0.0276824 0.0330637 -0.0284112
0.0290274 -0.00694852 -0.0247352 -0.012403 -0.0204877 -0.0247045 -0.0121812 0.0105409 0.00706932 -0.0149606 0.0266703 0.0114258 -0.0228327
-0.0335488 -0.0094961 -0.00784173 -0.00213849 -0.035274 0.0287147 -0.0126154 0.0246255 0.0271598 0.0110031 -0.0312968 -0.0186191 -0.0114918
0.0309848 -0.0240607 0.0127575 -0.0351422 -0.0122082 -0.00870068 -0.0410317 -0.0129876 0.0260317 -0.0248063 0.0252808 0.0134067 -0.0180208
0.00673813 0.0290851 0.0195349 0.000291826 0.0341606 -0.00929609 -0.0387483 -0.00804239 -0.0237402 -0.039389 -3.85785e-05 0.0107422 -0.0154386
-0.0097793 -0.0324054 -0.0339346 0.0022008 0.0385739 -0.016966 0.0151597 -0.0240017 0.018494 -0.0284592 -0.0122229 -0.0198711 0.0290803
0.00364025 0.025459 0.00883096 -0.0245828 -0.0246859 -0.00454972 0.0165945 0.0323983 -0.0112915 0.00360953 0.00756347 -0.0120247 0.017279
0.0293944 0.0185274 0.0173311 0.0292343 0.0318288 0.0312886 0.000846111 0.030062 -0.0243086 -0.015637 -0.00568429 -0.032135 0.0248574
0.00137766 -0.0093179 -0.0321621 0.0366054 -0.0266455 -0.0234424 0.0138927 0.0290755 -0.022244 -0.0318565 0.0362165 0.0123749 0.0123511
-0.0174748 -0.0273568 -0.0342767 -0.00253229 -0.00598465 -0.026662 -0.00564514 0.00764822 0.0151616 0.000258711 -0.032494 -0.0313342 0.002175
0.00655319 0.0350835 -0.0246125 -0.00113478 -0.013038 -0.0422597 0.00509379 0.00721875 0.0169924 -0.03458 0.0198317 -0.0225622 0.0301547
-0.0966016 -0.108266 0.0642161 0.153761 0.0587179 -0.228215 -0.558993 0.0923397 0.0353721 -0.0599788 -0.263709 -0.0325668 0.00359272
0.0200565 -0.109662 -0.0341798 0.289546 0.178324 -0.409583 -0.608648 0.040476 0.0869101 -0.00152944 -0.178826 0.0893096 -0.0798637
0.0272644 0.018035 0.0371657 -0.0149491 -0.0375608 -0.00628906 -0.00905768 0.0196495 -0.0114151 -0.0109993 -0.0283703 0.000526452 -0.0280793
0.00482719 0.0206723 -0.0232962 0.010231 0.000257366 0.0149986 0.0134559 -0.0226171 0.0393899 0.0125602 -0.00612547 0.0218015 -0.0373007
0.0244804 -0.0174146 -0.000985649 0.0214944 -0.0126314 -0.00441457 0.0257511 -0.00716544 -0.00345788 -0.0203859 -0.0369584 -0.0298801 -0.0291459
0.0152911 0.0118868 0.0298687 -0.00903018 -0.00523403 0.0118862 -0.0434259 0.00956607 -0.0202415 -9.63089e-05 0.00951166 0.00845366 -0.0228563
0.010407 0.0231044 -0.00338473 -0.0276835 0.00627829 0.000382835 0.00150601 0.0312583 -0.0113249 0.0166628 -0.0273021 -0.0262759 0.0237641
-0.019935 0.0175574 -0.0370703 -0.00208101 -0.0176403 -0.0226674 0.03527 -0.0119345 0.0165451 -0.0154523 -0.004054 0.00061419 0.0321192
0.0202659 -0.00606416 3.78911e-05 0.0101285 -0.0052327 -0.0118638 0.00305841 0.0348517 0.00751995 -0.0385462 -0.00440969 0.0270642 -0.00326988
-0.0158061 -0.0296585 -0.0126734 -0.0200058 -0.0122201 0.0133217 -0.0122049 -0.0190364 0.033803 0.00640103 -0.0232579 0.022877 0.0183121
0.0109496 -0.0324261 0.00918928 0.00573039 0.00507109 0.0163456 -0.0325976 0.0246271 -0.0159902 0.036744 -0.0168042 0.00612801 0.0329028
-0.0352466 0.0073604 0.00922746 0.0568699 -0.011729 -0.0838413 -0.161451 0.0352727 -0.00458495 -0.043302 0.00715807 -0.00986696 -1.75694e-05
-0.0262075 -0.00721163 -0.00381266 -0.0197677 -0.0234758 -0.00114061 0.0057131 0.0281412 0.0142191 -0.0313111 -0.0114595 -0.0275633 -0.0030933
0.0178531 0.0214431 0.0308177 0.0350571 0.00935976 -0.020275 0.00602586 0.0298002 -0.024072 0.00376266 0.017438 0.038823 -0.0213904
-0.00719987 0.0363798 0.033436 -0.0173139 -0.0365727 0.00418813 0.0224274 3.12451e-05 0.00539998 0.0149328 -0.0380235 -0.0268754 0.0187184
-0.0284268 -0.0289042 -0.0142477 0.0245314 -0.0262136 -0.00694333 0.0323447 -0.0275228 -0.0367284 -0.0328328 0.0311395 0.0167936 -0.0278058
0.0342107 -0.00403152 0.0107458 -0.0264457 0.0101834 0.0231252 0.0180327 0.0283663 -0.00899301 0.037327 -0.0382255 -0.0148138 0.0372791
-0.00107107 0.0295156 -0.0263335 0.00179972 -0.000300757 0.0308016 0.00682796 0.0345233 0.0188051 0.0101426 0.00515218 -0.00431919 0.0158411
-0.031326 -0.0331775 0.0190271 -0.028704 -0.0353321 0.0375789 -0.000170924 -0.0366422 -0.00109063 0.00193296 -0.033657 -0.000563947 -0.0350133
-0.00825579 -0.00446254 -0.0177478 0.038936 0.019201 -0.0401578 0.029356 -0.030573 0.0324738 0.0217438 0.0245528 -0.0130293 -0.0122351
-0.0196708 0.0230923 -0.0117342 -0.0273347 -0.0226128 0.00891466 -0.0277663 0.0192025 0.0329293 0.0020576 -0.00204347 -0.013566 0.00742063
-0.00972751 -0.0216577 0.008215 0.0360277 0.0073036 0.0183988 0.00519328 0.00262951 0.0218934 0.00115891 0.00491297 -0.00765178 -0.00652285
0.010521 0.0270005 0.0154413 0.00767069 0.0389586 -0.0242484 -0.0190487 -0.00201953 -0.0364235 -0.0254888 0.0118141 0.0181337 0.0137974
0.0186152 0.023105 0.0369922 0.00110491 0.036571 0.0228184 -0.00728465 0.0131929 -0.0122201 0.0110361 -0.00412335 -0.0317608 -0.0261213
-0.0345133 -0.00320424 -0.00384475 0.0378536 0.0349188 0.0191858 0.0250577 0.0256202 -0.0309398 0.022549 0.0196005 -0.00732432 -0.0271842
-0.0305916 0.0125052 0.0195951 0.0164962 -0.0162323 0.024562 0.0166908 -0.0377684 0.0194651 0.0364063 -0.0240204 0.00355405 0.0238056
-0.0150493 0.017149 0.0346565 0.00426828 0.0167636 0.000153941 -0.0326027 -0.0218856 -0.0146117 0.0259479 -0.0187627 0.0183923 -0.0265845
-0.021386 -0.02615 0.031018 -0.0250065 -0.0262723 -0.0136965 0.0142682 0.0199212 0.024231 -0.0306549 0.0240824 -0.0164011 0.0302407
0.00264799 -0.0344753 0.00387771 -0.0356219 0.0326154 0.000846811 -0.00521669 0.021849 0.0301132 0.0335456 -0.0267422 0.00682714 0.0116151
-0.0318045 -0.0340818 0.00333071 -0.0259442 0.00897321 0.0169363 -0.0102983 0.0201995 -0.0302502 -0.0339783 -0.0383806 -0.0259456 0.0142422
0.0261572 0.0331925 0.0364916 -0.014637 -0.022795 -0.00887767 -0.0152158 -0.0199504 0.00199773 -0.0226703 0.0323899 0.0247689 0.0379657
-0.0369286 -0.0144129 0.0135881 0.00437597 0.0280095 0.0121383 0.000419413 0.0152789 -0.0060494 0.00503334 -0.0261199 0.012728 -0.00572807
-0.0186666 -0.03752 0.00852615 -0.0370387 -0.0149005 -0.00459687 -0.0333844 0.0247899 0.0272176 -0.0343156 0.0254556 -0.0328954 0.0060294
0.0340162 -0.0762779 -0.0117927 0.113431 0.0466149 -0.195762 -0.37119 0.0887103 0.0419426 -0.00454939 -0.0570846 0.0691044 -0.0534829
0.0246124 0.0305282 -0.0282919 -0.0237945 -0.0104275 0.020169 -0.0459861 -0.0271466 -0.0278975 -0.0221283 0.0219268 -0.0274844 0.0192008
-0.00600351 -0.0185642 0.0275881 0.0438583 0.0125018 -0.00459522 -0.0457281 0.0155198 -0.00857289 -0.00868915 -0.0347268 -0.0108848 0.0152598
0.00900432 0.0150245 0.00278757 0.0226629 0.0129612 -0.00114527 0.0156645 -0.0376139 0.02783 -0.02256 -0.0303183 0.00840537 -0.0153873
0.0300715 0.0364103 -0.00307957 -0.0251586 0.0283992 -0.0111549 0.0301671 0.0184256 0.00611616 0.0254122 -0.026549 0.0289217 -0.0287042
-0.0293949 0.0214283 -0.0326459 0.0100342 -0.0187222 -0.0205813 -0.0160795 0.0155726 0.0290962 -0.0152367 0.0221776 -0.00584853 0.0235629
0.0177173 -0.0359744 0.0363824 0.0200837 -0.0139981 -0.0322586 0.0195495 0.0245786 0.0263317 0.0262 -0.00556498 0.0139421 0.0190155
0.0321823 0.0101967 -0.0124664 0.0198882 0.000991072 -0.06635 -0.115066 0.0103334 0.0418936 -0.0226923 -0.0281416 -0.0272463 -0.00529999
0.0163082 -0.03703 -0.0118743 0.037146 0.0210998 -0.00105448 -0.0413468 0.0180512 -0.0328958 0.0317951 -0.0166975 0.00386148 0.0173054
-0.0116639 0.0272839 -0.000907103 0.00295998 -0.037208 -0.0358054 -0.0414338 0.00355733 -0.0303966 0.0215004 0.0361696 -0.019432 0.034527
0.0313332 0.0163704 -0.00776667 -0.00947469 0.00910275 0.0141414 -0.0443523 0.0134013 -0.00149047 -0.0308146 -0.0197896 -0.00628316 -0.00508886
-0.0123511 -0.00289374 0.0222435 0.0031175 0.0147848 -0.0113669 -0.038687 -0.0340324 -0.0120055 0.030525 0.0328428 0.0108317 -0.0115542
-0.017241 -0.0019892 -0.0256303 0.0189159 0.0378239 -0.0747731 -0.214337 0.0244165 0.0150051 0.0134183 -0.032109 -0.0137444 -0.0336922
-0.0107689 -0.0345367 0.026925 -0.0014783 0.026216 -0.00821753 -0.0395262 0.00119383 -0.00982505 0.0341323 0.0183023 -0.00103138 -0.0359727
-0.030748 -0.0316902 0.0189977 -0.00716532 -0.0166636 -0.0346529 -0.0355415 0.0196218 0.0228013 -0.028897 0.0246989 0.0329982 -0.0307044
0.0253917 -0.0280572 0.00727733 -0.0186317 0.0082601 0.0107972 -0.0267018 0.0292169 0.0328806 -0.0362766 0.0282323 0.0165327 -0.00122192
-0.0308341 -0.0230637 -0.0106912 0.0223976 -0.00599583 0.00286302 -0.037642 0.0127306 0.0236135 -0.0187435 0.0267547 0.0221309 -0.0289928
0.00542004 0.00394026 0.0179463 0.0194414 -0.00249424 -0.0160996 -0.0346982 -0.00866381 0.0298889 -0.0301044 -0.0208065 0.011703 0.0351638
-0.0240914 -0.033716 0.0343671 -0.0341381 0.01634 0.00674644 -0.0415524 -0.0116447 0.0192573 0.0227723 -0.0089123 -0.0150571 -0.0337139
0.0207828 0.00980606 -0.0201594 0.0205739 -0.030437 -0.000694373 -0.00200229 -0.0332881 0.0378349 0.0146334 0.0131971 -0.0203529 -0.0294792
-0.0131436 -0.0132948 0.027424 0.00870007 0.00466751 -0.0268067 -0.029991 0.0151157 0.0122932 0.0292903 -0.00761183 -0.0242788 0.0352506
0.0180979 -0.00820529 -0.00551053 -0.0325107 -0.0282109 -0.0235773 0.00794979 0.0317089 0.0165214 -0.0179542 -0.0112006 -0.0360899 0.0195211
-0.0252737 -0.0311325 0.00113138 0.0307032 -0.0186798 -0.0234141 0.0170571 0.0238326 0.0131122 0.008082 -0.0362957 -0.0191971 0.0235202
-0.0142449 -0.0376793 0.0118153 0.0366333 0.0175809 -0.0281652 0.0202071 0.0139856 -0.0226812 0.0153952 -0.0249834 0.0381533 0.010606
-0.0377587 0.000558649 0.0260128 0.0332586 -0.0162305 -0.0125792 -0.0289617 -0.00187771 -0.0255075 -0.0313017 0.0159913 0.024369 -0.0369086
0.0315098 0.00120109 -0.0315341 0.0294667 0.00592804 -0.0263014 0.00596797 0.0357493 0.0209085 -0.00434582 -0.0281289 0.0173083 0.0278983
0.0386948 -0.0284699 -0.0351347 0.028843 -0.026501 -0.0385531 -0.0428882 -0.00068751 -0.00193057 0.0335732 0.0109106 -0.0233033 -0.0349477
0.071026 -0.0458858 -0.0111134 0.0749074 0.040105 -0.122948 -0.193187 -0.0130091 0.0745511 -0.00381479 0.0464983 0.00036001 -0.0775411
-0.0282077 0.0285416 0.0133037 0.00981253 0.00732588 -0.0195429 -0.0492704 -0.0284668 0.0149205 -0.0278926 -0.0392182 0.0193129 0.0289432
0.00189977 -0.0369929 -0.0226589 -0.019217 -0.00566743 0.0185167 0.0149752 0.0198712 -0.021792 -0.0354704 0.0132034 -0.00811005 -0.00648898
-0.0304458 -0.0316274 -0.0348971 0.0211725 0.0151884 -0.0452498 -0.000911292 0.006072 -0.00507885 0.00598824 -0.00260472 -0.00908886 -0.0149069
-0.0300354 0.0248448 -0.00908276 0.0297645 -0.0156474 0.0313196 0.0278192 0.0224834 -0.0285082 -0.0111434 0.0340367 0.00743801 -0.0338834
-0.0225112 -0.0109224 0.0189216 -0.0148789 -0.00992743 -0.0460249 -0.0473086 -0.031273 -0.011769 -0.0330755 0.0284423 -0.0203341 0.0012791
0.0371953 -0.0087845 0.0146285 0.00970141 0.00934967 -0.00676588 -0.00703312 -0.0143669 -0.00269425 0.0289595 0.0228026 -0.0133665 -0.0133874
-0.0350262 -0.0164261 -0.0238569 0.0777927 0.0211644 -0.133033 -0.177863 0.0180286 0.0199159 -0.0263081 -0.0284493 0.0385039 -0.0538807
0.0256033 0.0264566 -0.010304 -0.00212502 0.00243796 0.0226644 0.00490605 0.0151344 0.00716508 -0.038399 -0.00090804 0.0288445 -0.0311504
-0.0218629 0.0214286 -0.0138378 -0.0298449 0.0163243 0.00136477 -0.0331633 -0.000887243 -0.0267849 -0.0290521 0.00770086 0.0371265 0.0140204
-0.0313327 -0.0336277 0.0165699 0.0403913 -0.0154564 -0.0277061 -0.123565 0.039317 0.0138625 -0.0232503 -0.00696031 -0.00454511 -0.00361303
0.0364585 -0.023833 0.0044722 0.0253345 -0.00454814 -0.0424237 -0.00246934 -0.0253374 0.00057278 -0.0230479 -0.00542562 -0.0329935 0.0110826
0.0167156 -0.0160023 -0.0153927 0.0275232 -0.0311782 -0.0372723 -0.0037165 -0.00830983 0.00324451 0.0263556 -0.0126857 -0.02698 -0.0271319
-0.0260107 0.023962 0.0276996 0.0348423 0.0380842 -0.0159738 0.024881 0.00947888 0.0245586 0.0107195 0.00943132 0.0100839 -0.00118619
-0.0372307 -0.0388932 0.00857203 0.0391886 -0.00359287 -0.0595844 -0.0364735 -0.00694619 0.0321232 -0.0406804 -0.0383919 0.00350516 0.00551542
0.0200046 -0.000512604 -0.0358482 -0.0257524 -0.0352505 0.0016189 0.00568514 -0.0294713 -0.00977325 -0.0313378 0.00740524 -0.0143642 0.00317441
0.0305434 -0.017005 -0.0179895 -0.0328636 -0.00758872 -0.00919454 0.0181906 0.0261911 -0.0308161 -0.0254748 -0.0174182 0.0210067 0.0209261
0.019054 -0.0371886 -0.017408 -0.0290484 0.018756 0.0191488 0.0333094 -0.0121436 0.0244982 -0.0357875 -0.0233676 -0.0156808 0.00503827
0.0242104 0.0115358 -0.0373754 -0.00442434 -0.018396 0.0128777 0.0227461 -0.000783769 -0.0354435 0.015663 -0.00418138 0.000987582 -0.030011
-0.00159354 -0.0263692 -0.0244981 0.0349311 0.0118452 -0.0169206 0.0139967 -0.0333543 0.0292023 0.000169682 0.0367307 0.0163682 -0.0344402
-0.0497905 -0.0167728 -0.0189775 0.0582274 0.0258222 -0.0826172 -0.156003 0.0537212 -0.0292023 -0.0484749 -0.0235792 -0.018982 0.0113227
0.0304567 0.0235641 0.0376424 0.026889 0.00304041 0.0174922 -0.00719462 -0.0339921 -0.0237808 0.00278395 -0.00363563 0.0363781 0.0277626
0.0184026 0.0181471 -0.0179545 0.0353897 0.0328475 -0.00667938 0.00870925 0.0104098 -0.00730386 -0.0164186 0.0308692 -0.00841756 0.0057954
0.00804234 -0.0446022 -0.016258 0.0242673 0.0200881 -0.0648191 -0.199 0.0301209 0.0234415 -0.0522894 -0.0323128 -0.0119911 -0.0398939
0.00292445 0.0127889 0.0166285 0.0197833 0.0240756 -0.00342042 0.0139305 0.0146636 -0.033271 0.0133267 -0.0277663 -0.0163512 -0.0294458
0.0242345 -0.00436069 0.0186512 -0.0227411 0.0350136 0.0234769 -0.0164154 -0.00198325 0.0275794 -0.0375607 0.0263854 0.0129514 0.0272174
0.0349381 -0.025013 -0.00550881 0.021202 -0.00643676 0.0147182 0.00958153 0.0203552 -0.0139357 0.0234638 0.00768991 0.0212677 -0.0234238
0.00486612 0.0307879 0.00615781 -0.00206594 -0.0126023 0.0143811 0.0103001 -0.0316828 0.00890209 -0.0330354 -0.0222247 -0.0101 -0.0306811
0.0126325 -0.00632708 -0.00216212 0.030762 -0.0100543 -0.0219821 -0.048807 -0.006767 -0.00807864 0.0129357 0.0258349 0.00877843 0.0209857
-0.0309342 0.0284551 -0.00365842 -0.000774105 0.0175169 -0.0646982 -0.0587857 -0.00720038 0.0114534 -0.00924293 -0.0417731 -0.0258531 -0.00567027
0.0132582 -0.0352396 -0.0240601 0.00172892 -0.0319428 0.00285284 0.0186452 0.0250782 -0.0151717 -0.00530398 -0.0179588 0.0149356 -0.0106092
-0.0312096 -0.0435912 -0.0212536 0.0304644 -0.00792044 -0.0673206 -0.0867259 0.019275 0.0258112 0.025057 0.0170947 0.00798442 0.0129789
-0.0203653 -0.0369578 -0.0159259 0.00299441 0.0261098 0.004604 0.018558 -0.00898532 -0.036318 -0.0200057 -0.0114325 0.0236842 0.00547667
-0.0179663 0.00446021 -0.0356901 0.0250544 -0.00846021 -0.0523518 -0.00643644 0.0317586 -0.012008 0.0337034 -0.00764519 0.0325204 0.0097167
0.0384635 -0.0273065 -0.0081212 -0.0168208 0.037589 -0.000263524 -0.026908 -0.0317861 -0.0297923 0.0128953 -0.0281366 -0.0270021 0.0232294
0.0165021 -0.0338652 0.0169945 0.0339716 0.0259694 0.0165981 0.0172882 -0.020211 9.98814e-05 0.033701 -0.0373766 0.0387062 0.0149695
-0.0097896 -0.0298154 -0.0284884 0.0318098 -0.00121728 -0.00436753 -0.0158774 -0.000450342 -0.0021852 -0.0238281 0.00442569 -0.0148883 -0.0237726
0.02825 0.00402278 -0.00691059 -0.00202725 -0.0307466 -0.031734 0.00511899 0.00932901 -0.0042737 -0.0159072 0.0315015 0.0337552 0.0150673
-0.0274761 0.0178033 0.0125793 -0.00636885 0.035634 -0.0165163 -0.0842004 0.0190026 -0.0262758 0.00777199 -0.0433241 -0.00570405 -0.0311238
-0.0330682 -0.0201526 -0.00709915 0.00565185 -0.00138922 -0.00852686 -0.0149833 -0.0116763 -0.0126788 -0.0367859 0.0199482 0.0308573 0.0379356
-0.0201225 0.0264811 0.0142787 0.0126347 0.0103984 -0.0126255 -0.00015688 -0.0155565 0.00283522 -0.00968716 0.0336978 -0.0336777 0.0152807
0.0121896 -0.0436006 0.0072871 0.0320095 0.00943702 0.0118257 -0.0797661 0.0330215 0.00124032 0.0117002 -0.0331345 0.0121725 -0.0281475
-0.0263412 0.00385119 -0.0189067 0.024513 -0.00286572 0.0152099 0.0170895 0.0142827 -0.0262811 0.0255707 -0.0156077 -0.0224305 -0.0385317
-0.0119624 0.00720199 -0.00940015 0.0101654 0.0164191 0.0304011 -0.0330678 0.0212187 -0.0131399 -0.00803312 -0.0263744 -0.0149971 -0.029158
0.00366253 0.0305157 0.00946757 -0.00151737 0.0253788 -0.0394186 0.0289095 0.0326975 0.036703 0.0162814 -0.00393245 -0.0107673 -0.0263426
-0.0167479 0.0152625 -0.0330453 -0.00347795 -0.00491747 -0.035829 -0.0265959 0.0258345 0.0268577 0.0360883 0.00094843 -0.0231926 0.0308875
-0.00929221 -0.00295861 -0.0305945 -0.0186853 -0.00593996 0.00265782 0.0272177 0.000213619 0.00166109 -0.0248486 -0.0216993 0.0278772 0.0353377
0.0177834 0.0271272 -0.00303854 -0.023309 -0.0269179 -0.00429401 -0.0448997 -0.0348457 0.0359533 0.00294373 -0.0115174 0.026176 -0.0354202
0.00435029 -0.0270287 0.0118151 0.0318669 -0.0038216 0.0215119 -0.040197 -0.031369 0.0130765 0.0267356 0.0274892 -0.0286042 0.0318661
-0.0139732 0.0152478 0.0114898 0.0179768 -0.00154864 0.00233594 -0.0786213 0.0493951 -0.0290095 0.00487932 -0.00251985 0.0218541 0.0103991
-0.0188789 0.0145743 -0.00869852 0.0229421 0.0214852 -0.0271525 0.0231874 0.00508646 -0.00331948 -0.0324556 0.00560449 0.0333617 -0.0159095
-0.013684 -0.0256009 0.0256301 0.0124859 -0.00346915 -0.0233694 -0.0210524 -0.00965231 0.00542125 -0.0161212 0.00142481 -0.0211888 -0.00235449
0.02744 -0.019794 -0.00602489 -0.0356872 -0.0315148 0.0246158 0.0335704 -0.0168559 -0.0303067 0.00541947 -0.0270055 0.00916007 -0.0364751
0.0057056 -0.0174143 0.0294507 0.0288948 -0.0192167 0.00991648 0.0128628 0.00224404 0.0150108 0.0138268 0.00538695 -0.0252751 0.0146042
-0.0364588 0.0207728 -0.0114381 0.0269509 -0.00127883 -0.0105761 0.0298527 0.0140317 0.00345044 0.00512557 0.0100337 -0.00653015 -0.0125184
-0.0166158 0.0356294 0.0199263 -0.0251322 0.0275106 -0.0170471 0.0128634 -0.00877646 0.0321062 0.013963 -0.0304012 0.0229083 -0.0301002
-0.00994202 0.0362841 0.0165297 -0.00808605 0.00192017 -0.0262925 -0.0294599 -0.00777156 -0.0179266 -0.0120239 -0.0219348 -0.0126526 -0.033143
0.00531559 -0.0374399 -0.00151903 0.0275394 0.0419392 -0.137478 -0.184221 0.0531589 0.0618378 0.000281329 -0.00232896 0.00700531 -0.0213302
-0.0174388 0.0135219 0.0297544 -0.0112817 0.0207251 -0.0182731 -0.00527144 0.0115612 0.00597322 0.00229599 0.0302994 0.0127547 -0.0349698
0.0325131 -0.0275161 0.0140052 -0.00536091 -0.000473414 -0.0459235 0.00745179 0.00648662 0.00828631 0.0143877 -0.0395284 0.0130035 -0.0176332
0.00953461 -0.12405 -0.0509452 0.136143 0.129395 -0.318311 -0.551897 0.0684997 0.12127 -0.00652968 -0.083273 0.0899315 -0.0682188
-0.0219766 -0.0282781 -0.0227654 -0.0159143 0.00974084 0.00272216 0.0081253 0.00761396 -0.0253877 0.036188 -0.0271802 0.001954 -0.0316088
-0.0250169 0.0113141 -0.0178048 0.0323456 -0.0214199 0.00234244 -0.054472 0.0329565 0.0123779 -0.00207491 -0.0327094 0.0115186 -0.0182251
-0.0165373 0.0352091 0.0370447 0.0345788 -0.0343713 -0.012478 -0.00336686 -0.0378105 -0.0244896 0.00211723 -0.011746 -0.0105334 0.0243117
-0.024235 0.0250285 0.0111829 0.00637675 0.0276344 -0.0284404 -0.100156 0.0375247 0.000572189 0.015768 -0.0337378 -0.0168088 -0.0259516
0.0327848 -0.0100699 -0.017891 -0.0104371 0.0330398 -0.00894505 0.0254071 0.0331574 -0.00398768 0.0277997 -0.00677 -0.00580109 0.0125575
-0.0155178 0.0157654 -0.00839767 -0.0168773 -7.35291e-05 0.0263062 0.0110592 -0.00385279 -0.0284717 0.000845327 -0.00788671 0.0101206 0.00030062
0.037368 -0.0194279 0.0292625 -0.00396219 -0.0328661 -0.00505943 0.035968 -0.0340229 0.0151731 0.0265886 -0.00585452 0.0112645 -0.00938676
0.0180811 -0.0382867 0.00972588 -0.0131025 -0.0269039 0.0176685 -0.0160575 -0.0345698 0.0241306 0.0191782 0.0181248 0.00190938 0.0213592
0.0277636 0.0318171 0.0296575 0.0164727 0.00512784 0.00977384 -0.0146263 -0.0326397 0.034626 -0.0370734 -0.0110264 0.00248502 0.0247765
0.00504248 -0.0333059 -0.0168015 0.0229993 -0.0236674 -0.0163685 0.0149921 -0.00219882 0.0388455 -0.0240086 0.0317668 0.0354422 -0.0263103
0.0250033 -0.00901517 -0.0307942 0.0112159 0.0293003 0.00504458 -0.00991335 0.0221213 0.0207245 0.00893707 0.0321087 -0.0240019 -0.0204228
0.00101502 -0.00581245 0.0327843 0.0168941 0.0168111 0.00463978 -0.0548221 -0.0226746 0.0395227 -0.0167241 -0.0269968 0.0430593 -0.0236021
-0.0161434 0.00407686 0.0054548 -0.0122955 0.026703 -0.0110446 -0.00154307 0.0258834 -0.00152419 0.0303353 -0.00272404 0.0393044 0.0359457
-0.0216382 0.0125483 -0.00965706 0.0291261 0.0287766 -0.0320239 0.0225223 0.0378834 -0.0123293 0.00495804 0.0136633 -0.0259165 -0.0152107
-0.0113478 0.0148846 0.0148708 0.00813857 -0.0307099 0.0289612 -0.00128472 0.00996688 0.0223789 0.00726048 0.0324284 -0.00914735 -0.00370723
0.0288833 -0.0195419 -0.00407164 -0.0247309 0.0348027 0.0107275 -0.0381584 -0.0168605 0.00992042 -0.00725247 0.0202388 0.00326167 -0.0189131
0.0315576 -0.0255781 0.00501738 0.0268896 0.0343742 -0.0131032 -0.0300122 -0.0074091 0.00299454 -0.0285664 -0.0334982 0.0318395 0.0148258
0.0304734 -0.0169592 0.0328942 -0.0311693 -0.0236884 -0.0151173 -0.0348878 0.00615175 -0.00371231 -0.0386195 0.012358 0.00266144 0.0186978
-0.0553642 -0.093911 -0.027835 0.0491549 0.0286039 -0.170255 -0.273203 0.0301699 0.0652388 -0.0213308 -0.0996921 -0.0186109 -0.0296199
0.00374993 0.0245758 0.0107237 0.0355109 -0.0290464 0.0142248 -0.026336 -0.00636885 -0.0145141 0.0172938 0.0173508 0.032717 -0.0271799
0.00416101 -0.0114348 0.0117284 -0.00865615 0.0314871 -0.0104124 -0.0222539 -0.0127088 0.0433546 -0.0390095 0.0249746 0.0329804 -0.0230201
0.0166263 -0.012316 -0.0151715 -0.0162603 0.0260622 -0.0138132 -0.00441909 0.0013485 -0.0152712 -0.0112778 0.0105051 0.000579695 0.00677927
-0.0156115 -0.0185593 0.0222373 0.0117651 -0.00439826 0.00613173 0.0312041 0.00370863 -0.0341268 0.0206455 0.0378808 -0.0201008 -0.0273922
-0.0233025 -0.0105799 0.00367949 0.0150066 -0.0344508 -0.0344012 0.0025903 -0.0349685 -0.0183773 0.0370799 0.0170641 0.00887574 0.0108048
-0.0356854 0.0134557 0.0310043 0.0119295 -0.0266997 0.00931086 0.0110176 -0.00636512 0.0103669 0.0222015 0.0223777 -0.024117 0.0120308
0.0230604 0.0139665 -0.0227793 0.0149619 0.031122 -0.0348498 -0.034977 -0.020163 0.013599 0.0283793 -0.0239584 -0.0273052 0.0208261
-0.0231223 -0.0240811 -0.0317681 -0.0202702 -0.0253614 -0.00345256 0.00917258 9.3883e-05 -0.030243 -0.0281616 -0.00492362 -0.0161739 -0.0214717
-0.0378594 -0.00175556 0.0237993 0.0241548 0.0292829 0.00374146 -0.00383298 -0.0284055 0.00739026 -0.0180029 0.0324239 0.0143545 0.0197329
0.0264675 0.0123088 -0.0284199 -0.0187743 -0.0231243 -0.0143535 -0.0243616 -0.010602 -0.0232265 -0.0140206 0.00703414 -0.0225369 0.0155051
-0.00337102 -0.0059196 -0.0249222 -0.0103186 -0.00858051 0.0242415 0.00791754 0.0276917 0.0227129 -0.027198 0.0245339 -0.0184628 -0.0237953
-0.244225 -0.128808 -0.0253459 0.125812 -0.0986534 -0.160161 -0.554136 0.151909 0.049126 -0.0941841 -0.236705 -0.0387219 0.0660165
0.0244656 -0.0146981 -0.0264724 -0.0254917 -0.00527326 -0.0386426 -0.0225063 -0.0312008 0.0233918 0.0227609 -0.0332893 -0.0234142 0.0245919
-0.0355857 0.0230464 0.0208977 -0.0118561 -0.0217725 -0.0182694 -0.0155769 0.0361976 -0.0020657 0.0234314 -0.0195183 0.0220427 -0.00545713
-0.0234119 -0.0235307 0.00126825 0.00198188 -0.0370076 0.00430917 -0.0109196 -0.0091546 0.0171023 -0.000799211 0.00971931 -0.0180162 0.0286555
0.00324604 0.0204868 -0.00799229 0.0171872 -0.00177898 0.033926 0.0263004 -0.000203456 -0.0158531 -0.0224517 -0.0375361 0.0200093 0.0351785
0.0332681 -0.0641112 -0.0530944 0.187401 0.13056 -0.270325 -0.482049 0.0880616 0.118527 -0.0269972 -0.0872105 0.0383748 -0.0729068
-0.000398151 -0.00501836 -0.0236809 0.0258621 0.00137094 -0.0411607 -0.0515127 -0.0202025 -0.0274265 0.0291325 -0.0207926 0.0056366 0.0141554
0.0369001 -0.0182924 -0.016042 0.0112579 0.0240291 0.0215015 -0.0416217 0.0370563 -0.0231708 -0.0281782 -0.030348 0.0380462 0.00417958
0.00257689 -0.0082563 0.0365983 -0.0298043 -0.0316647 0.0214569 -0.00235617 -0.014825 0.00849962 -0.02848 0.00467063 -0.0156343 0.0149078
-0.0379021 0.00326187 0.0347953 0.0311431 0.0376263 0.00250462 -0.0182834 0.0199764 -0.0208326 0.0128927 0.00789575 0.0049618 0.00453508
-0.0330542 0.0293345 0.0121624 -0.0182568 0.0255443 0.00602535 0.00135371 -0.00499 0.0134265 0.0202521 0.0148421 0.00171704 -0.000961227
-0.0117462 0.0333646 0.0241961 0.0167282 -0.0244006 -0.00188136 -0.0391555 0.0121975 0.00469981 -0.0288111 0.000684087 -0.020598 0.0270728
-0.0210595 0.0343636 -0.0101432 0.0166314 0.00175318 0.0363281 0.0225891 0.00151416 0.0237471 0.0316994 -0.0307199 -0.00937723 0.0372931
0.0238076 -0.0207295 0.0131303 -0.0031039 -0.0237623 0.022003 -0.0173865 -0.0045227 -0.00247644 -0.026008 0.0293679 -0.0151038 -0.00266937
-0.0366696 -0.0264853 -0.0279152 0.0151365 0.0381543 0.0209526 -0.0561249 -0.0291536 0.00261362 -0.0153227 0.0279496 -0.0154203 -0.0238063
-0.00933851 0.0123945 0.010757 0.000990027 -0.0359051 0.0248775 0.016316 0.015708 0.00815243 0.00223943 0.00154311 -0.0318999 0.0238934
0.036999 0.0235408 0.00783002 0.010279 0.0189025 0.0340672 0.0177505 -0.00442625 0.000993395 -0.015444 0.0104779 0.024753 -0.0132695
-0.0374563 0.0182599 -0.0293649 -0.0355969 -0.0128841 0.0123716 0.0126005 0.00705507 0.0173049 -0.0225419 0.0333155 -0.00694053 -0.0297834
0.00339976 -0.00554741 -0.0263851 -0.00819603 0.0250833 0.0242085 2.78828e-05 0.0131279 -0.0131395 -0.0294166 -0.0382848 0.0112938 -0.0276309
-0.0293268 -0.0363404 0.0109671 0.0610381 0.020096 -0.0383581 -0.130076 0.0269409 0.0143648 -0.0466357 -0.0550276 0.0147011 -0.000101437
-0.0310516 -0.0231927 0.0304427 0.0371426 -0.0208902 0.00411057 -0.0107583 0.0325393 0.0184252 0.0151099 0.0224618 0.0279632 0.0109159
-0.0296059 0.0292573 0.00800308 0.00919803 -0.0290315 -0.0273508 0.0144398 -0.0283098 -0.0150938 -0.0261303 -0.032431 0.0139712 0.0168136
-0.0186476 -0.0447229 0.0139883 0.0280615 0.0253788 -0.00901506 -0.0180389 -0.0135736 0.0172186 -0.0102133 -0.015586 -0.0132127 0.0211564
1.52557 -0.0593187 -0.207462 0.566417 1.12955 -1.67205 -1.24787 -0.377177 0.592286 0.0629776 1.28332 0.545845 -1.09485
0.0182022 -0.0378084 0.0225856 0.0218431 0.0154269 -0.0495083 -0.0211816 -0.0120289 -0.0340968 0.0124571 0.0320529 -0.0270538 -0.0349251
0.0230997 0.0163163 0.0194248 -0.00289184 -0.0206875 -0.00037782 -0.00491315 -0.0167219 0.0358701 0.0304122 0.00756115 0.00808596 -0.0153937
-0.0185953 -0.0130225 -0.0239571 0.0112442 -0.00743648 -0.00528714 -0.023566 -0.0174855 0.0287266 0.00892671 0.0148659 0.029509 -0.0117273
-0.0204675 0.0241847 0.000733513 -0.037114 0.0369816 0.0235837 0.00723629 -0.00214621 0.0307399 0.0266629 -0.0344091 -0.00397741 0.00982945
0.00317488 0.028856 -0.0203372 0.0227731 -0.0239788 -0.00766461 -0.0159608 -0.0230366 0.0107027 0.0165559 -0.00571608 -0.00392793 0.0186864
-0.00615701 -0.0462573 0.023676 0.0511045 0.0568683 -0.0792818 -0.256104 0.0189308 0.046472 -0.0297849 -0.0640567 -0.0178979 0.0259659
0.0360204 -0.0306143 -0.0210998 0.0255179 0.0050234 0.00473988 -0.0255774 -0.0233892 0.0105924 -0.0191852 -0.0219693 -0.0256087 0.028116
-0.0220218 0.0158468 0.0256109 0.0313045 0.0225199 0.026103 -0.03166 -0.0304834 0.0321098 -0.00349989 0.0226922 0.0378142 -0.0183335
0.0091255 -0.0234588 -0.0246689 0.0226386 -0.0105545 -0.0553849 -0.116029 -0.00287246 0.0115962 -0.0230926 -0.0211999 -0.0176028 0.029485
0.0313882 0.0287782 0.00239661 0.00707625 -0.00187578 -0.031357 -0.0383189 0.00875446 -0.0355796 0.0351428 0.0354408 -0.0309918 0.0286734
0.0114203 -0.0343223 0.0197754 0.0181544 0.0223538 -0.0178761 -0.0181799 -0.0078649 0.0262122 0.0192693 0.0213338 0.0101708 0.00910342
-0.0247878 0.0363911 -0.00363702 -0.0236857 -0.0172573 -0.0286941 0.00951472 0.0149969 0.0219841 -0.00980663 0.00425566 0.0363783 0.0273184
0.0197365 -0.024666 0.0159764 0.0255415 0.0366526 0.0112194 0.0263436 0.034258 -0.0284952 0.0336298 -0.0271379 0.0322497 -0.000722765
-0.0330379 -0.0388089 0.0236329 0.0358895 0.02224 -0.00993996 -0.0323141 -0.0309042 -0.0279719 -0.0211333 0.0132114 0.0224884 0.0201216
0.0125879 -0.0408222 0.0172963 0.0245193 0.0136096 -0.0542161 -0.0699307 0.0244142 0.0205709 -0.0300709 -0.0121369 0.000867736 -0.0101979
-0.0214974 -0.0325017 -0.00861468 -0.00922417 -0.00604467 0.0269275 0.0157568 0.0111097 -0.00380154 -0.0271082 -0.0296042 -0.01538 0.00995139
-0.00893057 -0.0248165 0.0271157 0.0339907 0.00981879 0.0358442 -0.00778021 0.0265504 0.0315291 0.0188809 -6.76874e-05 -0.019553 -0.0224608
-0.00509522 -0.0468133 0.0188077 0.0247338 -0.0226148 -0.000857061 -0.0667072 0.0124122 0.0253167 -0.00361066 0.00456553 0.00198057 0.00880274
-0.0201684 0.0237365 -0.00348793 -0.0147707 -0.0266472 0.0137452 -0.016355 -0.0176068 0.0322531 -0.0330828 0.0318622 -0.022047 -0.00970101
0.0117958 -0.00880347 -0.022921 -0.0233104 -0.0182462 0.000861245 -0.0224209 0.00449748 -0.0241347 0.0330677 -0.0341343 0.0299272 0.0154041
0.000853648 0.0100776 0.0223444 0.00853188 -0.0193764 -0.0405592 -0.0199234 0.0275087 0.0053545 -0.0352933 -0.0204895 -0.0015105 -0.0352231
-0.0285178 0.016751 -0.0265738 -0.000445841 -0.0130651 -0.0255148 0.00968242 0.0151658 0.00118666 -0.0175192 0.000173416 0.0271666 0.0359218
-0.0291658 -0.0088196 0.00305536 -0.0150673 0.0122636 -0.0268818 0.00927407 -0.0275693 -0.028776 0.0177016 -0.0394114 0.00520233 -0.00685532
0.351113 -0.133097 -0.0396607 0.273539 0.270887 -0.542955 -0.57865 0.0367021 0.153339 0.121194 0.0284404 0.298542 -0.253257
0.00773369 -0.0318933 0.0119889 0.0218123 -0.0112226 -0.0152203 0.0300824 -0.0295552 -0.023925 -0.0346613 0.0174065 -0.0199313 -0.0127768
-0.0907407 -0.027824 0.0305327 0.0997821 0.0154827 -0.0995636 -0.318329 0.0782494 0.0608627 -0.0229546 -0.0642458 -0.00482854 0.02741
0.0303787 -0.0353397 0.0112138 -0.0160165 0.0338597 -0.00282745 0.00586019 -0.0155986 0.0214085 0.0017858 0.00938746 -0.0188139 -0.0246978
0.0192773 0.0245614 -0.00934033 -0.0253811 -0.0142521 -0.0254298 -0.0220238 0.0278532 -0.0351336 0.0127083 0.0252908 0.0176672 0.0205216
0.0260189 0.0105993 -0.0139665 -0.00280348 0.00271794 -0.0193105 0.0251787 -0.00825967 0.0288292 -0.0150129 -0.000125943 0.00441107 -0.0177724
-0.0235905 -0.0111209 -0.0024831 -0.0212752 0.0323932 0.0232461 -0.00667435 0.00150092 0.00637198 -0.0362812 -0.0156492 -0.0285471 0.0335974
-0.0114405 -0.0237361 -0.0366363 -0.0127125 -0.0279479 0.00688677 -0.0491328 0.0361321 0.0040243 -0.0339863 -0.00555192 0.020576 -0.0162601
0.0157427 -0.0335141 -0.021122 -0.00682132 -0.0270378 0.002595 0.0273509 -0.0355551 -0.0292174 -0.00137434 0.0242571 -0.00438407 -0.0272343
0.0219658 0.0225284 0.0358883 0.00257899 -0.00910767 0.0211544 0.0317339 -0.0158603 0.0126921 -0.00795149 -0.00868649 -0.0175749 -0.0281271
-0.0109139 0.0075682 -0.0344346 -0.0198715 -0.0051398 -0.0208408 -0.0351826 0.00344259 0.0211221 -0.0249508 0.0105814 -0.0379674 -0.0379309
-0.0307488 -0.0402373 -0.0108883 -0.020522 -0.0361559 -0.00234364 -0.00799738 -0.0281655 0.0210494 0.00525365 0.0212422 0.0312574 -0.0245386
0.00769325 0.0267364 -0.029347 0.00869723 -0.00562388 -0.00965307 0.02069 -0.0063134 -0.00999932 -0.00547378 0.0071348 -0.00402925 0.0107398
0.0154839 -0.0278605 0.0205288 0.0232786 -0.00205101 0.000913422 -0.0164668 -0.00367891 0.00399239 0.0344698 0.0109255 -0.0146946 0.00584398
-0.00248201 0.00232294 -0.033578 -0.037883 -0.017221 0.0364367 -0.0311824 -0.0156324 -0.00381303 0.0362677 0.0320904 0.0200025 -0.0057333
-0.00558842 0.0320345 -0.0239109 -0.0206771 -0.00501941 -0.0179679 -0.0119667 0.02199 -0.00627098 0.0240267 0.00960862 0.00578513 0.0191351
0.0358937 0.00649929 -0.0235325 0.0177887 -0.0229389 -0.0258545 -0.0339035 -0.0303458 -0.00568298 -0.0299228 0.0315129 -0.0314853 -0.00841496
0.0204395 0.0346189 -0.0103432 0.0139953 -0.0373594 0.0342861 -0.022889 -0.030589 0.000139997 0.00356076 0.00672296 0.0216054 -0.0226299
-0.0117002 -0.0254032 0.0297375 -0.0149795 0.0306167 -0.0058545 0.010869 -0.0101413 -0.0222634 0.00284478 -0.0250485 -0.0338243 -0.0137183
0.0058638 -0.011743 5.75396e-05 0.0259831 -0.0196382 0.0355825 -0.0338705 -0.0370562 -0.025841 0.00869419 0.0151363 0.0220779 -0.00395946
-0.0226968 0.00969111 0.017813 -0.0038059 0.0174315 -0.0364786 0.0159179 0.0311374 -0.000621227 0.00749541 -0.00525568 0.00861213 -0.00991427
-0.0329121 0.00634409 0.00155445 -0.0317574 -0.00447492 0.00789602 -0.0330451 0.00140167 0.0093576 0.0241637 -0.0258871 0.000302129 -0.0305323
-0.0128878 -0.0206718 -0.00495853 -0.0238049 -0.0156178 0.0129166 -0.000214213 0.025194 -0.0262888 0.0341424 0.000135286 -0.0264347 0.0180703
0.0245056 -0.00837477 -0.0125984 0.00756939 -0.00363021 0.0299503 -0.0334945 -0.0286313 0.0186826 0.0255688 -0.0111217 0.033715 0.0227265
0.0306312 -0.0304339 0.0309842 0.077882 -0.00360852 -0.0778001 -0.220258 0.0564178 0.0335694 -0.00751161 -0.065603 0.0465866 0.0153675
0.0244126 0.00853648 0.0120975 0.00485844 0.00447528 0.0163298 -0.0447903 0.0372684 0.0108196 0.000759299 -0.00440808 -0.00370226 -0.00917055
-0.010433 0.0265238 -0.00229139 0.0285827 0.0115906 -0.0205788 0.00616145 -0.0259756 0.00121963 0.0282289 0.00078221 0.00942981 0.016785
-0.00925251 -0.0285527 -0.0113702 0.0282972 -0.00576905 -0.0138345 -0.0839131 0.00411917 -0.0176405 -0.0118926 0.00871013 0.0176896 -0.0120877
-0.0213239 0.0360929 0.0286616 0.0289586 -0.0145628 0.0334302 -0.0113336 0.00244673 0.0296199 -0.018125 0.0232237 0.0134021 0.0174563
-0.00100093 -0.00347325 0.0207894 0.0373716 -0.00725906 -0.0120934 -0.021379 0.0356117 0.0333512 0.00583478 0.0160101 0.0257908 -0.0233441
0.0193145 -0.0185519 0.00702673 0.000269096 0.0169319 0.00481282 -0.0137728 0.00643055 -0.0255716 -0.0181069 0.0217803 0.0125604 -0.0194789
0.0378982 0.0205723 -0.00128964 0.01126 0.0302254 0.0329647 -0.0150032 -0.00807204 0.0208812 -0.0177277 0.00938086 0.0338344 0.0360029
0.0257408 0.00988885 0.0284212 0.0165265 -0.00778927 -0.0237179 -0.00520238 0.00775208 -0.00051617 -0.0332766 0.0276725 -0.0194302 0.00440287
0.0159265 0.0164941 -0.027703 -0.0117038 -0.0133919 -0.0124927 -0.0258497 -0.00926746 0.0314487 -0.0311874 -0.00292514 -0.0179472 0.0024532
0.0118803 -0.00445553 0.0065889 -0.0231298 0.0173718 0.0155923 0.0203891 -0.0301576 0.00725261 0.0108127 0.0103458 -0.0249124 0.00399413
-0.0375061 0.0313439 0.0206999 -0.0194896 0.0129077 0.00448275 0.0184494 0.0081558 0.0370391 -0.0249776 0.0221674 0.0138938 0.0294824
0.0296254 0.00552582 0.026959 0.000462499 -0.0282277 -0.0237011 -0.0138355 -0.0124394 0.0357102 -0.0271557 -0.0234201 0.0113421 -0.000499183
-0.0167992 0.0293013 0.0156465 0.0200259 -0.0287824 0.00390262 -0.0245345 0.0385415 -0.0243784 0.0116398 0.0282666 0.00929957 0.0139034
0.0330087 0.00667293 0.00639259 -0.024941 -0.0370628 0.0249374 -0.00480979 -0.024914 0.00734534 -0.00889167 -0.0188301 -0.0296707 -0.00780935
-0.0473223 -0.0497063 0.000718467 0.124005 0.0610327 -0.214403 -0.399418 0.0532904 0.0256085 -0.0367741 -0.110255 0.0355157 -0.00620783
-0.018404 0.025836 -0.027662 -0.0263153 0.0032948 -0.0209032 0.00703369 0.00274995 0.000507329 -0.017293 0.0128022 0.00943279 0.0153907
0.0161191 -0.00142058 -0.0372355 -0.00426494 0.0164141 -0.0198338 0.0221434 0.0133239 0.0237766 -0.0262685 -0.0154139 0.0353655 -0.0325083
0.0195323 0.0113514 -0.0258569 0.0125841 -0.026903 -0.0388636 -0.0186244 0.0290834 0.00291376 0.0272327 0.00379007 0.00846457 -0.0111064
-0.0226929 0.0062463 -0.00322768 -0.0125366 -0.00401577 0.0171441 -0.0099668 -0.0100557 -0.0286638 0.0241065 -0.0346826 -0.0134447 -0.0327403
0.0295452 0.0372695 -0.0270577 0.00333145 -0.0113765 0.0379649 0.0130604 0.0208801 -0.0132131 0.0157983 0.0225435 0.0282649 0.0300912
-0.0160872 0.00711379 0.00902391 -0.00879317 -0.00361267 0.0068811 -0.0144562 -0.0241745 0.0337292 -0.0370857 -0.0210061 -0.0333595 0.0263731
0.00498473 0.0304149 0.0281348 0.00295902 -0.0072704 -0.0248122 -0.0145275 0.026981 -0.0262887 -0.0224502 -0.0132155 0.0164644 -0.0234016
0.0292044 -0.0257985 0.0204318 0.00147442 0.0165204 -0.00598193 -0.00482475 -0.031992 0.00729397 -0.015196 -0.00823874 0.0335542 0.00130098
-0.0232263 -0.0290335 -0.00908738 0.0312832 -0.0132915 -0.0101779 0.00787192 -0.0252504 0.0247456 -0.00945195 0.0317919 0.0308459 0.0130378
0.0353949 0.0381052 -0.0268497 -0.0122554 0.00459081 0.028163 -0.0320155 0.02781 0.0182221 0.0275301 -0.0339233 0.0101593 0.0301376
-0.0322339 -0.00845994 -0.00974678 0.0360631 -0.00898373 0.0289492 -0.00867181 0.0178919 -0.0144858 -0.0276696 -0.0379956 0.00503806 -0.0157187
-0.020238 0.0382104 0.0178908 -0.00501682 -0.0211264 -0.0251262 -0.0173473 -0.0284069 -0.0334143 0.0184266 0.0321475 0.0192265 0.00275566
0.024417 0.0282575 -0.00192439 -0.0126419 0.0110221 -0.0212009 0.000615861 0.0152973 0.0378777 0.0245113 0.0328064 0.000889745 -0.0195009
0.030798 0.0267957 -0.00657585 0.0178956 -0.0227303 0.000174415 -0.00280466 0.0300897 -0.0181141 -0.0104127 -0.0389817 -0.00587134 -0.0289955
0.0302688 -0.02636 -0.00452391 0.0157887 0.0316138 0.0140921 0.0262443 -0.0129422 0.0170695 -0.0191851 0.00285347 0.0373464 0.0331767
0.0114028 0.00150828 -0.0314099 0.00276334 0.0047174 0.00152832 0.0064269 -0.0325755 -0.0236836 -0.0310125 -0.00227239 0.0215868 0.016378
0.0113333 -0.0152529 0.00374962 0.00866183 0.0569405 -0.0963788 -0.0972055 0.0227191 0.0110305 0.00871765 0.0344661 -0.00219051 -0.00413741
-0.00835105 0.0191638 -0.00623418 -0.0185958 -0.0224232 -0.0186614 0.00245055 0.0075557 -0.0315566 -0.00958563 -0.0217661 0.0279973 -0.0188607
-0.0260662 0.0184205 -0.022175 0.0558335 -0.018994 -0.0952859 -0.134259 0.0562866 0.0341948 -0.05141 -0.0168326 0.0432118 0.015569
0.00644046 0.0349846 0.0173383 0.0347553 -0.0155964 0.0315626 -0.0301819 0.0322319 -0.00648208 0.0336348 0.0268513 -0.0103632 -0.00271527
-0.0137673 0.0205234 -0.0103615 0.0294504 0.0310419 -0.010511 -0.00753171 0.00635278 0.0112945 0.0376237 0.018309 -0.0232244 0.00720483
0.0154461 0.0195313 -0.0223225 0.00843189 0.0138251 0.0066007 -0.0095724 -0.0053862 -0.0244733 -0.0143017 0.0240655 -0.0285822 -0.00759075
0.00884033 -0.00921977 0.0302044 0.0241972 0.038893 -0.0964491 -0.121911 0.0116539 0.00405975 -0.0282142 -0.0249632 -0.00210312 -0.0335725
-0.0133297 0.0363036 0.0223359 -0.0251321 -0.0189855 -0.000179689 0.00656482 -0.00898013 0.00373228 -0.0314693 0.00225284 0.000170049 0.0200029
-0.0278755 -6.90925e-05 0.0224095 0.0191466 0.0203023 -0.0374447 0.00737916 -0.0178987 0.0241484 -0.0169547 -0.021484 0.0242097 0.0314396
-0.0254615 -0.0250685 -0.036411 -0.000933657 0.0277783 -0.0303717 -0.0266799 0.0273893 0.0085043 -0.032297 0.00432171 0.00736697 0.0291537
0.0197589 -0.00934271 0.00906025 -0.0150673 -0.0155062 -0.0293637 -0.0281597 -0.0203063 0.0362248 -0.00867048 0.0114624 0.0205602 0.0356153
0.0194858 0.0265757 0.0356176 -0.00936993 -0.0175662 0.0190861 -0.00674594 0.0252706 0.0149393 -0.0158159 0.00230614 -0.0228328 0.00978194
-0.0397498 -0.0100913 -0.0143479 0.0268158 -0.00340097 -0.0049047 0.00746496 0.0164384 -0.0048195 0.00902925 -0.000646936 -0.00433483 -0.0320227
-0.0207571 0.0378687 0.0286733 -0.00167904 -0.00746676 -0.00362401 -0.0203586 -0.010294 -0.0315054 -0.0305138 0.0364759 -0.0245464 -0.0344892
-0.0368951 -0.00169319 -0.0302076 0.0378821 -0.0254991 -0.0081108 0.0266867 0.00798533 0.015744 -0.0126241 0.0299814 -0.0324613 0.00932423
0.0380561 -0.00298238 0.0296326 -0.0326908 -0.0220401 -0.0339513 -0.0157002 0.0256821 0.00471999 -0.00495196 0.0268336 -0.0211719 -0.020083
0.0280006 0.03134 -0.0370397 0.0263341 -0.0350335 -0.0106797 0.0236863 0.0391066 0.0270289 0.00249057 0.0203556 -0.00107946 0.0165858
0.0213453 -0.0182018 -0.0210683 0.0888782 0.00244426 -0.115243 -0.218991 0.00947846 -0.0047812 -0.0297255 -0.0199846 0.0202823 -0.0230074
-0.00150458 -0.0317578 -0.0049449 0.00144038 0.0250775 0.000928987 0.00333291 0.017559 -0.013991 0.0362754 -0.0240887 -0.00600108 -0.0129153
-0.00567687 0.00929466 0.00869285 0.00725171 0.018863 0.0316245 -0.0209291 -0.0310431 -0.000905962 -0.0175594 0.0280382 -0.0135805 -0.00336964
-0.0308309 0.0218781 0.007848 0.000389152 0.0308335 -0.035351 0.00132834 0.0338462 -0.00574317 -0.0141819 -0.0379629 0.0383691 0.0235196
-0.00132992 0.0122089 -0.0193018 -0.00300223 -0.0196006 -0.0276354 -0.0318944 -0.00889966 0.00747544 0.00950231 -0.00248451 0.00942685 -0.0293036
0.0346941 0.00728158 -0.00731383 -0.0237443 0.00235138 0.0198876 -0.0248744 -0.0231352 -0.00627307 0.0129113 -0.00964817 -0.0118822 0.00649391
0.0306575 -0.0172363 0.0228468 0.0293894 0.000432251 -0.0746241 -0.105034 0.0243473 0.0566479 0.0176061 -0.0184714 0.0320612 0.00577554
0.0342297 -0.0222562 -0.0272023 0.0239264 0.00649385 -0.0233122 -0.0237816 -0.0248292 0.0146389 0.00502837 0.0229614 0.0293785 0.0250569
0.0323466 -0.0241678 -0.0104671 -0.0290951 0.0313634 -0.00595498 -0.0395743 -0.0379105 0.034586 0.00365798 -0.0202611 2.46291e-05 0.0308766
-0.0314696 -0.0405237 0.0165882 0.000297227 0.00939698 -0.0206442 -0.0540797 -0.018837 -0.0221203 -0.0295962 0.00894569 -0.0319928 -0.028758
0.0284191 -0.0101654 -0.0367905 -0.0333039 -0.0364371 -0.0160307 -0.0275707 -0.0356938 0.00134717 0.0194576 0.00893982 0.00423648 -0.013269
-0.00182681 -0.0423754 -0.0240855 -0.0032523 -0.00515625 -0.0185881 -0.0418662 -0.0106941 -0.00376439 -0.0172875 -0.000486889 0.00216617 0.0210419
-0.00532074 0.0225016 -0.00140001 0.0381377 -0.0111523 -0.0100765 -0.0153136 -0.0334258 -0.0182408 0.0169133 0.0362088 -0.0067536 0.0227551
0.0205835 -0.0162444 -0.0147025 -0.0087425 -0.0059186 -0.0448742 -0.0587627 0.00275489 0.0227819 -0.0228905 -0.0236492 -0.00730856 -0.0356138
0.0280335 0.01778 0.0267577 -0.00354112 -0.0256597 0.00690144 -0.00490203 -0.0216375 0.021512 0.0157378 0.0288184 -0.00197782 0.0368999
-0.0308018 0.0335103 0.0138084 0.0378194 0.00226093 -0.0353216 0.0161851 -0.0111605 -0.00640998 -0.00462488 0.000190051 -0.0164686 -0.0152363
-0.0373966 -0.00958182 0.00599006 -0.0151412 0.0324336 -0.0345346 0.0143483 0.0103904 0.0251478 0.0227686 0.00264719 -0.0386422 0.0337966
0.0149887 -0.0451648 -0.0150579 0.0451294 0.0106548 -0.0806339 -0.0828109 0.00301905 0.0258345 -0.0132418 -0.0482996 0.03036 -0.0100273
-0.0308315 -0.00456832 0.00631774 0.017118 0.0360143 -0.0352284 -0.026675 0.00269214 -0.0139569 -0.0298699 -0.0165127 0.00430525 -0.0294464
0.0296008 -0.0237388 0.0248496 0.0301501 0.0358718 0.0117146 -0.03628 0.023349 0.0274477 0.00813816 0.00603691 -0.0182476 -0.0179532
0.0220925 0.0269096 0.0339007 -0.0272718 0.0194459 0.0321399 -0.0192143 0.0023285 -0.026196 -0.0340861 -0.0364723 -0.000172965 -0.0199792
-0.0197878 -0.0283731 -0.022307 0.0027624 -0.0297101 0.0314708 -0.0154912 0.017358 0.0331936 -0.0251199 -0.0325639 -0.0100644 -0.0190296
-0.0220506 -0.0353861 0.0297422 -0.0105766 -0.0333967 -0.0115976 -0.0140056 -0.0124742 0.00936457 0.0276463 0.00640044 -0.00723183 -0.0264221
-0.0153336 0.00956837 0.0209547 -0.0253864 0.0149435 0.0308731 0.0261411 0.00729789 0.00817855 -0.00907236 -0.0318916 0.00785913 -0.0160962
-0.0137524 -0.0194482 0.0374876 -0.0271469 -0.0144611 -0.00124842 -0.0483833 0.0200542 -0.0210717 -0.0246837 0.0369961 -0.00605654 -0.0292148
0.0135965 0.00866113 0.0334698 -0.0206531 -0.0290571 -0.0298676 -0.00356325 -0.0151519 0.00335343 -0.0345673 -0.0372286 0.0233089 -0.0225886
0.0297492 -0.0234801 -0.024564 0.0187233 -0.028942 0.0305573 -0.0394454 0.0359389 0.0348656 -0.0270175 0.0365461 -0.0116792 -0.00768316
0.0162603 0.00518213 0.0100058 0.0233898 0.0136982 -0.0102527 -0.0220358 -0.0129104 0.0183064 0.00858639 0.0315521 0.026067 -0.0183661
-0.00639216 -0.0030048 -0.0334183 0.0516646 -0.0033749 0.00287871 -0.0525687 -0.0242119 0.0173883 0.0313138 0.0111871 0.0222654 0.0130964
-0.0231632 -0.0194292 -0.0184151 0.0361608 -0.0247949 -0.0150371 0.00310622 -0.0177486 -0.0173582 -0.0186263 0.0352257 0.00378852 -0.0254451
0.0282913 -0.0137506 -0.0301865 0.000209603 -0.0175533 0.000136523 0.0324126 -0.013234 0.00733604 0.00751246 0.0328797 0.0131825 -0.0294221
0.00995339 -0.104094 0.00343267 0.142017 0.0306391 -0.21051 -0.395132 0.0642163 0.0266975 -0.0401369 -0.0485005 0.0315187 -0.0525981
-0.0498981 -0.0344144 0.0210838 0.0413677 0.0280534 -0.133008 -0.223513 0.00533429 0.0487626 -0.0197809 -0.0473956 0.00342641 0.0319246
0.0239773 0.0132865 0.00164897 0.00492859 -0.0219983 -0.0377288 0.0197864 -0.0381691 -0.0241284 0.0018964 0.0337911 -0.001129 0.0151938
0.0146187 0.0287234 0.00337648 -0.012247 0.0262031 -0.0107284 -0.0214449 -0.0187666 0.0174645 0.00705004 -0.046153 0.0155214 -0.0170465
0.014858 0.000773504 -0.00220978 0.032987 0.0206044 0.00255233 -0.0402035 0.0351797 -0.00984326 -0.0171458 0.0292585 0.0247257 0.0224933
0.0142364 -0.00968198 -0.014494 -0.00576441 -0.00928637 -0.0388471 0.000845332 0.00342985 0.0314219 -0.0255118 0.0163292 -0.0359655 -0.0196711
0.00830736 0.034483 0.0231341 -0.028284 -0.0085543 0.0303592 -0.0323467 0.0130194 -0.0159105 -0.0300362 -0.0121593 -0.0274723 0.0114684
-0.0132926 0.0330509 0.0291365 -0.0265723 0.0242995 0.0012557 0.0227074 0.0180942 0.00345154 0.0254217 0.000539257 0.0354589 0.033061
0.00720757 0.0238295 -0.0271671 0.0250852 -0.0258609 0.0149779 -0.035559 -0.0132554 -0.0347752 -0.000681256 -0.0267618 -0.00867912 0.0355484
-0.126132 -0.0596117 -0.0120695 0.100406 0.00353825 -0.212733 -0.502857 0.0916584 0.0450117 -0.0784253 -0.136261 -0.012708 -0.00018904
-0.0208339 0.033878 0.0239078 0.0203221 0.0103895 -0.0165601 0.00297748 0.0238762 -0.034562 0.0302875 -0.0296638 0.0186518 0.0130074
-0.0186072 0.0265428 -0.021047 0.0313166 0.0239852 0.0306711 0.0296418 0.00679734 -0.00783035 0.0111804 -0.0181071 -0.0063386 0.00433676
0.0188176 -0.0285457 -0.0251409 0.00435943 -0.0328248 0.0200042 0.0356852 -0.00485475 -0.0336712 0.00335346 -0.00438918 0.0149473 0.0180775
0.0290694 0.0034869 0.0315348 0.034881 -0.0174561 -0.0318208 0.0150222 0.0217117 -0.0190568 -0.013305 -0.0299089 -0.0285344 0.0170986
0.0130071 -0.0372367 0.0148419 0.00436307 -0.00947002 -9.29388e-05 -0.0308494 0.0196348 0.0232965 0.0242179 -0.0315277 0.0280245 -0.019847
-0.0198393 0.0228543 0.0342735 0.0347682 -0.0200428 0.0311249 -0.00121596 0.0102563 -0.021417 -0.0101475 0.0013983 0.0275155 0.0363692
-0.0357626 0.0250607 -0.0333276 -0.0176151 0.0403865 0.0130647 0.0062841 0.00170682 0.00428445 0.0123135 0.0223284 0.0138186 -0.00160168
0.0211409 -0.0723751 -0.0166168 0.0838621 0.0251223 -0.163682 -0.212537 0.0163558 0.0292188 -0.0357935 -0.0166135 0.00755387 -0.0135746
-0.0176671 0.0215464 0.00700731 0.0154593 0.0391359 -0.00761257 0.0112678 -0.0133176 -0.0140434 0.0184319 -0.0222149 0.0163171 -0.0272327
0.022893 -0.0170651 -0.0348344 0.0228632 0.0280241 -0.0216816 -0.0227324 -0.00587178 0.0292723 0.0186515 -0.0115961 0.00843259 -0.00538828
0.0286648 -0.0203077 -0.0218333 -0.00138287 -0.000671642 -0.010135 0.0186011 0.034658 -0.0211611 0.0220637 0.0240142 0.0169582 0.0135414
-0.00200082 0.0258877 0.0229361 0.0176965 0.00369438 -0.0324868 0.00809696 0.0386444 0.0180666 0.00621311 0.0299776 0.0296095 0.00975004
-0.0385664 0.00274475 -0.0140484 -0.0206362 0.0145439 -0.0547607 -0.0557785 -0.000273336 -0.000208808 0.00210578 -0.0122248 -0.0143135 0.0220448
-0.0125351 0.0254805 0.036348 0.00328448 0.00279699 0.012579 0.0257679 0.00951772 -0.0239359 -0.0116686 -0.0017188 -0.0161041 -0.0229078
0.017374 -0.00515262 0.0356547 0.0373979 -0.0308923 0.036106 -0.00205072 0.0119226 0.00538076 0.0371181 0.0197566 -0.0377594 -0.0189923
0.027362 0.0345463 0.00351412 -0.0368161 0.0269028 -0.01343 -0.0270684 0.00792582 -0.0111951 -0.027532 -0.0321836 -0.0285333 -0.0149764
-0.0110776 -0.0014203 -0.00583889 0.0114472 -0.0234839 -0.00847907 -0.0156482 -0.0121654 -0.0115666 -0.00101956 0.0254732 0.00185289 0.00118128
0.0382126 -0.0323648 0.0218792 -0.00874383 -0.0294768 -0.0145493 0.0234078 -0.0349766 -0.00476007 -0.0182851 0.035642 -0.0191414 0.0109982
-0.00680907 0.00514541 -0.0172189 -0.0117251 -0.0071032 0.0278252 0.0206776 -0.0235805 0.029081 -0.00336561 0.00345882 8.5953e-05 0.025055
0.0176063 -0.00853828 -0.0178952 -0.0278752 0.0425359 -0.0535963 -0.043213 0.0174455 -0.030459 0.00679433 0.00829932 0.0157493 0.000299582
-0.00471073 -0.0156973 0.00763742 -0.0134963 0.00945618 0.00642764 -0.0376735 0.0210857 0.0233882 0.0228863 -0.0201417 -0.0240988 -0.0166441
-0.00461254 -0.0115852 0.0259569 -0.00428896 0.0208562 0.0135896 0.000980672 -0.00873126 0.0199412 -0.00629204 -0.0356457 -0.011249 -0.025504
0.0203781 0.00280638 0.00436193 0.0195848 0.0146175 -0.0355513 0.0343777 -0.0188229 -0.0266961 -0.0368189 -0.0345603 0.0278471 -0.0214893
-0.0269498 -0.00281798 -0.00905022 -0.00668559 0.0196609 -0.00814989 0.00300286 -0.00779019 0.0185073 -0.0309384 -0.0301676 -0.00147454 0.011451
-0.0244737 0.0355057 0.0340279 0.0281916 -0.020528 0.0357525 0.0233817 -0.0023298 -0.00334878 0.00547872 -0.004803 0.00965387 -0.00732817
0.0214415 0.0242355 0.0181097 0.0100542 0.0374602 -0.0361641 -0.0310534 0.0381997 -0.0180617 -0.0295879 -0.0320167 -0.0145589 -0.0189577
-0.025272 0.0376728 0.0215519 0.0385342 -0.028815 0.0152681 -0.0220529 -0.0321906 0.0329926 0.0339502 0.00285294 -0.00827241 -0.0186396
-0.00232523 -0.0248486 -0.00469523 0.0612299 0.0396076 -0.059537 -0.191459 0.057796 0.0168118 -0.0386354 -0.0325467 0.0428585 -0.0409903
-0.019653 0.0267749 -0.0383179 -0.0334252 0.0183081 0.00481899 -0.00766817 -0.0368826 -0.0215276 -0.0273723 0.013255 -0.0215942 -0.0190352
-0.0388441 -0.0490181 -0.000899904 0.0700187 0.0112838 -0.154307 -0.28497 0.0610201 0.0301954 -0.0542768 -0.0848919 0.0236435 -0.0502794
0.0243763 0.00661133 0.0235542 0.0435386 0.00188251 0.020561 -0.0157985 0.0392805 -0.0146939 -0.0277824 -0.025388 0.0362163 -0.0288105
0.0342305 0.0161615 -0.0346624 -0.0323142 0.030708 0.0295354 0.0132476 -0.00468639 0.0366582 -0.0374992 -0.0334586 -0.017824 0.0241448
-0.000225469 0.0169149 -0.00779082 0.0418155 -0.0192008 -0.0295363 0.0049251 0.0156855 -0.0333335 -0.0120344 -0.00682573 0.0298062 -0.00170749
-0.0589129 -0.0928982 0.0371315 0.139861 0.05248 -0.203226 -0.447601 0.0730095 0.0412952 -0.0391384 -0.184602 -0.0366659 -0.0202498
-0.0270687 -0.00216154 -0.0160185 -0.0159561 0.0123857 0.017251 -0.00357642 -0.00110618 0.00953969 -0.0354534 -0.0115903 0.00636552 -0.0385989
0.0193784 -0.00163137 0.0104553 -0.025713 -0.0114522 0.0363641 0.0207006 0.0315349 0.00357337 -0.00105396 -0.0361123 0.0384206 0.030847
0.0102211 -0.0233215 0.0207854 0.026209 -0.0180017 -0.0125093 0.0044826 -0.0166406 0.037732 0.00538334 0.0326047 -0.0103238 0.035399
0.0210191 -0.0281589 -0.0269121 0.0304751 0.0221032 0.0215409 0.0301313 -0.0258644 0.0351923 -0.0170884 0.0126538 0.0151966 -0.0235373
0.032794 0.0232931 0.014202 0.010771 -0.0265313 -0.0171173 -0.0478206 0.0350813 -0.007068 -0.00532168 -0.0106215 0.0119411 -0.00301562
0.0380404 0.0110143 -0.0149079 -0.00795239 0.0230378 0.0277108 -0.00681736 0.0156647 -0.0131456 -0.0341752 -0.0232299 0.00863367 -0.0386027
-0.0321927 -0.0226688 -0.0185971 0.00165159 0.00995753 -0.0141216 -0.0163417 0.035139 -0.00259803 -0.0387761 0.0244683 0.0224234 0.0108226
-0.0331194 -0.015522 -0.0285391 0.0175676 -0.0313411 -0.0153844 -0.00686834 0.0266799 0.00817604 -0.0283985 0.00275617 -0.0284148 -0.00224326
-0.00846502 -0.028019 0.0219371 0.0317629 0.0220881 -0.00100226 -0.0559186 0.00226947 0.0166134 -0.0211036 -0.0133625 0.0152827 0.0113661
0.0266236 -0.0287412 0.0209863 -0.0181415 -0.0256422 -0.00138763 -0.011074 -0.00683721 -0.0240569 0.00543445 0.00941786 0.0038073 -0.00428404
-0.0247132 0.0118115 -0.0331919 -0.0172766 -0.0141751 0.0200531 0.0212254 -0.000922865 0.0102962 -0.0106387 -0.0179572 0.033304 -0.0221825
0.00418104 -0.031998 -0.00214707 0.00452174 -0.00516183 0.0302757 -0.0141787 -0.0207685 0.0322489 0.014883 0.0104263 0.0071863 -0.0119927
-0.00359736 0.0228112 -0.0320243 0.022176 -0.0323021 -0.0183562 -0.0316913 -0.0148395 -0.0324485 -0.00426511 0.0137217 0.0160468 -0.0338337
0.0147635 0.0319636 0.00441846 0.0348906 -0.0248873 0.0128859 -0.0217854 0.0314968 0.0218381 -0.0242045 0.019822 0.0035604 0.0332557
-0.0483679 0.00236202 0.0187835 0.0743318 0.02755 -0.0890341 -0.152661 0.0311627 0.0195889 -0.0252207 -0.0168442 0.041707 -0.0445595
-0.0212065 -0.073185 0.0112976 0.124858 0.0344175 -0.199917 -0.345924 0.114481 0.0785737 -0.0208874 -0.0892365 -0.0129295 0.00502775
0.0149313 -0.0219641 0.0282284 0.0129245 -0.0152174 -0.0155947 -0.0198533 -0.00990928 0.0168371 0.027432 -0.0246811 0.0298369 0.0134067
-0.0694276 -0.0719117 0.0226896 0.104638 0.00352949 -0.166308 -0.445007 0.149175 0.0203643 -0.0700051 -0.132615 0.0283872 0.0469837
0.0227428 -0.00106675 -0.0266217 0.0261152 -0.0146583 -0.0222685 -0.0445393 0.0304603 0.0252354 -0.0146357 -0.0305611 -0.019826 0.0385232
-0.00152714 0.032005 -0.013927 0.029854 -0.0328878 0.00238917 -0.0111478 0.0190333 -0.00791462 0.0209787 -0.0390733 0.00740018 -0.0378776
0.0160987 -0.0384963 -0.0264331 0.00321927 0.0240085 -0.00883766 0.00277373 -0.0120596 0.0201288 0.0212853 0.012832 0.000920838 -0.00489264
-0.0202086 0.0346049 0.023821 -0.0230497 -0.0376129 0.0209863 0.0227514 0.0218789 0.0295175 0.0222086 -0.0130593 0.0333804 0.0251353
-0.00950249 -0.0387223 0.0370059 -0.00966734 -0.020481 -0.00601438 -0.0316215 -0.0139548 -0.0261096 -0.0178547 0.0286181 0.0347242 0.0282688
-0.0297146 -0.0263422 -0.0319089 -0.0307303 0.0121488 -0.0390354 -0.026322 0.0133751 -0.000389647 -0.0365916 0.0154168 0.0256467 -0.00936522
0.00369686 0.0208047 0.0196248 -0.0196355 -0.00416375 0.0331998 0.0366517 -0.0177157 0.036632 -0.0306284 -0.0303748 -0.00727159 0.0189156
0.012494 -0.0159583 -0.0130224 -0.0131074 0.0364345 0.0293541 0.0171612 -0.0364747 0.0114444 0.00634748 -0.00822106 0.0127137 0.0197328
0.02808 0.0379256 0.011416 0.01818 -0.00489604 -0.0198725 -0.0330234 0.0124514 0.00442922 0.0353225 -0.0113723 -0.0182379 0.0219751
0.0277327 -0.00484065 -0.0146372 0.0288737 -0.0157034 0.035684 0.00261385 0.0197181 0.00746572 -0.0139783 -0.0328107 0.00227219 0.0355719
-0.0303942 0.023795 -0.0300925 -0.0117339 0.0153646 0.0104325 -0.0406487 -0.0273433 -0.00549456 -0.0198465 0.0138965 -0.0247606 -0.0157356
0.0310871 -0.0382455 0.024226 0.00487257 0.0309993 0.0053365 -0.0231364 -0.0154589 0.0127168 0.0208032 -0.0347701 0.0359927 0.0371102
-0.0166401 0.0214251 -0.0374935 -0.0292056 0.0327546 0.00397504 0.00409971 -0.0162212 -0.0125297 0.0238332 0.00925098 0.00721348 -0.00845807
0.0148501 -0.0129161 0.0368614 0.00769503 0.0375315 -0.0305525 0.0136853 -0.0137382 0.0116882 0.0305794 -0.0191131 0.027604 -0.0191922
0.277452 -0.134607 -0.0407048 0.180636 0.238866 -0.477085 -0.527611 -0.0524667 0.194387 0.0116325 0.135009 0.119564 -0.200464
-0.0208571 0.0253739 -0.00797115 -0.014556 2.42982e-05 -0.0553211 -0.0293596 0.0133453 0.0264386 -0.00496043 0.0128084 0.0100301 -0.013624
0.0224759 -0.0276861 -0.0123002 0.0399018 -0.00125702 -0.0219821 -0.0115467 -0.00620001 -0.00089134 -0.00874686 -0.0382913 -0.02048 -0.00469377
0.0309675 -0.0240024 -0.021564 0.0368138 0.00390326 0.0183461 -0.0134766 -0.0257275 0.0283749 0.0297189 -0.0110712 0.00948226 -0.0279401
-0.0137964 -0.00176599 0.00771274 -0.0332409 0.00723833 -0.00687223 0.0152169 -0.0150778 0.0029931 0.000589409 -0.0172404 -0.0227368 0.0206684
-0.00435459 -0.0366874 0.0346397 0.00374265 0.00147549 0.0189146 0.000326144 -0.021081 0.0176024 0.027877 0.00899563 0.0370574 0.00558938
0.00913858 0.0245705 -0.0254437 -0.0352246 0.0310291 0.0179188 -0.00966513 -0.0113411 0.0203727 0.0180822 0.00334313 0.0213346 0.0363297
-0.000940968 -0.0123392 0.00679017 -0.0061158 -0.000480913 0.0171583 0.00714972 -0.00213164 -0.0184557 -0.000737831 -0.0105168 -0.0218584 -0.0313664
0.0279669 -0.00475324 0.00634998 0.0261365 0.0340089 0.032325 -0.0023179 0.0364433 0.0112866 -0.00652687 0.00258451 -0.0139705 0.00288741
0.00378035 0.0331497 0.0273873 0.02495 -0.0156223 -0.00291985 -0.0312081 0.0230352 -0.0124218 -0.034349 -0.0280368 -0.0099062 0.0290309
-0.077061 -0.071347 0.0298222 0.0666554 7.07239e-05 -0.104831 -0.337373 0.0568255 0.0512183 -0.0324444 -0.105493 0.00872798 -0.0240014
-0.0117429 -0.0188622 -0.0378628 -0.00272629 -0.0276307 0.0278752 0.000742516 0.012665 0.0313321 -0.0125443 -0.00133232 -0.0200299 -0.0164515
0.018718 -0.0216342 -0.0314001 0.074628 0.0271955 -0.0979225 -0.154698 0.0701756 -0.013698 -0.00261816 -0.0137584 -0.017182 -0.0462422
-0.0199247 -0.00417707 0.0215342 -0.0298562 0.0191174 -0.0336413 -0.00587524 0.0146406 0.0255499 -0.0184533 0.0040904 0.00446629 -0.0138804
0.0379471 0.0292583 0.0239458 -0.0268775 0.0409013 -0.035272 -0.0122879 -0.019512 0.0250394 -0.0345374 -0.0317858 -0.00547128 0.0113656
0.0092549 0.0237945 -0.00238363 0.0322687 -0.0133294 0.0244913 -0.034487 0.0342294 -0.0265546 0.00498945 -0.00220802 0.0344227 0.016354
-0.0264739 0.0334976 0.029059 0.00526223 -0.0343688 -0.0277218 -0.0312221 -0.00224476 0.00555648 -0.00423516 -0.00622574 -0.0111871 -0.0184411
-0.0317719 0.00562476 -0.00417624 0.00659178 0.00535848 0.0254916 0.0186975 -0.00191269 0.0133594 -0.0337986 0.00592361 0.0106122 0.0353971
0.0307516 -0.0393678 -0.0364604 0.0290328 -0.0144893 -0.0402306 0.027811 0.0194773 0.0156594 -0.0251379 -0.0123847 0.00613487 -0.0307279
0.0220027 -0.0110588 0.0382531 0.0344891 0.00268277 -0.0105922 -0.0296131 0.00538902 0.0381522 0.0206541 -0.00404842 0.014776 -0.00305559
-0.0330961 0.0202957 0.0250421 0.0197056 0.0247094 -0.0625202 -0.0495604 0.0312719 0.00713483 -0.00139045 -0.0280183 0.0278451 -0.0210099
0.025125 -0.0296075 -0.0247611 -0.00250253 0.00941646 -0.0414772 -0.0492391 0.0110103 -0.017198 0.000567949 -0.0114196 0.0258503 0.0108343
-0.00543769 -0.0152127 0.0323012 -0.0132408 -0.00292601 0.0204842 0.0133399 0.0126907 -0.0075985 -0.038113 0.0308304 0.00869378 0.0311544
0.0195487 0.00853006 0.00043895 -0.0295579 0.0106475 -0.0322099 -0.00976026 -0.0194597 0.0192494 1.10121e-05 -0.0200084 -0.00255058 0.0336711
-0.0324721 0.0339169 0.0255927 0.0275949 0.0105326 0.0206306 -0.0266684 0.00690126 -0.00820561 0.0178264 0.0365874 -0.00703905 0.0129544
0.0316673 0.0184838 -0.0354838 0.0278946 0.016475 -0.0298399 0.0184431 -0.00158717 0.0228981 0.00836608 0.0126733 0.0301917 -0.0284817
-0.0356875 -0.0321394 0.0158437 0.0027391 0.00342134 -0.0130468 -0.0238875 -0.0311152 0.0159225 0.0287845 -0.00527357 -0.00200285 -0.0370873
-0.0192787 0.0298571 0.0175478 0.0088923 0.0387441 0.0267358 -0.0290426 0.0325061 -0.00050566 0.0087895 0.0379717 0.0215106 0.0242586
0.018891 0.00278882 -0.027618 -0.00445285 -0.000712032 -0.0353035 -0.0174147 0.00655135 0.0321019 -0.00435201 -0.0398133 0.0124612 -0.00407425
-0.0080838 -0.0294251 -0.0164303 -0.0125218 0.027086 -0.0460586 -0.0365628 0.0226259 -0.0122879 -0.0095766 -0.0215872 -0.0158572 -0.00634521
0.0227433 0.0112078 -0.0266372 -0.00510792 0.024057 -0.00345668 -0.0226856 -0.0261785 -0.0161351 0.0368797 0.0285097 0.0148885 -0.0229207
-0.0203316 0.0155176 0.0213679 0.0210253 -0.0307028 0.0314834 -0.0349438 -0.0172179 0.0126098 3.66953e-05 -0.0192175 -0.00532668 -0.033974
0.00399461 -0.00540091 -0.0078937 -0.0306466 0.000174364 -0.00620917 -0.00737726 -0.0173177 0.0208274 0.0263613 -0.0171291 0.0355387 -0.00958144
0.26479 -0.377895 0.0285394 0.1949 0.32207 -0.618114 -0.683543 0.154194 0.134589 0.220846 -0.199742 0.269334 -0.213042
-0.0263134 -0.0220561 -0.0247513 0.0917738 -0.00176902 -0.145623 -0.199421 0.0761428 0.0171545 -0.0532672 -0.0354461 0.00229394 -0.0444645
-0.0188179 -0.00745632 0.0253129 0.0161321 -0.0252679 -0.0249399 0.00552602 -0.00466341 -0.0202359 0.0154693 0.037346 0.0246539 -0.00188233
0.0291846 0.0374547 0.0080506 0.00516608 0.026063 0.0161649 0.0340891 0.0191652 -0.0241604 0.0278283 -0.0138748 0.0117334 0.00657128
0.0162031 0.0136384 -0.0188792 -0.000445864 0.0194489 0.0107261 -0.00599949 -0.00358584 0.0151775 -0.033943 -0.0408875 -0.0112055 0.0353212
-0.00577903 0.0168737 -0.0364677 -0.00768623 0.0129633 0.00138036 -0.0218796 0.0244585 -0.0194504 0.00601878 -0.0256532 -0.0232836 -0.00231903
0.0240893 -0.0188635 0.00297376 0.0297314 0.0335879 -0.0503949 -0.0381892 0.0284166 0.0242277 -0.0206836 -0.00712857 0.0165132 0.00504047
0.0212821 -0.0350625 0.0353745 0.0237715 0.00154709 0.00136393 0.0105592 0.017734 0.0238764 0.0365512 -0.00520568 -0.0360747 0.0173525
0.00263367 0.0140302 0.0234551 -0.00965187 -0.00416002 0.0369219 0.0282276 -0.0294083 0.0241431 -0.0281212 0.0121983 0.0233996 -0.0293498
-0.018155 -0.0102233 -0.0266617 0.0364725 -0.0130268 -0.0619629 -0.0368108 -0.0179929 0.000430854 0.0117901 -0.0105673 0.011432 0.0240746
0.0332208 -0.0114598 -0.0068306 -0.00643743 0.0332316 -0.021788 0.0177459 0.00591519 -0.0160088 0.0242627 0.0264807 0.00901539 0.0310126
0.0312138 -0.0235274 0.0218442 -0.0184903 -0.00574872 0.0117228 0.00443898 0.0170056 -0.0324762 -0.038216 -0.00562312 -0.0251974 0.0132901
-0.0490897 -0.0310365 -0.0102443 0.0486285 0.021212 -0.0965094 -0.162227 0.0696754 -0.00423152 -0.0194588 -0.0494305 0.0172226 0.0205261
0.0371192 0.0193652 -0.0103749 0.00796745 0.0392401 -0.0422268 -0.0350423 0.0038946 0.0175305 -0.0233968 -0.0164258 0.00789396 -0.0208415
-0.0362168 -0.030585 0.0261353 0.0312173 -0.0197584 0.028466 -0.0364373 0.0158359 -0.0139779 0.00188609 -0.0166805 -0.0141388 0.0349285
0.0381883 0.0227426 -0.0224744 -0.0338569 -0.0254322 0.0308923 -0.00410485 0.00650251 -0.00530663 -0.0153953 0.0185722 -0.00790992 -0.00232238
-0.0304788 0.0215427 -0.0378277 0.00819677 0.0273297 0.0158455 -0.0679466 0.0378013 0.0396184 -0.000845813 -0.0389985 -0.00367767 -0.00364621
