257 9 5
-0.439447 0.409941 -0.227933 -0.0237311 -0.250385 -1.13117 0.411085 -0.308753 0.431833
-0.847981 0.34909 0.489409 0.438827 -1.28918 -0.36987 -0.0253819 -0.370399 -1.75915
-1.07308 0.894124 0.623261 0.881564 -1.34421 -0.154451 -0.192482 0.15268 -0.638415
-0.161276 0.508865 0.248713 -0.591018 -0.355617 -0.619153 -1.26545 -0.138999 -0.469298
0.166355 -0.18742 0.28681 1.02036 -1.36458 -1.03455 -0.572927 0.0621114 -0.602778
-0.28347 0.096796 0.981819 0.831283 -0.889632 -0.121323 -0.548753 -0.591523 -1.10587
0.562171 -0.0727181 0.453327 1.01652 -1.5573 -0.964239 -0.50324 0.134094 -0.547239
-0.162218 0.451908 0.0506101 -0.30394 0.0794499 -0.516573 0.472134 -0.901587 0.565842
0.0167318 0.146771 0.436898 0.0694875 -0.330843 -0.11361 0.0601749 -0.359465 0.0381381
-0.0359454 0.276946 0.115854 -0.264967 -0.0503164 -0.403741 0.228326 -0.561494 0.298334
-0.127109 0.579416 -0.0156413 -0.431505 0.0934682 -0.764981 0.552546 -1.00158 0.734985
-0.0834089 0.338131 0.0885751 -0.282355 0.0479194 -0.5527 0.312008 -0.730731 0.438643
-0.31316 0.610772 0.219343 -0.249647 0.101363 -0.127904 0.267896 -1.21075 0.202202
-0.147497 0.426157 0.527153 0.667072 -1.3309 0.176538 -0.90576 -0.302499 -0.221078
0.286643 0.259521 1.18335 0.60422 -1.28208 -0.385497 -0.770513 0.2961 0.013959
0.0683067 0.541921 0.454323 0.819013 -1.7442 0.528046 -0.621272 -0.473923 -0.176023
0.387797 0.167674 1.1992 0.326754 -1.35683 -0.0702806 -0.398545 -0.392796 -1.08012
-0.0445945 0.718535 0.812849 0.968518 -1.22411 -0.0237044 -0.351593 -0.12151 -0.715406
-0.279706 -0.0175178 1.0296 0.523127 -1.42506 -0.714772 -1.02445 0.393022 -0.173585
-0.0400945 0.590696 0.990496 0.566915 -1.1666 -0.245873 -0.16907 -0.0923637 -1.22315
-0.118996 0.50953 0.405455 0.199111 0.0621412 -0.429912 -0.0618066 -0.287524 0.325706
-0.268281 0.500894 0.452879 -0.362692 -0.241694 -0.939763 0.814534 -1.01438 0.744016
-0.517439 0.327165 0.766416 -0.571182 -0.212104 -1.33431 0.66206 -1.11734 0.861563
0.114594 -0.293344 0.296452 0.652488 -1.66719 -0.821241 -0.599918 0.084055 -0.346251
-0.129008 0.148226 0.307329 0.0329453 -0.274198 -0.0247924 -0.154339 -0.361123 -0.204583
-0.0979208 0.245411 0.270497 -0.0250854 -0.139973 -0.347426 0.308155 -0.57847 0.28128
-0.314189 0.116967 0.772078 0.729097 -0.449026 -0.00834913 -0.415235 -0.693176 -0.723099
0.173782 -0.186042 1.43195 0.335587 -1.48571 0.152965 -0.416935 -0.639732 -0.839488
-0.0618158 -0.103456 1.25516 0.563109 -0.944064 -0.130108 -0.383851 -0.482894 -0.985795
-0.0907043 0.156389 0.487088 -0.0783221 -0.0932426 0.039738 0.0271413 -0.803483 -0.144459
0.0866611 0.447655 -0.00995319 -0.188662 -0.00176782 -1.17213 0.270145 -0.624131 0.575739
-0.205429 0.149939 0.788488 1.3414 -0.693116 -0.107859 -0.936416 -0.640297 -0.561313
-0.0673849 0.210674 0.431686 -0.111053 -0.116936 -0.0871683 0.181773 -0.694735 -0.10569
-0.264701 0.304973 0.676847 0.44075 -0.975361 0.0446177 -0.056484 -0.33457 -0.716946
-0.23532 0.20512 0.381824 -0.00553225 -0.24127 -0.114774 0.0932697 -0.579747 -0.132601
-0.135211 0.305059 0.307528 -0.0909526 -0.0123521 -0.100642 0.26939 -0.85535 -0.0827983
-0.283206 -0.115803 0.870976 0.761351 -1.07208 0.0761862 -0.682033 -0.679027 -0.719263
0.000654181 0.0690328 1.0463 0.488024 -1.19207 0.24537 -0.541912 -0.794209 -0.882665
0.000397375 0.0978224 0.161591 0.0552302 -0.33852 -0.345559 -0.11356 -0.143207 -0.162204
-0.679714 -0.0471156 0.728856 0.052903 -0.112173 -0.810574 0.402343 -0.768556 0.447995
-0.0218469 0.100672 0.320373 0.107066 -0.50542 -0.273239 -0.105939 -0.141766 -0.162337
0.501177 1.08038 0.202979 -0.65529 -1.00758 0.023809 0.558174 -0.174139 -0.0513266
0.0787411 -0.0473071 0.776714 0.446429 -1.07847 0.0992728 -0.307365 -0.609215 -0.683771
0.275957 -0.169059 0.292393 0.183735 -0.846362 -0.727851 -0.487326 0.0630836 0.0298163
-0.275962 0.41163 0.0828795 0.0125005 -0.0301323 -0.176145 0.21234 -0.7252 0.0220816
-0.248455 0.509252 0.187341 -0.314801 0.16948 -0.452029 0.223714 -1.10604 0.291808
0.00626988 0.150609 0.160234 0.18845 -0.45653 -0.353349 -0.199134 -0.0699264 -0.146578
-0.16238 0.2606 0.490043 -0.0262567 -0.212555 0.0822312 0.0661815 -0.722721 -0.291255
0.0230416 0.450315 0.0571981 -0.393662 -0.0142341 -0.37365 0.0897566 -0.565705 0.146644
-0.0226524 0.198713 0.120844 -0.00408575 -0.185308 -0.167504 -0.0158505 -0.277112 0.0563306
-0.0428863 0.171942 0.108731 -0.0188025 -0.126163 -0.250965 -0.026506 -0.19854 0.000298005
-0.247317 0.30667 0.217607 -0.0064215 0.120511 -0.181985 0.206375 -0.874007 -0.105575
0.0180223 0.311143 -0.00805098 -0.287161 0.0412237 -1.08828 0.307461 -0.872439 0.698118
-0.226826 0.334394 0.186778 -0.150365 0.0824462 -0.248646 0.225321 -0.964645 -0.0937984
0.109568 0.108258 -0.0677417 -0.0923321 0.00188735 -1.0226 0.154506 -0.748536 0.579548
-0.0375761 0.191259 0.335583 -0.0284098 -0.192774 -0.286731 0.27653 -0.505252 0.332274
-0.095836 0.21196 0.819096 0.513245 -0.957299 0.229765 -0.0777482 -0.784841 -0.936557
0.0125027 0.0646536 0.372182 0.327992 -0.400859 -0.35752 0.111107 -0.384368 -0.00478091
-0.257397 0.467384 0.253542 -0.184197 0.146232 -0.164516 0.340875 -1.11705 0.116997
-0.0681291 0.0734601 0.362491 0.310349 -0.517988 -0.26022 0.0767584 -0.257269 -0.136301
-0.0751434 0.301593 0.153116 -0.253202 -0.121746 -0.386078 0.273835 -0.509798 0.232183
-0.113443 0.187046 0.348627 0.367527 -0.439258 -0.403186 -0.363562 -0.195716 -0.326876
-0.0575226 0.28097 0.345174 0.107335 -0.428653 -0.0153777 -0.0752477 -0.433413 -0.202464
-0.0985131 0.417466 0.0892887 -0.285019 0.0580732 -0.446856 0.269832 -0.658986 0.36911
-0.0642489 0.311624 0.0939667 -0.162694 -0.0797287 -0.38903 0.23508 -0.538882 0.323243
0.177649 0.250849 0.811906 0.130755 -1.10873 0.108968 -0.386597 -0.331768 -0.673313
-0.204538 -0.00628583 0.652571 0.64074 -0.843795 -0.206908 -0.20592 -0.278598 -0.370084
-0.110209 0.132133 0.282735 0.221233 -0.34786 -0.256354 -0.070812 -0.230246 -0.0990135
-0.0605329 0.0823274 0.112037 0.154821 -0.341108 -0.40626 -0.065372 -0.227966 0.154407
-0.174802 0.343315 0.474424 -0.0460206 -0.0683122 0.0704097 0.164577 -0.898326 -0.112619
-0.0476523 0.32771 0.0595969 -0.166251 -0.063032 -0.473669 0.236371 -0.622654 0.344137
-0.303328 0.28683 0.628023 0.364189 -0.912386 -0.0869482 -0.315292 -0.177694 -0.519594
0.0349319 0.149489 0.372183 -0.0681612 -0.288316 -0.170582 0.100343 -0.439345 0.0402138
-0.0878414 0.231487 0.272007 0.00826845 -0.240933 -0.264897 0.0570956 -0.373834 0.0145371
-0.103127 0.235029 0.177994 -0.106546 -0.169138 -0.273876 0.118913 -0.536558 0.0489011
-0.0143986 0.122202 0.286452 0.15171 -0.463681 -0.231023 -0.339876 -0.212396 -0.13269
-0.0419194 0.0785306 0.101474 -0.0105801 -0.0796185 -0.0368768 0.00292943 -0.187219 0.0228236
-0.0920534 0.19218 0.39666 0.0340943 -0.112825 -0.183672 0.116745 -0.64064 -0.12492
-0.037283 0.0706919 0.290522 0.0862637 -0.371592 -0.365017 -0.111206 -0.163961 -0.0795753
0.0633563 0.0307194 0.363246 0.379332 -0.813597 -0.416807 -0.376949 -0.0596519 -0.267817
-0.160663 0.215334 0.304698 -0.0287558 -0.184631 -0.176289 0.0815096 -0.564794 0.0155376
-0.224242 0.279498 0.305569 -0.0530477 -0.0155409 -0.139869 0.142775 -0.801227 0.0773498
-0.0667862 0.100069 0.0883452 0.00865702 -0.132388 -0.0515686 -0.0346967 -0.0960592 -0.0143403
-0.13647 0.252112 0.158913 -0.220299 -0.0470108 -0.469758 0.159143 -0.58547 0.266795
-0.167907 0.34195 0.245426 -0.1054 -0.0218279 -0.16926 0.127647 -0.740717 0.0826331
-0.000803522 0.159115 0.116906 0.0962731 -0.202779 -0.290663 0.109671 -0.280924 0.0519317
-0.162116 0.386566 0.180779 -0.261197 0.0301401 -0.504529 0.505205 -0.792668 0.551502
-0.106645 0.203102 0.145264 -0.0262984 -0.204444 -0.300593 0.152579 -0.357979 0.140833
-0.0878575 0.312172 0.147987 -0.244554 0.020769 -0.485033 0.31285 -0.656932 0.416927
-0.200244 0.298792 0.275152 -0.0211894 -0.0844506 -0.246758 0.118263 -0.607054 0.0219363
-0.0765441 0.236306 0.203607 -0.0460558 -0.116245 -0.286265 0.0475018 -0.343621 0.0439159
-0.0888227 0.195478 0.127802 0.000299036 -0.142825 -0.268865 0.0354574 -0.37973 0.110177
-0.0122055 0.255811 0.0939198 -0.387631 -0.0190403 -0.747959 0.326493 -0.723538 0.437593
-0.119769 0.31477 0.131909 -0.235101 -0.0629988 -0.355178 0.223433 -0.588573 0.278313
-0.022823 0.189195 0.269513 0.0425862 -0.199832 -0.248313 0.109242 -0.441353 0.0517335
-0.0911175 0.239488 0.287037 -0.0571924 -0.152318 -0.30132 0.231937 -0.616052 0.220997
-0.120426 0.141102 0.309346 0.0687475 -0.200739 -0.208317 0.022404 -0.327671 -0.0829137
0.00614201 0.162388 0.163069 0.000773869 -0.191907 -0.180573 0.0327742 -0.299478 0.0667567
0.0219507 0.0637324 0.101985 -0.0050726 -0.116194 -0.170938 -0.0152596 -0.121889 0.0021127
-0.102489 0.093652 0.116522 0.0792827 -0.221596 -0.16183 0.0452289 -0.177704 0.0178418
-0.0674192 0.0593308 0.0626429 0.0487366 -0.107652 -0.126562 0.0573275 -0.144616 0.0191322
0.0185362 0.0924635 0.154011 0.0158701 -0.170863 -0.218137 -0.0613921 -0.129743 0.0354277
-0.0165959 0.0525187 0.133617 0.0606668 -0.105339 -0.125598 0.0643346 -0.0724318 0.0675327
-0.0257707 0.138431 0.166657 0.054094 -0.248312 -0.245875 -0.0187531 -0.153487 -0.00894174
-0.00881711 0.0318918 0.00900897 -0.0115367 -0.054489 -0.0557325 -0.00410099 -0.0355243 0.0289227
-0.0723504 0.0877755 0.08567 -0.0273319 -0.0625604 -0.0521565 0.0115379 -0.137201 0.00446741
-0.047332 0.0601599 0.0458012 0.0272885 -0.0161063 -0.0778058 -0.0257807 -0.0856303 -0.00894299
-0.0597348 0.173473 0.182621 0.0139816 -0.255892 -0.133766 -0.125901 -0.278507 -0.099418
-0.132214 0.189102 0.232544 0.0274517 -0.178381 -0.233165 0.0520851 -0.481102 -0.0598673
-0.0477872 0.0150443 0.0537741 -0.0328224 -0.0159417 -0.076921 -0.0149457 -0.065573 -0.036734
-0.0133176 0.122299 0.0239981 -0.0434504 -0.0990586 -0.108053 -0.0103071 -0.162873 0.0347647
-0.00795431 0.0726131 0.0484942 0.0261598 -0.0998219 -0.0154405 0.0366934 -0.0171588 -0.05752
-0.0491373 0.0616137 0.0658014 0.0284573 -0.0399967 0.00475425 -0.0330362 -0.0886412 -0.0350931
0.0351596 0.057253 0.0073588 -0.0232499 0.0163782 -0.0639129 0.0103944 -0.0088625 -0.0338785
-0.00626909 0.068008 0.119182 0.0619677 -0.167066 -0.157631 0.0345791 -0.253172 0.0521573
0.00871164 0.0795958 0.164257 0.0858217 -0.330087 -0.1996 -0.0380141 -0.191472 -0.0550131
0.00423826 0.116386 0.163552 0.0420178 -0.143133 -0.127863 0.0113619 -0.215618 -0.0650397
0.0445314 -0.0414305 0.0189599 -0.00791266 -0.0148165 -0.0355058 0.0417508 -0.0660343 0.0388521
-0.054056 -0.00329522 0.0121843 0.0255041 -0.0124501 -0.0365945 -0.0519462 0.0338523 0.0316742
0.0131777 0.111721 0.0288619 0.0160165 -0.0221641 -0.117151 0.000306937 -0.190092 0.03411
0.00287839 0.181828 0.108795 -0.0192842 -0.200231 -0.257009 0.131421 -0.272855 0.0415137
-0.0496023 0.212084 0.0721736 -0.0207307 -0.112621 -0.343007 0.109174 -0.425946 0.0955713
-0.073371 0.24823 0.0967622 -0.132357 -0.0432044 -0.307681 0.0960721 -0.460837 0.22328
-0.0232859 0.175117 0.228746 0.0243841 -0.174601 -0.173756 0.049481 -0.23635 -0.0210034
-0.07781 0.124572 0.162389 -0.0120829 -0.138117 -0.187956 0.0288063 -0.242288 0.0834891
-0.0551382 -0.00398174 -0.00695465 -0.01707 -0.0722239 -0.0392394 -0.0112352 -0.0372255 -0.0648237
-0.0366802 0.135177 0.188129 -0.010851 -0.123184 -0.228286 0.019332 -0.305093 -0.0126309
-0.052171 0.0510557 0.0971586 -0.0180296 -0.172105 -0.188094 0.0535882 -0.275206 0.050974
-0.0670638 0.0302468 0.198482 0.0127619 -0.20934 -0.190652 -0.0173349 -0.186254 -0.0286599
-0.0720176 0.152867 0.116643 0.0647148 -0.242537 -0.159471 -0.0249406 -0.285321 -0.0237205
-0.0883477 0.130822 0.0892327 -0.0807032 -0.0901282 -0.147927 -0.0124547 -0.186111 -0.0548852
-0.0650389 0.137405 0.0529168 -0.0146218 -0.138132 -0.140755 -0.00395809 -0.248793 0.00203995
-0.0478428 -0.0101618 0.0532936 0.0180536 -0.0898139 -0.0386774 0.0170328 -0.0409477 0.0340233
-0.0405114 0.148851 0.0785903 0.0148047 -0.108078 -0.206793 0.0251841 -0.258168 0.0609723
0.017504 0.0935172 0.0886607 -0.0277498 -0.153732 -0.158864 0.00378422 -0.147893 0.070637
0.0329885 0.049964 0.0423936 -0.0480749 -0.0670409 -0.0941268 -0.0426164 -0.12105 0.0470926
-0.0693978 0.137022 0.151105 -0.0461901 -0.157091 -0.272497 0.0726115 -0.22353 0.118802
-0.000977738 0.0239573 0.0443134 -0.0278844 -0.0925906 0.0164698 -0.0262818 -0.0716691 -0.00478828
-0.0425811 0.0490287 -0.000129237 -0.00869549 -0.0882408 -0.0493543 0.0655881 -0.0805162 0.0366098
0.00108868 -0.0339871 0.0124844 -0.0350526 0.013194 0.0194952 -0.0464496 -0.0622764 -0.00391426
-0.0233939 0.0744884 0.065787 0.0518683 -0.16805 -0.122632 0.0774412 -0.263522 0.0709304
0.0192188 0.134603 0.124912 0.035102 -0.0834978 -0.0948855 -0.0249427 -0.126424 0.0105937
0.00115289 0.156042 0.141847 -0.0388168 -0.145236 -0.237541 0.0118752 -0.230181 0.0427227
-0.00466157 0.0519872 0.0108747 0.0202723 -0.0530689 -0.0179429 -0.0197468 -0.0546108 0.00351456
0.0304696 0.0742935 0.0620447 -0.0152404 -0.0780167 -0.159835 0.0714426 -0.0765554 -0.00514957
-0.0200198 0.0713812 0.0695068 -0.0224594 -0.149382 -0.119185 0.0457754 -0.162248 0.0347553
-0.0150099 0.110528 0.145201 -0.0371218 -0.236079 -0.243455 0.000747004 -0.233349 0.0628371
0.00151864 0.0278214 -0.0221634 0.019038 -0.0872583 0.0217779 0.0212239 -0.00169247 0.0506884
0.0339766 -0.007792 0.0309981 0.0302368 -0.0757021 0.00394196 -0.0387393 -0.0474676 0.0531149
0.0464498 0.0533427 0.0485514 -0.0438457 -0.0796543 -0.0127067 -0.0315068 -0.0537656 0.0731885
-0.0392798 0.0717955 0.106196 -0.0531571 -0.113065 -0.0940815 0.0664083 -0.101774 0.00569864
-0.048275 0.092282 0.0981561 0.00417818 -0.0358356 -0.0755769 0.0358801 -0.0560757 -0.0642582
-0.0319154 0.0753096 0.0838774 -0.0196526 -0.0914674 -0.080154 0.0384563 -0.0888904 -0.0290542
0.0348025 0.00649207 0.0400433 0.0239292 -0.0115967 -0.0120176 -0.0167452 0.0176108 -0.0270725
-0.0448982 0.0983915 0.0196998 -0.0678184 -0.0275409 -0.203293 0.119465 -0.174416 0.0776922
0.0443249 0.0686229 0.0058182 0.00276264 -0.0557335 -0.0439522 -0.0161687 -0.048212 -0.0119363
-0.0846266 0.0296176 0.0942489 0.0462278 -0.0579675 -0.146763 -0.000823318 -0.145345 0.0205703
0.00373509 0.011324 0.0968855 0.0461364 -0.0827776 -0.0790366 0.0724953 -0.15708 -0.00147546
-0.0503855 0.116365 0.118453 -0.0455781 -0.0563009 -0.0725747 0.0639628 -0.186134 0.0619572
0.0293483 0.0245686 0.0869515 0.02116 -0.108198 -0.120044 0.0264051 -0.089165 0.067283
0.0192954 0.0468683 0.086026 0.0654769 -0.126958 -0.0777028 0.0370854 -0.0933195 0.0167491
0.0382164 -0.00384201 0.00956749 -0.0372837 -0.0120167 -0.101246 0.017982 -0.0640753 0.00779956
-0.0366984 0.0192313 0.0187319 -0.0253474 -0.0132905 -0.0807027 0.0155405 -0.0247811 -0.00850144
0.041885 0.0304393 0.0383323 0.0294091 -0.0321654 -0.0521782 0.00593182 -0.0673048 0.0674146
0.0101392 0.0776704 0.0403024 -0.0325506 -0.0358051 -0.0368926 0.0271296 -0.0721424 0.0054533
0.00250465 0.0444679 -0.00513741 -0.000367472 -0.00928972 -0.0430584 0.0358465 -0.0553674 0.0461067
0.0161354 0.0326982 -0.0295741 0.0192257 -0.0184249 -0.061056 -0.0212061 -0.0689796 -0.0180886
-0.0304699 0.0855892 -0.0263011 -0.0572354 0.010393 -0.0950141 0.0355291 -0.0969293 0.0779052
-0.0149464 -0.0094371 0.0470459 0.0374451 -0.0202587 -0.0813267 -0.0297833 -0.0747182 0.0182496
-0.0703896 0.0726317 0.0966301 0.0293388 -0.0622747 -0.0887136 0.00831468 -0.161717 0.0190278
-0.0218899 0.0544566 0.106865 0.0397942 -0.0310124 -0.0905946 0.0479886 -0.0710425 -0.0242232
-0.0265911 0.126136 0.0289688 -0.0139462 -0.0853514 -0.166628 0.0267317 -0.144168 0.0777208
-0.000308534 0.0650266 0.0559073 -0.0571367 0.00426535 0.00730249 0.0447672 -0.119635 -0.0112842
-0.0742185 0.123518 0.133884 -0.0425957 -0.145415 -0.187028 -0.0235985 -0.214144 0.0204234
-0.0411528 0.00284151 0.0720886 -0.0341609 -0.0441379 -0.0738868 -0.0482465 -0.114984 0.0293733
-0.0332795 0.0365846 7.34296e-05 -0.0383816 -0.0118995 -0.0320788 0.0481321 -0.00639987 -0.00621729
0.0335933 -0.0192176 0.0820782 -0.0290806 -0.0311462 -0.0839952 0.0424077 -0.104455 0.0772731
0.0394781 0.0512091 0.0474705 0.0238284 -0.0516557 0.0184608 -0.0389283 -0.0432757 0.0333097
-0.0275822 0.0795445 0.0605494 0.00418901 -0.0532115 -0.103513 -0.0203153 -0.127125 0.0219724
0.031017 0.0317618 -0.0287639 -0.0348587 -0.0491108 0.0224073 0.0548741 -0.0683778 0.0266158
-0.0196913 0.0171491 0.0113428 0.039322 0.0199528 -0.045433 0.0247182 0.0260355 0.0527678
-0.0463149 -0.0257758 0.0619851 0.0259359 -0.0278751 -0.0661165 -0.030405 -0.0841601 -0.00688298
-0.0463241 0.0680709 0.0596391 0.0136288 -0.0717483 -0.0397626 -0.0390304 -0.00622947 0.00486605
0.0209783 0.0246191 -0.0172505 -0.00261812 -0.0569457 -0.0687443 -0.047931 -0.0645512 -0.0292787
0.037966 -0.00236402 -0.0370886 -0.0410955 -0.0609008 -0.0589677 -0.00658397 -0.0471422 0.0335292
-0.0127388 0.105722 0.0459056 -0.0139017 -0.0596862 -0.0850642 0.0333012 -0.112158 0.0221732
0.00632485 0.00333117 0.0357679 -0.0139876 -0.00976163 -0.0614389 0.0210814 -0.0563782 -0.0242314
-0.00265988 -0.00821936 0.0121218 -0.0386021 -0.0268593 -0.0360757 0.00389774 -0.0916606 -0.03048
-0.0665146 -0.00314987 0.0551468 -0.064436 -0.0311595 -0.0290478 -0.0303554 -0.0111301 0.0356223
-0.0127344 0.112927 0.0737639 0.0325303 -0.0666618 -0.158233 0.00218402 -0.189227 0.00479679
-0.0676199 0.0372271 0.0369408 -0.0554387 -0.0418639 -0.130879 0.00632746 -0.168541 0.0593237
0.00364193 -0.0468232 -0.0316863 0.011609 -0.0266745 0.0206355 0.0321397 -0.0200226 -0.0344917
-0.0284804 0.067847 0.142143 0.0611386 -0.0593791 -0.0788122 0.0780044 -0.210396 0.0911575
-0.00171999 0.0467271 0.0218768 0.0528522 -0.00485519 -0.0396526 0.0503097 -0.0948245 0.0397531
-0.0246952 0.0376785 0.00730779 -0.0139826 -0.0405018 -0.017563 0.0479258 -0.0174998 0.00725989
-0.00842487 0.00114897 -0.0283743 0.0194468 -0.0527332 0.00553573 -0.0214764 -0.0300015 0.0331573
-0.0579423 0.0663852 -0.0291811 0.01363 -0.0570931 -0.0309079 0.0151039 -0.0607548 0.0197613
-0.029627 0.082379 0.0885394 -0.0381862 -0.0967708 -0.0250451 0.030536 -0.0810238 -0.0164795
0.0215365 0.00351167 0.0641322 -0.0123952 -0.0296771 -0.0545102 -0.0524753 -0.0197783 0.047231
0.0331706 0.0580675 0.0129922 -0.0485137 -0.0484172 -0.00806727 0.0372004 -0.0350909 0.0539086
0.0205826 -0.00234108 0.0377267 -0.0130544 -0.0204345 0.026443 0.0452631 0.0276577 0.0176338
0.0284973 -0.0151718 -0.00657084 0.023618 -0.0712406 -0.0396817 0.0293637 -0.0314506 -0.049251
-0.0556348 0.0405508 0.0925258 0.0499092 -0.0768484 -0.0585653 0.0751512 -0.132654 0.0020256
-0.0222216 0.0134771 0.0614298 0.00719997 -0.0164159 -0.0363919 0.0405835 -0.0253168 0.0251508
0.0371192 0.0619788 0.0328213 0.0151856 -0.00629727 -0.0551141 0.0291455 -0.00641527 -0.00697788
-0.0473488 0.0276377 0.0222787 -0.00243439 -0.0892587 -0.0309355 0.0168808 -0.0116401 -0.00444883
0.0292232 0.0844324 0.0531468 0.0464425 -0.0385754 -0.00913648 -0.0330972 -0.0911855 -0.0530692
-0.0366657 0.0792698 0.0401687 -0.0192953 -0.0324774 -0.0794431 0.0296736 -0.0246749 -0.0172945
-0.0199335 0.00107885 0.0246024 0.0157672 -0.0141667 -0.0689969 -0.0196915 -0.0594729 -0.0339317
0.0175199 -0.0109315 -0.0101751 0.0439581 -0.0115546 -0.055063 -0.00864527 -0.128737 0.0348241
0.0261403 0.045718 -0.0314338 -0.0073311 0.00938193 -0.0486071 -0.0125707 -0.0572256 -0.027596
-0.00620316 0.0503081 -0.00536452 0.0521805 -0.000634503 -0.0243652 0.0239292 -0.0153883 0.0349317
0.0455412 0.00446377 0.0119691 -0.014881 0.0153809 0.00122833 -0.0211814 -0.0424106 0.0668662
-0.0200421 0.0823886 -0.012896 0.0477512 -0.0251667 -0.0553882 -0.0206208 -0.00108867 0.0429015
0.0138352 0.0553285 -0.0333009 0.0429045 -0.00813932 -0.0488116 -0.0391602 -0.0174164 -0.00971551
0.00424719 0.0160243 0.0831288 0.0253812 -0.101408 -0.0678641 -0.0048861 -0.046557 0.0630775
0.0222417 -0.0465487 0.00351229 0.0398385 0.00403744 -0.0684747 0.0093367 -0.0608306 0.0514124
-0.0416856 0.0644428 0.0344892 -0.0354499 -0.0160837 -0.0136146 -0.037889 -0.00697905 -0.0590421
-0.0227777 0.00388054 0.0098755 0.0104376 -0.0693511 -0.0067844 0.0157234 -0.0253515 -0.0308228
-0.0532121 0.0124466 0.0409249 -0.00181036 -0.0876135 -0.010989 -0.00840964 -0.0192134 0.0345208
-0.0268524 0.0573416 0.0247405 -0.0131461 -0.0361625 0.00420331 0.0277026 -0.0723199 0.0238676
-0.0196999 0.0390438 0.0218506 -0.041376 0.0473397 -0.0709062 0.0391864 -0.0348252 -0.00202374
0.0263875 -0.00941665 -0.00481941 -0.00584799 -0.0474045 -0.109533 -0.0238734 -0.0565779 0.0268366
-0.0596229 0.077179 0.0494683 0.0328076 -0.0510812 -0.0761749 -0.0323463 -0.0737429 0.0565277
-0.0433123 0.0443901 0.0533025 -0.0097785 -0.0582068 0.037563 -0.0318762 -0.0245433 -0.0248113
0.0114198 -0.0158467 0.0194206 0.000861557 -0.0238515 -0.0670244 -0.0347985 -0.0633941 0.0459134
-0.0463809 0.00755309 0.0503563 -0.0183573 -0.0101371 -0.00448219 0.0106533 0.00213673 0.0359602
-0.0444755 0.0386929 -0.0189893 -0.0202731 -0.0752654 -0.0521426 0.0245286 -0.113871 0.0568019
-0.0490426 0.0646498 0.00296789 -0.0285589 0.0176695 -0.05218 -0.040158 -0.0171868 -0.0173263
-0.046571 0.065396 0.040033 -0.0429839 -0.0662664 -0.00876056 0.0525178 -0.00188228 -0.00330566
0.032857 0.0549919 0.014466 0.0583552 -0.0890374 -0.0433083 -0.0299119 -0.0564783 -0.0253431
0.0447222 -0.0060312 0.0316909 -0.0191527 0.0343131 -0.0515181 0.0487933 0.029643 0.0508958
-0.00175828 0.0897578 0.00212388 0.0361619 -0.0632343 -0.128025 0.00458936 -0.0873415 -0.0256981
-0.0605273 0.0200089 0.0601602 0.0402809 -0.0581757 0.0198827 -0.0033843 -0.0930778 0.0160882
-0.0335251 0.0526486 -0.0049163 0.0565136 -0.0438141 0.0082395 -0.0139052 -0.00821614 0.058033
-0.0358301 0.0172578 -0.0346519 0.0391517 0.0324461 -0.048565 -0.0105614 0.0112694 0.0369837
-0.0151524 -0.017223 0.0077159 -0.0499333 -0.0053062 0.021769 0.0105398 -0.0775156 0.0372134
-0.0321962 0.0695749 -0.0294495 0.0324703 -0.0396118 -0.0672531 -0.0367081 -0.0179116 0.0166917
0.0123276 0.0271169 0.0485012 -0.0030394 -0.0201341 -0.0437965 0.0161305 0.0162821 0.0685632
-0.0172691 0.0264913 0.0317763 -0.0506817 0.00230792 -0.0821326 0.00817306 -0.0306019 0.00115446
0.00314498 0.0427379 0.00987041 0.0333003 0.0399721 -0.0667005 -0.0289875 -0.0667286 -0.0160445
0.00250887 -0.0178591 0.01785 -0.000909924 -0.0213109 -0.000545393 -0.0261145 0.0235758 0.0434816
-0.0556119 0.0162288 -0.0394635 -0.0462446 -0.0161111 0.00736701 -0.0520581 -0.0646439 -0.0294746
0.00434117 0.00327671 0.0578804 -0.0379159 0.0452615 -0.0207267 0.0300458 0.0349803 -0.0136602
-0.0122522 0.0674454 -0.00207473 -0.0295988 -0.000143101 -0.0246433 -0.0387903 -0.0679167 0.0320482
0.0350674 -0.00134962 -0.00406358 -0.0175361 -0.0460275 -0.0801089 -0.00973576 -0.0157413 0.026093
-0.0618856 0.0397793 0.0609309 -0.0323085 -0.0648593 -0.0659779 0.0353444 -0.06699 0.0418841
0.0115694 0.0340586 0.00797106 0.0525925 0.00463786 0.0224964 -0.0121545 0.00768459 0.0226129
-0.0380697 0.055895 0.0360935 -0.0110596 0.0284204 0.0294646 -0.0364559 -0.0707297 0.0590112
0.0517366 0.0192258 0.0494423 0.0130436 -0.0645899 0.000687147 -0.030549 -0.0545303 -0.0361495
0.0375255 0.0312852 0.0532868 -0.0507696 0.0348609 0.0116972 0.00402652 0.00910449 -0.00836318
-0.0587095 -0.0115649 0.0181848 0.0311979 -0.0640431 -0.0286388 -0.0173787 -0.0233816 0.016001
-0.0456301 0.0613959 0.0197163 -0.0166067 0.0199261 0.0317228 -0.0231762 -0.0645381 0.0554327
0.00807853 0.0503383 0.00983946 0.0451248 -0.0237212 0.0103 0.0143175 0.0232197 -0.00667921
-0.0270272 -0.0284097 0.0360673 0.00901698 -0.0350999 0.0326181 0.0418517 -0.0396493 0.0493085
-0.0477149 -0.00187043 0.00723522 -0.0322226 0.00459614 0.0292083 0.0353836 -0.0471678 -0.0180102
-0.0142862 0.0189577 0.0565319 -0.0298878 -0.0501519 -0.0260207 0.0296713 0.0486616 -0.00252848