5341 13 70
0.0170493 0.0359193 0.0379162 0.0247046 0.0369233 0.027428 0.033833 -0.0103298 -0.0172904 -0.013211 0.0324199 0.0132259 0.0274855
-0.0274546 -0.0173137 0.00464644 0.0231891 0.00497733 0.0270842 -0.00344136 -0.034559 -0.0239448 0.0161435 -0.0183076 -0.0145492 0.0269533
-0.0341344 -0.043057 -0.0240485 0.00230281 0.00276625 -0.0249574 -0.0295507 0.0278627 -0.0142002 -0.0217463 -0.00675398 0.0151609 -0.0264018
-0.000478149 0.000735422 -0.0210576 -0.0684499 0.0618899 0.00716209 0.0165271 0.0235376 -0.0379734 0.0750535 -0.0340562 -0.0456778 0.0263004
0.0239215 0.00732712 -0.00311089 0.0139577 -0.0295354 0.0314567 0.0110925 -0.0108433 0.0373389 0.00541473 -0.0362272 -0.0146475 0.000344751
0.0010249 -0.0207645 -0.0130464 -0.0016277 0.0387444 0.030424 0.0205245 0.0156019 0.0391273 0.0444521 -0.0415315 0.00966338 -0.0248245
0.00943933 0.023092 -0.012145 -0.0393629 0.00885794 0.02648 0.0319708 -0.000436948 0.0384762 -0.0356735 -0.0146078 0.0047597 0.0210573
0.0320923 -0.0298821 -0.0350119 -0.0180504 -0.00178672 -0.0114854 -0.028901 0.03155 0.0215445 0.0332912 0.00789825 -0.0381451 0.00697944
0.0266046 0.0082547 0.0313691 -0.0151011 -0.0135005 -0.0127942 -0.0268151 0.00340868 0.0359571 0.000620418 0.0146127 -0.00999973 -0.0178381
-0.0315584 -0.00234156 0.0155746 -0.00270836 0.00438824 0.0176038 0.00719639 0.0349551 0.0252697 0.00307117 0.0286971 0.0378813 -0.0107774
0.00866436 -0.0235658 0.023282 0.0120609 -0.0120872 0.0371415 0.0187496 -0.0204626 0.016285 -0.0357911 -0.0276668 -0.0222047 -0.0129693
0.0223001 -0.0260898 0.0262828 0.020634 0.0233291 0.0336071 -0.024744 -0.0322976 -0.000576414 -0.00245275 -0.0104103 -1.24286e-05 0.031333
0.0247438 0.0138544 -0.0372971 -0.0243342 0.0150489 -0.0082256 -0.00462828 0.0278257 -0.0110157 -0.00775 -0.0396894 -0.00628981 0.00479511
-0.0190898 -0.0252221 0.0339177 0.012723 -0.00350777 -0.00373931 0.0308134 -0.00283014 0.0366722 0.0393071 0.0258078 -0.0105608 0.0315366
0.0216433 0.0141233 -0.0318997 -0.0193111 0.0293488 -0.0414533 -0.026704 -0.0251292 0.00236725 0.0787297 0.0102724 -0.0316478 0.0388393
0.00780056 -0.0352554 -0.0291067 0.0178811 0.0259202 -0.0330934 -0.0183313 -0.00035158 0.0046509 0.0189147 0.0292662 -0.0234811 0.00727274
-0.0590726 -0.158878 -0.26111 -0.277748 0.182217 -0.0868531 -0.00108905 0.0157681 0.0548199 0.393537 -0.182529 -0.152622 0.101462
-0.00516882 0.0288783 -0.0150663 0.00440409 -0.00416653 0.0315426 -0.00604315 0.00924633 0.000623303 -0.0153766 0.0265197 0.014638 0.00102336
0.0159358 -0.0317871 0.00762727 -0.0148483 -0.0217771 -0.0218579 -0.00134584 0.00656689 0.0209856 -0.00391689 -0.00781811 0.0288219 0.00901922
0.0364911 0.0227378 0.0133059 0.0185983 -0.0263828 0.0358016 -0.000715094 -0.00320266 -0.00180357 -0.0175162 0.0273408 0.0335977 -0.0348941
0.0166405 -0.0394423 -0.0103412 0.0187275 0.0236579 0.00372894 -0.0360653 -0.0303949 -0.00923628 -0.00751002 0.0197032 -0.00722406 -0.00496035
-0.0166861 -0.038002 -0.0628948 -0.173664 0.0919796 -0.0109407 0.0247786 0.0131596 0.0189007 0.165294 -0.0403483 -0.0430025 0.0813
-0.0491955 -0.0185477 -0.0291903 -0.086131 0.0234702 -0.0514762 -0.0313014 -0.00902038 0.0317101 0.0805817 -0.00771743 -0.0300065 -0.00103219
-0.0181514 -0.00942631 -0.026266 -0.0186552 0.0267084 -0.0310037 -0.0225584 0.0284581 -0.0073649 -0.0212394 0.00615291 -0.0240824 0.00933364
0.0205356 0.0138701 0.00269943 -0.00251784 0.0334321 0.0305501 -0.00150461 -0.0271155 0.00930428 -0.00382546 -0.0044217 -0.00722117 -0.00603608
-0.0342538 -0.00238511 -0.0235051 -0.00123818 0.0142327 -0.0297671 -0.0335324 -0.014236 -0.00751659 0.0118925 -0.0349941 0.00942735 0.0176739
-0.0280846 0.00378295 -0.0191559 -0.00701323 0.0360461 -0.0376851 0.0353692 0.00248173 -0.0132712 0.0224812 0.0240906 0.0027171 -0.00889044
-0.00990667 0.0299318 0.0187767 -0.0193693 0.0392876 0.00342769 0.013851 -0.000149269 0.0369763 0.0272069 -0.0261635 -0.0222887 0.00774641
-0.0679613 -0.0450627 -0.120849 -0.0779063 0.122606 -0.0542194 -0.0262035 0.0313475 0.0229864 0.181151 -0.023273 -0.0870613 0.0174049
0.000406959 0.0313346 0.00144074 -0.0212009 -0.0190035 0.00250444 -0.00226791 -0.0134692 0.0202986 0.0419016 -0.0328283 0.0151923 -0.0258987
0.0259791 0.030857 0.0212633 -0.0288924 0.03846 -0.0250918 0.0269932 0.032624 -0.0380633 0.00514261 -0.0200856 -0.0213592 -0.00828422
-0.012058 -0.0054024 -0.0233335 0.0107039 0.0108605 -0.0244861 -0.020999 0.0304558 0.0112542 0.0340875 -0.00192957 -0.0377774 -0.0225407
-0.0190319 -0.0152314 -0.0145153 0.0233989 -0.0166389 0.0208354 0.0346752 0.00780964 -0.000860683 0.0113483 0.00580974 0.0075531 0.00717537
-0.0115253 -0.0154876 -0.0641915 -0.0783447 0.103034 -0.068896 -0.0194839 0.0448076 0.0190384 0.0981438 -0.0847953 -0.0507447 0.0195938
-0.0219583 -0.0332037 4.60701e-05 0.0288208 -0.00811376 -0.0239626 0.0136656 -0.0084728 -0.0245517 -0.0255529 0.0180908 0.020367 0.0246236
-0.0518356 -0.0397079 -0.0501377 -0.0583169 0.0250726 -0.0394631 0.00586465 0.0375424 0.0311805 0.0598267 -0.055469 -0.000741149 0.0473496
-0.0262743 0.0292832 0.0279917 0.00586195 -0.00221817 0.00398748 -0.027839 0.0309401 0.0067636 -1.33769e-05 0.0274572 0.0126822 0.0276549
-0.00361102 -0.0107128 -0.0100316 0.0303436 0.023104 -0.0287722 -0.0145004 -0.0241953 0.0315384 0.0006657 0.0010599 0.000272316 -0.0232539
0.00432271 0.0302711 0.019937 0.0264984 -0.0173436 0.00729234 -0.012817 0.0100921 0.029196 0.00967932 -0.0281352 0.0293713 -0.0127854
-0.0178067 -0.00460966 0.0304608 0.0332053 0.0177402 -0.00677509 -0.0330128 -0.00148406 0.0200685 0.0375516 -0.00672746 0.0226678 0.0396575
-1.65587 -0.927775 0.0123614 -0.467594 2.01398 0.066127 -0.169904 1.48211 -0.0985577 0.592539 -0.716994 -0.655998 0.588701
0.00346641 -0.0274806 0.030394 0.0185939 -0.0254351 0.0334528 0.0215082 -0.0318549 -0.0275528 0.0297602 0.000926344 0.0140248 -0.0238378
-0.00186062 -0.0140218 -0.0340141 -0.0089495 -0.0334899 -0.00667811 -0.00588082 0.0128264 -0.0322523 -0.033716 0.00062045 -0.021221 0.0184886
0.00508608 -0.000555194 -0.000280205 -0.00684229 0.0310911 0.0169063 0.0105273 -0.0102234 0.0236044 0.0036255 0.0044863 -0.0129756 -0.000461106
-0.0192929 -0.0379288 -0.0142405 -0.0358812 0.0342917 0.0200859 0.00263091 0.0284789 -0.00990669 0.0370477 -0.0191557 -0.0272789 0.00936684
0.0213926 -0.0319788 0.000184466 0.00277121 0.0273324 0.0362224 0.0287079 0.0108088 -0.00827864 -0.0207606 0.0334154 0.0118694 0.00571189
-0.0085652 -0.0047382 -0.0294691 -0.045207 0.0176305 -0.0151448 0.0302725 0.0167583 -0.0305937 0.0122137 0.0339043 -0.0362026 0.0166523
0.013917 -0.0397714 0.0131648 -0.00261681 0.0547527 0.0232787 -0.0317682 0.0171027 0.00490573 0.0693685 -0.0317863 0.0090997 0.0421054
0.00354762 -0.0238688 0.00135706 0.0267399 -0.00475741 -0.00150926 0.00844423 -0.00186978 0.0169009 -0.0150797 -0.00596015 0.0262279 0.0278972
0.0300982 -0.0156434 -0.0181651 -0.0415811 -0.0262505 -0.0400246 0.0285428 0.0159899 -0.0295221 -0.0241284 0.00937746 0.00736197 0.0331705
-0.0352545 0.0100275 0.000254247 0.0372016 0.0278496 -0.0212519 0.0319154 -0.038039 0.0284123 -0.00811501 0.0101725 -0.0150389 -0.00402112
-0.0127996 -0.0294356 -0.00584301 -0.0390927 -0.0211847 0.00689395 0.0283494 -0.0122179 0.0123349 0.0342996 0.0129087 0.0121424 -0.0346886
0.0248479 -0.0218509 -0.0100164 -0.026422 0.0340951 -0.017347 -0.0227756 -0.00782014 -0.00350908 -0.033085 -0.00560122 0.0184276 -0.0127955
-0.0219153 -0.00761726 0.00334011 -0.0311272 0.0543315 -0.00136276 -0.0170733 -0.0015866 -0.0244495 0.041731 0.000304928 0.00167563 0.0406377
-0.00743281 0.0210003 -0.0256731 -0.0380228 -0.021861 -0.0260455 -0.0105202 0.013529 0.0277247 0.0444018 -0.0243009 -0.0377793 0.0359976
-0.0485254 -0.109593 -0.150319 -0.176107 0.121471 -0.0518896 0.0168109 0.0580278 0.0358027 0.210405 -0.0602267 -0.138462 0.0728364
-0.0290423 -0.0202364 -0.0645388 -0.071163 0.0752115 -0.0479267 0.0338133 0.00772466 0.000390338 0.140338 -0.0714786 -0.0605164 0.0258294
0.0287604 0.0289606 0.0219838 0.00295039 -0.0154643 -0.0361444 0.00664013 -0.00320591 0.0286135 -0.00772238 -0.00743249 0.00504922 0.0121456
0.0245909 -0.0298038 0.00913869 0.0216343 -0.0178126 -0.0269213 -0.0225397 -0.0322469 0.0250906 0.0427502 -0.033126 -0.0422322 -0.00747741
-0.0139732 0.0315507 0.0328255 -0.011965 -0.000827218 0.00708409 0.0271506 -0.0111453 0.0341712 -0.00481105 -0.0186804 0.0136209 0.0234675
0.00485863 -0.0167817 -0.0987958 -0.115366 0.0496763 -0.0133966 0.0050682 0.0347173 0.0317216 0.182527 -0.0845168 -0.0425925 0.0591932
-0.0366269 0.00743821 -0.00787322 -0.0100664 -0.01896 -0.00918163 -0.0189692 -0.0103856 -0.0272806 0.00132787 0.0298819 -0.00936843 0.0103897
-0.00179585 0.0139696 -0.0385463 -0.0266418 0.00815544 -0.0173863 -0.0184318 -0.0265949 -0.0179357 0.0250422 0.00430435 -0.0261316 0.0148819
-0.00184802 0.00815049 -0.0307269 -0.00909953 0.00389014 0.0304185 0.0176595 -0.0126321 0.020393 0.0225716 -0.037503 0.0264696 0.0329415
-0.0271591 -0.00937344 0.00500673 0.025255 -0.0300072 -0.00324635 0.00429758 -0.0376014 0.00185048 0.0128848 0.00147875 0.0246721 -0.00780253
-4.92433e-05 -0.0111987 -0.00881023 0.0320662 -0.0339802 0.0108014 -0.0324658 -0.00297799 -0.0369613 0.0179539 0.0263622 -0.0399351 0.0259767
0.011404 -0.00705144 -0.021231 -0.00658242 0.0327507 0.000173519 0.011987 -0.0161323 -0.000116128 -0.021299 -0.0132255 -0.0340241 -0.00266506
0.0284097 -0.0191503 -0.000753644 -0.0518478 0.00658335 -0.00106848 -0.0288828 -0.0136238 -0.0136332 0.0453684 -0.02006 -0.0178635 0.0241339
0.0274036 0.0169807 0.0118153 0.0135606 0.0105601 -0.0141582 -0.0235583 -0.0257795 0.0201726 -0.00754762 -0.0382181 0.0270302 -0.0215785
-0.0516968 -0.0241688 -0.0680768 -0.0880027 0.0311099 -0.0378675 0.0259936 0.0001044 -0.037287 0.0767428 -0.00690821 -0.0578647 0.0298471
-0.0645345 -0.112688 -0.184712 -0.222014 0.157967 -0.0542308 0.0406853 -0.0280763 0.00367927 0.29659 -0.107306 -0.113213 0.112497
-0.0190796 0.0111562 -0.0370524 0.0147374 -0.00462848 0.0178074 0.0143005 0.0263244 0.00625886 0.0226199 -0.00933168 -0.0259553 0.00478684
-0.0491515 -0.104181 -0.148672 -0.164137 0.0956713 -0.0782078 -0.00121518 0.0184697 -0.0129327 0.210819 -0.0853122 -0.0863058 0.0658134
-0.00319662 0.0173091 0.0317046 0.00379241 0.0221555 -0.0271081 0.0315746 -0.00776064 0.0224155 0.0171892 -0.0160028 0.0102049 0.0289088
-0.0308975 0.0163425 0.0195135 -0.00596687 -0.0176201 0.00944236 -0.0132349 -0.03186 -0.0257142 0.0118385 -0.0288743 -0.0284803 -0.00668059
-0.0543775 -0.05482 -0.10698 -0.138005 0.157961 -0.0611768 -0.00972439 0.014833 0.0260255 0.183188 -0.0675244 -0.105846 0.0439268
-0.0356837 -0.0268067 0.023186 0.00120438 -0.0364609 -0.00841402 -0.00175331 -0.0133627 -0.0229569 0.0196506 -0.0014142 -0.0239904 0.0148606
-0.0451074 -0.0952154 -0.274364 -0.255267 0.234199 -0.0429222 -0.0434236 -0.000849903 -0.0111018 0.4003 -0.131965 -0.155679 0.155164
-0.520945 -0.270187 -0.145903 -0.226441 0.688298 0.0494468 -0.115203 0.536435 -0.0131455 0.362318 -0.294874 -0.260205 0.2275
0.100398 -0.334073 -0.452437 -1.04183 -0.248942 -0.1972 -0.0426775 -0.498988 0.0333064 0.955269 -0.560526 -0.471711 0.437993
0.0130744 -0.025087 -0.0341852 0.00793542 -0.000468956 0.0282146 0.0308159 0.0209717 -0.0133232 -0.00020447 0.0204467 -0.0167183 0.0348834
0.0107161 0.033518 0.0364811 0.00587676 -0.0154225 -0.00886464 -0.0313555 -0.0176094 0.0119777 -0.0258613 -0.00754579 0.00397372 -0.0296436
0.0157742 -0.0141129 -0.0340253 -0.0103109 -0.00124085 -0.0112337 0.0223697 0.024901 -0.0200675 -0.0379593 0.0189059 -0.0162498 -0.012949
-0.0327038 0.021324 0.00420052 0.00496741 -0.0109344 -0.0123753 0.00891714 0.00292614 -0.0221778 0.0304348 0.0293055 -0.00354366 0.00111852
-0.0107667 0.0284455 0.023168 -0.0348885 -0.00976705 -0.03242 -0.0237366 0.0228131 0.00628882 0.0365989 -0.0382601 -0.0308773 -0.00454442
-0.045748 -0.0257736 0.0272154 -0.0471767 0.00254486 -0.00209057 0.0322549 0.00237269 -0.012444 0.00762421 -0.00487526 0.0217495 0.0262634
0.0230592 -0.0322638 -0.0330346 -0.00373131 0.0244043 -0.0313097 -0.0370293 0.0361572 -0.0334139 0.0874576 0.0196683 -0.0115757 -0.0164186
-0.0259231 0.00975796 -0.016694 0.0317618 -0.0161471 -0.0066522 -0.0230078 0.0354089 0.0194666 -0.0266201 -0.016434 0.00670187 0.0268174
-0.0105463 -0.00141171 -0.0212065 -0.0270292 0.0226635 0.00255837 0.0227309 -0.000408588 0.0274316 0.0239917 0.0350048 -0.0321122 -0.0229655
0.0273127 0.00193005 -0.0173272 -0.0118623 0.00834265 0.0127579 0.0350125 -0.0253089 -0.00144454 -0.0259949 -0.02699 0.0142099 -0.018728
-0.0152053 -0.0537834 0.00324295 -0.0108684 0.0839604 0.00400016 -0.0250818 0.0103956 0.0224344 0.0649288 0.0112043 -0.0122822 0.0205548
0.0292291 0.0140182 0.0194585 0.0240087 0.0152865 0.0170645 -0.0277451 0.037223 0.012684 0.0295663 -0.0213289 -0.0284613 -0.0203653
0.0221292 -0.0240821 0.0341511 -0.0355405 -0.00896396 0.0233866 0.010034 -0.0294677 0.0108129 0.0198206 -0.0373846 0.0187165 -0.00275449
0.0131291 0.0213104 -0.029429 0.00416253 -0.0111757 0.013714 -0.00546605 0.0281172 0.033005 -0.0209498 0.0138966 -0.0211665 0.016901
-0.00474503 -0.0330605 -0.0274209 0.0257026 0.0206468 -0.00991767 0.00908787 -0.0279323 -0.0272948 0.00567459 -0.0337727 0.000485444 -0.0265979
0.031002 0.0230838 0.0277848 0.0298077 0.0209546 0.0216127 0.0119559 0.0363285 -0.0154601 0.0108161 0.0185648 0.0135837 0.0355962
-0.0391242 -0.0514482 -0.0865636 -0.102977 0.0582578 -0.0698078 0.0407659 -0.0252417 -0.0296075 0.13361 -0.0107377 -0.0708815 0.0688644
-0.0195936 0.03147 0.0239023 0.0314148 0.0164741 -0.0155759 -0.00140359 -0.016379 -0.00201017 0.0211806 0.0151153 0.0166462 -0.0206619
0.0217493 0.0264739 -0.00472365 -0.0119333 0.0393228 0.0196712 0.0286183 0.0123097 -0.00763165 -0.0250671 -0.017644 0.026128 0.0300035
0.00806846 0.0100822 0.0175321 0.01281 0.00371548 0.0311925 0.00423309 -0.026659 -0.0187224 -0.00431116 -0.0373741 -0.0390046 0.0134433
0.0320248 -0.0063339 -0.0218973 -0.0354331 0.0144109 0.0345668 0.00672754 -0.0148567 0.0290121 0.041169 0.012414 -0.0307569 -0.0330448
0.00895508 -0.012781 0.00835594 0.0262663 0.0211076 -0.0136415 -0.00441294 0.0177558 -0.0124183 0.00300765 0.000988668 0.0219282 -0.0170463
0.0653416 -0.21115 -0.280785 -0.438709 0.0988801 -0.0684416 -0.00408644 -0.177717 0.0369992 0.499354 -0.244481 -0.20111 0.0982486
0.0233672 0.0164679 0.00733671 -0.0416267 -0.0231781 0.0109965 -0.0366052 -0.015231 -0.0101004 -0.0179086 0.0233817 -0.006187 -0.0351981
-0.00581489 -0.0292062 0.00034992 0.012605 0.00339874 -0.00837464 -0.00287755 -0.0171368 -0.0316507 -0.0264573 -0.0177028 0.0139455 0.00829707
-0.0269715 -0.00427736 -0.014626 0.022174 -0.0231071 0.0201122 -0.0124351 0.028585 -0.0389269 0.0142534 -0.0047867 -0.00285037 0.0378284
-0.00892972 0.0378916 -0.031085 -0.0285254 -0.00717777 -0.0049854 -0.0196777 0.0350993 0.0373974 -0.00922764 -0.0371833 0.0371988 0.0104605
-0.0172371 0.0269327 -0.0225138 -0.0119117 -0.000481716 -0.00823626 0.00741025 0.0228851 -0.0314751 0.0374293 -0.0331656 0.0134182 -0.0127499
-0.0220132 0.0232377 0.0274655 0.00371509 0.0372583 -0.0182032 0.0350297 0.0255673 0.0200942 0.00275502 0.0108032 0.0149555 -0.0103802
-0.0374664 -0.0213166 -0.0477505 -0.0479355 0.0186077 -0.0227239 -0.0223148 0.00563121 -0.025222 0.0669371 -0.0107945 -0.0327142 0.0429887
-0.0281168 -0.0225274 0.0256982 0.011118 -0.00285341 -0.0274896 0.0245193 0.0210366 -0.0141494 -0.0133776 0.0227978 0.0211291 -0.0352627
-0.00212622 -0.0360336 -0.00667445 -0.0504394 0.0297696 -0.038982 -0.0235694 -0.00603895 -0.0256076 0.0353195 -0.0214895 -0.0385203 0.0211546
0.00599575 -0.0283981 0.0234829 -0.00346951 0.0129005 0.0379223 -0.00419321 -0.0144882 -0.0251505 0.0355148 -0.0313432 -0.0102847 -0.0143228
-0.0239028 -0.0901699 -0.0744468 -0.131256 0.1213 -0.00294867 -0.00721401 0.0548081 -0.00589922 0.165985 -0.0635198 -0.0748096 0.0777065
0.03569 -0.0314484 -0.018108 0.0190757 0.00483966 -0.0361914 0.0142373 0.0135693 -0.0032365 -0.00317057 -0.00716116 -0.0382502 -0.00969619
-0.0354762 0.025197 0.0319599 -0.00283738 -0.0304523 0.0222669 0.0225047 0.00269991 -0.00304467 0.0325238 -0.026584 0.0340748 -0.0308477
-0.0342207 -0.0223026 -0.0057436 -0.00304949 -0.01823 0.00148217 -0.0216339 -0.0141302 0.000378245 0.019503 -0.0237377 0.0144125 0.0123128
-0.0406974 -0.0398042 -0.0256647 -0.0418855 0.0396387 0.016937 -0.0153008 0.0166237 0.00208558 0.019049 -0.0135689 -0.0340007 -0.0120528
-0.021919 -0.031406 0.00712093 0.0156642 -0.0212376 0.0212765 0.0310806 -0.00426283 -0.0354291 0.014448 -0.0135989 0.0131821 0.0231798
-0.0374563 -0.0375453 -0.0637625 -0.00300534 0.0187519 0.00183578 0.00848964 0.0282314 -0.0197851 0.0785496 0.0165752 -0.0498787 0.0421632
-0.035683 0.0121254 0.024027 -0.0403971 0.0291595 -0.0238412 -0.0195414 0.0147601 0.0188144 -0.0198132 -0.00458498 -0.0213424 -0.0218351
0.0350818 -0.0199025 -0.0220809 -0.0123247 0.0329183 0.0289995 0.0321047 -0.0365311 0.0214497 -0.0315083 0.0200667 0.00400381 0.0139747
-0.021083 0.00308942 -0.0658806 -0.0451894 0.0343843 0.00690262 -0.00666887 0.0140708 0.00744067 0.0980971 -0.0564276 -0.0573805 0.0551591
-0.0251698 -0.0191837 0.0153313 0.0109381 0.0157795 -0.0356607 0.0151723 -0.0279151 0.0349831 -0.00553122 -0.0199012 0.0213264 -0.0210227
-0.0129207 -0.0769639 -0.146033 -0.111269 0.110841 -0.0614007 0.00372045 0.0194008 -0.0286071 0.2187 -0.069133 -0.124241 0.0447716
-0.0265134 0.0270144 0.0109982 -0.0401545 0.0107321 0.0134699 -0.0337699 -0.0316105 0.014081 -0.00967857 0.0100167 -0.0370076 0.00437406
0.0245195 0.0318053 -0.0197613 -0.01502 0.0322826 0.0206659 -0.016494 -0.0076079 -0.00107668 0.00185188 -0.0321569 -0.0265465 0.0162104
-0.0371676 0.0119669 -0.0234156 -0.0152313 -0.0351755 0.0343519 0.00270164 0.00213787 0.0348208 -0.000350303 -0.00900925 0.0378294 -0.00436651
-0.0605727 -0.156541 -0.24846 -0.288345 0.188848 -0.127301 0.0102793 -0.0648932 0.00153711 0.429071 -0.105698 -0.147705 0.119637
-0.0288907 0.0371092 -0.00051736 0.0326811 -0.0374733 0.00708717 -0.023259 -0.0326251 0.00147853 -0.0349428 -0.0380913 0.0119544 0.0198148
0.00810384 -0.0317955 0.0196523 -0.0129057 0.030684 0.0278702 -0.00901826 -0.0239486 0.0182422 -0.0293967 0.0135979 0.0270449 -0.0107323
-0.0118545 0.0238067 0.0240846 0.00468755 0.018526 -0.00558058 0.0117387 0.0180537 -0.0102537 0.0469657 -0.0282844 0.0113599 -0.0202248
0.0198969 0.027075 -0.00270171 -0.0153663 -0.00611286 -0.0309616 0.0280882 -0.0303058 0.0129687 -0.00362858 -0.0214581 0.0204363 0.0451456
-0.0145328 -0.0199583 0.0026621 0.0101455 0.0167641 0.0156444 0.0333136 -0.0303782 -0.0319997 0.0309093 -0.0333532 0.0196079 0.0308767
0.0338006 0.0379201 0.0304729 0.00667525 -0.0167397 0.000928533 0.000709755 0.0314039 0.0319967 0.0354836 -0.0152849 0.0248047 -0.00219257
-0.0343189 -0.0374515 -0.0171839 -0.0947815 0.017035 0.0039537 -0.00353512 0.02632 -0.0127768 0.122281 -0.0537614 -0.0326231 0.0547832
-0.0316537 -0.010485 -0.0189979 0.0282203 -0.0203035 -0.0202876 -0.0254889 -0.00950501 0.0265551 0.0176145 -0.034379 -0.0386355 -0.0360028
0.0216777 0.0325694 0.00324899 0.020526 0.0191797 -0.0227643 -0.0335493 0.0209196 0.00952284 -0.021581 -0.0126303 -0.00127416 -0.0237555
0.0335244 -0.0141817 -0.0274245 0.0133511 0.00206245 0.00580941 -0.00136036 -0.000564612 -0.0239816 0.0256529 -0.0339016 0.00112738 0.0346538
-0.0167428 -0.0388613 0.00311123 -0.0468427 0.0743586 -0.0172761 -0.0250711 0.0335836 0.0054929 0.0383977 0.00404854 -0.0115703 0.0444255
-0.0169603 0.0119891 0.0195469 -0.0124099 0.0269287 -0.0267764 0.0269433 -0.0230202 -0.0299878 0.0283943 0.0131964 -0.0306536 0.0366244
-0.0366774 -0.0198223 -0.00170045 0.0254455 -0.0116684 -0.0162152 -0.0307923 -0.00401374 -0.0335742 0.00142173 0.0338405 -0.0150044 0.00629026
0.0195543 -0.0263658 -0.0459886 -0.0930177 0.0637169 -0.0216232 -0.0139727 -0.0427076 0.00893051 0.118808 -0.0802768 -0.0601121 0.0604218
-0.0143929 0.0135576 0.00240914 0.00876115 0.0120626 0.0137086 -0.00731338 0.0140449 -0.00404654 -0.0133182 -0.0294972 -0.026148 0.0182776
-0.0417406 -0.0311286 -0.0351182 -0.00868777 0.0255474 -0.0236809 -0.000631641 0.0150657 0.0253117 -0.0270578 -0.0117944 -0.0119615 0.0199445
-0.00569638 0.0352672 0.00392059 0.0243779 0.0384801 -0.0301036 0.022705 -0.011895 -0.0240648 -0.0165225 0.0299734 0.0324019 -0.0208985
0.0323594 0.0243924 -0.0367785 -0.0164828 0.00369618 0.0241645 0.0050896 0.0166831 -0.0355776 -0.0188693 -0.000861982 -0.0319609 0.0422348
-0.0155198 -0.173829 -0.225352 -0.44634 0.013598 -0.0938662 0.0150225 -0.15016 0.0398405 0.437338 -0.216092 -0.228953 0.19322
-0.0160457 -0.00712599 -0.0263187 -0.0111449 -0.0173781 -0.0179467 0.0184383 -0.00668985 0.0199449 0.0144573 -0.0163329 -0.000567158 -0.0198563
-0.053057 -0.157983 -0.280311 -0.28796 0.198196 -0.0391302 -0.0301717 0.0563874 -0.00119018 0.3911 -0.194532 -0.187861 0.106173
-0.0178195 0.0137339 -0.0265833 0.0049247 0.0110175 -0.023264 0.00529212 -0.0248225 0.00313799 0.044119 -0.0467344 -0.0126248 -0.00191274
0.0310886 0.0109744 -0.0310981 -0.00164238 0.0154428 0.0223933 -0.0213904 0.0367404 -0.00416507 0.0180206 0.0236542 -0.0121521 0.0243622
-0.0372036 0.0295652 0.00569271 0.00361547 -0.0188007 0.00142293 0.0158944 0.0309287 -0.0173997 0.00729034 0.0217359 0.0372185 0.0347001
-0.0347245 -0.0119816 0.0150449 -0.0421738 0.0392823 -0.00620928 0.0252074 -0.0381608 0.000804859 0.020626 0.007846 0.0234333 -0.0258769
-0.346534 -0.236996 -0.0587517 -0.121359 0.463964 0.0135364 -0.0470932 0.360152 -0.0482658 0.241838 -0.206732 -0.156814 0.141127
0.00443772 -0.0226679 -0.031103 -0.0195983 -0.0207798 0.00976444 0.00309855 -0.00808119 0.0262171 0.0315447 0.000382274 -0.0180977 -0.0189597
0.020746 -0.0211413 -0.0332513 0.00139202 0.0404851 0.0362988 -0.0261506 -0.00234884 -0.012173 -0.00226559 -0.0255333 -0.038997 0.0072311
0.0114878 -0.0287806 -0.0369518 -0.00484207 -0.0204328 0.0233351 0.0304216 0.00521819 0.029455 0.0165415 -0.000209792 -0.0370709 -0.0163888
0.0108839 0.0175505 -0.00897704 -0.0275879 -0.00827433 0.0179268 -0.0295844 0.0227187 0.0077582 0.0500272 -0.0395657 0.0283333 0.00125361
-0.0467975 -0.0212282 -0.103405 -0.0765939 0.026636 0.0108886 0.00699477 0.0433575 0.0317854 0.140387 -0.0428082 -0.0455873 0.0607543
0.00495233 -0.020315 0.0153846 -0.0196329 -0.036622 -0.00590676 0.0343291 0.00333939 -0.0342988 0.0252135 0.00915447 0.00407388 -0.0278138
0.00146076 0.0294265 -0.0320774 0.00344113 -0.00355077 0.0024884 -0.0126899 0.0238725 -0.0199315 0.0337813 0.0209762 -0.0364434 -0.0313067
0.0105272 -0.039941 0.0166724 0.00926141 0.00772758 -0.014897 -0.0127904 0.0116896 0.0241175 -0.0219658 0.0126081 -0.0347889 -0.0292324
0.0156224 0.0316668 -0.0199769 -0.0066585 0.0218388 0.00270091 -0.0311489 0.000338241 -0.00114503 0.0157235 -0.0242631 -0.00239283 -0.0309467
0.0167349 0.00176392 -0.030654 0.0224671 -0.0323153 -0.0350412 -0.0237983 0.0015439 -0.0119631 -0.0167546 -0.00340853 -0.0158113 0.0152551
-0.020631 0.00597327 0.00501821 -0.0376216 0.0252268 -0.00520113 -0.0220531 0.00100048 0.000128692 0.0321398 0.0221936 -0.0220639 -0.0253265
-0.0521421 -0.0615685 -0.0109151 -0.0325685 0.0873479 -0.0135417 0.0242539 0.0573079 0.00685064 0.0190721 -0.0319509 0.00902397 0.0449853
0.0268209 -0.010237 -0.0325294 0.0159503 0.0100227 0.0227401 0.0276089 -0.0155504 -0.0324885 -0.0179567 -0.027164 -0.00160158 -0.0221605
-0.0289231 -0.0817928 -0.148205 -0.163225 0.145934 -0.0540558 -0.0115978 0.0160437 0.0211344 0.251294 -0.104409 -0.0883196 0.0960236
-0.0168496 -0.00843892 -0.00502344 0.0113498 -0.0236418 0.00630936 -0.0120537 0.0120277 -0.0304915 0.0455155 -0.00535911 0.0167897 -0.00664125
0.0167498 -0.0112548 -0.0244984 -0.027597 0.0219746 -0.0362143 0.00916032 0.00406914 0.00650558 -0.00391609 0.000397845 0.0190825 0.0176325
-0.0614541 -0.0858842 -0.0899264 -0.186996 0.149837 -0.063258 0.0161262 0.0492875 -0.00840177 0.201035 -0.0799739 -0.0941784 0.0376825
0.00894568 -0.016619 -0.0137241 0.00413275 -0.0327766 -0.00939945 -0.0361468 0.0347778 0.00129358 -0.0258392 0.0194757 0.00961842 0.00479731
-0.0241245 -0.0102841 0.00555449 0.028368 -0.0296645 0.00726293 -0.0236914 0.00341543 0.013703 0.00469814 0.0205251 0.0204362 0.0287522
-0.011044 -0.0221007 -0.113961 -0.130425 0.09807 -0.0283485 0.03557 0.00214198 0.010738 0.118444 -0.0340545 -0.105887 0.0613505
-0.0435544 -0.0549212 -0.128919 -0.21084 0.11323 -0.0373374 0.0073179 0.00272794 0.000127049 0.225285 -0.108031 -0.122884 0.0340807
0.00324756 0.0270656 -0.0285887 -0.0175466 0.0050454 -0.012575 -0.0318085 0.00859508 -0.00125296 0.00941171 -0.0299134 -0.034075 0.0362215
-0.0317642 -0.0718401 -0.180933 -0.196619 0.154491 -0.0717646 0.0318053 0.00262011 0.0039069 0.260381 -0.114608 -0.0893904 0.084413
0.0165215 0.0370879 0.0357652 0.0112095 0.0088945 -0.00752161 0.0336101 0.0157135 -0.0186998 -0.0115924 -0.0262456 0.0355361 -0.00769592
0.0160207 -0.0266748 0.0253666 -0.0371698 0.0188542 0.0345296 0.0102176 -0.00535835 0.0350606 0.0363225 -0.0195656 -0.0133101 -0.000952925
-0.030906 -0.0364389 0.016968 -0.0108238 -0.0170957 -0.017625 -0.00741171 0.0220268 -0.0166117 0.00446568 0.0314539 0.00562222 0.0309779
-0.0113768 -0.0321602 -0.00260005 -0.031028 -0.00377762 -0.0164544 0.00120014 0.0243453 -0.0294752 0.0328868 0.0149905 0.000981656 -0.0275596
-0.0332756 -0.0200805 0.0224505 -0.0290885 0.0146144 -0.00152834 -0.0211975 -0.0225101 -0.0285059 -0.00246988 -0.00521562 -0.0340225 0.0111384
-0.0337777 -0.0909365 -0.116716 -0.116238 0.0990636 -0.0624791 0.0252161 -0.0146873 -0.0436132 0.163153 -0.0889742 -0.105649 0.0355176
-0.0285071 -0.00158525 0.0207213 -0.0193137 0.0372305 -0.0144915 -0.0298646 -0.0288368 -0.00922804 -0.0278151 0.0265275 -0.0241931 0.0372289
-0.0178174 -0.0546754 -0.191039 -0.248667 0.122129 -0.0922581 -0.0192716 -0.0147808 -0.0141844 0.283931 -0.0614539 -0.125984 0.0943689
-0.0249577 -0.00656622 0.0338557 0.0175841 -0.0213872 -0.00841709 -0.0301122 0.0265199 -0.031275 -0.00296026 -0.025458 -0.0126773 0.014589
-0.0359248 -0.0259066 0.0172964 0.0285355 -0.0051931 0.0236888 0.0174899 -0.0219844 0.0361336 -0.0126065 0.0263387 -0.0276454 -0.00913502
0.0186731 -0.0301405 0.0138598 -0.0150229 0.036232 -0.00303194 0.0114179 0.00321058 -0.0195603 -0.0352663 -0.0115279 -0.0134127 0.0105457
0.00390264 -0.0264991 -0.0699563 -0.0324323 -5.2804e-05 0.0248641 -0.00483544 0.0101107 -0.000623884 0.0565037 -0.00449389 -0.0283069 0.0284636
0.00378885 -0.0168214 -0.0346334 -0.00923127 0.0148491 -0.0363829 -0.0222949 0.0281912 -0.0165117 0.033467 -0.0182148 -0.0319979 0.0204845
-0.0132188 0.0347493 0.0126907 0.00407973 -0.0328544 0.015276 -0.000174577 -0.0129488 -0.00596746 0.00415088 -0.010673 -0.0380219 7.60925e-05
-0.0212385 -0.0113527 0.0123938 0.0140665 0.00665775 -0.0384432 -0.0158288 -0.0343802 -0.00459402 0.0264384 -0.014551 0.0207589 0.00857064
0.000703884 0.0230423 0.00531992 0.0204744 0.00708647 -0.0133983 -0.0176252 -0.0213635 -0.0204817 -0.00859373 -0.0331847 -0.0155144 0.0183988
-0.00839533 -0.003693 -0.0143548 -0.0135778 -0.0335909 -0.0147109 0.0123898 0.00996509 0.0150998 -0.0173633 0.0140907 0.0274613 -0.0172059
0.0204527 0.0138295 -0.0170125 -0.0235247 0.023326 -0.0363729 0.0169679 -0.0221924 -0.00240568 0.00452983 0.0322566 0.000735783 -0.00405881
-0.00358144 0.00143499 0.0347319 -0.0101998 -0.0013567 0.0335681 -0.0324882 -0.0348424 0.0198265 -1.63933e-06 -0.00916118 -2.32318e-05 -0.0294448
-0.00252661 0.0131265 0.015526 -0.0178932 0.00906649 -0.0235399 -0.0329981 0.00604885 0.0313814 -0.0066731 -0.00831548 -0.00234075 -0.00829183
-0.038569 -0.0339798 -0.0136045 -0.000138348 0.00743395 0.0277947 -0.00769621 0.0319531 0.000207891 0.0102365 -0.00173866 0.0347546 0.0122086
0.0286702 -0.00717926 0.0118692 -0.0431335 0.00443948 0.00757797 0.00717075 0.0168664 -0.0041848 -0.0215659 0.0069873 0.0307761 -0.00313446
-0.0553463 -0.0225584 -0.0780935 -0.0333275 0.0592521 0.00550923 -0.0407805 0.0193331 0.0293169 0.0838476 -0.0276385 -0.0769131 0.0637458
0.000553483 -0.00370742 -0.0194284 0.0314041 0.0177259 -0.00764556 0.0321694 0.0185443 -0.00638631 0.00550114 0.0240869 0.0249886 -0.0170042
0.00499078 -0.0427712 0.0193857 0.0216016 -0.0261401 -0.0338972 0.00214873 0.0120564 0.0158918 0.0104081 0.012554 -0.0296118 0.026758
-0.00511966 -0.0110477 0.0319478 -0.0219991 -0.0105172 0.00441359 0.0381344 -0.0199031 0.0375103 -0.0047052 -0.00567587 -0.020019 -0.0180401
-0.0216729 0.0290405 0.0368833 0.0118077 0.00770667 -0.0240574 0.0217048 0.0176309 0.031604 -0.00820705 -0.0288661 0.0146391 -0.032657
0.0327866 -0.0224015 -0.0117032 -0.0271744 0.0342147 -0.0378136 0.024469 0.00235678 0.00998705 0.0261445 -0.025404 0.0154503 0.0343146
-0.0373189 0.0211296 -0.0352061 -0.0327799 0.00723788 -0.0340356 0.0369369 0.0399281 -0.0263232 -0.00300546 0.0138611 -0.0307531 0.0228108
-0.027693 -0.0294012 0.0105064 0.0113358 0.0148866 0.00786601 -0.00166315 -0.00406367 -0.0361605 0.0326975 0.0340913 -0.0260918 -0.0182282
0.0211575 -0.0148063 -0.00267923 0.011523 0.0245868 0.0359941 0.0281301 0.0379136 -0.0239088 -0.0148284 0.00243969 -0.0195122 -0.00180024
-0.0308053 0.0233709 -0.0221292 -0.0129323 0.00616583 0.0287285 -0.0291407 -0.0120151 -0.0339194 0.0317412 -0.0374419 -0.0193612 0.0266134
-0.0223604 -0.126551 -0.226717 -0.23506 0.165913 -0.0748445 0.0381859 -0.0609376 0.0370234 0.324689 -0.118729 -0.154015 0.0747421
0.0249724 -0.0402298 0.0239236 -0.0467084 -0.0127353 -0.0402056 -0.0189438 -0.0173855 -0.00928617 0.00143921 -0.026564 -0.0418962 0.0149648
-0.00627672 0.0165847 0.00416621 -0.022355 0.0199395 0.0108645 -0.027878 -0.0173311 -0.017329 0.00113686 -0.0322483 -0.010332 -0.00465783
-0.0375007 0.0162137 -0.0196278 -0.0321967 0.0259885 0.0164553 -0.00203326 0.0139568 0.0191639 0.0245491 -0.00535435 0.0196229 -0.0245975
0.0245808 0.0348029 0.0132243 -0.0132411 0.0185598 -0.00752226 0.024156 -0.0249516 -0.0354474 -0.0264758 0.0244812 -0.0178406 0.00374655
0.037467 -0.00984903 0.011512 0.0223511 0.0299519 -0.000583951 0.016344 0.0221669 0.00189664 0.0364536 -0.0109531 -0.0246352 -0.0216904
0.00795978 -0.0469875 -0.0582001 -0.0907492 0.0183796 -0.00873495 -0.0208916 0.0457375 0.0157196 0.107376 -0.00598454 -0.0361175 0.0375299
0.0146176 -0.0150911 -0.0200203 -0.0234451 0.0432718 -0.0106182 -0.0307258 0.0210003 0.0372465 -0.00942001 -0.00528789 -0.018924 -0.00336783
0.0193523 -0.0214836 0.00556731 -0.013904 0.039717 -0.0318983 -0.0231794 -0.0178138 0.0261514 0.0146873 0.004568 -0.0327635 0.0146639
-0.0649728 -0.0938636 -0.227571 -0.23195 0.198915 -0.0619434 -0.0241857 -0.0140477 0.00183267 0.342995 -0.147542 -0.117879 0.139027
-0.0394537 0.0281927 -0.0112591 -0.00817159 -0.00921536 0.0139029 -0.0173435 0.0214511 -0.0337621 0.000925154 0.0286609 -0.0323906 -0.0333161
0.0256889 0.0316337 0.00074618 0.0165678 0.0295849 0.0233712 -0.0369523 -0.0316305 0.033597 0.0158158 -0.0325321 0.0316723 -0.0138857
-0.0148227 0.0213318 -0.0231827 -0.0184366 0.0188223 -0.0238367 0.00381218 -0.0293065 0.0269423 -0.016736 -0.0245309 -0.0396472 -0.0256634
-0.0306935 -0.0264087 -0.00208805 -0.0178271 -0.0180988 0.033053 -0.0350475 -0.0139862 -0.0323086 -0.00913626 0.00735091 0.000829036 0.0058712
0.000127038 0.0111356 -0.0166542 -0.0590403 -0.0154048 -0.0320043 -0.0170261 -0.0140346 0.0315707 0.0370204 -0.0466266 -0.0274337 0.0410269
-0.011695 0.00858765 0.00130846 0.0115716 0.0192185 -0.0292073 0.000458607 0.023433 -0.0274428 0.0138244 0.0281398 -0.0261615 -0.0350905
-0.0691066 -0.0209103 -0.113822 -0.0743626 0.0578654 -0.00101423 -0.0258521 0.0412187 -0.0291894 0.150635 -0.075301 -0.100588 0.0476902
-0.03334 0.034133 -0.00893242 0.0119476 0.0144595 0.028979 0.00140386 0.0387951 -0.0356233 -0.000374475 0.0118504 0.0272035 -0.0226895
-0.0298913 -0.0279138 0.00449084 -0.0180325 -0.00691605 0.00820706 -0.0261613 0.0366643 -0.0356864 -0.0083797 -0.0323578 0.0107895 -0.00762177
-0.0383449 0.0159202 -0.0374602 -0.0239038 0.0131103 0.0291304 -0.0170405 -0.000608092 0.0277088 -0.00818496 -0.0313907 -0.0193552 0.0320115
0.0333825 0.0376914 -0.0276556 -0.0311771 0.00903431 -0.0378591 -0.0153961 -0.0174771 0.0155395 0.0205486 -0.000488623 -0.0237151 -0.0126109
-0.0266735 -0.0159376 -0.0358748 -0.0113048 -0.000697913 0.0223265 0.0113419 -0.0215569 -0.027646 0.0166395 0.0285417 0.0147195 0.0326479
0.0298728 0.029668 -0.0376931 -0.0064965 0.0045306 0.00959159 -0.027248 -0.0354541 -0.0204459 -0.0268374 -0.0395655 -0.00972418 -0.00585329
-0.00464222 -0.0635538 -0.146716 -0.217124 0.169552 -0.0945165 -0.0229314 0.0229886 0.0345544 0.238629 -0.128576 -0.118873 0.0531267
-0.0206812 0.037318 0.0126492 0.0267293 -0.00899024 -0.0223328 -0.0223019 -0.0310745 0.0352496 0.032039 0.00702576 0.0203778 0.0286237
-0.053204 -0.0659103 -0.109731 -0.168242 0.1166 -0.0539403 0.0133743 -0.0374679 0.0242584 0.211108 -0.0511057 -0.0583167 0.0324194
0.0292634 0.0292515 -0.0208787 0.0280286 0.0190477 -0.0351051 -0.0376135 0.020789 0.0352359 0.0284243 0.0213972 0.00281664 0.0392844
0.0110328 -0.0305907 0.0212346 0.000923432 0.00631349 -0.00306948 0.00819163 -0.0262489 0.0186542 -0.0135241 -0.0125559 -0.00598279 -0.00612569
-0.0209928 -0.0749287 -0.0478356 -0.104055 0.060855 -0.00129383 0.0287227 0.0437275 0.0159698 0.106293 -0.07256 -0.0387846 0.0759921
-0.618269 -0.598954 -0.105822 -0.40543 0.9062 1.01713 -0.612902 0.0810059 0.376263 0.579396 -1.23271 0.0686732 -0.516961
-0.0465606 -0.0782789 -0.188042 -0.222799 0.185326 -0.104685 -0.00773299 -0.00355853 -0.0236025 0.270542 -0.0822084 -0.131105 0.12929
0.0221994 0.010106 -0.012347 -0.0405064 0.0469106 0.00442609 0.0274962 0.021418 0.0334357 0.0323428 -0.00497107 0.0150094 0.00105086
-0.0185541 -0.0151948 0.0133072 0.0269179 -0.0141107 0.0275696 0.0132186 -0.0115891 0.00877463 -0.0275002 0.0257856 0.0129037 -0.0363983
0.0334377 -0.0101997 -0.00389605 0.00806988 -0.0216939 0.0357396 0.019039 0.00196828 0.0211472 0.0160598 0.0201641 0.0257053 -0.00797235
-0.037022 -0.00909434 -0.0280101 -0.00195003 0.0335089 0.0308654 0.00849946 0.00435322 -0.0297967 0.0249373 -0.0151872 -4.31477e-05 0.0149408
-0.0343062 -0.00318292 0.0177534 0.0175211 0.0252053 -0.0395167 0.0348989 -0.0137729 -0.0180983 0.0043717 -0.017181 0.0172911 -0.00145037
0.00373698 0.0344995 -0.00511598 -0.0203363 -0.00581954 0.0017923 -0.0279917 -0.0354962 0.0156872 -0.00198644 0.00509765 -0.00280935 -0.0106818
0.0125486 0.0113586 0.0219517 -0.0277634 -0.0285433 0.0143571 -0.00209966 0.0266218 0.0200143 0.000164554 -0.00582961 -0.00198817 -0.0344411
-0.0071368 -0.0231207 0.0352049 0.0316781 0.0164143 0.00720989 0.0324467 0.00251567 0.0255396 0.0036183 0.0258929 -0.0335595 0.00150927
-0.031459 -0.00397389 -0.00869315 0.0190411 -0.0312484 -0.00234307 0.0114118 -0.00399044 -0.027172 -0.0146955 0.0182143 -0.00812389 0.0232685
-0.0300997 0.0211657 -0.0341043 -0.0163747 -0.0220144 -0.0142097 0.0174549 -0.0354433 0.0319616 0.0360979 0.0278415 0.0137209 0.0230143
0.00730456 -0.0175228 0.00706691 -0.0383813 0.0347383 -0.0360416 -0.00631544 0.0174954 0.0209139 -0.00014094 0.0177844 0.0236127 0.0331173
-0.00910421 0.0187114 0.00423511 0.0109915 0.0194113 -0.0195259 0.02838 -0.00823431 0.00807159 0.0144124 -0.000873205 0.0260346 0.0287746
-0.0207994 0.00854704 -0.0119755 -0.0208241 0.0283719 -0.0312046 0.0182427 -0.0141146 0.0311852 0.0318775 0.0183525 0.00392319 -0.00781441
-0.0195177 0.00580061 -0.0231013 0.0289319 0.0306434 -0.028135 0.0308398 -0.0266825 -0.0196385 -0.022911 -0.00207872 0.017522 0.0340723
-0.0181906 -0.00603043 0.0253864 -0.0124021 -0.0157038 0.00818124 -0.0035292 0.0229898 0.000631682 -0.01666 -0.032755 0.0208711 0.03422
0.0265796 0.0113945 -0.0344962 -0.0317902 -0.00447446 0.0322157 0.0031412 0.0209156 0.0376837 0.0145767 0.00129263 -0.00429389 0.0333363
-0.0300998 0.00621329 -0.0682058 -0.0639515 0.0737589 -0.0106109 -0.0126045 -0.0210123 -0.0038756 0.0541527 -0.0241524 -0.0175811 -0.00453701
-0.00990273 0.013236 -0.0245348 -0.00610071 0.0152864 -0.00160796 0.0248785 -0.015223 0.0255172 -0.00120283 0.0164508 0.0200132 -0.033106
-0.0199241 -0.0174387 0.0333574 0.00261189 -0.0264826 -0.0210219 0.0363069 -0.0263739 0.0194267 0.0141604 -0.0364399 -0.0338716 0.027159
0.0159519 0.0240952 -0.031662 -0.0128133 -0.00793443 -0.0117428 0.0306385 0.0183419 0.00547341 0.0399706 0.0269764 -0.0205604 -0.0126387
0.000978532 -0.00445699 0.00483676 -0.0292522 0.0122664 -0.0379745 -0.0191477 0.00466843 -0.00568504 -0.0216772 0.0265357 -0.0273553 -0.0188722
0.0273706 -0.0384872 -0.0235079 0.0221251 0.0191187 0.0166463 0.0376939 -0.0112671 0.0333619 0.0297407 -0.0229793 -0.00118544 0.0133935
-0.0664996 -0.0865458 -0.25991 -0.229905 0.178647 -0.107679 -0.0151166 -0.0402723 0.0107695 0.340852 -0.127587 -0.146262 0.104759
-0.0144088 -0.0474662 -0.0432068 -0.0280838 0.0410434 0.00917001 0.0371974 -0.0281972 0.00647559 0.0233134 0.0106327 0.0101984 0.0357148
-0.0202159 -0.0107338 0.028514 -0.0277808 0.0279973 0.0100794 -0.033729 0.00437588 0.000953095 0.0130362 0.0202175 0.0211804 -0.00198302
0.0178389 -0.0319896 -0.0422553 -0.0256506 0.036882 -0.0177078 -0.0310719 0.0228893 -0.0319654 0.0676581 -0.0613587 -0.0200593 0.00722067
0.0257936 0.0349699 -0.000932712 0.0178068 0.0110679 0.0140964 -0.0310481 -0.0341905 -0.0181302 0.0221525 -0.0376071 0.0346714 -0.0116925
0.0326239 -0.0367755 -0.012349 0.0215978 0.00200144 0.0315921 0.0129911 -0.00772801 -0.0138814 0.0257317 0.0144762 -0.018076 0.0280456
0.061695 -0.162005 -0.288069 -0.495743 0.0690748 -0.117811 0.00450119 -0.211481 -0.0638872 0.482716 -0.187396 -0.232657 0.104759
0.00844954 -0.00378664 0.02293 0.0135578 0.0015645 0.00190208 -0.00859362 0.00538166 0.0117206 -0.00385841 0.013738 -0.0183285 -0.0167918
-0.0335242 -0.0291472 0.00517092 -0.00336277 0.0306955 0.0245772 0.0221872 0.0376423 -0.00173966 -0.00618747 0.00526939 -0.0352849 0.0222098
-0.0321512 0.00265156 0.000726689 -0.00721549 -0.0152047 -0.00486166 -0.00733922 0.00667105 -0.0193616 0.0210119 0.0148132 0.00637727 -0.0376702
0.00168064 0.0243792 -0.039905 0.0322955 0.0280366 -0.0382667 0.0356905 -0.0180409 -0.0326892 -0.0150142 -0.0258665 0.0355689 0.0280386
-0.0276098 0.0108775 0.0330679 -0.0213658 -0.00849826 -0.0135578 0.0382976 0.000785799 -0.0115097 -0.00721912 -0.0165977 0.0239867 0.0134136
-0.00734669 -0.0857098 -0.282921 -0.297943 0.18431 -0.0679465 0.0260987 0.0121808 0.0192357 0.353263 -0.111549 -0.188953 0.151106
0.023161 -0.0365949 0.0149416 -0.0349449 -0.0106481 0.0211266 0.0383471 0.00567689 0.0209854 -0.0120068 -0.0203852 0.0214729 0.0198085
0.0246439 -0.00572061 -0.0163768 0.0298083 0.0292454 0.00768062 0.0124994 -0.0187111 -0.0133912 0.0125039 -0.0164511 0.00191358 0.0264236
-0.0352483 -0.0240191 0.0189642 0.00330148 0.00579161 0.0333584 0.00813034 -0.016518 0.00279806 0.029931 0.00276815 0.00251804 0.0216694
0.0176537 -0.0353963 0.00580342 -0.045045 0.0317838 0.00883477 0.0335604 -0.0221192 -0.0387105 0.0615961 -0.0309999 -0.00525565 0.0489656
0.0345851 -0.0365689 0.0201235 0.0307019 -0.00883634 0.00404112 -0.0289125 0.0160291 -0.00338159 -0.0305089 0.0345862 -0.0275924 0.014751
0.0134462 -0.0288498 -0.0458261 -0.072822 0.056443 -0.0512879 0.032587 -0.022877 0.0270034 0.0675652 -0.0439689 -0.0116819 0.00256713
0.0156412 -0.000450299 -0.0419059 -0.0341654 -0.00604417 0.0266671 -0.0353587 -0.0285509 0.0159877 -0.017971 0.0338331 -0.0383221 -0.0160699
-0.0191011 -0.0048334 -0.0265728 -0.0315026 -0.00402757 -0.00826685 0.0380223 -0.0201954 0.0121566 -0.00748209 -0.0254718 0.00848633 0.0374448
0.00506843 0.0354469 0.00167348 -0.0236282 0.0382304 -0.0142004 -0.00251579 -0.0208471 -0.0136687 -0.0109854 0.0210659 0.00630791 0.0124702
-0.0213848 -0.00789413 0.00545515 -0.0425448 -0.0230718 0.00228968 0.023983 -0.0165037 -0.0035126 -0.026607 0.026659 0.0243841 0.0374349
0.010265 -0.0180347 0.000700038 -0.034599 -0.0208901 0.0226209 0.0073073 0.027215 -0.0248561 -0.00389773 -0.0038697 -0.0122647 0.0395038
0.0167902 0.00818492 -0.000561884 -0.0278566 0.0376544 0.0108592 0.0284581 -0.0364986 -0.0228947 0.00581289 -1.59515e-05 0.00191311 0.00418839
-0.0370741 -0.0192401 -0.00303511 0.0178299 0.0171137 0.0131459 -0.000570093 -0.024802 0.0308296 0.0224695 0.0140067 0.0345864 0.0153032
0.00797426 0.0100488 0.0127908 -0.019806 -0.00118498 -0.0285147 0.0171689 -0.0122472 -0.0140698 0.0219299 -0.000725364 0.0335648 -0.0127736
-0.0458141 -0.0615586 -0.173261 -0.166549 0.129368 -0.057126 -0.0168796 -0.00827846 -0.0189525 0.242408 -0.0717463 -0.0739857 0.0909299
0.000816531 -0.0210801 -0.0331672 -0.0355386 0.0149703 -0.0143035 0.0313287 -0.00642312 -0.0297402 -0.036826 -0.0118568 -0.0330701 0.0044283
-0.0246023 -0.0243112 0.00612651 -0.0291945 0.0256119 0.00492977 0.0037147 -0.0156966 0.0241936 -0.00541638 -0.00393834 0.0327183 -0.0291438
-0.0387687 -0.0232108 -0.0974347 -0.0696565 0.0809848 -0.0380565 -0.0162908 0.00728562 -0.0114654 0.133669 -0.028494 -0.0757643 0.0645593
-0.0120525 -0.0116533 -0.0482181 0.00285916 0.025736 -0.0250088 -0.00389728 -0.0025512 -0.0143705 0.0366918 -0.0155179 -0.0154257 -0.00954837
0.0261992 -0.0232373 -0.0300741 0.0168774 0.0377903 0.0204583 0.00193532 0.0247932 -0.0079723 0.0266878 -0.0218376 -0.00476192 0.0326947
-0.00999162 -0.0467726 -0.160306 -0.151011 0.170241 -0.0649857 0.0243034 -0.00490688 -0.0246769 0.239007 -0.0725168 -0.0948427 0.120887
0.0351228 0.00238346 -0.0166911 -0.0405479 0.00236057 0.0209198 -0.0342885 -0.0202217 -0.00767242 0.0189869 0.0169519 0.032475 0.014764
0.0276257 0.0347698 0.0177091 0.000787465 0.038696 -0.025133 0.0295971 0.0248334 -0.0203669 -0.0258883 -0.0338688 -0.00562411 0.00151905
-0.0321514 -0.0724011 -0.231265 -0.26176 0.159936 -0.10607 0.0450366 -0.0545507 -0.00198514 0.302231 -0.0636116 -0.157353 0.134285
-0.0137613 -0.0181419 -0.0249943 0.00403513 -0.0329072 -0.0240911 -0.0265484 0.0363767 0.0287458 -0.0356379 -0.0198964 0.0184662 0.024865
-0.0176163 0.0261728 0.0137452 -0.0196872 -0.0278511 0.0218857 0.0179608 0.00893332 -0.00142625 0.0218385 -0.0151224 0.0045996 -0.0352909
0.0142429 -0.0154556 0.00986532 0.0150722 -0.0166296 0.0179042 0.0271266 0.025967 -0.027645 0.0342865 -0.0156332 -0.0378062 0.0254896
0.00477245 -0.0012536 -0.0741435 -0.0908881 0.00888327 -0.0242032 -0.0368905 -0.00842344 -0.0276692 0.0624836 -0.0268056 -0.0089745 0.0176041
0.0248622 0.0299096 -0.0228989 0.0275822 -0.0283263 0.0129657 0.00861117 0.00360464 -0.000571204 0.0158038 -0.0327998 -0.0360292 -0.0347546
-0.0556517 -0.0134146 -0.0926495 -0.0747393 0.047505 -0.0567651 -0.00664854 -0.00483637 -0.0131617 0.120142 -0.0581734 -0.0231377 0.0573212
-0.0327567 0.0265583 0.0283168 -0.033887 -0.000685705 0.014527 -0.0346604 0.0122854 0.0351728 -0.0105335 0.0379975 0.0243211 -0.0258071
-0.0532291 -0.0880457 -0.0740783 -0.130267 0.0678466 -0.0361529 -0.025573 -0.00154588 0.00535433 0.157663 -0.0609851 -0.0872626 0.0232151
-0.028138 -0.0218316 0.0160162 0.00166887 0.00012709 -0.0374645 0.0228837 0.0369771 0.0192105 -0.00669341 0.0219786 0.0136872 -0.0305088
-0.0124885 -0.00583082 0.016198 -0.0305669 -0.0213388 0.00505062 -0.0176577 -0.00744208 0.00590397 -0.0179422 0.00840575 -0.0333961 0.0215469
0.00602894 0.0311297 0.0151047 -0.0130864 0.0350175 0.034436 -0.0280079 -0.0196467 0.0381805 -0.0254152 -0.025458 -0.0242393 -0.00277213
0.00277342 -0.026299 0.0250917 0.031232 0.00586336 0.00273075 0.0105718 -0.0265633 0.00762643 0.00359996 0.000643654 -0.0129478 -0.0159199
0.0309491 -0.011267 0.0283778 -0.0145049 -0.00161074 -0.0379099 -0.0244389 0.015374 -0.0317395 0.011003 0.0251093 0.00143703 0.0411145
0.0247193 -0.031993 0.000109744 -0.0341278 0.030045 0.00763696 -0.0360684 -0.0084433 -0.00737235 0.011172 0.0305006 0.0162095 0.00745687
-0.00855918 0.0193154 -0.037274 -0.00149998 -0.0216364 -0.00242559 -0.0075742 -0.0200555 -0.017534 -0.0280512 -0.00700638 -0.0167934 0.00782976
-2.13666 -0.914835 -0.0486446 -0.503698 2.66704 -0.10068 -0.642261 2.23354 -0.145787 1.14582 -0.814486 -0.62872 0.864112
-0.00441939 -0.0164401 -0.0142962 -0.0122122 -0.0257101 -0.0104972 -0.030899 0.0309654 0.0233116 -0.0326266 0.0246956 0.0234502 -0.00604928
-0.00974476 -0.0239875 0.00342734 0.0128059 0.031509 0.00742137 0.0360353 0.0233588 0.023688 -0.00935582 -0.00204806 0.00597117 0.0200708
-0.0257193 -0.01709 0.0184752 0.0116892 -0.0107827 -0.0291944 -0.0337445 0.0345741 -0.0279172 0.0419478 -0.0034084 -0.0348973 0.00809969
-0.0120833 0.0206537 0.0101237 0.030745 0.0262429 0.00207003 0.00344291 0.0180743 -0.00788475 -0.0333757 -0.0258736 -0.0290229 -0.000440544
0.0228224 0.0247164 -0.0213743 0.0102018 0.0166097 -0.0345188 0.00854142 0.0291834 0.0359442 0.0277726 0.0123072 0.02921 -0.00475102
-0.00306832 -0.0119025 0.0327753 -0.0101831 0.0184574 0.0192122 0.00680614 -0.0372162 -0.0127384 0.0185208 -0.0193992 -0.0223028 -0.00315144
0.00262893 0.0316315 -0.00541207 -0.0139334 -0.0177227 0.00700528 -0.00443792 -0.00468581 -0.00510924 -0.0239824 0.000228094 -0.0268007 0.0313192
-0.0145846 -0.130867 -0.172016 -0.251326 0.163164 -0.0924988 -0.00772703 0.0388344 -0.0305473 0.31771 -0.137398 -0.147341 0.0884034
-0.0324969 -0.0620517 -0.143643 -0.146669 0.13199 -0.0686044 -0.0251804 -0.0122951 0.0196253 0.194829 -0.0808689 -0.0485587 0.037754
0.0330578 0.0113622 -0.00190766 0.0356641 0.0318097 -0.00668021 -0.00897868 1.45068e-06 -0.0196648 -0.00420832 0.0251256 0.0147284 -0.0354473
0.0143401 0.0157891 -0.0399138 0.0254363 -0.00372882 0.0108294 -0.0383251 0.00350257 0.0306506 -0.032487 0.00636151 0.0232793 0.00545081
-0.0850594 -0.115067 -0.202271 -0.235413 0.187759 -0.0774935 -0.0136016 0.0121976 0.0280754 0.274526 -0.0811971 -0.154856 0.0964533
-0.0337046 -0.0712329 -0.0877673 -0.129354 0.111554 -0.0132215 -0.0236886 -0.0216262 -0.0134354 0.172219 -0.08008 -0.0494459 0.0241107
0.0144461 -0.0109442 0.0302676 -0.0387097 -0.0132831 0.00298167 0.0339519 0.0387846 -0.00614993 0.0219697 -0.038255 -0.0231298 -0.00405663
-0.00638598 -0.0377274 -0.0279365 -0.00235777 0.0265842 -0.013528 -0.0253999 0.0189992 0.0145259 0.0337783 -0.038526 0.00406 -0.0188773
-0.00722134 -0.0321898 0.0241803 -0.00516733 0.0378309 -0.0231258 0.00499746 0.0382521 -0.000338503 -0.0147183 -0.0249084 0.0261529 -0.000352144
-0.0188238 -0.0116823 0.0315299 -0.0222872 -0.0106726 -0.00212462 0.0116111 0.0276012 -0.0153609 0.022893 0.0237082 -0.00937215 -0.0317341
0.0131041 -0.0401069 0.0358745 -0.0343558 0.0156692 -0.0136522 0.0293211 -0.0238018 -0.0151919 0.0275292 0.0150641 -0.0301889 0.012585
-0.00749095 -0.0344838 -0.0105665 -0.0211935 0.00187343 -0.0150104 0.021692 -0.0298325 -0.00801755 -0.0280604 0.0259636 -0.0382042 0.0318518
0.00454436 -0.0317522 -0.0232634 0.00585273 0.0137643 -0.0251187 0.0155249 0.0245491 -0.00187557 0.0283585 -0.0286867 0.0101353 0.0150012
0.00166323 0.000214518 0.015694 -0.0127884 0.0482615 -0.00202761 0.00199137 -0.0237717 -0.02838 -0.00145042 -0.0381151 0.0257429 0.0483639
-0.026146 0.0112986 0.0107313 -0.00526774 0.00999904 -0.00620018 -0.0307943 0.028728 -0.000876234 0.0137171 0.0250072 -0.0257407 -0.00679838
0.0117339 -0.119235 -0.202351 -0.25003 0.145916 -0.0241795 -0.0272274 -0.0641837 0.0210839 0.263502 -0.145692 -0.157312 0.0652274
0.0259421 -0.0117587 -0.0375204 -0.0186106 0.0563712 0.0128644 -0.0365067 -0.00839159 -0.0159216 0.0689973 0.000420035 -0.0326523 0.0223383
-0.0341555 0.0325161 -0.0340428 -0.000920689 0.0264463 -0.0224845 0.0113797 0.0169866 0.00915956 -0.0226356 -0.0371196 -0.0127549 0.038554
-0.0139471 0.0160084 -0.0246796 -0.0150838 -0.0332303 0.0276138 -0.0273082 0.0365184 0.00181066 -0.0103091 -0.0193181 0.0182597 0.0279767
-0.00774698 -0.203979 -0.250088 -0.453791 0.0193016 -0.108681 0.00323515 -0.169907 0.0394154 0.486509 -0.257523 -0.242485 0.17179
-0.349874 -0.221757 -0.196069 -0.250515 0.538977 0.00142628 -0.038508 0.363193 0.0455212 0.363262 -0.210699 -0.212967 0.218152
0.000521231 0.0234409 0.0178788 -0.0187729 -0.021944 0.015761 -0.0170848 0.0230766 -0.0299653 -0.02974 -0.0179569 0.0225909 -0.0256702
-0.0149103 0.0179811 0.00975593 0.0105918 0.021308 -0.0233875 -0.0102299 0.0276259 0.0227835 0.0341222 -0.0196463 0.0361231 0.00937439
-0.0349549 0.000558105 -0.0326835 0.00881155 0.0476104 0.0145317 -0.0274386 0.018488 -0.0299119 0.0455054 0.00937795 -0.0359725 0.0150637
-0.00566328 -0.0114058 -0.00296435 0.00256828 0.038763 -0.00122885 0.00325352 0.0340332 -0.0213779 -0.00698558 0.00844992 -0.0295288 -0.0331432
-0.0223389 -0.011923 0.0109811 -0.034026 0.00239781 0.00572178 -0.0265985 0.0112099 -0.0241445 -0.00755 0.0114458 0.0318876 0.00979358
0.0202393 0.0228238 0.0161329 -0.0123175 -0.0178996 -0.0118218 -0.0367392 0.0185111 0.0340709 0.0325187 -0.0286754 -0.00752105 -0.0301682
0.0282762 -0.0268574 0.00685305 -0.0313193 0.0290696 0.0208445 0.0380138 -0.0323503 0.0331154 -0.00850696 0.033125 0.0111533 -0.0361885
-0.00136181 0.00515091 -0.0485683 -0.0258301 0.0256168 -0.0275168 -0.0421366 0.0530462 -0.0117701 0.0550271 -0.0594329 -0.0543829 0.00582806
-0.0342239 0.0263178 0.00627558 0.0282785 -0.0103436 -0.0342449 -0.0176027 0.00246131 0.00894485 0.0290316 -0.0326693 0.00475738 -0.0365453
-0.0261608 -0.0387501 -0.03436 0.0158774 0.0245849 0.0255509 0.0333238 -0.0136321 0.0141171 -0.00494877 -0.0274148 -0.0165996 -0.0104574
0.0122992 0.0160897 -0.0219681 -0.0361477 0.038629 -0.0373204 -0.00516354 0.0146191 0.0342772 0.0286404 0.0144824 -0.0385174 -0.02181
-0.0174913 -0.064326 -0.105254 -0.120461 0.076347 -0.0737095 -0.027021 0.00694651 -0.00494306 0.172303 -0.0478373 -0.109662 0.0197144
0.035106 -0.016721 -0.0452292 0.00893463 0.0120902 0.0224082 0.0276975 -0.0233291 0.00937587 0.0102599 0.0239139 0.00655827 -0.00250855
-0.0233235 -0.00118118 -0.0374616 0.00269152 -0.0337902 0.0260316 0.0227981 -0.00234503 -0.0262351 -0.0145893 -0.0261094 0.0113034 -0.027184
0.0354329 -0.000875093 -0.000598397 0.0290836 -0.0030206 0.0286606 -0.0204728 0.000301685 0.0172862 -0.0180291 -0.0339798 -0.0172178 0.0347652
-0.0482974 -0.0798262 -0.18997 -0.206287 0.164171 -0.0717682 0.0564571 -0.00470931 -0.0374211 0.305074 -0.0671358 -0.10443 0.12136
-0.000239109 -0.0060986 -0.00909961 -0.00569348 0.0362128 -0.0355276 0.0370487 -0.0309184 -0.0311454 -0.0191206 -0.0065752 -0.0383037 0.00338493
-0.0202298 -0.00575208 -0.0200433 -0.0130217 0.0018683 -0.0154955 -0.0374026 -0.00875752 0.0317755 0.0843378 -0.0024131 -0.0482102 0.00433112
0.0100654 -0.0141413 -0.0010905 -0.0317542 -0.0195843 0.0281315 -0.028483 0.026896 -0.000988544 0.039101 -0.0142234 0.0217015 0.00181023
-0.0466251 -0.0674458 -0.0999632 -0.152619 0.143035 -0.0217026 0.0354045 0.0345669 -0.0020121 0.24835 -0.0861149 -0.104752 0.0888733
0.00570758 0.030162 -0.0342779 0.00194292 -0.0156805 0.0107593 -0.00588308 -0.00345968 0.00799018 -0.0221831 -0.00329531 -0.0121939 -0.0358348
0.036613 0.00658979 0.0328907 -0.0365972 0.0374974 0.0310442 -0.0190977 -0.0149773 0.0361859 -0.029088 0.00887344 -0.0339403 -0.0191738
-0.0265423 -0.00701752 0.0105256 -0.0398414 0.00615423 0.0167523 -0.0342215 -0.0212425 0.0333309 0.0189645 0.0200712 -0.00807016 -0.0355829
-0.0313921 -0.0144441 -0.0226181 0.0054103 0.0110597 -0.0341123 -0.018814 -0.00977297 0.000131805 -0.00469396 0.0233077 0.00496405 0.0275829
-0.00574161 0.00545764 0.0333874 0.0281582 -0.00199709 0.00696551 -0.0344975 0.0204731 -0.000166964 0.0206327 0.03664 0.0268994 -0.0277303
-0.00684984 -0.0313062 -0.0423734 -0.0289092 -0.0105709 -0.038184 -0.0256909 0.0229185 0.0367437 0.0359765 -0.0376835 -0.044784 -0.0196007
0.000346121 -0.0236879 -0.0019945 0.0151518 -0.0251065 0.00508267 0.0305683 -0.000706358 -0.0269212 0.0313742 0.0332965 -0.0132747 -0.0234067
0.0191425 0.00845758 0.0200869 0.0182925 0.0252031 -0.0158514 -0.0350986 0.0403206 0.0266717 0.0179535 -0.0154741 -0.0226469 -0.0203036
0.0217515 0.0131282 0.030571 0.021214 0.0316303 0.00992758 0.0228248 0.00443697 -0.0303908 0.00751284 -0.00129203 0.0195243 0.00608362
-0.00380438 0.00197192 0.0134965 -0.0192594 0.0389775 0.0052116 0.0348093 0.0271926 0.0111319 0.0207318 -0.0261873 0.0341442 -0.0230054
-0.00610443 0.0329259 -0.0269903 -0.0225109 0.0197653 0.0113786 -0.0353647 -0.00913001 -0.0369477 0.0283495 -0.00392199 -0.0376822 -0.0300064
-0.0236282 0.0284171 -0.0270875 -0.0135331 0.0166563 -0.00598342 -0.00593976 0.0127116 -0.0221537 0.00536266 0.0285918 -0.0278117 -0.0269208
-0.00210637 -0.0214773 0.0291535 0.0151988 0.0137397 0.0161816 0.0282365 -0.0043964 0.00810729 0.0103992 -0.0379716 0.0120726 -0.0200822
-0.0487028 -0.105837 -0.221106 -0.190469 0.18602 -0.0671175 -0.00596378 -0.0255218 -0.0141649 0.325544 -0.0994818 -0.141393 0.0746996
0.0256883 -0.0253939 0.0136225 0.0191508 0.0105682 -0.0368311 0.0356295 0.0278052 0.0101949 -0.0180008 0.0113131 -0.0298068 0.00731151
0.00266978 -0.0464587 -0.115429 -0.168789 0.134177 -0.0193137 -0.0201237 0.000959115 0.0336062 0.193731 -0.101325 -0.118602 0.037107
-0.00323724 -0.0263264 -0.0586495 -0.0763177 0.0530516 0.0182446 -0.0398754 0.0565344 -0.00822593 0.0970155 -0.0263294 -0.0731529 0.0669028
-0.0570069 -0.0793756 -0.0391345 -0.0944293 0.0744001 -0.0527492 0.0347005 -0.00331647 -0.015485 0.120842 -0.0552576 -0.0336802 0.0639954
0.0106749 -0.0251269 -0.0322521 -0.033432 0.0207655 -0.00945662 -0.00599801 0.0212721 0.0063512 -0.0155845 0.0362214 0.00481174 -0.0264699
-0.0233418 0.0279043 0.0378606 0.00634332 -0.0331341 -0.00654086 0.00918995 0.00622296 -0.011744 0.0245192 -0.0177683 -0.0185697 0.0209237
0.00622897 -0.0841004 -0.0846068 -0.0917775 0.0424346 -0.00147969 0.0268713 0.0282195 0.00571373 0.150118 -0.0999925 -0.0665539 0.0620164
0.0343044 -0.0143522 0.00288998 0.0122337 -0.0169236 -0.0204175 0.00708637 0.0124316 -0.0326733 0.0183861 -0.0335988 -0.00305666 0.0265301
0.00419051 0.0286245 0.0172518 0.0349606 -0.0295111 0.0309716 0.0127 -0.00494484 0.0331236 0.00809737 -0.00304857 -0.029188 0.0156683
-0.0635635 -0.0584777 -0.111752 -0.161414 0.117276 -0.0464179 0.0311492 0.0294793 0.0103915 0.156871 -0.0964197 -0.0979123 0.0439105
-0.0461565 -0.0145615 0.000223473 -0.0127417 0.0260731 -0.0365214 0.0319883 -0.00415359 -0.0156673 -0.00331091 -0.0460182 -0.0265531 0.0454304
0.0150178 -0.159484 -0.247211 -0.32289 0.161835 -0.0422364 -0.000196531 -0.103775 -0.0210631 0.421982 -0.163046 -0.196736 0.0990532
0.0320146 -0.0158608 -0.050221 -0.0519722 0.0104417 0.023594 0.00400653 0.0309838 -0.0344172 0.0122479 0.0231434 -0.0172237 -0.0212246
-0.0191177 -0.031679 -0.0335074 0.02732 0.0302919 0.00782015 -0.0273593 -0.00910606 -0.037848 -0.0276366 -0.0128071 0.0235113 -0.0311704
-0.0215707 0.0327344 -0.0167162 -0.0133005 0.000325843 -0.0221921 -0.00244669 -0.0364114 0.00690895 -0.00515023 -0.0308011 0.00312666 -0.0057164
-0.0314688 -0.0119981 -0.010592 0.00233685 0.0103679 -0.0228703 -0.0233649 -0.00246601 -0.0288337 0.0321413 -0.047281 0.0130109 -0.0192186
-0.0633491 -0.098303 -0.176544 -0.204774 0.150767 -0.0248505 -0.00774729 0.0160988 0.00686376 0.265231 -0.092801 -0.181 0.09665
0.011933 0.0121352 -0.00902291 0.0281475 -0.0113228 -0.00962566 -0.0221446 0.0393235 0.0258734 0.00765608 0.0180177 -0.0252615 0.0217157
0.0259799 0.0169334 0.00673394 0.0249812 0.00910567 -0.0338122 -0.00816212 0.00587231 0.00388111 -0.0131567 -0.0303391 -0.0074671 0.0318987
-0.00538054 0.027842 -0.0015627 0.00938045 0.0153113 -0.00561699 0.000840193 0.0276686 -0.0317853 0.00668248 0.00564062 0.0155306 -0.0146063
0.0292068 -0.00586717 0.0150395 -0.0034893 -0.00483435 0.0273772 0.0186354 -0.0266716 -0.0133234 0.0309353 0.0163186 -0.0211169 -0.00263061
-0.010771 -0.0273749 -0.0382962 0.0182221 -0.0322255 -0.0223715 -0.0141546 0.0234899 0.0332699 7.30456e-05 0.0264089 0.00165626 0.0364288
-0.0120119 -0.046856 -0.0618963 -0.0440735 0.0850146 -0.0458954 -0.0301738 0.0418136 -0.0120559 0.0638407 -0.0238696 0.00202066 -0.000753055
-0.0352401 0.0133885 0.0353555 -0.04114 -0.00569281 0.00801289 -0.000210757 0.0211184 0.0164669 0.0320693 0.0236298 -0.020987 0.0144214
-0.0326861 -0.079883 -0.143889 -0.157658 0.136368 -0.0746564 0.0283745 0.049244 -0.0347391 0.207888 -0.0925862 -0.055297 0.0564135
-0.0800113 -0.0479151 -0.12758 -0.191012 0.110822 -0.0631556 0.00261973 0.0405502 -0.0265857 0.269828 -0.105047 -0.123838 0.0845711
-0.0130516 -0.0285296 -0.082078 -0.0823182 0.0783445 -0.0613898 -0.0321979 0.0363767 0.0364238 0.115696 -0.092936 -0.0505388 0.0280474
0.0329995 0.00671247 0.0362435 -0.0362607 -0.0268089 -0.00438507 -0.0307117 -0.030087 -0.0335211 0.0332478 -0.0244666 0.00733059 -0.0168257
0.0343223 0.00217454 -0.0236999 0.00382924 0.0111872 4.79228e-05 -0.0226537 0.0238773 -0.0112247 0.0390339 0.0163283 -0.02115 -0.015574
-0.0128662 -0.0286035 0.0199413 0.00151961 -0.00446199 -0.0266191 0.0362584 -0.0160439 -0.028999 0.0392803 0.0246042 0.0266535 0.00599699
0.0331081 -0.0258225 -0.00979394 -0.0238269 -0.0363595 0.0155902 0.0195537 0.00143446 -0.00575367 -0.000922705 0.0370292 0.0306555 0.0239654
-0.0642702 -0.0362078 -0.0128567 -0.0234032 0.0723082 0.00340338 -0.0299385 -0.0125172 0.0076607 -0.0100594 -0.0136653 -0.0366971 0.0523279
-0.000244242 0.02714 0.0292241 -0.0469663 0.0166799 -0.0215809 0.033785 -0.0297475 -0.027368 0.0440836 0.00846672 -0.0373648 0.0225833
-0.0296443 -0.0208579 0.0172066 0.0127148 -0.0148575 0.0163002 -0.02036 0.00211463 -0.0210098 -0.0252837 -0.034969 -0.0346796 -0.0175605
-0.054381 -0.0788669 -0.193832 -0.216519 0.179965 -0.0798819 0.0242528 0.0241067 0.0250798 0.299487 -0.0967719 -0.1539 0.0543176
-0.017802 -0.0232702 -0.0208721 -0.0275835 0.036271 0.00982418 0.0219918 0.0354588 -0.0122901 -0.0069585 0.0316617 -0.00922409 0.0186641
0.00246074 -0.0443812 -0.105443 -0.0835966 0.0351646 -0.00108458 -0.0268276 0.0107304 -0.0174364 0.125903 -0.0337825 -0.0637927 0.018004
-0.0402516 -0.0108059 0.0106325 0.0157084 0.00829241 -0.0317417 0.0177662 -0.0206188 0.0175361 0.0112559 0.0279178 -0.0338796 -0.00937081
-0.0230535 -0.0298201 0.034824 -0.00836345 0.000146127 0.0205494 -0.0306316 -0.0337353 0.00944426 0.0140142 0.00850785 0.00582164 0.00319421
0.0102096 -0.036443 0.00807239 -0.0025037 0.041507 -0.0379925 0.0185636 0.0351367 0.0152255 -0.00446738 -0.0334001 0.0073413 0.00530704
0.0212943 0.0257326 0.000942566 -0.00140327 -0.00818311 -0.00620954 -0.0143735 -0.0206598 -0.0182079 0.00439847 -0.0146399 -0.0152352 0.0115298
-0.00870823 -0.0385317 -0.0168446 0.0077137 0.0461481 -0.0139027 0.0154429 -0.00192199 -0.0315331 0.0361124 0.0187775 -0.0322888 0.0213315
-0.157659 -0.0429722 -0.050162 -0.113337 0.208672 -0.0371349 0.014066 0.10437 0.0237245 0.113721 -0.0356289 -0.0684525 0.030467
-0.0338144 0.0305315 -0.0301728 -0.0338717 0.0352709 0.035019 0.0186863 0.0224279 -0.0328006 -0.0282417 -0.0204556 0.0244222 0.0258053
0.0357716 0.000546202 -0.00819073 0.0318874 -0.0182363 0.0218172 0.0384082 -0.0242137 0.0217851 -0.0198569 -0.0188611 -0.030995 0.0220753
0.0110117 0.00456806 -0.0183237 0.00639603 -0.0269451 0.0363564 -0.0203619 0.021362 0.0041002 -0.00797651 0.0178128 0.0119339 -0.0289288
-0.0352566 -0.0200183 0.000160389 -0.0276286 -0.0192624 -0.00644122 0.0152243 0.0183885 0.0248568 0.0271136 0.015089 0.0256397 0.00339692
-0.0505993 -0.0238044 -0.0724508 -0.0505766 0.0800099 -0.0288001 -0.0250557 0.101526 -0.035393 0.0705268 -0.064245 -0.0813803 0.0747517
0.00294038 0.0110737 0.035449 0.00564064 0.0173662 -0.0244545 0.0250055 -0.0096043 -0.0379936 -0.0123784 -0.0155409 0.023429 -0.0137807
0.00229201 0.0165586 0.0279218 -0.0159502 0.0307882 0.0133222 0.00992941 0.0164077 -0.000239605 -0.026703 0.0118279 -0.0101148 0.011341
-0.0364321 0.0273646 0.0240947 0.00567556 0.0380668 0.00159742 -0.0141545 -0.0322051 -0.0198682 0.0318574 0.0270861 -0.0251674 0.0345076
-0.00421597 -0.0305757 -0.00920332 -0.0218623 -0.0272325 0.034908 0.0292475 0.0134193 0.0165421 0.0160151 0.00546942 -0.00542714 -0.00437118
-0.0350656 0.00427053 -0.0621302 -0.0350527 0.0327999 -0.033318 -0.0101259 -0.0271846 0.00384938 0.0504367 -0.029891 -0.0288951 0.0258396
-0.0292674 0.0335526 -0.0108745 0.00419738 0.013026 -0.0311517 0.0345668 0.0381801 0.0241196 -0.00383637 0.0116656 -0.0159331 0.0408191
0.0372299 0.0152358 -0.00361995 -0.0322504 -0.0159158 0.00456828 0.0319262 0.0252463 -0.0218406 0.00198703 0.0347379 -0.0136377 -0.0247938
-0.0367647 -0.0108594 -0.0151673 -0.0597561 0.0138794 -0.0219865 -0.0335286 0.0270872 -0.027912 0.0733088 0.0252856 -0.0301415 -0.0181702
0.0265447 -0.0119707 -0.0359198 0.0201197 0.0225678 0.00814813 -0.00526862 0.00126019 0.0241592 0.0223395 -0.00200767 0.0227896 -0.0124125
-0.0217589 -0.0118224 0.0308923 0.00298585 -0.0346322 -0.00569814 -0.0322006 -0.00186862 -0.0280483 0.0138647 0.0115252 -0.00912888 -0.00924728
0.0252284 0.018259 -0.00451309 0.0183609 0.00428942 -0.000472553 2.12927e-05 -0.0119949 -0.00637497 -0.0133635 -0.0311365 0.00894397 0.0190288
-0.0232158 -0.0284627 -0.0267025 0.0209227 0.00947574 -0.025804 0.0271562 0.0338617 -0.0125468 -0.00497928 -0.0125122 0.0148346 0.0299287
0.0159738 0.0291367 -0.0306765 -0.0427726 -0.0197011 0.00175862 0.00112311 0.020137 -0.0367087 0.0289644 0.0295291 0.0228972 -0.0166812
-0.0321535 -0.085668 -0.0622027 -0.0804734 0.137068 0.00758749 -0.0315373 0.00403845 -0.0282585 0.113801 -0.0944827 -0.0470464 0.0313012
0.0324938 -0.00989437 -0.0109921 0.0185785 0.0361644 0.000864043 0.0273782 -0.0210908 0.0305532 0.0395753 0.00150666 -0.0181237 0.0335546
-0.00611784 0.0257162 0.00130644 0.0192422 0.0318126 -0.00406715 -0.0204658 0.0346804 -0.011324 0.0316849 0.00609656 0.0350932 0.0114573
0.0258247 0.0338454 -0.0197584 0.0269533 0.0260524 -0.0196301 -0.00982497 0.021583 -0.0384338 -0.0305206 -0.0365065 -0.00545556 -0.00651379
0.0195164 -0.0395526 -0.013921 0.0085295 -0.0275802 0.00293788 0.0101397 0.00597481 -0.0370057 0.00429026 -0.0229962 0.0273891 -0.00747987
-0.0205374 0.00127205 -0.0765809 -0.0967267 0.0655629 -0.053673 0.0319044 -0.0234275 0.0114225 0.0801098 -0.0439874 -0.037033 0.0430921
-0.0259742 0.015634 0.00538633 -0.0286857 0.0178072 0.00690476 -0.0373627 -0.032602 -0.0307491 0.0435608 -0.0225384 0.0200964 0.0142486
0.0225484 -0.00659473 -0.00484712 0.0150059 0.039136 0.0177865 0.0116743 -0.000495538 0.0104558 0.0228171 -0.00163803 0.00900187 0.0311022
0.00497485 -0.0130672 -0.0115886 0.00416499 0.0226807 -9.03416e-05 -0.000172057 -0.0323637 0.00471214 -0.017246 -0.0286866 -0.00844514 0.000332166
-0.0196027 0.0190994 0.0234704 -0.00334424 -0.0124386 0.00637087 0.0126246 -0.0243223 -0.0345837 0.0459077 0.0246709 0.023138 -0.0215295
-0.0285911 0.0275575 -0.0376842 -0.0202659 -0.0278223 0.00158651 0.0211974 0.009974 0.0208504 -0.0327708 0.0339462 -0.0355971 0.0249974
-0.0251843 0.0120952 -0.0363639 -0.0282515 0.0312402 0.00181399 0.0248828 -0.00118688 0.0354923 0.0440867 0.00153977 0.0340549 -0.0150207
0.020892 -0.0341367 0.0025113 -0.0362278 -0.00906924 0.012041 -0.0369251 0.00976169 0.0140777 0.00529014 0.0332812 0.0275967 -0.0372603
0.00504178 -0.00299034 -0.0217034 -0.02184 0.0286884 0.0251871 -0.00943682 0.00847715 -0.0376991 -0.030969 -0.0340018 -0.0298068 -0.00721776
-0.0525251 -0.0578556 -0.03692 -0.055937 0.0497297 -0.0118564 0.0225726 -0.0101369 0.019946 0.0456783 -0.0290888 -0.0101121 0.00580215
0.0222957 -0.00281067 0.00250531 -0.0660282 0.0558592 0.00535192 -0.0368304 0.000246861 0.0143497 0.0491734 -0.0188639 0.00569816 -0.00551928
0.0175092 0.034159 -0.0244914 0.0307523 0.0325248 -0.0110525 -0.0266487 0.0382495 -0.0140607 0.0168089 -0.0275017 0.0218219 -0.0275755
-0.00860964 -0.021402 -0.0140002 0.00964081 0.0229876 0.0199152 0.0371334 0.0132378 0.00975377 0.0174944 0.0342757 0.0174042 -0.0280981
0.0220965 -0.0296736 -0.0118076 0.00372019 -0.032364 0.0266472 0.0168064 0.0111314 0.0303115 0.0277236 -0.0331139 0.0365835 -0.0165031
-0.0142668 0.0367009 0.0260389 0.0268279 -0.0229588 0.0343669 0.0237098 0.0387606 -0.0343348 0.0162314 -0.0185616 -0.00520981 0.0306476
-0.0179447 0.0239075 -0.0385705 -0.0328051 -0.0295447 0.0316027 -0.0224185 -0.00215232 -0.00730167 0.0382172 -0.0228752 -0.0213283 0.0193733
-0.0273919 -0.0424629 0.00279398 -0.0290894 0.0548051 -0.0196703 0.00948014 0.0164911 -0.0168613 0.0121046 -0.00330045 0.0110302 -0.0110142
0.00382775 0.0083188 -0.0348692 0.0298448 -0.00442116 0.0172701 -0.000732326 -0.00513408 0.013258 0.0383841 0.000401701 -0.00134272 -0.0224852
0.00248198 -0.0211241 -0.0993426 -0.05951 0.0914029 -0.0571133 -0.0225516 -0.0125679 -0.0252835 0.125926 -0.0374319 -0.0551025 0.0701559
-0.0181506 0.00650524 0.00104493 0.0159426 -0.00100794 0.00573046 -0.0232924 -0.00513184 0.0344615 0.0378514 0.0069208 -0.0150419 0.0236407
0.0191864 0.0045755 0.00970916 0.000149726 0.0386935 0.0366842 0.0254941 -0.00359037 -0.0231539 -0.0026256 -0.0156353 -0.0192927 0.0144676
-0.0281744 -0.0254232 -0.0422872 0.0144196 0.0128597 0.00966309 0.0369812 -0.0112224 0.0285291 0.0616506 0.0177562 -0.0203622 -0.0246772
-0.0218153 -0.0210711 0.00253234 0.00727893 0.0137636 -0.0284781 -0.0208596 -0.0254401 0.0216893 0.00224117 0.00593221 0.00168784 0.00259559
0.0197428 -0.0383813 -0.0183157 -0.0252838 -0.0303522 -0.0356897 -0.000539922 -0.0102671 0.0179875 -0.00831017 -0.0278294 -0.00525736 -0.0292676
-0.0232447 0.034603 -0.0212707 -0.00317016 0.0254159 -0.0188527 -0.0193706 -0.0205499 0.0125317 -0.00348823 -0.0200961 0.00337117 -0.0372985
-0.0272982 0.0267844 -0.00707992 0.00778863 -0.00826304 0.0278505 0.0353278 -0.0215087 -0.0321106 -0.0182645 0.0159319 -0.0148426 0.00911192
0.00894402 0.00950171 -0.0145622 -0.0231919 -0.00575166 0.00127499 -0.0214123 0.0297013 -0.0118697 0.0026693 -0.0152685 -0.0353023 -0.0228673
0.035905 0.0199859 0.0352695 0.0201499 0.0221764 -0.0251461 -0.036449 -0.0275803 0.0101898 0.0246983 -0.00654973 0.0321027 -0.028676
-0.075526 -0.0876293 -0.0971362 -0.148586 0.114208 -0.0028981 0.0134812 0.0593837 -0.0211524 0.178218 -0.101503 -0.0615386 0.0477323
0.00862722 -0.0124335 -0.034099 -0.0341171 0.0139425 -0.00977478 -0.00418608 0.018698 -0.0291799 -0.00605917 0.0054648 0.0336128 0.0178844
-0.0328891 0.0250244 -0.020042 0.0191877 -0.0301888 0.0121844 0.023978 -0.0189865 -0.01113 0.0241604 -0.0283896 -0.0130057 -0.00348673
-0.0124701 0.0166707 -0.0294282 0.0127505 -0.0105577 -0.0347612 0.0195373 0.0393869 -0.0320759 0.0323414 0.0269278 -0.0249033 0.0400344
-0.0215107 -0.0028914 0.0368653 0.0166722 -0.0235538 -0.0188324 -0.020138 -0.0134429 0.0347136 -0.0357059 0.02861 0.0258748 0.0303123
-0.0220404 0.0108546 0.0323643 -0.0175288 0.0329562 0.0151197 0.0225312 0.014134 0.0102088 0.0352163 -0.0243287 0.00182152 0.00520755
0.0225762 -0.026054 -0.0306757 -0.0179141 -0.00765959 0.0116304 0.0148941 0.0392844 0.0241957 0.0578714 -0.0357857 -0.0242447 -0.0234985
-0.0471382 -0.138645 -0.205728 -0.191838 0.193172 -0.0719349 -0.0112146 0.0385219 -0.022413 0.277931 -0.138521 -0.134797 0.0825261
-0.00946026 -0.0263305 -0.0244134 0.0360808 0.035404 -0.0217028 0.0189083 -0.00999684 -0.0323823 -0.00497366 0.0259708 -0.0172775 0.0380564
0.0293 -0.0109299 0.0157083 -0.0340773 0.032031 0.0084912 -0.0129011 -0.0302404 -0.0114053 0.0355882 -0.00747901 -0.00210368 0.0223664
-0.0106573 -0.0392978 0.00266871 -0.0196562 -0.00529524 0.00754568 -4.48437e-05 -0.0249274 -0.0230589 0.0408771 -0.0166923 -0.038545 0.0140073
-0.237623 -0.152352 -0.203133 -0.285938 0.355845 -0.0122061 -0.0920243 0.199196 0.0765132 0.390318 -0.282146 -0.179596 0.151444
-0.0127417 0.0146453 -0.0381505 -0.00677793 0.0228652 -0.0274821 0.0319754 -0.029353 0.0357098 0.0299798 -0.0303457 0.00415058 -0.00643589
0.00412592 0.0155731 -0.0347848 -0.0277165 -0.00764116 -5.63041e-05 -0.0260056 -0.0341553 0.0248986 -0.0267446 -0.0157313 -0.00918259 0.0131233
-0.0297647 -0.000571905 0.0145263 -0.0336795 0.00755557 -0.0158455 -0.0281588 0.00401075 -0.00534907 0.00207277 0.00494945 -0.0362727 0.0137373
-0.0229855 -0.0409118 0.0108302 -0.032926 0.0121867 -0.0183118 -0.0191591 -0.0132241 0.0024455 -0.0257495 -0.0376813 -0.0303556 0.0335988
-0.0482125 -0.0621496 -0.110445 -0.0897881 0.0733691 -0.00902074 0.0147069 0.0262479 -0.0285997 0.142435 -0.0642262 -0.0270112 0.0728291
0.0326238 -0.0260774 0.0115559 -0.0228717 -0.0135996 0.0174969 0.0381002 -0.0219307 0.028201 -0.0292603 0.0139711 0.0252056 -0.0358928
0.0227328 0.0276408 -0.0238944 -0.0300332 0.0125973 -0.00891114 0.031731 -0.00801448 -0.00218706 -0.0162124 -0.0181085 -0.0342336 0.00500357
0.0282326 -0.0224109 -0.0171482 0.026779 -0.0281455 -0.026312 0.0240863 0.0249502 -0.00444194 -0.013137 -0.0345222 -0.00966358 0.0260592
0.0339457 -0.029334 -0.009634 0.0123807 -0.0257687 0.0127401 -0.0259877 0.0387326 -0.0266577 -0.0145776 0.0187788 0.0369191 -0.0299073
-0.0233545 -0.0404028 -0.015095 -0.0046835 0.0264157 -0.0229225 0.0192188 0.0116584 -0.0390107 0.0521521 -0.0371452 -0.0254524 -0.0172472
0.0265552 0.00345221 -0.00457351 -0.00062081 0.0327406 -0.010341 0.0308545 0.0281857 0.015202 -0.00276283 -0.0360269 0.0338722 -0.000744698
0.0299537 -0.0275983 0.00618159 -0.0241424 0.021566 0.00896915 0.0130023 0.0188695 0.0378162 -0.0257689 0.00205232 0.0311978 0.0169361
-0.031456 0.0208349 -0.0228195 0.0230194 0.0142712 -0.00444069 -0.0118518 -0.0363639 -0.0127134 0.0144553 0.0319341 -0.0217621 -0.0280941
0.000545966 -0.0238726 -0.0375969 -0.0432668 0.0178754 0.00860173 0.0249434 0.0247804 -0.0218797 -0.00495199 -0.0192402 -0.0271467 0.0190697
0.00783003 0.0325944 0.0190867 0.00926316 0.0080473 -0.0145213 0.00717606 -0.020593 0.000236945 -0.000720495 0.000366391 0.0074784 -0.0349988
-0.0391298 -0.0270126 -0.0362556 -0.0373952 0.0179589 -0.0366773 0.026976 0.0094399 -0.0377428 0.00393046 0.0344975 -0.0275654 -0.0223408
0.0168468 -0.127433 -0.199351 -0.295882 0.158898 -0.0456729 0.00839571 -0.0401906 -0.0213292 0.350807 -0.172406 -0.191265 0.11134
-0.00864634 0.0181942 0.000343897 -0.0138584 0.000192445 0.0083013 -0.00877797 0.0258812 0.0301798 0.00169487 -0.037162 -0.0319732 0.0300746
-0.0718628 -0.101664 -0.139219 -0.139804 0.0887625 -0.0393304 0.0253797 -0.00286596 -0.0206362 0.221659 -0.0758251 -0.0849089 0.0583657
0.0258538 -0.0366101 0.0127891 -0.0197075 -0.0147198 0.00789476 0.00857724 0.0268932 0.0108708 -0.020979 -0.0152398 0.0265497 0.00417355
-0.0693933 -0.0764625 -0.203239 -0.192666 0.140208 -0.0642987 -0.0355532 0.0547024 0.0230344 0.273438 -0.128958 -0.121661 0.131132
0.0109584 0.0197032 0.0247157 0.0191662 0.0314652 -0.0321486 0.0214739 0.0131027 -0.0138962 -0.00993668 0.0156877 -0.0102759 0.0161514
-0.0273283 -0.0744091 -0.0669544 -0.0933415 0.062874 -0.0115215 0.0273053 0.0453921 -0.0235007 0.152175 -0.096277 -0.0431915 0.0393006
-0.0156725 -0.126869 -0.243666 -0.367052 0.0364426 -0.117466 -0.0168311 -0.126885 -0.000267778 0.395884 -0.225584 -0.229661 0.127917
0.0171295 0.0098867 0.0355228 0.0154073 0.0246807 0.00877821 -0.012442 0.00183948 -0.0155261 0.0150483 0.0153707 -0.0253928 -0.00213102
-0.0272328 -0.00785081 0.0109285 0.0361218 0.0108393 -0.00521116 0.00242816 -0.00672805 -5.87144e-05 -0.0312251 0.0242664 0.0362891 -0.00980556
-0.0272057 -0.0016414 -0.0399504 -0.0435203 0.0027332 -0.0112026 -0.0312336 -0.000934492 0.0315687 0.0306829 -0.0281825 0.00932164 0.0246473
-0.0148251 -0.0288202 0.0199649 0.0309881 -0.0294305 0.0305024 -0.0302369 0.0190443 -0.0362574 0.0118794 0.00409458 -0.00077785 0.00750712
0.0364475 -0.0135675 0.0298841 -0.0193853 -0.0034676 -0.000459024 -0.0199988 -0.00635442 -0.0134362 0.018058 -0.00255084 -0.00762732 0.0249222
0.0137507 0.0139076 -0.00738808 0.0264969 -0.00615398 -0.0385916 -0.0299968 0.0244407 -0.023136 0.0125431 0.0165676 0.0209013 0.035551
-0.00868987 0.019994 -0.0339126 0.0153542 -0.0186734 -0.0143864 0.0120571 -0.0213731 0.0170977 0.0393716 0.0181511 -0.0153103 -0.0211586
-0.02013 -0.0340022 -0.00507192 -0.0369711 0.0376312 0.0287436 0.0164776 -0.00946824 0.0150693 -0.0323277 0.00785157 -0.024434 -0.0098526
-0.0182984 -0.00735037 -0.00233028 0.0260888 -0.000551712 -0.0311771 0.000641557 0.0377912 -0.0366787 -0.00295587 -0.0167088 -0.0222714 -0.00688284
0.0199241 -0.0418959 0.0277308 -0.0409218 0.00305506 0.00661706 -0.00682747 0.032807 -0.0240669 -0.00204175 0.0334417 -0.0202595 0.0292586
0.00263599 -0.02686 -0.0298258 -0.0306495 0.00070693 -0.0374731 -0.03334 -0.0183028 -0.021252 0.0120836 -0.0251876 0.0167685 0.0324845
0.00596719 -0.0535338 -0.0871865 -0.055504 0.0779722 -0.0499616 -0.0199947 -0.0142973 -0.0174383 0.136701 -0.0593171 -0.0805879 0.0579112
0.0200346 -0.0120821 0.0313358 -0.0118332 0.0321288 -0.0152195 0.00714895 -0.0221683 0.00719568 -0.0283568 0.0206661 -0.0128847 0.0359204
0.0352639 -0.0188481 -0.0347383 0.0328683 0.0223993 0.0352195 -0.00977416 0.0277024 -0.0134443 -0.00171585 0.0356228 -0.0396275 -0.0138603
0.00650365 0.0247755 -0.0296051 -0.0228201 0.0413891 0.0307183 -0.033356 -0.0225684 0.0130051 0.0249857 -0.0207563 0.0190008 0.0428355
0.00129104 -0.0239511 -0.00956734 -0.0599163 0.0256818 -0.0413164 -0.0126474 -0.0343111 0.0352208 0.0139503 -0.0431004 -0.00537734 0.0513648
-0.025131 -0.00646607 0.0175591 0.0132286 0.0199166 -0.036332 -0.00011052 0.0292111 -0.0255648 0.0158963 0.0205205 0.0297839 -0.03008
-0.0138542 0.0115415 -0.0103723 0.0346645 -0.00651656 -0.0142379 0.00424921 0.0350357 -0.0287211 0.0177418 -0.0199845 -0.0122079 0.000213973
-0.0368734 0.00202579 -0.025552 -0.0273033 -0.00471857 -0.0240144 -0.00502794 -0.00894825 -0.000255745 -0.0197321 -0.0328938 0.0258502 -0.00785581
-0.158861 -0.173349 -0.196419 -0.292021 0.334642 0.0129802 -0.0675678 0.179622 0.0571472 0.348478 -0.19505 -0.161296 0.107335
0.0718642 -0.18663 -0.310469 -0.417414 0.0886252 -0.0532971 0.0244352 -0.160954 0.00588315 0.532739 -0.264653 -0.232236 0.0868957
0.00805896 -0.000733442 -0.041629 -0.0228745 0.0049535 -0.0164997 0.00873619 -0.00760144 -0.000623548 -0.0156875 -0.0386941 0.0159825 -0.00839431
0.000559494 0.017767 -0.020638 -0.00354724 0.0220607 0.00543979 0.0132063 0.0312876 -0.032795 -0.0261951 -0.0039855 -0.0182403 0.0143747
-0.000149337 -0.065837 -0.107046 -0.0946207 0.0468998 -0.0332017 -0.000176654 -0.0418838 0.00469858 0.168266 -0.0551638 -0.104753 0.0618715
-0.0171319 0.0115575 0.0155423 -0.0393302 0.0265782 -0.00742331 -0.0212005 0.0179381 0.0314552 0.00501373 -0.0104464 0.0233271 -0.0275343
-0.0166581 -0.126998 -0.194214 -0.191922 0.143637 -0.0353925 0.00959513 -0.00165868 0.00578812 0.299749 -0.0700895 -0.120825 0.103469
0.0310581 -0.0062639 -0.031686 0.0145403 -0.013978 0.0163154 0.00681408 0.0253084 -0.0276903 -0.000893687 -0.0142936 -0.0091382 -0.0145621
0.0133868 -0.00228268 -0.0300364 -0.036062 0.0310907 -0.0217257 -0.0213854 0.00286668 -0.0303839 0.00794854 -0.0383389 0.0111614 0.0229062
-0.0099528 0.0319647 0.0160176 -0.0332065 0.0262302 -0.0188177 -0.00822907 -0.00873195 0.030269 0.0404938 0.00631295 -0.00183296 -0.0292616
0.0307019 0.0276341 -0.00507184 0.019356 -0.0226317 0.0335675 0.00347283 -0.0353764 0.00484129 0.0304603 0.00621766 0.0349408 0.0299045
0.00834976 -0.0334581 -0.0266048 0.00838328 -0.00884009 0.00715461 -0.0299999 -0.00468864 0.00417947 0.00920622 -0.0171014 0.0258577 -0.00602266
0.0143324 -0.0358931 -0.0344156 0.0292782 -0.0272731 -0.02174 -0.0134664 0.0169554 0.0184162 0.0237345 -0.00723951 0.00363959 0.0228499
0.019458 0.0130223 0.0106444 -0.0311434 -0.0182008 -0.0138179 -0.00840024 0.0324988 -0.0256652 0.02598 -0.0269961 -0.00472507 -0.00183963
0.00180901 0.0298419 0.0216636 -0.00275569 0.0231559 0.0107523 -0.0354647 0.0331017 -0.0289239 0.0303999 -0.0123623 -0.0203883 0.000772159
-0.0409472 -0.0169213 -0.0577476 -0.0233862 0.0419941 -0.0547418 -0.0278858 -0.01413 -0.0140407 0.110767 0.00531466 -0.0241791 0.0059412
-0.0169476 -0.0571247 -0.118926 -0.0980517 0.0977724 -0.0707808 -0.0126802 0.0014472 -0.0140421 0.112683 -0.0412555 -0.06794 0.0829933
-0.0175493 -0.0551991 -0.0443074 -0.0680619 0.0411483 0.0041202 -0.0244399 -0.0119788 -0.0253377 0.0358682 -0.0628227 -0.00101343 0.0512266
0.0258921 -0.0231903 0.0135336 -0.0332592 0.0379694 0.0178852 -0.00984292 -0.00416958 0.035542 -0.0339154 0.0246058 -0.00728525 0.0203398
-0.0104829 0.0365544 0.0251107 -0.031504 0.00012913 0.0242759 -0.0168079 0.0315218 -0.015712 -0.0204271 -0.0340403 -0.0031937 -0.00437388
-0.0162804 -0.122796 -0.187424 -0.229187 0.174706 -0.0645297 0.0400476 0.0342693 -0.00113489 0.322822 -0.0879375 -0.118843 0.0526096
-0.0264071 -0.0255569 -0.0225652 -0.00172506 0.0401703 -0.0285511 -0.00673543 -0.0357997 -0.0343836 0.00118464 0.012095 0.00568641 0.0247085
-0.00186577 -0.038976 -0.0224907 -0.0311223 -0.00118902 -0.0221864 -0.0295898 0.00326356 -0.00677434 0.0145733 -0.0146914 -0.0302894 0.0415522
0.0196639 -0.0204933 -0.0130907 -0.0276832 0.0258237 0.0267489 0.00710875 0.0208484 -0.00608243 0.0476398 -0.0371971 -0.0138817 0.0231037
-0.0166461 0.00363324 -0.00352773 -0.0295794 -0.0239517 -0.0296124 0.0172577 -0.0242924 0.0254071 -0.00176475 0.00688025 -0.0253549 0.0372576
-2.05921 -1.19209 -0.0228846 -0.607157 2.45974 0.0353902 -0.256686 1.86237 -0.109248 0.770644 -0.874012 -0.756292 0.747544
0.00428697 -0.00167577 -0.0268106 -0.00928567 0.014633 0.0282618 -0.0112472 -0.0338314 0.00758427 -0.00543567 0.0124812 0.0244039 -0.0370476
0.0177482 -0.00469215 -0.02548 -0.00901799 -0.0241311 0.0191612 0.016766 -0.0266599 0.0200659 -0.0323173 0.0344171 -0.028353 -0.023894
-0.0019692 0.00280485 -0.0636178 -0.0425268 0.0174662 -0.00310296 0.00931955 0.0143795 0.031655 0.074201 -0.0451272 -0.00506521 -0.00912906
-0.0214341 0.0164244 -0.0226202 0.00848543 0.0147403 0.00449744 -0.00697234 0.0375961 -0.018447 0.0232314 0.0272383 0.029114 0.0222511
0.0223556 -0.181733 -0.283756 -0.469833 -0.0246614 -0.0844634 -0.0311129 -0.202036 -0.00390207 0.525717 -0.232953 -0.220652 0.206418
-0.00167926 -0.0145842 0.0236468 -0.00585404 -0.00979751 0.00198962 0.0252006 -0.0128646 0.00334826 0.0297699 -0.0188887 -0.0200329 -0.0183163
-0.0300692 -0.023561 0.0234609 -0.0268822 -0.0138691 -0.0191814 -0.0159734 0.0227463 -0.0076138 0.0232287 -0.0334832 0.01951 0.0212861
-0.021571 0.0175608 -0.0121777 -0.0373697 -0.00154951 -0.0235726 0.0341191 -0.032235 0.0182177 0.0258714 -0.00247681 -0.0274704 -0.00164505
-0.0350138 -0.021569 -0.0357329 0.000988721 0.0383815 -0.0204391 -0.036218 0.0299461 -0.0106787 0.0235185 0.0356002 0.0307237 0.0265768
0.0161565 -0.00822199 -0.014179 -0.0281002 0.0151112 -0.0227963 0.0385132 -0.0379092 -0.00542204 -0.00534434 0.00554259 -0.029231 -0.0329287
0.0314402 0.0225171 -0.00533388 -0.0391561 0.01899 -0.019912 0.00217114 0.0142018 0.0286208 0.00295251 -0.0372359 -0.0268755 0.0394749
0.0278448 -0.0187603 0.00959521 -0.0309547 0.0154011 -0.0329433 0.00927921 0.0120289 -0.0115322 0.0151429 0.00132206 -0.00736305 0.0166432
0.0339702 0.0113876 0.0088646 -0.0300151 -0.0358121 -0.0120295 0.0152938 0.0133815 0.00154121 0.00324063 -0.0100028 -0.023659 -0.0159792
-0.0390492 -0.00325981 0.018082 -0.0110535 0.0396471 0.0269529 -0.00930125 -0.0354115 0.0172735 0.0220364 0.0119634 -0.0337534 0.0026593
0.0267207 -0.0144546 -0.0214325 -0.0274672 -0.0204132 -0.0296274 0.00478157 -0.0324756 0.0285081 0.0162257 0.00909515 -0.0117463 -0.0142216
-0.0127478 -0.000406741 -0.0103033 0.00175915 0.00114865 -0.0273938 0.0232366 0.0195717 0.0394333 0.0109447 -0.0490555 -0.0134646 -0.0181731
-0.0374618 0.0244643 0.00589499 0.0307447 -0.0350596 0.0133934 0.00601946 -0.0132874 -0.0295411 -0.032382 -0.0029839 -0.0214081 -0.0327943
0.000294784 -0.00408305 0.0310842 -0.00298464 0.0398708 -0.0301957 -0.0178308 -0.0266028 -0.0157231 0.0332377 0.0113868 0.0200902 -0.0329597
-0.0349326 -0.0368885 -0.0330774 -0.0741731 0.0522942 0.0166402 0.0271093 0.0427125 -0.0149317 0.0943818 -0.0468024 -0.0352119 0.06326
-0.0360017 -0.0340397 -0.0186628 -0.00223683 0.0222124 -0.000462008 -0.00263478 -0.0368158 0.0374921 0.0359494 -0.0336124 -0.00445688 0.0255764
-0.0303887 -0.0227736 0.0195928 0.000819967 0.0261312 0.0239301 0.0349802 -0.0265292 0.00357646 0.0313235 -0.0203085 -0.0248865 -0.00322867
-0.0409183 0.00611559 -0.00268596 -0.00890806 0.0234766 -0.0368595 -0.0241396 0.0157067 -0.0227115 0.0198512 -0.0283686 0.0203198 -0.00923625
-0.0271485 0.0311001 0.00749837 0.0232523 -0.0167468 -0.0137782 -0.0131272 0.0203215 0.0334018 -0.017197 0.0180832 0.0228664 -0.0275985
-0.0447874 -0.0853225 -0.115885 -0.132835 0.0694973 -0.055632 -0.0367372 0.0081314 0.00136298 0.167336 -0.0523257 -0.0889278 0.0257604
-0.0320563 0.0151643 0.0139969 -0.0263104 0.00522091 -0.0254905 -0.00969735 0.0262113 -0.0128466 0.0200664 0.0209852 0.0272741 0.030128
0.00572039 -0.041393 -0.0863266 -0.100516 0.0395249 -0.0366893 0.00589268 0.0314466 -0.0378449 0.0805641 -0.00600832 -0.0460183 0.0399231
0.00272084 -0.0074032 -0.0389076 0.0354936 -0.0306167 0.0324719 0.0302035 -0.01763 -0.0321854 -0.0278181 0.0264194 0.034536 -0.0331184
-0.0236163 -0.112606 -0.177502 -0.276779 0.166286 -0.0533925 -0.0333437 0.0336954 -0.0273428 0.31033 -0.135499 -0.135596 0.126378
-0.00910812 0.034263 -0.00857229 -0.0301743 0.0359436 0.0197339 -0.0367217 -0.0313817 -0.0128442 0.0362786 -0.00446617 0.0216864 -0.0103467
-0.403082 -0.258652 -0.154908 -0.270744 0.534078 -0.0324616 -0.105563 0.317557 -0.0187772 0.338565 -0.210029 -0.185294 0.204339
-0.00898019 -0.000259069 0.0271477 0.014457 -0.0256467 -0.0148287 0.0288237 0.0148335 0.0321554 0.0228028 0.00352199 -0.0197791 0.0320472
-0.0163688 0.0321889 -0.016074 -0.0186447 -0.0203503 0.0334555 0.0293823 0.00320354 0.00358191 -0.0130624 -0.00473039 0.0360627 0.00258363
-0.0374377 0.0304073 -0.0248789 0.027324 -0.0209081 -0.0015557 -0.0387208 -0.0323672 -0.0241196 0.0160046 -0.0052958 -0.0137574 0.0013471
-0.00541917 -0.0301215 0.0381615 0.00418687 0.0268829 -0.0130673 0.0121911 0.00980263 -0.0147834 -0.000557199 0.0340742 0.0361913 -0.00403201
-0.0404337 0.0176062 0.00130296 -0.0462039 0.0297856 -0.0277701 0.00815006 0.00545234 -0.027725 0.0359117 0.0131486 -0.0546717 -0.00085957
-0.0351963 -0.0496805 -0.000449526 -0.0104537 -0.0059433 -0.0130084 -0.0314964 0.0159313 0.0106053 0.00430938 0.0148838 0.0252157 0.0450917
-0.0325895 -0.0169705 -0.0420845 -0.0147765 0.0188545 -0.0320286 0.015878 0.0239095 0.0068735 -0.0045164 -0.0470517 -0.00282931 0.0274509
0.00314733 0.0250422 -0.020783 -0.0301727 0.019727 -0.000478327 0.0357238 -0.0333073 -0.0339772 0.0401239 0.03121 0.0365138 0.00361914
-0.0192061 -0.00879714 -0.038156 -0.0334572 0.0109444 -0.032021 -0.000730203 -0.0276892 -0.0169088 -0.00533641 -0.0101651 -0.0375086 -0.0222864
0.0101919 -0.0233238 0.0364123 0.0227859 -0.00134276 0.0263738 0.00691456 0.0377882 -0.00432586 0.00795491 0.0175614 -0.0317699 0.0344858
-0.00173815 -0.00926603 -0.00787904 0.0051995 0.0330545 0.0242409 0.0369981 0.0212586 -0.0312092 -0.00648223 0.0197437 0.00831788 -0.0250476
-0.01306 -0.0189963 0.00564734 0.023308 -0.0153261 0.0165767 -0.0194883 -0.0317045 -0.0218109 0.0194823 0.0198865 -0.0296016 0.0220521
-0.0283913 -0.110022 -0.158761 -0.193285 0.162829 -0.098364 0.00602231 -0.0209001 0.0146582 0.245916 -0.120943 -0.116146 0.0702744
-9.60806e-05 -0.0365082 -0.0686763 -0.0701814 0.0717705 -0.0171716 -0.00116946 -0.00244222 -0.0227349 0.0720026 -0.0323262 -0.0787691 0.00857612
-0.00168327 0.0129847 0.0354222 0.0328525 -0.0278756 -0.0176631 0.00813214 0.0291627 0.00211517 -0.014205 -0.0320108 0.00720881 -0.0145961
0.00365488 -0.0302695 -0.0141481 0.0206787 0.000301422 -0.0218817 0.0155358 0.0172595 0.00409509 0.0420789 0.0111878 0.016254 -0.0031289
0.0111087 -0.00709536 -0.00808299 0.00263987 0.0308129 0.0302 -0.0362194 0.0122179 0.031207 0.0264672 -0.0207582 -0.00204818 0.00368229
0.00155599 0.0202713 -0.0221119 -0.0219624 0.0155424 -0.0298491 0.0311272 0.0238546 -0.00479276 0.0125586 -0.000704253 0.0141424 -0.0200413
0.0090908 -0.039409 -0.0392446 0.0013249 0.0432525 0.00978937 -0.0155531 0.0309696 -0.0180107 0.0349386 -0.00316819 -0.0216677 0.0300732
0.014887 -0.00233558 -0.0402842 -0.0221966 -0.0175916 0.0196107 0.019069 -0.034489 -0.023115 0.0278443 -0.0445411 -0.0183651 0.0100215
0.0104297 -0.00828199 0.00633128 0.00679139 -0.0370645 0.0263354 -0.0208278 0.0196132 -0.0157893 0.0416734 -0.0216754 -0.00960068 0.000704326
-0.0208212 -0.0142993 0.0242412 -0.0434071 -0.0146673 -0.0349545 0.020545 0.00426057 0.0336175 -0.00265698 -0.00818151 -0.0272581 -0.0197092
-0.0574399 0.0199446 -0.0298612 0.0124834 0.0496965 -0.00898263 0.0272456 0.0545553 0.0120333 0.0607425 -0.0333771 -0.0220354 -0.0196439
-0.0301389 -0.033993 -0.0275622 -0.0190468 0.0442551 0.0116231 -0.00251501 -0.0199856 0.0182675 0.0636905 0.0197969 0.00605742 -0.00912811
-0.0217995 -0.0081637 0.01576 -0.0166869 0.00357809 0.0087528 0.00856496 0.0328697 -0.0347497 -0.00874847 -0.00239324 0.0177124 0.0134448
-0.0331988 0.00121648 -0.000479792 -0.0391914 -0.0315644 0.00968908 0.010975 0.0346398 0.0194485 0.0130057 0.009044 0.0188023 0.036189
-0.0340601 -0.0142108 0.0218113 -0.0273011 -0.00749017 -0.00962577 0.0159094 -0.0285478 0.0322679 -0.0304929 0.0353742 -0.0117917 0.000423069
0.0268799 0.0179325 0.037566 -0.0169156 -0.0232776 0.0065268 -0.00433195 -0.0325412 0.0095169 0.0345511 0.0361751 -0.0204361 -0.0373904
-0.00818637 0.0107467 -0.0118139 -0.037066 0.0174558 -0.0501379 0.0219822 0.0329006 0.00871151 0.0270181 -0.0255839 -0.0394149 0.0178687
3.30529e-05 -0.0621455 -0.178371 -0.230926 0.115434 -0.0614957 -0.0238654 -0.0259841 -0.034708 0.272894 -0.0938354 -0.137159 0.110447
0.00399077 0.034126 0.0283161 -0.0401135 0.0347701 0.00880535 0.00960741 0.0336343 -0.0250788 -0.00433173 0.0160152 -0.0369534 0.0360475
-0.00979135 -0.0300214 -0.0382053 -0.0149681 0.00424292 -0.00885864 0.0350254 -0.0203775 -0.00082797 0.000611213 -0.0355718 -0.0110616 -0.021194
-0.0173054 -0.0586866 -0.0983832 -0.107087 0.109759 -0.0198098 -0.0320342 0.046291 -0.00435448 0.188383 -0.0469426 -0.100153 0.0923858
-0.0421039 0.0207887 0.0215689 -0.0333472 0.0447319 0.0264648 0.0127208 -0.0245916 -0.034253 -0.00997661 0.00942408 0.0228697 0.00990711
-0.0234732 0.00910053 -0.0415137 -0.00722178 0.0288626 0.0322394 -0.00391854 -0.0382903 0.0383617 0.0103449 -0.00521535 -0.0343164 -0.0204265
-0.0527687 -0.0375369 -0.0593686 -0.134284 0.106297 -0.0486708 0.0207934 0.0500224 -0.0139896 0.172915 -0.0667727 -0.0450653 0.089628
0.00994877 0.0066829 -0.0230211 0.00566399 -0.0116762 0.00130254 -0.01048 0.0117421 0.00481979 0.0165241 -0.016439 -0.0246255 0.0387279
-0.0257472 -0.0441062 0.0157781 -0.0429073 -0.0124766 0.0127535 -0.0103164 0.0170999 0.0278691 0.0550446 -0.00272709 -0.0323765 0.0447389
0.00559064 -0.048584 -0.0179295 -0.00907628 0.0623915 0.00720541 -0.000610278 0.00359042 0.0191942 0.0565943 -0.0576059 -0.0264643 0.0122043
0.0107785 0.00395007 -0.0215763 -0.00800383 0.0249786 -0.0356787 0.0385038 0.0158316 -0.0196882 -0.0253315 0.0170541 -0.036295 0.00177651
0.0205165 0.0202746 -0.0199381 0.0151416 0.0349268 -0.00515544 0.0152326 -0.0301905 0.00338009 -0.0246833 -0.0263227 -0.0329774 0.0114853
0.00720275 -0.0374763 -0.004305 0.0071996 -0.00657056 -0.0132921 -0.00276045 -0.015974 -0.0306175 -0.0309423 -0.0222772 -0.0357891 -0.0022173
-0.0110547 0.0323945 -0.0354284 -0.0139874 -0.0162538 0.000502971 -0.0261159 -0.00699133 -0.00897362 0.00652867 -0.0128358 -0.0230055 0.0224865
-0.0142175 -0.0289686 0.0216067 -0.0312375 0.0226609 0.0237064 0.0218668 -0.00455817 -0.0367957 -0.00209445 -0.022273 0.0245489 0.0221597
0.00142356 0.0037808 0.0225975 0.0350813 -0.0306031 -0.0384551 -0.00228249 -0.0358883 0.0197459 -0.0206047 -0.0314249 -0.0196041 -0.0369833
0.0243418 0.00729112 0.0133939 0.0265658 -0.00929862 -0.0296601 0.0324367 -0.0257616 0.0182114 -0.0295966 -0.0283873 -0.023757 0.0313106
0.010414 0.0278015 -0.0153301 -0.0278176 0.0179192 -0.0191969 0.0325773 0.0320252 -1.7338e-05 -0.0174367 0.0322843 -0.0184419 -0.0365632
0.00813202 0.0160234 -0.00173175 -0.0156168 0.00655615 -0.0481812 -0.00929672 0.0189804 0.00371789 0.0616231 -0.0465236 -0.044784 -0.0162097
-0.0350227 -0.00723251 0.0370922 -0.0324203 -0.0280955 -0.0204901 0.00664347 0.0341559 -0.0277838 0.0283808 0.0205903 -0.0201412 -0.0312086
-0.0232431 -0.00995395 -0.0331594 -0.00400742 0.0253466 -0.0250608 0.0329709 -0.0162609 -0.00823705 -0.029532 0.0157997 0.0201146 0.00089536
-0.055531 -0.0939221 -0.124459 -0.175518 0.100554 -0.0303619 -0.0238555 -0.0212938 -0.0137951 0.178047 -0.0779132 -0.089593 0.0510399
-0.0479093 -0.045491 -0.0517346 -0.058037 0.0763377 -0.0101563 -0.00416616 0.0308157 -0.0246288 0.0645117 -0.0636057 -0.0707794 0.0116768
-0.0105709 -0.00184491 0.00793252 0.0129849 0.0336902 -0.00458772 0.0152131 0.0212624 -0.0370197 -0.00563228 -0.0321776 0.0262054 -0.00671994
0.0184092 0.0229329 -0.0266402 -0.00877825 0.0355704 0.0208048 -0.00435025 -0.0318473 -0.00792473 -0.0287349 -0.0266147 -0.0316209 0.0140295
-0.0781897 -0.103946 -0.0935682 -0.128637 0.117905 -0.0283035 -0.0153481 0.0661328 0.0280941 0.193555 -0.0622144 -0.132354 0.0504734
0.0839569 -0.136933 -0.300155 -0.426925 0.0924604 -0.13432 0.0154498 -0.124593 -0.0736775 0.507141 -0.181768 -0.178749 0.0658508
-0.0283878 0.00355395 -0.00569979 -0.0212941 -0.0146512 0.0216669 -0.0185019 0.0328276 -0.0192235 -0.0165953 0.0240592 0.0267969 0.0311568
-0.0145585 -0.000268752 0.0283755 0.011607 0.0166124 -0.0183395 0.0184515 0.0145135 0.0287959 0.0341641 0.0229042 0.0086408 0.0247783
0.000180791 -0.0164848 -0.0169992 0.0249791 0.00616509 -0.032072 0.00179478 -0.0295984 -0.00359304 0.0334902 0.0313543 -0.0290225 0.0334078
0.0178357 0.0307008 0.0183569 0.00336148 -0.0108598 0.0184865 0.0292063 -0.0346737 -0.0154293 -0.0344806 0.0242355 0.0226222 -0.012526
0.0148783 -0.0378388 0.0229815 -0.0301573 0.0136102 -0.00579007 0.0302909 -0.0196832 -0.0352034 0.0134255 0.00188795 -0.0266523 -0.0090282
-0.0190807 0.0145235 0.0163351 -0.0344957 0.0135394 0.0254466 0.0264023 0.0357684 -0.0173 -0.00163117 0.01326 -0.0234943 -0.0022106
0.00450289 -0.0264912 0.0353009 -0.0218269 -0.0192169 0.0181079 -0.0176392 0.016686 -0.00484629 0.0274502 0.000419733 0.0137019 -0.00316942
-0.0167453 0.00401636 0.0106134 -0.0128021 -0.0273565 -0.0180245 0.0186377 0.0352524 -0.0073437 0.024654 0.0348874 0.0373997 -0.0326175
0.00845236 0.0159662 -0.0291025 -0.0235854 0.00758568 0.0371552 -0.00340724 0.0271349 0.00246526 0.00511959 -0.0293829 -0.00146245 -0.00231393
-0.0239587 0.0125007 0.00760383 -0.00979719 -0.0284999 -0.0232213 0.0195891 0.0138197 -0.0349113 -0.0177301 -0.0275173 -0.0406271 0.00378453
-0.0403007 0.0233045 -0.0322708 -0.0374006 0.00506567 0.00400021 -0.00472498 0.00443478 -3.3752e-05 -0.00320085 -0.0128781 0.000354905 0.00857552
-0.0645874 -0.0795033 0.00794532 -0.0233264 0.127006 0.00549135 -0.0233391 0.0500859 0.00792963 0.0661184 -0.0643822 -0.0647188 0.0321161
-0.0778473 -0.0513713 -0.144362 -0.121415 0.11738 -0.0673771 -0.0281788 0.035193 0.0216319 0.19844 -0.0739068 -0.0732544 0.0613491
0.00244239 -0.0968704 -0.170985 -0.303083 0.0702725 -0.0582374 0.0253747 -0.0556033 0.0239303 0.382845 -0.14889 -0.160697 0.177529
0.0319328 0.0270555 0.00620065 0.0209878 -0.00160354 -0.0371118 -0.0220735 -0.0277555 -0.0238722 -0.0126322 -0.00547427 -0.0154906 0.0372821
0.000350454 -0.0155785 -0.0373603 -0.0255405 0.0319079 0.00202014 0.0348032 0.0390076 -0.0304249 0.076581 0.0158387 -0.0197207 -0.0019924
-0.00740483 -0.0296383 -0.0273421 0.00834733 -0.00907817 -0.0260399 -0.009621 -0.0285901 0.00750628 -0.0302166 0.0253564 -0.0358505 -0.0158185
0.00137957 -0.0453097 0.0130023 -0.0420626 0.0779881 -0.000779077 -0.0105409 -0.00284272 -0.0140897 0.0036398 -0.0190488 -0.0491326 0.0301045
0.0186124 -0.032912 -0.0374809 0.00961131 0.0246486 -0.021454 -0.0101983 0.0193992 0.00957989 0.0185082 -0.035522 -0.0230943 -0.0284442
-0.0383168 -0.00615508 0.00886897 0.00310203 0.0389081 -0.0294177 -0.00669281 0.0347062 -0.0344747 0.0424394 -0.0212975 -0.0220166 -0.0094083
-0.00274601 0.0318847 -8.16471e-05 0.0116602 0.0190395 -0.0380522 0.00747634 0.00822388 0.0159006 0.0330475 0.0191545 -0.0393044 0.0107118
0.0283836 -0.107019 -0.300961 -0.310091 0.15997 -0.14934 0.0283053 -0.0413108 0.0349984 0.427011 -0.109383 -0.150114 0.113396
-0.0641609 -0.0315078 -0.0693293 -0.0961785 0.0880195 -0.0359511 -0.000543122 0.000172123 0.0287097 0.135095 -0.0533727 -0.0817032 0.0257706
-0.0287886 -0.0271782 0.0262983 0.0120317 0.0209977 0.0162116 -0.0342936 -0.0170092 0.0151351 0.00218383 0.00808105 0.0327849 -0.00505215
0.00884979 0.0240429 0.0198957 -0.0358306 0.0283364 -0.0104584 0.0153641 -0.00636855 -0.0259827 -0.00694319 -0.0243396 -0.00481122 -0.0282554
-0.0029792 -0.0335279 -0.00984138 -0.0236441 -0.030928 -0.00196043 -0.0136072 0.038011 -0.0273148 0.0389409 -0.035798 0.031186 0.0232105
-0.0312806 -0.027725 -0.0607715 -0.136992 0.0950448 -0.0596242 -0.013372 -0.0287383 0.00523373 0.163876 -0.0319667 -0.0838231 0.030529
0.0288348 0.0365553 0.0175726 0.0191137 0.0249531 -0.00197604 0.00581929 -0.023606 -0.0226606 0.0145067 -0.0226426 0.0086339 -0.0162873
0.0343553 0.00614925 0.00881095 -0.00318097 0.0143591 -0.00318875 -0.0156102 -0.00240686 0.00533178 0.0320148 0.0209259 -0.0327806 0.0326618
-0.0256846 -0.00600153 0.0195502 -0.0167897 0.0275979 0.00900808 0.0173156 0.00539669 -0.0149614 0.00399844 -0.032956 -0.0336255 -0.0335215
0.014304 0.0203741 -0.0264848 -0.00905627 -0.0112535 0.0208217 0.00946134 -0.0245491 -0.0271479 -0.0101362 0.00921721 0.0314304 -0.00116196
-0.0147293 -0.077826 -0.10063 -0.133711 0.120107 -0.0169848 0.00869696 0.0442021 -0.00182192 0.215557 -0.071792 -0.0941366 0.0742131
0.000336088 0.00213985 0.0205072 -0.0420864 -0.0100206 0.0310421 0.0187822 -0.0199354 -0.0163505 0.0220012 -0.00868526 0.00828456 -0.0116112
-0.0321465 -0.013219 -0.0358393 -0.0279903 -0.037031 0.0288217 -0.00616843 -0.0371492 0.013583 0.0113619 0.0306894 0.0299656 -0.0304889
-0.0640417 -0.0271235 -0.0109214 -0.00840701 0.0581288 0.00979889 -0.036641 0.00285566 -0.0196101 0.0753919 -0.053982 -0.0502354 -0.00724279
0.0266061 0.0135748 -0.00562424 0.0188552 0.0101266 0.0362393 0.020099 -0.0207304 0.0184827 -0.0267096 -0.028222 0.0376393 0.0225693
0.0128903 -0.0244806 -0.00356278 -0.00432781 0.0126778 -0.0322549 -0.00340131 0.00542142 -0.00421517 -0.0214814 -0.0189209 -0.0387119 0.0120232
0.00253272 -0.0487157 -0.0388888 -0.0571151 0.0645668 -0.00453428 -0.0226717 0.0280174 -0.022479 0.0789565 -0.0251589 -0.0633354 -0.00578446
0.0150494 -0.0347242 -0.0331813 0.0114413 -0.00793824 -0.000380359 -0.00419431 -0.0256971 0.00918937 -0.00853927 -0.0261334 -0.0160326 0.00138812
-0.0040321 -0.103175 -0.196086 -0.231555 0.132585 -0.0619561 0.0296373 0.00264631 0.013985 0.316326 -0.0702361 -0.103072 0.0678981
-0.00550159 0.00288652 0.0248909 0.0040968 0.02941 -0.0171106 0.0114838 0.00273636 0.0376925 -0.0232277 0.03644 0.00475632 -0.0251762
-0.00712086 -0.0412574 -0.0123081 -0.0286764 0.00386798 0.00368841 0.0051396 0.00724537 0.0277316 0.0601879 -0.0552576 0.00404878 -0.00611459
0.00508573 0.00459254 0.0344951 0.0157114 -0.0269664 0.033191 0.0147683 -0.0117533 -0.0340884 -0.0254124 -0.0188584 -0.0390572 -0.029643
0.0222255 -0.0320362 0.00966963 0.00348528 0.0269329 0.00654708 -0.0257971 -0.0115961 -0.0237508 -0.00686029 -0.023396 -0.0393412 -0.0252393
-0.00546133 -0.0107663 -0.0116434 -0.0375388 -0.00694692 -0.0365441 0.00885241 -0.0138463 -0.0310476 -0.0194276 -0.0348292 -0.0263721 0.0292837
-0.0310095 -0.014467 0.0331648 0.0333072 -0.0220655 -0.0230984 0.00703092 0.0248961 -0.0250551 0.0379805 0.0302305 -0.000201717 0.0288864
-0.0377733 -0.0461253 -0.0540805 -0.0207869 0.0434175 -0.0244473 -0.0383475 -0.0311878 -0.00650732 0.00447376 -0.0059001 -0.0294095 0.018992
0.0363866 0.0112446 -0.0223181 -0.0103051 0.0174321 -0.0297364 0.0366729 -0.0362923 0.00774255 -0.0153058 -0.036151 -0.0363645 0.0209798
0.00107431 -0.0164474 -0.0218601 0.0185051 -0.00541506 0.0123674 -0.0372662 0.0348798 0.00881379 0.0147302 -0.0342984 0.0281103 0.00643337
0.02652 0.0228357 0.00663471 -0.0320706 0.00706105 -0.0238952 -0.00191537 -0.00702125 -0.0060009 0.0136456 0.0185591 -0.00580012 0.0337904
-0.0531988 -0.00911637 -0.0676103 -0.0391265 0.0302718 0.0156642 0.00834464 0.0371127 -0.0039941 0.108641 -0.0244482 -0.0313198 0.0274808
-0.0129228 0.00945111 0.00359686 -0.0541564 0.0105445 -0.0346842 0.0290161 0.0313387 0.0053934 0.00749772 -0.0182936 -0.0264647 -0.0149191
0.0161268 -0.0146054 -0.008382 0.0286375 0.0360277 0.0171576 0.0125759 -0.0222617 0.00355223 0.0035216 0.026188 -0.00808224 0.0190262
-0.0392039 -0.0277815 0.00262742 -0.0196268 -0.0195344 -0.0344313 0.0225292 0.00330708 -0.0177104 0.014789 -0.0046861 0.00432361 0.0288871
0.0262074 0.0305465 -0.0249063 -0.0401454 -0.0308143 -0.0299393 0.0292681 0.0369649 -0.0166754 0.0362919 -0.00658019 -0.0287931 -0.0314308
0.00323811 -0.000693396 -0.0358367 0.0177433 -0.00659942 -0.0200813 -0.0288206 0.0244528 -0.0284672 0.0058612 0.0221399 0.0123418 0.0296231
-0.0372324 -0.026577 0.000995173 0.0167503 0.0219968 0.0212098 -0.0269074 -0.000197815 0.0198039 -0.00629586 -0.00212765 0.0164797 -0.0135429
0.0231625 -0.00761573 -0.00547549 -0.00572072 0.0162548 -0.0308796 -0.004121 0.00209997 -0.0293992 -0.00592031 -0.0389616 0.000561889 0.0356556
0.0225058 -0.015149 0.00775846 -0.000762598 0.0056902 -0.0237495 -0.0164255 -0.0251305 0.0139877 0.0105607 0.0262914 0.00940372 -0.0299543
-0.0317845 -0.0425408 0.00787856 0.00539948 -0.0108283 -0.0350158 0.0266085 0.0232704 -0.0316876 0.0340031 0.00781082 -0.0120631 -0.00651349
-0.00326283 0.00970323 0.0110768 0.0266975 -0.0375186 0.00280912 -0.00139712 0.0324368 0.00820287 -0.0274043 0.0171827 -0.031231 -0.0304078
-0.0441862 0.00590739 -0.0316085 -0.0459984 0.0406928 -0.0365515 -0.0319259 0.00269517 -0.0175445 -0.014665 -0.0379359 -0.0448521 0.000517188
0.0138036 -0.0355464 -0.0254581 -0.0374993 0.0263672 0.00845943 0.0360422 0.0159348 -0.0260164 0.0329863 0.0130698 0.00786475 0.0226964
0.00866586 0.0230638 0.00222841 -0.0340917 -0.0104799 -0.030102 -0.0198369 -0.0176731 0.0209281 -0.0169382 0.0357684 0.0135394 0.0356268
0.0336831 -0.0234332 0.0175728 0.036788 0.00134698 -0.00330103 0.0378224 -0.0229195 0.0113032 -0.0326185 -0.0237257 -0.00732402 -0.0239085
0.0367728 0.00552156 0.0337686 0.0150408 0.0402133 -0.0280762 0.0135798 -0.0072944 -0.0351512 0.00601968 0.0335473 0.0151982 0.0305717
-0.0247745 0.0255298 0.0149856 -0.0349382 -0.00487344 -0.0416118 0.027655 -0.0130348 0.0346368 0.0123993 -0.0273988 -0.0138121 0.00183235
-0.0140394 0.03447 -0.0207551 0.00218377 -0.0143476 0.00450052 0.0338948 -0.0294975 0.0108429 -0.0124715 -0.0306011 0.00260418 -0.0010393
0.0257312 -0.0161728 0.0314886 -0.0155239 0.000244951 0.0283627 -0.00163108 0.024719 -0.0211435 0.0355278 -0.0232736 -0.0213568 0.00955395
-0.00219208 -0.0400084 -0.0323325 -0.0372048 0.0220725 -0.0130864 0.0143855 -0.00244643 0.0140985 -0.00434463 0.0287273 -0.0140037 0.0251213
0.0173232 -0.0376153 -0.00216007 -0.0119299 -0.00516151 0.0263231 0.01485 -0.0182858 -0.0257896 0.0262741 0.0067636 0.031816 -0.010775
-0.019179 -0.0286335 -0.00642075 0.0183902 -0.0170268 0.0316274 0.0167479 -0.0184058 -0.00874686 0.0288039 0.00120301 0.0218357 -0.0376654
0.00889031 -0.115561 -0.182626 -0.242014 0.0107191 -0.0869899 -0.0191501 -0.0517276 -0.00299799 0.306993 -0.11209 -0.130566 0.131305
-0.0138374 -0.125248 -0.240771 -0.259292 0.162331 -0.0407398 0.0379743 0.0370439 -0.0181229 0.359553 -0.138672 -0.166639 0.0677746
-0.0226419 0.0276589 -0.036227 0.00448355 -0.00868303 -0.00852654 0.0136425 0.0249817 -0.00956973 -0.0368307 0.0277157 -0.018909 -0.00096266
-0.0528641 -0.0736635 -0.0807743 -0.0485729 0.0330771 -0.0474953 0.0112733 0.0397838 -0.028095 0.142889 -0.0792555 -0.0784231 0.0738204
0.0075148 0.00175164 0.000978296 -0.000418613 0.0297726 0.0263627 -0.0327999 -0.0166674 0.0350463 -0.00597634 -0.00562456 -0.025694 0.0243396
0.0111773 -0.0212137 0.0358569 0.0354242 -0.000811393 0.00379433 0.00418457 -0.00481847 0.00829275 0.0133739 0.0223629 -0.029802 0.0348134
0.00948557 0.00633335 0.0135952 -0.0152492 0.0323684 0.0295541 0.00733513 0.00216346 0.017301 -0.0104407 -0.0298972 -0.014771 -0.0181643
0.022183 0.00354496 0.0343414 -0.0289278 -0.00330583 -0.00683077 -0.0376694 -0.0116007 -0.0307107 -0.0180172 0.0214495 0.00413666 0.0252423
-0.00305979 -0.0303642 0.00127019 -0.00510213 -0.00987058 -0.0359514 0.0114017 -0.0191091 0.00106777 -0.0140432 -0.00191521 0.0316117 0.00567962
-0.0578242 -0.0206696 -0.0328944 -0.0635991 0.0372516 -0.0368461 -0.00671119 0.0398499 0.0175299 0.0695233 0.00268222 -0.0554997 0.0348016
-0.0790308 -0.0463994 -0.0540679 -0.107014 0.0966778 -0.0486791 -0.0224723 0.00457121 0.0418699 0.100327 -0.0637028 -0.088198 0.0125209
-0.0170242 -0.0377538 -0.0287566 -0.00421103 0.0348248 -0.03499 -0.0241211 0.0185842 0.0360902 0.0309096 -0.015153 0.037527 -0.00160524
0.00473837 0.0155394 0.00462886 -0.0114875 0.0292181 0.00650357 0.0336965 0.0233192 -0.035996 -0.00161506 0.0215214 0.0319035 -0.015354
0.0246984 0.0323996 0.0229948 -0.0336414 0.0289698 0.0265677 0.0242446 0.0290409 0.0357645 0.0148873 -0.00438159 -0.0236453 -0.00624424
