251 8 5
-0.0741896 0.0793674 -0.0144731 -0.00648335 0.0332394 -0.0346788 -0.0521612 -0.035077
-0.150155 0.133364 -0.0377007 -0.0661044 0.105459 0.0909665 -0.0302955 -0.150494
0.0190334 -0.0375777 0.0137418 -0.0183925 0.00497657 -0.00214929 0.0207116 -0.0506375
-0.148184 0.473821 -1.10153 0.917635 -0.338332 -0.345153 0.108434 -0.657419
-0.0703988 0.0126235 -0.0798017 0.033856 0.0355634 0.0230753 0.0310705 0.00402891
0.0271357 0.0179261 0.0476276 0.0309426 0.0574163 0.010338 -0.0361118 -0.0197766
-0.118641 0.0550737 -0.274797 -0.362897 0.432665 0.655935 0.0766068 -0.576621
-0.011199 0.0605988 -0.00310022 -0.0194666 0.0598934 0.0592953 -0.0184906 -0.0136235
-0.0662378 0.0133044 -0.0101384 0.00180163 0.0860035 0.0804158 0.0154052 -0.0803605
-0.249026 0.139835 0.0516242 0.045821 0.542052 0.41499 -0.422188 -0.790693
-0.349684 0.324592 -0.188247 -0.0301766 0.0973017 0.15347 -0.20875 -0.443261
-0.0237458 -0.00354761 -0.0829479 0.055601 0.0221189 0.0825714 -0.0254814 -0.0786526
0.0136343 0.0558609 -0.0399691 0.059274 0.0438086 -0.0112019 -0.0102808 -0.0145416
-1.05092 0.967986 0.219141 0.699712 0.0610709 -0.488732 -0.478113 -0.36461
0.0178241 0.00362334 0.0132734 0.00917844 -0.00205582 0.0430308 -0.0258594 -0.0633409
-0.0313455 0.0620523 -0.0137458 0.00927036 0.0737528 -0.0494726 -0.0615775 0.00483893
0.0145409 0.065941 0.0427862 0.0330522 -0.000386043 0.0186747 -0.0427481 -0.0106942
-0.309241 0.205331 -0.0985549 0.0677413 0.165981 0.134467 -0.0719718 -0.208963
-0.00946161 -0.0170479 -0.0320682 0.0244388 0.0108049 0.0105344 0.00884215 -0.0450456
-0.197021 0.0892499 -0.0935173 0.0480088 0.140262 0.0427753 -0.0011827 -0.135322
-0.0860069 0.0408535 -0.0690558 0.0667504 0.0771018 -0.0257152 0.0250132 -0.00198811
-0.112008 0.0856081 -0.0868873 0.0633421 0.181057 0.0765868 -0.0887395 -0.15964
-0.0704001 0.103648 -0.118104 0.00389697 0.00816369 0.00927122 -0.074049 -0.0525351
-0.424908 0.196998 -0.176943 0.125329 0.20431 0.0902028 -0.102468 -0.240902
-0.0541018 0.0612671 0.0500451 0.041691 0.0467067 -0.0147886 -0.0074916 -0.0612673
-0.390498 0.302889 -0.154004 0.106221 0.143492 0.161788 -0.0626532 -0.300638
-0.0597875 -0.0124931 0.0243121 -0.0182536 -4.95952e-05 -0.0346256 -0.00484831 -0.0722643
-0.154513 0.0519768 -0.0153634 0.046244 0.026812 0.109083 -0.0316866 -0.153774
-0.419278 0.292876 -0.00209408 0.169695 0.257879 0.113278 -0.183574 -0.231308
-0.0527286 0.0539186 -0.0663052 0.0126899 0.0528179 -0.0191117 -0.0521153 -0.032068
-0.77795 0.540569 -0.0219589 0.355041 0.0405491 -0.315269 -0.263964 -0.312965
-0.0937817 0.102652 -0.00656731 0.0372912 0.0329029 0.050399 -0.043687 -0.0224292
-0.0112316 -0.00835519 -0.0185497 0.0443737 0.0551677 -0.00946925 0.0453378 0.0375923
-0.0596917 0.0253289 0.0137623 0.0584058 0.0439479 0.0315508 -0.000877014 0.00105475
-0.0860703 -0.0127935 0.0531901 -0.038108 0.0638981 0.0288612 0.00313879 -0.00540094
-0.0606744 0.105906 0.00573468 0.0473565 0.0973171 0.00608579 0.00861164 -0.0579204
-0.0754834 0.0717359 -0.0151568 0.0727229 0.127801 0.000554656 -0.0497287 -0.144624
0.0203302 -0.0193308 0.00774597 0.043628 0.0629244 -0.0416236 -0.0484428 -0.0307123
-0.244212 0.207305 -0.242958 -0.102295 0.274251 0.257296 -0.064104 -0.295802
-0.0353719 0.129493 -0.0861345 0.0343616 0.0519872 0.0190591 -0.0243867 -0.0520388
0.0199382 -0.0167954 0.0111016 -0.0309954 0.0186581 0.032043 -0.0529199 0.0108313
-0.38835 0.311431 -0.137946 0.0862065 0.151017 0.159343 -0.147086 -0.374974
-0.00852975 0.0611772 -0.0548598 0.00334283 -0.0333196 0.0643739 -0.00118088 -0.0908571
-0.0596369 -0.00954554 -0.0260726 0.0337755 0.0105878 0.00231656 -0.0465445 -0.0829258
-0.32477 0.228449 -0.230775 0.0387102 0.141998 0.254308 -0.182271 -0.441908
-0.365414 0.22397 -0.154001 0.157313 0.195877 0.0539251 -0.12132 -0.162474
0.0121113 -0.0121723 0.0533439 0.0624207 0.0466962 0.0599022 0.00506917 0.0414857
-0.231704 0.187146 -0.131451 -0.0298273 0.164003 0.146298 -0.0134008 -0.24864
-0.928434 0.764145 0.142529 0.593993 0.0280499 -0.371273 -0.453608 -0.364279
0.0147996 -0.0233269 0.0405469 -0.023048 0.0291869 0.0462778 0.0115521 0.00549121
-0.259971 0.296685 -0.117143 0.092294 0.0992923 -0.0455596 -0.13018 -0.244218
-0.938804 0.935376 0.0913017 0.602648 -0.10437 -0.498727 -0.607466 -0.51713
-0.0167922 0.0406357 0.0485367 0.0534464 0.0228216 -0.0137673 -0.0186333 0.0155299
-0.00436888 0.0488227 0.0177749 -0.0526862 -0.0317496 0.0108486 0.0381741 -0.0509525
0.0185026 0.0451471 0.0531582 0.0538948 0.0140152 -0.0400556 -0.0537633 -0.0365332
0.0291627 0.0051415 -0.00867811 0.00710479 -0.00912405 0.0335599 -0.0466438 -0.0633894
-0.189119 0.313619 -0.349834 -0.00900607 0.237079 0.251978 -0.263474 -0.321703
-0.123229 0.17341 -0.214166 -0.20013 0.348972 0.531122 -0.0210812 -0.501314
-0.218433 -0.0398 -0.541801 -0.399355 0.40003 0.79591 0.171212 -0.584769
-0.0146093 0.0268958 -0.0367777 0.00334824 0.00689091 0.00612914 0.0572227 -0.0177838
-0.00467798 -0.0494831 -0.020683 -0.0401864 0.0296372 -0.0216639 -0.0228323 -0.0634007
-0.254566 0.239383 -0.105083 0.0373548 0.129593 0.14306 -0.052862 -0.337702
-0.0298911 -0.00257424 0.0228587 0.0623726 -0.0126035 -0.0456733 0.00298567 0.036807
-0.0482235 0.0442371 -0.0617836 -0.0442153 0.00187613 0.0549793 -0.051288 0.0286914
-0.902507 0.905768 -0.0647937 1.17112 0.892864 -0.39695 -0.261784 0.277097
-0.143156 0.142465 -0.0542687 0.0318222 0.109955 0.0557811 -0.0298722 -0.152295
-0.791943 0.678428 0.145004 0.508911 -0.0933657 -0.139244 -0.589646 -0.396168
-0.290901 0.268353 -0.133821 0.0863664 0.139499 0.011286 -0.0339915 -0.160797
0.0259257 0.0587759 0.0523846 0.0480708 0.0198861 0.00128122 -0.0472745 -0.0509508
-0.0833355 0.0107705 -0.0543413 0.0310122 0.0308142 -0.0196031 0.0134695 -0.0884983
-0.141784 0.110938 -0.00871873 -0.0242903 0.0237166 0.0332206 -0.0551701 -0.126264
-0.0909698 0.0830342 -0.0577973 0.0162769 0.020156 -0.0291997 -0.000774158 -0.0236865
-0.448616 0.318321 -0.0483431 0.146756 0.126851 0.050845 -0.173522 -0.375258
0.0246316 -0.0387909 -0.0144919 -0.0158485 0.0546284 -0.023826 -0.0189796 -0.0348589
-0.0473587 -0.0519595 0.0159392 0.0593043 0.0574029 0.0394913 0.0175107 -0.00518608
0.00264245 0.0718236 -0.0815325 0.0208372 0.057367 -0.0439796 -0.08062 -0.00355171
-0.107657 0.0704619 -0.0456568 0.0312194 0.0440467 0.0301339 -0.0400904 -0.0240322
-0.214151 0.108058 -0.384999 -0.269171 0.234528 0.469652 -0.172196 -0.619434
-0.0613488 0.0682039 0.0135687 -0.0506013 -0.0476431 0.0319494 -0.0641118 -0.00591332
-0.399744 0.254292 -0.110717 0.207942 0.202004 -0.0101358 -0.0809784 -0.241029
-0.246791 0.252062 -0.0293458 0.0753562 0.0517077 0.0682092 -0.0597983 -0.186637
-0.930734 0.698588 -0.100922 0.728858 0.266455 -0.739731 -0.609259 -0.426823
-0.184445 0.123526 -0.0842301 0.0792125 0.140579 0.0735651 -0.0704399 -0.162572
0.0219527 -0.0403293 0.00813773 0.0184331 -0.0372329 -0.050868 -0.00378872 0.0386614
-0.0371933 -0.00342232 0.0263431 -0.0448294 0.0594995 0.0624543 -0.00586087 0.0319283
-0.0332575 0.0385914 -0.0588791 -0.0423987 0.0180984 0.0426543 -0.0130552 -0.0328032
-0.540251 0.424549 -0.108552 0.372045 0.184806 -0.132109 -0.148335 -0.262003
-0.0150743 -0.00234596 -0.0344427 0.0458931 0.0223452 -0.00734311 0.00694295 -0.0143312
-0.0742194 0.0119276 -0.0295369 -0.00634193 0.0273088 0.0577606 0.0272035 0.000592483
-0.0148725 0.065519 0.0357516 -0.0476347 -0.0393853 0.0481163 0.0336033 -0.0162968
-0.226352 0.233505 -0.237694 -0.0612552 0.263346 0.267611 -0.0731376 -0.356411
-0.00769733 0.0518219 -0.0573317 0.0613215 0.00882676 0.0233264 -0.0152561 -0.00190017
0.00267224 0.0552994 0.0509702 -0.0477984 -0.0525217 -0.00209245 -0.0619858 -0.0112767
-0.379198 0.320899 -0.124988 -0.0203244 0.0703871 0.0878233 -0.151174 -0.462342
-0.106416 0.059069 -0.0412643 -0.0368355 0.0625085 -0.00568181 -0.0479478 -0.103152
-0.415014 0.32392 -0.117668 0.0943379 0.143191 0.0796188 -0.12481 -0.384609
-0.432177 0.316004 -0.0788363 0.0897095 0.147544 0.104284 -0.238572 -0.390616
-0.0872836 0.0700609 -0.0148503 0.0577557 0.0706549 0.0231606 0.0204456 -0.0707709
-1.03407 1.04617 0.0866598 0.86275 -0.0628924 -0.424737 -0.404018 -0.33035
-0.164864 0.104809 -0.0111979 0.0212158 0.114992 0.0499395 0.0155633 -0.0442346
-0.850778 0.702569 0.0954656 0.459131 0.0356867 -0.23829 -0.457204 -0.270147
-0.493182 0.445234 -0.120533 0.45373 0.217715 -0.055995 0.14414 -0.135956
-0.0697782 0.0299953 0.000952401 -0.0378047 -0.0453334 -0.00976475 0.0512839 -0.0250555
-0.0242009 -0.00158866 -0.0412103 -0.0349528 -0.0262698 0.0360369 0.016846 -0.0355555
-0.193999 0.104032 -0.108335 -0.0112459 0.0964151 0.117831 0.00518574 -0.113183
0.012658 0.0366857 -0.0544561 0.00772942 0.0784851 -0.015561 0.02309 0.0158073
-0.0315103 0.0555629 -0.0459251 0.0495845 -0.0237394 -0.0473934 0.00776084 -0.0438481
-0.233797 0.156697 -0.1735 -0.172767 0.285929 0.463922 -0.0412711 -0.496746
-0.00363865 -0.0223108 -0.0294913 0.0433088 -0.0408911 0.00732174 -0.0253369 0.017099
-0.413432 0.34823 -0.126255 0.0588138 0.0813626 0.0399583 -0.267227 -0.448967
-0.0878039 -0.0238915 -0.00760737 -0.00157726 0.0344046 0.0466814 0.0183434 -0.0693031
-0.192109 0.151693 -0.417744 -0.331483 0.147973 0.513137 -0.084811 -0.621447
-0.023508 -0.0169987 0.0261277 0.0152361 0.0617234 0.0687723 0.0428517 -0.0292827
-0.988414 0.775275 -0.012726 0.567316 -0.042344 -0.443523 -0.651126 -0.357999
-0.447692 0.273219 -0.0968011 0.185156 0.124025 -0.0542442 -0.137059 -0.290396
-1.23658 0.590991 -0.110703 0.823213 0.0107298 -0.477742 -0.519821 -0.190695
-0.112112 -0.0221158 -0.056348 0.0570062 0.0424611 0.0798582 -0.0587921 0.0120462
-0.0519292 -0.0143156 -0.0614925 -0.0434756 0.040625 0.05465 -0.0328336 -0.00615619
-0.120739 0.0658371 -0.0742012 0.0607129 0.087544 -0.000311598 -0.0628379 -0.0924666
-0.0316327 0.0632512 0.0535324 0.00804312 0.00670126 0.0285885 -0.0148967 0.0119342
-0.0303509 -0.037332 -0.0651472 -0.0174638 -0.0408017 -0.0493334 -0.00382047 -0.0775157
-0.371905 0.179777 -0.102311 -0.117758 0.239002 0.245602 -0.120531 -0.489595
-0.121839 0.0355483 -0.0507307 0.0539883 0.0329051 0.0367063 -0.0645604 -0.0983168
-0.379828 0.225834 -0.19554 -0.118988 0.0982209 0.209557 -0.208211 -0.481469
-0.124084 0.0306247 -0.0455805 -0.014354 0.117833 -0.00182172 -0.0548372 -0.128751
-0.0796624 0.0127615 -0.0472459 -0.0258969 0.0259958 -0.034681 0.00749428 0.00568031
-1.05415 0.888888 0.116211 0.661898 0.0932222 -0.611239 -0.459108 -0.405442
-0.194151 0.0681682 -0.0219938 0.0443075 0.105619 0.0651303 -0.0529625 -0.15184
0.0116436 0.0430307 0.0109591 -0.0148446 0.0377578 0.025588 0.00445019 -0.0573773
-0.0594798 0.0655207 -0.000318939 0.0786771 -0.0295092 0.0299302 0.0429072 -0.0633611
-0.00728333 0.0685638 0.0244735 0.0153511 -0.0109606 -0.0240645 -0.0519997 -0.0426337
0.0100004 0.0780577 -0.0230117 -0.00659092 0.0440748 0.0142612 -0.0452351 -0.0182888
-0.0102439 0.0372858 -0.0547819 0.0318456 0.0191242 0.00222578 0.0321322 0.0228779
0.0386136 -0.02214 0.0144666 0.0361362 -0.0413865 -0.0421203 -0.031615 -0.0223932
-0.0926806 -0.0277863 -0.0708952 -0.0117332 -0.0215995 0.020115 -0.0472191 0.01791
-0.0670882 0.0683848 -0.0127554 0.0203587 0.0180474 -0.0108308 -0.0367174 -0.018235
-0.317917 0.234028 -0.230465 -0.0735384 0.26422 0.20769 -0.0551363 -0.367076
0.0143857 -0.0403297 0.024178 -0.00877739 0.0232146 0.025606 -0.048494 -0.0360817
-0.235101 0.161302 -0.144765 -0.0378054 0.243287 0.294177 -0.0838252 -0.346384
0.0203682 0.000529133 -0.058415 -0.0393107 0.00128231 0.00748833 -0.0437109 0.0158537
-0.323379 0.208921 -0.265853 -0.127025 0.133422 0.27759 -0.108814 -0.490542
-0.0163363 0.00759311 -0.0593933 0.0566913 -0.00463708 -0.0274234 -0.0533311 -0.0228596
-0.0712937 0.0483504 -0.0689502 -0.0596402 0.0171057 0.0385836 -0.0491359 -0.0156519
-0.229316 0.0822721 -0.0663019 -0.000587339 0.160507 0.164085 -0.123261 -0.158314
-0.0719511 0.040291 -0.0495739 -0.0326794 0.0752501 0.0438088 0.0443937 -0.0854408
-1.40129 0.275623 -0.131123 0.438793 0.446229 -0.591615 -0.739162 0.0760006
-0.0620267 -0.00408715 0.0239069 0.057475 0.0503924 -0.0370733 0.00578137 0.0571563
-0.413457 0.281105 -0.0694167 0.153532 0.192102 -0.00736251 -0.0448765 -0.200688
-0.485408 0.347587 -0.114505 0.232746 0.0655687 0.0399178 -0.291351 -0.330194
-0.0302627 0.012381 0.0206099 0.0605016 -0.00807611 0.0604173 0.0336255 -0.0258867
-0.0606449 -0.0123997 -0.0228438 0.00843558 0.000839168 0.0165417 0.0177849 -0.0282055
-0.0747329 -0.0075887 -0.0627823 0.0442095 -0.0173037 0.0466639 -0.00180805 0.0281
-0.137714 0.0665176 0.0282847 0.081513 0.0280226 -0.00211184 -0.0470081 -0.0429078
-0.0434999 0.139487 -0.180177 -0.211512 0.627076 0.802541 -0.434075 -1.37044
-0.0789747 -0.0294841 -0.0615311 0.0220894 -0.016489 0.0518283 -0.0506688 0.0154792
-0.295211 0.202923 -0.148085 -0.0720813 0.326095 0.308892 -0.0471768 -0.386198
-0.305334 0.166513 -0.267841 -0.194301 0.118821 0.246574 -0.109777 -0.535175
-0.0862579 0.0630694 -0.0351751 -0.0532096 0.0514598 -0.010906 0.00525509 -0.0129394
-0.262149 0.186361 -0.299729 -0.222028 0.144854 0.376705 -0.216202 -0.466169
-0.075367 0.0693491 -0.064231 0.0173618 0.0156713 -0.0304928 -0.0331533 0.0319862
-1.06378 1.15955 0.00860854 0.558569 -0.0555529 -0.239932 -0.63059 0.0435569
-0.461273 0.310519 -0.0925686 0.206319 0.216108 0.0503265 -0.192758 -0.222156
-0.0660751 -0.0370282 -0.0670943 0.0016879 0.0140867 0.0532743 0.0247421 -0.0622752
-1.24133 0.718936 0.0916353 0.98519 0.0565751 -0.375887 -0.66812 -0.218596
0.0117891 0.0588847 0.0180027 -0.0483853 0.045161 -0.0275711 0.013041 0.0157057
-0.0332301 0.0490466 -0.00204918 -0.0334334 0.10016 0.0708067 0.0218603 -0.0970569
-0.23673 0.136562 -0.0609898 0.0903628 0.231374 0.183865 -0.0766485 -0.275221
-0.0438455 0.0847805 -0.00237167 0.0487894 0.0499551 0.0452854 -0.0220018 -0.0615046
-0.115068 0.00194958 0.0268507 0.0217392 0.0302876 -0.031441 0.0158571 -0.0625626
-0.0166948 0.0165884 -0.0154656 -0.00587208 0.00767162 -0.0389237 -0.0360885 -0.0247782
0.000906924 -0.031648 -0.0359622 -0.0617627 -0.0440399 0.0761858 -0.0554718 -0.00407509
-0.169023 0.924741 -0.176064 -0.626413 0.114842 0.415009 -0.122699 -0.237588
-0.00926789 0.0442022 0.0409758 0.0047723 0.0292745 0.0584558 0.0206415 0.0293667
-0.0179988 -0.0188597 -0.0739483 0.055681 0.0490653 0.0588653 -0.0369265 -0.0578595
-0.0229782 0.0263009 0.00860575 -0.0432948 0.0445392 0.0119826 -0.0232365 -0.020796
-0.254459 0.142172 -0.385795 -0.374013 0.111519 0.46716 -0.187621 -0.604073
0.0317972 -0.045565 -0.0142665 0.0269871 -0.0287994 -0.000175246 -0.0114308 0.0249535
-0.228591 0.0797761 -0.0712371 0.0270095 0.171208 0.08901 -0.0638876 -0.129102
-0.561262 0.511033 -0.0383056 0.450485 0.165485 -0.0517055 -0.0853749 -0.150248
-1.35844 0.669896 0.2633 0.702374 -0.120796 -0.337055 -0.426928 -0.308035
-0.166367 0.151565 -0.106117 0.0277702 0.144151 0.0643766 -0.108132 -0.148248
-0.0509218 0.0527461 -0.0784417 -0.030774 0.0685104 0.00331199 -0.0129069 -0.0287421
-0.152293 0.117012 -0.0602823 0.0140608 0.119484 0.101566 0.00830805 -0.0859495
-0.0459645 0.0878313 -0.0976648 0.0326451 -0.00713408 0.070867 -0.0281883 -0.0551409
-0.186614 0.0815406 -0.11058 0.0844813 0.0252281 -0.00127328 -0.0479279 -0.159837
-0.0670609 0.0248156 -0.0446972 -0.0510898 -0.0152125 0.0501896 0.0266767 -0.0428646
-0.306544 0.196285 -0.139628 -0.0296807 0.256957 0.252142 -0.123618 -0.426849
-0.14839 0.0942087 -0.00345222 0.0173737 0.00900577 0.0890659 0.0206313 -0.0358203
-0.0591015 -0.0222516 -0.0181137 0.0585897 -0.0260533 -0.0496971 -0.00200195 -0.0107338
-0.30491 0.176076 -0.182885 -0.0615403 0.23203 0.252014 -0.0550447 -0.327786
-0.28977 -0.057789 -0.387509 -0.274766 0.462649 0.538567 0.067111 -0.43954
-0.0444714 0.0126308 -0.0596495 0.0049274 -6.93207e-06 -0.0485514 -0.0622074 -0.0521715
0.00891243 0.00939223 -0.0295546 0.0422908 -0.0169539 0.0233365 0.0196221 -0.014597
-0.282937 0.231572 -0.115166 0.00271363 0.195838 0.181257 -0.142677 -0.425819
-1.33834 0.574932 0.0717837 1.01653 0.644093 -0.684098 0.0866612 -0.0630134
-0.000426057 0.00288795 -0.0511697 0.0679476 0.013825 0.0586211 0.0166881 -0.0087713
-0.718416 0.55705 0.146422 0.412407 0.310712 -0.272573 -0.367561 -0.341628
-0.0728217 0.104231 -4.17047e-05 0.0693556 0.0386284 0.00522395 0.0258234 -0.11031
0.0326157 0.0037262 -0.0207441 -0.0131185 -0.0134351 0.0140624 0.0243811 -0.0468923
-0.149994 0.131496 -0.0245626 -0.0201908 0.0639961 0.0766125 -0.00979347 -0.145987
-0.0469085 0.0500066 0.0426375 0.031309 0.0647228 -0.041222 -0.0561553 0.000276991
-0.00573037 0.018547 0.0456208 -0.00192321 -0.0249892 -0.0545199 0.000837592 -0.0358579
-0.108926 0.116155 -0.014702 0.0505838 0.133596 0.127562 0.00793066 -0.148861
-0.258789 0.157899 -0.213967 -0.109607 0.289459 0.402565 -0.000462399 -0.391802
-0.160281 0.114625 -0.0914684 -0.0306144 0.0352089 0.10234 -0.0790865 -0.0997799
-0.303111 0.146839 -0.226519 -0.0836115 0.121726 0.371849 -0.256295 -0.541996
-0.123374 0.0957912 -0.0224384 -0.0163711 0.0481463 0.104017 -0.060762 -0.114662
-0.156642 0.203409 -0.372462 -0.270477 0.118228 0.534083 -0.159127 -0.581699
-0.235852 0.215628 -0.129169 0.0392914 0.0984082 0.0561908 -0.0362598 -0.111854
-1.07995 1.12169 0.381782 0.721905 0.0122532 -0.540902 -0.441351 -0.560235
0.0192778 -0.0413717 -0.0364161 -0.0599963 -0.0344652 -0.0448173 0.052453 -0.0563961
-1.13314 1.01711 0.123595 0.8497 -0.0961833 -0.259006 -0.467248 -0.154884
-0.00722001 -0.031935 -0.03399 -0.00750551 0.0314449 -0.0192309 0.0285866 0.013879
-0.0308321 0.0494547 -0.0390369 0.016427 -0.0491135 0.0108136 0.0522257 -0.0166301
0.0277634 -0.0222222 0.00184534 -0.0511262 -0.0159704 -0.017079 0.0412765 0.0205672
0.00670193 -0.0218676 -0.0127419 -0.005094 0.0199895 -0.0542606 -0.0407718 -0.0558818
0.0358675 0.020287 0.0369611 -0.0531916 -0.0459486 0.00681206 0.0246727 -0.0658872
-0.334736 0.200874 -0.188516 0.100515 0.194395 0.101246 -0.0438233 -0.251367
-0.0877622 -0.0275778 -0.0186249 0.0327601 -0.00185581 0.0636883 0.0237808 -0.0253088
-0.426099 0.263803 -0.147151 0.0438017 0.186235 0.143945 -0.130302 -0.272981
0.0215539 0.0333907 -0.0675194 -0.0101269 0.0156143 -0.0203372 -0.00512251 -0.0763384
-0.0506962 -0.0326127 0.0262348 0.0472138 -0.00943984 0.0746129 -0.0593163 -0.025158
-0.125865 0.0241406 -0.496221 -0.365745 0.423219 0.725361 0.0221627 -0.621066
-0.153132 0.277578 -0.062217 -0.256106 0.628809 0.672822 -0.337483 -0.858109
0.0443356 0.0203914 -0.00782872 0.00335148 0.00673686 -0.0141074 0.0137995 -0.00579109
-0.417658 0.221073 -0.1944 0.232946 0.163964 -0.00485358 -0.0786832 -0.174701
-0.082926 0.020554 -0.0155088 0.0661569 0.0840897 -0.0212092 -0.0289518 -0.0251667
-1.00893 0.733431 0.190451 1.12874 0.633633 -0.281355 0.154337 -0.00672761
-0.0974796 -0.00597639 -0.0469856 0.046875 -0.00190747 0.0401188 0.0463863 -0.0724458
-0.185021 0.280927 -0.35487 -0.173171 0.182143 0.374622 -0.0131877 -0.365269
-0.0302178 0.0282912 -0.0411617 0.00548531 -0.0295891 0.0665887 -0.0103594 0.0281632
-0.230688 0.148683 -0.1385 0.0445075 0.162165 0.153295 -0.0238277 -0.263463
-0.00200173 -0.00872285 -0.0674563 -0.0273604 0.00378324 0.0167011 -0.0530847 0.00465962
-0.292495 0.245777 -0.117006 -0.00906359 0.33611 0.242748 -0.216289 -0.372339
-0.342915 0.231976 -0.249921 -0.0459992 0.184372 0.235209 -0.152733 -0.342659
-0.339071 0.168475 -0.187789 0.0486084 0.172192 0.18862 -0.102126 -0.24162
-0.784976 0.52861 -0.0884297 0.305583 0.052722 -0.364273 -0.641232 -0.338367
-0.811803 0.706751 -0.0790493 0.446127 -0.0838036 -0.310479 -0.244276 -0.270975
-0.19404 0.22838 -0.0902949 0.0909252 0.142697 0.0559564 -0.000778642 -0.119564
-0.0340842 -0.0134199 0.0342427 -0.0350995 0.00662014 -0.0349045 -0.0260474 -0.0274876
-0.0496246 -0.0399397 0.052466 0.0414095 0.0149627 0.0380455 -0.0420209 0.0429785
-0.077305 0.0550397 -0.0842069 0.0160187 0.0344913 0.0788434 -0.012785 -0.157375
0.0141188 0.0539664 -0.0211674 -0.0178925 0.0583434 0.0526259 -0.0603299 -0.0865053
-0.275913 0.187136 -0.150539 -0.0973373 0.262198 0.278457 -0.0219654 -0.45881
-0.155569 0.03182 -0.549078 -0.348242 0.361437 0.749156 0.100912 -0.568574
-0.0605673 0.0262072 -0.0432155 0.0253604 0.0577884 0.0491485 -0.00690451 -0.0965596
-0.272033 0.154761 -0.291132 -0.188002 0.36398 0.413479 0.0411133 -0.452819
-0.121042 0.0651447 0.0375842 0.0124629 0.0956113 0.000940649 -0.0871003 -0.0192177
-0.997826 0.963258 0.197519 1.29115 0.660894 -0.18002 0.0406011 0.145709
-1.18932 0.591789 0.22679 0.938016 0.442583 -0.470159 0.0787315 -0.19415
-0.119704 0.122791 -0.0993522 0.00983145 0.0894617 0.026322 -0.0900358 -0.0655322