191 8 3
0.0156548 -0.00964533 0.0133829 -0.0231364 0.0156174 -0.0278411 -0.010319 -0.0306918
-0.0399745 0.0576579 -0.0541299 0.0483498 -0.0526261 0.0163593 0.0158144 -0.0299189
0.0119944 -0.0298338 -0.0427556 -0.0137681 -0.0406853 0.00972776 0.0579561 0.0558844
0.0513563 0.0568871 -0.00193623 -0.0225209 0.004565 -0.0431345 -0.050915 0.0230695
0.0367688 -0.0158741 0.0409664 -0.0443646 0.00787321 -0.0265392 -0.0426172 0.0383977
0.0333764 0.0115888 -0.00973002 0.0236575 0.0308806 -0.0484777 0.0358651 0.0274945
0.0402893 0.00873734 0.0517241 0.0347264 0.0477553 -0.0300698 -0.025595 -0.0407746
0.0381672 0.058426 0.0276193 0.0437596 -0.046326 -0.0295243 -0.0484386 -0.0334255
0.007747 -0.0491614 0.0282725 0.0428702 -0.0205581 -0.0386485 -0.0226011 -0.01298
-0.00397359 -0.00630946 0.021249 0.0312078 -0.0419938 -0.0170593 -0.00765263 -0.0466986
-0.0515845 0.0576801 0.0510598 0.00423135 -0.00632806 -0.028513 -0.0106346 0.0268054
-0.05939 -0.0250758 -0.000171607 0.0292226 -0.0312405 -0.0303261 -0.0166064 -0.0506362
-0.0127689 -0.0357703 -0.0162501 -0.0405902 -0.00711145 -0.0190058 0.054258 0.00156081
-0.042126 -0.0539239 0.044375 -0.05221 0.0398076 0.0214199 0.0599155 0.0305742
0.0128303 0.0602598 0.0180245 0.0375691 -0.0502411 0.0156422 -0.00725625 -0.046999
0.0546022 0.057309 -0.0282061 0.0297449 0.0162417 0.00446059 -0.0399177 0.00197497
-0.0282387 -0.0281265 -0.015692 -0.0117462 -0.0115575 -0.0614257 -0.0464071 -0.0189329
0.0165598 0.0492009 0.00916714 0.0464749 -0.0249895 -0.0112274 0.0389968 -0.0417419
-0.0522639 0.0228076 -0.0045988 -0.0333126 0.0368829 0.0533505 -0.0289108 -0.0317322
0.00690383 -0.0087132 0.0504917 0.0351255 -0.0397392 -0.0622072 -0.00891466 0.0100262
0.00681392 0.00872378 -0.00796892 0.0157698 0.0454952 -0.0336218 -0.0151045 -0.0362647
0.0371864 -0.0133808 -0.0523962 0.016609 0.0300422 -0.0290115 -0.0466249 0.00349092
0.0462194 0.0258694 0.0151605 -0.0534298 -0.0547534 -0.0221781 0.0304095 0.0333874
-0.0535464 0.00765984 -0.0476179 0.0507304 0.0334023 0.00610138 0.0414137 -0.0337942
-0.0472847 0.0383499 -0.00567898 0.0339396 -0.04044 -0.0272082 -0.00347527 0.0265834
0.0452062 -0.0166558 0.00920351 -0.00829976 -0.0147182 -0.0555767 0.0165649 0.035425
-0.00791946 0.055554 -0.0379633 0.00603568 0.0123225 0.0523166 -0.00438738 -0.00380469
0.060509 -0.0210847 0.010053 -0.0236043 0.0611323 0.0147057 -0.0412673 -0.0394567
0.0225826 -0.0204203 0.0382232 0.000521327 0.0610914 -0.0326499 -0.00687208 -0.0171741
-0.0584129 -0.043648 -0.0211035 0.0575678 -0.0141573 -0.0605152 -0.003423 -0.0417681
-0.00479276 -0.060912 -0.0248555 0.0318491 -0.0335107 -0.0111458 -0.00317548 0.0299261
0.000216362 0.0581906 0.0583941 -0.0237309 0.0487502 -0.0185071 0.0525728 0.0528524
0.00554616 -0.018477 -0.00705149 0.0614859 0.0209324 0.0184951 0.0453972 0.0522855
0.0434872 -0.0207579 0.0100896 0.0177654 -0.0278124 -0.0490508 0.0192608 -0.0554814
0.0598719 0.0224325 -0.00519178 0.0549101 0.0323746 -0.050537 0.047162 -0.0101381
0.0579714 0.00219239 -0.0328669 0.0389839 -0.0407142 -0.0536449 -0.0535612 -0.0460954
-0.0225187 -0.0360132 -0.0131801 0.0270149 -0.0487793 0.0109495 0.00478786 -0.0056331
0.00187674 0.0334877 0.0339688 -0.0613223 -0.0187397 -0.0440041 0.0515843 0.0014945
-0.0220223 -0.0163085 0.0346449 -0.0623691 0.0153537 0.00607178 0.0320345 -0.0536557
0.048981 0.0387008 0.000682007 0.0589883 0.0447753 -0.00915509 -0.0575994 -0.016519
-0.0235441 -0.0340227 -0.00958534 0.0352302 0.0267369 0.0176615 0.0392306 -0.00652269
0.0252043 -0.0242514 -0.0439595 -0.00774016 -0.00122835 -0.0593203 0.0212334 0.0227383
0.0194736 -0.0535917 0.0498714 -0.00197972 -0.0307849 -0.0297455 -0.0579805 0.0532385
0.0400549 0.00158244 0.030096 0.0600517 0.0333115 0.0561824 0.0152308 -0.0422866
0.0343876 -0.0463636 -0.0288453 0.0450213 0.0341832 -0.0520903 0.0619292 -0.0592191
0.0352336 -0.00286126 -0.0565798 0.0200144 -0.0256922 0.0202222 0.0360588 0.0372285
0.0168513 -0.00719818 -0.0206405 -0.0581424 0.0488064 -0.0507902 0.028215 0.00849103
0.0038838 -0.0454723 0.0239886 -0.038477 -0.0537774 0.0320197 -0.020209 0.0285279
-0.0436703 0.0380161 0.0502189 -0.0453028 -0.0142793 0.0113644 -0.0234308 -0.0177509
-0.0197303 0.0254504 0.0446665 0.0117012 -0.0508087 -0.0231152 0.0518757 0.0111987
-0.0400588 -0.0243619 0.0483177 0.0153114 0.0623441 -0.0416747 -0.0522364 0.0540693
0.00841516 0.0212108 0.032606 -0.0579827 -0.0521393 -0.060776 0.0204642 0.0585117
0.00575063 -0.0450054 -0.00829754 -0.0147948 -0.0376305 0.0385193 -0.0188002 0.0610235
-0.0582702 0.0481408 0.0622406 0.0361388 -0.0492123 -0.00622373 -0.0623211 -0.0034677
0.0467035 0.0458315 -0.0426908 0.0361483 -0.0573328 -0.0205822 0.0510716 0.0229618
0.0291085 0.0448613 0.0507904 -0.0170562 0.0597937 -0.0500715 -0.0360092 0.0177864
0.0401487 -0.0198977 0.0226136 -0.0313878 -0.0610934 0.052544 -0.017954 -0.0544915
0.0334417 0.0122078 -0.0284711 -0.0173238 -0.0611251 0.016582 -0.000966922 0.0288946
0.0236534 -0.0599981 -0.0396313 -0.0542174 -0.0173858 -0.0017894 -0.00703565 -0.0597611
0.0216062 -0.0507029 0.00483195 -0.057098 -0.043289 0.0275392 0.0137254 0.0174154
-0.0539381 -0.054667 -0.00347057 0.0154193 0.0529299 0.0149473 -0.0451366 -0.00576361
0.0551319 -0.0460382 0.0231879 -0.0376455 -0.0310653 -0.0334914 -0.0350293 -0.0272174
-0.0210632 -0.002768 0.0612288 -0.0424155 0.00300662 0.0195518 0.015199 -0.0270751
-0.00434604 -0.0081013 0.0403522 0.0479419 0.0426994 -0.0550593 0.0212103 -0.0114697
-0.0013373 0.0503203 0.0345306 -0.00191039 0.0075487 -0.0564722 0.016354 0.0340614
-0.00858168 0.0110844 0.0156814 0.031091 0.00606495 -0.0311693 -0.0475355 0.0579431
0.00360732 0.0565679 0.0521056 0.0614506 0.00847233 -0.0254717 -0.0370112 -0.0187327
0.0501449 -0.0336574 0.00150684 -0.0156164 -0.038816 0.0251578 0.0605878 0.0198473
0.000648087 -0.000100931 -0.0196958 0.0337248 0.012528 0.0605219 0.0186085 0.022592
-0.0286658 -0.0482404 0.0445838 0.0280234 0.0320902 -0.0534634 -0.0462278 0.0312176
-0.0030152 0.0384212 0.0102961 0.00478829 0.043694 0.059259 -0.0437913 0.000866954
-0.0514688 0.00677487 0.013988 0.0308372 0.0184069 0.0240668 0.0457255 0.0118276
-0.0590145 -0.0399275 -0.0158706 0.01095 0.0238422 0.0202633 0.0352899 -0.0292994
0.0286456 -0.00687594 -0.00574041 -0.0366191 0.0207659 0.00071574 -0.0465296 0.0352799
-0.0375682 0.0371469 -0.0541894 0.0014963 0.0116675 0.028579 -0.00783877 0.00994149
-0.0301721 0.0176567 -0.0289537 0.00519697 -0.0119338 0.061505 0.00546928 -0.00115791
-0.0125388 0.0284601 0.0311863 -0.0279226 0.011816 0.0581793 -0.0490863 -0.031807
0.0195898 0.034961 -0.0527279 0.00497227 0.0362151 0.0277644 0.00604885 -0.0442939
0.0298033 0.0110967 -0.0113379 0.00945072 -0.00889236 0.0280004 -0.0549599 -0.020602
0.0155235 -0.0170793 -0.0123871 0.00390085 7.77598e-05 -0.0448625 0.000454698 -0.0209356
-0.0380787 -0.0452119 -0.0285947 -0.0415436 0.047398 0.0431793 -0.048353 -0.033789
-0.000143619 0.0344427 -0.0361198 -0.0469653 -0.0352083 0.00410684 0.0418532 0.041762
-0.0524133 -0.0203161 0.0440762 0.0446643 -0.0565348 0.00107432 -0.0425154 0.0241285
-0.0181755 0.0200014 -0.0607482 -0.0400187 0.0282712 -0.0323794 -0.0331919 -0.0188693
0.0497096 -0.0295367 0.00128334 -0.0491689 -0.0614446 0.0334106 0.0516282 0.00628806
0.0324196 0.0198958 -0.00820407 -0.0459362 -0.0158694 -0.0258364 0.0115086 0.0457737
0.0374258 0.0165802 -0.0318462 -0.0122172 -0.0190046 0.0311369 -0.0361345 0.00508759
-0.00047676 -0.0101714 0.0327894 -0.00479058 0.0570341 0.00621846 0.0226409 -0.0443482
0.0171707 -0.0143775 0.00763779 -0.0273264 -0.0604408 -0.0513205 -0.00966064 -0.00258399
-0.0310692 0.0354909 -0.000605392 0.0125135 -0.00464857 -0.0252932 -0.0183826 0.0526913
-0.0168529 -0.0318997 -0.00660819 0.0205416 0.0187191 0.00379645 0.0540687 -0.0241926
-0.0183074 0.0383658 0.0429205 -0.0240961 -0.0313527 -0.00865023 0.00517519 0.0263753
-0.00476829 -0.0438234 0.0413535 -0.0165882 -0.0470332 -0.0187992 -0.0171317 -0.0593076
-0.045937 0.0270579 0.0487486 -0.00142274 -0.0349485 0.0467228 0.0453853 -0.054287
-0.0444678 -0.0420029 -0.0141538 0.0455366 -0.014771 0.0409387 0.0275428 -0.027368
-0.0405201 0.0204207 -0.00804977 -0.0262274 -0.0358965 0.00487251 0.0333822 -0.0458671
0.0380048 -0.057633 0.0282417 0.0250965 0.0122338 -0.0175745 -0.0404176 -0.0164304
0.00960643 0.0401087 0.0453277 -0.00622543 -0.0302072 0.00648457 0.0472803 -0.044428
-0.00701542 0.0563858 0.0531014 0.0392634 -0.0426018 -0.0185699 0.057714 0.0160517
0.021754 0.0104067 0.0214111 0.0525009 0.0285484 0.0433036 0.0200417 0.0598771
0.0518782 0.0173075 0.0061888 0.028146 -0.0509914 0.0624693 0.0215963 0.0601068
-0.0261301 0.0453081 0.0506872 0.0412686 0.0352101 0.0329774 0.0233291 -0.0349056
0.0579271 -0.0185237 -0.0563046 -0.0587067 0.0257035 0.0557305 -0.000703532 -0.0467906
0.0339276 0.0218615 0.00808944 -0.0317417 -0.0165452 0.0518035 0.00988041 0.0537322
-0.0247023 -0.0347945 0.0527132 0.0234286 -0.033332 0.0456989 0.0420797 -0.0270057
0.0186674 0.0592785 0.0414182 0.0367088 -0.00468265 0.0396003 0.0162519 0.0554839
0.0486817 -0.0525393 0.0166513 -0.0098255 0.0267443 0.0202842 0.0604615 0.043539
-0.0170852 -0.0209521 0.0187646 0.0487643 0.0241273 -0.00642531 0.0418873 0.0183133
-0.00643674 0.0205556 -0.0560857 -0.0526353 -0.0225297 -0.0179789 -0.0067334 -0.0410956
-0.014738 -0.00801541 0.04421 -0.0140268 -0.0357958 0.0546913 0.0110494 -0.0205173
0.0281028 0.0157773 -0.00904752 -0.0447474 -0.0171815 -0.0195621 0.0161785 -0.00324298
0.0451278 -0.00332486 0.0453187 0.0555417 0.0126638 -0.02973 -0.00160347 0.060419
0.0485428 0.0127828 -0.0310131 0.0074624 0.0365036 0.0554951 -0.00402793 -0.0272487
-0.0167888 -0.0135066 -0.0084294 -0.0554226 0.0417914 0.0391962 -0.0406344 -0.0277771
0.0410224 0.0370977 0.0184631 -0.0283906 0.0234681 -0.0196151 -0.0114726 0.019765
-0.0539655 -0.0527857 0.0135715 0.0471373 -0.0504459 -0.0225964 0.00136451 -0.0438072
0.0148133 0.000746737 -0.0155645 -0.0516486 -0.00938207 0.0281768 -0.0012137 -0.0331351
0.0555676 -0.00818766 0.0218784 -0.043296 -0.0592428 0.0121468 0.0160458 -0.0456262
-0.0075972 -0.0132 -0.0140925 0.0015808 0.0181914 0.0430573 0.0240554 0.0597554
-0.0116649 0.000234119 -0.00978031 -0.0348026 0.0548863 -0.0439829 -0.0348771 -0.0505818
0.0132756 -0.0427455 -0.0407054 -0.030166 -0.00396737 -0.0284361 -0.0419453 0.0504313
-0.0530248 0.00437251 -0.0301568 -0.0468399 -0.0271475 0.0608983 0.00640714 -0.0354404
0.0474671 0.011315 -0.0518407 0.00590037 0.0116413 0.0205465 -0.0286172 -0.0369428
-0.0226771 0.0368667 -0.0245956 -0.0114957 -0.0277849 -0.0169864 -0.0590216 0.0432261
-0.0416915 0.0227479 -0.0454832 0.0230945 -0.0120129 -0.0178081 0.0447807 0.0502839
-0.0319517 0.0353624 0.0261462 0.00581298 0.0615336 0.0480633 0.0587129 -0.0572884
-0.0569321 -0.0421729 0.0288685 0.0540018 -0.018356 -0.0264775 0.0406461 -0.0212763
0.0522031 -0.0288068 0.0592582 0.0189595 0.0603655 -0.0292819 0.00978933 0.028347
-0.0430631 -0.0434419 -0.0291656 -0.0062609 -0.0319766 0.0182771 -0.0447041 -0.0598992
0.0200743 -0.01043 -0.0330552 -0.00701436 0.0123275 0.0294747 -0.00814647 0.0510992
-0.0169437 -0.0141112 0.0614425 -0.0224763 0.0241266 0.00743547 0.0525571 -0.0465128
0.000605663 -0.0265148 -0.00784882 -0.035247 -0.0161696 0.0346973 -0.0435014 -0.027262
-0.00180573 0.034007 -0.0194587 -0.0190042 0.0245979 0.0353573 -0.0394924 0.0386725
-0.016462 0.0515274 0.0358162 -0.0347395 -0.00736041 0.0062264 0.00908444 -0.034316
0.0236017 0.0494318 -0.0195481 -0.0331931 0.0412554 0.0593465 0.0542693 0.0280265
0.0433198 -0.0180409 -0.0242099 0.0127011 0.0164729 0.0391341 0.057774 -0.0351331
0.0405871 -0.040293 0.00104723 0.00836279 -0.0602827 -0.0234991 -0.0202283 0.0224377
0.0109661 -0.0433331 -0.0168385 -0.0194868 -0.05019 0.00920094 0.0396327 -0.0587707
0.0424523 -0.0579894 0.0119481 -0.0148521 0.0324458 -0.0445054 -0.0155874 0.00725331
-0.0124523 0.0480484 -0.0588605 0.020964 0.0360964 -0.0584081 -0.0623438 -0.0564083
-0.0427032 0.0213267 0.0351697 -0.0474596 0.0103665 0.0363927 0.0541583 0.0220314
-0.0340647 -0.0613809 -0.0414888 0.0451697 -0.024024 0.0278693 -0.00224635 0.00864167
0.00204737 0.0310532 0.0274895 -0.0106664 0.0592613 0.0445097 0.0518818 0.0244505
-0.0214165 0.0524546 0.0613402 -0.0150572 0.0102698 0.0017502 -0.0206709 -0.0472529
0.0534348 0.0259769 0.0361788 -0.0105811 -0.0169157 0.0263876 0.0561679 0.0548883
-0.0622067 0.0142336 0.0603354 0.0199221 0.0613913 -0.00809887 -0.0499262 0.0181095
-0.0460762 -0.00850361 -0.00298341 -0.0173949 -0.00600945 -0.0429319 0.0525272 -0.0489169
0.00272646 0.0331498 -0.0356033 0.0543285 0.0591011 0.020826 0.0389052 -0.0243136
0.0605811 -0.0576457 -0.0469358 -0.0509488 -0.0295871 0.0490633 0.0305553 0.0236532
-0.00532291 0.0373461 0.0226199 -0.0104232 0.00633822 -0.0462854 0.0156669 0.0518113
-0.0255305 0.0238038 -0.028299 -0.0249336 -0.0167387 0.0571608 0.0293467 -0.0189949
0.0118539 -0.0342742 0.0292375 -0.0290867 0.0425739 0.0183126 0.030931 0.0542268
0.0267601 -0.0098813 0.0166028 -0.0493813 -0.0154749 0.0491829 -0.0342682 -0.0440377
0.00302394 -0.00627318 -0.0032909 0.0429453 0.0354211 -0.0415828 -0.042045 0.00946016
-0.0565456 0.0337286 0.0520424 0.0337395 -0.0101094 -0.0186779 -0.00679661 -0.0609304
0.0269847 -0.0222117 0.00660394 -0.0265936 -0.0524863 0.0151019 -0.0305037 0.0289159
-0.0616978 0.00100789 0.0409818 9.20385e-05 -0.023813 -0.0132636 0.0181779 -0.0237664
-0.0347255 0.0292951 -0.00194382 -0.0187644 0.0365905 -0.0248023 -0.0555112 -0.0429963
-0.0227266 -0.00938477 -0.0071105 -0.0420132 -0.0226751 -0.00577237 0.0487992 -0.0562515
-0.00145811 0.00306329 -0.0268193 0.0420861 0.00521302 0.0230991 0.0363164 0.0364579
-0.0251183 0.0104166 -0.0133481 -0.0428573 -0.0441226 -0.0154445 0.0205863 0.00645188
0.0504605 -0.0549755 -0.0299302 0.0239991 -0.0562849 -0.0438284 -0.0160437 -0.00429391
-0.0365353 -0.00576508 0.0547317 -0.0326373 0.033277 0.0514604 0.0270162 0.00821097
0.000631819 -0.0109627 0.0291877 -0.0327143 0.0522422 -0.0430286 0.0372375 -0.0518221
-0.0484451 0.0317751 0.0186893 -0.0404819 -0.00300864 -0.0470941 -0.046261 0.0384007
-0.0281795 0.0478079 0.022135 0.0420409 0.0395069 -0.0393436 -0.0122959 0.0320784
-0.0426037 0.0399337 -0.0226842 -0.0402315 0.0261175 -0.0146384 0.0438301 -0.0449778
-0.0397717 0.025902 0.0228527 -0.0145781 0.0236405 0.0094659 -0.0200766 0.0499209
-0.00755941 0.0491987 -0.0198762 -0.00328985 0.00010597 0.0115523 0.0113513 0.0276552
-0.0367 0.00320982 -0.00710787 0.025565 0.015076 -0.000472246 -0.0214092 0.0546709
0.0123552 -0.0189289 0.00247458 -0.0102535 0.0109979 -0.0476477 -0.05226 -0.0354294
0.0521321 -0.0282921 -0.0232255 0.00606501 -0.0150115 0.0585506 0.0341139 -0.00523254
-0.0376227 0.0386565 -0.0152331 0.025675 0.0176983 0.0201844 0.0338114 -0.0248801
-0.0300352 -0.0116566 0.00256344 0.025362 -0.014417 0.0323549 0.04626 0.0439493
0.0194964 0.0409835 0.0275838 0.00917386 0.018963 0.0243484 -0.00339536 0.00432375
0.0595224 0.0543995 0.0251452 -0.00671929 0.0253232 -0.0525726 -0.0440483 0.00176403
0.0230924 0.0101774 -0.0269834 0.0596977 0.0146062 0.0513673 0.037089 0.0469896
0.0242009 0.0378291 0.0158705 0.0479796 0.0500831 -0.0207319 -7.30186e-06 -0.0352245
0.0229551 0.0223389 -0.0401471 0.0169861 0.0557026 0.0292797 0.0451115 -0.0529645
0.0199199 -0.0274108 -0.0367035 -0.0256357 0.0613239 -0.0388493 0.0295206 -0.0251918
0.0607677 0.013527 -0.0316819 -0.0193689 -0.00179233 -0.00959239 -0.0303822 -0.0252334
-0.0485773 0.0612786 0.0500254 0.0139207 -0.0500938 -0.00101462 0.0248881 0.0366571
0.0167026 0.0385355 -0.0549149 -0.0276713 -0.0275342 0.00262882 0.00497782 0.0125754
0.0575233 -0.0464316 0.0407294 0.0545184 -0.0105146 -0.00845374 -0.00565582 -0.0103234
0.0378896 -0.0366237 -0.00208217 0.0558962 -0.0438399 -0.00109685 0.0498848 -0.00236869
0.0539443 0.0189769 0.0260865 -0.0140302 0.0538823 -0.00184544 -0.04324 0.00678108
-0.0010734 -0.0314432 0.0255592 0.00489649 -0.0589095 0.0164929 0.0238957 -0.00872982
-0.000477462 0.0125332 0.0563312 0.0207365 -0.0569537 -0.0591397 0.0250204 -0.00231997
-0.01729 0.0385533 -0.0609592 0.0051952 0.036412 -0.0483608 -0.0494993 -0.0235053
-0.0491268 -0.0409482 -0.0369124 0.0397228 0.0518859 0.00234556 -0.0403576 0.0554345
-0.0160945 -0.0118565 -0.00958357 0.0161032 -0.0107571 0.0347872 0.0512633 -0.0313602