5341 13 70
0.0323215 0.0294251 0.00489212 0.0264807 -0.0151387 0.0301719 -0.0308819 -0.0217058 -0.0175917 0.0235209 -0.0176602 0.0135106 -0.0120706
-0.00595894 -0.0223848 -0.0196631 -0.0014175 0.0165645 0.0120139 0.0118467 0.0343978 -0.00909645 -0.0378504 0.00847499 -0.0282381 0.0273722
-0.0745586 -0.0458896 -0.00878753 -0.0750712 -0.0310911 -0.019622 -0.00723237 -0.0261434 -0.0454794 -0.0818607 0.0110322 -0.0505767 -0.0122787
-0.116575 -0.0340086 -0.0493085 -0.196192 -0.0804852 -0.166919 -0.0649865 -0.0593912 -0.0390011 -0.120728 0.0411953 -0.109846 -0.00343584
-0.015603 -0.00597417 -0.0279306 -0.0230106 0.00742748 -0.0413474 -0.0254249 0.0140268 0.0237249 -0.0418049 0.0100057 -0.0167865 0.0116257
-0.124011 -0.0450858 -0.0252631 -0.122684 -0.0100478 -0.0551114 -0.0293863 0.0120499 -0.036798 -0.10524 0.0644176 -0.0802282 -0.00944837
-0.0397596 0.0112606 -0.022367 0.0171694 0.00597135 0.0108571 0.0312784 -0.0204119 -0.0411778 -0.0122142 -0.00887122 -0.0195474 -0.016391
0.0118152 0.0358892 -0.00451117 0.0262051 -0.00714189 0.0146006 0.00858966 -0.037112 -0.0238311 -0.0416155 0.0333205 0.018885 0.00652006
-0.043428 -0.0328742 -0.00347772 -0.0426822 -0.0118182 -0.0085795 -0.00401033 -0.0349139 0.0369703 -0.00436144 0.0176788 -0.0334516 0.00728551
-0.0389492 0.0115362 0.00669996 -0.0432716 0.0112085 -0.00792289 0.0183766 -0.0172215 0.0318985 0.0249218 -0.0282914 0.0278338 -0.0164197
0.00998857 0.032412 -0.0391039 -0.0462787 -0.0359541 -0.00719295 0.0051622 0.0127714 0.0356147 0.0328347 -0.0188818 0.00166536 0.0280393
-0.00730881 -0.00201048 0.0239474 0.00833817 0.0255666 0.016036 0.0180565 0.0181736 -0.0332022 -0.0265228 -0.0344741 -0.0408731 -0.0147621
-0.0499346 0.0117409 -0.0165814 -0.0924833 0.0179524 -0.0819846 -0.0416025 0.017805 0.00106449 -0.0166026 -0.00937035 -0.0249821 -0.0170856
-0.0210925 0.0150936 0.0194493 -0.014924 0.0229819 -0.0052046 -0.0054261 -0.0397102 -0.0224101 -0.0482951 0.0265415 0.0232817 0.0324455
-0.0676604 -0.0240941 -0.0550656 -0.186359 -0.0255359 -0.12978 -0.0721223 -0.0369975 -0.0280373 -0.110668 0.0741681 -0.0871063 0.00196126
0.00766625 -0.0147576 -0.036532 -0.00598192 -0.0333744 -0.0445021 0.00957092 0.034907 0.0110103 -0.0140256 0.0126319 0.0157777 0.0355045
-0.152836 -0.172711 -0.138815 -0.446863 -0.00753502 -0.205328 -0.117723 0.020005 -0.16267 -0.228285 -0.0683111 -0.152715 -0.184187
-0.0058619 0.00115546 -0.0370258 -0.016756 -0.00230941 -0.00544429 -0.00853475 -0.00791543 -0.00154523 -0.0324115 0.0375048 0.013953 0.0122666
-0.0058905 0.0258708 -0.0400472 -0.0282541 -0.0247392 -0.0489296 0.00414209 0.0106534 0.0355954 -0.042887 -0.0316431 -0.0428477 0.0320345
-0.0406219 0.00678113 0.000700661 -0.0101737 0.00442287 0.0256663 -0.0212392 0.0296513 0.0154197 -0.0344177 -0.000119496 -0.00455317 -0.00826113
-0.030678 -0.00423249 0.0108174 -0.00904235 -0.00501098 0.01453 -0.00964679 -0.0155017 0.0259422 -0.00135138 -0.0152085 -0.0410206 0.0294552
-0.260421 -0.15674 -0.216298 -0.398677 -0.0876133 -0.164513 -0.0533413 -0.0200965 -0.174301 -0.301962 -0.174034 -0.0403336 -0.138437
-0.0936448 -0.0805969 -0.0311155 -0.225183 -0.0475392 -0.109842 -0.0654895 0.0119096 -0.0625194 -0.155473 0.0235943 -0.0872625 -0.049282
0.0144276 -0.00493135 -0.0212139 -0.0444274 -0.0393051 -0.0219995 -0.0194523 -0.00499971 0.0271351 -0.0193923 0.0130915 -0.0110106 0.0157224
-0.0526967 0.00112102 -0.0458466 -0.105791 0.0116113 -0.0712129 -0.0156896 -0.0391744 -0.0431362 -0.00803713 0.0326182 -0.0660829 -0.0254199
0.022038 -0.0384066 0.0283664 0.0198297 -0.0257165 0.00897941 0.0186449 0.018485 0.0272957 0.00514732 -0.0225933 -0.0290369 0.0106954
-0.0337491 -0.0289294 0.0151202 -0.000996709 -0.00642112 0.00378855 0.0157652 0.0217664 -0.0272598 0.0294176 0.00476273 0.000402012 -0.0199982
0.0144765 0.00582696 0.00246046 -0.0366595 0.020585 0.0156287 0.0210116 0.0141312 0.0343533 -0.0242986 0.0139716 0.031973 -0.0404742
-0.195948 -0.0621537 -0.0798817 -0.312538 -0.0138295 -0.173646 -0.133733 -0.0183674 -0.104527 -0.212314 0.00696991 -0.166098 -0.0546306
-0.0634787 0.00689934 -0.0105575 -0.0764873 -0.00564836 -0.059247 -0.0324396 -0.0173593 -0.00497055 -0.0356274 0.0130901 -0.0575493 0.0271531
0.00269255 -0.0441282 0.0104072 -0.0345525 0.00922965 0.00889434 0.00978134 -0.0326863 -0.00734844 -0.0162006 0.00516506 -0.0375239 0.0106353
-0.0832775 -0.0557453 -0.0164813 -0.110445 -0.0482105 -0.117345 -0.0261545 -7.77725e-07 -0.0385325 -0.0339731 0.0503229 -0.0158405 -0.0044119
-0.0287094 -0.0130393 -0.0301665 0.00866994 0.021321 0.00383 0.00317415 0.00490388 -0.0120604 0.00270422 -0.0201374 -0.0454354 -0.0383645
-0.144335 -0.0872535 -0.080686 -0.25116 -0.0434175 -0.196683 -0.0725858 -0.072249 -0.00131756 -0.0986725 0.083652 -0.120856 -0.100674
-0.0406847 -0.0371358 0.0100798 -0.0376417 0.00114227 0.00589484 0.000949689 -0.0104266 0.0351461 -0.0155476 0.0197241 -0.0333853 0.0319133
-0.0947172 -0.0874476 -0.0404483 -0.18426 -0.0063751 -0.109285 -0.0422951 -0.0406834 -0.039451 -0.13255 0.0291103 -0.0734938 0.00202804
-0.0389247 0.017546 -0.0127804 -0.00278756 0.0298535 0.01432 -0.0381805 0.0310341 0.0206195 0.00240987 -0.0337073 -0.024082 0.0111362
-0.0170708 0.00531537 -0.030415 -0.0217271 0.0365285 -0.0269097 0.0284653 0.0246502 -0.026724 0.0178992 -0.0175074 -0.0413299 -0.0168338
0.00637218 -0.0218608 -0.0204265 -0.0393796 -0.038362 0.00768909 0.028013 0.0135048 -0.0191624 -0.0406264 0.0359997 -0.0295463 -0.0191941
0.0118487 0.0148138 -0.0449172 -0.00979478 -0.0389197 -0.0121125 -0.0204857 0.00718872 -0.0292438 -0.0487485 0.00466643 0.0136488 0.030769
-1.13479 0.480393 0.669719 -1.26447 -2.20275 -0.542589 -0.450336 0.0503356 0.698017 -1.85843 2.81685 -2.08543 1.94352
-0.0135459 -0.017753 0.0334277 -0.0274727 -0.031529 -0.0134491 -0.0133279 -0.030951 0.0294274 -0.0151586 -0.0220796 0.0226158 -0.0141016
-0.0132331 -0.0267276 -0.0155246 -0.0433072 -0.0354341 -0.0231889 0.00194806 -0.0221529 0.0127154 0.0200481 -0.00589846 0.0271614 0.0142731
0.0282712 -0.0109711 0.0131202 -0.0426649 0.0160844 -0.0131417 0.00670971 0.0115161 0.0374056 -0.0129454 0.0398852 -0.031154 0.01121
0.0278634 -0.00203634 0.0362571 -0.0198779 -0.011145 -0.0300047 -0.0359345 -0.00923538 0.0175664 -0.00332708 0.0261505 -0.033623 0.00839614
0.0241919 0.0200125 0.0283405 -0.0221862 0.0110926 0.0108682 -0.0139712 0.011631 0.0348129 0.0272397 0.0119551 0.0258675 -0.0267321
-0.00645681 -0.0532619 -0.0192979 -0.0768587 0.011877 -0.0144144 -0.0191576 0.0333522 0.00263252 -0.0192186 0.0423907 -0.0520066 -0.0146631
-0.128874 -0.0652422 -0.0118079 -0.149184 -0.0345584 -0.0798875 -0.0378414 -0.00669706 -0.018143 -0.117997 0.034389 -0.0864731 -0.055903
-0.0514666 -0.0172965 -0.0132502 -0.0718506 0.0114805 -0.0227076 -0.000860248 -0.00154461 -0.0154778 -0.0221391 0.0395663 -0.0351398 0.00576732
-0.00313365 0.00324935 -0.00210063 -0.0814756 -0.0213863 -0.0490737 -0.0414129 0.0221773 -0.0181691 -0.0408122 -0.0097537 -0.00439947 0.0200369
0.00916577 0.0242684 0.0114283 -0.0148136 -0.00136443 -0.0136434 -0.0363608 0.0339367 -0.0314049 0.00308787 -0.0297866 0.0233543 0.0252053
-0.00424385 0.0141089 -0.00740619 0.00808304 0.0192503 -0.00697009 -0.0232684 -0.0308305 -0.00373078 0.0164716 -0.0152363 0.0227976 0.00762736
0.00489724 0.027305 -0.0236366 -0.0305465 -0.041182 -0.03616 -0.0361321 -0.0397877 0.0053289 -0.0299221 -0.0083638 0.000373012 0.0325219
-0.077906 -0.00814821 -0.0708637 -0.168699 -0.0422918 -0.106282 -0.0500263 0.0248601 -0.0467313 -0.104622 0.0531767 -0.0965418 -0.0183481
-0.0409808 -0.0201452 -0.0528743 -0.0743851 -0.00938156 -0.036385 -0.0327542 -0.00864806 -0.0255934 -0.0393736 -0.00791375 -0.0309753 -0.0529112
-0.168866 -0.0962402 -0.0711965 -0.343266 -0.059575 -0.199003 -0.10459 0.0258941 -0.0973091 -0.224817 0.0571356 -0.128334 -0.0441986
-0.183344 -0.0688638 -0.108089 -0.259441 -0.00588513 -0.217581 -0.0566472 -0.0992686 -0.0234009 -0.0678322 0.0359699 -0.0965525 -0.172285
0.00356492 0.0350974 -0.0381068 -0.0209394 0.0278338 -0.0239309 0.0163488 0.0119363 -0.0110799 0.0215042 0.00470664 -0.0304566 0.00375014
-0.0342083 -0.041691 -0.0385009 -0.0773445 -0.00769592 -0.027523 0.0154902 -0.0298004 -0.030313 -0.0312818 0.0160009 -0.0325898 -0.00132616
-0.0131183 0.0110496 0.0314521 0.00271755 -0.00330302 -0.0368184 0.00511843 0.000964455 0.0180744 0.0159019 0.0276693 0.0200744 0.02913
-0.168453 -0.0658952 -0.0970724 -0.296323 -0.0548314 -0.214321 -0.0711548 -0.0479136 -0.0380079 -0.146799 0.0186727 -0.0960847 -0.108428
-0.0687731 -0.0187336 0.0047006 -0.0278301 0.0209845 -0.0140046 -0.0301164 0.00273146 0.00288395 -0.0497364 0.0471811 -0.0548813 -0.0576654
-0.0103646 -0.00890247 -0.0234636 0.0102608 0.0366604 -0.0413625 -0.0335186 0.0337335 -0.0125972 0.0313246 -0.00599597 0.00932578 -0.0183064
-0.0384359 0.0111991 -0.00395744 -0.0310826 0.0144807 0.0154394 0.0201882 -0.00712448 -0.0103431 0.0301496 0.00248507 -0.0427878 0.0350887
-0.0145112 0.035171 -0.0393025 -0.0328971 -0.00936685 -0.0153497 0.01019 -0.00838729 -0.0212685 0.0345853 0.00327624 -0.0356394 -0.0249445
-0.0146173 -0.00123606 0.0268681 -0.0138165 -0.0378901 -0.00167462 -0.028545 -0.028322 0.0307865 -0.0165688 0.0218841 0.00663726 0.0125366
-0.0200484 -0.0113587 0.0106434 -0.0368525 -0.0155458 -0.0398029 -0.00754774 -0.0387978 0.00240692 0.0125634 0.00302913 0.00544708 0.00736738
-0.100963 -0.0102207 -0.0653398 -0.101016 -0.0393262 -0.0643203 -0.0412624 0.0240887 -0.0303746 -0.0992249 0.0147912 -0.0534074 -0.045269
0.00193917 -0.0263726 -0.036012 -0.0289799 -0.0255134 -0.017988 0.00700231 -0.0237693 -0.00649599 -0.0414725 -0.00747921 -0.0185987 -0.0334094
-0.147788 -0.034022 -0.0784369 -0.22689 -0.0473001 -0.15266 -0.0269722 -0.0456402 0.00464505 -0.0815388 0.0586886 -0.109297 -0.0805934
-0.183048 -0.124386 -0.120313 -0.358782 0.0326955 -0.368232 -0.101232 -0.157109 0.0602827 -0.008078 0.0126516 -0.110153 -0.450421
0.025493 -0.0023619 -0.00419567 0.015575 -0.0167945 -0.0340917 -0.0117381 -0.00355884 0.0221648 -0.0122113 0.00548589 -0.0240477 0.0203816
-0.189268 -0.239341 -0.209485 -0.432846 0.0439782 -0.245691 -0.0732975 0.0198768 -0.22325 -0.332118 -0.113208 -0.220387 -0.194159
-0.0310117 0.025806 0.00506432 0.0175947 -0.0264666 0.0249093 0.027828 -0.0187407 -0.0187681 0.00502403 0.0115392 0.028701 -0.00881769
0.00231661 -0.00408775 0.0170304 -0.0409152 0.0216572 0.0105292 -0.0182817 0.0224012 0.00950711 0.00744434 -0.0209709 -0.0235639 0.0197684
-0.160149 -0.118337 -0.167566 -0.320825 -0.0116589 -0.216601 -0.0604973 -0.020817 -0.110956 -0.126449 0.0338388 -0.128261 -0.124894
-0.0172993 0.000672304 0.0241467 0.0177588 -0.0109324 -0.00252555 -0.0175286 0.00913891 -0.00237308 -0.0285694 0.00465704 -0.0307103 0.000699004
-0.235502 -0.114372 -0.0987513 -0.399021 0.0108506 -0.211523 -0.128475 0.0285478 -0.152898 -0.175151 -0.0760276 -0.15653 -0.233409
-0.511797 -0.0344146 0.316653 -0.59318 -0.695843 -0.0378697 -0.515371 0.221343 0.48365 -0.853515 1.2717 -0.733798 0.790173
-0.917221 -0.308359 -1.46441 -1.75858 0.468807 -1.50891 -0.218267 0.405938 -1.02494 -0.943483 -0.298327 -0.409889 0.514996
-0.000581262 -0.00528825 -0.0091135 -0.0681512 0.00978415 0.00227572 0.0225632 -0.0422833 0.0265223 -0.00421877 0.00559974 0.0159363 -0.00358654
-0.0315627 -0.0175778 0.00586802 0.0162758 0.0271149 -0.0224774 -0.0271086 0.00853881 0.031177 0.0252036 0.00409735 0.0149716 -0.00394323
-0.0128152 0.0173311 -0.0112679 0.00876141 0.00031487 -0.0201584 0.0249937 -0.0111537 0.0260057 -0.0307929 -0.0110586 -0.0128776 -0.0366123
-0.0432928 -0.0386701 -0.0295988 -0.0714222 -0.0370533 -0.0632139 -0.00331719 0.0334887 0.0148252 -0.0552575 0.0302118 -0.021494 -0.0433112
-0.0281156 0.0173524 0.023311 -0.0118437 -0.00924888 -0.0136181 0.0182959 0.00717631 -0.0181199 -0.00328729 0.038045 -0.0318928 -0.036476
-0.0869775 0.000780867 0.00344872 -0.0983719 -0.0246751 -0.015397 -0.0571171 -0.013925 -0.0111118 -0.031199 0.0598915 -0.0220139 -0.0174535
-0.0837947 -0.0328413 -0.0465461 -0.171251 -0.0180799 -0.0920943 -0.0589631 -0.0481818 -0.0421517 -0.0615183 0.0779487 -0.0575906 -0.00474783
0.0348053 -0.0302378 -0.0129872 -0.0312528 -0.031709 0.0187986 0.0262062 0.0169947 -0.0234959 -0.0299197 0.0312505 0.0262308 0.010151
0.00522872 -0.0338458 -0.000505243 0.00710619 0.0288212 -0.0252749 -0.00656717 0.0122607 -0.0379045 -0.00709212 0.0341076 0.0301628 -0.0032811
-0.0324943 0.0240612 -0.016761 -0.00855694 0.00485496 0.0171704 -0.0246164 -0.0263385 -0.0131749 -0.0263714 -0.01669 0.00946306 -0.0286832
-0.0846399 0.0302031 0.00883144 -0.117579 -0.156644 -0.0542028 -0.0492685 -0.00150732 0.035913 -0.094618 0.154348 -0.102217 0.102856
0.0323203 0.0268843 0.00436747 0.0133196 0.0147599 0.0234361 -0.00851334 0.0222708 -0.0170076 -0.0331512 -0.00134312 -0.0141022 -0.0206015
-0.0388859 0.0318574 -0.016551 0.027214 -0.0176184 0.00723998 0.0154644 -0.00272268 -0.0157759 -0.0126234 0.0327929 -0.0235515 -0.0208581
0.0129753 -0.00213946 -0.0231702 -0.00702252 0.0248493 0.00736265 0.0291318 -0.039037 0.000283177 -0.0276566 0.00413989 0.000226287 0.00642448
-0.0414789 -0.00130774 -0.0465416 -0.0902248 0.0257415 -0.0616108 -0.0530097 0.00112315 -0.0106536 -0.00100603 0.0221846 0.00471502 -0.00198056
-0.0114478 0.0173966 -0.00634841 0.00132486 0.00106185 -0.0176882 0.0152206 -0.0358444 -0.0123072 -0.000815129 -0.0242908 0.014269 0.000606631
-0.173163 -0.0842981 -0.053491 -0.240233 0.0106731 -0.18919 -0.0712085 -0.0608071 -0.0315551 -0.112362 0.0762145 -0.123127 -0.167576
-0.0192851 0.0162362 -0.0290072 -0.0231363 -0.00218909 -0.0265026 0.0265356 -0.00949686 -0.0207255 -0.0468589 -0.00679361 -0.0111716 0.0112663
-0.0469779 0.0227825 -0.0367341 -0.0539079 0.00176322 0.00316293 -0.0222269 -0.0334856 0.0197701 -0.0442662 -0.0132257 -0.00808001 0.0343243
-0.0453764 -0.0368513 -0.0143321 -0.0492134 0.008357 -0.0181816 -0.0269958 -0.0217996 -0.0327665 0.0143196 0.00928393 -0.0365422 0.00798582
-0.0508932 -0.035763 0.00929553 -0.0739973 0.0157413 -0.0616618 -0.0498949 0.0161026 0.00850717 -0.0647896 0.0207487 -0.00523624 -0.00189649
-0.0182691 0.0341427 -0.00364462 0.0164407 0.00532696 -0.0185834 -0.00899077 0.0122297 0.015689 -0.00649933 0.0376904 -0.0241005 0.0170371
-0.161362 -0.586723 -0.563678 -0.750592 -0.0718579 -0.665433 0.174743 0.113628 -0.464041 -0.855295 -0.421316 -0.561457 -0.426707
0.0123828 -0.0208683 -0.0399634 -0.0314702 0.0061671 0.0132714 0.0187917 -0.0295645 0.000812741 -0.0307652 -0.019287 0.00466956 0.0122266
0.0118374 0.0259005 0.000606618 -0.00355365 0.00326674 0.011442 -0.0368225 0.0318487 -0.0156392 -0.0108997 -0.0157863 0.00110719 0.0296606
-0.0329659 0.015603 0.00585839 -0.0994952 -0.0414474 -0.0435619 -0.0181629 -0.0256416 -0.0237281 -0.0125467 0.00894825 -0.0382452 -0.0392327
0.0321575 0.0262448 -0.0275593 -0.0475401 -0.0213744 0.00397662 -0.0190574 0.0107309 -0.0346725 0.0133854 -0.0350064 -0.0096965 0.00957064
0.0353335 -0.00840802 -0.0327291 0.0178716 0.0138288 0.0223556 -0.00506161 0.0116199 0.010828 -0.00153481 0.0125253 -0.0164294 -0.0225044
0.0243125 0.0206232 0.00122971 0.0124819 -0.00786403 -0.0335223 0.0335003 -0.0247161 0.0229849 0.0320645 0.0245571 -0.00217357 -0.0201469
-0.116573 -0.0131313 -0.0404454 -0.13206 -0.0619144 -0.106257 -0.0460024 0.000843415 -0.0145912 -0.0613795 0.0154661 -0.0647771 -0.00137134
-0.039869 0.0316981 -0.0353013 0.00662226 0.0184693 0.0305619 0.00213698 0.0352413 -0.0214945 0.0185376 0.0118778 0.0289569 -0.0174498
-0.0762232 -0.0413782 0.0025249 -0.129509 -0.118368 -0.0225493 -0.0524423 -0.0297394 0.00829057 -0.141643 0.0981512 -0.0614951 0.0795512
-0.00988152 0.0148715 -0.0277721 -0.0393432 0.0277028 0.0210735 0.0318591 0.0144334 -0.0175757 0.0187988 0.0380469 -0.0234423 0.0299748
-0.21477 -0.104812 -0.0346211 -0.362637 -0.0472829 -0.133648 -0.102449 -0.0170575 -0.0639692 -0.221751 0.132411 -0.162985 -0.056914
-0.0451053 -0.0199811 -0.0473808 -0.0282416 -0.031375 -0.0480817 -0.013618 -0.00611943 0.0318143 -0.0367341 0.00376574 -0.00969118 0.0220974
-0.0350336 0.0376869 -0.0187531 0.00884997 0.0258902 -0.0353937 -0.0320603 -0.0262125 -0.00507485 -0.00553294 -0.00705678 -0.000318653 -0.0164704
0.0263136 -0.00128684 0.00841536 -0.00747712 -0.0265108 0.0242746 -0.0346746 0.0130695 -0.0158128 0.0229288 0.0327234 -0.0369968 0.0267345
-0.0457392 -0.0058498 -0.0236728 -0.034035 -0.00727435 -0.0190218 -0.0395156 -0.0319531 -0.0296351 -0.0269908 -0.00227464 -0.0168298 -0.0153936
0.00146517 -0.0399671 0.000587449 -0.0267608 0.0284015 0.00373033 0.00503608 0.00631841 0.0162204 -0.0287018 -0.0021114 -0.0200003 -0.0237731
-0.0825216 -0.0794821 -0.0788646 -0.204459 -0.0015784 -0.104441 -0.027432 -0.0316038 0.00199574 -0.108982 0.0706267 -0.0773832 -0.0354563
0.00921531 0.031915 -0.011386 -0.0534828 -0.00275897 0.0232185 -0.0231474 0.029257 0.0149862 0.000297319 -0.0129487 0.0265063 -0.0364592
-0.00965557 0.00270823 0.0161491 -0.0216362 0.00318052 0.00466551 0.00426046 -0.000389443 -0.0260798 0.015994 -0.00495433 -0.0449424 0.0169273
-0.173092 -0.0745533 -0.0491673 -0.213462 -0.0339954 -0.156865 -0.0266712 -0.0571354 -0.021903 -0.0766964 0.0262922 -0.0496815 -0.0748924
-0.0929363 -0.00622367 -0.0548389 -0.128435 -0.0276873 -0.0797336 -0.00400038 -0.00752719 -0.017795 -0.0657864 0.0292057 -0.0805307 -0.0162147
-0.238538 -0.087604 -0.100814 -0.278332 -0.00297257 -0.197641 -0.066863 -0.0313227 -0.0680851 -0.134195 -0.00254861 -0.140492 -0.169415
0.0153904 0.0272345 -0.0374093 -0.00281425 0.0340984 -0.0309756 -0.00177797 0.0329932 0.0288387 -0.0555516 -0.00728157 -0.0426874 0.0149872
-0.0114424 -0.021507 0.02858 -0.0223048 -0.0157885 -0.035509 0.0179275 0.0125606 -0.0170773 0.00381667 0.031635 -0.0244243 0.0118584
0.0145032 0.00371869 -0.00509157 0.0102523 -0.0294468 0.0203038 0.0107067 0.0324415 -0.015785 0.00994742 -0.0251464 0.018873 -0.0359621
-0.176505 -0.207628 -0.19314 -0.442163 -0.0477295 -0.23688 0.0054892 -0.0583517 -0.204932 -0.142387 -0.0899289 -0.131635 -0.299104
-0.0207009 -0.0287054 -0.038106 0.0323929 -0.0313578 -0.0387752 -0.00793857 -0.0244476 0.00197122 0.0335319 -0.0104455 0.0108063 -0.0127159
-0.0282552 0.0242787 0.0303096 -0.0146517 -0.00786532 -0.0120704 -0.0127775 0.0266904 -0.00344294 0.0100367 -0.027612 0.0178469 0.00215598
-0.0628907 -0.034198 -0.00714863 -0.127722 -0.00761308 -0.0924502 -0.0346956 0.000128546 0.0159079 -0.0342351 -0.00844474 -0.0625717 -0.0272022
-0.0725665 -0.0316345 -0.0396457 -0.107277 -0.0317217 -0.0649278 -0.0554469 -0.0120852 -0.0317167 -0.0485145 0.0155551 -0.024886 -0.03234
-0.00300314 -0.0430918 0.0205485 -0.0263141 -0.0216999 -0.0223285 -0.0105551 0.0163646 -0.0211326 -0.022898 0.0121598 -0.00481148 -0.00460421
0.0281895 0.033213 0.0119146 -0.00486151 0.0332709 -0.0366392 0.0182619 0.0131042 -0.0051558 -0.00408088 -0.00126941 -0.0363193 0.0261874
-0.166405 -0.0938728 -0.0494239 -0.220496 -0.00721899 -0.115714 -0.0922421 0.0128074 -0.0313729 -0.167658 0.0244006 -0.133369 -0.0284853
-0.0315838 -0.0202103 0.0149669 -0.0407941 -0.0306715 -0.00712235 -0.0203006 0.00946893 -0.000656382 0.0112927 0.0281721 -0.0276115 -0.0319523
0.00839946 0.0159692 -0.0173592 -0.0556711 0.0167441 -0.00451668 0.00985715 0.0275964 -0.0181695 -0.019011 0.0275668 0.00287406 0.0114265
-0.0499891 -0.0236562 0.00951474 -0.0727072 -0.03501 -0.0789567 0.005017 -0.037468 -0.0167029 -0.0251777 -0.0150325 -0.0452042 -0.0379665
-0.153329 -0.0276835 -0.0744181 -0.158446 -0.084996 -0.113544 -0.0120558 -0.064182 -0.0181648 -0.125623 0.041907 -0.103794 -0.0418782
-0.0608088 -0.0136573 -0.0296032 -0.0898694 -0.0192449 -0.0118133 0.0118686 0.0161923 0.00925427 -0.0972686 0.0930318 -0.0665903 0.00172034
-0.00236171 0.0187518 0.00262457 -0.0471671 0.0333846 -0.0440885 0.0198699 0.0348908 -0.0355234 -0.0157444 -0.00220623 -0.0295253 -0.0121541
-0.14289 -0.0781903 -0.267154 -0.367628 0.126011 -0.292976 -0.0808647 0.0397906 -0.218461 -0.180278 -0.0789677 -0.0762938 -0.0290132
0.0110694 0.00735601 -0.00383453 -0.0782234 -0.003303 -0.0487973 0.0143909 0.00939174 -0.00546131 0.012548 0.0335333 -0.00928963 0.01982
-0.0379719 -0.0240834 -0.0134883 -0.0193039 -0.000479009 -0.0196973 -0.000653467 0.0286569 0.0135793 -0.00344666 0.00712863 -0.0316514 -0.00666378
0.0171916 0.0327314 -0.0401439 0.0232644 -0.0224152 -0.0308728 -0.016852 0.00537891 0.0319611 -0.0268169 -0.0231079 -0.0388865 0.00638843
-0.0676642 -0.0151942 0.0109422 -0.0373779 -0.0171575 -0.0628741 -0.0438104 -0.000617082 0.0284032 -0.0734842 0.0314314 -0.0206435 0.0178374
-0.412515 -0.173545 -0.720423 -0.909804 0.30307 -0.679454 -0.126421 0.183153 -0.568609 -0.486756 -0.236545 -0.20113 0.228832
-0.0418925 -0.00680671 0.0122798 -0.0455928 -0.0246978 0.0079841 -0.0006085 -0.0353071 -0.0255619 0.00397309 0.0160097 -0.0204503 -0.0380024
-0.196327 -0.177681 -0.134088 -0.380199 0.022518 -0.183512 -0.134406 0.0149062 -0.178959 -0.191773 -0.0169908 -0.201411 -0.227573
-0.0660157 -0.0318499 -0.0995298 -0.189918 -0.0314442 -0.134234 -0.0289446 0.0211637 -0.0529092 -0.142586 0.0293763 -0.0499197 -0.0811166
0.00295433 0.0283061 -0.0367235 -0.0049359 0.0314168 -0.0170479 0.00676139 0.0182124 0.0363287 0.00304752 -0.018342 0.0117859 -0.00751542
-0.0204245 -0.00818525 0.0176049 0.0135271 -0.0193577 0.0222812 -0.026291 0.0174252 0.00240799 0.0164783 -0.00372195 -0.000262557 -0.0309301
0.0108529 -0.000841073 -0.0151776 -0.0708111 0.00759479 0.00967118 0.0249066 -0.0336664 -0.0149387 -0.0219058 0.0434509 -0.0140387 -0.0336244
-0.347112 0.0675702 0.243229 -0.426981 -0.610355 -0.100921 -0.199527 0.0678374 0.323935 -0.535466 0.934513 -0.487192 0.592875
-0.0541151 0.0104483 0.00480815 -0.0591524 -0.0185553 0.00641872 -0.00219969 -0.00747647 0.033167 -0.00506833 -0.0281168 -0.0213293 -0.0093666
-0.00794604 0.00516129 -0.0123917 -0.00652182 0.0121507 -0.0340414 0.0161518 -0.000269699 -0.00132598 0.0215534 -0.00571503 0.0273141 -0.0329106
-0.0318983 0.0204647 0.0155582 -0.0974735 -0.00304276 -0.0230476 -0.0408819 -0.0413782 -0.0240357 -0.00774795 0.0268049 -0.0399342 -0.00434766
-0.0608227 0.00772649 -0.060149 -0.122452 -0.0496873 -0.0567376 -0.0154385 -0.0380259 0.0052491 -0.0833773 0.0337049 -0.0368772 -0.0401319
-0.125982 -0.0942998 -0.0786227 -0.263938 -0.0532798 -0.157905 -0.0751851 -0.0202614 -0.0977788 -0.200851 0.0259538 -0.136903 -0.0659475
-0.00524367 -0.0187057 0.0296886 -0.0216989 -0.0154653 -0.00130931 -0.00690995 -0.0325199 0.0272894 -0.00753397 0.0380584 -0.025295 0.00361091
-0.0377809 0.018461 -0.0283128 0.00115145 0.0165392 0.00333086 0.00728117 -0.0151076 -0.01063 0.00321946 -0.00275691 0.030094 -0.0242562
-0.0410481 -0.0512242 -0.0212728 -0.108369 0.0188347 -0.0386487 -0.038863 -0.000538568 0.020001 -0.0192857 -0.0118039 -0.0744558 -0.0418668
-0.000125914 -0.0127848 -0.0204056 -0.00627851 -0.0163171 -0.0125489 -0.0371675 -0.0135626 0.0214136 0.0223462 -0.03032 0.0332204 0.0214933
0.00956145 0.00323381 0.0260956 -0.000915519 -0.0197808 -0.00487313 0.0151282 -0.0372017 -0.0387407 -0.0311362 0.0242576 0.034543 -0.0140226
-0.0176208 -0.0355052 0.0280083 0.0151854 0.0219088 -0.031281 -0.00611296 -0.0193922 -0.0342009 -0.0434533 -0.033707 0.021803 0.0206544
-0.138524 0.0047947 0.0488901 -0.103888 -0.153899 -0.0187428 -0.0195468 -0.0211156 0.107614 -0.113793 0.198613 -0.141775 0.0886529
-0.0563304 0.0304681 0.00609278 0.0011377 -0.023063 0.00946289 0.0268271 -0.019789 -0.00374085 -0.0451844 0.0412233 0.00297978 0.00386167
-0.238505 -0.0796771 -0.0924209 -0.299973 -0.021911 -0.336917 0.0234383 -0.0657137 -0.0647118 -0.113037 -0.0260281 -0.125332 -0.341154
-0.0474962 -0.0121748 -0.0110678 -0.0403583 0.0114198 -0.0356334 -0.0271352 -0.00778307 -0.0113661 -0.0454668 0.0248702 -0.0500668 0.0021765
0.00626082 -0.0131085 -0.0181969 -0.00795221 -0.0164906 0.00240068 -0.0369228 -0.0142525 -0.0369394 0.0207793 0.0214289 -0.0260804 -0.0193312
-0.175509 -0.110609 -0.121509 -0.328872 -0.0396188 -0.174174 -0.101474 0.0164315 -0.0863264 -0.191592 0.0669427 -0.125651 -0.108302
-0.0125957 -0.0148761 -0.0194966 0.00186131 0.0320448 0.02631 0.027466 -0.0163478 -0.0366258 -0.0407337 0.0279778 0.00161512 0.0175136
0.0152415 0.001872 0.00268056 0.0124817 0.0142617 -0.0306939 -0.0380634 -0.0129384 -0.017261 0.0171775 0.0417454 -0.0384207 0.0357891
-0.222503 -0.0704234 -0.0427982 -0.26811 -0.0453692 -0.189313 -0.0910919 -0.100057 -0.0487844 -0.104696 0.0611312 -0.0912402 -0.112529
-0.314066 -0.193625 -0.277039 -0.411774 -0.0797779 -0.220721 -0.057754 -0.0141382 -0.176059 -0.31886 -0.18201 -0.0647236 -0.222617
-0.00895975 -0.0270106 -0.0256185 7.91099e-05 -0.028348 0.0255156 0.0224467 0.00666661 0.0264847 -0.0168006 -0.0351552 0.0124401 0.00138806
-0.1938 -0.0518199 -0.0696953 -0.291923 0.0423863 -0.265873 -0.101304 -0.153463 -0.0145097 -0.0625931 0.0696892 -0.0784531 -0.297708
0.022218 -0.0275668 0.0337687 0.000648479 0.0279616 -0.0100458 -0.0382598 0.0381092 -0.0125666 -0.0313709 -0.0360518 0.00170556 -0.0243283
0.0260569 0.0303148 -0.0089031 -0.0188553 -0.00202802 0.0102069 0.0091294 0.0248915 -0.00564376 0.00287493 -0.0312776 -0.0017994 0.00486963
-0.00758148 -0.00576715 -0.00288592 -0.0426076 0.00295443 -0.0261323 0.0140655 -0.0107124 -0.0387005 -0.0174652 0.0225543 -0.0252406 0.00725944
-0.00484288 0.0196363 -0.0391479 -0.0519551 0.00143684 -0.00819414 -0.0448712 0.0264619 0.00107248 -0.047464 0.0435323 -0.012039 0.00486376
-0.0316201 0.00417592 -0.0396758 -0.020213 -0.00411236 -0.0507295 0.0185233 -0.0292861 -0.0432033 0.0031825 0.00742064 0.000431134 -0.0348431
-0.155314 -0.127942 -0.208031 -0.29957 -0.0522872 -0.283195 -0.0460429 -0.0850178 -0.0312524 -0.0927244 -0.0610864 -0.108549 -0.170923
0.0153526 -0.0116791 0.0051629 -0.00462599 0.0115332 0.0273696 -0.0261022 0.0305234 -0.00247156 0.00313476 0.0249424 -0.0267513 0.00206295
-0.250122 -0.21892 -0.261546 -0.397242 0.00505016 -0.447002 -0.0331412 -0.243763 -0.0902887 -0.098843 -0.0857418 -0.0265115 -0.235047
0.00573932 -0.0189466 0.0164109 -0.0179219 -0.0113006 -0.0120365 -0.011749 -0.0308867 -0.0322511 -0.0406915 -0.0179402 -0.0278198 0.00462068
0.0175049 0.00691668 -0.0100924 -0.0082536 -0.020574 -0.0331605 -0.0139446 -0.0350797 -0.00149243 -0.0210321 -0.017142 -0.0171577 -0.0202849
-0.0333769 -3.64088e-05 0.00599668 -0.0461913 -0.030427 0.0113747 0.013436 -0.0312818 -0.0286337 0.0155717 0.0322704 0.0269291 -0.00324919
-0.157596 -0.081634 -0.0816198 -0.165935 -0.0462014 -0.116258 -0.056796 0.00886956 -0.00747281 -0.141027 0.0387362 -0.066538 -0.0243892
-0.033038 -0.00953548 -0.0297297 0.00592663 0.021075 0.00486328 0.0180967 0.00411057 0.00470569 0.0222839 0.0128483 -0.00226108 -0.0217339
-0.0304905 0.016228 -0.0196087 -0.024347 -0.0371418 0.00970979 0.0253989 0.0221625 -0.0374994 0.0292404 0.035319 0.00260567 0.0349398
0.0324919 -0.0174791 -0.0164488 0.0252198 -0.00672506 0.0292214 -0.031737 0.00336207 -0.0165697 -0.0418125 0.0163315 -0.032895 0.0302739
-0.0368371 -0.040325 -0.0371097 -0.0353208 0.00199165 -0.0434824 0.00834947 -0.0200902 -0.0335759 0.00854929 -0.0274013 -0.00356044 -0.0196139
-0.0335787 -0.0074375 0.00468982 -0.0235017 -0.0422287 -0.0298122 -0.0308659 -0.00456794 -0.00386629 -0.0378672 0.0262245 -0.0342794 -0.010752
-0.00675044 -0.0140332 -0.038414 -0.0361962 0.00867726 -0.00802431 -0.036773 -0.0114768 0.0122744 0.00538059 0.0157693 0.030911 -0.0169401
0.0166917 0.00336859 0.00974233 -0.066382 -0.00572848 -0.000913479 0.00284637 0.018747 -0.0264413 0.0186243 0.0232426 0.0126988 0.0155055
-0.0355016 -0.0196217 0.00908982 -0.0223925 -0.00573154 -0.00568028 -0.0269725 -0.00631219 -0.0345366 -0.0059701 0.00151037 -0.0375811 -0.0267639
0.0135938 0.00938527 -0.0106042 -0.0396289 -0.0339321 -0.0093855 -0.0309751 0.0123189 -0.00337029 -0.00452025 0.00309564 -0.0551431 0.0256837
0.00539046 -0.0305057 0.00732816 -0.0398047 -0.0336563 -0.0159158 0.00779521 -0.0376116 -0.0137436 -0.054995 0.0116415 -0.0552077 -0.0448737
-0.125391 -0.042151 0.0288913 -0.175569 -0.153926 -0.12228 -0.0609015 0.00156827 0.0218041 -0.177109 0.190448 -0.177754 0.12296
-0.0289942 0.0169243 0.0108087 -0.0159244 -0.036594 -0.0668873 0.00948047 -0.0224332 -0.0260792 0.00456739 0.00974993 -0.0490824 -0.0444674
-0.0736136 -0.00688202 -0.0428059 -0.0533653 0.0164279 -0.0486836 -0.0320538 -0.00643998 -0.0400492 -0.0763994 0.0339871 -0.00348351 -0.00206503
0.00955215 0.0232349 -0.0124154 -0.00946795 0.0247804 0.007886 0.00920972 -0.0363339 0.0198896 0.00014337 -0.00922928 -0.0277972 0.0296453
-0.00857058 -0.0118297 0.0303807 -0.0276384 -0.017752 0.0327768 -0.0279771 -0.0100068 0.0247808 -0.03661 0.00199476 0.0175385 -0.022472
-0.0382925 0.0310756 0.0286898 0.027215 0.0174017 -0.00496579 0.00597853 -0.0267909 -0.0285215 0.0117565 -0.0151302 -0.0345842 -0.00388968
-0.0460563 -0.0535327 -0.0621839 -0.0934904 -0.0590991 -0.0973875 -0.0407794 -0.0290695 0.00165585 -0.0748602 0.00838164 -0.0872623 0.0120797
-0.065991 0.0116469 0.00183939 -0.0404866 0.00621155 -0.0721152 -0.0267497 -0.0159268 -0.00316099 0.00632355 0.00386742 -0.0294135 -0.0107773
-0.0114996 0.00859477 0.0183223 -0.00903165 0.000546859 -0.00588081 0.00134028 0.00979099 -0.0298639 -0.00851485 -0.0328384 -0.0121767 -0.0187617
-0.00141415 0.0167572 -0.0146383 -0.00309048 -0.00600012 0.0111022 0.0211642 0.000456811 -0.00316454 -0.0244072 -0.0201595 -0.0249924 -0.00188542
-0.243047 -0.151061 -0.166588 -0.466967 0.0257694 -0.49207 0.0144413 -0.127887 -0.118385 0.0246755 0.00894812 -0.0396405 -0.501812
-0.0744811 -0.0474535 -0.0512329 -0.112085 0.00424837 -0.0556116 -0.022174 -0.0376696 -0.0208867 -0.103755 0.0161614 -0.0251606 -0.0218176
-0.0181499 -0.0187404 -0.00550106 -0.0222081 -0.00432581 0.0177516 -0.0312842 -0.0182839 -0.0175516 0.0103474 0.0223314 0.0135442 -0.00168634
0.00448971 -0.0385542 -0.0454563 -0.06079 -0.039142 0.00792143 0.0126999 -0.0359651 -0.032553 -0.000173488 0.0179659 -0.0162242 0.0129375
0.0184533 -0.00906072 -0.0327283 -0.0290018 -0.00861276 -0.00464722 0.0183563 -0.00387115 -0.00452902 -0.00120895 0.0252217 -0.0218822 -0.0350606
0.0125727 -0.0130465 0.00720369 -0.030323 -0.0107375 -0.0444221 0.02171 0.00970185 -0.0033305 0.00651147 0.0426281 -0.0524865 0.0105255
-0.130749 -0.0148014 -0.0592047 -0.236226 -0.0395576 -0.102157 -0.0265065 0.00143072 -0.0566044 -0.141755 0.0745495 -0.0515253 -0.0635481
-0.0492443 -0.0126732 -0.00633654 -0.0557467 -0.00556836 -0.0569855 -0.0147037 -0.0191105 0.0273926 -0.0277258 0.0275995 -0.0487962 0.0307963
-0.0845659 -0.0645788 -0.0519843 -0.128655 -0.0606532 -0.0951192 -0.036964 0.0125487 -0.0449135 -0.107628 0.0101898 -0.026369 0.00525767
-0.200293 -0.085382 -0.0606424 -0.346604 0.0193858 -0.259749 -0.090219 -0.0528933 -0.0331825 -0.155221 -0.048274 -0.144284 -0.289384
-0.0208049 0.0194333 0.0327678 0.00551744 -0.0120231 0.0226983 0.0187348 0.0126482 -0.0360799 0.00377989 0.0336323 0.0213861 0.00733976
0.0308592 -0.0072348 0.00867986 -0.0424819 0.0285184 -0.0125751 -0.00509529 -0.0282615 0.0190954 -0.0323712 0.0342541 -0.00570499 -0.0164802
-0.0483738 0.0237249 -0.00736102 -0.0182309 5.90645e-06 -0.0481941 0.00508781 0.0144629 -0.0100983 -0.0551803 0.0310414 0.0144048 -0.0129621
0.000993519 -0.0487021 -0.0353463 -0.0266017 0.0266396 -0.029191 -0.00437785 0.012632 -0.0183073 -0.0194642 -0.00803714 -0.00318787 0.0123252
-0.115195 -0.0200915 -0.0657726 -0.132998 -0.019972 -0.0892506 -0.0207977 -0.0249157 -0.00443557 -0.0711318 -0.00973551 -0.0358645 -0.0430651
-0.0253303 -0.0169357 0.0316511 -0.00716163 -0.0157971 -0.0328715 -0.00393681 -0.0357426 -0.0260241 0.00369162 -0.0125006 -0.0122297 0.0243625
-0.148641 -0.0745663 -0.170874 -0.288787 -0.0227098 -0.156019 -0.118983 0.000382869 -0.0665561 -0.210372 0.0382189 -0.160965 -0.0122262
-0.0296795 -0.0360383 -0.0149677 -0.0309952 0.0182589 -0.0146747 0.0029485 -0.0173866 -0.0367424 -0.0224195 0.00823965 -0.0209957 0.0275684
0.0101819 -0.0264239 0.0168258 -0.0474714 -0.0238467 -0.0295291 0.0258626 -0.0407869 -0.0159755 -0.0420253 0.00547421 0.00500162 -0.0413599
-0.0504016 0.00707802 -0.0308553 -0.127035 -0.0411117 -0.0673469 -0.0446186 -0.0432776 -0.0439686 -0.0592157 0.0604056 -0.062235 -0.0527626
-0.000750842 0.0222241 -0.0378213 -0.0284867 0.00352286 -0.022513 0.0348672 -0.0378423 -0.0269361 0.0220475 -0.0124381 -0.0103411 0.0200373
-0.0229579 0.00100055 -0.0339575 -0.00699088 -0.0240897 0.00153526 -0.032284 0.0341508 0.013468 0.00269359 0.0342409 -0.0243264 -0.0344269
0.00893113 -0.00905872 -0.00517794 -0.0466033 -0.00711564 7.35774e-05 0.015011 -0.00632093 0.0211159 0.0177156 0.0373256 0.00362518 -0.0390257
-0.206268 -0.0886501 -0.161099 -0.381669 -0.00796962 -0.249113 -0.0136808 -0.0544276 -0.0630792 -0.124938 -0.0418284 -0.165314 -0.295418
0.0325176 0.0056059 0.0212066 0.0113755 -0.00798924 0.0163215 0.0283723 0.000883291 -0.0192246 0.0222449 0.028336 0.0102186 -0.0108666
-0.138515 -0.214947 -0.169036 -0.376214 -0.0267788 -0.222606 -0.0677549 0.0514757 -0.208348 -0.300371 -0.0942734 -0.200335 -0.130464
-0.00456907 -0.0293557 0.0136762 -0.0864409 0.0286442 -0.0601169 -0.0314217 0.0207262 0.0252693 -0.0146938 -0.0244172 -0.0284194 0.00327035
0.00930227 0.0178814 0.0187437 -0.0586078 -0.0388655 -0.0294071 0.00166716 -0.0272549 0.0166933 -0.0620326 0.0410938 -0.0275211 -0.0214556
-0.19634 -0.0990228 -0.0625744 -0.311027 -0.081556 -0.154382 -0.0668193 0.0383481 -0.0478446 -0.202589 0.109414 -0.104803 -0.0332246
-0.171309 -0.0772154 -0.365853 0.421738 -0.49617 -0.584194 0.191884 0.815483 0.186184 -1.31161 -0.183989 -0.969035 0.93127
-0.253291 -0.0227727 0.00982677 -0.298842 0.0390521 -0.269318 -0.149739 -0.24515 0.0439462 -0.0177827 0.0443463 -0.0594917 -0.428522
-0.0880423 -0.0303314 -0.0201117 -0.0825507 -0.0384041 -0.0702774 -0.0141852 -0.00918878 -0.00752617 -0.0468551 -0.00677691 -0.0523371 -0.00188131
-0.0408778 -0.00493889 -0.00863822 -0.0405447 -0.0294773 -0.00746685 -0.0357314 -0.0326688 -0.03765 -0.0332757 0.0245935 0.01668 0.00147541
0.00216526 -0.0154433 -0.0309457 0.0269001 0.0179714 -0.0375933 0.0147616 -0.00093531 -0.00443556 0.0168911 0.0147096 -0.0342214 0.0352959
-0.0356715 -0.0261971 -0.0129879 -0.00427265 -0.0156918 -0.0176008 -0.00147367 -0.0271352 -0.0312533 -0.018643 0.00623251 0.0359055 -0.0128089
-0.0197177 -0.0249172 0.0035002 -0.0551641 -0.00237361 -0.0305584 0.0198992 -0.0285395 0.0165305 -0.0569192 0.0408606 -0.0535158 0.0177509
-0.0138256 -0.0432841 -0.0327657 -0.0291534 -0.00935247 -0.0112147 0.0106273 -0.0304215 -0.0437132 -0.0117375 0.0295475 -0.0514595 -0.0390275
-0.0255864 0.0256267 -0.0350747 -0.0372383 -0.0165525 -0.0558343 -0.0371834 0.00814751 -0.0259246 -0.0481594 -0.0177584 -0.000721398 -0.00439339
-0.0214131 0.0162749 0.0261877 -0.0250364 -0.0381589 0.0279973 -0.015218 0.0329592 -0.0163063 -0.0155967 -0.00931371 0.0125622 -0.0338415
0.0310711 0.0163475 0.0271042 -0.0340014 -0.0110993 -0.0264221 0.0337431 0.0133356 -0.0173021 -0.0382388 -0.0022925 -0.0197512 0.0318701
-0.0195619 0.00140135 -0.0204255 -0.0223616 -0.00956449 -0.0161432 -0.0417053 -0.013751 0.0296054 -0.0595433 0.0373587 -0.0481563 -0.0203475
0.018846 -0.0372853 -0.022975 -0.00373797 0.0303634 -0.0451244 -0.00214047 -0.0390995 -0.0125566 -0.0341228 -0.0295581 -0.0150922 -0.0149909
-0.0129885 0.0218989 -0.0309188 -0.0209344 0.00309214 -0.0147272 0.0294511 0.00200566 -0.00768517 -0.01545 -0.0160084 0.0283479 0.0117515
-0.00533048 0.0346128 0.000713858 0.0137851 0.0327058 -0.00701491 0.0151712 0.00602937 -0.0153989 -0.00973638 -0.0136634 0.0176292 -0.000523243
-0.00372675 0.00371805 0.0263995 -0.00365387 -0.00526079 0.0162312 -0.0105673 -0.00777034 0.00375002 -0.00939917 -0.00010858 0.000438334 -0.024241
-0.0169754 0.0301065 0.0283379 -0.00188221 -0.022597 0.0301407 0.0358144 0.0252387 0.0299066 0.0107585 -0.0208813 -0.00236974 0.00784109
-0.0163955 -0.0310574 0.00136099 0.00809455 0.00411335 0.0267073 -0.0392752 0.0305961 -0.0150398 0.0136344 0.0299 -0.0277495 -0.035739
-0.116178 -0.0650403 -0.0417674 -0.189193 -0.00921697 -0.139861 -0.0833835 -0.000340298 0.00133213 -0.151116 0.0707555 -0.0722426 -0.00228605
-0.0289316 -0.0256896 -0.0286083 -0.0280727 -0.00831415 0.0251259 -0.0198549 -0.0245311 -0.0367962 0.0106188 -0.0287901 0.0206343 -0.0251264
-0.0275406 -0.0186069 -0.00401572 -0.0220343 -0.0144597 -0.0073586 0.0338387 -0.00623938 0.0182544 0.0063867 -0.0117261 -0.0108858 -0.0415719
-0.00754053 -0.0415348 -0.0478783 -0.0478694 -0.0403417 -0.0296595 0.0150338 0.0216653 -0.0437993 -0.0562923 0.00315135 -0.00309317 0.0203304
-0.0394016 -0.0270145 -0.00744036 -0.0315558 0.0309873 0.0318763 -0.00913853 -0.0201676 -0.00939685 -0.0189045 -0.0287667 -0.0206965 0.0339933
-0.0476575 -0.0422795 -0.0203716 -0.0258749 -0.0168689 -0.0349467 0.0257009 -0.0373035 -0.0379278 -0.00364178 0.00974062 -0.0358632 -0.00195011
-0.233499 -0.187951 -0.0889827 -0.472544 0.0451285 -0.405188 -0.0173081 -0.0917358 -0.142367 -0.0259406 -0.0209441 -0.0894185 -0.424506
-0.0971772 -0.0723503 -0.087801 -0.14284 -0.00119709 -0.125234 -0.0525813 -0.0543025 -0.0111875 -0.0668279 0.0580256 -0.0543956 -0.0178462
-0.0439555 -0.0323682 -0.0340111 0.000569204 0.0096722 0.0123564 -0.0245201 0.0224651 -0.00990323 -0.019738 -0.031044 -0.00303058 0.0294486
-0.157219 -0.0312637 -0.101207 -0.199972 -0.0339504 -0.155215 -0.0532145 -0.0617384 -0.0280185 -0.0835121 0.0210996 -0.0830472 -0.0831816
-0.0323076 -0.0268609 0.00123622 -0.0023193 -0.00862368 -0.0129961 0.0198358 0.000445777 -0.0201764 -0.0260053 0.00408045 -0.019302 0.0315513
0.0222093 0.0363328 0.032338 -0.0151749 -0.0208099 -0.0215727 -0.0241668 0.0223401 0.0060907 -0.0280249 0.0337254 -0.0105279 0.0250692
-0.801711 -0.577802 -0.593123 -0.95704 -0.516586 -0.279617 0.0148995 -0.176386 -0.458494 -0.837714 -0.616862 -0.0396991 -0.504301
-0.041558 0.00321403 0.00705354 0.0103665 0.0132349 0.0106639 0.0325162 -0.040174 -0.0160221 -0.00720892 -0.00160258 -0.0462861 -0.0243867
-0.0233333 -0.0234326 -0.00493522 -0.0237497 0.0271136 -0.0194204 0.00607107 0.00831528 -0.0186532 0.0208019 -0.017372 0.0104321 0.0214131
-0.0353874 -0.0290355 0.028902 0.00732284 -0.0341133 -0.018811 0.00535707 0.000662657 0.0276091 -0.0154634 -0.0238493 0.0313862 -0.0171993
-0.0159406 -0.0241931 -0.00966976 -0.0120251 -0.0409002 -0.0148504 -0.0307717 -0.0268395 0.00059586 -0.0500998 -0.0161298 -0.0218185 -0.0410775
0.00647105 0.0262066 -0.0306654 -0.0237308 0.0136518 -0.0325618 -0.00679252 0.0165244 -0.0163988 0.00775823 -0.00355993 -0.0273709 -0.00138587
-0.231144 -0.288372 -0.250013 -0.493461 0.069178 -0.411201 -0.108209 -0.259505 -0.1251 -0.15141 -0.0832273 -0.077158 -0.248807
0.00531679 0.0327548 -0.0269298 -0.0392912 0.0341859 0.00432655 0.0195237 -0.0291489 0.0013821 -0.00960658 0.0356512 -0.00597561 0.00975978
0.0320389 -0.0093793 0.0247695 0.0285735 0.0272629 0.0182125 0.0166686 -0.0368408 -0.0139938 0.0128114 -0.0226335 -0.0348791 -0.0243567
-0.0441783 0.0279559 0.0153107 -0.0370329 -0.0218317 -0.0381913 0.0321801 -0.018664 0.0247185 -0.0151646 -0.0142507 0.0195116 0.000549362
-0.0527567 0.00846814 -0.0609546 -0.117975 -0.0496249 -0.102883 -0.0633188 -0.0393872 -0.0331636 -0.101285 0.058369 -0.0707397 -0.00838876
-0.0225661 0.0243751 -0.0412244 -0.0295853 0.00744248 -0.0082842 -0.012288 -0.0239573 0.0258679 0.0227177 0.00584762 0.0264448 0.0105298
-0.130945 -0.0108068 -0.0912574 -0.184324 -0.0672905 -0.120774 -0.0289777 -0.00715487 -0.0378412 -0.134624 0.0886974 -0.111202 -0.0403423
-0.0140362 -0.0194998 0.0135632 -0.01504 -0.0413374 0.00249153 0.00380489 -0.0201527 -0.00795975 -0.0549015 0.00592806 -0.026476 0.00145808
0.0147502 -0.031596 -0.0376893 -0.0176831 -0.0387153 -0.0379612 0.0327046 -0.034079 0.0139284 0.00596278 -0.0136077 -0.0270459 0.0179714
0.017523 -0.00157462 -0.00403043 0.0118092 -0.0089619 -0.0299798 0.00803512 -0.0128457 -0.0307894 -0.0400179 0.0303847 -0.0464775 -0.0272408
0.00693335 -0.0263137 0.0170752 -0.0528322 -0.00160125 0.00911289 -0.0410622 -0.0283658 0.00893867 -0.0373229 -0.0282049 -0.0285565 -0.000402581
-0.0467906 -0.0427775 -0.0199717 -0.0836563 -0.00487253 -0.104155 -0.0367875 -0.0212518 -0.0417976 -0.0751254 -0.0137414 -0.033921 -0.0141291
-0.0234397 0.00250062 -0.0057959 0.0261358 -0.00167221 -0.0146189 -0.00431115 -0.0250294 0.0295817 -0.00396822 -0.0188664 -0.0169957 -0.0225008
0.0076657 0.0118956 -0.0133513 -0.00513502 0.00825887 -0.037618 -0.0257644 0.0154919 -0.00425266 -0.00105161 0.0160157 -0.0177009 0.0363716
0.00581544 -0.030725 -0.0188385 0.0253929 -0.0393738 -0.0254021 -0.0398213 -0.0244131 -0.00257651 0.00507717 -0.0298561 0.00103247 0.00301681
-0.203238 -0.124482 -0.13298 -0.296732 0.00930239 -0.31895 -0.000654858 -0.0793857 -0.0121076 -0.0998084 -0.00258392 -0.140679 -0.31477
-0.0253279 0.0301985 0.0370972 0.0174051 -0.0105336 -0.0339549 -0.0171242 -0.0129896 -0.0255727 0.0193071 0.000717808 0.00967482 0.00244834
-0.033255 -0.00393571 0.0112009 -0.0372283 0.0340525 -0.0249237 -0.024191 0.00168767 0.0247816 -0.0464039 0.0316747 0.010128 -0.0365543
-0.198946 -0.0563664 -0.0900747 -0.302664 -0.0290871 -0.147578 -0.0829103 -0.0365593 -0.0345223 -0.153002 0.0516114 -0.0977017 -0.110038
-0.0762891 -0.0407594 -0.0250069 -0.136844 -0.0199901 -0.0650775 -0.0226168 -0.0353299 0.0102205 -0.0503832 0.039333 -0.0465491 0.00298559
-0.0218797 0.00415913 0.0200124 -0.0101798 -0.0180298 -0.00131252 -0.0448354 -0.0409822 -0.0310371 -0.0334709 0.0158541 0.0107264 -0.0234876
-0.270595 -0.041382 -0.0125133 -0.323098 0.0274024 -0.281091 -0.114367 -0.278123 0.0530437 0.0399297 0.0743494 -0.0543396 -0.42881
-0.0189424 0.0107692 -0.00521138 -0.052168 -0.0126734 0.0165561 -0.00228095 0.0285711 -0.0190014 0.0087458 0.015093 -0.00301139 0.0161584
0.0102238 -0.0285826 -0.0184024 -0.0204377 -0.00178846 -0.0372055 0.0123668 0.0290448 -0.00311636 -0.0282637 0.0345336 -0.0369043 -0.0371452
-0.228332 -0.18555 -0.259558 -0.394188 -0.0101079 -0.456778 -0.102445 -0.325337 -0.103118 -0.100309 -0.111498 0.0120576 -0.257024
-0.0207006 0.00804504 0.0290036 0.0154435 0.0332015 -0.0342551 -0.0285254 0.00231729 -0.0315354 -0.00222095 0.0163705 0.0240325 0.0298475
-0.0315091 -0.038384 -0.0150137 -0.019748 -0.0285244 0.010426 -0.0114985 0.0254133 -0.0322606 -0.018896 0.0159664 -0.0441561 -0.0031968
-0.0693468 0.0149391 -0.0216639 -0.110711 -0.0227385 -0.0463453 -0.00679553 -0.0457906 0.0110637 -0.0483157 0.028327 -0.0331791 -0.0139306
-0.12301 -0.0610679 -0.0522534 -0.234243 -0.0390774 -0.104618 -0.0397881 0.00758752 -0.0822064 -0.167219 -0.0103292 -0.0946888 -0.00956754
-0.0165864 0.00474867 -0.001026 0.00385615 0.00644251 -0.0172115 -0.0329198 -0.00443852 -0.0113361 -0.0408382 0.00629683 -0.0268244 -0.0272351
-0.138285 -0.0233182 -0.0518041 -0.249675 -0.0549908 -0.209085 -0.0532998 -0.0745577 -0.0051313 -0.110699 0.0367677 -0.0968321 -0.159101
-0.0040074 0.00264554 -0.0294006 -0.0252969 0.0166006 -0.0160829 -0.0369893 0.00898382 -0.0046882 -0.00261641 0.00858206 0.0290396 0.0089555
-0.205674 -0.0906945 -0.0353208 -0.28142 -0.032138 -0.195878 -0.0891575 -0.113356 0.00937715 -0.131882 0.0831808 -0.0624378 -0.136035
-0.00520582 0.0231738 0.0101929 -0.0489593 -0.0293152 -0.0278932 -0.0157894 0.0258962 -0.0247101 -0.00747858 -0.00677093 0.0202122 0.0159179
-0.0396437 -0.0394553 0.0198403 -0.00722525 0.015659 -0.00717495 -0.00786793 -0.0251631 0.030639 0.0266877 0.0376826 -0.0405849 0.00626382
-0.042135 -0.0253861 -0.00721958 -0.0337992 0.0335843 -0.0409439 -0.0322524 -0.00257746 0.0375246 -0.016005 -0.034638 0.00793551 -0.0157181
-0.0276174 -0.0197772 -0.0169768 0.0310694 0.0047515 0.00218956 0.0091745 -0.00545955 0.0277924 -0.00167671 -0.0338245 -0.0386527 0.0290981
-0.00872887 -0.0502538 -0.041268 -0.04571 -0.0224818 -0.0616054 -0.0435519 0.0238131 0.0227862 -0.0617511 0.018871 -0.0561675 0.0262006
-0.0269081 0.0304802 0.0213528 -0.00477935 0.00609064 0.0067146 -0.0161854 -0.0376812 -0.0171368 -0.0350211 -0.0288658 -0.0231974 0.0202893
0.0114033 -0.0283872 -0.00146553 0.0296449 -0.0194407 -0.0414654 -0.0207596 -0.0134968 -0.027761 -0.0357922 0.0130286 0.0308143 0.0356127
-1.89697 0.098172 0.702283 -1.67233 -2.7812 -0.71881 -0.764494 0.238695 1.61981 -2.56424 4.08466 -2.14937 2.60286
-0.0183401 -0.0100681 0.00964419 -0.0195568 -0.0402153 -0.0431056 0.00511424 0.0327352 0.0281728 -0.0143281 0.0293453 -0.00917139 0.0116906
-0.0289731 -0.0176803 0.0154496 0.0151394 -0.0366618 0.0263841 0.0192222 0.0109349 0.00524969 -0.0323672 -0.00724054 -0.0469328 -0.037498
-0.0904884 -0.0362317 -0.0619803 -0.0841927 -0.0589419 -0.0713345 -0.0247457 -0.036899 -0.0407356 -0.0727562 0.0294815 -0.0253304 -0.00370095
-0.0277441 -0.00863552 0.0194016 -0.0082046 -0.01536 0.00555276 -0.0244567 -0.00709602 -0.0144151 0.0199384 0.0327883 0.0107489 0.00562956
-0.029376 0.028589 0.0311877 -0.0312205 -0.0356456 0.000741947 -0.0314874 -0.00598909 -0.00462739 -0.0239476 -0.00543222 -0.00072323 0.0328749
0.0184356 0.0130371 0.0130067 -0.00297327 -0.0197654 0.0207631 -0.0156083 -0.00824941 0.00817331 0.0175548 0.027384 0.0171478 -0.0352809
-0.0485409 0.0182479 -0.0315028 -0.0661593 -0.0494028 0.00273064 -0.0418095 0.000150196 -0.0417149 -0.00816376 0.0529153 -0.0584619 -0.0286355
-0.243556 -0.103307 -0.105091 -0.325628 0.0211432 -0.199459 -0.151373 -0.0684991 -0.0768854 -0.114786 -0.00887692 -0.138037 -0.289397
-0.171538 -0.102198 -0.0823007 -0.272441 0.00826883 -0.331229 -0.100096 -0.13594 -0.0250199 -0.0339975 0.0590287 -0.089909 -0.305898
0.00603403 0.0265582 -0.0343977 -0.0419225 -0.032026 0.0342767 -0.00921511 0.0147535 -0.000875403 0.0167647 -0.0203602 0.0285053 -0.00844695
-0.0131516 -0.0089254 0.00798671 -0.0227562 0.0330454 -0.0115053 -0.0384941 -0.0227267 0.0081417 -0.00917145 -0.0256983 -0.0298841 0.0016721
-0.161922 -0.138942 -0.192995 -0.404869 -0.0278004 -0.204948 -0.0262947 -0.0974684 -0.104973 -0.162701 -0.0609892 -0.113702 -0.154931
-0.192596 -0.0315864 -0.103521 -0.256816 -0.0276797 -0.194252 -0.0929665 -0.114382 -0.0341855 -0.116158 0.0713123 -0.0540927 -0.170737
0.011392 -0.0148487 0.00219795 -0.0326357 -0.0146401 -0.0220663 -0.0360422 -0.0167727 -0.0347726 -0.00974456 0.0171328 0.0143679 0.0310665
-0.0515011 -0.0347162 0.0181484 -0.0544046 0.0187761 0.0101167 -0.0141394 0.01118 0.0119067 -0.0288866 -0.0276825 -0.0467646 0.00247723
0.0324381 -0.0376648 0.0138474 0.0322423 0.0104679 0.0309594 -0.0332218 -0.0202492 -0.0080541 0.0278787 -0.0147958 0.0184221 0.0158839
-0.0270409 0.00716095 -0.0235151 0.0206516 0.0291618 -0.00195292 -0.0167042 -0.0357898 -0.0311203 -0.0018311 0.0333417 -0.023227 0.0135701
-0.00699329 0.0188221 -0.0232717 -0.0370349 0.0299227 -0.0448479 -0.000479964 -0.0323357 0.00631354 0.0177906 0.00205171 -0.0139321 0.0149223
-0.00309105 -0.0232151 -0.0134976 -0.028877 -0.0149508 -0.0408974 -0.0239911 -0.0310308 0.0231903 -0.00384868 -0.0322871 -0.0347763 -0.0127409
0.0131932 -0.038969 0.0102345 -0.0229701 -0.00721898 -0.00446601 -0.0388655 -0.0285053 -0.0095764 -0.0176118 -0.0229216 -0.0183769 -0.0268562
-0.0977442 -0.044768 -0.0614122 -0.0972813 -0.0427178 -0.086801 -0.0307772 -0.0456851 0.0235133 -0.0940774 0.0663621 -0.0259343 -0.0492604
-0.0182725 0.0165313 -0.0416594 0.00572093 -0.0256583 0.0271434 -0.00736755 0.00901243 0.0289691 -0.0217993 -0.0261953 -0.0180443 -0.0280154
-0.224416 -0.322411 -0.33303 -0.490046 0.0319808 -0.373227 0.0625273 0.0728191 -0.257273 -0.453366 -0.260554 -0.272887 -0.287176
-0.0802161 -0.0578116 -0.0121222 -0.0993473 0.0131267 -0.100115 -0.00385006 -0.0462645 0.00232311 -0.057383 0.0546218 -0.0914741 -0.0434319
-0.0389249 -0.0151385 -0.0104473 -0.0193918 -0.000280667 -0.0535306 -0.0193795 0.00531689 0.0179581 -0.0555944 -0.0155517 0.001209 -0.0253804
-0.0192611 -0.0322482 0.0109693 -0.00786422 0.0063252 -0.022845 0.0111824 -0.0134935 -0.0266951 -0.0159717 -0.0187136 -0.0202265 0.0231455
-0.441708 -0.204825 -0.812646 -0.994581 0.289566 -0.715352 -0.176705 0.204114 -0.613427 -0.458083 -0.241818 -0.198649 0.180402
-0.411552 -0.0176583 0.245083 -0.503443 -0.552733 -0.0187735 -0.436207 0.201741 0.373843 -0.675863 1.01906 -0.573534 0.594685
-0.0426888 0.0261902 -0.0296394 -0.0214691 -0.00336613 0.00310998 0.00712237 0.00661485 -0.0181374 -0.0216852 -0.0108139 0.0232071 -0.0225978
-0.012432 0.0150139 -0.036576 -0.0198504 -0.011746 -0.0323736 -0.00553538 -0.0156294 0.0184993 -0.0275681 -0.0270573 -0.0237409 0.0170079
-0.0708756 -0.0107704 -0.0427139 -0.050324 -0.0580018 0.00275399 -0.0472351 0.00734668 -0.0322778 -0.076924 0.0122828 -0.0346964 0.00707557
-0.0264667 -0.0204406 -0.0101868 -0.00942911 0.000553064 0.0138225 -0.0405328 -0.0166421 -0.0083567 0.0200342 0.0365228 0.00753289 0.0302852
-0.0250082 -0.0167445 -0.00377262 -0.00533664 0.000254545 -0.018265 0.000533947 0.0324512 0.0196543 -0.0250009 -0.0349411 0.00853221 0.0162943
-0.02709 -0.0102807 0.0365616 -0.0419928 0.0379623 0.00865565 -0.0243268 0.0057783 -0.0383771 -0.00900185 -0.00252943 -0.0178159 0.0138855
0.00432055 0.00702912 0.0210739 -0.0150631 -0.00170885 0.0247323 -0.0365958 -0.0148646 0.0167197 -0.019455 -0.0030998 0.00171546 0.0127606
-0.0990869 -0.0183365 -0.00444084 -0.103622 -0.089099 -0.0393523 -0.0179491 0.00693999 0.0248001 -0.141064 0.159599 -0.117489 0.0971808
0.0259369 0.0195256 0.0319704 -0.0383784 0.0343139 -0.000543221 -0.00225851 0.035057 0.00810937 0.00696454 -0.0175923 -0.0128097 -0.0118596
-0.0455887 -0.00613539 -0.00747236 -0.048145 -0.0310288 -0.0729596 -0.019168 -0.0427908 0.00309085 -0.0571863 0.0302915 0.00585665 -0.0101658
-0.0521939 -0.0153806 -0.0391572 -0.0746141 0.0275981 -0.0459718 -0.0167765 0.0108707 0.010458 0.0121691 -0.00313506 0.0135453 -0.027958
-0.195958 -0.0455376 -0.027123 -0.25766 -0.0390806 -0.237426 -0.106578 -0.103301 -0.0182576 -0.111652 0.0246158 -0.0688363 -0.175488
-0.0262129 0.00700654 -0.062824 -0.0336928 0.0135406 -0.0626216 -0.0451342 -0.0201451 -0.0253354 -0.0118868 0.00338212 -0.00883671 -0.0457577
0.0256037 -0.0101223 0.0288711 0.00744342 0.0123147 -0.0352069 0.021157 -0.0383828 -0.00530978 -0.0222593 0.0163395 0.022501 0.0227799
0.0225698 -0.00557825 -0.0182046 -0.00497914 -0.0108246 0.00714598 0.00379185 0.0351573 0.0161383 0.0242643 -0.00803906 -0.0244299 0.00725274
-0.239496 -0.0673795 -0.0954247 -0.343494 0.0400642 -0.382327 -0.132531 -0.189488 0.0177534 0.0291545 0.0175705 -0.0928976 -0.443154
-0.0121091 -0.0376865 -0.0162568 -0.0141255 -0.0134295 0.0248532 0.0326402 0.0251217 0.0217315 -0.000285558 0.0229702 -0.0102804 -0.0102934
-0.147241 -0.0188327 -0.0252192 -0.166264 0.0020782 -0.144629 -0.0452056 0.0221329 -0.0540461 -0.112622 0.0678566 -0.111293 -0.0447801
0.00949094 -0.0121556 -0.0354797 -0.0419305 0.031723 0.0285032 0.0352739 -0.0106412 -0.0212662 0.00721888 -0.00156209 0.0047778 -0.0286969
-0.219478 -0.104003 -0.0727453 -0.33045 0.0392786 -0.257193 -0.035891 -0.092462 -0.0387172 -0.1299 0.0114134 -0.121886 -0.220946
-0.0153274 -0.0417164 0.0163942 -0.0574956 0.00701517 -0.0197488 0.0258467 0.02964 0.0328362 -0.0402479 0.0372541 0.0017741 -0.0364726
-0.0371883 0.0167079 0.0298499 -0.013962 -0.0358333 0.0166934 0.00428083 -0.016886 -0.0189836 -0.0306725 0.0205672 -0.0324579 0.00478198
0.028628 -0.0154536 -0.00657767 0.00354908 0.0135805 -0.00968061 0.0343905 -0.0362521 -0.00775931 -0.0152297 0.0395348 -0.030741 0.000489021
-0.012355 -0.0248687 0.0358116 -0.0386738 0.0129129 -0.0217474 -0.00368485 0.0353428 -0.00867128 0.000931269 0.00582795 -0.0442274 0.0365113
0.0135483 -0.00429953 -0.0121372 -0.00759581 0.0041659 -0.0213677 -0.00833518 -0.0359411 -0.02742 0.0230085 0.0177393 0.00591677 0.00115359
-0.0409343 -0.00331683 -0.0529421 -0.118144 0.0197467 -0.0861122 -0.0335113 0.0198361 -0.0491797 -0.0773343 0.0509663 -0.0632083 -0.0291311
0.030445 -0.0357707 0.0237794 0.0032876 0.0105696 0.00337962 -0.0156114 -0.00527659 0.0328936 -0.0190066 -0.0368264 0.0044496 -0.0401703
-0.0516739 -0.0495393 0.0115118 -0.0791763 -0.0508243 -0.00769119 -0.0413455 -0.0214319 0.0313944 -0.0340866 0.057921 -0.0113321 0.0148669
0.0163646 0.0298629 -0.0316443 -0.0372449 -0.038929 -0.0379667 -0.0116316 0.0312355 -0.0393879 0.00384491 0.00887392 -0.0134826 -0.00364796
-0.0099517 0.00265215 0.026578 -0.00579644 -0.0204013 -0.00805854 -0.0186085 0.0174689 -0.0260695 -0.0337623 -0.0198942 -0.0346136 -0.0376159
-0.0286861 -0.0260974 0.00037967 0.0121175 -0.0357477 0.0287742 -0.0288078 0.0329813 -0.0218878 0.0223477 0.0154995 -0.0192037 -0.0216201
-0.042235 -0.0406735 -0.011568 -0.0085032 0.00967405 -0.0130795 0.00950849 0.0148359 0.0323314 0.0224674 -0.00520422 0.0238988 0.0117333
-0.0160752 -0.0300855 0.00782597 -0.0187653 0.0234871 0.031072 0.00404861 0.0247043 0.0354435 0.0205299 -0.0223261 0.0303013 0.00381256
-0.236341 -0.117244 -0.153071 -0.377881 0.0046772 -0.277613 -0.0548574 -0.0951056 -0.0190438 -0.13352 -0.0807271 -0.107949 -0.357293
-0.0237381 -0.0452757 -0.0232355 -0.0153452 0.0221265 -0.0316382 -0.0369743 -0.0191814 0.0218048 -0.00980559 0.0229309 -0.0407041 -0.0294542
-0.223104 -0.102648 -0.131127 -0.327311 -0.0242066 -0.273259 -0.0308437 -0.0202691 -0.0840004 -0.121481 0.0228683 -0.0547285 -0.226891
-0.165462 -0.0602757 -0.0756275 -0.219932 -0.0548537 -0.112845 -0.0678637 0.0101106 -0.0128154 -0.16827 0.106284 -0.113005 0.0100171
-0.164214 -0.0782217 -0.0743891 -0.246015 -0.0227754 -0.201898 -0.0889847 -0.023617 -0.06225 -0.155379 0.0855446 -0.0999949 -0.0169224
-0.0127097 0.0193888 -0.0296109 -0.0259423 -0.0368003 -0.00907395 0.0271883 -0.0311278 0.0222165 -0.0225673 0.0234034 0.0161503 -0.00993225
0.0200877 -0.0154835 0.0106524 0.0152065 -0.027031 -0.00891875 -0.0337718 -0.0070236 0.0117452 0.00831403 0.0255046 0.0219222 -0.0365972
-0.155897 -0.0805911 -0.224801 -0.336415 0.0943617 -0.256091 -0.115546 0.0386083 -0.178498 -0.236693 -0.0301157 -0.157477 -0.00442924
0.0248699 -0.0302392 0.00662551 0.0237882 0.00543206 0.00254787 -0.0149135 -0.0367457 -0.0213679 0.0308679 0.0327731 0.0281124 -0.0296465
-0.0503539 0.00866384 0.0165234 -0.0187123 0.00934102 0.000127116 -0.0211822 0.0262328 0.00597953 0.0181157 -0.0220904 -0.0345914 -0.0343678
-0.197527 -0.0846717 -0.127897 -0.345826 -0.0120716 -0.140827 -0.0599022 -0.0269616 -0.0714667 -0.201554 0.0174354 -0.127052 -0.0637533
-0.0886583 -0.0179818 -0.0478927 -0.113549 -0.0227327 -0.0480079 -0.0238273 -0.00776298 0.0127899 -0.1026 0.0265442 -0.077891 -0.00934761
-0.229147 -0.44235 -0.477263 -0.596184 -0.0639582 -0.514891 0.0485222 0.0456244 -0.380184 -0.632981 -0.384428 -0.419628 -0.357072
-0.0572418 -0.0231771 -0.0365794 -0.10266 -0.0287268 -0.106233 -0.0090111 -0.00675016 -0.0100166 -0.0107019 0.0493816 -0.0497671 -0.0220291
-0.00879274 -0.0364511 -0.0172824 -0.0860428 0.0184058 -0.0568446 0.0213065 0.0260087 0.00252977 -0.0165128 0.0251729 -0.0177851 0.0193467
0.0186237 -0.00238293 0.030452 0.012077 0.034319 -0.0106331 0.0260779 0.00410441 0.0167494 -0.00549263 0.0288339 0.00349826 -0.0175309
-0.102293 -0.0209264 -0.0469233 -0.0907428 -0.0422818 -0.0885382 -0.0700626 0.0308364 -0.0436511 -0.0488814 0.0745422 -0.0496406 -0.0184359
-0.180422 -0.0820763 -0.189172 -0.381318 0.0268757 -0.205483 -0.128258 0.0377223 -0.182584 -0.205883 -0.0048592 -0.11946 -0.0393583
-0.0236259 -0.0162378 -0.0413048 -0.0386809 -0.0293252 -0.0598917 -0.00687282 0.00149007 -0.0241953 -0.0121623 0.0267945 -0.039687 -0.0420541
-0.00965506 -0.00914884 0.0264422 0.00395772 -0.001998 -0.0297922 -0.0137392 0.0175405 0.018468 -0.0314364 -0.0272893 0.0244989 0.00862702
-0.0206116 -0.0300082 0.0298544 -0.0194085 -0.0159704 0.0279615 0.00450171 -0.0277752 0.0246632 0.0174517 -0.0291777 -0.0340749 0.0272004
-0.0120808 -0.0219475 -0.0173046 -0.0170156 0.0284505 -0.0345677 0.00568249 -0.0044688 -0.0366872 -0.0111514 0.0122888 -0.0023012 0.00984956
-0.00815289 0.0273246 0.00875567 -0.0392583 -0.0330749 -0.04364 -0.0245804 0.016603 -0.0061137 0.0179996 0.0400925 -0.0271723 0.0282519
-0.0908572 0.00214311 0.00584198 -0.1314 -0.137304 -0.0706748 -0.0892771 0.00889393 0.0582758 -0.164095 0.209433 -0.115675 0.0965591
-0.0470028 -0.0124319 -0.0127117 -0.0195025 -0.0161515 0.00350808 -0.0358971 -0.00800554 0.0174277 -0.0337204 0.0469105 0.00833264 -0.0160198
-0.18798 -0.115456 -0.0981132 -0.328841 0.00711687 -0.183838 -0.124517 -0.00109917 -0.0421248 -0.150643 0.0387599 -0.141811 -0.174858
-0.184669 -0.128693 -0.121355 -0.363766 0.00590139 -0.18136 -0.130507 -0.0233806 -0.0440445 -0.212101 0.0196331 -0.0977697 -0.0932625
-0.183005 -0.116708 -0.119064 -0.293537 -0.0336572 -0.160517 -0.05663 -0.0656652 -0.0734027 -0.131081 0.00997745 -0.102655 -0.0857062
0.0153599 -0.0139872 -0.0335585 -0.0016622 0.00320042 -0.0117363 -0.0214346 0.00431223 -0.00260664 -0.0220899 -0.0135252 0.0233077 -0.0158852
0.0119736 -0.0297662 -0.0116027 0.00878918 0.0239072 -0.0214472 0.00471546 -0.0175835 -0.0359173 0.0336701 0.0322752 0.00956279 -0.0103213
-0.0186469 -0.0388381 0.00326327 0.021098 0.0171217 -0.0129017 -0.018185 -0.0122704 0.032625 0.0108682 -0.0333271 -0.0406165 -0.00887978
0.0144236 0.0253889 0.00459524 0.00430672 0.0258296 -0.0367043 0.0286282 0.0133928 -0.0292268 0.0302781 -0.013056 0.00592367 -0.0253607
-0.0547437 0.000705157 0.0639956 -0.0685998 -0.130139 -0.0225194 0.00615598 0.0112806 0.00691869 -0.099173 0.125679 -0.0754687 0.0315738
-0.0587293 -0.0289478 -0.0637963 -0.0594335 -0.012505 -0.0228141 0.000634528 0.0145425 -0.0301155 -0.0433578 -0.0110584 -0.0363394 -0.0019811
0.0193088 -0.0389709 -0.0462286 -0.00499894 0.00959307 -0.0193652 -0.0230894 -0.00392391 -0.0346461 -0.0415545 0.0134072 0.00206251 0.031957
-0.187651 -0.132731 -0.172454 -0.397211 -0.0415447 -0.16694 -0.0645477 -0.0178399 -0.17202 -0.213916 -0.0163941 -0.118511 -0.148503
-0.0153167 -0.0240848 -0.0434988 -0.0587619 0.00390514 -0.0157855 -0.0346995 -0.0130961 -0.0162132 -0.0416044 0.00725507 0.0170843 -0.0214736
-0.158263 -0.106735 -0.299941 -0.341734 0.0658588 -0.234421 -0.035387 0.0596573 -0.214083 -0.170195 -0.0789934 -0.0772628 0.0286244
-0.0779411 -0.0375325 -0.0256042 -0.0822479 -0.000879154 -0.0466801 -0.0193192 0.0258177 -0.0181495 -0.0348447 -0.00762944 -0.0613769 -0.0144293
0.00254509 -0.0351918 0.0148015 -0.0484717 0.00831323 -0.0367859 0.0155731 -0.000392007 -0.0365268 0.00192618 0.0226149 0.0218112 0.00376158
-0.0789453 0.00985066 -0.00842815 -0.0712547 0.0149765 -0.0584507 -0.0417278 -0.0262274 -0.0463558 -0.06324 0.0603795 -0.02208 -0.0340396
0.00918832 -0.0129326 -0.00364856 -0.0640347 -0.0145638 -0.00448265 0.0200236 0.0152004 0.00848378 -0.0619813 0.00219055 -0.0541217 -0.0325125
-0.0486574 -0.0117291 0.00661973 -0.0479764 -0.0492486 -0.0532507 -0.027676 -0.0142292 0.0120173 -0.0469752 0.00185562 -0.019326 -0.00325886
-0.203368 0.0589037 0.111186 -0.187221 -0.273815 -0.0700758 -0.0730638 0.0271557 0.200576 -0.247616 0.417494 -0.250923 0.2613
0.00507952 -0.0301328 0.0031123 -0.0414982 0.000870956 0.00333766 0.00707364 -0.0165341 -0.0198514 -0.0324279 -0.000786738 0.0230053 -0.0183792
-0.0363768 -0.00305924 -0.0239684 0.014457 -0.031966 -0.0353482 -0.00519953 0.0245807 0.0220719 -0.00888416 -0.00482447 -0.0419602 -0.00924667
0.00184409 0.0264064 0.0189757 0.00801999 0.0126245 -0.0331956 -0.0153241 -0.0263146 6.03131e-05 -0.00330186 -0.00400605 0.0308776 -0.0161388
-0.0107005 0.0306436 -0.0106322 -0.0334493 -0.0103597 -0.0405957 -0.0341382 0.0184178 -0.0312391 -0.027276 0.0386886 -0.00668891 0.00542331
-0.131457 0.0165721 0.0729182 -0.204189 -0.190389 -0.0551878 -0.0761527 -0.00455788 0.107938 -0.172994 0.27471 -0.157926 0.156867
-0.0268505 0.00759798 0.0259026 -0.0164718 0.0382361 -0.0339806 0.022175 0.0199759 -0.0277746 0.0186279 -0.00948521 0.0294532 -0.00103279
-0.027503 0.03442 0.000405431 -0.0234976 -0.00693928 -0.0201131 -0.029095 -0.0251538 0.0294819 -0.0214924 -0.0316259 0.0279795 -0.00530986
0.0141249 -0.000780522 0.00230068 -0.0375609 0.010573 -0.0235384 -0.0159191 -0.0368098 -0.0326013 0.00594829 0.0149965 -0.0183622 -0.0229745
-0.014513 -0.0216068 -0.0379517 -0.0471501 -0.0292199 0.0242544 0.0353067 -0.0291584 -0.0113714 -0.0423852 0.0402558 -0.02532 0.00684684
-0.143128 -0.0350506 -0.092463 -0.209809 -0.0161672 -0.175627 -0.0456446 -0.0421259 -0.0124508 -0.122949 -0.00869193 -0.0332646 -0.0594532
-0.00702375 -0.04998 -0.0198901 -0.0620155 -0.00504432 -0.0114959 -0.0153651 -0.00667346 0.0129437 -0.0163444 0.0186747 -0.0564397 -0.00966339
-0.0146625 0.00509683 -0.00165097 -0.0313031 0.0186492 0.0291227 -0.015913 0.0161183 -0.00258823 0.00852627 0.0339487 -0.0195325 -0.0256314
-0.130405 -0.0650013 -0.0979226 -0.157109 0.00662545 -0.0842023 0.0093986 -0.00260949 -0.059789 -0.0605639 -0.00475285 -0.0458759 -0.049852
-0.0240313 -0.0328843 -0.0159991 -0.0291811 -0.0167714 -0.0269359 0.000118708 0.00629018 -0.0192767 -0.0203136 0.0242195 -0.0531128 -0.0434155
0.0326379 -0.0148494 0.0147185 -0.0417266 -0.0375911 -0.00579326 0.000503036 0.0314531 -0.00375184 0.0123202 -0.0219405 -0.00984228 -0.0156727
-0.087999 -0.0257405 -0.0542846 -0.0686242 -0.0174634 -0.0796538 -0.0491535 -0.00424642 -0.0151078 -0.0498048 0.0667023 -0.0645379 -0.00196638
0.02256 -0.0335808 -0.00869714 -0.0233177 -0.0196046 0.0166507 -0.00565391 0.0292132 -0.00300581 0.0311381 0.0303907 0.0134602 -0.000215745
-0.0412178 -0.0222524 -0.0276198 -0.0163142 0.0142989 -0.000709008 0.0173455 -0.011659 -0.0155332 -0.0255348 -0.0247201 0.0213173 -0.0137952
-0.147257 -0.0643781 -0.0317272 -0.237034 -0.0575729 -0.0947447 -0.0839746 0.0318414 -0.0603395 -0.208353 0.106538 -0.201949 0.114054
0.00392301 -0.0308926 -0.0236288 -0.0320759 0.0159203 -0.00387529 -0.0277898 -0.0285372 0.0120156 0.0110048 0.0387293 -0.0105516 0.00581232
-0.014567 0.0261871 0.0281252 -0.0307638 0.0363584 0.0202511 -0.0253608 0.0112513 0.00746875 -0.0319786 0.0360819 0.0202198 0.0345839
0.0169456 0.00244247 0.0162029 -0.0611618 0.00450857 -0.0472031 -0.035834 0.0279709 0.0220145 -0.0385541 0.0397666 0.0208915 0.00267835
-0.0170385 0.0326977 -0.0436278 -0.0563165 -0.0104318 -0.0409354 -0.014897 0.0289066 -0.00436853 -0.00675124 -0.0280461 0.00290549 0.00910235
-0.138267 -0.0844759 -0.0832156 -0.234412 -0.0519465 -0.125884 -0.0582435 -0.0296068 0.0119087 -0.0841676 0.0598634 -0.0819139 -0.110374
-0.0415756 -0.0120567 -0.00952682 -0.0284375 -0.0224919 -0.0519045 -0.00394717 -0.0166317 -0.0323149 -0.0292396 0.0506383 -0.00280897 0.0105298
-0.0781067 -0.00236188 0.0146811 -0.0508786 0.0149735 -0.0484997 -0.034344 0.0200678 -0.0104491 -0.025651 -0.00579826 -0.0533623 -0.0433766
0.0219827 -0.0244445 -0.0381975 -0.0338822 0.0150429 0.0150392 -0.0317367 -0.0094558 0.0241128 0.0140237 -0.01637 0.00902426 -0.00919716
-0.0771862 -0.00502894 -0.0453783 -0.136532 -0.000404759 -0.105843 -0.0285005 -0.0182051 -0.0259518 -0.0727542 0.0353013 -0.0539083 0.00994333
-0.0183061 -0.00372331 0.0178418 -0.0236305 0.0120332 -0.0158316 -0.0204814 -0.0389412 -0.0310193 -0.0479771 0.0275942 0.0235428 0.00507314
-0.0371302 -0.0429261 0.0180927 -0.0130003 -0.0110952 -0.0205805 -0.00249705 -0.0269818 0.0234447 -0.0109134 0.0329379 -0.0157623 -0.0252351
0.0114808 0.0247863 -0.00980267 0.0143476 -0.0324369 -0.0448882 0.0117964 0.0267692 -0.0147273 0.0161887 0.0289105 -0.00770618 -0.0177938
-0.0260519 -0.0119234 -0.0246426 0.00323072 -0.0130849 0.0170129 0.0273121 -0.0191199 -0.00599019 0.028278 0.0303896 -0.00728294 -0.0220982
-0.106793 -0.116531 -0.11648 -0.242963 -0.00839597 -0.141866 -0.0293677 0.0173167 -0.111026 -0.160996 0.0317817 -0.0931535 -0.0181489
-0.122064 -0.0134519 -0.0837672 -0.151994 -0.0603099 -0.159195 -0.0568848 0.00577415 -0.0207543 -0.0797609 0.0127851 -0.0989253 -0.0079561
-0.0520087 -0.0108752 -0.0463809 0.0085624 -0.0393077 -0.00242488 -0.0372514 -0.0113739 0.0179136 0.0225856 -0.0231359 -0.0294699 -0.021097
0.0194761 -0.000626758 -0.0120105 0.00985735 0.0140193 -0.013249 0.00950988 -0.00340639 -0.0307511 -0.0189259 0.0150667 0.00992209 -0.0318093
-0.00911298 -0.0149584 0.0216258 -0.025059 -0.0385905 0.020632 -0.0348378 -0.00736865 0.0191445 -0.017289 0.0352269 -0.0173592 -0.00739307
0.0174975 0.00104263 0.0195546 -0.0114757 -0.0321853 -0.001696 -0.0225164 0.00119764 0.0211219 -0.0184959 0.0273966 -0.037728 0.00445589
0.0111498 -0.0299064 0.00025419 -0.0194434 -0.0216847 -0.0432138 -0.0310164 -0.0203561 -0.0157112 -0.00655596 0.0355987 -0.00622144 0.00522478
-0.0335127 0.0251303 0.0176523 -0.0401729 -0.0565953 -0.039352 -0.00255285 -0.019768 0.0246824 -0.0915841 0.0784679 -0.103396 0.0655943
-0.0399846 0.0143375 -0.039952 -0.0141421 -0.008944 0.00869464 0.0235469 0.0153942 -0.0273199 0.0168276 -0.0178775 -0.0212035 0.0210896
-0.210126 -0.120424 -0.156151 -0.310982 -0.0738602 -0.154096 -0.049984 -0.0463984 -0.0699304 -0.188044 -0.0369703 -0.0924937 -0.0448322
0.00587957 -0.0370673 -0.0318695 -0.00194619 0.0232102 -0.0131601 0.00687515 0.00709713 0.0360314 0.00853542 -0.0267593 0.0227354 -0.0158952
-0.0437484 0.0160882 0.0150671 -0.0359548 0.0253914 -0.0164218 0.0337257 0.0010484 0.0267041 -0.032183 -0.0261869 0.0319301 -0.011411
-0.0673213 -0.00662146 -0.0757956 -0.110137 -0.0358722 -0.127492 -0.00900627 0.0184829 0.00869456 -0.0826407 0.0731266 -0.0259851 -0.0125213
-0.112365 -0.0549944 0.00242078 -0.132841 -0.0335072 -0.110111 -0.0156387 -0.039366 -0.00224017 -0.0608831 0.0182375 -0.0614948 0.0169475
-0.0327547 0.00531798 -0.0281545 -0.000548728 0.0186005 -0.0269799 -0.0364557 0.0179468 0.0251677 -0.0217747 0.0245699 -0.0507874 -0.000310612
-0.00914006 0.0158671 0.0193093 -0.0171246 -0.0144715 -0.00107731 0.00855603 -0.000715864 -0.00634635 -0.0084323 -0.0256672 0.0225457 0.0125726
0.0109525 -0.0334799 0.0208323 -0.0368726 -0.0272184 -0.0318246 0.0168567 -0.0187441 0.0115598 -0.0204923 -0.0159848 0.0280453 -0.006475
-0.0134835 -0.0347222 0.0280486 0.0101125 0.0254645 0.00968936 -0.000610679 -0.00264743 0.0216795 0.0288081 0.0335546 -0.0151257 -0.00656517
-0.042808 0.00206656 0.00465294 -0.0150896 -0.00260952 0.00270889 0.0178693 0.0182589 -0.0150109 -0.0245477 -0.0183797 -0.0224289 0.00391419
-0.189874 -0.123649 -0.122751 -0.259884 -0.0537672 -0.160636 -0.0717257 -0.0147471 -0.0751641 -0.233568 0.072881 -0.145676 -0.0643875
0.00615158 -0.0250526 0.0196857 -0.00303194 0.0264783 -0.0384191 0.0200365 0.00830808 -0.0341611 0.0179842 -0.00956937 -0.0391192 -0.00840265
-0.0417873 0.0114817 -0.0344734 0.0216191 -0.00927238 -0.0381942 -0.0264976 -0.0115902 0.0181343 -0.0171204 0.0311186 0.0185985 0.00756937
-0.0342444 0.00609278 -0.014041 -0.0899735 -0.0357746 -0.0937791 -0.0499586 -0.041594 -0.0107446 -0.0407565 -0.00805396 -0.0378694 0.00797204
-0.0278701 0.0356083 0.00340764 0.0294133 0.0293328 -0.0281896 0.00793015 0.0263556 -0.0256623 0.0292327 -0.0370846 0.00251336 0.0313968
-0.00191339 0.00823535 -0.00201589 -0.0598219 -0.0141642 -0.0235591 0.0173183 0.0336897 -0.0242446 -0.0441384 0.0286949 -0.0246475 -0.040644
-0.0831396 -0.0564549 -0.0150871 -0.0996381 -0.060216 -0.0566264 -0.0392669 -0.0213355 -0.018747 -0.111018 0.067257 -0.0251113 -0.0135936
-0.203339 -0.0604656 -0.0529313 -0.326799 0.0267125 -0.215029 -0.135044 -0.173252 0.0205074 -0.0755988 0.0683575 -0.112726 -0.316821
-0.00105419 -0.00393893 0.00484398 -0.0412506 -0.024628 -0.00837136 -0.0120475 0.0328021 -0.0210474 -0.0240363 0.0325362 -0.0227968 -0.0112364
0.00453806 0.00165812 0.0128764 -0.0483939 -0.0285137 -0.000980157 0.0241425 -0.0218151 0.0225382 0.0039065 0.0349067 -0.000952716 -0.0355449
-0.092467 0.0150214 -0.0398095 -0.121955 -0.00945235 -0.052512 -0.0351816 -0.0145143 0.00192188 -0.0205589 0.0265097 -0.0705393 0.00236754
-0.172715 -0.189107 0.124449 -0.150951 -0.14046 -0.079045 -0.285086 0.482567 0.125784 -0.737228 0.324701 -0.675855 0.368995
-0.020154 0.0194425 0.0170685 -0.03989 -0.0106564 0.00673609 0.0357278 -0.0245794 -0.00297359 -0.0340061 0.0140344 -0.0242938 -0.0184545
-0.025461 0.0265727 -0.00843459 0.0148047 -0.0325097 0.0125862 0.0251367 -0.00108066 -0.00999149 -0.00796955 -0.0353216 -0.0151995 -0.0153734
-0.0350978 0.028807 0.00562644 -0.0348343 0.0197227 -0.0324073 0.0277023 -0.0261424 0.00920757 0.00198597 -0.0262039 -0.000783748 -0.00696043
-0.0552769 -0.00463416 -0.0130715 -0.0517846 -0.0410759 0.0146731 0.0276054 -0.00889216 0.00675407 -0.0525296 -0.0184874 -0.0301044 -0.00384604
-0.168726 -0.057179 -0.0690542 -0.246968 -0.0311004 -0.256492 -0.105337 -0.157266 0.0325253 -0.0423753 0.0233537 -0.0722217 -0.214878
-0.0209857 -0.0373417 0.0241411 -0.0489115 -0.00533294 -0.0334643 -0.0285065 0.00921192 -0.0189335 -0.0407531 0.0270345 0.0178509 0.0199158
-0.004926 -0.0359446 0.00700219 -0.0256697 -0.0147911 0.0255487 -0.00136035 -0.00559878 0.00465514 0.0282019 -0.0121312 -0.0235763 -0.00351176
-0.0372712 0.00988788 -0.0156836 -0.0264223 0.0296377 -0.0373386 -0.00219388 0.0374684 0.0230958 0.0256367 -0.0159828 -0.00904025 0.0207625
-0.00817504 0.00937223 -0.0294696 0.0219941 -0.0359901 0.0317702 -0.0111766 -0.0220224 0.000862709 -0.0367266 0.00520337 0.0100538 0.0104055
-0.071403 -0.0569463 -0.0603269 -0.0797986 -0.0437115 -0.0901287 -0.00124978 0.0134769 -0.0126093 -0.0418861 0.00869559 -0.0591622 -0.0292897
-0.00688294 -0.0366669 0.0139748 0.0132337 -0.0271269 0.0123605 -0.0306713 -0.00115514 -0.0320798 -0.0318763 0.0259103 -0.0257377 -0.0146384
0.028715 0.0215304 -0.00144601 0.00395436 -0.00725249 -0.0303844 -0.00949249 0.0280433 -0.0125901 -0.00811901 0.0265564 -0.0403775 0.0226385
-0.0309861 -0.0278357 -0.0202397 0.00135336 0.0208087 -0.0107356 -0.00818249 -0.028915 0.0201673 -0.0103206 -0.0342836 0.0216416 0.0232258
-0.034892 -0.0441554 -0.0406137 -0.0839553 0.00650512 -0.0297997 -0.0309066 0.0222366 -0.0433535 -0.0785846 -0.0040937 -0.0675822 0.0247878
-0.0262996 -0.00434987 0.0249244 -0.00176335 0.0271163 -0.0399881 0.00576347 -0.000961201 0.0131244 0.0117579 0.0247325 0.0107539 0.00750453
0.0113042 -0.0286124 0.0264777 -0.0512953 -0.0192342 0.014676 -0.0429353 0.0126196 -0.00542898 -0.0462563 0.00657038 -0.0289898 0.0302006
-0.194523 -0.371649 -0.410727 -0.559588 0.0264796 -0.46947 0.0299211 0.104554 -0.398388 -0.589741 -0.281023 -0.359841 -0.347897
-0.00312899 0.0160476 0.0280083 -0.0207548 0.0171568 0.0013367 -0.0185118 0.0326491 0.0263034 -0.0257763 -0.0175675 -0.027389 -0.0182287
-0.217012 -0.111114 -0.175799 -0.296572 -0.0487112 -0.216377 -0.0996186 -0.0276579 -0.0845506 -0.122689 -0.000254311 -0.169649 -0.21179
-0.0274128 0.0306742 -0.0217691 -0.0306702 -0.0148148 0.00652535 -0.021595 0.0341011 0.0145911 0.0117151 -0.0368137 0.00271604 0.0163991
-0.174311 -0.0955781 -0.125026 -0.352649 0.0255113 -0.238812 -0.118734 0.0273843 -0.145178 -0.182081 -0.0194265 -0.154113 -0.141883
-0.00914918 -0.0406647 -0.0197269 -0.00566387 -0.0287965 -0.0389095 -0.0333375 1.97099e-05 0.0284012 -0.0458911 -0.00706053 0.0102118 -0.00628596
-0.151115 -0.0519936 -0.119157 -0.294284 -0.0793867 -0.215382 -0.0873995 9.01917e-05 -0.0741558 -0.149569 0.0511686 -0.10936 -0.0185059
-0.388702 -0.228719 -0.729099 -0.805929 0.232448 -0.62977 -0.065036 0.112929 -0.521747 -0.409087 -0.233869 -0.149765 0.12892
-0.00404742 0.00411559 0.00554648 -0.0406272 -0.00949247 -0.0389908 -0.00106999 0.0162622 -0.00109986 0.0157875 0.0114676 -0.0101715 -0.000960521
-0.00632727 -0.0079738 0.0231801 -0.0231977 0.000824866 -0.0129781 0.0220711 -0.0267998 -0.00908506 -0.0225667 0.00292455 -0.0425285 0.0110655
-0.0531059 -0.0357495 -0.021983 -0.104668 -0.036184 -0.0748124 -0.0194092 0.00667073 -0.000963039 -0.0344713 0.0143205 -0.0447124 0.0171892
-0.00681252 -0.0384291 -0.00874173 -0.0191986 0.0196731 0.00279447 -0.0381276 0.00960705 -0.0169365 -0.0222222 0.0408139 0.0166161 0.0346609
0.0159171 0.0224634 -0.00815832 -0.008271 0.00311825 -0.0478281 0.0089562 0.0235474 0.0321038 -0.0528275 0.00538156 -0.0173331 0.0206412
-0.0171015 0.0285965 0.00745439 -0.0530964 0.0168477 -0.000180497 -0.0229597 0.0198109 -0.00581373 -0.000287777 0.0421982 0.0276552 -0.00642732
-0.0541129 7.35135e-05 -0.0440887 0.00098322 -0.00254986 -0.0180832 0.0134693 0.0132071 -0.0119815 0.00231695 -0.0293522 0.0128816 -0.0159054
-0.0299151 -0.0361737 0.0261372 0.0082558 -0.0195613 0.0212207 0.0255966 0.00540489 0.00914607 0.0328653 0.031906 0.0066107 0.0094053
0.0214486 0.0102039 0.0259778 -0.0181617 -0.0152954 -0.0107458 0.0286918 -0.021679 -0.0260619 -0.0187593 -0.0110798 -0.00289806 0.00226732
-0.0426837 -0.0146359 0.00444878 -0.0277627 -0.004691 -0.0227384 0.0130522 -0.0102429 0.0171833 -0.0315992 0.0198062 0.00279976 0.001779
-0.0385612 -0.0358336 -0.0136333 -0.0371215 0.000461706 0.0134057 -0.0267063 0.0317322 -0.00939529 -0.0317898 -0.0312921 -0.0310388 -0.030049
-0.160728 -0.0552181 -0.102765 -0.227868 -0.0923656 -0.175152 -0.0366561 -0.0452073 -0.0263873 -0.128342 0.122206 -0.109523 -0.0249161
-0.0362038 -0.0316462 0.00504612 -0.0209373 0.0254533 -0.012995 -0.00742453 0.0287894 -0.0177285 0.0270056 -0.0132843 0.0287199 0.0117522
0.0142884 -0.000209669 -0.0219324 -0.0594132 -0.0401989 0.0161468 -0.0013225 -0.00581338 -0.0390261 -0.0412877 0.00184901 0.00449954 0.0310605
-0.0861572 0.00388728 -0.0191049 -0.0953056 -0.0310316 -0.0445514 0.0107872 -0.0368663 0.00148872 -0.075187 0.00322485 -0.0263129 -0.0275029
-0.129166 -0.0271849 -0.0741893 -0.178423 -0.00571021 -0.122298 -0.01016 -0.0298136 -0.023049 -0.0960986 0.0406768 -0.0615641 -0.0473228
-0.0081915 -0.0246898 -0.013488 -0.0143117 -0.0149581 0.0253792 0.0313678 0.0304686 -0.0204705 0.0138602 -0.0099048 -0.00937239 0.0373616
-0.0341769 -0.0313381 0.0215362 -0.0216284 0.0245659 0.0322784 0.00596241 0.0300406 0.012995 -0.0167419 -0.0213635 0.00805374 -0.0366358
-0.0442997 0.0225152 0.0199272 -0.0394623 0.00717791 -0.0344713 -0.00784313 -0.00355269 -0.0275879 -0.0098228 0.0317481 -9.85975e-05 -0.010553
-0.163667 -0.121305 0.0616849 -0.197373 -0.221683 -0.0501707 -0.295655 0.321824 0.151511 -0.616985 0.329386 -0.516024 0.304903
-0.22376 -0.553116 -0.610926 -0.783733 -0.0302515 -0.633114 0.123925 0.133572 -0.491562 -0.909766 -0.456985 -0.638568 -0.461085
-0.0403894 -0.0335385 -0.0487415 -0.00779503 -0.0393868 -0.0109527 0.0105292 0.0100783 0.0268699 -0.0503937 -0.0236339 0.00687723 -0.0107422
0.0328166 0.022665 0.00877504 -0.028543 -0.0161257 0.0119136 0.0319765 -0.00421781 -0.0276982 0.00607594 0.0175248 -0.0376462 -0.0156372
-0.214306 -0.123502 -0.295424 -0.369474 0.114844 -0.288515 -0.0836056 0.0628174 -0.194233 -0.192175 -0.0723353 -0.0347508 -0.00327488
0.0179992 -0.00751963 0.0192961 -0.0379071 -0.00543803 -0.000856406 0.00197141 -0.00652644 -0.0193957 -0.00493424 -0.0156446 0.0109448 -0.0241359
-0.184748 -0.159523 -0.232764 -0.407174 0.0179929 -0.301128 -0.0714753 -0.12065 -0.113026 -0.177929 -0.0712899 -0.0817409 -0.281077
-0.0225006 0.00516478 -0.0354527 -0.0306139 0.018096 -0.0166748 0.00867913 -0.0329308 0.017453 -0.0182767 0.0326756 0.0233605 0.00260751
-0.037857 -0.0131029 -0.0377378 0.0151822 -0.00303147 -0.0306808 0.00517535 0.0273397 0.0213202 -0.0312947 -0.0201313 -0.0197019 -0.00216623
-0.0409619 -0.0379742 -0.0120243 -0.00975975 -0.0394843 -0.0313683 0.0105934 0.0131216 -0.00131316 0.020055 0.0330998 -0.0476024 0.0204843
-0.0356295 -0.0403614 0.00327362 -0.0526425 -0.0205108 -0.0498915 0.0145688 -0.0293885 -0.0246874 -0.019871 0.0309897 0.00888967 0.0172621
-0.0476772 -0.00885327 -0.00156668 0.00622604 -0.0265805 -0.0462702 -0.0385949 -0.0272107 -0.0400517 -0.015713 -0.00425517 0.0276883 -0.0337026
-0.0164086 0.005441 0.0189121 -0.0120413 0.0293604 -0.0185505 0.0285862 -0.01026 0.0167284 -0.00982943 0.0236492 0.0131314 0.0297865
-0.0482593 -0.0242609 -0.0520064 -0.104718 -0.0429241 -0.0804397 -0.0336692 -0.0394738 -0.0169018 -0.0336913 -0.0175891 -0.0478947 -0.00506642
-0.00222702 0.00291676 0.0207712 0.00767854 -0.0201503 0.0205509 -0.0110302 0.00153953 0.0288503 -0.0192447 0.035788 -0.0288576 0.0145595
-0.139357 -0.0178697 -0.0907631 -0.204059 -0.0339413 -0.15057 -0.0620357 -0.0794595 -0.0143508 -0.101209 0.0524543 -0.0682893 -0.0496309
-0.156445 -0.0623086 -0.0368552 -0.251304 -0.0180678 -0.22036 -0.0991241 -0.0829223 -0.0383618 -0.111442 0.0799119 -0.0782854 -0.12308
-0.132815 -0.0579147 -0.109593 -0.229386 -0.0461548 -0.122616 -0.037181 -0.0434798 -0.0294086 -0.15999 -0.00546563 -0.0850028 -0.0786843
0.0266972 0.00587386 -0.0295735 -0.00846448 -0.00273242 -0.0402088 0.0193164 0.0307052 0.0106647 -0.0115659 -0.0134143 0.027971 0.0258959
-0.00633373 0.0323858 -0.0192215 -0.029063 -0.0286073 0.019026 0.02785 0.0092443 0.0144586 -0.0476897 0.0200233 -0.000260581 -0.0272336
-0.195864 -0.139059 -0.066625 -0.331108 0.0261838 -0.322884 -0.00195434 -0.0932752 -0.0596915 -0.116755 0.0153763 -0.139114 -0.396689
-0.0381411 -0.0282421 -0.0289902 0.0132782 0.0137717 -0.0306427 0.0117736 0.0274903 -0.0228779 0.00206055 -0.0321557 0.0137495 -0.0314758
-0.045147 -0.0445777 -0.0183448 -0.0920715 -0.0498901 -0.0695812 -0.00379148 0.00379488 -0.0416253 -0.0297992 0.0397231 0.00663188 -0.0203221
-0.0933449 -0.0660011 -0.0476132 -0.152024 -0.0486202 -0.0686478 -0.0212119 0.0246379 -0.0417828 -0.0535694 0.033896 -0.0446979 -0.00143007
-0.0194373 0.0167436 0.000484385 0.0060201 -0.00162359 0.0230108 -0.0363546 0.00401606 0.0230561 0.029159 -0.0271351 0.013971 0.0170393
-1.49314 0.454284 0.796701 -1.45649 -2.67475 -0.758084 -0.489485 0.11261 1.05758 -2.40787 3.42521 -2.54129 2.36898
0.0187859 0.00787496 -0.00474972 0.0023249 -0.0338037 -0.026442 -0.0329177 0.0140096 -0.0223212 -0.0341534 -0.00137026 0.0283392 0.0109388
-0.0373916 -0.0115259 0.0172494 -0.00956636 0.0367824 0.0298469 0.0359815 -0.0379603 0.0212337 -0.0284379 -0.00692762 -0.0320583 -0.00111556
-0.100742 -0.0474091 -0.0155398 -0.163814 -0.0098255 -0.114096 -0.0388939 -0.029554 -0.0445253 -0.118188 0.0748444 -0.100243 -0.0327637
0.0115955 -0.0319344 -0.0280543 -0.0375082 0.0220795 -0.0252986 -0.0327298 0.0352403 -0.0236022 -0.000718719 -0.0106985 -0.0273087 0.00143083
-0.471642 -0.210222 -0.816538 -0.967571 0.332829 -0.7238 -0.102095 0.158838 -0.602044 -0.495321 -0.235254 -0.206208 0.196132
-0.0190524 0.022779 0.0103635 -0.0132608 -0.0340694 0.0103819 0.0296544 0.0116566 0.0232771 6.08576e-05 0.0230624 0.0230423 -0.0375041
-0.071277 -0.0104315 -0.0563032 -0.117501 -0.0497626 -0.0562588 -0.0489894 -0.029344 -0.0183248 -0.0121869 0.0303375 -0.0686132 -0.0132222
-0.0133952 0.00411328 -0.00314163 -0.0200484 -0.00592133 -0.0248596 -0.0226818 0.0359571 0.00674716 0.0015004 0.000879354 -0.0114083 -0.00409745
-0.0359651 -0.0273019 -0.0238061 -0.0137075 -0.0227323 -0.00507013 0.000175469 0.026966 0.0242556 -0.011705 -0.021408 -0.0239878 -0.0164518
-0.0206414 -0.00698731 0.00789552 -0.0618049 -0.0129945 -0.00893884 -0.0235878 -0.0370095 0.0295642 -0.00308283 -0.000584132 0.00637664 -0.0264108
0.013545 0.0254798 -0.0337024 -0.01066 -0.0312086 -0.0454074 0.0202579 0.0357462 0.0308314 -0.0473008 0.0183498 0.00780558 0.0177392
-0.0201766 0.00485792 -0.0112124 0.00776381 -0.00335552 -0.0508881 0.00198128 0.0109235 -0.0156061 -0.000310386 0.0346014 0.00713727 -0.0390653
-0.0431101 -0.0327749 0.0144871 0.0279469 0.0261523 0.0268506 -0.0222856 -0.0014975 -0.00396534 -0.0231366 -0.0268361 -0.0331525 -0.0112697
-0.0170492 -0.023406 -0.0211234 -0.0114797 0.0158149 -0.00111832 -0.0272847 -0.015029 0.0115412 -0.0176378 0.0148437 -0.0107423 0.0183336
-0.045506 -0.0148787 -0.0444803 -0.0498588 0.00122609 -0.0155197 0.00570329 0.0247849 0.0330164 -0.0184549 0.0220635 -0.0257582 -0.0242557
-0.0918455 -0.00283495 -0.00165159 -0.0984632 -0.0469669 -0.0979992 0.00223777 -0.0233771 0.0111454 -0.0773169 0.022719 -0.0145993 0.00516655
0.0125637 -0.00892149 0.0348918 -0.00568607 0.013123 -0.0172935 -0.0154696 -0.0169352 0.0252056 0.0229476 0.0189879 0.00393982 -0.0039585
-0.0427608 0.0243384 -0.00730994 -0.0463417 0.0174414 -0.0186104 -0.0258806 0.0341095 -0.0357742 0.0124649 0.0133867 -0.0468546 -0.0359414
-0.168056 -0.0553393 -0.0521533 -0.193778 -0.0341493 -0.175525 -0.0466058 -0.0442234 -0.0450368 -0.0800518 0.0416112 -0.122964 -0.0883036
-0.036319 -0.0371561 0.0229449 -0.0383616 -0.0126145 0.00185146 -0.0245129 0.0372531 -0.0268721 0.00700111 -0.00134164 0.00173662 0.0365727
-0.0273785 -0.0511924 -0.0463635 -0.0948344 -0.0548012 -0.0816329 -0.0410946 0.0161228 0.0253759 -0.073933 0.0159834 -0.0516898 -0.02656
-0.0120887 -0.0115091 -0.00341253 -0.0649227 -0.0375561 -0.0246019 0.00683502 0.00618884 -0.0313459 -0.0397292 -0.00594466 -0.0280068 -0.0116567
-0.00492441 -0.0147913 -0.00297869 0.0279042 0.0338486 0.0148058 0.0235519 0.0253303 -0.00542618 -0.00300451 -0.00624803 -0.0256639 0.00913651
-0.131931 -0.0734213 -0.11516 -0.329189 -0.0571019 -0.188613 -0.0174206 -0.0317963 -0.108612 -0.194274 0.0323 -0.0809822 -0.0729953
0.0282542 0.0295544 -0.0240218 0.0135288 4.77344e-05 0.0272014 0.00451817 -0.017733 0.0262221 0.026514 -0.0285765 -0.00411254 0.00886755
-0.183251 -0.0184497 -0.0913688 -0.248326 -0.00321031 -0.144011 -0.0824723 -0.0440879 -0.0234724 -0.0744066 0.102114 -0.10022 -0.0989099
0.0200069 -0.00103218 0.0114514 -0.00951257 0.0365008 -0.0196195 -0.0314218 0.0226449 0.0271626 0.0245029 0.00829986 -0.0137804 -0.0169168
-0.228412 -0.151959 -0.0866216 -0.286261 0.00673317 -0.234472 -0.153418 -0.00278453 -0.0831371 -0.151172 -0.0153129 -0.147875 -0.277891
-0.0414231 -0.0402259 0.023691 -0.0413784 -0.027856 0.00659477 -0.0321603 -0.00298229 0.0180634 -0.00650452 -0.0280315 0.016518 0.0107636
-0.377409 0.0135402 0.257904 -0.509325 -0.518972 -0.0274397 -0.390629 0.190085 0.339998 -0.660858 1.00207 -0.604323 0.594084
-0.0079112 0.0336656 0.0257595 -0.0283511 0.0245712 -0.0215791 0.0346042 -0.0260185 -0.0203837 0.0280409 -0.0326614 0.00436745 -0.0311007
0.014938 -0.00425756 0.0370662 -0.00324926 -0.00158233 -0.0359545 -0.0026553 0.0372028 0.0235785 -0.00438601 0.0243236 -0.0106586 0.000479034
-0.0580172 0.00743813 0.00172492 -0.0472651 -0.0589723 -0.00282339 -0.0478852 -0.00583361 0.0209508 -0.0355425 0.0713509 -0.0313345 -0.0114236
0.00678802 0.00224777 -0.0175563 0.0134821 0.00376048 -0.0090234 -0.0369549 -0.0340197 -0.0252876 0.000984692 -0.024921 -0.0364276 0.0019576
-0.125921 -0.0131825 -0.0678952 -0.127881 -0.0340198 -0.150579 -0.0516481 -0.0232519 0.0120716 -0.102997 -0.0040084 -0.0236971 -0.0440414
-0.052056 -0.0536084 -0.0237581 -0.115641 -0.0367999 -0.116071 -0.0320513 0.0148691 0.0176601 -0.076246 0.066826 -0.0811223 -0.018563
-0.0458955 -0.00175005 -0.00841848 -0.114127 -0.107315 -0.0178301 0.00922644 0.00225417 0.000421796 -0.0495832 0.157662 -0.119834 0.0215295
-0.0263975 0.028853 0.0183029 0.0217206 -0.0348559 -0.0146441 0.0148906 0.0354316 0.035661 -0.0241345 0.0159075 -0.00849981 -0.00867675
-0.0341866 0.00371686 -0.0269984 -0.0222575 0.00594563 -0.0428435 0.0175239 -0.0151745 0.0241895 -0.0103317 -0.000928292 0.0294965 -0.0241803
0.00167926 -0.0339202 0.0108582 -0.0408178 0.00441505 0.0345713 0.0244256 0.00923491 -0.0215525 -0.00982617 -0.0088516 -0.0149972 0.0224049
-0.0370278 -0.0336804 0.0334009 0.0194988 -0.0284567 -0.0183184 0.0292516 0.00494268 -0.0217399 -0.00991541 0.0224799 -0.0302865 0.0232032
-0.0182483 -0.00685357 -0.0361013 0.0111393 0.0299062 -0.00180104 -0.0247796 -0.0320905 0.00144805 -0.0155267 0.0396738 -0.0134931 -0.0139459
-0.205891 -0.113022 -0.126629 -0.360239 0.0496537 -0.325345 -0.0824505 -0.162717 0.041703 -0.0111919 0.0438785 -0.0902167 -0.422672
-0.147162 -0.0524444 -0.110773 -0.258752 -0.0107481 -0.212297 -0.00226664 -0.0292973 -0.0655766 -0.0811271 0.0489587 -0.0811488 -0.0975826
-0.0235253 -0.0312192 -0.00957708 -0.0301253 -0.00719542 -0.0363476 0.0164225 0.00507959 0.0158577 0.0050622 -0.0297271 -0.00630853 0.0190186
-0.0021635 -0.0477536 -0.00474163 -0.0168408 0.00585102 -0.0168806 0.0227966 -0.0399383 -0.0175859 -0.0037604 -0.00779479 -0.0131553 -9.20949e-05
0.0111261 -0.0293088 -0.029744 0.0281812 -0.0125856 0.00267051 -0.00763281 0.0025842 0.0269001 -0.0165957 0.0180844 -0.0409414 0.0355749
6.4695e-05 0.0125922 -0.0205291 -0.0223067 0.00562271 -0.0187521 0.012006 -0.00906751 -0.0268789 -0.0308823 -0.029404 -0.0365967 0.0296957
-0.0833252 -0.0577438 -0.0680255 -0.0942279 -0.0146711 -0.0906154 -0.060335 -0.0128337 0.0204957 -0.092965 0.0217849 -0.0933639 0.0128301
-0.116158 -0.0651904 -0.0288579 -0.145692 0.0190101 -0.110806 -0.0339599 0.00825036 -0.00299466 -0.10804 0.0517424 -0.0746989 -0.0216209
-0.0281806 0.0252783 0.0149091 0.0212385 0.00810236 -0.0103769 -0.0223165 0.0352778 -0.00701833 -0.0285175 -0.0263845 -0.0150979 0.0180061
-0.00641228 -0.0187132 -0.044641 -0.0713995 -0.00103433 -0.04682 -0.0406156 -0.0406237 0.0161766 -0.0375618 -0.0074131 -0.0263374 -0.0361425
-0.0732619 -0.0200217 0.0279175 -0.102139 -0.0857699 -0.0528593 -0.0557942 -0.0230451 -0.00669399 -0.13271 0.0852493 -0.0964191 0.04446
-0.0620522 -0.0295944 -0.0470272 -0.0961136 -0.0452795 -0.106184 -0.0115303 -0.0336624 -0.0549525 -0.0668958 0.0444853 -0.0955068 -0.0143672
-0.0266771 0.00357258 -0.00247077 -0.00542182 -0.0312362 -0.020894 0.00889289 0.0333217 0.0310967 -0.0164419 -0.00939065 0.0237553 -0.0158391
-0.00372064 0.0107959 -0.0338339 -0.03573 -0.0156371 -0.00741572 -0.0274155 0.0277818 -0.0323579 -0.0231617 -0.0130576 0.0267414 -0.0257101
-0.0268309 0.0343753 -0.0236604 -0.0423644 -0.0204683 -0.00262899 0.00612267 0.0180304 -0.0179755 0.000333186 0.0112897 -0.0167668 0.0257988
0.0311694 -0.0120917 0.00178555 -0.0329713 0.0259622 0.0261039 0.0228812 -0.0115659 0.0077093 0.0342376 0.0129462 -0.00570794 0.013782
-0.133998 -0.0204313 -0.069119 -0.22261 -0.0553348 -0.0965827 -0.0203364 -0.0503314 -0.0113634 -0.076079 0.0314556 -0.0618372 -0.020115
-0.215106 -0.109711 -0.133265 -0.409214 -0.00396303 -0.360981 0.0293305 -0.143504 -0.0877895 -0.0909815 -0.0320976 -0.0230512 -0.358552
0.0168977 -0.00253437 0.0327087 -0.028678 0.0108528 -0.0196598 0.0281099 -0.00358571 -0.0296446 -0.00724149 0.016214 -0.0374511 -0.000904812
0.00944765 -0.032568 0.00768366 -0.0173946 0.0371922 -0.00148986 0.00777736 -0.0316403 -0.0169114 0.00759947 -0.0351925 -0.0348191 -0.00579739
-0.156688 -0.0965132 -0.124852 -0.273567 -0.0351844 -0.173272 -0.0976416 -0.0234132 -0.0617085 -0.168323 0.0479193 -0.126066 -0.144638
-0.0751004 0.0172026 0.00788376 -0.0740772 -0.00954071 -0.0321113 0.0125431 0.0275424 -0.0484509 -0.0466747 0.0146166 -0.0540366 -0.00694896
-0.078715 -0.0635602 -0.016565 -0.119197 -0.0109529 -0.0549042 -0.000844704 0.0129 -0.021473 -0.0272707 0.0043192 -0.0675689 -0.0248442
-0.216234 -0.0686254 -0.086624 -0.28235 -0.0496458 -0.154333 -0.0765155 -0.00370374 -0.0708765 -0.195984 0.000447481 -0.154932 -0.0764145
0.0280007 0.0132298 0.0143421 0.0242715 0.0171112 0.000996274 0.0056032 -0.00400269 -0.0165877 0.00731283 -0.0254588 0.0345342 0.00773543
-0.0351304 0.00209621 -0.0396951 -0.11433 -0.0638367 -0.0645241 -0.00115117 0.0138638 0.022526 -0.0866434 0.0386451 -0.0238272 0.0106502
-0.107052 -0.0139832 -0.084677 -0.19317 -0.0315493 -0.170405 -0.0323878 -0.034897 -0.00185438 -0.0558849 0.0598975 -0.0690917 -0.0769622
-0.0731795 -0.0368951 -0.0653318 -0.030763 -0.00226059 -0.0322079 -0.0356767 0.000384642 0.010184 -0.0630705 0.0139084 -0.0176994 0.0110141
0.0252065 0.00446159 -0.0042446 0.0109844 0.00924885 0.0169704 -0.0128833 -0.036415 -0.0335482 -0.0246654 -0.0282868 -0.00526009 0.0347998
-0.0401691 -0.0136578 -0.0351309 0.0248122 0.00786649 -0.0092962 0.0165637 0.00856992 0.00441359 -0.00378702 0.0199759 -0.0427006 -0.0118061
-0.0269577 -0.0270878 0.0140403 0.0185575 0.0162619 0.00968804 -0.039659 0.0215044 0.0219992 0.00422181 0.0125056 0.018452 -0.00136872
0.0302228 -0.00754401 -0.0347826 0.00169957 -0.009235 -0.0214842 0.0103528 0.0120674 -0.00747882 0.00541643 -0.0102064 0.0190806 0.0213021
0.00441378 -0.0114266 -0.00363743 -0.0294565 -0.0223067 -0.0385781 -0.0306762 0.0160074 -0.0341524 -0.0384079 0.0350944 0.0291235 0.00796235
0.0170152 -0.0202213 0.00372428 -0.0329437 0.00875353 -0.0187859 -0.0240165 0.000986976 -0.0106555 -0.0334557 0.0418174 0.00226323 -0.0391629
-0.0213387 0.018358 0.00636363 -0.0134964 -0.0280791 0.0267593 -0.0188056 -0.0102445 -0.0315338 -0.0369765 0.0351945 -0.0133573 0.0340194
-0.104594 -0.0339316 -0.107588 -0.149007 -0.0168859 -0.131175 -0.0764601 -0.0473453 -0.0513417 -0.11808 0.0647971 -0.0782334 -0.070499
0.016687 0.0145131 -0.0105553 0.00301768 -0.0372751 0.025954 0.0124294 0.00445277 -0.0334759 -0.0023403 0.0194833 0.0126342 0.0238042
-0.034031 -0.0243611 -0.0157 -0.0404646 0.0337355 0.0259776 -0.020993 0.0371583 0.0255656 0.0337658 0.0158147 -0.0240502 0.022093
-0.212029 -0.105736 -0.149379 -0.287837 0.0216793 -0.252262 -0.0483316 -0.107561 -0.0273815 -0.119576 0.0178599 -0.127047 -0.204706
-0.108137 0.0101687 0.0786332 -0.172462 -0.183657 -0.078843 -0.0530601 -0.00851284 0.0221096 -0.15476 0.243461 -0.146037 0.154269
0.0152527 -0.0181413 -0.0295893 -0.00100259 -0.0220039 -0.052648 0.0136586 0.0302334 0.0146285 -0.0265377 0.0112935 -0.0492612 0.03167
-0.0230076 0.0141773 -0.0104005 -0.0112953 -0.0179329 -0.0229328 0.0274276 -0.00555639 -0.016641 -0.0448113 0.00195446 -0.0549771 0.0305665
-0.169284 -0.117698 -0.122202 -0.304562 -0.0264526 -0.174262 -0.117432 -0.0157306 -0.0886924 -0.224813 0.0756481 -0.156863 -0.00404602
-0.771232 -0.545701 -0.492699 -0.865965 -0.454224 -0.300202 -0.0140588 -0.124645 -0.421273 -0.734388 -0.628117 -0.0883391 -0.435698
0.00442982 0.0161022 0.00321333 -0.0435213 0.00814397 0.00856589 -0.0420587 0.0178862 0.024339 0.00156611 0.0435793 -0.0328914 -0.00808883
0.000624408 0.00256741 -0.032077 -0.00577098 0.00441761 -0.0339745 0.0280614 0.00374319 -0.0348358 -0.0259174 -0.00168309 -0.0198113 0.0129764
0.0162295 -0.0397542 0.0192787 -0.0169046 -0.0351253 -0.046984 -0.0269998 0.0124369 -0.00109552 -0.047282 0.0340449 -0.0422945 -0.00868651
-0.038716 0.00343582 0.026849 0.0280804 -0.0341997 0.00330515 0.010791 -0.004468 -0.012116 0.0305194 0.00851616 0.0317799 0.00798279
-0.0216865 0.032809 -0.0306376 -0.0355694 0.0201566 0.0159432 -0.0392859 -0.0345482 0.00219271 0.00848456 -0.0363195 -0.0399538 0.0137385
-0.00830759 0.0359089 -0.0363394 0.00426359 -0.0169615 -0.03674 0.0139413 -0.029931 0.0375255 0.0164348 -0.0173314 0.0346265 0.0201971
-0.0408023 0.0251287 -0.00128378 -0.0152073 -0.0297112 -0.0385928 0.00644093 0.00816062 0.00172725 0.0231475 0.0296368 0.0110829 -0.00728639
-0.0168247 0.00489026 -0.0362844 0.02935 0.0241983 -0.0117753 -0.0177407 -0.0297883 -0.0298334 -0.00189653 0.00743371 0.00521726 -0.0075401
-0.00787851 -0.00734354 -0.0302604 -0.0589464 -0.0311242 -0.0206515 0.020728 -0.0245884 0.0151046 -0.00679285 0.0408103 0.00661273 0.0304749
-0.0413984 0.0108342 -0.0391344 -0.0847986 0.0233707 -0.0619742 0.00803624 -0.0331525 -0.0272058 -0.021621 0.00482503 -0.0129536 0.00701748
-0.074423 -0.0501999 -0.0177445 -0.111757 -0.0131439 -0.066182 -0.0235439 0.0090924 -0.0616933 -0.0911605 0.0520208 -0.0763194 0.0189579
-0.109548 0.0251202 0.0575048 -0.151574 -0.202214 -0.0554399 -0.0714118 0.0137334 0.0878059 -0.149372 0.341748 -0.219827 0.206909
-0.211402 -0.105856 -0.0780155 -0.291473 -0.041523 -0.186687 -0.0981458 -0.0274739 -0.0835439 -0.161151 0.0107482 -0.142142 -0.120987
-0.317183 -0.17528 -0.567156 -0.723768 0.264499 -0.461713 -0.172328 0.121125 -0.433096 -0.380337 -0.182351 -0.147765 0.0923813
-0.0254256 0.0146361 0.0333713 -0.0249543 0.0144024 0.0108633 0.0288003 0.0379802 -0.0108327 -0.0082553 -0.0297794 0.00724064 0.00873952
-0.0924169 -0.0490746 -0.0804116 -0.18737 0.0025274 -0.161507 -0.00445239 -0.00971199 0.00983497 -0.100479 0.0152682 -0.0552134 -0.0171729
-0.0385182 -0.0288804 0.017987 -0.00919822 -0.00752309 0.017257 0.0106401 -0.0343681 0.0141831 0.0102135 -0.00617745 -0.0284659 0.0181641
-0.0880702 0.013731 0.0388992 -0.110704 -0.120175 -0.0879942 -0.0275736 0.00660157 0.0858195 -0.0636211 0.171584 -0.142826 0.0971382
-0.000969421 0.0117716 -0.0520952 -0.0622622 -0.00346325 -0.00617107 0.0177134 -0.00245211 0.0247921 -0.0449286 0.0104877 0.00798859 -0.0407329
-0.0160847 -0.0301177 -0.0139318 -0.00343758 0.0279485 -0.0217299 0.0295411 0.0154226 -0.00972115 0.00813934 -0.00689537 -0.0150551 -0.0136148
-0.0107599 -0.038727 -0.029738 -0.0344967 0.0311411 -0.00516773 0.029531 0.020064 0.0158006 -0.0272366 0.0163256 0.00240022 -0.00283096
-0.20618 -0.191628 -0.0556766 -0.527018 0.0363212 -0.483851 -0.0802558 -0.252073 -0.15411 0.0230674 0.070805 -0.0248582 -0.676188
-0.15854 -0.0759661 -0.0808758 -0.245942 -0.0378893 -0.17263 -0.0646763 -0.0644682 -0.017519 -0.139761 0.0774246 -0.108158 -0.132477
0.0288984 0.000254749 -0.0129468 -0.0330412 0.0326199 0.026197 0.0142831 0.0211422 0.0305221 -0.0354522 0.0245102 0.019583 0.0236546
-0.0303653 0.0064529 0.0136382 -0.0191029 0.0269688 0.012777 -0.0212326 0.00665175 -0.0124459 -0.0399561 0.0390567 -0.00871194 0.0228321
-0.0086568 -0.012844 -0.0175485 0.0115883 0.0126513 0.0183024 0.0261895 -0.0230325 -0.0255981 -0.0248723 0.032062 0.0314453 -0.00773319
-0.168311 -0.119989 -0.17171 -0.267618 -0.0321779 -0.253736 -0.06683 -0.0333699 -0.071949 -0.116925 0.00893124 -0.0743898 -0.132545
-0.0375341 -0.0139117 0.032584 0.0275599 0.0325601 0.0254001 0.0169299 -0.00521821 0.0184608 -0.0029169 -0.00436312 0.00157506 0.00698711
-0.0172735 -0.0109137 -0.0404314 -0.0292916 -0.0157384 0.00208098 -0.0231916 0.0278467 0.0153863 -0.000290875 0.029943 -0.021264 0.000877836
0.00349718 -0.0320011 0.0184023 -0.0111252 -0.00519265 -0.00645674 -0.00119476 0.0291839 -0.00528565 0.0244325 0.0196344 0.0244976 -0.0191712
-0.00259389 -0.0291748 0.036252 0.0216308 -0.0207466 -0.0165774 -0.0335808 0.0135795 0.0263009 0.0199498 -0.0339638 -0.00255945 -0.0303695
-0.237669 -0.0786577 -0.0407633 -0.252199 0.0200383 -0.254509 -0.0938455 -0.132693 -0.0134149 -0.103984 0.052625 -0.0629006 -0.214388
-0.0182069 0.0205318 -0.00036097 -0.0491854 -0.000567025 -0.045092 -0.0420266 0.00290212 0.0282296 0.0098572 0.0251677 -0.0420604 -0.010752
-0.0363469 0.0172267 0.0219828 -0.0283592 -0.025646 0.000709095 -0.0257859 -0.000931453 0.0127665 -0.00940292 -0.0187883 -4.24438e-05 0.0141574
-0.0753106 0.00575526 0.0135043 -0.140969 -0.0959435 -0.041526 -0.0181922 -0.0212995 0.00399043 -0.138195 0.159848 -0.0696261 0.0351661
0.0170204 0.0290809 0.0210291 0.030539 0.0171871 -0.0162756 -0.037893 -0.00561394 -0.0292215 0.0313956 0.00620695 -0.033169 -0.029998
0.0179092 -0.0232426 -0.0108934 -0.0330039 -0.0216272 -0.0285556 -0.0186119 -0.0151415 -0.021257 0.0155839 0.0200615 0.0225187 -0.032082
-0.140223 -0.0233585 -0.0823659 -0.210196 -0.0380993 -0.118835 -0.0532447 -0.0297357 -0.0566068 -0.160745 0.0268347 -0.093027 -0.0516429
-0.0264163 -0.0350948 -0.0127514 0.0147925 -0.0367281 -0.038909 -0.037226 0.0157439 -0.0314932 0.0114277 -0.00325954 0.0229648 0.0261147
-0.251277 -0.133907 -0.0836157 -0.323126 -0.00688271 -0.322616 -0.022616 -0.137512 -0.0501696 -0.0412098 0.0168751 -0.0897014 -0.366134
-0.0228753 0.00223821 -0.0325817 0.0159769 -0.0352504 0.0169742 -0.0154336 -0.0162151 -0.002252 0.0203631 0.00967974 -0.00787041 -0.0322644
-0.120574 -0.00604058 -0.0223088 -0.143813 -0.0553635 -0.145332 -0.0285692 0.0105699 -0.000749222 -0.143896 0.0563817 -0.0697526 -0.00603934
0.0311894 -0.0184332 0.0203614 -0.014558 0.0335752 -0.0209787 -0.0372571 0.0253474 0.0165126 -0.0414286 0.0370401 0.0100171 0.0163851
0.0106405 -0.0119323 0.0190049 -0.0365083 -0.0413843 -0.0610832 0.0177067 0.025656 0.0189235 -0.0356976 0.00295427 0.00163436 0.022565
-0.0603285 -0.0487218 -0.0409523 -0.0338016 0.00804601 -0.0529588 -0.0383365 -0.0179735 0.0328413 -0.0645036 0.0203222 -0.059338 -0.0177961
0.0058554 0.0230011 0.0145933 0.0121202 0.0232645 0.0106671 0.0143047 -0.035647 -0.03428 0.0320815 -0.0341294 -0.0340242 0.0305267
-0.0954707 -0.0566544 -0.0684073 -0.135646 -0.00463075 -0.0490199 -0.0691981 -0.0329501 -0.0495161 -0.0711134 0.044025 -0.0735519 -0.0258852
-0.0475798 -0.0416178 0.030307 -0.0389767 -0.0277466 -0.0456714 0.0315812 0.0320583 0.0176094 0.0160921 -0.00150079 -0.00416215 -0.0194022
0.0234777 0.0215345 -0.0120133 -0.0183171 -0.0168467 -0.0322477 -0.0112372 -0.0264887 0.0207412 -0.00701251 0.0127921 -0.022571 0.0219112
-0.0337451 -0.0106171 0.016882 -0.00568914 0.0314352 0.0251806 0.0258518 -0.0288756 -0.00506115 -0.016066 -0.0328092 -0.0107746 0.0252441
-0.170811 -0.0475344 -0.0585582 -0.23702 -0.0490565 -0.173349 -0.0831905 0.0132837 -0.0407525 -0.145908 0.0135754 -0.0729266 -0.0563729
-0.0837055 -0.0613077 -0.0318803 -0.142463 -0.0195062 -0.0947609 -0.0278015 0.00968209 -0.0221402 -0.0516805 0.0110217 -0.0625339 -0.0429957
-0.0204083 0.0104571 0.0329243 0.010139 0.0156523 -0.0149219 0.0128731 0.0311664 -0.0079413 0.0146863 0.0320301 0.00384527 -0.00140691
-0.0326646 0.0234172 -0.0430551 -0.0172171 -0.0399422 0.00413485 0.00840007 0.0047125 0.0331426 -0.0374846 -0.00395408 0.00708908 -0.0409031
0.0101577 -0.0136045 0.00896532 -0.0274825 0.0290833 -0.022258 -0.0401769 0.00383627 -0.0384696 -0.0538806 -0.00838254 0.014613 -0.00981085
-0.0459214 -0.00260601 -0.0477748 -0.00280318 -0.00760275 -0.0334742 -0.0188005 -0.0317616 -0.0178843 -0.0482679 -0.0207212 -0.0212079 -0.00439603
0.00767469 -0.0373039 0.0244729 -0.00495399 -0.0257456 0.00416594 0.0211552 0.0234162 -0.0182198 0.0293255 -0.000882928 0.00380927 0.0198224
-0.0317395 -0.0131933 0.0100712 -0.00162121 -0.0153564 -0.0116746 -0.0358882 -0.0160747 -0.0358172 0.0103469 0.03369 0.0271874 0.0165611
0.00510568 -0.0128516 -0.0278719 -0.0289627 -0.000639023 -0.0119961 0.00803541 0.00726162 0.0119295 -0.0249895 -0.0260921 0.0275798 -0.0153695
-0.0666167 -0.0270749 -0.0551297 -0.16691 0.00303392 -0.120119 0.00379545 -0.0625737 -0.0187548 -0.0545297 0.0217793 -0.0206824 -0.0196916
-0.012093 -0.00952359 0.0109098 0.0123145 -0.0300745 -0.0250629 0.0103604 -0.0222084 -0.0210296 0.0324597 -0.00546503 0.00325008 0.0081826
-0.0744279 0.00731043 -0.00634454 -0.138858 0.0089854 -0.0658109 -0.0627257 0.0229073 -0.0487385 -0.0572745 0.0170113 -0.0414029 -0.00973867
-0.012245 0.0154992 -0.0392939 -0.0102751 -0.00317884 0.00312631 0.00425847 -0.0251871 -0.00651888 -0.0632741 -0.0122786 0.00742163 -0.0281332
0.0201875 -0.0292701 -0.0181796 -0.0208341 0.0352227 -0.0417117 -0.0293916 0.0232675 -0.00483339 -0.00598631 0.0186893 -0.00139786 0.031257
-0.0182683 -0.0148366 0.00834061 -0.00577612 0.00044346 0.0152554 -0.0244937 0.0323718 -0.00518012 -0.0427605 0.0192368 0.0123756 0.0149773
-0.0112287 0.0298887 0.0211225 -0.0335744 -0.0160575 0.0142758 -0.000910615 0.0114706 0.022559 -0.0323369 -0.0242316 0.0292725 0.0399942
-0.0879991 -0.0553268 -0.0149416 -0.0814513 0.00439974 -0.0353835 -0.046338 0.00558895 -0.010807 -0.0517489 0.022928 -0.0639258 -0.0420686
-0.0313667 -0.0175317 -0.0254875 -0.027403 -0.0343042 0.0209916 -0.000194563 0.0355136 0.0155129 0.0103733 -0.0020146 -0.0346297 -0.0134253
-0.0224314 -0.0127847 -0.0189191 -0.00654231 0.0220111 0.0125818 0.0110841 -0.0179977 0.0340976 -0.0339404 0.0264151 0.0184932 0.0204997
-0.00941548 0.0109482 -0.0397099 0.01078 -0.0275519 -0.0358824 -0.00134003 -0.0330345 -0.0212705 -0.0353225 0.0217851 -0.00920758 -0.0319355
-0.000304466 0.0139449 0.0317576 0.0128852 -0.0370091 -0.0468285 -0.0181789 0.000901175 0.0157533 0.0249448 -0.0213166 0.0157254 -0.0224019
-0.00156708 -0.0247343 -0.008293 0.0294374 -0.0201811 -0.00200306 0.0117675 0.0125226 0.0259754 -0.0256172 0.0231979 -0.0128664 -0.0227505
-0.285364 -0.158027 -0.473983 -0.626018 0.166197 -0.447993 -0.0606967 0.116297 -0.372564 -0.235074 -0.182134 -0.113924 0.0668512
-0.266104 -0.100596 -0.102588 -0.293974 0.0457605 -0.240057 -0.144691 -0.0948197 -0.0308784 -0.132932 -0.000760696 -0.114257 -0.349213
0.0115049 0.030456 -0.0124663 -0.0424467 -0.0125339 -0.0120896 0.0104217 0.0130176 -0.00779187 0.0209301 0.0254689 -0.0089199 -0.00408602
-0.148161 -0.0593628 -0.105189 -0.251774 -0.0133489 -0.16227 -0.0636657 -0.0138006 -0.0669085 -0.187936 0.0567183 -0.0848804 -0.02557
-0.0240075 0.0165541 -0.000354991 0.00888871 0.0166787 -0.0336192 -0.0059541 -0.00577969 0.0272179 -0.0446808 -0.00794791 -0.00140732 0.0180406
0.0154856 -0.0184182 0.0211267 -0.0092275 -0.0139657 0.0313152 -0.000252701 0.0357781 0.0341197 0.0204141 -0.0227333 0.00958953 0.0165455
0.00651421 -0.0377159 -0.0125706 -0.02448 0.0138429 0.00568795 0.0161489 0.0268487 -0.0391284 -0.000303906 -0.0241337 0.0323534 0.0191325
0.00923434 0.0339272 -0.0288566 -0.0307311 0.022167 -0.0148779 -0.0135804 -0.034714 0.0121466 0.0239865 0.0323292 -0.0258564 0.0259653
-0.011956 0.0054057 -0.0207243 -0.0336267 -0.00661772 -0.0180427 0.0221804 -0.0306248 0.0063687 -0.0296984 -0.00669226 -0.0221553 -0.0383519
-0.117995 0.0221097 0.0227837 -0.143206 -0.0652361 -0.0358069 -0.0218996 -0.0110981 -0.00456387 -0.119532 0.124742 -0.109406 0.0824895
-0.146674 -0.106181 -0.0680697 -0.322629 -0.0596097 -0.165002 -0.0886659 -0.0101007 -0.0521339 -0.212857 0.113663 -0.154541 0.00254999
-0.00863139 -0.0167164 0.0178456 -0.0447123 0.0348272 -0.0306289 -0.0359351 0.00832658 -0.0210882 -0.015877 0.0254518 -0.00207131 0.0141679
