251 8 5
-0.0166423 0.0198319 0.0311282 -0.0734878 0.0678456 0.000485989 0.0118744 -0.0612172
-0.16682 0.0938266 0.0962137 -0.140941 0.0983392 0.0971444 0.260464 -0.112491
0.0128365 -0.0171279 0.0435297 -0.0270384 0.0638469 0.0769176 0.0328415 -0.0409209
0.795714 0.30475 0.194604 -1.07417 -0.318 0.434157 0.705416 0.487489
-0.00386433 -0.0143797 -0.0419619 -0.00507499 0.0140947 0.0530357 0.137867 -0.0528565
0.0334534 -0.0418565 -0.0141395 -0.0188668 0.0225094 0.0274313 0.0565859 -0.0179355
-0.486632 0.403063 0.381016 -0.414728 1.1564 0.20818 0.462691 -0.309485
-0.0727175 0.0815498 0.0197436 -0.0396625 0.0504578 0.0251549 0.0449029 0.0382819
-0.0230799 0.0676125 -0.0517575 -0.0905415 0.0130739 0.0609009 0.0534914 -0.0418206
-0.761569 0.412333 0.74554 -0.191849 -0.112317 0.420499 0.55016 0.282017
-0.291651 0.389257 0.123115 -0.321753 0.0362305 0.0131296 0.451623 -0.257615
-0.0379535 0.093602 0.00782585 -0.0296114 -0.00136209 0.129 0.18254 -0.0652287
-0.0277373 0.00577293 0.0574489 -0.0323283 -0.0202409 0.0165914 0.016754 -0.0725311
-0.216599 0.823387 -0.694623 -0.0866955 -1.25528 0.688321 0.932539 -0.0789871
-0.000588646 0.0841023 0.00447965 -0.00605688 -0.0278987 0.0859463 0.0476529 -0.077219
-0.00372817 0.105065 -0.0318599 0.016108 -0.0131907 0.0183664 0.0547984 0.0280295
-0.0251649 0.0287426 -0.0174047 0.0403161 0.0335974 -0.015521 0.0779665 -0.0385659
-0.239487 0.229124 0.111769 -0.192774 0.215188 0.210545 0.310992 -0.149208
-0.0496976 0.0392122 0.0311759 -0.0577961 -0.0420432 0.00215943 0.0645911 -0.00210813
-0.104439 0.127871 -0.000206283 -0.0968353 0.110432 0.142959 0.3108 -0.021447
-0.0248588 0.0588572 -0.0298391 -0.0401233 0.0863714 0.00833485 0.105704 0.0370642
-0.199262 0.118767 0.0950687 -0.0870262 0.124213 0.23302 0.243735 -0.118542
-0.141575 0.0352073 0.0116177 -0.147873 0.0352596 0.0687333 0.171487 -0.0735408
-0.132246 0.162601 -0.148447 -0.177508 0.0652427 0.418039 0.360627 -0.0378579
-0.0696781 0.0541458 0.0397439 0.0330853 0.0662325 -0.0237948 -0.00385125 -0.0318017
-0.177012 0.307407 -0.0266511 -0.17295 0.0505752 0.244119 0.472179 -0.0369485
-0.0204924 0.0268662 -0.0356459 -0.0127651 -0.00718155 0.0212809 0.0142096 0.0188105
-0.0919518 0.142514 0.043863 -0.166111 0.101338 0.179057 0.19492 -0.043099
-0.274469 0.213704 -0.127393 -0.109495 -0.105556 0.377117 0.481262 0.000173484
-0.0429114 0.0795157 -0.0498615 0.0189889 0.00182727 0.0253825 0.130469 -0.0225173
-0.0676664 0.269796 -0.255433 -0.0754527 -0.747695 0.486484 0.899173 0.113719
-0.101031 0.116487 -0.0345792 0.00551938 0.0245512 0.121931 0.111071 -0.0120174
0.0470021 -0.00683701 -0.0168241 -0.0299943 -0.0500611 0.0205102 0.0639134 -0.0469857
-0.0217602 -0.0359833 0.0101813 -0.00442026 0.0562592 0.0372926 0.0291583 -0.065062
0.0312491 0.0771904 0.0101125 -0.0472552 -0.0407596 0.050661 0.0763378 -0.00491159
-0.12078 0.0540525 -0.00566085 -0.0476543 0.130975 0.145014 0.131485 -0.0685189
-0.163517 0.0786852 0.0291358 -0.0578471 0.016699 0.169134 0.234494 -0.102043
-0.0760744 0.0472414 0.00266365 -0.0785776 0.0267688 -0.0139047 0.0437486 -0.0123862
-0.295368 0.209829 0.259422 -0.269769 0.521502 0.208168 0.368177 -0.25157
-0.113759 0.102072 -0.0403985 -0.0913467 0.0660835 0.137847 0.119538 -0.104256
-0.0450707 -0.0273264 -0.0206566 -0.0197532 0.0533844 0.0700715 -0.00319355 0.0124349
-0.267281 0.282871 0.0340296 -0.184231 -0.00728444 0.14121 0.477594 -0.183807
-0.0565096 0.0840575 0.0431886 -0.0772475 -0.0394845 0.101116 0.104577 -0.0187274
-0.0875603 0.025418 -0.0260155 -0.013588 0.000266818 0.0155375 0.126122 -0.0360048
-0.297376 0.311915 0.171488 -0.293433 0.163311 0.0954593 0.500601 -0.247595
-0.169438 0.160686 -0.112231 -0.102217 -0.131756 0.37086 0.415592 0.0453963
-0.00835789 -0.0239204 0.0547649 -0.0138934 0.0345742 0.00692278 -0.0116912 -0.0215434
-0.187822 0.137052 0.0242214 -0.196675 0.256849 0.223208 0.298822 -0.137894
-0.257025 0.423302 -0.447273 0.0201546 -1.10197 0.477603 0.976405 -0.119264
-0.0139019 -0.00585628 0.0446114 -0.0369577 -0.0456684 0.0255474 0.0765485 0.0525468
-0.132304 0.211029 0.00534588 -0.0698085 -0.24506 0.167648 0.507635 -0.0260698
-0.11976 0.629655 -0.363775 0.00425656 -1.31264 0.438241 1.25049 0.0395921
0.00166124 0.0242665 0.05436 0.00867921 -0.0542481 0.0694529 0.0433989 0.0342734
-0.0773333 0.0230359 0.00648734 0.00703335 0.0700113 0.0332817 -0.0271181 -0.0177139
0.0225174 -0.049016 -0.0347245 0.00218523 0.0255857 0.000195879 -0.0129599 -0.0268471
0.00769601 0.0947895 -0.00626602 0.0226395 0.036091 -0.0179448 0.0489248 0.00240176
-0.19165 0.382291 0.0660946 -0.350449 0.135248 0.144034 0.337467 -0.303859
-0.50816 0.330674 0.326458 -0.296039 0.839993 0.18726 0.409501 -0.220491
-0.510083 -0.0442836 0.186849 -0.576528 0.853566 0.350393 0.380538 -0.378781
-0.0464373 0.0222817 -0.0169776 0.0308668 0.0330031 0.0290933 -0.0455581 0.0466867
0.0216731 0.0776909 0.0393516 0.02084 0.0359938 0.0202936 0.00955925 0.00902695
-0.215189 0.206889 0.0845875 -0.196926 0.133317 0.113724 0.485823 -0.177892
-0.0524061 0.0450827 0.0393498 -0.0308152 -0.0132051 0.0387849 0.0183415 -0.0244004
-0.000578097 0.0533461 0.0026608 -0.0224298 -0.0377984 0.0407914 0.0189947 0.0356338
-0.250011 0.15767 -0.838124 -0.215443 -0.98374 1.48939 0.547305 0.0618109
-0.126992 0.0952868 0.00445708 -0.118895 0.0685591 0.216519 0.317423 -0.0569387
-0.396607 0.556337 -0.422225 0.13702 -1.07077 0.0871891 1.25868 -0.093742
-0.0859138 0.148811 -0.213087 -0.163661 -0.0967072 0.341882 0.346614 -0.0387991
-8.6033e-05 0.0261129 -0.0279706 0.0375109 -0.0269535 -0.0160919 0.0265573 -0.0332715
-0.00696671 0.0173618 -0.0376883 0.0112677 0.0745089 0.0776533 0.090771 -0.0383965
-0.12923 0.164595 -0.0079118 -0.100133 0.0686389 0.10458 0.260554 -0.0229721
-0.028616 0.0192252 -0.024138 -0.0591823 -0.0526655 0.067294 0.09049 -0.0401344
-0.177669 0.30372 0.0298428 -0.0531116 -0.0746887 0.244943 0.531318 -0.0917259
0.00643424 0.0844347 -0.0414605 -0.0570577 -0.0458148 0.0115395 0.0380442 -0.00360146
-0.000809364 0.0207111 -0.0544424 0.0151635 -0.0465986 0.0410603 0.00746365 0.0525726
-0.125676 0.108043 0.0593458 -0.0441063 -0.0377957 0.0297116 0.128321 -0.0637171
-0.0429553 0.0824413 0.0740684 -0.0276946 0.0828105 0.045387 0.0889119 -0.0513277
-0.416545 0.320124 0.435738 -0.414182 0.598716 -0.0316848 0.561767 -0.457948
0.0116415 0.0160985 0.0186989 -0.0706741 -0.0272273 0.0611145 -0.0204636 0.00888339
-0.0651109 0.126612 -0.0804248 -0.14195 -0.185708 0.449356 0.424759 -0.11316
-0.146789 0.288212 0.0194886 -0.0156821 -0.0702134 0.187434 0.417717 -0.0531183
0.117491 0.381957 -0.332713 0.35746 -1.126 1.09476 0.956912 -0.497213
-0.231226 0.1442 0.0741724 -0.15166 0.067408 0.204271 0.26942 -0.126973
-0.0122108 0.0706616 -0.0438955 -0.0505389 -0.0625792 -0.0254983 -0.00253374 -0.0403496
-0.0517277 0.0273086 0.0438047 -0.041311 -0.0422288 0.0464355 0.00605964 0.0193634
-0.0301453 0.0355272 -0.0351124 0.00492754 0.00532603 0.00281479 0.155097 0.0121694
-0.0211419 0.244193 -0.260878 -0.139973 -0.377048 0.59041 0.544674 -0.0274756
-0.0732587 0.0700241 0.00316931 -0.0699753 0.0183535 0.0529441 -0.00696698 -0.0257221
0.0153045 0.0593653 0.045868 -0.0118754 0.0705959 0.0286068 0.079089 0.0145543
-0.0905473 -0.00709545 0.0445946 -0.0342426 0.0595818 0.0286257 0.0585633 0.0230041
-0.320965 0.273061 0.192729 -0.352876 0.542783 0.180988 0.376189 -0.152098
-0.00982592 0.0269787 0.0145271 -0.0275483 0.026931 0.0483035 -0.0205824 0.0380436
0.0124729 0.0404202 0.0251717 0.0440772 -0.0314971 -0.0162403 0.0781957 0.0503236
-0.13284 0.349674 0.175942 -0.152937 0.00395007 0.058895 0.571365 -0.20521
-0.127082 0.0217382 0.0409935 -0.0380129 -0.0278113 0.0924236 0.166813 -0.0685597
-0.222726 0.281767 0.0230755 -0.172911 -0.0468639 0.245605 0.451827 -0.0899025
-0.305019 0.272668 0.00153745 -0.193 -0.160695 0.19758 0.509016 -0.145439
-0.0460719 0.00241053 0.0451269 -0.119712 -0.010746 0.0994566 0.114359 -0.0835549
-0.250688 0.627568 -0.77585 -0.182696 -1.25292 0.463377 1.27155 0.258061
-0.0964362 0.11443 -0.0333468 -0.106785 -0.0327333 0.127014 0.208541 -0.108959
-0.278312 0.514143 -0.400688 -0.0209733 -0.988176 0.486035 0.935239 0.0357048
-0.0514215 -0.0763978 -0.555318 -0.272517 -0.271692 0.763091 0.471467 0.153791
-0.0793798 -0.0296664 -0.0362208 -0.0458685 -0.0266563 0.068799 -0.0229762 -0.0485713
-0.014411 0.0254989 -0.0308165 -0.06645 0.0168163 0.0604484 0.0547508 -0.0514425
-0.149966 0.0837342 0.00687978 -0.11373 0.110896 0.189714 0.256808 -0.0437327
-0.0652769 0.026834 -0.0428648 -0.0572698 -0.035525 -0.000867219 0.129909 -0.0331622
-0.00493314 0.0868777 -0.0518884 -0.077577 0.0284796 0.0736642 0.0631367 0.00556029
-0.428663 0.354544 0.302644 -0.297806 0.722123 0.191654 0.364899 -0.206101
-0.0491032 -0.0386356 -0.0356767 -0.00510367 -0.0452042 -0.0212927 0.089952 -0.00168185
-0.177423 0.382983 0.071425 -0.159239 -0.118976 0.0609186 0.588817 -0.222496
0.00307299 0.0692845 -0.00277778 -0.0817833 0.00157958 0.0483561 0.0662166 -0.0577306
-0.324569 0.227865 0.410364 -0.506258 0.597476 0.0430653 0.538434 -0.509292
0.00975283 0.0522874 0.0098057 -0.0924661 0.0443239 0.015844 0.0368398 -0.0281616
-0.0806416 0.727313 -0.3499 -0.0322475 -1.2246 0.603363 0.992031 -0.103092
-0.0781881 0.185011 -0.151048 -0.105812 -0.238437 0.429364 0.481928 -0.0403058
0.144284 0.078199 -0.531892 0.329935 -0.879566 0.761104 1.35123 -0.193058
-0.073975 0.0741091 -0.0394091 -0.0770038 0.0749686 0.0269079 0.0538187 -0.0866486
-0.0532681 0.0526476 0.0295199 -0.0500785 -0.0509974 0.094772 0.0200662 0.0413163
-0.165985 0.10299 0.0198803 -0.154282 -0.0110078 0.174249 0.174765 -0.0953029
0.0361402 -0.0258853 0.0258375 0.0155606 -0.0181546 -0.0156678 0.000183177 0.00447705
-0.0890729 0.0792688 0.0527943 -0.0747192 -0.044126 0.0244284 0.0992731 0.045913
-0.376361 0.286325 0.104859 -0.121683 0.274795 0.16854 0.398382 -0.154645
-0.137988 0.0928197 0.0389085 -0.114937 0.0844361 0.0522524 0.127435 -0.0460314
-0.289409 0.354347 0.310278 -0.223474 0.0449474 -0.0356355 0.574317 -0.336906
-0.123806 0.165359 -0.0613711 -0.0637577 0.0825673 0.118186 0.164144 -0.0743213
-0.0311035 0.0588706 -0.0657075 -0.0657192 0.0486999 0.0743559 0.0445374 -0.0761414
-0.012425 0.519376 -0.431175 0.158988 -1.16801 0.828112 1.03586 -0.180759
-0.133618 0.146873 -0.0705654 -0.15389 -0.0447731 0.159788 0.224676 -0.101861
-0.0350133 0.0330776 -0.05064 -0.0268726 0.0650582 0.0539992 0.0574265 -0.0719875
-0.0899687 0.0935798 -0.0106139 -0.0722209 0.0239254 0.0358909 0.0909322 -0.0575173
-0.0606445 0.0405286 -0.0381026 -0.00906568 0.00844439 0.0499024 0.118082 -0.00498447
-0.0238874 0.0796572 0.0378839 0.0266264 -0.0207826 0.0102698 0.0341272 -0.0387829
-0.0358392 0.02012 0.0558679 -0.0483237 0.00365771 -0.0368297 0.0509639 -0.0636925
0.041473 -0.0211326 0.0119128 0.00025033 -0.00763072 0.0471973 0.00727126 0.0272444
-0.013234 0.0871127 0.0646072 -0.0921195 -0.0200935 0.0740302 0.0946896 0.00793898
0.0128697 0.0272301 -0.0280724 0.0351469 0.0321 0.0567561 0.0816786 0.0253949
-0.305431 0.303992 0.211797 -0.309877 0.345188 0.181672 0.37146 -0.147028
-0.0237703 0.0466154 -0.0320802 -0.0473694 -0.0562944 0.00570351 0.0450869 0.00241074
-0.310971 0.320018 0.205874 -0.283314 0.483207 0.201721 0.305442 -0.229034
-0.0410931 0.00534771 -0.0263225 -0.0402706 0.00482294 0.0786497 0.0875617 0.0160516
-0.197864 0.363404 0.24049 -0.259091 0.218765 0.115857 0.462376 -0.306444
-0.0778755 0.0585188 0.0308627 -0.0686753 0.049462 0.0793805 0.10003 0.0232331
-0.0214429 -0.0118022 0.0390618 -0.07122 0.0619708 0.0736787 0.0787366 -0.0110083
-0.219234 0.144197 0.0783091 -0.177315 0.16157 0.185263 0.357363 -0.0709186
-0.0978778 0.0426311 -0.00984342 -0.0522696 0.00566447 0.0561387 0.102805 -0.00773763
-0.207579 -0.273698 -0.000261279 0.0658706 -1.16583 0.818523 1.29454 0.234692
-0.0442915 0.0512606 0.0620312 -0.0478529 -0.0337911 0.0528352 0.036184 0.0251433
-0.155964 0.108148 -0.23942 -0.101826 -0.193112 0.387456 0.468209 -0.00892511
-0.10456 0.270723 -0.0736534 -0.11227 -0.250463 0.221286 0.647777 -0.10539
-0.0641456 0.0646636 0.048034 0.0239696 -0.0278169 0.0445696 0.0255584 0.0435346
-0.0711559 0.0800315 0.00775559 -0.0374069 0.0602778 0.0643694 0.0378341 0.0471221
-0.0234068 -0.0130841 -0.0615666 -0.0386919 2.84889e-05 -0.00947807 0.0305776 -0.0240069
-0.0890261 0.049822 0.00873766 -0.0874075 0.0101696 0.174072 0.183761 0.0174622
-0.933119 1.16008 1.05708 -0.538452 0.374065 0.359629 0.567544 0.00449161
-0.0405884 0.00194026 -0.00906662 0.0119276 0.0435419 0.00690171 0.140262 -0.0147721
-0.404366 0.216369 0.163778 -0.26731 0.540666 0.237282 0.30838 -0.181624
-0.237475 0.284915 0.297211 -0.409092 0.0963749 0.0252934 0.444624 -0.306921
-0.0901955 0.122863 -0.0343811 -0.0303825 0.0211278 0.0780551 0.0929748 -0.0381173
-0.277527 0.139615 0.277808 -0.240268 0.241295 0.0293279 0.584446 -0.356447
-0.0683518 -0.0212782 -0.00174451 -0.0720014 0.075869 0.0253989 0.0718824 0.0277965
-0.454806 0.714407 -0.303096 -0.812755 -1.72489 0.439465 0.836568 0.107853
-0.295151 0.265292 -0.163574 -0.0817681 -0.26893 0.386171 0.491905 0.0436805
-0.0775378 -0.0177824 -0.0337255 -0.00903058 0.0673414 0.0668495 0.0331393 -0.0410915
-0.222855 0.304609 -0.682618 0.251988 -1.06426 0.704323 1.3091 -0.0732657
-0.024547 0.0945638 0.0432049 -0.0763772 0.0430554 0.0570921 0.0609723 -0.0774999
-0.0537683 0.120609 0.0387189 -0.0701273 0.0621561 0.0507432 0.149728 -0.0331695
-0.244415 0.236679 0.107469 -0.182534 0.0708018 0.226163 0.337777 -0.12633
-0.118974 0.126753 -0.0372006 -0.11251 0.0514383 0.0837153 0.0965763 -0.102156
-0.0503522 0.0558041 0.0292238 -0.0158945 0.00941449 0.10935 0.142752 -0.0243439
-0.0238301 0.063609 0.0496979 -0.056988 0.00565571 0.0838141 0.0942151 -0.0381749
0.0262811 0.0251734 0.0150157 0.0146139 0.0438038 0.0728943 0.101461 0.0392965
0.0458272 1.40129 -0.742737 0.022431 0.548846 -0.103822 0.618369 0.160877
-0.0197221 0.00476884 -0.0379488 -0.047967 -0.0370095 -0.00538832 0.121686 0.0247833
0.0127794 -0.0229084 0.0314545 0.0190308 -0.00367103 0.07349 0.0472519 -0.00247806
-0.0575981 0.031023 0.0150834 -0.103956 0.00533744 0.0518597 0.168076 -0.0266866
-0.412516 0.36877 0.562177 -0.404728 0.480147 -0.0874708 0.558067 -0.471747
-0.00300948 0.0299695 -0.0225681 -0.0683426 0.0145954 -0.0242037 0.083809 0.0311866
-0.152878 0.115199 0.0903002 -0.164189 0.0791414 0.165444 0.307662 -0.104282
-0.068894 0.0878851 -0.522873 -0.109987 -0.453301 0.589376 0.662069 0.0174645
-0.351318 -0.239739 -0.513784 0.287518 -0.970736 0.325045 1.52869 -0.181696
-0.130999 0.139561 -0.0360992 -0.0476623 0.0353235 0.151829 0.357252 -0.0855946
-0.0797557 0.11971 0.0337856 -0.0973318 0.0898801 0.0613232 0.107329 -0.0455219
-0.239905 0.114987 -0.0384202 -0.111796 0.0691247 0.143807 0.228705 -0.0977947
-0.152689 0.0403453 -0.00848865 -0.122728 0.102877 0.0491455 0.213655 -0.0495775
-0.140859 0.113833 -0.0310158 -0.110498 -0.0578823 0.185699 0.242851 -0.0389984
-0.0135581 0.0143138 0.02797 -0.000171509 0.0596812 -0.0346242 -0.00115385 -0.0726449
-0.331903 0.314565 0.0738441 -0.280787 0.36917 0.12913 0.352629 -0.186771
-0.12436 0.119155 -0.00146394 -0.138085 0.0339087 0.103358 0.182304 -0.000959176
-0.060002 -0.027709 -0.00727255 -0.0135131 -0.0164595 -0.0285748 0.0475219 -0.0699321
-0.345317 0.309519 0.228392 -0.285766 0.528955 0.133039 0.388161 -0.219434
-0.56744 -0.224706 0.221318 -0.520873 0.522785 0.465086 0.285438 -0.108985
0.000667194 0.0747138 -0.0551362 -0.0140751 -0.0377293 0.0391638 0.0615191 -0.0271155
-0.0756687 -0.0264453 0.0524299 0.0162056 0.0449226 0.017945 0.0833453 -0.0584383
-0.307009 0.305545 0.112668 -0.182802 0.230862 0.154537 0.503492 -0.196208
-0.0381931 0.0702948 -0.668901 -0.125079 -0.916646 1.24623 1.11845 0.634862
-0.0492511 0.0906565 -0.0106057 0.0231785 0.0573272 -0.0130889 0.0527753 -0.0371156
-0.271392 0.4855 -0.29421 0.118877 -0.714233 0.70686 0.704697 0.0105689
-0.106169 0.0395436 0.0615629 -0.091924 0.0296798 0.13293 0.101243 -0.0494915
-0.0474998 0.0342452 -0.0217749 0.0258409 0.0334201 0.0492593 0.0815011 0.0172987
-0.183578 0.149245 -0.00240398 -0.112307 0.0656317 0.184346 0.249319 -0.121882
-0.0291786 0.0530663 0.00274606 -0.0601319 0.0449279 0.0482575 -0.0197788 -0.0297776
-0.022098 -0.0149042 -0.00518671 -0.0223857 0.00770736 0.00624594 0.011335 -0.0600219
-0.19703 0.109996 -0.0219266 -0.134824 0.0643137 0.109705 0.24849 -0.0389884
-0.447348 0.289576 0.314639 -0.326052 0.672904 0.182588 0.352405 -0.262609
-0.164214 0.108298 -0.0447016 -0.159668 0.0319902 0.17127 0.233165 -0.0176466
-0.340593 0.309767 0.302821 -0.254875 0.225941 -0.0256053 0.548355 -0.35074
-0.109329 0.161433 -0.000531282 -0.153639 0.0296458 0.179598 0.239102 -0.0418049
-0.401088 0.32562 0.413105 -0.465236 0.326453 -0.0687133 0.456173 -0.384828
-0.0826161 0.165594 -0.0515449 -0.0958201 -0.087397 0.151833 0.426719 -0.0384645
-0.238502 0.748019 -0.578821 0.0820127 -1.12215 0.561585 1.25272 0.354689
-0.0518011 0.0507528 -0.011684 -0.0497935 0.0229753 0.0397505 0.02513 0.0357867
-0.228391 0.475078 -0.670549 -0.184705 -1.13007 0.446017 1.08191 0.0968062
0.014697 0.0123968 0.00627224 -0.0313764 -0.0448557 0.0291467 0.0420388 -0.0541746
-0.0368071 0.0408263 0.0625274 -0.0041951 0.0495478 0.0282425 0.0717212 -0.0705991
-0.0249251 0.0500414 0.0477681 -0.0210382 -0.0453983 -0.0156799 -0.0121475 0.024084
0.0351286 -0.0117328 -0.0551115 0.026417 0.057063 -0.0116934 -0.0232804 0.03574
-0.00836657 0.0352363 0.0312717 0.0351092 -0.00297072 -0.00638398 0.0724136 0.0110975
-0.272393 0.253442 0.0938334 -0.215234 0.121141 0.182656 0.382078 -0.0970396
-0.0773822 -0.012892 0.0570582 -0.103348 0.014413 0.0440181 0.142817 -0.00384065
-0.234821 0.219923 -0.0473392 -0.187797 0.0455813 0.100393 0.521853 -0.0471406
-0.0651637 0.0226236 -0.0295998 0.0333298 -0.00515848 -0.0189145 0.0924053 -8.8737e-05
0.0210881 -0.0312825 0.0535755 -0.0252797 -0.0269861 0.0586904 0.0862142 0.0370339
-0.656292 0.104351 0.32276 -0.669791 1.01488 0.333327 0.433085 -0.433921
-0.850429 0.837992 0.407191 -0.249094 0.626261 0.259531 0.460153 -0.0264826
-0.0145366 0.0449147 0.0144823 -0.0198138 -0.0684303 0.0767614 0.0771429 -0.0395877
-0.118163 0.0496398 -0.225022 -0.208876 -0.201148 0.37026 0.443022 0.0173522
-0.0441518 0.0750992 -0.0462287 -0.0464077 -0.00460753 0.0281391 0.0875912 -0.0575975
-0.211417 0.054413 -0.882886 -0.12919 -0.696337 1.2065 0.79846 0.52065
-0.0730016 0.062474 -0.0555932 -0.102614 0.00231091 0.0522858 0.0969196 -0.0242181
-0.0554317 0.461516 0.0640261 -0.36634 0.607806 0.0518769 0.424383 -0.21269
-0.0145018 0.0497195 -0.023965 0.00392702 -0.0259061 -0.0169658 0.0639669 -0.00321895
-0.142975 0.248711 0.0280563 -0.204501 0.115618 0.219589 0.333299 -0.0707695
-0.00779597 0.0405801 -0.0091159 -0.0545538 0.00507359 0.0982972 0.0963118 -0.0415575
-0.350325 0.354811 0.116536 -0.174281 0.208386 0.154474 0.411744 -0.0843504
-0.241832 0.257459 0.224972 -0.228233 0.175602 0.106766 0.511697 -0.185004
-0.227703 0.247914 0.140865 -0.236585 0.167761 0.15653 0.435644 -0.205175
0.0987041 0.709283 -0.119378 0.15652 -0.902634 0.739375 0.779663 -0.237055
0.0270637 0.369274 -0.445604 -0.091583 -0.795518 0.371802 1.1381 0.143881
-0.150117 0.081559 -0.106111 -0.132438 -0.0306336 0.186347 0.372957 -0.071919
-0.00948906 0.036814 -0.0100328 -0.0472934 -0.0326549 0.0528141 0.0456083 -0.00902194
-0.0392095 0.0825454 0.0322215 0.0421303 0.0591922 0.0795216 0.0638859 0.0164067
-0.144479 0.0960861 0.0602056 -0.154259 0.117419 0.162664 0.137519 -0.0477513
-0.0246399 0.0360386 -0.0429277 0.0181383 -0.0169087 0.0119701 0.1157 -0.00300946
-0.380324 0.222455 0.209741 -0.261686 0.604421 0.209526 0.370458 -0.267403
-0.599997 -0.00445726 0.207887 -0.674281 0.973728 0.330878 0.410033 -0.361213
-0.0735252 0.11735 -0.02211 -0.0665145 0.109981 0.0659883 0.173992 -0.0478923
-0.485485 0.197296 0.27541 -0.486916 0.764544 0.247262 0.383063 -0.251931
-0.126573 0.111027 0.0364089 -0.112755 0.0324071 0.102854 0.157821 0.0206894
-0.432322 0.0285165 -1.13386 -0.164885 -0.791464 1.162 0.704715 0.23253
-0.172256 -0.00592459 -0.726699 0.0512276 -0.834841 1.16858 0.987068 0.439989
-0.147029 0.143349 -0.103258 -0.0544766 -0.0608912 0.189171 0.246076 -0.0369145