4424 13 66
-0.0338083 0.0355579 -0.0265792 0.0356298 -0.0205339 -0.0338254 0.00704217 -0.0205865 0.0329027 0.0242183 -0.0187369 0.0382935 -0.0194174
-0.108141 -0.0539607 -1.15112 0.410265 0.0893004 -0.544488 -0.140382 0.434306 0.0700152 -0.0674879 -0.59386 0.535275 -0.463545
0.0178236 -0.0307918 -0.00589166 -0.0203179 -0.041117 -0.0411354 -0.0502705 0.0579476 0.00977543 0.0442562 -0.0447324 0.0309398 -0.0245098
-0.00908476 0.0352293 0.0145767 -0.0246805 0.030202 0.0175019 0.02456 -0.0312781 0.0176467 0.0136285 -0.0115178 0.024247 -0.0319803
-0.00575108 -0.0127822 0.0210964 0.00913621 0.0119678 0.0217827 -0.0384089 0.0405366 -0.0119805 0.0376614 0.0283901 0.0357213 0.0311348
0.0384274 -0.00790243 -0.0107608 -0.0110159 0.010072 0.0381477 0.0328997 -0.00342614 -0.0130241 0.000994303 -0.0295071 -0.0155717 0.0185098
-0.0023641 0.00562576 -0.0183294 -0.0382652 0.0248416 -0.00469101 -0.00506683 -0.00552497 -0.0121905 -0.0214231 0.00873503 0.0109935 0.015763
-0.0103022 0.0375278 -0.00666181 0.0260508 0.0281867 -0.0109141 -0.00913475 0.0360423 0.0168505 -0.0342676 0.0016348 -0.00754928 -0.0367099
-0.0247136 -0.0327997 -0.0382771 0.0116682 0.0011062 0.0279671 -0.0413785 0.0553546 0.029148 -0.023573 -0.0386568 0.0449428 -0.0467167
0.0156313 0.0053532 -0.0485857 -0.00555659 -0.0438217 0.00127353 0.00325417 0.0540403 0.0343521 0.0422442 -0.0103975 0.0134006 -0.0157657
0.0140121 0.0403992 0.000671761 -0.0269835 -0.0110588 -0.033271 0.0154318 0.0293441 0.00682861 0.0389327 -0.0126374 0.0082911 0.0210084
0.0132631 0.00581392 -0.0737806 0.0219889 0.005618 0.0183811 -0.00512265 0.0664052 0.00606604 0.0235977 -0.0865908 0.0230153 -0.0714523
0.0135585 -0.00855328 -0.0965143 -0.0203001 -0.0278273 0.00875355 -0.0767928 0.0877455 0.0620684 0.00339522 -0.0688414 0.0257407 -0.0974659
-0.00120714 0.00737488 -0.0317764 0.0390875 -0.00752058 -0.0396128 -0.034073 0.0379679 0.0219924 0.00228691 -0.021419 -0.00694333 -0.0282003
0.0305906 0.0194259 0.0130861 -0.0198134 0.0268161 0.0268743 -0.031141 0.0384842 -0.00775629 0.0228277 0.00465341 0.0354964 0.00641237
-0.0365705 0.0387553 -0.0415192 0.0261691 -0.067572 0.0122323 -0.025865 0.0400107 0.0155682 0.05655 -0.0351395 0.0208191 -0.0199441
-0.0189811 0.038667 -0.00858598 -0.00383802 -0.0260528 -0.0379593 0.00824435 -0.00360204 -0.0309025 0.0241005 -0.00230022 0.0377834 0.0258418
-0.0361027 0.00496769 -0.18386 0.0393901 -0.0590814 -0.0438826 -0.0807894 0.154646 0.0775753 -0.00567568 -0.142869 0.104242 -0.126827
-0.00480855 0.00275048 -0.0786401 0.0374958 -0.0538223 -0.0036682 -0.0127818 0.0223162 0.0256141 -0.00136731 -0.0479911 0.0389413 -0.0579921
-0.0171976 0.0200115 -0.0465915 0.0225457 -0.0098252 -0.0504978 -0.060445 0.0964653 0.065455 0.00844014 -0.0837739 0.0015088 -0.0474152
0.0375629 0.0307762 -0.0299758 0.0282921 0.0068598 0.00982159 0.00210917 -0.0223306 0.0307299 -0.00869869 0.0232313 0.0316297 -0.0191201
0.0147252 0.0390576 -0.0490764 -0.0053301 -0.0119268 0.0147172 0.000621319 0.0037515 0.0393756 0.0325075 -0.0217997 -0.0196837 -0.0232295
-0.0357185 -0.00300978 -0.0368291 -0.0316825 0.0103624 0.0236271 -0.034869 0.0516017 -0.0201271 0.014736 0.0257712 0.010258 -0.02554
0.0134559 0.0725156 -0.104761 -0.0900309 -0.0468268 -0.00331195 -0.0566266 0.143609 0.0658342 0.0633146 -0.0873999 0.0161867 -0.122965
0.0198504 0.00581666 -0.00992225 0.0269723 -0.00525218 -0.0126928 0.00909704 0.0464906 0.00974408 0.0255505 0.0114756 0.0325966 -0.0209799
0.0345985 0.0112302 -0.0886737 -0.00416312 -0.0439963 -0.0159489 -0.0592568 0.069843 0.0182089 0.0516102 -0.0218032 0.0650259 -0.0396612
0.0179518 -0.00474624 -0.0371979 -0.0171217 0.00750534 0.0352011 -0.0318483 0.0393681 -0.0148944 0.0195864 0.0327845 0.0249283 0.00799835
0.00681304 0.0333378 -0.0162781 0.0300143 -0.0283483 -0.0337779 0.0133803 0.00361553 -0.0288845 0.0135489 0.0161348 -0.0103407 -0.0201897
-0.0259786 0.0445766 -0.0526496 -0.0111667 -0.0627368 -0.0254913 -0.0237009 0.0678977 0.0564782 0.0296804 -0.0729897 0.0215101 -0.0669966
0.023758 -0.00999567 -0.0148394 -0.0338603 -0.0581216 0.00168876 -0.0578799 0.0996124 0.030595 0.0518724 -0.0469434 -0.0144066 -0.032554
-0.0101328 0.0125971 -0.0303884 0.0278176 -0.0199209 0.0307557 -0.0151485 0.0245917 -0.00863704 0.00378381 -0.00970773 -0.00210343 0.00355196
-0.0373882 0.018997 -0.0458203 -0.026983 -0.0161585 -0.0314047 0.0129169 0.0671257 0.0458339 0.0411528 0.00874514 -0.0148045 -0.0225733
0.0236027 0.0416547 0.00679896 -0.0399562 0.0211483 0.00761526 0.000890126 0.0228199 0.0347673 -0.00173196 0.00260955 0.0369799 0.0139712
-0.0302413 0.0221213 -0.0070273 0.0093471 -0.0466483 -0.0419898 -0.020194 0.0377944 -0.0151485 0.0282909 -0.010102 0.0311371 -0.0334718
-0.00858299 -0.0257667 0.0108311 -0.028881 -0.0358135 -0.0392011 0.00280497 -0.0110288 0.0204054 0.0339934 -0.0205499 -0.00175707 -0.0304153
-0.0333134 -0.0136642 0.025355 -0.0170041 -0.0300541 0.0371895 -0.0336745 0.0277263 0.000155926 -0.021148 0.0093216 0.0282938 0.0239657
-0.0259422 -0.0226044 0.013457 0.0147013 0.00343154 -0.00824777 -0.011278 0.0318711 0.0408196 0.0189242 -0.0559152 0.0363364 -0.00550087
0.0263058 0.041885 -0.0458609 -0.0287723 0.0178287 -0.0419932 -0.0431853 -0.00147841 -0.0139112 0.0263289 -0.0396569 -0.0107121 0.00631923
0.0216389 -0.023459 -0.0183495 0.0184789 0.00241798 -0.0138964 0.0107436 0.051307 -0.0220387 0.00785842 -0.0418674 0.00371486 -0.0328871
1.04881 1.39066 0.380226 -1.41706 -0.247085 1.20539 -0.447323 2.07173 1.11832 1.71222 0.814108 -1.15205 -0.106248
0.00262144 0.01417 0.00269148 -0.0370265 -0.031785 -0.0267196 0.0011959 0.0212424 0.0137501 0.000181931 0.00112691 0.0250763 -0.0380366
-0.0172414 -0.0332778 -0.0181581 -0.00406036 0.0191048 -0.0348317 -0.0362289 0.0322989 0.00245018 0.0271255 0.00573276 -0.0294628 0.00995785
-0.0351684 -0.000845738 -0.0307129 -0.0230707 -0.0213361 -0.018282 0.00834899 0.0243323 0.0213279 0.0363944 0.00671759 0.0299556 -0.0291714
0.021486 0.0327479 -0.229068 0.0662886 -0.0757078 -0.0827397 -0.113282 0.195918 0.0809849 0.0642557 -0.143094 0.063693 -0.171562
0.0362315 0.0401404 -0.0309793 -0.0119976 0.00707447 -0.0366857 0.028463 0.0436035 0.021647 -0.0155703 -0.012794 -0.00458221 -0.0225043
0.0168207 0.0247243 -0.152582 -0.00955392 -0.08096 -0.0451461 -0.0321627 0.109916 0.0504186 0.0135916 -0.0914199 0.0700278 -0.074897
0.0340624 -0.0122208 -0.00202479 -0.0339314 -0.034572 -0.00914989 0.0154599 -0.00755254 -0.00301556 0.00116897 -0.0256882 -0.0323457 -0.0415395
-0.0261218 -0.00137221 0.0174645 -0.0239711 0.011207 -0.0290796 0.0323542 0.010938 0.0349957 0.00665436 -0.00415746 0.0233491 -0.0289298
-0.0374815 -0.0130208 -0.0193658 0.0315623 0.0049481 -0.014057 -0.0529286 -0.00994783 -0.0200425 0.0486998 -0.0137858 0.0247253 -0.0570572
-0.0115263 -0.0138731 -0.0410748 0.0242404 -0.0318739 -0.0132203 -0.00241366 -0.0164923 0.0410786 -0.0339053 -0.0319894 -0.0320157 -0.00769136
0.0405402 0.0447291 -0.0404817 -0.00844738 -0.0575297 -0.0273808 -0.0651209 0.0705352 0.0161262 0.0110198 -0.0772618 -0.00318724 -0.0615366
0.00532362 0.0214893 -0.0293503 -0.00437915 -0.00396309 0.000629299 0.00946798 -0.0164365 0.00178237 0.0300619 0.0210268 -0.0303202 -0.0376505
0.00590922 -0.0079428 -0.0271653 0.0218683 -0.0180095 -0.014543 -0.0611425 0.0718637 0.0258881 0.00734668 -0.0423662 0.00294875 -0.0379436
-0.00129238 0.0251578 -0.0336237 -0.00903541 -0.010868 0.00510209 0.00707648 -0.00176381 -0.000632297 0.0087501 -0.0407474 0.0292467 0.00760182
-0.00424376 -0.0201136 0.0153618 -0.0184584 0.016226 -0.0193732 -0.013673 0.0065592 -0.00468657 0.00105062 -0.0125879 -0.024726 -0.0312171
-0.00641033 -0.00396301 -0.0260869 0.00802389 -0.0171898 -0.020011 -0.0573467 0.0803753 0.0574354 -0.00174816 -0.0285969 0.0515501 -0.0421547
0.00758628 0.0039461 0.00132173 -0.0266011 0.0202871 -0.0187991 -0.00594244 0.0414854 0.00515537 -0.0208787 -0.00156356 -0.0345693 -0.0154483
-0.0383934 0.00377611 -0.059283 -0.0109408 -0.0340098 -0.013731 -0.0701578 0.101014 0.0138087 0.0562131 -0.019163 0.0428234 -0.0433011
0.019639 0.0543644 -0.190381 0.0327533 -0.0670588 -0.0310237 -0.0914877 0.163586 0.0836672 0.0616667 -0.109102 0.0829269 -0.11368
0.0357754 0.0810009 -0.163168 -0.0647477 -0.0952173 -0.0189265 -0.112501 0.211769 0.086025 0.102108 -0.188684 0.0775207 -0.262869
-0.00234163 0.0260334 -0.00526512 0.0192787 -0.00920049 0.016698 -0.0275878 0.0134823 -0.0195869 0.0287902 0.00159763 -0.0204214 -0.0219124
0.014738 0.0268252 0.0222439 0.0101347 -0.0124912 0.0217448 0.00734987 0.0408983 0.0363763 0.00476769 0.00401698 0.0220504 -0.0237215
0.025254 0.00832926 -0.0524827 -0.00606323 -0.0730569 -0.0309446 -0.0794974 0.0603999 0.0139099 0.00997938 -0.026831 0.035981 -0.0783317
0.0277799 -0.0164007 -0.00533219 0.0199926 -0.0437361 -0.0291094 -0.0226416 0.0299536 0.0460904 0.0212682 -0.0429625 0.0306185 0.0186738
0.00453036 0.0430698 -0.0556463 0.00186478 -0.0398659 0.0122061 -0.0314991 0.0752564 0.0198292 0.0433001 -0.0683253 0.00934611 -0.0181303
0.109145 0.875052 1.04957 -0.391549 -0.929175 0.271545 -0.328362 0.969832 -0.494115 1.00127 0.142147 -0.143529 -0.332368
-0.428806 0.159375 -0.19712 -0.461579 -1.27638 0.0540479 -1.06486 0.47771 0.387226 -0.0611771 -1.43431 0.0276007 -1.31939
-0.00455521 0.0257227 -0.0217166 0.00803179 -0.00931954 0.0139081 0.00722603 0.0468012 0.000371123 -0.0312514 -0.000916764 0.0352543 0.0017208
0.00646268 0.0184942 -0.0418756 -0.0163673 -0.0268843 -0.0279214 -0.0137711 0.0642589 0.0274756 0.0596084 -0.0347021 0.0403929 -0.0339336
0.00044873 0.0214119 -0.0415983 -0.0245478 0.00820921 0.0302743 -0.00958083 -0.0237831 -0.00284002 -0.00583331 -0.0326959 -0.00723406 -0.0216709
0.0384063 0.0436228 -0.0290665 -0.0423665 -0.0272068 0.0062808 -0.0374855 0.030091 0.0594395 0.0530626 -0.0546121 -0.00920723 -0.0370209
0.0150978 0.0394655 0.0161085 -0.00292325 -0.0223825 -0.00899481 0.0332845 0.00193323 0.014073 0.0101135 0.0304722 0.0255764 0.00946489
-0.0346711 -0.0340096 -0.00905978 -0.0223841 0.0036274 0.0250195 -0.0089584 -0.0235148 0.0429532 0.00788248 -0.0327983 -0.0122077 0.00644261
-0.0315916 -0.0133036 -0.00637512 -0.0146346 0.00972637 -0.0119591 -0.0435107 0.00476911 0.0172156 -0.00133614 -0.0324458 0.0337567 -0.0637895
-0.099488 -0.0414188 -0.747615 0.250873 -0.0283923 -0.393817 -0.110189 0.295602 0.0208522 -0.0647676 -0.435195 0.32216 -0.339931
-0.0391355 -0.0321903 0.00958378 -0.012797 -0.0388327 -0.024308 -0.00248971 0.05524 -0.0254158 0.0451561 -0.0213388 -0.0196788 -0.0116265
0.0227548 -0.00678104 -0.0266582 0.0211438 0.0242446 -0.00688409 0.00167341 0.0183907 -0.0112658 0.0178836 -0.0123145 0.0344394 0.00966664
-0.0378752 -0.0121706 -0.0400186 0.010513 0.00375733 -0.0485716 -0.0611968 0.0225099 0.0073412 -0.0058054 -0.0584108 0.040843 -0.0666556
-0.00820236 0.0560847 -0.171048 0.00685507 -0.0397356 -0.0486524 -0.131867 0.180213 0.0559614 0.091976 -0.199632 0.0569124 -0.126243
0.000510052 -0.0027056 0.0145023 0.0243666 -0.0326937 0.017224 0.0261016 -0.0292633 0.0268283 -0.00623761 -0.040675 0.00108246 0.0175928
0.021555 0.018474 -0.023868 -0.0216406 -0.00585705 0.0337966 -0.0414381 0.0272563 -0.0269939 0.0412796 0.00100411 0.0401394 -0.0104236
-0.00658465 0.00422629 -0.0956741 0.0135959 -0.00878992 0.00740234 -0.0788456 0.048447 0.0529167 0.0434494 -0.0921509 0.00433653 -0.0942289
-0.0064794 -0.0111491 -0.0637102 0.00879431 -0.0565208 -0.00563353 0.00391157 0.047418 0.0348746 -0.00420545 -0.0329394 0.0164698 -0.03053
-0.0153755 0.0460076 -0.0967305 0.0274395 -0.0472663 -0.071276 -0.0440371 0.114419 0.0758697 0.0717267 -0.102902 0.0559748 -0.086667
-0.0360068 0.0321911 -0.0200749 0.00389578 -0.0220386 -0.0339378 -0.0158379 0.0165339 0.0393803 0.040946 -0.0314609 0.0282722 0.00596961
0.0336475 0.00559674 -0.00747859 -0.0258185 0.0241894 -0.00878622 -0.0125242 0.01604 0.0199559 0.00269411 -0.0352161 -0.035399 0.0116131
-0.0224043 -0.0256239 -0.0292786 -0.0257817 0.00880041 0.0150327 -0.0342694 -0.00620634 -0.00543576 0.0137237 -0.00153729 -0.0286031 -0.00714747
0.0312476 -0.0154545 -0.0557331 -0.00314196 0.005233 -0.0480687 -0.0281899 0.0729394 0.014394 -0.00304206 -0.0295494 0.0381854 -0.0335442
-0.0265108 0.0492631 -0.148993 -0.00988478 -0.0160798 -0.037046 -0.098622 0.16281 0.0638863 0.0599049 -0.111079 0.0550706 -0.131358
-0.0371415 -0.0265669 -0.00625179 -0.0312764 0.00908981 0.0161215 -0.0370888 -0.000426558 0.016128 -0.0287851 0.00721921 -0.001714 -0.0279246
0.00702597 0.0121862 -0.0418216 0.0361101 -0.0166478 -0.0275627 -0.0486644 0.0234179 0.010601 0.0370688 -0.0343588 -0.0158151 -0.0568043
-0.0222659 0.011581 -0.0331369 -0.0270767 0.00273944 0.0218284 -0.0330619 0.0243455 0.0275305 -0.0122728 -0.0366799 0.0202678 0.0111339
-5.07279e-05 0.0108114 -0.00663846 -0.0284055 -0.00998966 -0.0179171 -0.00744408 0.075483 0.00888747 0.0330639 -0.0662866 -0.00682258 -0.0322267
0.0143881 0.015555 0.0114713 0.0310472 -0.0404039 0.00629634 -0.0249076 0.0192134 -0.00777953 0.0081492 -0.0223458 0.00920418 0.0232851
0.0383474 0.00599671 -0.0127141 0.000915919 0.0217025 0.0203744 -0.00387758 -0.0290535 0.0109583 -0.036655 -0.0336317 0.0212815 -0.0166823
0.00679001 0.00199495 0.00737661 0.0188585 -0.0135935 0.0105793 -0.00818248 -0.0314888 0.0181915 -0.015218 -0.0397004 0.0061878 0.0329107
-0.0336339 -0.000267138 -0.105076 0.000264597 -0.013056 -0.0248959 -0.0913404 0.151778 0.0761405 0.0407788 -0.100181 0.0344002 -0.110861
0.0037918 0.0356926 -0.0118706 -0.00504174 -0.0076422 0.0188662 -0.0545627 0.0659904 0.0346347 -0.0234206 -0.06394 0.0465838 -0.0513144
-0.0362636 -0.0039588 -0.0423889 0.0181622 -0.0381635 0.0147501 0.0052929 0.0276129 -0.0303602 -0.0060601 -0.0331276 -0.000190851 0.0111414
0.0319394 -0.0245161 -0.0378496 -0.0322347 0.0366316 0.000550511 0.0111175 -0.0255954 0.0115802 -0.0127299 -0.0390928 0.0120922 -0.0282366
-0.0202578 0.0385558 -0.00140927 0.000194327 0.00838625 0.00845494 -0.0187696 0.0207284 -0.0135227 0.0462453 -0.0390649 0.0398462 -0.0619895
-0.0310979 -0.016911 -0.00256099 0.00632108 0.0170822 -0.0259853 0.00172057 0.0368232 0.00810493 0.028417 5.38667e-05 0.0135381 -0.0354479
0.0169967 -0.00859208 -0.0297893 0.0292327 -0.00336895 -0.0283215 -0.0367477 -0.00824208 0.0401562 -0.0141002 -0.00318994 0.0198208 0.00342846
0.0234599 0.0325047 -0.14074 0.00171615 -0.0274574 -0.0737166 -0.0556359 0.123062 0.0306072 0.0164324 -0.0915005 0.0947553 -0.102505
0.0254648 -0.0148752 -0.0322355 -0.0110824 -0.0369003 -0.0304824 -0.0530612 0.0320083 0.0120199 0.0071745 -0.0833992 0.01503 -0.0342359
-0.012754 0.0429094 -0.0418332 0.00595528 -0.0111529 0.0132666 0.0209843 0.0249851 0.00453036 0.00513641 -0.0504105 0.0133786 -0.0178459
-0.0375711 -0.0181385 -0.093471 0.000645436 -0.0123087 -0.00937734 -0.0839906 0.137685 0.0172551 0.0320453 -0.0813794 0.0653011 -0.0796062
-0.021225 -0.00931321 0.00305744 -0.0352732 -0.0131079 -0.0161899 -0.0336892 0.0274653 -0.00943968 0.00148062 -0.0350947 0.00846839 -0.036823
0.0210984 -0.0311121 -0.000789568 0.00391897 0.000736264 0.0101616 -0.0438128 -0.00220303 -0.0195636 0.0474514 -0.0265499 -0.0151789 0.0137088
-0.0202598 0.0208494 -0.011247 0.00635511 -0.00988519 -0.00549252 -0.00336154 0.0237028 -0.0161162 0.0212613 -0.01009 0.00436861 -0.0230212
0.0328768 -0.0292648 -0.0164523 0.0202849 -0.0168991 0.0187446 0.0144804 0.0305359 -0.0178814 -0.00451634 0.0104381 0.0464593 0.00914986
-0.000306793 -0.0180936 -0.0151059 0.00134142 -0.0572439 -0.0457746 -0.00203509 0.0596878 0.0383643 0.000713688 -0.0148881 0.0268691 -0.0659212
0.0192004 0.00433849 -0.162135 -0.00671537 -0.0753826 -0.054947 -0.0613307 0.164004 0.0472822 0.0406725 -0.086354 0.0910024 -0.105891
-0.0403937 -0.0238063 -0.311636 0.0847215 -0.0727463 -0.101492 -0.0642421 0.174947 0.0949844 0.0220355 -0.20101 0.147843 -0.204877
0.0354918 -0.0137548 -0.0361253 0.019775 -0.052206 -0.0469998 -0.00429801 0.0112363 0.0454353 0.0106195 -0.0425692 0.0270784 -0.0103751
0.00158766 0.0229006 0.0337095 -0.0310021 -0.02309 -0.026144 0.00732491 0.0207423 -0.00599718 0.0285774 0.0343219 0.0275297 -0.0339039
-0.0267728 -0.00590794 -0.0157326 -0.0281526 -0.00339241 0.0048152 0.00902307 -0.0221787 -0.0306528 0.0125175 0.0250188 0.0222903 -0.0447334
-0.260896 -0.0141508 -0.199361 -0.122431 -0.466716 -0.0842525 -0.43036 0.143234 0.114463 -0.140088 -0.602416 0.10109 -0.530231
0.0374708 0.0251501 -0.0203552 0.0218399 -0.0274084 -0.00698072 -0.0491896 0.0878294 0.00920008 0.023774 -0.0593496 0.0586217 -0.0903501
-0.0337297 0.0156876 -0.0520321 0.00215952 -0.0147379 -0.0150058 -0.0265023 0.00854524 0.0157328 0.024233 -0.0579638 -0.0111131 -0.0139266
-0.031817 0.00289499 -0.0394209 0.015195 -0.0374073 -0.00525562 0.0119474 0.00671153 0.0340929 0.0277697 -0.0394627 0.00965809 0.0203155
0.0334004 0.0255776 -0.0557935 -0.0142627 -0.0348621 0.0234869 -0.0285107 0.0132494 0.054021 -0.0186158 -0.0724458 0.00571356 -0.0192315
0.305247 0.26033 0.104191 -0.359667 -0.0872288 0.225998 -0.156002 0.477216 0.361108 0.425256 0.191522 -0.21193 -0.0277473
-0.0377221 -0.00661776 -0.0941026 -0.037932 -0.0463447 0.00159736 -0.0512874 0.0729328 -0.00684437 0.0081414 -0.0630925 0.0570046 -0.06974
0.0126754 -0.0133712 -0.0267638 0.0311354 0.00716457 -0.0410593 -0.026197 0.0191399 0.0159224 -0.0217221 -0.0161655 0.0238589 -0.00544581
0.0320824 0.0365672 0.0213889 0.026434 -0.0409697 0.021935 -0.0146838 0.0122321 0.00875302 0.0404151 -0.0279193 -0.00271976 -0.0315375
0.0338184 -0.0297576 -0.0297193 0.022556 -0.0271389 -0.0235067 -0.015817 0.045052 0.0381221 -0.00299347 -0.0287892 0.0103938 -0.0480588
0.00395986 0.0168295 -0.0907279 -0.027336 -0.0160333 -0.0373741 -0.0253125 0.111478 0.00353325 0.079463 -0.0560682 0.00356795 -0.0998264
0.00543913 -0.0172026 0.00306591 -0.0267557 0.0100738 0.0122037 -0.0314276 -0.0151189 -0.0169765 0.00691398 -0.00474425 -0.0236017 0.0168557
-0.0527001 0.0267739 -0.418949 0.0818505 -0.0848511 -0.170702 -0.0978229 0.23001 0.0390818 0.0230977 -0.278229 0.161059 -0.262255
-0.00870755 -0.00127074 -0.0829491 0.00997617 -0.0364107 0.0138983 -0.0423888 0.0655942 0.0265191 0.015294 -0.0367461 0.0188235 -0.0655626
0.0249912 0.000561529 -0.106447 -0.00995599 -0.0742713 -0.0282671 -0.085476 0.0854051 0.0716433 0.0146392 -0.0765275 0.0770443 -0.0648721
0.0244304 0.0342653 -0.0215083 -0.013897 -0.00895767 0.0173332 0.00480603 0.000648953 0.00593639 -0.00503086 -0.0128053 -0.0207604 -0.015097
0.00271937 0.00882221 -0.0184519 0.0224958 -0.0338867 -0.00939222 -0.00655577 0.0513952 0.0134919 -0.0241006 -0.031847 0.0487129 -0.0206332
-0.0297869 0.0176869 -0.49044 0.113433 -0.0587685 -0.267691 -0.0856635 0.213078 0.0461018 -0.0353813 -0.330782 0.251732 -0.273514
0.0040026 0.0224512 -0.004449 -0.00765844 0.0223662 0.0180012 -0.0282032 0.00100635 0.0122648 0.0452346 -0.0294928 0.0459317 -0.000174367
0.00798521 0.00172822 -0.0157514 0.000610744 -0.0164624 -0.0381866 -0.000570114 0.0355695 0.0260674 0.064157 -0.0226857 0.0612501 -0.0467076
0.0161125 0.0308039 -0.0181862 0.0205355 -0.0334929 -0.00530766 0.0131315 -0.00349248 0.00638203 0.00703355 -0.0242205 0.0146779 0.00446515
0.000168663 -0.0243287 -0.000667893 -0.0174683 0.0148899 0.00886934 0.0100089 0.0230765 -0.00101065 0.0269397 -0.047317 -0.0192342 -0.0172932
-0.0725873 0.0132297 -0.185714 -0.0531921 -0.216885 -0.00471738 -0.192236 0.162992 0.080605 0.0325151 -0.269168 0.0742541 -0.279514
-0.0373162 0.0267511 -0.0208181 -0.0220204 -0.017424 0.00747847 0.0275568 0.00449007 0.0378306 0.022755 -0.0139468 -0.00883445 -0.00154673
-0.0218823 -0.00319078 -0.344066 0.0294894 -0.0470971 -0.139954 -0.129724 0.232199 0.057389 0.00213181 -0.249528 0.187007 -0.239394
-0.0311614 0.0272108 -0.0617784 0.00382559 -0.0422934 -0.021252 0.0154998 0.0356368 -0.0190884 -0.0177183 0.0024996 -0.0240801 -0.053265
0.0169148 0.032109 -0.000861816 -0.0402294 -0.0235439 0.0229814 -0.0411258 -0.0163884 -0.0111495 -0.00547073 -0.00500638 0.00973962 -0.0437453
-0.0325391 0.0157033 -0.11916 0.013466 -0.0658043 0.0074459 -0.0209338 0.0785341 0.0546337 0.0288355 -0.102381 0.0682317 -0.0823707
-0.0248802 -0.00411335 -0.235348 0.00363849 -0.0853194 -0.0788992 -0.0777886 0.176076 0.0689052 0.0439811 -0.156128 0.0685064 -0.11656
0.0123751 -0.0103063 -0.0152813 -0.00944407 0.0132044 0.0318295 -0.0185389 0.00817114 -0.00968939 -0.0134367 -0.00672095 0.0367256 -0.0495919
-0.00789309 0.0373935 0.0114002 -0.0227372 -0.0135455 -0.0184845 -0.0364815 0.00961256 -0.00669331 0.000940457 0.0023815 0.0494274 0.0170865
-0.00701716 0.0334497 -0.0222702 0.00925147 -0.0427301 -0.0212273 -0.00940119 0.00187587 -0.00489354 0.0370879 -0.0412771 0.00932848 -0.0245841
-0.0206154 0.0110589 0.0236625 0.0196165 0.0222815 0.027382 0.00421651 0.0147517 0.00701818 -0.00589705 -0.00694083 0.0252746 0.0124149
0.0296408 0.000349814 0.00588216 0.0146776 -0.0109784 -0.0308354 0.00408326 0.027989 0.0114056 -0.00874888 -0.0128388 -0.0265629 0.0188301
0.0411144 0.0562708 -0.0179904 -0.0358103 -0.0190851 0.0103512 -0.0775516 0.118271 0.0744941 0.0445689 -0.0455238 -0.00800773 -0.102106
-0.0364451 0.0286605 -0.0119843 0.00493137 -0.0195843 -0.00212524 -0.0114896 -0.00366078 -0.0170101 0.00626461 0.00560299 0.0149556 -0.000382147
-0.0345444 0.0278604 -0.0529551 0.00714614 -0.0644935 0.00132809 -0.0336414 0.0997394 -0.00387664 -0.00266012 -0.0347357 0.0719228 -0.0564126
0.0248426 -0.0140584 0.00236644 -0.0187093 -0.0412844 -0.0436636 -0.00326821 0.0353332 0.0259475 -0.0297931 -0.0148641 0.0125193 -0.0640224
0.0385626 -0.00634668 -0.0497546 -0.0414369 -0.0358258 0.0295414 0.0231319 0.0250592 0.0255791 0.0104547 -0.0457803 0.0325681 0.0121451
-0.0241286 0.0367068 -0.0219879 -0.0274076 0.0305438 0.00983408 -0.0163608 0.00351572 -0.0120785 -0.029007 -0.0163571 -0.0281253 -0.0351519
0.0176769 0.0112718 -0.0247479 -0.0330745 -0.000401356 -0.0263867 -0.0751538 0.0186747 0.0415552 0.00659939 -0.0746613 0.0532369 -0.067404
-0.0325458 0.036276 -0.0632388 0.0124141 -0.0148046 -0.0441677 -0.0317535 0.0361952 0.0519877 -0.00440541 -0.0708556 0.0447689 -0.077225
0.0159075 0.0265565 -0.107704 -0.065717 -0.0583931 -0.0188444 -0.0607258 0.131984 0.0523759 0.0675619 -0.110473 0.0200274 -0.0950789
0.038832 0.00650113 -0.123873 0.00188216 -0.0410178 0.0202284 -0.104687 0.0801216 0.052973 0.0192421 -0.0764508 0.0565933 -0.0982851
0.0340641 0.114693 -0.0642119 -0.149038 -0.18378 0.0881037 -0.168359 0.154534 0.0965565 0.215355 -0.053711 -0.0252038 -0.183496
-0.0459187 0.0423677 -0.313521 0.0411692 -0.0500948 -0.136064 -0.0893496 0.201753 0.0720891 0.0478304 -0.221391 0.103294 -0.194042
0.00863696 -0.0150594 -0.015005 0.0173829 -0.0147218 -0.00298546 -0.0494752 0.0329757 0.00461554 0.0507724 -0.00749903 0.0413461 -0.0484454
0.0216616 0.0184893 0.0146467 0.00214715 0.0318275 0.0162077 0.0246395 -0.00595768 0.0411683 -0.0205928 0.0298469 -0.0149231 -0.0433303
0.0213571 0.0318587 -0.0665653 -0.0260885 -0.0362194 -0.0315387 -0.0550266 0.151047 0.0410028 0.0722646 -0.109732 0.0168846 -0.12053
-0.0357745 0.0141062 -0.175401 0.0475349 -0.039475 -0.0479832 -0.093557 0.186744 0.074366 0.0528589 -0.121529 0.0533417 -0.124045
-0.0310339 -0.00598157 0.00485957 0.0304602 -0.0383557 -0.0331233 -0.0130073 0.0176322 -0.00940097 0.000187942 0.00512374 0.0420178 -0.0307344
-0.0149513 -0.0121303 0.0140835 0.0254654 -0.0175616 -0.0340845 0.00234615 0.0365422 0.00604829 -0.0105436 0.0129449 0.0355173 -0.0215542
-0.0286826 0.0237514 -0.100713 -0.0118639 -0.0370566 -0.0357226 -0.085913 0.189952 0.0652207 0.0585325 -0.118406 0.0294518 -0.0845818
0.00652198 0.0270944 -0.0543559 -0.00993518 -0.00857871 0.0237863 -0.0139403 0.0321256 0.0325381 0.0220739 -0.0407818 0.0225939 -0.0413935
0.016194 -0.0191371 -0.0399119 -0.0367404 -0.0318098 -0.00611718 -0.0412517 0.0342516 -0.000593983 -0.0115838 -0.0458849 -0.0191198 -0.0450078
-0.0312259 -0.000441782 -0.0338583 -0.00199922 -0.0454207 -0.0207804 -0.00744844 0.0514604 -0.0130446 0.00380468 -0.00400678 -0.00422778 -0.0465102
-0.0258315 0.0405107 -0.133276 -0.0136891 -0.0188915 -0.0232403 -0.0812125 0.148785 0.0649047 0.0223942 -0.0803484 0.0451228 -0.101677
-0.00448758 -0.0166171 -0.0345102 -0.0367668 0.0254096 -0.00791579 0.00822462 0.0289134 0.0080388 0.030702 -0.0411299 0.0306858 0.0277737
-0.021278 0.0375608 -0.127045 0.0177842 -0.0115269 -0.00262723 -0.0874843 0.136245 0.0416644 0.037053 -0.0819118 0.031949 -0.101341
0.0238169 0.0258534 -0.147977 -0.0259794 -0.0211767 -0.0288769 -0.102066 0.149847 0.059764 0.0185002 -0.124741 0.0558681 -0.0871154
0.032285 -0.0237774 -0.0140121 -0.0381785 -0.0404679 0.0171142 -0.0158085 0.0535629 0.0123712 -0.00567696 -0.0660516 0.018881 -0.0553295
-0.0319805 0.02683 -0.0664042 -0.0245617 -0.00561589 -0.0442924 -0.0291519 0.0505417 0.05303 0.0168924 -0.00694845 -0.0124455 -0.00740802
2.10499 1.32588 1.13972 -1.97484 -0.821799 1.96049 -1.05885 2.98039 2.12002 2.23708 0.728006 -0.885288 0.403704
-0.0125601 0.0447699 -0.0607437 0.0282592 -0.0254765 -0.0219923 -0.0392841 0.0193065 0.0298692 0.0410421 -0.0373468 -0.0131231 -0.00583605
0.0112281 -0.0160286 -0.0330829 0.0078659 -0.0261681 -0.0385667 0.00711049 0.00714215 -0.00743795 0.0299599 -0.0362088 -0.0126217 -0.00889274
-0.0289896 0.0313928 -0.0119406 -0.0286472 -0.0204806 -0.014513 0.0200345 -0.00345939 0.0417798 0.0284796 0.00218357 0.00157929 -0.00564299
-0.00695992 -0.0113191 -0.000693469 -0.0388096 -0.000571547 0.0150365 0.0250669 0.0181854 -0.0110818 0.00758102 -0.00534762 0.0231905 -0.0131795
-0.0105597 0.00853321 0.0205609 -0.0400135 -0.00111961 -0.0117635 -0.0139576 0.0439634 -0.019513 -0.0148616 0.00783343 -0.0227986 -0.0255515
-0.030559 -0.00994717 -0.104935 0.0074815 -0.0775026 -0.000210604 -0.0160174 0.0856142 0.0173163 0.0519685 -0.0845008 0.0357106 -0.0520316
0.00287756 -0.0208157 -0.0541639 -0.00682881 -0.00345565 0.0113898 -0.0427183 0.0164376 -0.0218261 0.0380726 -0.0520968 0.0100342 -0.00907532
0.0351645 0.000455588 0.00550778 0.0302083 0.0264604 0.00422077 -0.0122119 -0.0176246 0.0237945 -0.0256776 -0.00215884 0.00761728 0.00957794
-0.013871 0.00298468 -0.0289129 -0.0124624 -0.0253907 0.0323146 0.0227743 -0.013565 -0.0263692 -0.0291619 -0.0400953 0.0401706 -0.0369515
-0.0297144 0.0168782 -0.112259 -8.71085e-08 -0.0242394 -0.006223 -0.0683489 0.11492 0.030099 0.0674482 -0.141481 0.0999477 -0.0883699
-0.0113878 -0.00680937 -0.0245802 0.0172086 -0.043823 0.0161646 -0.0521016 0.03971 0.0355399 -0.0114828 -0.0230949 0.00981241 -0.0553568
-0.00739591 -0.0179493 -0.038186 0.0223477 -0.016282 -0.0374523 -0.00672852 -0.0260635 0.0401866 -0.00369284 0.00630781 -0.0176899 -0.017723
-0.0061223 0.0364212 -0.218877 0.0363847 -0.0683107 -0.0980734 -0.0683705 0.177542 0.0333557 0.0288854 -0.199962 0.0827327 -0.15223
0.0319892 -0.0176865 -0.0201873 0.0266716 -0.0420505 -0.0323238 -0.000824912 0.00746789 -0.000405929 0.0339879 0.0176161 -0.0120466 -0.0024617
0.0177158 0.0317745 -8.70219e-05 -0.0190173 -0.0240071 0.0132562 0.00751032 0.00345719 0.0113792 0.0274043 -0.0340645 -0.0338956 -0.0290723
-0.0159938 0.0446695 0.0122888 -0.0352842 -0.0326284 -0.019403 -0.0399784 0.0548597 0.0432735 0.00453355 -0.0467638 0.0210364 -0.0415833
0.0218021 -0.0233751 0.023924 0.0243255 0.00303518 0.0384157 -0.00195474 -0.0279918 -0.0365587 0.0349518 -0.0343172 0.0184936 0.0124082
-0.0350436 -0.0199923 -0.0250658 0.00676125 -0.0121109 0.021298 -0.0188928 0.018691 0.0282096 -0.0126717 0.00762231 -0.0259896 0.0259162
0.0467844 0.0390534 -0.0900853 0.00391872 -0.00721987 0.00753346 -0.0527 0.0906478 0.0368635 0.0175363 -0.0161279 0.037319 -0.0727046
0.0126066 0.0525254 -0.0657457 -0.0227847 -0.0449293 -0.0012486 -0.0661836 0.0167224 -0.00914956 0.0212564 -0.0094454 -0.0273394 -0.000252278
-0.256338 0.884438 1.16297 -0.472215 0.228177 0.847599 -0.762175 0.621053 1.50697 0.938365 -0.535878 -0.361131 -0.0356098
-0.0813196 -0.0203062 -0.372287 0.0492804 -0.0424692 -0.168638 -0.089335 0.20956 0.0782797 0.0136032 -0.289437 0.215578 -0.2805
-0.0509089 -0.0438159 -0.579387 0.214999 -0.000971497 -0.296297 -0.0834562 0.247043 0.0298849 -0.033612 -0.378326 0.316408 -0.336279
-0.00785464 -0.0149347 0.00748565 -0.02501 -0.0096985 0.0344121 -0.0377113 0.0333987 0.0101335 -0.0314245 -0.0318364 0.013031 0.00439556
-0.0246197 0.0384884 -0.0364138 0.0271279 -0.0320525 -0.0139401 -0.00793185 0.0437468 -0.0317016 -0.0200259 -0.027159 0.0250924 0.0220434
-0.0637788 0.0343613 -0.310042 0.0981895 -0.0755118 -0.127635 -0.104623 0.210908 0.0932358 -0.0233227 -0.206956 0.132477 -0.182632
0.0143577 0.0145233 -0.168502 -0.0254912 -0.0559505 -0.0388381 -0.072223 0.153491 0.0275568 0.030301 -0.0953808 0.0313257 -0.0843951
-0.0132057 -0.00624827 -0.0701375 0.0129248 -0.0522094 -0.0303137 -0.0539989 0.0249541 0.0512793 -0.0209571 -0.0306205 0.0355822 -0.0490068
0.0198959 -0.0283152 -0.0155451 -0.0273362 0.0152163 -0.0198203 -0.00535043 0.0103 0.0308613 -0.0115089 -0.0467834 0.0379512 -0.0214276
0.0210063 -0.0107994 -0.00515442 0.0200814 -0.0374059 0.0194315 0.0241025 -0.00479254 -0.0267148 0.0233515 0.0108016 -0.0237311 -0.00924911
-0.0127778 -0.00163065 -0.0343465 0.0229202 0.00139773 -0.00902508 -0.00312271 0.0135432 0.0440271 0.0163512 -0.0515275 0.00476476 0.0172052
0.0288166 -0.0193206 -0.0132283 0.021267 -0.0541731 -0.0436363 -0.00569879 0.0691212 0.0602274 0.000702503 -0.0206499 -0.0173559 -0.0394542
0.00527041 0.00351105 -0.03725 -0.0130789 0.00664534 -0.0146924 -0.0290579 0.084083 -0.0126046 0.0367172 -0.0359722 -0.0102199 -0.0411282
-0.026066 0.0214333 0.00325742 -0.0192536 -0.0166117 -0.0176492 -0.0344312 -0.0097858 -0.00140112 -0.0274917 -0.050257 0.0150601 -0.0218069
-0.0115505 0.0372842 0.0198283 -0.0339516 0.0136276 -0.00776239 0.00816743 0.00539013 0.00407799 0.0103539 -0.0299075 -0.00542169 -0.0396155
0.0247893 0.0345797 -0.0752056 -0.0100064 0.00802984 -0.0235415 -0.0697652 0.0430666 -0.0139901 -0.00709354 -0.0263981 0.0317141 -0.0668288
-0.0200198 -0.0124948 0.0162176 -0.0040487 0.0215213 0.02135 -0.0411454 -0.0251864 -0.00653045 -0.0343694 -0.0344519 0.0245778 -0.01661
0.00406696 -0.0251647 -0.0319197 -0.0163119 0.0320541 -0.0395109 0.0100598 0.0334162 0.0127764 -0.0300077 -0.0278713 0.00447133 -0.0312117
0.0400974 -0.066472 -1.67723 0.404769 0.231682 -0.758024 -0.13236 0.607964 0.137198 0.00516224 -0.661653 0.751544 -0.679472
-0.0243009 -0.0107444 -0.125921 -0.016506 -0.0367477 0.00268065 -0.0314032 0.0865908 0.00476608 0.00651523 -0.0693597 0.049429 -0.0915891
0.0383239 0.0170559 0.00926628 0.00607795 -0.0427019 0.00309538 -0.055593 0.0552383 0.0131422 0.000665117 -0.0190743 -0.0264904 0.00117435
0.0261339 -0.0030575 -0.0339753 -0.0252986 0.0126057 -0.0384357 0.00376391 -0.00212986 -0.0103438 0.021907 -0.0446699 0.00589788 -0.0360628
-0.0271825 0.0321838 -0.0297999 0.0285501 0.0244115 0.0242094 0.00913698 0.013669 -0.0259225 -0.000264371 0.00754216 0.0245487 -0.0232689
0.00473593 0.0261851 -0.0417063 0.00962162 0.0226465 0.0317885 0.0171036 -0.0211896 0.0427815 -0.000440953 -0.00458065 -0.028123 0.00682315
-0.268651 -0.022076 -0.337729 -0.0548863 -0.473059 -0.0737957 -0.444004 0.144648 0.0803091 -0.163224 -0.759866 0.112869 -0.57906
-0.0373726 0.0325852 -0.0505896 0.00826905 -0.0536495 0.0111655 -0.0382484 0.0277374 0.0631394 0.0581875 -0.0696125 0.00109143 -0.0686272
0.0151904 0.020451 -0.0680972 -0.00299012 -0.0379624 -0.0172707 -0.0401996 0.0626139 -0.0164451 0.0170226 -0.0212272 0.0155493 -0.0503019
-0.0190752 -0.0323628 0.0188335 0.00433954 -0.0287843 -0.0268117 0.0161211 0.00749123 -0.010902 0.0297818 -0.025612 0.0104395 -0.0283994
-0.0222284 0.00624658 -0.00362586 0.00796539 -0.00299226 0.00226945 -0.0310861 -0.0120185 0.0277493 0.0252807 0.0145358 -0.0082339 0.0116008
-0.0229055 0.0122805 -0.0585474 0.01117 -0.0132435 -0.0284676 -0.0131791 0.0689534 0.0507418 0.0111711 -0.0534491 0.0121091 -0.071165
0.0239494 -0.0175226 -0.0948396 -0.0118424 -0.0282925 -0.0371735 -0.0633551 0.0427699 0.00884265 0.0142174 -0.0645646 0.0471564 -0.0715585
-0.0323823 0.027407 -0.0746887 0.0115977 -0.0593924 0.0106699 -0.0534805 0.0699351 0.0630371 0.0528566 -0.0750569 0.0182926 -0.0563971
-0.00887842 0.0381839 -0.0664549 0.0403371 -0.054146 0.00146163 -0.0205411 0.111155 0.0466578 0.0243036 -0.0893993 0.0741656 -0.0779417
-0.0273915 0.0495973 -0.0183892 0.0069169 -0.0393086 -0.0398896 -0.0625166 0.05201 0.0695686 0.0132635 -0.0713894 -0.016611 -0.0260681
-0.00045413 0.0126123 -0.0210512 -0.0191057 -0.0149194 -0.00428875 -0.0455952 0.0117647 0.0181494 -0.0166361 -0.029076 0.000914904 -0.0308241
-0.021368 -0.00108455 -0.0289407 0.0367878 -0.00180442 0.00322212 -0.0228183 0.0696859 0.00701879 0.00180521 -0.0680211 -0.0159266 -0.068921
-0.0995563 -0.0623936 -0.673891 0.220835 -0.00763104 -0.315715 -0.124508 0.304218 0.0500326 -0.0620582 -0.419512 0.306047 -0.331666
0.0108766 -0.00105446 -0.0820873 -0.0102738 -0.0582795 -0.0388841 -0.0237072 0.0482018 0.0387461 0.0132602 -0.0180967 0.051405 -0.0319496
-0.0200548 -0.0149256 -0.0403953 0.0170358 -0.0198603 -0.00161917 -0.0762103 0.103172 0.0533849 0.0593148 -0.0484816 0.0127851 -0.0606127
0.00703132 0.0125432 0.0138117 -0.0356927 -0.0226161 0.0150765 0.0323124 0.0117292 -0.0230087 0.0359191 0.00181581 0.0288989 -0.0448842
0.0126902 -0.00786366 -0.0332657 -0.0134501 -0.0424744 -0.0182134 -0.0620556 0.0804462 0.0467927 -0.015031 -0.0640979 0.00951891 -0.0638357
0.0126732 -0.0244138 -0.00815244 -0.0369096 0.0116562 0.0121083 -0.0256168 -0.000857091 -0.0066295 0.00138196 0.00426356 0.0239233 -0.0300875
-0.0334498 0.00389448 -0.00992624 -0.0311745 0.0043581 -0.0405186 -0.013224 0.057336 -0.0213231 0.0126324 -0.00580419 0.0395844 0.000129331
0.00764467 -0.0149461 0.00128036 0.00482226 -0.0453472 -0.0160462 -0.00835315 0.0677881 -0.0154527 0.0305549 -0.0431498 0.0397301 -0.0338738
0.0138008 -0.00909718 -0.0408606 0.0105279 -0.039403 0.0223225 -0.0510484 5.74718e-05 -0.0210434 -0.00736926 -0.00346814 0.0177012 -0.0336466
0.00293813 0.0256877 -0.0321605 -0.0234907 0.000764289 -0.0143919 -0.0229581 0.0471713 -0.00579159 -7.90391e-05 -0.010039 -0.0154175 -0.0254114
-0.025422 0.0156967 -0.0146537 -0.0194596 -0.0374087 -0.011868 -0.0245527 0.0392538 -0.00898938 0.0262702 -0.0381007 0.0300514 -0.0541289
-0.0243539 0.0360991 -0.0335505 0.0182356 -0.045386 0.0164964 -0.043325 0.0045846 -0.0190537 -0.0152486 0.0121143 0.0270246 -0.0163039
0.00709889 -0.0167058 0.0183087 0.0143704 -0.010797 -0.0248677 0.00432609 0.00736895 -0.0158971 0.0049223 0.0195809 -0.00143416 0.0141743
-0.0375772 -0.0244494 0.00949504 0.018537 -0.0432597 -0.0267525 -0.0155464 -0.0231487 0.0299276 0.0387245 -0.0361324 0.0391706 -0.0242594
-0.0211943 -0.028372 -0.0154905 -0.0281362 -0.0195081 -0.0063111 0.0104318 0.0529817 0.0133223 -0.0250554 -0.0132237 0.0254731 -0.015748
0.0331713 0.104237 -0.10879 -0.0961796 -0.0902932 0.0262963 -0.0906855 0.13829 0.0779236 0.125879 -0.101833 0.0539886 -0.0958931
-0.0238103 0.0323457 -0.0305342 0.0319029 -0.0167094 -0.0085848 -0.0328669 0.0269371 -0.0172387 -0.00745055 0.0135228 0.0201813 -0.00948317
0.023634 0.0359329 -0.0478181 0.0228813 0.0294409 0.00261636 -0.0173535 0.0242897 -0.0305719 0.0233341 -0.0444815 -0.00138812 0.00707488
-0.0356091 0.00844263 -0.0430445 -0.011489 -0.0318209 -0.0159881 0.00666398 0.0234333 0.0387341 0.011373 0.0237473 -0.020838 0.020949
-0.0331931 0.00484231 -0.00995724 -0.00404614 0.00662415 0.00117576 -0.0135379 -0.00861303 -0.00721797 0.0212104 0.00315009 -0.0328871 -0.0215741
0.0176469 0.0500425 -0.0269285 -0.0104834 -0.0597489 0.0123234 -0.0388305 0.108814 0.0493435 0.07783 -0.0640948 0.0546706 -0.0595024
0.0176669 0.0112638 -0.0509466 0.0239339 -0.0180843 0.00585064 -0.0727577 0.103213 0.0318738 0.0162021 -0.0190088 0.0545688 -0.0797451
-0.036156 -0.00261699 -0.089287 0.0204945 -0.0465446 0.00945442 -0.071638 0.0769297 -0.00329121 -0.00496695 -0.0430629 0.00078847 -0.102506
-0.0141733 0.00470133 -0.00407969 -0.0209671 -0.048958 0.014946 0.0139304 0.0536584 0.023401 0.0052664 -0.0653454 0.0156871 -0.00898779
-0.0304384 0.0293156 -0.150995 -0.00654292 -0.079519 -0.0475463 -0.104936 0.192274 0.0618565 0.0672517 -0.157187 0.0659115 -0.180805
0.00554239 0.0143437 -0.073502 0.0179457 -0.0390078 -0.0501186 -0.0322503 0.0536951 0.0340782 0.0201614 -0.0529661 0.0428321 -0.0601633
-0.000575721 0.0227305 0.0106364 0.0105652 -0.0400595 -0.0411734 0.000218165 0.0357175 0.00353343 0.00314036 -0.0198327 -0.0209974 -0.0133666
-0.0191912 -0.0306325 0.0156642 0.0193123 -0.00143666 -0.0131256 -0.00456124 0.057427 0.00115022 0.016463 -0.044577 -0.000521114 0.00794283
-0.0124933 0.0213424 -0.125023 -0.015481 -0.0345482 -0.0605169 -0.0151191 0.126153 0.0367877 -0.00448432 -0.0878809 0.0601737 -0.0507277
-0.00851274 0.019349 -0.0582344 -0.000883646 0.00856834 -0.0137631 0.0214915 0.0225119 0.0340592 0.0385565 -0.0213804 -0.00922859 -0.0284475
-0.0340856 0.00665631 -0.0600254 -0.0359964 -0.025297 0.0258643 0.00503614 0.0436689 0.0453646 0.018143 0.00365732 -0.0180986 -0.0230457
0.0255826 0.0270357 -0.00716259 -0.0370131 -0.0128205 -0.0163371 -0.00911468 0.0131548 -0.0195709 -0.0116652 -0.0149019 -0.0284032 -0.0318785
1.46874 1.35105 1.74446 -2.37111 -1.34904 1.94533 -0.786972 3.36946 1.91862 3.11889 1.00802 -0.332958 0.38563
0.0342733 -0.0176125 -0.0466082 0.0311897 -0.0550826 -0.00563285 -0.0530667 0.0657568 0.0215289 0.0402385 -0.0392661 0.00789878 -0.0398807
0.0375826 0.011274 -0.0663811 -0.0245618 -0.0201244 0.00601026 0.00466722 0.0528794 0.0471457 0.0533907 -0.0378852 0.00769482 -0.0332183
0.037615 0.0208033 -0.0164805 -0.044231 -0.0513841 -0.0368459 -0.0414463 0.065587 0.0597677 0.0271283 -0.0479629 0.00972868 -0.0244751
-0.0143994 -0.0019652 -0.0179515 -0.0220421 -0.0196622 0.0361171 0.00379574 -0.0226203 0.0180661 -0.0295335 -0.0201752 -0.005507 -0.00890782
-0.0241461 -0.00898755 -0.0739985 -0.0325927 -0.0354366 -0.0497304 -0.0643072 0.0409536 0.0313126 0.00110949 -0.028628 0.0553363 -0.0563411
0.00867142 0.0256231 -0.0378437 -0.0371889 -0.0257674 0.00527242 -0.0047539 0.0012961 0.0332831 0.0363367 -0.0158255 0.0337444 0.0140221
-0.0364531 0.0384601 0.0327919 0.0380282 -0.0166043 0.0021909 0.033678 0.0223163 0.00568209 -0.0154832 -0.00559213 0.0312222 -0.0130121
-0.0235357 0.0538193 -0.086411 -0.0416589 -0.00508956 -0.00137186 -0.0427384 0.104777 0.0101637 0.0739065 -0.0925899 0.010648 -0.109534
-0.0138235 -0.0260546 -0.0318699 -0.00334054 -0.0056784 0.0100227 -0.0391418 0.0252187 -0.00753851 0.0213737 -0.0147435 0.0381751 -0.0436415
-0.010936 0.0178834 -0.0405987 0.0280546 -0.0279766 -0.0282309 0.0233985 0.0414091 0.00429355 0.000519571 -0.034442 -0.0198644 0.0115338
0.0159547 0.0122098 -0.124456 -0.0509329 -0.0339756 -0.00510484 -0.0558384 0.132116 0.0512739 0.0431755 -0.0760491 0.0513289 -0.144337
0.00456225 -0.0334007 -0.007134 0.0279035 -0.0211921 0.00856361 0.0118953 0.0442401 -0.0297471 -0.00422089 -0.0264801 -0.020027 -0.0343015
0.0185739 0.00357822 -0.0811314 0.0367661 -0.0516667 -0.022483 -0.0686518 0.087237 0.0124789 0.0728276 -0.12728 0.0326204 -0.0620636
0.00832091 -0.00202017 -0.0601535 -0.0119151 -0.0102743 -0.0101893 0.00618522 0.062067 0.0307664 0.034425 -0.0414874 0.0446497 -0.0624846
0.0236497 -0.0239148 0.00409255 0.00862556 -0.0116317 -0.028605 0.00176563 0.0342548 -0.0175048 0.000898426 -0.0223865 -0.0304184 0.0157027
0.014845 0.0376839 -0.000617679 0.0253613 0.0203074 0.0203453 0.0250922 0.0264869 -0.00978747 -0.0364889 -0.0343939 0.00465926 -0.0061783
-0.0299842 -0.00769746 -0.0360923 0.00130222 -0.0183079 -0.0263746 0.00151573 -0.0147802 0.041579 0.0220246 0.0122538 0.0403615 -0.024133
-0.00820547 -0.0160518 -0.00564445 -0.0193047 -0.0504234 -0.00756742 0.0182182 0.0490126 -0.0237336 0.0113531 -0.0450068 0.049348 -0.0279652
-0.0391865 0.0251745 -0.0795081 -0.0051674 -0.0183508 -0.0498158 -0.0443776 0.0888662 0.0582886 0.0594024 -0.0271148 0.0400687 -0.0878706
0.0051922 0.0279031 0.00386953 0.00365339 0.00903454 -0.0287157 -0.0228441 0.0439982 -0.0164943 0.00928998 -0.0439304 0.0287636 -0.0376224
-0.00358579 -0.0295728 0.0258239 -0.012605 -0.0152307 0.0153099 -0.0122342 0.00108741 0.0116436 0.0185615 -0.0380769 -0.0246928 0.0335593
-0.0231129 0.00680558 -0.0160798 -0.0352514 0.0295087 -0.0325904 9.70017e-06 0.0540273 0.0209801 0.0138155 -0.00256165 0.0201032 -0.0374997
-0.028278 0.039082 -0.0532938 -0.0373653 -0.0607157 -0.0128097 -0.0306245 0.0493661 0.0103879 0.0391303 -0.015941 0.0234947 -0.0631654
-0.0245671 0.0298357 0.00963633 0.00800167 -0.0373997 -0.0127681 -0.0163682 -0.0199148 0.0374373 -0.0210334 0.0239929 0.000190676 -0.00452035
0.00281518 -0.014172 -0.0742288 -0.00232151 -0.0433622 0.0122317 -0.0659047 0.0769257 -0.00755118 0.0375524 -0.0331936 0.0134298 -0.069455
-0.331297 0.0627716 -0.193053 -0.254247 -0.823222 -0.0529929 -0.674681 0.23096 0.185724 -0.126302 -0.934931 0.0674816 -0.941233
0.0682459 0.74939 0.898699 -0.280017 -0.896743 0.259939 -0.51041 0.660574 -0.431846 0.905872 0.157026 0.0279862 -0.374985
0.0211985 0.0233352 0.0157771 -0.0306993 -0.0255706 -0.0158093 -0.0449704 0.0257329 0.0223442 0.0337515 -0.00545833 0.0122441 -0.0111531
0.0198044 0.0171947 -0.0170683 -0.0120618 -0.0380764 -0.0350606 -0.0163559 0.0209475 0.0392927 -0.00516953 -0.0456115 0.0486656 -0.0479379
-0.0147744 -0.0156384 -0.0480735 0.0216911 0.015967 -0.0363393 0.0114195 0.0561127 0.0176194 0.0263895 0.0036539 -0.0234063 -0.00745484
-0.0309491 -0.0274921 0.00831821 0.0056345 -0.024209 -0.00305533 0.00219739 0.0539935 -0.00276662 -0.0238158 -0.0238736 0.0211501 -0.0235377
-0.0311862 -0.0139061 -0.0960982 0.0225038 -0.0154973 -0.00530639 -0.0284515 0.0879028 0.0282822 0.0152475 -0.05039 0.0251786 -0.0322822
-0.0221548 0.0267812 -0.00341293 0.0241625 -0.0191522 -0.030306 0.0308333 -0.000907644 -0.000563716 0.0372181 0.0208139 0.0284428 -0.00427697
0.000739221 0.0227327 -0.0564722 -0.00550389 -0.00140986 -0.0200426 -0.0537066 0.0208429 0.0215898 0.00152215 0.0061516 0.015873 -0.0304608
-0.0254453 0.00181072 -0.14235 -0.0224251 -0.0670976 -0.0595066 -0.053138 0.149081 0.0757944 0.0330477 -0.136817 0.0711555 -0.113978
0.0310878 0.0118876 -0.0377697 -0.0144093 -0.0290547 0.00668833 -0.0152966 0.073779 0.043876 -0.00714182 -0.0544284 0.0129286 -0.0481086
-0.0276515 0.0345189 -0.270275 0.0153739 -0.104597 -0.0584567 -0.0724818 0.199921 0.098858 0.0589597 -0.162586 0.139985 -0.173318
-0.0192045 0.0183487 0.0127655 -0.0138424 -0.0394275 0.0163977 -0.0278204 -0.00405224 0.00967823 0.00173107 -0.0236928 0.0397585 -0.0229302
-0.00144928 0.0340238 -0.0485113 0.0156427 -0.00108483 0.0265877 0.000566941 0.0251629 -0.0143584 -0.00802519 -0.00716758 0.00990211 -0.0476389
-0.0284219 0.00432651 -0.0695414 0.0252856 -0.0200937 -0.0353746 -0.0475121 0.0586155 0.0239529 0.00424655 -0.00777978 0.0496971 -0.0621587
-0.0168799 0.0055514 -0.000842347 -0.0356582 0.00451085 -0.0304199 0.0170332 0.00997842 0.0323596 0.0112219 0.0262033 0.00981294 -0.0347988
-0.00305474 -0.0108568 -0.0307251 -0.0366361 0.0177356 -0.0301825 -0.0197162 0.00312273 0.00323496 0.0355385 -0.016107 0.00321834 0.0230431
0.000500003 0.040929 0.0221714 -0.0309372 0.0170577 0.028683 -0.0450896 0.00747985 0.0213472 0.0263431 -0.0293786 -0.0097377 0.00561747
0.0069594 0.00552106 0.0254927 0.0182451 0.00669885 0.0035649 -0.0160305 0.0104669 -0.00440836 -0.0326153 -0.0116756 -0.0017718 -0.0164157
-0.0201846 -0.0242799 -0.000574516 -0.0214956 0.00863156 0.0326695 -0.0277059 0.0278268 0.0177725 -0.0217318 0.0226188 0.0185435 -0.0267408
0.016213 0.0109946 -0.0383702 0.013093 -0.0166871 0.00382306 0.0332945 0.00308998 -0.0111724 -0.000717134 0.0320086 0.0222697 -0.00927838
-0.020782 0.0137706 -0.0244229 -0.0280269 -0.0272508 -0.0170249 -0.0188686 0.028522 0.0166335 -0.00978852 -0.0241328 0.0398268 -0.00181952
0.0136893 0.0412744 -0.0319977 0.0231665 -0.0220579 0.0164523 -0.00561244 0.0198339 0.0221066 -0.002154 0.0128455 0.0361921 -0.0599375
-0.0330131 0.0228375 -0.0311787 -0.0320342 -0.0520495 -0.047781 -0.0296368 0.0636951 -0.00151038 0.034647 -0.0391001 0.0420379 -0.0395841
-0.027134 -0.0141031 -0.022311 0.00462271 -0.0157281 0.000594894 -0.0436841 0.0398037 -0.00582746 -0.0213621 -0.00702788 -0.000657413 0.00462382
0.0158958 0.0265987 -0.0374792 -0.0110123 -0.00900583 -0.00489975 -0.000904117 -0.00116299 0.0267213 0.00299656 -0.0321793 0.0273247 -0.0193009
-0.0119294 0.0397278 -0.00953053 -0.00180686 -0.00618622 0.000213297 -0.0481122 0.0616701 -0.00559912 -0.0111549 -0.0195074 0.0352468 -0.0753662
-0.0144768 0.0157674 -0.00584759 0.0357313 0.00658903 -0.0119874 0.0115398 0.0160666 0.0364386 -0.00995022 -0.0318688 -0.0193737 0.00321699
0.024861 0.0128141 -0.0199701 0.00280081 -0.0294306 -0.055824 0.00575027 0.0802159 0.0383231 0.0292582 -0.0655005 0.0320687 -0.0184053
-0.0209981 0.0205248 0.00786349 0.0226562 0.0294267 -0.00749499 0.00347143 0.0342171 -0.00482289 0.00322605 -0.0316879 -0.00496557 -0.0218446
0.0303506 -0.0299636 -0.0194338 0.026364 -0.0301387 0.00722965 0.00152535 0.0206341 -0.0150387 -0.0259439 0.0259606 -0.0183073 -0.00885882
-0.0348158 0.0158264 -0.104386 0.0281079 -0.0294546 -0.0106613 -0.0131431 0.100571 0.0221496 -0.00291142 -0.0306306 0.0355937 -0.0405668
0.0129804 0.0100435 0.00507427 -3.51394e-05 -0.0306652 0.0302809 -0.0398848 0.0196976 0.00702553 0.0446688 0.0145841 0.0125732 -0.0323392
-0.000359551 0.0529509 -0.185561 -0.0921122 -0.105337 -0.014378 -0.137603 0.175639 0.107536 0.117973 -0.247469 0.048365 -0.272016
-0.0186142 0.0194585 -0.0750815 -0.0178468 -0.029983 0.00691934 -0.0154144 0.0394031 0.00165176 0.0231172 -0.0797864 -0.000296544 -0.0912189
-0.0242036 0.0445287 -0.118427 -0.0511676 -0.12181 -0.0404624 -0.161936 0.129451 0.0591998 0.00128936 -0.204159 0.0393703 -0.232639
-0.00894298 0.0155885 0.0217981 -0.0187705 -0.00598637 0.0204537 -0.0258094 -0.00973146 -0.0235524 -0.0195722 0.0316493 0.000629996 -0.0234345
0.0173854 -0.0193144 -0.0231094 -0.0154234 0.00200906 0.0208804 -0.0517443 0.0326062 0.0269316 0.0312894 -0.020517 0.0208688 -0.0463874
-0.00616761 -0.00483946 -0.0213207 -0.0124944 -0.00454119 0.0255659 -0.00769269 0.0737565 0.0265219 0.0238734 -0.0586221 0.0511417 -0.0414121
0.00304447 -0.00354579 -0.0708261 0.0159571 -0.0482644 -0.011029 -0.0325281 0.0348194 0.0247913 0.028069 -0.0805985 0.0168448 -0.0468987
0.00911367 0.0433624 -0.149267 -0.0533437 -0.0981041 -0.0350929 -0.0927854 0.156193 0.125973 0.058858 -0.114406 0.0628676 -0.156998
0.0072347 -0.0203245 -0.0296431 -0.0169335 -0.038881 -0.0447016 -0.00491672 0.0638786 0.0310258 0.0305354 -0.0531327 0.044902 -0.0611477
0.0268202 -0.00318062 -0.0353339 -0.0198586 0.025176 -0.0207459 0.0164612 0.0461198 0.0258394 -0.0289574 -0.0291316 0.0189653 -0.0262767
-0.0272235 0.0259871 -0.103502 0.00783679 -0.0265365 0.0141049 -0.0810621 0.115478 0.0744768 0.0366935 -0.071938 0.00237054 -0.0966853
0.0154155 -0.00798425 -0.00938497 0.0337147 -0.00647027 0.0177746 0.0195372 -0.0289456 -0.00160037 0.0155751 0.00617211 0.0372811 -0.0144164
-0.0447139 0.0104254 -0.344792 0.0899315 -0.0416206 -0.165416 -0.113407 0.225746 0.0431428 0.0262493 -0.239596 0.202185 -0.260491
0.0284107 0.089508 -0.112298 -0.0333897 -0.050076 -0.0384287 -0.11961 0.141435 0.100286 0.0733528 -0.0785928 0.0587267 -0.117164
-0.0304203 -0.00532311 -0.0712106 -0.0103931 -0.0140639 -0.00805941 -0.0433311 0.0767772 0.012723 0.0282784 -0.0606269 0.0345281 -0.0671651
-0.0407395 0.0184887 -0.116695 0.0107397 -0.0640989 -0.0500056 -0.0364738 0.0736702 0.0183245 0.0152687 -0.0722333 0.0143255 -0.0841674
0.0266715 0.030125 0.00877846 0.0350697 0.0140491 0.0277353 0.0151007 -0.012091 0.0200466 0.00790146 -0.00955501 0.0326099 -0.0231368
-0.0216581 0.0311551 0.00755833 -0.0215354 -0.0165511 -0.0455466 -0.000693633 0.000345878 -0.0147864 -0.0290321 -0.0550172 -0.0179744 -0.0342688
0.0112427 -0.0254408 -0.0390932 0.0213723 -0.0254552 -0.00985101 0.0231652 0.044199 0.00324849 -0.0248217 0.000829699 0.00452004 -0.00332794
0.0306774 -0.0326786 -0.00823855 0.0296438 -0.0253579 0.00657169 0.00969014 0.0181732 0.0353429 0.0322733 -0.0163104 -0.0250898 -0.0111393
0.0303297 0.0120025 -0.0226465 0.0306824 -0.020245 0.00582573 -0.00755822 0.0392237 -0.0212109 -0.000848275 -0.0302272 -0.00513545 -0.0306796
-0.00604936 0.0187055 -0.0389271 -0.0192901 -0.0241989 -0.00826979 0.00329821 0.00541794 0.0313722 -0.0199241 -0.00719954 -0.00854446 -0.0426071
0.00139488 0.0206423 -0.0218924 -0.0229477 -0.000555496 -0.0262733 -0.0190194 0.0543604 0.0195615 0.0275141 -0.0595357 0.0188348 -0.0725515
0.000483492 0.0450566 -0.0208075 0.0124357 -0.0456803 0.0208291 -0.00098715 0.054052 -0.0142671 0.0602011 -0.0512269 0.0104313 -0.0411948
0.0140519 0.0207357 -0.00984683 0.0321289 0.0216748 0.0225411 -0.0106725 -0.0238467 -0.0175056 -0.00431648 -0.0151089 -0.0216443 0.017811
0.0102466 0.0237453 0.00221774 -0.0326538 0.0206758 0.0127218 -0.0497273 0.0502852 -0.00582774 0.0401809 -0.055269 0.0206272 -0.0137
-0.00870662 -0.00824315 0.0047305 -0.0371639 -0.00380777 -0.0162963 0.0111614 0.0466496 -0.00699572 0.0198767 -0.019523 0.0368724 -0.0178312
0.292844 0.296766 0.0280162 -0.190416 -0.032936 0.113922 -0.190338 0.300102 0.252813 0.249885 0.0411388 -0.188122 0.0614211
-0.0396614 -0.0123676 -0.0854377 -0.0156535 -0.0336151 -0.0165197 -0.0536412 0.0640597 0.0525605 0.0287047 -0.0914635 0.0282421 -0.0683042
-0.0290649 0.0282079 -0.0429214 0.00559133 -0.0489678 -0.0396546 -0.057047 0.0596548 0.0273299 -0.00573951 -0.0318308 0.0112037 -0.0306658
-0.0127305 0.0117114 -0.0622764 0.0138281 -0.000435425 -0.0522192 -0.0515972 0.0643951 0.0259461 0.0152128 -0.0776667 0.0467601 -0.0502238
0.00478866 -0.0200138 0.019502 -0.0365345 -0.0426833 0.0300526 -0.00810053 -0.00176402 -0.00789641 0.0256231 -0.00805124 -0.0311397 -0.0365482
0.0109724 -0.00469001 -0.0793574 0.0255767 -0.0397777 -0.0190703 -0.058254 0.0853889 0.0512701 0.0374039 -0.0849816 0.0315013 -0.108076
0.00539441 0.0249188 -0.147844 -0.0162335 -0.0695028 -0.0613744 -0.0532967 0.125388 0.0315577 0.0305985 -0.105562 0.016892 -0.118894
0.0157113 0.0780722 -0.263433 -0.016576 -0.0639768 -0.09703 -0.128896 0.179161 0.0985618 0.104894 -0.203554 0.0994348 -0.215437
0.0143107 0.0287742 -0.0382544 0.0340624 0.000476401 0.0165256 0.010147 -0.00713079 -0.00302971 -0.0347271 0.026145 0.0240489 0.00450535
-0.0013357 0.0146523 -0.0456408 -0.0203401 0.0141823 0.0285081 -0.0479957 -0.000892789 0.0476252 0.0357502 -0.0287773 -0.00529743 -0.0522176
0.00571677 -0.0109295 -0.277313 0.0245064 -0.0703803 -0.0897684 -0.0822927 0.223531 0.0515666 0.0114613 -0.221735 0.0967949 -0.201349
-0.00909106 -0.0210498 -0.0231683 -0.00485982 -0.0554955 0.0294216 0.00572129 0.0638329 0.0391848 0.0525136 0.00809506 0.00529493 0.00125028
0.0122579 0.0352289 -0.0306887 -0.00544994 -0.0284146 -0.0234426 0.00454421 -0.0255701 -0.0254509 -0.00794423 -0.0241716 -0.0115236 0.00324165
-0.0286274 0.0208771 0.0213846 0.0156481 -0.0272129 -0.00970906 -0.0125162 0.00737025 -0.018623 -0.000528016 0.0173163 0.0230126 -0.0251313
-0.0551651 -0.00951611 -0.0969716 0.0169403 -0.105165 -0.0293751 -0.134088 0.164763 0.0257139 0.0286613 -0.164814 0.03686 -0.143137
0.0266878 -0.0131007 -0.0210016 0.0322854 -0.0358625 -0.0420901 -0.00610246 0.0514482 -0.0183856 -0.0194237 -0.0312484 0.0200359 -0.0319088
-0.0128955 0.00887299 -0.0175321 0.010502 0.0248192 -0.034379 -0.0334316 0.050774 -0.0174038 0.0194877 -0.0184358 0.0101847 -0.0149945
0.0157624 0.0156698 -0.00444622 -0.0167227 0.0119008 0.0334169 -0.0150646 0.048322 -0.012187 0.011694 -0.0164513 0.0128747 -0.0483663
-0.0388225 -0.0273333 -0.010314 0.0388593 -0.031975 0.0246463 -0.0411937 0.0717741 -0.00220149 0.0235835 -0.0328926 -0.00562084 -0.0231991
-0.00902657 -0.0116152 0.00822957 -0.0114812 0.00881465 0.0351472 0.0145529 0.011626 -0.0133707 0.0307621 -0.0153977 0.0392437 -0.0344461
-0.0812846 -0.00520823 -0.349324 0.11426 -0.0317307 -0.193871 -0.081713 0.227575 0.0384315 0.0148556 -0.22248 0.147416 -0.235687
0.0369224 0.0256012 0.00569651 -0.0149221 -0.0152638 -0.0367445 -0.0119359 -0.0194214 -0.02301 -0.0286698 0.0303939 0.0219094 -0.0365242
-0.0181996 -0.015022 0.0109044 -0.00250437 -0.034437 0.00411997 -0.0307968 0.0257358 0.0285558 0.0297992 -0.045855 0.028231 -0.0147142
0.0289579 0.146707 0.0415356 -0.213755 -0.188618 0.121297 -0.218487 0.137356 0.0431375 0.204515 -0.0878461 -0.0356984 -0.225678
-0.0239205 -0.0188438 0.0152831 0.00266003 -0.0221917 0.0146038 -0.00158908 0.023008 0.00434396 0.0408392 -0.0417223 -0.015351 -0.0434984
0.0250762 0.0309669 0.0201004 -0.0379506 -0.0195027 -0.0304791 -0.00985117 0.0109939 0.03754 -0.0163845 -0.0417919 0.0384373 -0.014975
-0.000712837 -0.0245296 -0.0957838 -0.0276114 -0.0155838 -0.0377189 -0.0519841 0.0808314 0.0534719 0.0213383 -0.0206704 -0.00595443 -0.0364563
-0.0149176 -0.0100448 -0.0331909 0.0182743 -0.0534074 -0.0399154 -0.0725218 0.092919 0.0154233 0.020829 -0.00809062 0.0263353 -0.0524974
-0.0141216 0.0461344 -0.0898063 -0.0253186 -0.0840169 0.00525986 -0.0811814 0.0917523 0.0723819 0.086854 -0.041715 0.0297623 -0.0597351
-0.0208407 0.00934812 -0.139668 -0.0202902 -0.0972193 -0.0144433 -0.0838625 0.150372 0.0941723 0.0740161 -0.112271 0.043375 -0.134387
0.00941194 -0.0341549 -0.015572 0.00133479 0.005567 -0.039501 -0.0410869 0.00783806 0.0032795 -0.0150233 0.00974862 -0.0143688 -0.0139485
0.00197806 0.00134637 -0.192348 0.0209988 -0.0458786 -0.102117 -0.114275 0.164097 0.0552697 0.033534 -0.161978 0.0583666 -0.159124
-0.0326992 -0.014459 -0.0163792 0.0234622 -0.0164526 0.0184608 -0.0283153 -0.0167483 0.00435556 0.0145018 -0.019688 -0.00532799 -0.0326382
0.0200281 0.0163899 -0.102314 -0.00254809 -0.070618 -0.0416684 -0.0661295 0.138071 0.0638753 0.0571538 -0.102804 0.0742707 -0.0920584
-0.0353768 0.00123138 -0.0365066 -0.0204868 -0.0168155 0.00129646 0.0271965 0.00113621 -0.0251271 0.0406705 -0.0235755 0.0289284 0.00704638
0.00723921 0.0322021 -0.0140728 -0.0308166 -0.00653027 -0.0322999 -0.0036272 0.0252136 0.025571 0.028304 -0.0586731 0.0301439 -0.0761543
-0.00373972 0.0447142 -0.0292476 -0.00631883 -0.00944132 0.0208036 -0.0196232 0.0331761 0.0349022 0.02976 -0.0483633 -0.0170176 -0.00801265
-0.00891525 0.0223533 -0.0050771 0.0316429 0.0314102 0.0353169 -0.0322166 -0.015571 0.014899 -0.0321688 0.0250942 0.00705075 -0.0248918
-0.00174547 0.0539673 -0.0895314 -0.0196299 -0.131871 -0.0493864 -0.149786 0.12801 0.0857174 0.0217226 -0.130117 0.0214779 -0.15965
-0.0262554 0.0446274 -0.0603082 -0.0234955 -0.0242676 0.0107064 -0.0214347 0.0674516 0.00876609 0.00786801 -0.0552136 0.0380957 -0.034267
-0.00405725 0.0395518 -0.00310235 0.0151174 0.0151972 0.0302248 -0.000782622 0.0397276 -0.0220673 0.0141067 0.0212021 0.0439394 0.00737137
0.0213674 0.0219647 -0.153851 0.040716 -0.0385023 -0.0862364 -0.0872036 0.10953 0.0582455 0.0554159 -0.131908 0.0958387 -0.100768
0.0171861 0.0170483 0.019619 -0.0355671 0.0262899 -0.0396579 -0.00400046 0.0105711 0.0204505 -0.0038736 -0.0382561 -0.0146886 0.0163007
-0.0124687 -0.000593968 0.025734 -0.0131097 0.0141842 0.0201006 -0.0373838 -0.0157515 0.0225459 -0.0218696 -0.0381422 -0.0257082 -0.0252366
-0.0165285 0.0122956 -0.0265041 -0.0307247 -0.00563681 -0.0105615 -0.0532322 0.0234535 0.0422923 0.0370656 -0.00831272 -0.00740868 -0.0601504
0.0167393 0.000741991 -0.00718114 -0.0212624 -0.032476 0.0220809 -0.054292 0.0499183 -0.000385786 0.00273535 -0.0126827 0.0114317 -0.063805
0.0342436 -0.0201078 -0.0331031 -0.00407179 -0.0375835 -0.00493841 0.0200652 0.0417731 -0.00821746 -0.0136764 0.0222813 -0.0230025 -0.0291264
-0.0185096 0.0195389 -0.0331443 -0.0426205 -0.00571652 0.00616934 0.0122624 0.00146078 -0.0131979 0.00779369 -0.0400063 -0.000819046 -0.00758296
0.011777 -0.0164408 -0.0206976 -0.0345074 0.0306856 0.0362401 0.0310386 0.0274197 -0.0141675 0.0196664 -0.0031967 0.0345298 0.0215966
-0.00984654 0.00397654 -0.156969 -0.00160534 -0.071378 -0.0784113 -0.0476565 0.148801 0.0624433 0.025925 -0.105556 0.0623065 -0.138862
0.034075 0.0239701 -0.000344019 0.00827562 -0.0316691 -0.017394 -0.0124468 -0.021829 -0.0363001 -0.0249081 -0.0271089 -0.0239265 0.0220039
-0.00514945 -0.0287795 -0.014292 0.0213297 -0.0343376 0.011944 0.00303715 0.0196953 -0.0256477 0.0227784 -0.0128833 0.0229693 -0.0311999
0.0263036 0.0052456 -0.00648735 -0.0371456 0.0318698 -0.019724 -0.0389994 0.0256497 0.0310554 -0.0248383 0.0108805 0.00597962 -0.00427635
-0.00937667 0.0168217 -0.0644531 -0.0356712 -0.00749427 -0.0355284 -0.00168728 0.0713931 -0.0101475 -0.0128497 -0.0847383 0.0404503 -0.0242284
0.0145772 -0.0119579 -0.00358221 -0.0344522 -0.0231446 0.0194839 0.0260405 0.0450721 0.0110345 0.0163341 0.0270423 -0.0329973 -0.045725
-0.0350431 -0.0194448 0.00329373 0.0153758 -0.005574 0.0129555 -0.0319815 -0.0272452 0.0321158 -0.000411072 0.0161054 -0.0120773 0.0202109
-0.00374406 0.0260541 -0.0452473 0.0288107 -0.00468877 -0.0040317 -0.0435893 0.0605944 0.0527967 -0.00297779 -0.0195346 0.0246865 -0.00237355
-0.00311176 0.085269 -0.111326 -0.0898859 -0.0985212 0.0585653 -0.145656 0.219492 0.0973568 0.11906 -0.132466 0.0312456 -0.185947
0.0118487 0.0348498 0.0242 -0.0162244 0.0225811 -0.0125669 0.0222026 -0.0266329 0.039745 -0.0215548 0.0136301 -0.0268953 -0.00704131
0.0120005 -0.000596438 -0.0634282 -0.0304319 -0.0488488 -0.0373681 -0.0597702 0.0555052 0.0103722 0.0496318 -0.0968557 0.0386757 -0.0749882
0.00382198 0.325599 0.151185 -0.194873 -0.194328 0.273001 -0.275366 0.0859971 0.373429 0.270495 -0.130323 -0.109909 -0.343055
-0.0117829 -0.00458721 0.00512929 -0.00708466 0.0207727 0.00589083 -0.0213836 -0.0246079 -0.00688952 0.0231926 0.0253609 0.00322791 -0.0222885
0.0114541 0.00778773 -0.161678 0.0445954 -0.0829881 -0.0495798 -0.0481008 0.161038 0.0756373 0.0644149 -0.127927 0.0372887 -0.110071
0.0316152 -0.0211717 -0.0133888 -0.0074754 -0.00563377 0.0103972 -0.050038 0.00502738 0.0400686 0.0207697 -0.045433 0.0050253 -0.0340513
-0.0491033 0.0196147 -0.254312 0.00953759 -0.0709075 -0.105275 -0.10081 0.140631 0.0649175 0.0372507 -0.130841 0.0891732 -0.156716
0.0336138 0.0285826 -0.0293082 0.0223147 -0.00789918 -0.0375516 -0.0156778 0.0170017 0.0104574 -0.033649 -0.007554 0.0340894 -0.0324504
0.0166381 -0.0194689 -0.0231789 0.00155904 -0.0178928 0.0169659 -0.0609077 0.0722237 0.0210249 0.00445554 -0.077031 -0.0023859 -0.0565032
-0.016749 0.0321022 -0.00932053 -0.0266519 -0.0256631 -0.0309722 -0.012364 0.0485216 -0.0329327 -0.0244429 0.0156669 0.00652161 0.0243287
0.00816357 0.0115535 -0.0540831 0.0147694 0.0166756 -0.0362922 -0.0117859 0.0392876 0.0135099 -0.0184406 -0.05546 0.0482622 -0.0716042
0.0173224 0.0162204 0.0137231 -0.0012569 -0.0273193 -0.0325232 -0.0382607 0.0447285 0.0149619 0.0368155 -0.000308007 0.041441 -0.0145153
-0.00904335 0.0162461 -0.035243 -0.0174506 -0.0598626 -0.0449364 -0.0532847 0.0855573 0.0387889 0.0304652 -0.0360137 0.027143 -0.030388
0.0178156 0.0283237 -0.031803 -0.00544231 0.0108723 -0.0236702 -0.0516587 0.0391276 0.0368463 0.0417212 -0.0175075 0.0323326 -0.0397596
0.0244183 0.0566786 -0.0790011 -0.0301431 -0.0588277 0.0247503 -0.108483 0.135918 0.0731946 0.0867923 -0.0967916 -0.000159092 -0.090784
-0.00420101 -0.0205673 -0.000222982 -0.0244703 -0.0567695 0.0284547 -0.0130857 0.0551925 -0.0114719 0.00211949 -0.0395855 0.0302481 -0.0326724
-0.0182108 0.00610148 0.0238824 -0.0113096 0.01587 -0.027604 -0.00497166 0.0141838 0.0347721 -0.0281222 -0.0285471 -0.0286388 0.0239358
-0.0109285 0.0398915 0.021559 0.0278065 0.0133742 -0.0414319 -0.0107067 0.0335913 -0.00577051 -0.0260587 0.016772 0.0434646 0.00386501
0.019536 0.0409953 -0.0475891 -0.0144695 -0.0312298 -0.0274444 -0.054243 0.0369637 0.048481 0.0452514 -0.0531379 0.0118127 0.00128809
-0.0334005 -0.00245746 -0.00126653 -0.00674512 0.00477134 0.00901163 -0.0128011 0.0267447 0.0172293 0.0198456 -0.0109685 -0.0237463 0.00239867
0.00819072 -0.0303361 -0.04178 -0.0295385 -0.0347343 0.004625 0.0237389 0.0304595 0.0365376 0.0330994 0.0104137 0.0394818 0.0290332
-0.214274 0.0415353 -0.149132 -0.185404 -0.485133 -0.0548692 -0.368587 0.0932432 0.0881731 -0.0561593 -0.490408 0.0900813 -0.549814
-0.0125437 0.0445917 -0.0541825 -0.0281368 0.0233244 -0.0432188 -0.00336243 0.0184219 0.0454583 0.044049 -0.0601752 -0.00957506 -0.0394618
0.0352622 0.0746373 -0.110859 -0.0255931 -0.034085 -0.0199294 -0.0545758 0.108471 0.0773305 0.0594887 -0.0770578 0.00586457 -0.130273
0.00659123 0.00489127 -0.073918 0.029666 0.00369752 0.0162787 -0.0649561 0.0704553 -0.0136934 0.0239247 -0.0483115 -0.000937068 -0.0691601
-0.0245496 -0.00231903 -0.0384478 -0.0352657 0.00168728 -0.0185826 -0.0136725 0.0377588 -0.00258617 -0.0289597 -0.0294621 0.0381752 0.00228886
-0.0184307 -0.00883473 -0.0713252 -0.00252216 -0.000650511 -0.0300119 -0.0150752 0.0502422 0.0482026 0.0403359 0.00090121 -0.000348681 -0.0479279
-0.0387947 -0.0247687 -0.0375955 -0.0246118 -0.0279618 -0.00906251 0.00197266 0.0592827 0.0201038 -0.0235746 -0.0240141 0.0521062 -0.0415156
0.000846213 -0.0256172 0.00611165 0.0170576 -0.0251777 0.0280211 0.00751141 0.00455933 0.0146893 -0.018041 -0.0166774 -0.0160444 -0.00872408
0.0249946 -0.00559811 -0.00322567 0.0375084 -0.0190147 0.00822327 0.0256986 0.0220654 -0.0109583 -0.0319107 -0.0429247 0.00254366 -0.0081603
0.00294026 0.019033 -0.0272423 0.00230209 -0.0124801 0.0259958 0.00701595 -0.00177507 0.00269651 -0.0163405 -0.0285148 -0.000419885 -0.0131182
0.0198151 -0.0180009 -0.0300958 -0.00462946 -0.0282451 -0.00594813 -0.0425079 0.0467911 -0.0084393 0.0135366 -0.00707892 0.0197464 -0.0453621
0.0348228 -0.0047748 -0.025775 -0.0102988 0.0172523 -0.0311808 -0.00953229 0.0298859 0.039316 0.00525792 -0.0343579 0.0178057 0.0247612
-0.0623626 -0.0922133 -1.28205 0.368088 0.1216 -0.635493 -0.0899338 0.438412 0.0740349 -0.0544398 -0.608316 0.597079 -0.572878
0.026613 -0.0211722 -0.0220221 0.0236978 0.00719242 0.0230147 0.00182733 0.0870639 0.0371601 0.0291624 -0.0710572 0.0380402 -0.0549629
0.0135554 -0.0113454 -0.0483925 0.0313981 -0.0427749 -0.0354984 0.00864442 0.0685182 0.0413271 0.00567988 -0.0679539 0.0578299 -0.00183296
0.020145 0.0238388 -0.0616209 0.0286356 -0.0314744 0.0167901 -0.00534004 0.0194788 0.0278221 0.0370039 -0.00473746 -0.0237245 -0.0380616
0.0277944 0.0122132 -0.0190431 0.0301448 -0.0140879 0.00165372 -0.00332583 -0.0269271 0.00216134 0.0294422 -0.0061075 0.0227223 -0.0278878
0.0413547 0.227509 0.134299 -0.209299 -0.204931 0.223955 -0.217584 0.166186 0.288503 0.286974 -0.0629365 -0.0767873 -0.307045
0.0052127 -0.00284877 -0.083229 -0.0404591 -0.0492916 -0.0447115 -0.0446032 0.126581 0.0125274 0.0787212 -0.0589715 0.000713505 -0.0847712
0.00727448 0.0431333 -0.0337054 -0.00819993 0.00504988 -0.0301904 -0.0012411 0.0261293 -0.00547903 -0.0174709 0.0123139 0.0294838 -0.0443542
-0.0343608 -0.0152733 -0.041822 -0.0181647 -0.0195807 0.00199469 -0.0157643 0.0364929 -0.0186181 0.0273218 0.0158856 -0.0329409 0.0138866
-0.0149626 -0.0288315 -0.0444137 0.0139913 0.0314601 0.0161372 0.00752563 -0.000480459 0.00312212 -0.0124035 -0.0373893 -0.00452804 -0.0207914
0.00496992 -0.0246824 -0.00366114 0.00998288 0.0128132 0.00792148 -0.0459799 0.0305607 -0.0206812 0.0237109 0.00261121 -0.0190937 -0.0269842
-0.0283883 0.0228326 -0.0313062 -0.0299692 -0.0152401 -0.00996727 -0.0690332 0.041521 0.0273759 0.0104347 -0.04494 -0.00243131 -0.0618724
-0.00838017 -0.01333 -0.0222937 0.0258984 -0.0385907 -0.0239374 -0.0369202 0.000553277 -0.0174717 -0.00202916 -0.0415393 -0.000606706 -0.0388714
-0.00401234 0.0171735 -0.0781521 -0.00478577 -0.055256 -0.0169291 -0.0228765 0.0683978 0.00399146 0.0479805 -0.0217321 0.0386557 -0.0183476
-0.000298856 0.037694 -0.105962 0.00949636 -0.0622529 -0.0641313 -0.0809975 0.0706774 0.0395452 0.0357197 -0.110555 0.0797414 -0.0668099
0.0329926 -0.0240945 -0.0215744 0.0341833 -0.0381732 -0.00942647 -0.0333916 -0.0187855 0.0174946 0.00609195 -0.0290084 -0.00789849 -0.00412996
-0.0113504 0.0248242 0.0176362 -0.0286545 0.0203853 0.0222408 -0.0311743 0.000156853 -0.0162651 0.0422243 -0.0435027 0.0419246 0.00267632
0.0228766 -0.013213 0.0173232 0.0351374 -0.00654804 -0.0266108 -0.0234403 -0.0295766 0.0165717 0.0180946 -0.021748 0.00986633 0.00566346
0.0307484 -0.00940719 -0.0044901 -0.0335046 -0.035587 0.0310782 0.00454504 0.0103539 0.00888899 0.0417838 0.0159294 0.0257085 0.00642512
-0.045144 0.0239537 -0.213245 -0.00163822 -0.0629716 -0.0514483 -0.0900986 0.219038 0.106103 0.0616668 -0.150303 0.116305 -0.167617
-0.0279915 0.0460974 -0.108716 -0.0242049 -0.0714796 -0.0322616 -0.0244879 0.0964773 0.0247784 -0.00152639 -0.0696289 0.0129585 -0.113127
0.0232557 -0.00208107 -0.0235123 0.0182735 -0.0102803 -0.0354927 0.000738848 0.0396001 0.00307018 -0.0308423 0.00861664 -0.00239076 -0.0147591
-0.0382975 0.0242132 -0.130091 0.0259549 -0.0914325 -0.0266733 -0.0487805 0.16924 0.0420352 0.0177917 -0.0843192 0.0378106 -0.0964397
1.86582 1.48599 1.26801 -1.99177 -0.61801 1.77238 -1.49 2.85969 2.09517 2.60494 0.934645 -1.02192 0.208017
0.00725467 0.059498 -0.0895032 -0.00301834 -0.0538933 0.000595417 -0.0706811 0.0903645 0.0627223 0.0605488 -0.0730885 0.0449341 -0.0831627
0.0114033 0.00900116 0.0097463 -0.0235532 -0.0443798 -0.0145338 -0.012787 0.0212184 -0.0246998 -0.000277435 0.0145894 0.0336401 0.000499723
-0.0088811 0.0123453 0.0101044 0.0167719 0.00840091 0.0276996 0.0220311 -0.0213909 -0.00132198 -0.0134013 -0.0431573 0.0314622 -0.0116482
-0.0364991 0.0200337 -0.0362295 0.0125908 -0.0353946 -0.00917138 -0.0209909 -0.017783 0.0407687 0.0275667 -0.0179141 -0.000681 0.0314471
-0.00822051 0.00633598 -0.00820908 -0.01547 -0.0239606 -0.043108 0.0155191 0.0277567 0.0284314 0.0470667 -0.0661098 -0.0119941 -0.0171172
-0.201243 -0.0417863 -0.130502 -0.0842435 -0.401321 -0.0996415 -0.320922 0.165181 0.0670702 -0.0825928 -0.487207 0.101593 -0.429423
0.0205681 -0.00350131 -0.0163709 -0.0120723 -0.00357746 -0.000318378 0.0283825 -0.00322568 0.00373009 0.00132848 -0.00899772 -0.0216285 -0.0248923
-0.00145563 0.0149317 -0.0307441 -0.0283701 -0.00730465 -0.0310824 -0.0126879 0.0165006 -0.0112751 0.00247078 0.0263783 -0.00324482 0.00757886
-0.0247837 0.0362527 -0.22357 0.0287898 -0.0952064 -0.0421493 -0.0778548 0.182142 0.101919 0.0514962 -0.175872 0.0617539 -0.14189
-0.0286989 0.0254633 -0.0202036 -0.0017044 -0.0325818 -0.0317663 0.0315693 -0.019877 0.0149798 0.018812 0.00495418 0.0374894 -0.0125963
-0.0234064 0.0352602 0.0241469 -0.00750304 -0.0424682 -0.0365504 -0.0294029 0.00797679 0.0398094 -0.0112428 0.0199142 -0.0113735 0.012323
-0.0279778 0.0271052 0.00836984 0.0304997 0.0229776 -0.0158364 0.00290511 0.0253418 0.00843808 -0.0230308 -0.0455593 -0.0204767 -0.0558367
0.0165155 -0.00756078 -0.0442299 0.00572227 -0.0224376 -0.0301538 -0.00343077 0.0321927 -0.0275468 -0.0277671 -0.0277434 -0.0261609 -0.0277305
0.0101877 -0.0123272 -0.105813 0.0312481 -0.0589636 -0.0513519 -0.0344687 0.0885706 0.0530854 0.0634775 -0.0613043 0.0204409 -0.0971997
-0.0299731 0.0326109 -0.11022 -0.00503764 -0.0265421 -0.0268074 -0.0987971 0.133376 0.0319911 0.0587729 -0.0564165 0.0516011 -0.0955526
0.000280217 0.0437391 -0.0183915 0.0287463 -0.013071 0.0240091 -0.02615 0.0571439 0.0439558 0.0297226 -0.00185022 -0.0136013 -0.0568802
0.0256632 -0.00220339 0.00520715 -0.0142522 0.0307901 -0.0343591 -0.0160247 -0.0275241 0.00741151 0.0183423 -0.015789 0.032282 -0.0281352
-0.0455359 0.0305847 -0.181932 0.0016492 -0.0502841 -0.0838181 -0.0713409 0.181907 0.100811 0.0506111 -0.144919 0.112263 -0.157314
-0.0421515 -0.0180242 -0.094855 0.0152893 -0.00288121 0.014823 -0.000499547 0.0878356 0.0155928 0.0170515 -0.0785426 0.0290527 -0.0688181
0.0194205 -0.0206214 0.0132807 0.0167 -0.00471942 0.00150576 -0.0432307 -0.0164807 -0.0243441 0.0118539 -0.0384281 -0.0171086 -0.0304678
-0.0106617 0.0336914 -0.0661039 0.0205774 -0.0657064 -0.0346974 -0.0119594 0.0991062 0.020425 0.0130555 -0.0602092 0.0235359 -0.0644279
-0.0075306 -0.0365119 -0.0402513 0.0325841 0.0141881 -0.0265854 -0.0332772 0.0401407 0.0379373 0.038935 -0.0102832 0.0209981 -0.0064719
0.0109009 0.0297489 -0.0194146 -0.00433586 -0.0113254 -0.035859 -0.00734033 0.0233601 0.0240084 0.0087849 -0.0310906 0.0247381 0.00350405
0.263324 0.679094 0.809804 -0.62605 -0.693437 0.557052 -0.391276 0.864334 -0.106625 1.18285 0.318513 -0.0870751 -0.370046
0.0336132 0.0101636 -0.0475354 -0.0308559 0.0277763 -0.026187 -0.00778129 0.0399334 -0.0214857 0.018138 -0.0386678 0.025577 -0.0225761
-0.0718211 -0.0723775 -0.64271 0.238145 -0.0454823 -0.302419 -0.0983017 0.272962 0.0874703 -0.0622589 -0.414844 0.329531 -0.304058
-0.0200471 -0.00131205 -0.0265056 0.0150123 -0.0335154 -0.00171032 -0.0079228 0.018501 -0.0136205 0.0291116 -0.0358511 -0.0308139 0.0139276
-0.00858976 0.0224784 -0.0750106 -0.016343 -0.0032735 -0.0472742 -0.0604252 0.079713 0.0118722 0.0362148 -0.0628857 0.0812064 -0.0483232
-0.0145283 0.00196873 0.0282386 -0.0331867 -0.0231924 0.0180677 -0.0110326 -0.0192102 -0.00558667 0.00548978 0.0173418 0.0331731 0.00422004
0.0108719 -0.0212644 -0.0587373 -0.0238114 -0.0551375 -0.043085 -0.0428962 0.0535285 0.057538 0.0137527 -0.0849585 0.0224621 -0.0508064
0.0309288 -0.00385987 -0.0428799 0.031295 -0.000351388 0.0174097 -0.0116831 0.0171792 -0.0147393 0.0411613 -0.0199218 0.0346112 -0.0283881
-0.0140847 -0.0215151 -0.0340302 0.0041786 -0.0316279 -0.0367136 0.0107429 0.0333203 0.000584015 0.0142004 -0.021925 0.0151741 -0.0568683
-0.0108717 -0.018168 0.0261351 -0.0338145 0.0118679 0.0278954 -0.0303372 0.0125599 -0.0215011 -0.017512 -0.024472 -0.0153399 0.0167021
0.0238795 0.0357057 -0.0574261 0.0316771 0.0174744 -0.0328799 -0.0515293 0.0274682 0.00235791 -0.0209179 0.0103741 -0.016822 -0.0530792
-0.0178697 0.0171611 -0.0190421 -0.0342307 -0.0341271 0.012509 -0.0299793 0.057959 0.0126301 0.0107745 -0.0574447 0.0529897 -0.0367237
0.0348736 -0.00390941 -0.0337677 -0.0326374 0.0149347 0.0141552 -0.00615636 0.00913205 0.0399589 0.0198787 0.0249139 -0.0101372 -0.0165759
0.0211003 0.0152524 0.0168389 -0.0192385 -0.0324069 0.00848798 -0.0313033 0.0125278 0.0245254 -0.0147179 -0.0132365 -0.0284365 0.0219929
0.00176425 -0.0231825 0.0128494 -0.0376125 0.00154095 0.022603 -0.0377472 0.0141955 0.00135738 -0.0281989 0.0142173 0.0322755 -0.00792248
-0.021414 -0.031861 -0.0325515 -0.0335851 -0.0215204 -0.0367937 -0.040057 0.0104734 -0.0183753 -0.0111406 0.0158509 -0.0128472 0.0272579
0.0349048 0.0456345 -0.0426164 0.0272918 -0.062069 -0.0158202 -0.0583316 0.0774674 0.0722415 0.0703371 -0.0430912 0.0387167 -0.0519551
0.00673646 0.0301977 0.0077105 0.0248568 -0.023335 0.0076546 -0.0365287 0.0306142 0.0385494 0.0210858 0.0263974 -0.0236092 -0.0411067
0.0185981 0.0393888 0.01889 0.0232953 -0.0222637 0.0204282 -0.0294261 0.0187676 0.0406582 -0.00191543 -0.0396994 0.0220174 -0.0378806
0.00253915 0.0330473 -0.031849 0.0327985 0.0245929 -0.00786125 -0.0435264 -0.0145586 0.0169478 -0.0116379 0.0128331 -0.0153545 -0.0146428
0.0352046 -0.00745429 0.0323579 -0.0272818 0.0343814 -0.0355168 -0.0140871 0.0202552 0.00194163 -0.0325317 -0.0347961 0.00795469 0.001544
0.0228543 0.00778158 -0.0803662 -0.0510298 -0.0707419 -0.040772 -0.0784672 0.0669882 -0.0122602 0.0270374 -0.0621706 -0.0132522 -0.0886595
0.0011905 -0.0309422 -0.0149931 -0.0387595 -0.00616257 0.014321 0.0247166 -0.0187673 -0.0322329 -0.0063962 0.0010305 0.0120865 0.0172559
0.0109614 0.000558233 -0.0366591 -0.00585979 0.0315088 -0.0179515 -0.0213999 0.0047692 0.0349281 0.010632 -0.0436711 0.0270254 0.0161148
0.0114303 0.0130789 -0.241542 -0.021154 -0.141277 -0.0865712 -0.111243 0.24392 0.0709923 0.106138 -0.170044 0.128058 -0.187587
-0.011641 0.0287884 -0.046846 -0.0209323 0.00640578 -0.0286092 -0.0514882 0.0782089 0.0350118 0.00596601 -0.0810713 0.060725 -0.0499831
-0.0383214 -0.0134946 0.0184582 -0.0201679 -0.00875749 0.0265625 0.0135375 -0.00406667 0.0286173 0.0196857 -0.0247378 0.0185029 -0.010644
-0.0261853 0.0289294 -0.173912 -0.00932953 -0.0408163 -0.0416249 -0.0951956 0.158055 0.01295 0.0564145 -0.115733 0.0399217 -0.137567
-0.0414315 0.0324361 -0.0402132 -0.0107561 0.0135893 -0.0107842 -0.0195612 0.0262267 0.000998403 -0.00177471 -0.0387507 0.00779951 -0.0430575
0.00717304 0.00822427 -0.0345641 -0.00455652 -0.0410873 -0.00675238 -0.0786034 0.111193 0.00228651 0.0088097 -0.0378973 0.00813187 -0.0629558
0.0139897 -0.0118809 0.0215289 -0.00484841 0.0192975 -0.00579748 -0.00631904 0.0267037 -0.0227671 0.0163373 -0.00586766 -0.0154875 -0.0300342
0.00721625 -0.0034078 0.00462311 -0.0335836 -0.0071514 -0.00251445 0.0190269 -0.025409 0.020601 0.0239437 0.0114793 0.0137696 0.00840155
-0.0246317 -0.0141726 -0.054246 0.00453449 0.0125669 -0.0379265 0.0134136 0.0417235 -0.0169681 0.00831259 -0.0488362 -0.0150404 -0.000942969
0.0178461 0.00916006 -0.0432784 0.00962997 -0.0409132 0.00630308 -0.0189032 -0.0108842 -0.0207068 0.0316362 -0.0428491 0.0138606 -0.0500292
-0.01355 0.037829 -0.0358565 -0.0293965 -0.0479117 -0.0181004 0.0186507 0.0617897 0.0196869 -0.0194923 -0.00890059 -0.0257064 0.0137813
-0.0128622 -0.0194788 0.0119605 -0.0220289 -0.031176 -0.0118097 -0.0211427 -0.00429192 0.0194867 0.0281704 0.00113353 0.0347915 -0.0356002
-0.00455985 -0.00702041 -0.0477523 0.0320901 -0.0395661 0.0111414 0.0252568 0.0334794 0.0384689 0.0286806 0.0119086 0.0345027 0.0136421
-0.0374241 -0.0102652 -0.128342 -0.00322268 -0.036015 -0.020869 -0.070491 0.0998632 0.019213 0.0367017 -0.0591056 0.0391454 -0.0576523
-0.00955282 0.00848414 -0.0169267 0.035316 -0.0332019 0.026239 0.0120459 0.0216135 0.00851794 0.0148334 0.0119765 0.000856951 -0.0220078
-0.231007 -0.000572485 -0.27072 -0.0427264 -0.447789 -0.0520174 -0.461707 0.125535 0.00567096 -0.08968 -0.660121 0.104973 -0.559862
0.0293942 0.0316582 -0.0362614 -0.0427536 -0.0160246 -0.0378937 -0.0589581 0.0522585 -0.0226527 0.0207008 -0.0354271 0.0346224 -0.0305827
-0.018169 0.0163119 0.0238165 -0.000772948 0.0042655 0.00462793 -0.0401712 -0.000407012 -0.0158696 -0.0265666 0.0205825 0.0166512 -0.0343113
0.0100469 0.0173052 -0.120584 -0.0252163 -0.0571227 -0.0180887 -0.0854767 0.092787 0.0354267 0.00073749 -0.0415067 0.0757066 -0.0554098
-0.0016423 0.00262557 -0.0430229 -0.011443 -0.0371444 -0.0178825 -0.00311348 0.0256581 0.0593886 0.00722861 -0.083715 0.0153055 -0.0161668
8.56363e-05 0.0376403 0.014016 -0.00162298 0.0251901 -0.00155029 0.035129 0.0108561 -0.0370606 0.0160791 -0.0172969 -0.0250874 -0.0428443
0.0200268 -0.024837 -0.0241279 0.0119528 -0.0305928 0.00199634 0.0114412 0.0487049 0.0120507 -0.011529 0.00409 -0.0202386 0.00596895
0.0255432 0.0435306 -0.0422281 -0.0126487 -0.0120943 -0.014077 -0.0858999 0.0845908 0.0606065 0.0569445 -0.0749492 0.058388 -0.104923
0.0294747 0.0534111 -0.019473 -0.0151217 -0.0306461 0.0129789 -0.0161323 0.0811008 0.0201134 0.0208654 -0.0569982 0.0340598 0.00775924
0.0143148 0.0157254 -0.011968 0.0292834 -0.00451826 -0.0369781 -0.00762727 0.0387053 0.0230176 0.0168154 -0.00976293 0.0449636 -0.0767446
0.0079859 0.000110031 -0.0251393 0.0298795 -0.0224616 0.0242306 -0.00648051 0.0445053 -0.010032 0.0176157 -0.0105199 0.0108244 -0.0218172
-0.0341099 0.0307689 -0.0183959 -0.0144477 0.00329932 0.0222482 -0.0155138 0.0104443 -0.029444 0.00488626 -0.0202014 0.00178311 0.0119321
-0.0158355 -0.0159344 0.0201485 -0.0316664 0.0213965 -0.0089138 -0.00555472 0.0402003 -0.0169522 0.0101352 0.0244235 -0.0096051 -0.0100703
-0.0237182 -0.0111603 0.0265964 -0.0341631 -0.0304767 0.0351192 -0.00400773 0.0191365 -0.0202986 -0.0241527 -0.0255744 -0.0227985 0.0167191
-0.0161134 -0.0218958 0.00993325 0.0102765 0.0182682 0.0254371 -0.0438583 0.036436 0.0314626 0.0167242 -0.00708633 0.00794739 0.0198872
0.0265614 -0.0270788 -0.0283481 -0.0198974 0.00900805 -0.0322069 -0.0226096 -0.029418 -0.00258484 -0.0120831 0.00614813 0.0167819 -0.00903748
0.026978 0.00630396 -0.0188911 -0.00136895 0.00874372 -0.0387852 0.0323759 0.0122084 -0.0292412 -0.0304629 -0.0151075 0.0182126 0.000762847
0.135443 0.158161 0.00362749 -0.100645 -0.0301938 0.0698943 -0.0668791 0.281864 0.156934 0.176584 0.0342751 -0.0644656 0.0340942
0.0252254 -0.0039427 -0.0734609 0.0261006 -0.00949705 -0.0143633 -0.0579036 0.104108 0.0480152 0.0287083 -0.0894165 0.00385272 -0.0222552
-0.00677574 -0.0245293 -0.283912 0.0343143 -0.0707589 -0.143189 -0.118459 0.200557 0.0910109 0.0292061 -0.186782 0.15024 -0.16764
-0.0345957 0.0239035 0.0260544 0.0334797 -0.0163462 -0.000956907 -0.0331411 -0.0165162 -0.0170656 0.0235458 -0.010577 0.0381867 -0.016155
0.00642844 -0.00944584 -0.0442634 0.00962511 0.0165773 -0.0356813 -0.0129461 0.0108981 -0.0273617 -0.0132196 -0.0443916 -0.0241237 0.00483272
-0.0234893 0.0252321 0.0120206 -0.0232297 0.010347 -0.0199249 -0.00244287 0.00132054 0.0293873 0.0169861 -0.0221533 0.0328944 -0.0315647
-0.040801 0.058652 -0.195687 0.0197393 -0.114055 -0.108973 -0.0869087 0.18333 0.103954 0.0952221 -0.184002 0.0965594 -0.15947
-0.0357506 -0.0254266 0.00858657 -0.0205923 0.0193644 -0.00586469 0.0281472 0.0279452 -0.0214684 -0.0229596 -0.0108179 0.0258929 -0.0336364
0.0118295 0.0226367 5.72807e-05 -0.0174686 -0.000712805 0.0207334 0.0223228 0.0420625 -0.0258204 -0.00703086 -0.0413951 -0.0264656 0.00610857
-0.00761511 0.00211513 0.0132673 -0.0354785 0.015926 -0.00513073 -0.0215356 0.029932 -0.0104044 -0.0132582 -0.024272 0.00137507 0.0149234
0.0122292 -0.0197985 -0.146295 0.0262521 -0.0437698 -0.0858099 -0.090704 0.134552 0.0369451 0.027974 -0.113514 0.0684294 -0.105327
0.0267645 0.0187423 0.0297833 -0.00809952 -0.000465464 0.0337173 -0.0069048 0.0130059 0.0065514 0.0337882 -0.038045 -0.00776825 0.032439
0.032609 -0.0115417 -0.0150869 0.0293539 0.0171685 -0.00569789 -0.036112 0.0587121 0.0038198 -0.00807162 -0.0201221 -0.00526812 -0.0559232
0.00936733 -0.0010526 -0.0265829 0.0226047 -0.0254152 0.00922508 0.0280772 -0.0337485 0.0188479 0.0368354 -0.0199523 0.0106229 0.0268617
-0.0220789 0.0385252 -0.00136386 -0.0196004 -0.0199568 0.00937038 -0.0357271 0.0206255 -0.0124206 0.0460256 0.00369589 -0.0101454 0.00786482
-0.00442846 -0.0208651 -0.0324193 -0.0215875 0.0272632 -0.0317031 0.0233278 0.0170771 -0.0239347 -0.0139359 -0.0140673 0.0418135 0.00497096
0.032812 -0.000761249 -0.0333534 -0.0118395 -0.0463736 3.15465e-05 -0.0478963 0.0367769 0.00771831 -0.012141 -0.0360667 -0.00419841 -0.0551184
-0.0456396 0.00077595 -0.29749 0.021483 -0.0880464 -0.103139 -0.152722 0.198312 0.0564713 0.0534015 -0.197501 0.121343 -0.231281
-0.0290731 0.0494186 -0.0456112 -0.00215805 -0.014282 -0.00107762 -0.0664557 0.0493399 0.0396098 0.00383166 -0.0252007 0.0473879 -0.030998
-0.000685031 0.0408664 0.0184904 -0.0312026 -0.00191537 0.0121389 -0.0219231 -0.0100519 0.0113538 -0.0177534 -0.0458386 -0.0162572 0.0184888
-0.00641763 -0.0361732 0.00702532 0.0333707 -0.0179767 -0.00704171 0.0298543 0.00299388 -0.0164455 0.0379301 -0.03304 -0.00594119 0.00815217
0.00565103 -0.0208703 -0.0332264 0.00359837 -0.00312231 0.0209379 0.0178956 0.0106464 0.0114621 0.0219425 -0.033703 0.0424876 0.0235065
0.00174605 0.0396623 -0.0136029 -0.0386243 0.00390614 -0.029638 -0.0106825 0.0633078 0.00772091 -0.0132639 0.00913089 0.00406098 -0.0360084
-0.0151566 0.0679324 -0.110061 -0.0757248 -0.121401 0.0163179 -0.10152 0.188045 0.0858953 0.127878 -0.152266 0.0754621 -0.178822
0.01174 -0.00836254 -0.0562812 -0.0389164 0.0202248 -0.00648418 -0.0328241 0.0145631 -0.0228919 -0.0223269 -0.0166936 0.000799209 -0.0226274
-0.0311372 -0.00851504 -0.0462278 0.0274445 -0.000204118 -0.00355454 -0.0212817 -0.00389353 -0.0334791 0.0366142 -0.0253364 -0.0291493 0.027927
-0.0199041 0.0240693 -0.103976 -0.00920719 0.00214205 -0.0165762 -0.032634 0.088448 0.00621471 0.0284973 -0.0865296 0.00311857 -0.0577823
-0.0182641 0.000398017 -0.0745371 0.015122 -0.0555007 -0.00428939 -0.0214422 0.0424545 -0.0150187 -0.0158237 -0.0174376 0.0498056 -0.0643127
-0.00790988 0.0374131 -0.0698884 -0.0158195 -0.092137 -0.0250365 -0.10758 0.135141 0.0997849 0.052254 -0.137145 0.049978 -0.136314
0.0349181 0.0339292 -0.027198 0.0150771 -0.0121515 -0.0282557 0.000175279 -0.00878697 0.0210247 0.0151284 0.0187131 0.0220741 0.0170853
-0.00309172 0.0587555 -0.0564958 -0.0183339 -0.0259478 -0.0286934 -0.106457 0.103759 0.0463603 0.0655578 -0.0670383 0.0733654 -0.128905
-0.025546 0.0289907 -0.00773335 -0.00929951 -0.0183498 0.0227981 0.004653 -0.00550332 -0.00954889 0.0103172 -0.039723 0.0460162 -0.0369027
-0.00218501 0.00960715 -0.0238536 -0.00460038 -0.0493522 -0.0231631 0.00742851 0.0448713 0.000176151 0.0357738 -0.0278131 0.0401776 -0.0451036
-0.0189611 0.0360933 -0.0539937 -0.019501 -0.00724267 0.00205531 -0.02549 0.0002023 0.0466998 0.0308188 -0.0516246 0.00954248 -0.0406003
0.0130278 0.0105967 -0.264847 0.0165014 -0.0856033 -0.0905272 -0.110999 0.18185 0.0359927 0.043805 -0.192673 0.140555 -0.144841
-0.000826511 0.0373062 -0.0229019 -0.00629475 -0.0374239 0.034298 -0.00211904 0.0412493 0.0406257 -0.0209716 -0.0212726 0.0192203 0.00951361
0.0111389 -0.0038282 0.00873306 0.00693009 0.0075903 -0.0354741 0.0269928 0.0307277 -0.0152465 0.0233909 -0.0343388 -0.020921 -0.0339572
-0.026369 0.0163698 -0.0394275 0.0275849 -0.0484002 -0.0369044 0.0220999 0.0336839 0.0258692 -0.00787446 -0.0201113 0.043617 0.00545214
-0.0241725 0.0158761 -0.00525205 -0.0177207 -0.00233526 -0.00742913 -0.0403215 0.0051125 0.00458667 0.00522995 -0.0451515 -0.0303587 -0.0125565
-0.00784001 0.00841012 -0.0553559 0.0243451 -0.0439613 -0.0390184 -0.0281868 0.00440796 -0.0273986 -0.0229138 -0.0382818 0.0492275 -0.0575243
0.00984198 0.0338672 -0.0638738 0.00609799 0.00559401 -0.0210866 -0.0272792 0.0415697 -0.0194702 0.00400781 -0.0454858 -0.008444 -0.0310327
0.0238311 0.00388771 -0.0467494 -0.0183948 -0.0594173 0.0178068 -0.0394155 0.120621 0.05967 0.0251747 -0.0682008 0.00708851 -0.038057
-0.0190387 -0.0175682 -0.00869561 0.00451326 -0.0427364 0.0277255 0.00628005 0.0330747 0.0324133 0.0431828 -0.0369038 -0.00315266 0.0237085
-0.0085975 0.0178818 0.0236357 -0.0123112 -0.0266441 0.0195086 -0.0237264 -0.00895539 0.0343373 -0.0226558 -0.0222395 0.0325351 -0.0457422
0.000648435 0.00041989 -0.0440845 -0.00302157 -0.0222764 -0.0178153 -0.0315904 0.0749962 0.0478912 0.0288533 -0.0171543 -0.0158337 -0.0289081
0.062289 0.0483655 -0.0371331 -0.0662971 -0.0798847 -0.0127024 -0.0601522 0.155544 0.0315434 0.0807563 -0.0590583 -0.007663 -0.097515
-0.0238049 0.000393292 -0.075698 -0.0238796 -0.0416879 -0.017842 -0.0242273 0.0651328 0.00733369 0.0339956 -0.0531469 0.0652865 -0.0851417
-0.00123472 0.0280442 -0.0388394 -0.00105934 -0.00113014 -0.0151581 -0.00185114 -0.0286257 -0.0217814 -0.0241344 0.0196006 -0.0234101 -0.00496632
-0.018912 0.187075 0.0184361 -0.172153 -0.192084 0.172633 -0.238232 0.091955 0.215308 0.203259 -0.159837 -0.0214362 -0.291899
-0.162937 -0.0550739 -0.204977 -0.0395177 -0.347349 -0.072819 -0.303979 0.134193 0.0993206 -0.082797 -0.475533 0.068383 -0.443706
0.00715783 0.017367 -0.00773937 -0.0201525 -0.000670082 -0.0273861 -0.041072 0.0377138 -0.0304527 0.0105649 -0.0391919 -0.0107312 -0.0217446
-0.0236074 0.0506156 -0.159793 0.0105733 -0.0664283 -0.0508921 -0.095387 0.153514 0.0266089 0.00546044 -0.0967337 0.0970583 -0.156881
-0.022375 0.0400343 -0.0286172 0.0312026 -0.0331111 -0.0329993 -0.0379777 0.0044293 0.0269219 -0.0076263 0.00849385 0.00981018 -0.0168835
-0.000566787 0.0445722 -0.0177824 0.0306687 -0.018719 0.00662467 -0.0531778 0.00982745 0.0076857 -0.0230362 -0.0530346 0.0278745 -0.00236752
-0.000151422 0.0258015 0.0123312 0.0319201 -0.0316459 -0.0110334 -0.0158204 0.024198 0.0270913 0.00930636 0.00974343 -0.00806933 -0.00331613
0.00124497 -0.00568572 -0.0400804 0.018631 0.00917099 -0.00479999 -0.0149168 -0.00432093 0.0334943 -0.0072669 0.0270005 0.0187791 -0.000597653
0.0366686 0.025432 -0.0586253 -0.0217822 -0.0165951 0.0218998 -0.0465012 0.00641261 0.02819 0.0167697 -0.0373814 -0.00969554 -0.000903177
-0.0986425 -0.0400374 -0.945029 0.350795 0.0945486 -0.467828 -0.128871 0.365371 0.074048 -0.0757893 -0.548991 0.497881 -0.40848
0.00247205 -0.0179499 -0.0394033 0.007687 -0.0036641 -0.0334361 -0.0244769 0.00882328 0.0203198 0.0255984 0.0145332 0.000840454 -0.0014765
0.0276338 -0.0179803 0.014489 0.023651 -0.03304 0.000280393 -0.0322123 -0.00627084 0.0266614 0.0248018 -0.0229078 -0.0158105 -0.0427876
-0.0278227 -0.0116971 0.0299174 0.0223883 0.0219401 0.010223 0.0263136 -0.00201382 0.00844556 0.0367658 -0.0122635 -0.0100507 0.0121021
0.0158585 0.0346614 0.00676319 0.0333772 -0.00849428 0.00780348 0.00249565 0.00317083 0.027026 0.0233067 -0.00759706 -0.0269842 -0.013725
-0.0102124 0.0177213 0.0115188 -0.00793892 -0.0168042 -0.00309729 -0.0344131 -0.00513023 0.0258117 0.0412677 -0.0292298 0.0259701 -0.0028223
0.00885192 0.0432506 0.00314384 -0.0223381 -0.00427797 -0.0254132 0.00125226 0.0412746 -0.0203613 0.0490009 -0.0327196 0.0191945 -0.0113284
0.00436609 0.0231457 -0.0348857 0.0176937 -0.0465951 -0.012018 -0.0305315 0.101737 0.0219924 0.0526721 -0.0773425 0.0137271 -0.0938551
0.0739259 0.153689 -0.0721036 -0.19041 -0.138635 0.0515333 -0.150813 0.115864 0.108762 0.177355 -0.135667 -0.0147086 -0.222359
0.00336311 0.0296245 -0.0113641 -0.0418561 -0.0045646 0.0097807 -0.0282529 0.0366263 -0.027049 0.0473698 -0.00561464 0.0301691 0.0123931
0.0278967 -0.0215355 -0.0623527 -0.0172547 -0.0442486 0.000366316 0.00888939 0.0154505 0.00995805 -0.00970537 -0.0361911 -0.0135565 -0.000455553
0.0284515 -0.0293537 -0.0309378 0.0290064 -0.024279 0.0126211 -0.018891 0.0522816 0.0129131 0.0229177 -0.006717 0.034437 -0.0438405
-0.0290532 -0.0032436 -0.0632762 0.0160951 -0.0476941 -0.0140773 -0.00620029 0.0777112 0.0166666 0.0494678 -0.0418615 0.0461678 -0.0205828
0.00324247 0.0393389 -0.108783 0.0123093 -0.0755221 -0.0380397 -0.116449 0.114476 0.0360577 0.023684 -0.105767 0.0869224 -0.132182
-0.039989 0.0420277 -0.0139719 -0.0254826 0.0218801 -0.00447802 0.00729904 0.0701666 -0.0068411 0.00605014 -0.0184333 -0.0185659 -0.0017254
-0.0112929 -0.011878 0.0318524 -0.014095 0.0226938 0.0117909 0.00339744 -0.016185 0.00722989 0.0194446 0.00283822 0.00285255 0.0109679
-0.0145866 -0.022307 0.0152906 -0.0194662 0.00630041 0.0115268 -0.00915943 0.0354773 0.00535518 0.00704227 0.0207996 0.0246317 0.0298388
0.00450384 0.0204115 -0.0815429 -0.0195865 -0.0717735 -0.0501131 -0.0319724 0.120312 0.0548747 0.00357169 -0.0959319 0.035769 -0.0572302
0.00466115 0.0292265 -0.0372913 -0.0192532 0.0113907 0.0166799 -0.0145551 -0.0127538 0.0383106 0.000386241 0.0152036 -0.011362 -0.0379837
0.0360717 0.00515611 -0.0267305 -0.0105648 -0.0452451 0.0264871 0.00723209 0.0809445 0.0194626 0.0224816 -0.0109656 -0.0158601 -0.0692236
0.0192023 0.0234851 -0.0610411 -0.0134949 -0.0748903 0.00718872 -0.0454017 0.100183 0.0589239 0.081574 -0.0804294 -0.000727002 -0.0900328
-0.0258027 0.0153784 -0.025851 0.0147486 0.00488197 0.00359109 -0.0269875 0.0335833 0.00582276 0.0141122 -0.0573456 -0.0189991 -0.0184957
-0.00405963 -0.00749924 -0.0811317 0.0247585 -0.0226599 0.00891591 -0.0226425 0.0289095 0.045696 0.0260216 -0.0801724 0.00552694 -0.0162723
-0.03996 0.00837095 0.0111957 -0.0145455 -0.0300385 -0.0112309 -0.0296761 0.0078653 -0.00562334 0.0163954 -0.025344 0.0150175 -0.00284241
-0.0380451 -0.0140707 0.0301407 0.0139514 0.0166022 0.0192447 0.0190854 0.030166 0.002453 0.00122029 -0.0291295 0.00228364 -0.0362144
-0.00115973 0.0383435 -0.0256153 0.0286773 -0.0236125 0.00813321 0.00597498 0.0490581 0.0133992 0.00608777 -0.0164408 0.0035544 0.0125799
0.00975739 0.0135871 -0.000530454 -0.000862228 0.00757255 0.00822886 -0.0384063 0.0315321 0.0321994 0.000371304 0.0071888 0.0141814 -0.0107104
0.00391917 0.0243685 -0.0290978 0.036799 -0.0221571 -0.00373444 -0.0483607 0.0352121 0.0222679 -0.0192302 -0.0308521 0.00422372 -0.0485965
-0.0181895 0.025193 -0.313413 0.0885595 -0.0342311 -0.136759 -0.144888 0.181565 0.107218 0.0114752 -0.239891 0.182995 -0.209345
0.0185226 -0.0151254 -0.0572732 0.012959 -0.0157371 -0.0489625 -0.0158132 0.0296373 0.0191088 -0.000789576 -0.0462114 0.0207811 -0.0406558
-0.0627688 0.0138661 -0.456438 0.142794 -0.0745735 -0.162491 -0.106269 0.251427 0.0943805 -0.0030719 -0.326396 0.195183 -0.265692
-0.0135172 -0.00672442 -0.134213 -0.00817251 -0.0126221 -0.0357086 -0.0456221 0.112839 0.0731163 0.0630828 -0.0633141 0.0307842 -0.110721
-0.00215444 0.0393076 -0.0229774 0.0303773 0.00792617 0.00167143 -0.0419664 -0.0065514 -0.0329079 0.0272673 -0.00888274 -0.00442551 -0.025645
-0.0222189 0.00960226 -0.0611251 0.00657696 -0.0388388 -0.0250948 -0.00747314 0.0563997 -0.00656065 0.0613529 -0.0119782 0.011792 -0.0723231
-0.291239 0.0321725 -0.175297 -0.200983 -0.687102 -0.0620903 -0.556213 0.162342 0.137183 -0.0986128 -0.813267 0.0454704 -0.756744
-0.0303144 0.014569 -0.0223736 -0.0259216 0.0316512 -0.027774 0.00408299 0.0165928 0.038294 0.0305187 -0.0167694 0.00080717 -0.0343024
-0.0342458 -0.0218102 -0.0367516 -0.00671334 0.00481245 -0.0236652 -0.0257584 0.0327963 -0.00772532 -0.00911863 0.019583 -0.00449143 -0.024106
0.0284672 0.0127371 -0.0136616 0.0211396 0.00458432 -0.00680955 -0.0267414 0.0432419 -0.00492676 0.0458786 -0.0117121 0.0480713 -0.040688
-0.0383075 0.00388289 0.016839 -0.00186042 0.0351715 0.0266838 -0.00848441 -0.00240162 0.0146733 0.0320452 0.0196069 0.0327076 -0.0274376
-0.0144582 -5.98293e-05 -0.0384091 -0.023633 -0.00361196 0.0107501 -0.0646081 0.0379531 0.0047925 0.00171158 -0.0674614 0.0395209 -0.0962431
-0.0239273 0.027205 -0.0244568 -0.0331976 0.00504984 -0.0279304 0.000127456 0.0183444 0.0360706 0.0401087 0.0190843 0.00268458 -0.0378073
-0.0226078 -0.0249899 -0.0206371 -0.0202153 0.000289558 0.0226668 -0.0228174 0.044594 0.0320198 0.0307744 0.000677671 0.0258722 -0.00136368
0.000947515 -0.0201405 -0.0379397 0.029834 -0.0344125 -0.00761743 -0.0503987 0.0369081 0.0517401 0.0262836 -0.0202207 0.0353968 -0.0693929
-0.00526543 0.0143446 -0.132771 0.0381871 -0.0757847 -0.0507967 -0.07935 0.122773 0.0312732 0.00790562 -0.122089 0.0326793 -0.0749465
0.0209666 -0.0130516 0.0282772 0.0196349 -0.0172504 -0.0159491 0.0207832 0.0296932 -0.0131614 0.00987248 -0.0355403 -0.0243477 -0.00769369
-0.0142088 0.024904 0.00502047 -0.0251353 -0.0335046 0.0117889 0.00592094 0.0460416 -0.000129041 0.0249668 -0.00424041 0.00399826 -0.037437
-0.0183888 -0.0244835 -0.027829 -0.0305404 -0.011001 0.0210217 -0.0461086 0.0304179 0.0211942 0.0170998 0.00533483 0.0447443 0.0246626
0.00972921 0.0269353 -0.0486611 -0.0356527 -0.005571 -0.0230456 -0.0325741 0.00646591 -0.0310322 -0.00745008 -0.0323375 -0.0310133 -0.0324131
0.00418703 -0.00146564 -0.0207229 -0.0112685 0.00505558 -0.000336733 0.00321975 -0.0285313 -0.0261496 0.0360409 -0.0053824 -0.00468218 0.0349074
-0.0265519 0.0404398 -0.33413 0.0465491 -0.0257822 -0.165746 -0.0931143 0.225986 0.0411534 0.0149279 -0.266387 0.194366 -0.220271
-0.208347 -0.0221557 -0.2941 -0.00271141 -0.403131 -0.0870334 -0.41067 0.156253 0.061487 -0.142456 -0.586718 0.127451 -0.455526
0.0273777 -0.0136442 -0.0881032 -0.0261861 -0.00565488 -0.0068975 -0.028555 0.0840788 0.0151873 0.0163147 -0.0743192 -0.0105058 -0.0500395
-0.144845 -0.0597288 -0.931695 0.335487 -0.05604 -0.474115 -0.171899 0.327354 0.0112526 -0.0760293 -0.531106 0.414812 -0.527202
0.0180627 0.0289427 -0.0386564 -0.00608231 -0.0377115 0.0190127 -0.0415588 0.0593611 0.0480251 0.0208145 0.0202258 0.000167753 -0.0446008
-7.62053e-05 0.0332566 -0.0564154 0.00253852 -0.0149381 -0.0511001 -0.0146463 0.0462292 0.0604961 -0.0174717 -0.00680578 0.0475517 -0.0133346
0.0292708 0.0366251 -0.0515635 0.0352224 -3.64428e-05 -0.00751349 -0.0303246 0.0569916 0.0291348 0.00147589 0.000390067 -0.00660316 -0.0508366
0.00727373 -0.0128259 -0.00701243 -0.00629514 -0.000348684 0.0249115 0.0215771 0.0169841 0.0092585 -0.00979331 -0.0473213 -0.00540764 0.0192943
-0.03225 -0.0242346 -0.0558764 0.00819257 0.00218272 0.0192692 -0.0445091 0.0750287 -0.0212853 0.0238551 -0.00131563 0.00442305 -0.0293714
-0.0150109 0.0408832 0.00684348 -0.033949 0.0037914 0.0049308 0.00654857 0.0466875 -0.00889734 -0.00594497 -0.0338557 0.00397234 0.0184801
-0.0370094 -0.0215169 0.0215727 0.0211517 0.00546161 -0.00686105 -0.0296337 0.0415117 0.0394869 0.00452308 -0.0128592 -0.0203949 -0.0350962
0.00583083 0.00531624 -0.01727 0.0209385 -0.0119793 0.0117567 -0.0660643 0.0714224 0.0253528 0.012151 -0.0261668 0.0527428 -0.0631181
0.0161348 -0.0303843 -0.015764 -0.0105909 -0.0164377 -0.0219719 0.0139422 0.0373613 0.0207764 -0.00818138 -0.00492068 0.0105008 -0.00730318
-0.00956311 -0.0276592 -0.00492675 0.0219281 -0.00430092 -0.00802922 -0.0213468 -0.0138686 0.019095 -0.00190822 0.00462523 0.0383104 0.00933663
0.00690818 -0.00634143 -0.0395838 -0.0325015 -0.0526637 -0.00647607 -0.0311171 0.000311633 0.000236932 -0.0132048 -0.0196619 0.00648408 -0.037331
-0.0337875 0.0379799 -0.0533027 -0.00950711 0.028708 -0.0132924 0.0171516 0.0372855 0.00358605 0.0258716 -0.0139009 -0.00841499 -0.00683897
-0.0283224 0.0063191 -0.0377667 -0.0199727 -0.0322352 0.0133101 0.0332704 -0.0328268 -0.0218974 -0.0311524 0.0348061 0.00293392 -0.0131647
-0.0191036 -0.0267234 -0.016376 0.00561758 -0.0347146 -0.00894723 -0.0254902 0.0520139 0.0142851 -0.000556493 -0.0044131 0.00597151 -0.0504187
0.479043 0.941432 0.482964 -0.516985 -0.35064 0.380709 -0.623736 0.579716 0.0846867 0.751179 0.0177191 -0.472889 -0.110381
-0.0213447 0.0499316 -0.143374 0.0116123 -0.091385 -0.0239607 -0.101755 0.145099 0.0257085 0.0623697 -0.0820537 0.0644069 -0.107931
-0.034092 0.0216576 0.00634216 0.0198088 0.00501762 0.00935925 0.0185146 0.037397 0.0305108 -0.0282244 -0.021426 -0.0221296 0.00326428
0.0258048 -0.000517852 -0.0298065 0.024436 0.00779465 -0.00797605 -0.0418201 0.00448528 0.0234106 -0.00249694 -0.0446578 -0.012176 -0.000915093
-0.0134212 0.00921488 -0.00489083 -0.0122839 -0.00250726 0.0240256 -0.0657461 0.0366549 0.0546525 0.0320621 -0.0454593 0.0153192 -0.0328487
-0.0140139 0.0610038 -0.0185 -0.0186225 -0.0358411 -0.0137875 -0.0516944 0.0994026 0.0169548 0.0683468 -0.0477354 -0.0159569 -0.0412994
-0.00404808 0.0102421 -0.0580284 -0.0146538 -0.0177725 0.0120697 -0.00706106 0.059655 0.0376428 0.034247 -0.00560609 0.0441059 -0.0245003
-0.0198239 -0.00249243 -0.0546317 -0.0153338 0.0110087 -0.0255358 -0.0389038 0.0188005 0.0198395 0.0457339 -0.039413 0.0374127 -0.0229042
0.0347713 0.0100003 0.00586571 -0.0169376 0.0286326 0.00732535 -0.0169617 -0.0145387 0.0391307 -0.0315819 -0.0384293 0.0230455 -0.0409234
0.0311856 -0.0150386 -0.0938876 0.0410555 0.000633018 -0.0120233 -0.071799 0.0729115 0.0122969 0.0278101 -0.0568859 0.0313851 -0.0642427
-0.111773 -0.0713977 -0.663796 0.228232 -0.00219191 -0.355816 -0.151871 0.309545 0.0565907 -0.0768729 -0.43948 0.345284 -0.310076
-0.00610929 0.0232281 -0.0138833 -0.00313748 0.0287439 0.0177646 -0.0429826 0.0119565 -0.0179515 -0.00573366 0.0261207 0.0148482 -0.0374322
-0.0820477 0.0422633 -0.130381 -0.114529 -0.252454 -0.01816 -0.242598 0.102114 0.0745631 0.0369753 -0.316253 0.0532454 -0.423097
0.032944 -0.0197673 -0.0394071 -0.0355094 0.00965312 0.0333027 -0.0181781 -0.0027224 0.0174927 0.0369975 0.0207521 0.0131236 -0.0421701
0.0210162 -0.0147076 -0.0733021 0.000342784 -0.0263012 -0.0434896 -0.0113688 0.081202 0.0578586 0.0267696 -0.0395422 0.0497829 -0.0873079
-0.00667151 0.0353701 0.0228256 -0.0113322 -0.000343195 -0.0179142 0.0227656 -0.00495037 0.00513843 0.0312804 -0.0453164 0.018568 0.0141183
0.0126509 -0.0037362 -0.0771944 -0.000597068 -0.0232452 0.0194892 0.00264556 0.0535394 -0.00157469 -0.0141433 -0.0431214 0.032126 -0.0569759
0.0104583 -0.0156125 -0.0238127 -0.022001 0.0136058 -0.0491296 -0.0526991 0.0684958 -0.021808 0.0233998 -0.00410133 0.0466839 -0.032408
0.0170672 -0.0181369 -0.0206244 0.0263668 -0.0502643 0.00495471 -0.0453019 0.0472439 0.0110901 0.0304552 -0.00729689 -0.00567803 -0.0753184
0.0347134 0.0014791 -0.0168174 0.0381916 -0.0465592 0.0252842 -0.00474228 0.0385067 -0.022071 -0.00552849 -0.0155729 -0.00997421 -0.025178
0.0202963 0.0327816 -0.123493 -0.0764029 -0.0625902 -0.00563521 -0.0813031 0.196932 0.0877656 0.0580111 -0.0916713 0.0559559 -0.15344
0.024494 0.0346649 -0.0949614 -0.0261196 -0.0150892 -0.0337218 -0.0818064 0.0794444 0.077792 0.0431038 -0.0949206 0.0276318 -0.101426
0.0380369 -0.0310582 -0.0286282 -0.00977334 -0.00677445 0.0105459 0.00319447 0.0424982 -0.00953177 -0.00880483 -0.0301465 0.00713414 -0.0416304
0.0254733 0.0440081 -0.0575064 0.0370373 -0.0167257 -0.0305805 -0.0559749 0.0677756 -0.0149703 -0.00981294 -0.0264045 0.0322577 -0.0566329
0.0150295 -0.0191679 -0.0302501 0.000163908 0.0132456 -0.00816809 0.00504543 0.00162044 -0.0176661 -0.0234084 -0.0197893 -0.0305951 -0.0364171
0.0251428 -0.00919664 -0.0313052 0.00287668 0.00622489 -0.0330077 -0.0240465 -0.0133845 0.0381011 0.0447071 -0.050709 -0.0286197 -0.036078
-0.0304541 -0.00434843 -0.112345 -0.0380043 -0.0173653 -0.00848654 -0.0852141 0.112792 0.0206221 0.0124612 -0.0469309 0.055837 -0.046808
0.0371364 -0.0333571 -0.040991 -0.0144429 -0.024225 -0.0290991 0.00977044 0.0363352 0.0219336 -0.0270737 -0.0477467 0.0266287 -0.0070459
-0.0160829 0.0364776 -0.0971488 0.0209881 -0.0479274 0.0148198 -0.0283039 0.135724 0.0364416 0.0112891 -0.0974576 0.0500593 -0.0968681
-0.0185752 0.0594407 -0.0997625 -0.0265656 -0.0266005 -0.0155462 -0.0481357 0.0933409 0.0355962 0.0428687 -0.0546009 0.0495764 -0.101294
-0.0113768 -0.0209396 -0.0493173 -0.0159408 -0.0318014 -0.0232839 -0.0304317 0.0565116 0.0621476 0.0292766 -0.033975 0.0191775 -0.0229741
-0.0343207 0.0114486 -0.00660017 -0.00452544 -0.0321428 -0.0140231 -0.0210853 -0.0275764 0.0380738 0.038976 -0.00933672 -0.0210736 0.0126959
-0.0268108 -0.0210758 -0.0471474 0.019938 -0.0392554 0.0285547 -0.0468635 0.0443546 -0.0278782 0.0137891 -0.0454556 -0.0259596 0.00715557
-0.112463 0.779666 0.701393 -0.500144 -0.579417 1.17499 -0.705538 0.350971 0.4113 0.756654 -0.402476 -0.190285 -0.469173
0.00398268 0.0115205 -0.272032 0.0265149 -0.0526991 -0.142829 -0.0990616 0.216124 0.0768692 0.0220855 -0.239186 0.122155 -0.249062
-0.0216415 0.0184878 -0.0413852 0.0269689 -0.0327462 -0.0401619 -0.0122546 0.0571767 0.024537 -0.0270767 0.0179435 0.000833159 -0.0273901
0.0358285 0.00522854 -0.0182309 0.0225313 -0.0254512 -0.0248607 -0.0107599 -0.0250831 0.000334386 0.0340522 -0.0213751 -0.0250441 -0.0150016
0.00245094 -0.00308517 -0.0287018 0.00195984 -0.0120615 -0.0016124 -0.0479079 0.0624188 0.0437073 0.0135464 -0.0174793 0.0198891 -0.062248
0.0350831 -0.0174337 0.016943 0.0114144 -0.0134863 -0.0067219 0.0215679 -0.001184 -0.0016441 0.0334395 0.0070838 0.0370605 -0.0407865
-0.00804335 0.0393285 -0.0965405 -0.00325696 -0.0713547 -0.0295574 -0.0436321 0.0816034 0.0810773 0.0737347 -0.0443675 0.056178 -0.0899909
0.0100741 0.0330203 -0.0255253 -0.0357998 -0.0112508 -0.00593577 -0.0277752 0.0263312 -0.00705757 -0.000851802 -0.0296827 -0.0157486 -0.0434268
-0.0165693 -0.0276198 0.0192203 0.0138854 -0.0251138 0.0286134 -0.0106183 -0.00373173 -0.0150137 0.00109045 -0.00370756 0.0194576 -0.0072687
-0.0153034 0.0206199 -0.127239 0.0508332 -0.0611314 -0.0173247 -0.0551957 0.152088 0.0291789 0.0280314 -0.147186 0.0974831 -0.153313
-0.0418599 0.0231435 -0.0647152 -0.0105828 -0.0518453 -0.021061 -0.073391 0.0640615 0.0204821 0.0285263 -0.0386519 0.00930271 -0.0756611
0.00385277 0.0365973 0.0275233 0.00656525 -0.0226091 0.000341665 -0.0226821 0.0369259 0.032929 -0.0247502 -0.0392603 -0.0163335 -0.032166
-0.0953507 -0.0259718 -0.203202 0.0341173 -0.198571 -0.0893976 -0.246549 0.171522 0.0896459 -0.0172741 -0.339196 0.0650759 -0.323682
0.0370408 0.0558771 -0.0800986 -0.0167376 -0.021304 -0.0220313 -0.0484041 0.0612783 0.0404352 0.0492811 -0.0345698 0.0431739 -0.0848392
0.0237733 0.0332505 -0.0683139 -0.0246865 -0.0526045 -0.0087503 -0.0380556 0.0439771 0.0293173 0.00986728 -0.0410764 0.075401 -0.0513682
-0.0258281 -0.02361 -0.0137268 0.0355494 -0.0241959 -0.0251731 -0.0382482 0.0113193 -0.030032 0.0222484 0.0262214 0.0213367 0.0100915
-0.0132339 0.0198488 -0.0959592 -0.0192389 -0.0321585 -0.0729337 -0.104722 0.140853 0.0753857 0.048557 -0.0813296 0.0469832 -0.121196
-0.0148146 0.0385521 -0.037269 -0.0382029 -0.0225223 -0.0147755 -0.0115401 -0.0079753 0.0104163 -0.0313477 -0.00755175 -0.0145502 0.0331945
-0.0396372 -0.00831039 -0.0411757 -0.00213581 -0.0074144 -0.0243477 -0.0177109 0.00523548 0.0234224 0.0220034 0.0170331 0.0356574 -0.015969
0.016589 0.0355505 -0.0545455 0.0275569 -0.0298865 0.00938628 0.0196827 0.00508851 0.0350845 -0.0166896 -0.0517769 0.0347637 0.0194984
-0.0188594 -0.00351663 -0.015259 -0.0240236 -0.0145219 0.0312939 -0.0377436 0.0358883 0.0262387 -0.00201773 -0.0247547 -0.00434482 -0.0432982
-0.020949 -0.030826 0.0181673 -0.0344692 -0.00448405 -0.020961 -0.00325791 -0.0296202 0.00464919 -0.0299693 -0.0112212 -0.00289248 0.017042
-0.00257198 0.0277716 -0.21115 0.0258777 -0.0751934 -0.0689549 -0.0748853 0.174815 0.0886697 0.00934193 -0.114505 0.0783863 -0.153614
