4413 13 66
0.899702 -0.574954 0.866936 -0.167072 0.0585854 0.441474 0.749692 -0.880863 1.37722 0.00596459 -0.29156 -0.134069 0.413369
0.0700108 -0.0891654 0.0176814 -0.0270432 0.0494732 0.022704 0.0865753 -0.0287871 0.0995952 -0.0148595 0.00475017 -0.0389169 0.0357846
-0.0167827 0.0275903 0.0137058 0.0256354 -0.012155 -0.0257051 -9.09184e-05 -0.00260285 0.0447269 -0.0414166 -0.0296824 -0.0270507 -0.0165083
0.0660609 -0.0589888 -0.00566123 -0.0473075 0.045582 0.0178669 -0.00921286 -0.0269565 0.0338193 -0.025093 -0.035094 -0.000771579 -0.00939625
0.0409706 -0.0329941 -0.0221879 -0.01104 -0.027979 -0.0205008 -0.00154099 -0.0119558 -0.0185616 -0.0347326 -0.0404074 0.0102883 -0.0208448
0.023749 -0.0426336 -0.0350636 -0.0409417 0.0336619 0.0205699 0.00854856 -0.0321795 0.0588008 0.0125325 0.0168869 -0.0172414 0.00141375
0.0411093 -0.0744022 0.0276442 -0.0225589 -0.0202571 0.0234626 0.00304631 -0.0113899 0.117484 -0.0508301 0.0148546 -0.0179772 0.0722667
0.0105385 -0.0222472 0.0360464 -0.00253401 0.00395417 0.0373268 0.00193251 -0.032167 0.0241957 0.0132894 -0.040402 0.00499375 0.0169974
0.103396 -0.104461 0.00806067 -0.0367335 0.0798932 0.0601934 0.0528302 -0.0736327 0.148364 -0.0615699 -0.0451715 -0.0125769 0.0977572
0.139457 -0.0874778 0.0276816 -0.079495 0.0398214 0.0577386 0.0715423 -0.0680857 0.153056 -0.0376105 0.0118299 0.0145528 0.0726009
0.039702 -0.0305929 0.00667781 -0.0251503 0.0528974 0.0385892 0.0522844 0.0128171 0.069893 -0.0438466 0.0227953 -0.0222119 0.0187339
0.00641423 0.00364993 -0.0514636 -0.0433507 -0.0244041 0.0478765 0.0472206 -0.0151674 0.0349927 -0.0386463 0.0152356 0.0355252 -0.00416267
0.110543 -0.0958118 0.0104098 -0.0983468 0.0707074 0.0832951 0.0826256 -0.0778869 0.132593 -0.0671398 -0.0435832 0.032664 0.058281
0.00777639 -0.0383997 -0.000103863 0.0144457 0.00310788 0.0155577 0.00654724 0.00101346 0.00133562 0.00837021 -0.0196509 -0.00544812 -0.02751
0.28078 -0.13384 0.128231 -0.10064 0.0171362 0.0660999 0.147257 -0.219042 0.386707 -0.0502071 -0.0264418 -0.0169893 0.129522
0.122508 -0.0720472 0.0051858 -0.0659626 0.0650072 0.0701846 0.0451258 -0.0677571 0.117158 -0.021224 -0.0328332 0.0324163 0.0770039
0.011016 -0.00615326 0.0136576 -0.0141542 0.0107243 0.0161897 0.0192326 -0.0243176 0.0529709 -0.0409255 -0.00167925 0.0125819 -0.01324
0.164067 -0.13013 0.00875063 -0.058617 0.0425291 0.0678751 0.0916159 -0.102475 0.220843 -0.0954773 -0.0349351 0.00291661 0.071
0.00338808 -0.0169723 0.023619 0.0359833 0.0258358 -0.0357036 -0.0197729 0.00591336 0.0171555 0.0339789 -0.0321798 0.0075062 0.0158613
0.062795 -0.055092 -0.0556191 -0.0428671 0.0244481 0.0502098 0.0666159 0.0139156 0.105621 -0.0277622 0.0142959 -0.00533177 0.0324596
-0.0076374 -0.0454254 0.0268434 0.015404 -0.0148367 -0.00261097 0.0306655 -0.0356164 0.0156019 0.00783508 -0.000365833 0.0111557 0.0408955
0.0346628 -0.076534 -0.0954049 -0.123179 0.112829 0.186082 0.14607 0.0804257 0.120491 -0.0926884 0.0662866 -0.0449357 0.0406095
0.00202938 -0.0459199 -0.0233461 -0.00091386 0.0178621 0.0156044 -0.0203094 -0.000409439 0.0269695 -0.0274976 0.00992481 -0.0120452 0.0506795
0.128659 -0.0848588 -0.0114421 -0.106581 0.0679011 0.0616548 0.0272751 -0.0882219 0.197556 -0.0610098 -0.0128658 -0.0102828 0.0454676
0.0313324 -0.0459151 0.00889731 -0.0342551 -0.0319763 0.0115515 -0.00549274 0.0217309 0.0180847 0.0172236 -0.0329933 -0.0241625 0.0276077
0.0231962 -0.0274253 -0.0146929 -0.00853173 0.0272512 -0.0146508 0.0199364 -0.0290309 0.0291141 0.0204187 -0.0104297 -0.00463688 0.0222575
0.0502227 -0.0590236 -0.00891912 -0.12377 0.0322043 0.105265 0.0658346 0.02701 0.131608 -0.0503117 -0.0367812 -0.00508923 0.0431335
0.0487882 -0.0844476 -0.00999409 -0.0915355 0.0727505 0.084459 0.0873807 0.0177189 0.11884 -0.0561885 0.0144325 0.0261812 0.0779787
0.0218916 -0.0539393 -0.0393878 -0.0123871 0.0211436 -0.00480545 -0.0161629 0.0109903 0.0368628 -0.0252051 0.0306673 0.0276743 0.0170387
0.0544883 -0.0682755 -0.0141603 -0.0395265 0.00949092 0.0484932 0.0658292 0.0076628 0.15482 -0.0308771 0.0238442 0.0155046 0.0134982
-0.00778921 -0.0436565 -0.0143985 0.00625825 0.0422982 0.00996848 -0.0120753 0.00469266 0.0499352 -0.0210016 -0.038895 -0.0230169 -0.00621411
0.0460605 -0.0277247 -0.0462982 -0.00204554 0.00797467 0.0408554 0.0140564 0.036498 0.033585 -0.000749171 0.0011415 0.0211105 0.0297409
0.0916122 -0.0446878 -0.0107334 -0.0626444 0.0363088 0.0682773 0.0435314 -0.0242892 0.0583501 -0.0383292 -0.0456136 0.0107611 0.0622582
0.0659515 -0.000938254 -0.045985 -0.0843189 0.0185684 0.0302002 0.00834774 -0.0111926 0.10589 -0.00448942 0.00442438 -0.0198846 0.0696036
0.0175303 -0.0485601 -0.0259482 -0.0459661 0.0594567 0.0255221 0.0501933 0.0117058 0.0725749 -0.0574842 0.0279339 -0.00907951 0.051396
-1.09711 -0.0422296 -1.95066 -1.1739 1.31772 3.4155 0.817419 2.15814 0.0701172 0.570323 0.0868385 -1.17937 -0.0443836
0.0439806 -0.0323438 0.0207455 -0.0219788 0.0285157 0.0105677 0.0140248 -0.0164623 0.0452138 -0.0124042 -0.0158328 0.00890898 0.0097439
0.112452 -0.0819956 0.00648344 -0.0648202 0.0507375 0.064262 0.0404964 -0.00468768 0.0700202 -0.00738885 -0.0119416 -0.0062237 0.0188636
-0.0301771 -0.00839401 -0.00965734 0.0260671 0.00724275 -0.0169748 -0.0219321 0.00951607 -0.016302 0.0177154 -0.0212544 -0.0270131 -0.0285294
0.0369827 0.0014996 -0.013381 -0.0492466 0.0311572 -0.00622558 0.0470862 -0.00786819 -0.00648444 -0.0402333 -0.0260733 -0.0219852 -0.00305433
0.257983 -0.168105 0.115752 -0.082397 0.0704435 0.138015 0.133338 -0.187387 0.369674 -0.115797 -0.0348575 0.0153313 0.140135
0.0373038 0.00347794 0.0430392 -0.00466238 0.0282998 -0.0128928 0.0416761 -0.0257008 0.00428884 -0.0445963 0.026089 -0.00611622 -0.00623167
-0.0246091 0.00790233 -0.0184722 -0.00977236 0.0134288 -0.0239588 -0.0277609 0.0234793 0.050592 -0.0187153 -0.0194615 -0.0102376 0.0217881
0.196675 -0.136149 0.103704 -0.122641 0.0374317 0.0721088 0.0977415 -0.145704 0.287418 -0.0364541 -0.0414644 0.0106464 0.0920918
-0.00665905 0.00333816 0.0260715 0.0137661 0.0234496 -0.0245067 0.021021 0.00341102 0.0498215 -0.0279151 0.0371444 -0.00785581 -0.0122413
0.0514202 0.00349532 -0.0102744 0.0160542 0.0411499 -0.000395691 -0.0122844 -0.0386362 0.0192705 -0.0419464 0.0258557 -0.0141075 0.0312436
0.0414762 -0.0304842 0.00371895 -0.0380841 0.0316945 0.0232618 -0.0112774 -0.00894299 0.0743372 -0.00720845 0.0215757 -0.011876 -0.00903833
0.0518628 0.0110781 0.0214419 -0.014428 0.00724039 -0.00502322 -0.0128507 0.0136282 0.0609118 0.00818101 -0.0325649 0.0280095 0.00978768
0.123075 -0.0395132 -0.0606811 -0.0885179 0.0384047 0.0806092 0.0981301 -0.0357578 0.13905 -0.057374 0.0109646 -0.0339798 0.0731467
0.0435154 -0.0771237 -0.00977375 -0.083241 0.0160233 0.0461781 0.0584041 -0.0280827 0.11323 -0.0323282 -0.0156193 -0.0248468 0.0246111
0.0428672 -0.0120154 -0.00280877 -0.0454072 0.0225312 0.012724 0.0465625 -0.0415044 0.0639173 0.0178392 0.00251267 0.00866571 0.00436452
0.09131 -0.0771977 -0.0137245 -0.0786037 0.0206777 0.0608347 0.0632345 0.0199187 0.107238 -0.0643538 0.0155495 0.0260548 0.0191471
0.0423612 -0.034647 0.010936 -0.00549673 0.0364682 0.0328264 -0.0175148 0.0189452 0.0223758 0.0241934 0.00557931 0.0207193 0.0441337
0.0342072 0.0219495 0.0029402 -0.00746457 -0.0266085 -0.0372365 -0.0347984 -0.0315002 0.0225126 -0.00122486 0.0112316 0.023862 -0.0144926
0.0521296 0.0104874 0.0239348 -0.014331 0.0385127 0.0491648 -0.00300209 0.0196156 0.0293606 -0.00605557 0.0249286 0.00049599 0.0139049
0.141358 -0.0443511 0.0211335 -0.0453199 0.0426655 0.0462114 0.0330732 -0.0148838 0.185215 -0.0434581 -0.0117227 -0.0389726 0.0980605
0.012027 -0.00572483 -0.00277984 -0.024895 0.0418105 0.040239 0.0195201 -0.0331246 0.0467744 -0.0219348 -0.0251282 -0.00573974 0.0409445
0.110993 -0.0451292 0.0170929 -0.0424355 0.0638297 0.0413756 0.00576143 0.0107579 0.115859 -0.0597619 0.0229414 -0.0247264 0.0249689
0.198359 -0.141059 0.0469924 -0.1235 0.0506399 0.114986 0.129253 -0.0816762 0.298752 -0.0588025 -0.0361346 0.0128276 0.0800553
-0.000961105 -0.0248413 0.0192815 -0.0100555 0.0220402 0.0320079 0.0293486 -0.0069151 -0.0104359 0.0229065 0.0213251 0.0207792 0.0117887
0.17101 -0.145006 -0.054094 -0.140862 0.0939521 0.0582172 0.143789 -0.0322586 0.285524 -0.113477 0.0665619 -0.0194662 0.13995
0.0692184 -0.037846 0.00273404 -0.0260859 0.0556395 0.0282951 0.0247876 -0.00664301 0.0754549 -0.0526832 -0.022034 -0.0205261 0.0529976
-0.0177354 -0.0435241 -0.00481267 -0.0224116 0.0361647 -0.0187929 0.0419719 -0.00418548 0.0100232 0.00888133 -0.0311606 -0.00707157 0.0250924
0.00232096 -0.0181478 -0.0153122 -0.0461783 -0.00831035 0.0348999 -0.00244335 -0.0430405 0.0148655 -0.0497843 0.0266385 0.0175264 0.0350451
0.134815 -0.0615209 -0.0100857 -0.0817295 0.0186147 0.0630666 0.0925281 -0.0570403 0.178373 -0.0738124 -0.0490402 -0.0145611 0.0729714
-0.020579 -0.0175901 -0.0343007 0.0265026 -0.0164526 0.0257469 -0.0239866 -0.0323714 -0.0149442 -0.0172822 -0.0199047 0.0329333 -0.0309565
0.0668114 -0.0209112 -0.0583141 -0.100568 0.0356916 0.061441 0.0800974 0.029344 0.0939508 -0.0148484 0.0347782 -0.015882 0.0771919
-0.0128172 -0.0406603 -0.000853332 -0.0441545 -0.00498898 -0.019354 -0.0120398 -0.0266168 0.0325996 0.0230307 0.0174628 0.0394929 -0.00395095
-0.670724 0.295243 -1.09433 -1.8376 0.867184 0.588814 0.108698 1.65653 0.206761 -0.681056 0.516085 -1.53184 -0.175253
1.35913 -0.764602 -1.99976 -1.07211 0.850826 0.366117 0.0318977 0.419791 1.14987 -1.23444 0.371173 0.938545 0.873163
0.0623383 -0.0388527 -0.0279922 -0.0233732 -0.000668231 0.0106214 0.0216395 0.0312839 0.0364993 -0.00495725 -0.0222721 0.016104 0.0166225
0.0853231 -0.0465886 -0.0652953 -0.116824 0.0374679 0.0785942 0.0519652 0.032817 0.150296 -0.0756338 -0.0198683 0.0196305 0.0890978
0.0506896 -0.00967939 -0.0236522 -0.0530987 0.0112392 0.0723216 0.0856553 6.71732e-05 0.0934543 -0.0623906 -0.00975645 -0.0482559 0.0324998
-0.00711036 0.0245639 -0.0408536 -0.031739 0.0243229 -0.00532732 0.0281784 0.0179887 0.0128461 0.0208213 0.0233197 -0.0314296 -0.000522282
0.0102601 -0.0386134 -0.0196954 -0.0530597 -0.0214041 0.0115116 0.0247851 -0.0315381 0.0405505 -0.0130452 0.00529419 -0.0266868 -0.0109286
0.0424841 -0.0653409 0.00428042 -0.00676891 0.00431491 0.0631192 0.0392402 -0.0532764 0.0788948 -0.0534433 0.0129423 -0.0378902 -0.00375636
0.738712 -0.384932 0.521997 -0.184116 0.0252263 0.168902 0.394904 -0.669879 0.943318 -0.0833184 -0.187454 -0.0364913 0.298648
0.00590436 0.00130958 0.0242567 -0.0339245 0.0332 0.0222684 0.0384591 -0.00842498 0.0294917 -0.0382145 -0.0131179 -0.0220337 0.00802279
0.0091141 0.0329292 -0.0226161 0.0272294 -0.00929012 -0.0288989 -0.0301747 0.012265 -0.014695 0.0280214 0.0066104 0.0181094 0.0273915
0.02042 -0.039327 0.00779838 -0.00896416 0.0164814 0.0169384 0.0387716 -0.027951 0.0584381 0.00825975 -0.0237001 -0.0264881 0.02109
0.0845203 -0.0512522 -0.0244659 -0.0731363 0.0135333 0.0580173 0.0937607 -0.0527906 0.139783 -0.00550917 0.0258155 -0.00908728 0.025089
0.275591 -0.126594 0.0715438 -0.0651213 0.045001 0.0946349 0.0884304 -0.174535 0.316376 -0.117122 -0.0202463 -0.0160049 0.154072
0.0347197 -0.00740491 0.0226819 -0.0406581 0.0181249 -0.0101992 0.0383891 0.013695 0.0870381 -0.0124571 -0.0251919 -0.019208 0.0533861
0.0606519 -0.0631239 -0.065048 -0.0544049 0.042157 0.0800385 0.0885756 -0.04466 0.0997999 -0.0711443 0.0141957 0.0126896 0.0668333
0.0937455 -0.0997076 -0.0610196 -0.105455 0.0149923 0.0500236 0.0257479 -0.00285207 0.124281 -0.0765596 -0.0278503 -0.037228 0.0573061
0.00689188 -0.00331646 -0.0173132 -0.00420272 0.010673 0.0284775 0.0430961 -0.0208928 0.0438198 -0.0470849 -0.0256051 0.0343623 -0.0114957
0.155825 -0.137374 0.0438807 -0.0980722 0.0419489 0.0732247 0.0687041 -0.134426 0.263308 -0.110452 -0.0367312 0.025775 0.102882
0.00167317 -0.0460018 -0.00614953 -0.0374967 -0.0134302 0.0464722 0.0554289 -0.0316051 0.0900998 0.019497 0.000716764 0.0298552 0.0339162
0.0382728 -0.0475393 -0.0112205 0.000360161 0.00735547 0.0237788 -0.0307183 -0.0423911 0.0235813 0.0295229 0.00174433 -0.00510895 -0.011807
0.0377952 0.0235894 -0.0185555 -0.0365231 0.0343974 0.0450748 0.0451524 0.00421907 0.0224979 0.0237523 -0.0186383 -0.00667855 0.0397775
0.0290806 -0.00687398 -0.0227798 0.00573787 -0.0170838 0.0400365 0.0332005 0.000770331 0.0130952 -0.00707845 -0.0270385 0.00185964 0.0387121
0.22595 -0.162764 0.0611506 -0.104164 0.038869 0.125594 0.120201 -0.116743 0.254588 -0.0949436 -0.0446809 -0.0329513 0.11912
-0.00257643 -0.0141717 -0.00453114 0.0166711 0.0224542 -0.00557797 0.0380904 -0.0298745 -0.0169526 0.018391 0.0322508 -0.0306226 0.0308457
0.0390761 -0.0418096 0.0270455 -0.0515981 0.0419272 0.0261591 -0.00222581 -0.005289 0.0940157 -0.0131002 0.0140174 -0.0434157 0.0384915
0.0540379 -0.0436713 0.0292596 -0.0553159 0.00570903 0.0186864 0.0268709 -0.0380183 0.108297 -0.0544428 0.00703081 -0.0154254 0.0310342
0.067803 -0.0302823 -0.0541888 -0.0771055 0.00577211 0.0816524 0.0243464 0.021714 0.0906745 -0.0738305 0.0273472 -0.0135004 0.0667844
0.0452475 0.0230406 -0.0237712 0.0149511 0.0283825 0.0371827 0.0434409 0.00154906 -0.00495301 0.0190441 0.0174589 0.00620719 0.0246398
0.0509125 -0.00464724 0.0344645 -0.0169022 0.00346186 -0.0134636 -0.0186577 -0.037996 0.0315081 -0.0370967 -0.0376169 0.00637488 0.0423632
0.215794 -0.125503 0.0765324 -0.0879903 0.0487174 0.114751 0.0653655 -0.104122 0.24651 -0.0951435 0.00056712 -0.00189843 0.124042
0.103885 -0.0526104 -0.00927491 -0.0847596 0.0331424 0.0583553 0.0252387 -0.0108312 0.0990004 -0.0716029 0.0138057 0.0106142 0.0508939
0.00359247 -0.0310741 0.0127678 -0.0146446 0.0407894 -0.000230783 0.0375663 0.00574975 0.00529422 0.0150808 0.0269829 0.0367655 0.00630663
0.0654578 -0.0751449 -0.00871226 -0.0688105 0.0574255 0.0617283 0.103415 -0.0242925 0.132987 -0.0255291 -0.0046565 -0.0236267 0.0222494
0.0394389 0.00896413 -0.0468097 -0.0156649 0.0163666 0.0265074 0.0240979 0.0244131 0.00834912 -0.0346936 0.0149981 0.00831845 -0.0225914
0.0362682 0.00170801 -0.0493097 -0.0456076 -0.0175073 0.0644894 0.0360846 -0.0210032 0.056384 -0.0288983 -0.00608408 -0.038936 0.0130386
0.17379 -0.146108 0.0210852 -0.0973301 0.0851247 0.0359813 0.0952621 -0.0903848 0.244607 -0.0287025 -0.0247894 -0.0301598 0.0852209
0.0873989 -0.0911074 -0.0111796 -0.107009 0.0550175 0.0523134 0.0775791 -0.0592756 0.12407 -0.0254548 0.0236694 -0.0133809 0.0474035
0.0359533 -0.0292073 -0.00262967 -0.0378874 -0.0123363 -0.012931 0.00321952 -0.0217597 0.0459998 -0.0189605 0.0266744 0.018714 0.0246324
0.146214 -0.133714 -0.0310676 -0.0545073 0.0196394 0.11008 0.119057 -0.0809576 0.205442 -0.0924683 0.0107358 -0.0253063 0.0794483
0.0737561 -0.00864508 -0.0129457 0.00310837 0.0444368 -0.017294 -0.0089829 -0.00223797 0.0835952 -0.0165732 0.0232117 -0.0333176 0.0167192
0.0172318 -0.0534022 0.00963223 -0.0198436 -0.00459208 0.00767241 -0.0027181 0.0109485 0.0699974 0.0104358 -0.0305718 -0.00352088 -0.00285998
0.0228566 -0.0474698 -0.0271692 0.022452 0.0376644 -0.023723 0.0075402 -0.0338922 0.0401609 -0.0245809 -0.000954765 -0.0323055 0.0229692
0.0671219 -0.0596914 -0.0273555 -0.0755945 0.0420105 0.00874321 0.0663858 -0.00587771 0.084336 -0.0282038 -0.00792753 -0.0382303 0.0577331
0.210487 -0.146336 0.0190401 -0.109835 0.0608681 0.0957313 0.134515 -0.105509 0.202454 -0.0413204 -0.0620397 0.0123561 0.119918
0.372388 -0.170382 0.135817 -0.0878079 0.0310384 0.0941296 0.205174 -0.241265 0.419702 -0.0686494 -0.0587135 0.0358651 0.14746
0.0835336 -0.0714796 -0.00235301 -0.0574827 0.0120616 0.0436304 0.038817 -0.033884 0.090787 -0.0306476 0.002426 0.0254345 0.0511009
0.0234662 0.0266567 0.0139343 0.0186797 0.0269531 0.0157246 -0.0114766 0.019369 0.00848103 -0.00352882 -0.0255611 -0.00617059 -0.0151452
0.0413227 -0.00850573 0.011395 -0.0346862 0.0351058 0.00531995 0.0218995 -0.00923235 -0.0163864 -0.00177943 0.0168227 0.031874 -0.00181138
0.742978 -0.34584 -0.850994 -0.430431 0.298494 -0.00371181 -0.0380583 -0.103299 0.523126 -0.521704 0.164271 0.490652 0.448658
0.0912094 -0.0556034 -0.0925187 -0.0760082 0.039317 0.116486 0.0704065 0.0496252 0.146116 -0.0928806 0.0224565 0.0139343 0.089669
0.112853 -0.048194 -0.0254121 -0.081942 0.04053 0.0540416 0.0638782 -0.0341288 0.0986502 -0.0284502 0.00347756 -0.0155326 0.0141363
0.0107871 -0.0286171 0.00745616 -0.0217629 0.0104124 0.0574187 0.0111552 0.0237161 0.0645209 -0.0479316 0.00797379 0.0080801 0.0434179
-0.275678 0.00184749 -0.43869 -0.360283 0.195597 1.03535 0.271999 0.636771 0.0253381 -0.00526297 0.000284741 -0.347147 -0.0488177
0.0954953 -0.0697778 0.0168903 -0.0862714 0.0367317 0.0859384 0.0524192 -0.0740388 0.196747 -0.0850611 -0.0356179 0.0321665 0.0993392
0.0279961 0.0286691 -0.0345704 0.0129056 0.0182038 0.00932861 0.0305964 -0.0210844 0.0430524 -0.0288975 -0.0373122 -0.0346195 0.0301518
0.0349357 -0.0157311 -0.0235847 0.0164964 0.0146912 -0.0261414 0.0170392 0.0314051 0.0247632 0.0280038 0.0189637 -0.0359497 -0.0238989
0.010363 -0.0336982 0.00441639 0.00303254 0.0168098 0.0324745 0.0135802 0.0291508 0.0556642 0.00568171 0.00427072 0.0335959 -0.0284985
0.090483 -0.126316 -0.10783 -0.0953955 0.044085 0.0884504 0.125952 0.0402005 0.170542 -0.0756848 0.0250411 -0.0046812 0.105878
-0.0269255 0.00437049 0.0310686 -0.022247 0.0272305 0.0369145 0.0399917 -0.0111382 0.0414875 -0.0295645 0.031805 -0.0253187 -0.0189681
0.394369 -0.263438 0.254256 -0.0742103 -0.000377508 -0.0119098 0.181549 -0.375538 0.588013 -0.110814 -0.112459 0.0040772 0.190649
0.0452163 -0.0265775 -0.0139993 -0.0717556 0.0503591 0.0771304 0.0159071 -0.0330941 0.101548 -0.0692603 0.0160705 -0.01553 0.0135604
0.135397 -0.0472636 -0.0172838 -0.114031 0.068737 0.0880734 0.0851389 -0.0863981 0.170957 -0.032091 -0.0359702 -0.0321767 0.0582074
-0.00269698 0.0134572 -0.0071101 -0.0507308 0.0445567 0.0463344 0.0105191 -0.0315462 0.00917798 -0.0396051 -0.0216492 0.0323651 0.0428421
0.0755605 -0.0836634 0.0246271 -0.0543324 0.0585369 0.0330107 0.0315355 -0.0483775 0.126304 -0.0307877 0.0172081 0.00109687 0.0552682
0.482874 -0.314308 0.411859 -0.111044 0.0208966 0.038802 0.305412 -0.467364 0.676673 -0.0617153 -0.136685 -0.0395177 0.236842
0.0842445 -0.020171 -0.0217531 -0.0702855 0.0582461 0.0404141 -0.00084009 -0.0148238 0.0878575 0.00598753 -0.00973965 -0.0282911 0.0348265
0.105041 -0.108812 -0.0128766 -0.0780487 0.0438023 0.0545683 0.0481037 0.00177976 0.13188 -0.0867286 -0.0199622 0.0105407 0.0425061
-0.0103924 0.0169283 0.0137082 -0.0495926 0.0103082 -0.0115339 0.038024 0.00255908 0.0114692 0.00388492 -0.0123839 -0.0350551 0.040357
0.024778 -0.0162965 -0.0210176 -0.026149 0.0180786 0.0834979 0.0171887 -0.0352169 0.0953877 -0.0526728 0.00907022 -0.0113613 0.0475976
0.421672 -0.228032 -0.291258 -0.216085 0.125381 0.0183926 0.0365417 -0.18295 0.376003 -0.359634 0.0157796 0.236526 0.254093
0.0249506 -0.0026813 0.0330051 0.0169878 0.00162488 0.00358382 -0.0090579 0.00369928 0.0187301 -0.0228507 0.0151574 0.0207459 -0.0303176
0.436832 -0.297111 0.224975 -0.0889167 -0.030151 0.0225336 0.209092 -0.47952 0.498228 -0.0666746 -0.0636378 0.0719345 0.208728
0.0225669 -0.0410698 -0.00446149 -0.0246725 0.0376999 0.0395001 0.0660678 -0.0572192 0.0942281 -0.0501935 -0.0456308 -0.012744 0.0495066
0.138211 -0.127016 0.0431874 -0.0611367 0.0555763 0.0950997 0.0584006 -0.0729452 0.225109 -0.0430847 0.00574099 0.013743 0.0954622
0.306803 -0.145055 0.140383 -0.113313 0.0727949 0.108512 0.0939228 -0.182653 0.359942 -0.0731065 -0.0594465 0.0186595 0.146053
0.0526301 -0.0914988 -0.043721 -0.0550471 0.0598793 0.0670282 0.0329977 -0.0371291 0.0914397 -0.0296381 0.0291202 0.00700446 0.0706813
0.0172779 -0.018816 0.0273926 -0.0574319 0.051604 0.00984259 0.0615587 -0.0215925 0.107167 -0.0401345 -0.0409523 0.0132978 0.0320071
0.0787806 -0.056414 -0.0518646 -0.00920519 0.00903924 0.0608331 0.00230313 -0.0136 0.0877812 -0.00845734 0.00692157 0.00485834 0.0398251
0.0144075 -0.0192461 -0.00193477 -0.0353887 0.021478 -0.0365656 0.0290128 0.0357663 -0.0312436 -0.0337877 -0.0222102 -0.025748 -0.0236501
-0.0163106 -0.0336053 0.0137234 -0.0182314 0.030296 0.00053342 0.00415981 0.020776 0.0254602 -0.0411776 0.00630512 -0.0345218 0.0465908
0.0486408 -0.0674493 -0.101871 -0.0726289 0.0909742 0.0972303 0.106345 0.0764055 0.0985415 -0.0566535 -0.0101552 -0.0487367 0.0222872
0.397627 -0.22462 0.195482 -0.0959047 0.0767228 0.0775258 0.152507 -0.37043 0.457573 -0.0869537 -0.096512 -0.00522993 0.185847
0.0234947 0.00495865 -0.0397465 -0.0124656 -0.00867261 -0.0105155 0.0262476 -0.00386044 0.015869 0.0126864 -0.0101878 -0.0399462 -0.0102269
0.0970564 -0.0509935 -0.0222763 -0.070565 0.0611522 0.0285544 0.0596487 -0.0793834 0.15442 -0.0448011 -0.0183545 0.00785656 0.0976806
0.0799332 -0.040428 0.00962045 -0.0452914 0.057603 0.0606751 0.0318584 -0.0738464 0.147396 -0.00775121 -0.038502 -0.0287136 0.0573772
0.0646815 -0.0459434 0.0153295 -0.0386672 0.0434539 0.0266441 0.029759 -0.027 0.0167528 -0.020915 0.0227144 0.00633541 0.0408979
-0.0111599 0.00498629 -0.0181828 0.00346698 -0.023762 -0.0266787 -0.0301814 0.0262339 0.00152409 -0.0387514 -0.0339427 -0.023974 -0.0322033
0.051812 -0.0381713 -0.0735251 -0.0795361 0.0586337 0.0244482 0.0132999 0.0455618 0.0816533 -0.010977 -0.00108957 -0.0132936 0.0694064
0.0538052 -0.0514245 0.0229753 -0.0274654 0.0610286 0.0949762 0.0558919 -0.0486785 0.147398 -0.00132711 -0.00804166 -0.0212809 0.0244919
0.0575504 -0.128193 -0.103725 -0.104907 0.0769476 0.172381 0.109061 0.0181063 0.191719 -0.0868109 0.0332661 -0.0666021 0.0802469
0.137786 -0.105152 -0.0214685 -0.0993323 0.0585233 0.0942757 0.118898 -0.0391852 0.222196 -0.0939284 -0.00434947 -0.00950816 0.0732291
-0.107179 -0.0915715 -0.347425 -0.282149 0.134073 0.101393 0.138572 0.331562 0.110564 -0.171047 0.144082 -0.177279 0.0989698
0.382335 -0.20676 0.177007 -0.084173 0.0466926 0.0216692 0.147166 -0.308017 0.46852 -0.09956 -0.0993607 0.0044256 0.157184
0.0417074 -0.0778194 -0.0407573 -0.0669625 0.0685994 0.0375158 0.0184542 -0.0380265 0.0700064 -0.0657493 -0.00272013 -0.0418457 0.0438053
0.0527055 -0.00236056 -0.0299623 -0.0442812 -0.00154483 0.000211993 0.0483365 -0.0280112 0.0852241 -0.0262214 0.0137728 -0.0239743 0.0389221
0.121893 -0.100002 -0.109021 -0.122409 0.0731416 0.125219 0.11426 -0.00782007 0.183983 -0.0626592 -0.00207618 0.0223538 0.0975016
0.229358 -0.138389 0.043633 -0.116958 0.0623841 0.0839002 0.142937 -0.162106 0.327683 -0.0652952 -0.0112463 -0.0107477 0.156043
0.0700264 -0.0775926 0.0123771 -0.088439 0.0618387 0.0113303 0.0186223 -0.0127399 0.0797813 0.00265112 -0.0397211 -0.00344458 0.033234
0.0580285 0.00948186 -0.0205338 -0.0157222 0.0240652 0.0376123 0.00198724 0.0235071 0.0683779 -0.00590972 0.0240569 -0.00421069 -0.00834998
0.154181 -0.0738116 0.0230968 -0.118422 0.0924042 0.144537 0.110679 0.00485409 0.252147 -0.0651456 -0.00852534 0.0109197 0.102118
0.0612449 -0.0570533 -0.0143004 -0.0063604 0.0659675 0.00817816 -0.00512118 -0.00171466 0.10064 -0.0628922 0.0249862 0.0207467 0.0545068
0.0617826 -0.0211522 -0.0140291 -0.0555393 0.0222831 0.0490853 0.0458817 -0.00832714 0.0644806 -0.0362869 0.00488976 0.0280938 0.0396999
0.0892445 -0.0786137 -0.038553 -0.0422937 0.0608064 0.0496566 0.0662858 -0.0385103 0.0955868 -0.0589967 -0.0240753 0.0213374 0.0765779
0.171374 -0.117352 0.0466094 -0.0523766 0.0532401 0.104445 0.107725 -0.0924934 0.242273 -0.0408305 -0.0458042 -0.0308373 0.124623
0.0279133 -0.01081 -0.00491201 -0.0284687 0.0325339 0.0118005 0.024428 0.00439156 0.017064 0.0176564 0.000501635 -0.0279571 0.0342717
0.184787 -0.092601 -0.0313791 -0.100125 0.0482584 0.0887875 0.120403 -0.0370895 0.236134 -0.0414865 -0.0360444 -0.0470875 0.0897249
0.174762 -0.103788 -0.0280282 -0.0727702 0.0535063 0.129782 0.089101 -0.0548884 0.224814 -0.0779238 -0.0226648 -0.0302098 0.114473
0.0599355 -0.0778054 -0.0172975 -0.0453478 0.04126 0.0434727 0.0483141 -0.0464771 0.12371 -0.0494183 -0.00167079 -0.00143012 0.000235964
0.0700253 -0.0703235 -0.0134471 -0.0648683 -0.00524157 0.0651794 0.00542113 -0.0203692 0.16048 -0.0299286 -0.0264033 0.00552093 0.072066
-0.915491 0.447773 -2.23288 -1.94195 1.03628 4.48339 1.29341 3.51679 -0.496559 -0.678871 -0.290069 -1.93296 0.317519
0.0322346 -0.00710622 0.0238865 -0.0297375 0.0441879 0.0778563 0.0247753 -0.0302233 0.082651 -0.0399949 0.00739856 -0.0079361 0.0742729
0.013395 -0.0231292 0.0339536 -0.0117462 0.0448506 -0.0085989 0.0377896 0.0310275 0.00499993 -0.0415098 0.00202398 -0.0211306 -0.0191635
-0.0306762 0.0382182 0.0273213 -0.0181355 -0.00212921 -0.0355054 -0.0295891 -0.00335033 0.0133499 -0.000722926 0.0306184 -0.0296253 0.00759881
0.0250842 0.0215841 -0.0497785 -0.0529156 0.0184112 -0.0110711 0.0475737 0.0174415 0.0621694 0.0100485 -0.0279768 0.0329953 0.0221692
0.132626 -0.0586215 0.0022543 -0.0784018 0.0590406 0.0344851 0.0731114 -0.0388374 0.214915 -0.0467624 -0.0595743 -0.000280426 0.105073
0.0779033 -0.0385586 -0.0140511 -0.048009 0.0392893 0.0779182 0.0591043 0.0135109 0.0869367 -0.0065819 -0.0225655 0.0171689 0.0197022
-0.00708353 -0.0204505 0.0150005 0.0293891 -0.0237452 0.0115196 0.00381879 0.00659109 0.0198191 -0.0183321 -0.032147 0.0106918 -0.0185389
-0.0125395 0.00204254 -0.00901157 0.00656682 -0.0313909 0.0228205 -0.0134934 -0.0140431 0.0277687 -0.0233997 -0.00843134 0.00844098 -0.00654601
0.173377 -0.107018 0.00637311 -0.0974716 0.0317817 0.0593692 0.069458 -0.0684084 0.199433 -0.0833104 -0.033972 -0.0186497 0.0781823
0.106871 -0.0512202 -0.00385511 -0.0438918 0.00389169 0.0481021 0.0284624 -0.0101889 0.133688 -0.0369036 -0.0251095 -0.0409654 0.0654919
-0.0111001 -0.0523582 -0.0401704 -0.0458243 0.050506 0.037762 0.00152251 0.0237363 0.00820192 -0.00637372 0.0393789 -0.0377092 -0.0248739
0.297446 -0.17189 0.15601 -0.0885881 0.071784 0.106007 0.0964467 -0.288006 0.413538 -0.0663595 -0.0797698 0.0109208 0.169571
0.04402 0.00748057 -0.0189561 -0.0345131 0.0213696 0.00203983 0.0528076 -0.0293841 0.0369457 0.00520641 0.0272855 0.00548905 0.0591895
0.0150106 -0.0483329 -0.0255009 -0.0632683 0.00263628 0.0518521 -0.0110203 -0.0416626 0.0182564 -0.017799 0.00556388 0.0377064 0.0160907
0.00426666 0.0130057 0.0094024 -0.0201714 0.0344858 0.00520547 0.016715 0.0302552 0.0175993 -0.0306723 0.00855201 -0.010295 0.0353678
0.0632553 -0.0177618 0.00556669 0.0122689 0.0164288 0.0254139 0.00275617 0.0234996 0.0339231 -0.0403275 -0.0163739 -0.00200934 0.025029
0.0681499 -0.0319868 -0.0361508 -0.101652 0.0465395 0.104798 0.0609719 0.00636295 0.165122 -0.0421092 0.018587 -0.0110821 0.0492969
0.0191586 -0.0419082 -0.00631035 -0.0636068 0.00196761 0.0478825 0.0323354 0.00832468 0.109204 -0.0353151 -0.0153051 -0.0471112 0.0485395
-0.258601 -0.64158 -0.966679 -0.748492 0.289291 1.52205 -0.888637 2.00157 -0.202848 -0.524847 0.170633 0.0988541 0.298062
0.486118 -0.307262 0.318122 -0.0577129 -0.0592211 -0.0190117 0.257721 -0.503607 0.594169 -0.0759269 -0.085171 0.0558581 0.172651
0.595773 -0.406065 0.489093 -0.0975006 -0.0109118 0.106941 0.436563 -0.621831 0.834126 -0.0443297 -0.155193 -0.0150157 0.233884
0.00287187 -0.0369746 -0.0118995 -0.018795 0.00923265 -0.00152498 0.0143387 0.0319669 -0.00812075 -0.0102193 -0.0204415 0.032971 -0.0357684
0.000356314 0.0340216 -0.0190301 0.0306171 0.0355409 -0.0201671 0.0339023 -0.0314679 -7.18363e-05 -0.0110601 0.00535863 -0.0208552 0.0112128
0.37476 -0.223209 0.216738 -0.0904663 0.0775806 0.0842089 0.137048 -0.335488 0.499294 -0.102743 -0.135135 -0.00601377 0.210436
0.190896 -0.124659 0.0747966 -0.111646 0.0224615 0.0994095 0.0885741 -0.099362 0.301318 -0.0901256 -0.0207974 0.0309395 0.105565
0.0695627 -0.0363745 -0.00444305 -0.0940719 0.0172728 0.0663493 0.0569579 -0.0772984 0.1617 -0.0611553 -0.00635856 -0.0168253 0.0532351
0.0512389 -0.0461489 -0.0104972 0.0176599 0.0397665 0.0477345 -0.00863718 -0.000897677 0.0671075 -0.0297636 0.0333198 0.0297256 -0.00205322
0.0484372 -0.0338813 0.0147396 0.0151754 0.00976328 0.0434226 0.0496315 0.00739819 0.0324891 -0.0406629 -0.0253069 -0.0210142 0.0489883
0.0562275 -0.0464714 -0.00770313 -0.0579924 -0.00948546 0.0477525 -0.0143105 -0.0139613 0.0811164 0.0175276 -0.0134643 -0.0131938 0.0176743
0.0256534 -0.0374428 -0.0129653 -0.030766 0.0444393 0.0345727 0.0245654 0.0143885 0.0704497 -0.0519876 0.0133377 0.00554456 0.0281402
0.0610908 -0.0649886 -0.0653385 -0.0794987 0.0790159 0.0308965 0.0259761 -0.0341181 0.108546 -0.0640063 0.0213002 -0.0329299 0.0503769
0.0960523 -0.10713 0.038505 -0.0368867 0.0303624 0.0682447 0.0413155 -0.0285519 0.180246 -0.0790594 -0.0279181 0.0110246 0.0446275
0.0547319 -0.0135425 0.0206568 -0.0388831 0.0578836 0.0698491 0.00221213 -0.00679952 0.0604899 -0.0566006 -0.0277223 0.0267085 0.0582108
0.0104104 -0.00224119 0.00782233 -0.042206 -0.0175208 -0.0206287 0.0329541 0.0046111 -0.00541299 0.0197011 0.017852 -0.0122175 0.0361597
0.0234837 -0.0776414 0.0298647 -0.0796224 0.00167129 0.0945772 0.0627968 -0.0336255 0.0553354 -0.0511873 -0.0409445 -0.0390147 0.0502687
0.0332254 0.0181879 0.0197397 -0.0374813 0.0181384 0.0282147 0.0401312 0.00966195 0.0117866 0.0184593 0.0230428 0.0263703 0.0212004
0.0310863 -0.0546514 -0.0128913 -0.000676892 0.0235533 -0.0165821 0.0192976 0.0178277 0.0809476 -0.0209269 -0.00641738 -0.00503328 0.0102987
-0.0243317 -0.0032389 0.0183877 0.0193969 0.0150657 -0.0189749 -0.00617363 0.0323187 -0.0312423 0.00241017 0.00539273 -0.00988011 0.0293943
0.175519 -0.0882547 0.0389281 -0.0751756 0.0496667 0.107435 0.0972887 -0.0945708 0.203299 -0.0774343 -0.0409457 0.0100084 0.0685706
0.074037 -0.0580363 -0.0191177 -0.10742 0.0182052 0.0473398 0.0369035 -0.0300383 0.108828 -0.0341613 0.0256901 -0.00497969 0.0565964
0.0101411 0.0037023 0.0202127 -0.0446915 0.0447094 -0.0024275 0.0255278 0.0047291 0.00237795 -0.0382103 -0.00837339 -0.0262239 0.0287256
0.0352348 -0.0321359 0.0141739 -0.0456064 0.0474559 0.0283041 0.0341493 0.0161979 0.0561863 -0.0423138 0.0311605 0.00492764 0.00228654
0.883606 -0.472807 -0.818719 -0.403505 0.294199 0.152026 -0.022879 -0.28704 0.690332 -0.680087 0.0719306 0.629091 0.609413
0.0836264 -0.0639286 -0.000611812 -0.0263589 0.0146857 0.0323368 0.0761178 -0.0360442 0.132103 -0.0796987 0.0368702 0.00248603 0.070318
0.114298 -0.0850267 -0.0126441 -0.0508604 -0.00596955 0.00119 0.0311368 -0.0237672 0.117079 -0.0287878 0.0209032 -0.0258102 0.082103
-0.00489238 -0.00599552 0.0368982 -0.0534024 0.00328662 0.0386204 0.0411886 -0.0110311 0.00912742 -0.0239004 -0.0320594 -0.0330387 0.0500148
0.247159 -0.143177 0.0642048 -0.127396 0.0436897 0.0912826 0.0856443 -0.102185 0.264623 -0.0629438 -0.0676097 0.0104698 0.147821
0.0768685 -0.0231011 -0.0360584 -0.0829193 0.0568086 0.0364501 0.0284341 -0.0176508 0.0655848 -0.0443902 -0.0431693 -0.0213667 0.0556937
0.0813683 -0.0347761 -0.0338077 -0.064235 0.0747898 0.0509563 0.0794682 -0.0681488 0.137989 -0.0569943 -0.0244686 -0.000299545 0.0859068
0.0920982 -0.0377938 7.43172e-05 -0.098303 0.0353246 0.0448168 0.0618304 -0.0418685 0.111371 -0.0492031 -0.0231377 0.0256629 0.055166
0.151656 -0.124677 0.0199276 -0.0974392 0.0201675 0.0951249 0.0914579 -0.0909563 0.213402 -0.101561 -0.0494284 -0.0313676 0.058339
0.0903018 -0.0580563 0.0138158 -0.0575473 0.0585882 0.0415576 0.0795215 -0.0369756 0.102625 -0.0328497 -0.00768291 -0.0174596 0.0688421
0.0022284 0.0265184 0.00654534 -0.0463986 -0.0285996 0.0447484 0.0291805 -0.0305723 -0.00696162 -0.000293031 0.0186311 0.0351251 -0.0314716
0.059292 -0.0384689 -0.0515528 -0.109855 0.0431572 0.0680659 0.0405106 -0.00737613 0.128535 -0.0883923 0.00638351 -0.0113033 0.0426134
0.077658 -0.0547963 0.00212451 -0.0884861 0.0249132 0.0351538 0.0533671 -0.026403 0.129055 -0.0601191 -0.022163 -0.000719608 0.0781172
0.657744 -0.385059 0.536032 -0.114482 0.0711238 0.235169 0.381029 -0.588418 0.8905 -0.0415829 -0.199059 -0.0349555 0.235181
0.0552036 -0.0450226 -0.00567754 -0.0854092 0.063907 0.0949637 0.0749825 -0.0485163 0.137646 -0.0514013 0.0262074 -0.00496138 0.0362092
0.0907792 -0.0798114 -0.0524532 -0.0849703 0.00192159 0.0460263 0.016097 -0.0345634 0.0755823 -0.0215077 -0.00642442 -0.0127004 0.0587665
0.0528181 0.00611554 -0.0157143 -0.0150021 -0.0220989 -0.00998181 0.0220242 -0.00780885 0.0407838 0.0213444 -0.0204688 0.0160236 0.00890025
0.0923743 -0.108011 -0.0301633 -0.0958698 0.0568026 0.1203 0.0538358 -0.00795853 0.117351 -0.0216224 0.0481137 -0.0300705 0.0680543
-0.0151474 -0.00691633 -0.0152276 -0.044267 0.0124435 0.0329552 -0.00382499 0.00643403 0.0456323 -0.018491 0.0145074 0.0380972 0.0310178
0.0476352 -0.00806449 0.00596326 -0.00816502 0.0393125 0.0500681 0.0279272 0.0225472 0.0647862 0.00560261 0.0128736 0.0258658 -0.000533891
0.0519791 -0.0630975 -0.0283162 -0.0418751 0.0607571 0.0794 0.0823461 -0.0416429 0.107781 -0.0318195 -0.0186457 -0.00975774 0.0867116
-0.016461 -0.000736547 -0.0158301 0.00268099 0.0297577 0.0147305 -0.010318 0.0142347 -0.0116319 0.0237009 -0.0368503 0.0308957 -0.00559466
0.0479396 0.00739737 -0.0180913 -0.00216788 0.007009 0.0014417 0.00556803 -0.0268 0.0506676 -0.00852243 -0.0262573 0.0325399 -0.0109239
0.0618839 -0.0507567 0.00831901 -0.0548192 0.0121428 0.0150546 0.0538559 0.0223966 0.0768861 -0.060918 -0.0146347 -0.025049 0.0429352
0.0519266 -0.000748965 0.0292832 -0.0393647 0.0211602 -0.00358919 0.00766327 0.00023537 -0.000754029 0.00531566 -0.0306966 0.000423412 0.0191235
0.226654 -0.151977 0.0345961 -0.0776977 0.0388457 0.0587859 0.0743267 -0.0894854 0.269629 -0.106364 -0.00582327 0.0238913 0.114704
0.0359675 -0.0695359 0.0100561 -0.0601995 0.0163604 0.0378051 0.0309472 0.00757532 0.104833 -0.0576693 -0.0379544 -0.014318 0.00224995
0.0551096 -0.0610274 -0.183116 -0.135481 0.12109 0.157366 0.151263 0.0858385 0.118195 -0.08921 0.0835195 0.00657663 0.0437938
0.0350525 -0.0180221 -0.000344803 -0.033098 0.0287461 0.00642813 -0.00101712 0.000815067 0.0272145 0.0324914 -0.020577 -0.0271248 -0.0127907
0.0158607 0.0117534 -3.6027e-05 -0.0350714 0.0266054 0.0300399 0.026183 -0.0372665 0.00574414 0.00477206 -0.0247191 -0.0325608 0.00584133
-0.0192406 -0.00160556 0.0187398 -0.0296676 0.0391498 -0.00649175 0.0449402 0.00411939 0.052794 0.0116588 0.0187426 0.0109464 0.0316577
0.076474 -0.055198 -0.0594072 -0.101692 0.0656447 0.0976636 0.0384195 0.0363778 0.140652 -0.0616608 -0.0171038 0.00577041 0.0224747
0.169014 -0.1053 -0.0155301 -0.083191 0.0239923 0.0838365 0.0754069 -0.0594392 0.165525 -0.0829462 0.0158759 0.001041 0.100756
0.164245 -0.0448788 -0.060092 -0.0704763 0.078283 0.0704358 0.0309053 -0.0528519 0.14801 -0.0593971 0.0356686 -0.0105389 0.0473099
0.0389391 -0.0593558 0.00458453 -0.0445802 0.046146 0.0100403 0.0338014 -0.0386658 0.114599 -0.0281492 -0.0052685 -0.02753 0.00559339
0.22551 -0.144635 0.037614 -0.122761 0.0346489 0.0833581 0.11731 -0.174433 0.335285 -0.0973787 -0.0108861 -0.022728 0.118787
0.124548 -0.074676 -0.0363102 -0.0733971 0.0772086 0.0477837 0.0320818 -0.0413841 0.179215 -0.0626329 0.000345507 0.037059 0.0653007
0.0377674 -0.00226334 -0.0105617 -0.0221499 -0.0286209 -0.0268525 0.0438424 0.0204149 0.012296 -0.00898706 -0.0220908 0.00796681 -0.0221915
0.0258112 -0.0429212 0.000887811 -0.0536882 0.0523859 0.0107426 0.0082974 -0.0229491 0.0290815 -0.0250258 0.0105425 -0.0123523 -0.0101818
0.210529 -0.116709 0.0404596 -0.0851825 0.073543 0.0624809 0.0708305 -0.124536 0.28479 -0.0933596 -0.0542235 -0.0209063 0.115999
0.00654479 -0.0548369 0.00289184 -0.0194947 0.00399023 0.0447377 0.010921 -0.0490295 0.0251273 -0.0511362 -0.00190228 -0.0372594 0.0106661
0.077148 0.0013904 -0.0114724 -0.00522793 0.0233149 0.048526 0.0580556 0.00026134 0.0713608 -0.0241938 -0.00790783 -0.0320582 0.009828
0.00152645 -0.0221394 0.0263733 0.00117077 0.0435503 0.0204322 0.0398865 0.0139141 0.0331276 -0.00961401 -0.0352451 -0.000170642 0.00546231
-0.849507 -0.0240186 -1.97154 -2.13139 2.40473 4.56915 0.810873 3.32052 -0.780681 -1.16113 0.0604111 -1.8734 -0.820122
0.0643291 -0.0224443 0.00909515 -0.0941143 0.0684959 0.077434 0.0539335 -0.038448 0.085388 -0.0479381 0.010191 -0.0351462 0.072718
0.0556367 -0.0189513 0.0151209 -0.00232588 0.0410181 -0.00129218 0.00474716 -0.0292538 0.0649097 -0.0100971 0.00170175 0.0112511 -0.000390106
0.0361813 -0.0704012 -0.0291281 -0.0618258 0.00779086 0.0376583 0.0202523 -0.0303235 0.0769499 -0.0674198 -0.0327199 0.0121425 0.0226137
0.0633918 -0.0497469 -0.0681686 -0.100664 0.0582574 0.0744004 0.0707854 0.0176594 0.109421 -0.0620348 -0.0277682 0.00705843 0.0635331
0.132023 -0.0669029 0.0328314 -0.0319385 0.0569249 0.0789618 0.0435791 -0.0859337 0.162513 -0.0414979 0.0187534 0.0270162 0.0614091
0.0349373 -0.00201349 0.00717096 -0.0363949 -0.00915304 -0.0096923 0.0116453 -0.0164012 0.0162626 0.0343757 -0.0126655 -0.0400785 -0.00411748
0.0867508 -0.0530142 -0.0401307 -0.0236278 0.0347611 0.0647864 0.00642124 0.00608735 0.108017 -0.0203806 -0.0186679 -0.0425033 0.0426738
0.102634 -0.0957494 -0.0346178 -0.0399736 0.0625492 0.0501299 0.059051 -0.0252974 0.134712 -0.0765018 -0.00500894 -0.00125598 0.061244
-0.00141988 0.0285809 -0.0218463 0.0109822 -0.0346276 0.0309038 -0.0345328 -0.00921497 0.0345668 0.0217248 -0.00209502 -0.0199123 -0.0170484
0.0439123 -0.038502 -0.025918 -0.00158724 0.0550816 0.000667432 -0.00692883 -0.0204937 0.0719897 -0.0346214 -0.00908945 -0.0362732 0.0086636
0.140988 -0.124811 -0.0754328 -0.123944 0.0472447 0.117555 0.111712 -0.0364006 0.217934 -0.066135 0.0220831 -0.00587587 0.0970863
0.184373 -0.104607 0.0122657 -0.059181 0.0284258 0.0911103 0.0862407 -0.0530735 0.260635 -0.0577478 -0.0679153 0.0158452 0.114416
0.087424 -0.0668045 -0.0371748 -0.0257629 -0.00701612 0.0237724 0.0183253 0.0137672 0.0778753 -0.0259277 0.0280891 -0.0245199 0.0201467
0.0607985 0.00925193 0.0257512 -0.0197112 0.0406458 -0.00876137 0.0101143 -0.0450508 0.0430173 0.00808766 -0.0104515 -0.0358416 -0.0153167
-0.00883738 0.00554005 0.011604 0.0100187 -0.00478278 0.0535962 0.0233148 -0.0122222 0.00558347 -0.025014 -0.0185082 -0.020623 -0.0019797
0.061488 -0.0686179 0.001911 -0.0700314 0.0537709 -0.000532689 0.0705421 0.00242733 0.0847953 -0.0235194 -0.00337903 0.00650871 0.0252831
0.0452753 -0.0195074 0.0252898 -0.0175385 0.0199769 0.0564384 0.0567895 -0.023433 0.0752142 0.00377415 0.0281459 0.0103729 0.0110109
0.0392144 -0.0293534 0.0134234 -0.00940542 0.0528764 0.0501779 0.0104767 -0.0124785 0.0682618 -0.054846 -0.0101 0.0197074 0.0176392
0.0347286 0.0158127 0.0250194 0.0228612 0.00396948 0.0303526 0.0324491 -0.0238161 -0.00354788 -0.0332765 0.027292 0.00698491 -0.0237633
0.0258266 -0.00335063 -0.0170104 -0.00569474 0.00298318 0.0141161 0.0564072 -0.0572603 0.0672847 -0.00800296 0.0129434 -0.0181868 0.0684854
0.0260028 -0.0714375 -0.0452513 -0.0098077 0.058992 0.0572827 0.0116461 0.020569 0.074544 -0.00860419 -0.00390975 0.0255927 0.0232008
0.053247 0.00159513 0.00227358 0.00537616 0.048251 0.0476111 -0.0128716 -0.00922112 0.0531076 0.0126362 0.00290529 -0.0389757 0.0166877
0.0967383 -0.0811941 -0.0144656 -0.0861273 0.0262573 0.0487489 0.0333036 -0.057909 0.103138 -0.0853603 0.0194232 -0.00874713 0.0446642
1.00704 -0.548763 -1.35171 -0.695178 0.504822 0.0792359 0.0629263 0.0710599 0.76728 -0.850045 0.343485 0.664878 0.595068
-0.509888 0.349746 -0.962659 -1.51328 0.748733 0.250174 0.264749 1.57303 0.335206 -0.897889 0.576027 -1.40585 0.00382334
0.0173272 -0.054436 -0.0116309 -0.0346371 0.0307265 0.0534506 0.048418 -0.00337223 0.0367314 -0.0477192 0.0292131 0.00945003 0.055882
0.0747938 -0.0889916 0.0189965 -0.0631138 0.0318818 0.0531184 0.0793062 0.00352559 0.140511 -0.0358371 -0.0361446 -0.0248901 0.00740816
0.0206281 -0.0320367 -0.020507 -0.018375 -0.000224224 0.0336191 0.0286886 0.0381599 0.0523059 -0.0242115 0.0325788 0.0055216 0.0267866
0.0390428 -0.0272659 -0.0213772 -0.0274533 -0.00612405 -0.0046141 0.00900298 0.0104429 0.0228662 -0.0294452 0.0304178 0.00680945 0.0235545
0.12023 -0.0471685 0.0404216 -0.0624541 0.0725678 0.0724402 0.0888962 -0.0396096 0.171416 -0.023701 -0.0335926 0.0236547 0.0705911
0.00598556 -0.0339267 -0.0359652 -0.0104775 -0.0115533 0.0480362 0.0223668 0.029518 0.026988 -0.0351377 0.0275705 0.0318298 -0.0235932
0.0705958 -0.0526499 0.0285107 -0.025066 0.0286293 -0.00525613 -0.00195519 -0.00358062 0.0904989 -0.0604481 0.0245478 0.0300205 0.0506399
0.244034 -0.120869 0.033247 -0.0735034 0.0723115 0.0950386 0.123217 -0.101479 0.246054 -0.0795531 -0.0663686 -0.0140096 0.141946
0.0597452 -0.0328576 -0.0295632 -0.0921094 0.0234519 0.0897725 0.0727458 0.0319214 0.125033 -0.0743933 -0.0200311 -0.027528 0.0847535
0.359452 -0.219148 0.135365 -0.0858593 0.0113589 0.0205963 0.148816 -0.262275 0.403838 -0.0915102 -0.0465762 0.0448205 0.140032
0.0396766 0.00918718 0.0172737 -0.00202677 -0.0246729 0.0168888 -0.0147881 -0.0155105 -0.023743 -0.0217251 -0.0254698 0.0376026 0.0119958
0.0813736 -0.0241149 -0.0419527 -0.0766642 0.0438199 0.0639643 0.0227948 -0.00390975 0.123797 -0.0309664 0.0157583 0.0106514 0.0520681
0.0698671 -0.0466342 -0.0236552 -0.0306886 0.03601 0.0871747 0.0738656 -0.0757175 0.134685 -0.0156893 -0.0283943 0.0313695 0.0265361
-0.00457414 0.00382106 0.026474 -0.0045557 0.0561762 0.0527471 0.0102318 -0.0263458 0.081579 -0.00376464 -0.00743776 0.0134628 0.0359652
0.0405258 -0.00301669 0.0226544 0.00131931 0.0402687 0.00787592 0.0373114 0.0157002 0.0305496 -0.0254624 0.0385284 -0.00195729 0.0258692
0.0591983 -0.0328137 -0.000653799 0.0132976 0.0273149 0.0328752 0.0190088 -0.0224968 0.0431993 -0.0227642 -0.032379 -0.0139154 -0.001998
0.00237241 0.0088042 0.0162908 -0.0149589 -0.0341881 -0.000346001 0.015993 0.0352838 -0.0170655 -0.0182109 0.0246927 0.0383934 -0.00921755
0.0497185 -0.0184989 0.00763604 -0.0663331 0.0300181 0.0494862 0.0343309 0.00597402 0.0746686 -0.040966 0.019666 -0.0226221 0.0428023
-0.0039658 -0.048622 -0.0271259 -0.00808133 0.0100396 0.0260853 0.0189639 0.0077981 0.0128534 -0.00433498 -0.0107102 0.0245131 0.00556151
0.0370209 -0.0767728 -0.010902 -0.0806861 0.0535534 0.0557541 0.0150068 -0.00243256 0.110517 -0.011489 0.0295998 -0.00734267 0.0464825
0.0489495 0.00755306 -0.0559379 -0.0394846 0.00926322 0.0694375 0.0123532 -0.0260101 0.022118 0.00344142 0.000200463 -0.0321448 0.00546408
0.0492214 -0.0508945 -0.00236544 -0.0696054 0.0367004 0.0509903 0.01443 -0.0262606 0.137615 -0.0284425 0.00898483 -0.00974213 0.0279749
0.0590157 -0.0266671 -0.0121544 -0.0346069 -0.00682433 0.0222768 0.00866132 0.014809 0.0304047 0.000550994 0.0299392 -0.0114925 0.0164436
0.0386304 0.0157437 0.00858852 -0.0318849 0.0504301 0.0401052 0.0514693 -0.0358702 0.0142643 -0.0250079 -0.0053507 -0.0231258 -0.0171196
0.0871474 -0.0513836 -0.0555182 -0.0695832 0.0638874 0.0448683 0.0903056 0.00691876 0.131864 -0.08025 0.0343443 0.000179753 0.0578315
0.0980969 -0.0544985 -0.0159404 -0.0524775 0.0503934 -0.008254 0.062933 -0.0127866 0.0938535 -0.0108554 -0.0143933 0.0347574 0.0314823
0.0826002 -0.0190859 0.00750123 -0.0317589 0.0564343 0.0474738 0.0419622 -0.0524616 0.0691208 -0.00653545 -0.0131686 -0.0131956 -0.00177832
-0.010207 -0.017566 0.0227124 0.0342098 0.0075732 0.0341386 -0.0234658 0.00776304 -0.0275524 0.0249855 0.0190761 -0.0358857 -0.00678627
0.023813 -0.0253438 -0.0178966 -0.0106382 0.0154337 0.0329632 -0.0245981 -0.0432076 0.0352124 0.0205358 -0.0269915 0.00559187 0.033764
0.0987046 -0.0848513 -0.00946557 -0.0983125 0.0761318 0.125673 0.0797075 -0.0322445 0.127259 -0.0846381 0.0169456 0.00786494 0.0909548
0.0410125 -0.0467599 -0.0427102 -0.0146354 0.0142372 0.0264495 0.0649427 0.0161951 0.0869435 -0.0400054 0.0279345 0.023616 0.0229857
0.0995142 -0.0453029 -0.0380478 -0.100751 0.0664121 0.0914576 0.0857814 -0.0451465 0.143292 -0.022693 -0.0245908 -0.00172658 0.0790864
0.0618474 -0.176492 -0.116331 -0.156441 0.100315 0.112801 0.123332 -0.0989314 0.311648 -0.162912 0.0766964 0.091376 0.0896091
0.103584 -0.0484658 0.0350602 -0.0804096 0.00836643 0.0375478 0.0504339 -0.0143847 0.151111 -0.0425582 -0.0543962 0.00743026 0.0656836
0.300354 -0.193402 -0.272919 -0.157424 0.0998909 -0.0442575 0.0409289 -0.0300451 0.277871 -0.200573 0.0844494 0.149898 0.14171
-0.0383818 0.0240451 0.0105323 -0.00704596 0.0205864 0.00311756 0.0328587 0.0225748 0.0133423 -0.0257549 -0.0341425 -0.0305805 -0.00979799
0.077866 -0.041608 -0.00881921 -0.0624456 0.0797221 0.074137 0.0603507 -0.00561489 0.106018 -0.0824092 0.0183813 -0.00518423 0.0507137
0.0484083 -0.0286901 -0.04996 -0.0838053 0.0761747 0.096121 0.0197227 0.00365708 0.116119 -0.0644377 0.0116128 0.00279079 0.0132963
0.121407 -0.114685 -0.0140292 -0.099328 0.0488828 0.0882529 0.0379938 -0.0283967 0.146676 -0.0279208 -0.0457296 0.0100264 0.0645739
0.145278 -0.17135 -0.0517364 -0.0933347 0.108643 0.0955152 0.0864521 0.00951022 0.254676 -0.103322 0.0125854 -0.0247518 0.114228
0.0813358 -0.0731738 0.00128253 -0.0543721 0.0337102 0.0488094 0.0783682 -0.0528447 0.151799 -0.0497298 -0.0320097 -0.0382445 0.0598528
0.0358333 -0.0565682 0.00456033 -0.0689113 0.021554 0.0655348 0.0581003 0.00517247 0.0505504 -0.0686839 -0.0352693 -0.0312646 0.00197766
0.132624 -0.115521 -0.0485105 -0.135908 0.065813 0.113339 0.0567824 -0.00384746 0.182891 -0.043303 -0.0123736 -0.0191838 0.0501699
0.444991 -0.247108 0.27416 -0.118767 0.0487677 0.0422641 0.237093 -0.412115 0.538824 -0.0998299 -0.144054 0.00646885 0.174623
0.149436 -0.112359 -0.0837302 -0.093968 0.100674 0.120447 0.119402 -0.0214748 0.248622 -0.136748 0.0140871 -0.000386172 0.0897697
0.0939853 -0.0777036 -0.0565882 -0.126963 0.047581 0.0703615 0.0643458 0.012019 0.188433 -0.0709834 -0.0206636 -0.0362439 0.0454944
0.10851 -0.0966309 0.0125811 -0.0864502 0.0334375 0.0369452 0.0969466 -0.0426574 0.169115 -0.0302809 -0.0303787 -0.0193199 0.0504243
-0.0105426 -0.00802399 -0.000309793 0.0298773 0.0118436 -0.0312234 0.0188852 -0.012152 -0.0148513 0.0336824 -0.0266411 0.0188825 -0.0114108
0.0205143 0.0360399 0.0375834 0.0262581 -0.0200206 0.000474391 0.00867454 0.0151094 -0.0302494 -0.0110958 -0.0106063 -0.0150782 -0.0220015
0.0135967 -0.0310882 0.0369886 -0.0440525 0.0150348 0.000317999 0.00198355 -0.0286044 0.0811428 -0.0150979 -0.011324 -0.0335653 0.00765902
0.0626885 -0.0425693 -0.00635768 -0.0378323 0.0162254 0.0452078 0.0476905 0.0101429 0.0799368 -0.0189028 -0.0430943 -0.0298731 0.031678
0.0415095 -0.0321172 -0.0185844 0.00841433 0.0163796 -0.0297324 -0.020974 -0.000367016 0.0322569 0.00237589 0.0305715 0.0278598 0.00662536
0.00335782 0.0338743 0.0105733 -0.0154221 -0.00203001 0.00152598 -0.0120329 0.0290734 -0.0119762 0.027226 -0.0309266 0.0148321 0.0121411
0.0281762 0.0263217 0.0015194 -0.029946 -0.0126788 0.00181835 -0.03049 0.0176187 0.0139358 0.00480243 0.0298046 -0.00577217 -0.0153438
0.0905227 -0.0407667 -0.0490104 -0.0969195 0.0522204 0.0846169 0.070093 0.0237326 0.109622 -0.0324454 0.0413897 -0.055679 0.0329352
0.0687127 -0.091195 -0.0517348 -0.0413841 0.00315411 0.052 0.0857847 -0.00188066 0.114781 -0.0380552 0.00225868 0.0234819 0.00926711
0.0610743 -0.041134 0.00786112 -0.0146099 0.0411545 0.0195948 0.0100996 0.0060241 0.0281692 0.00339433 0.0248688 -0.0101318 0.038631
0.000427262 -0.0394709 -0.00373752 -0.0202587 0.0176235 -0.0153584 0.0555853 0.0164764 0.014285 -0.0456539 0.0383458 -0.0136849 0.0181605
0.0716884 -0.0505873 -0.0136707 -0.0400449 -0.00446534 0.0225237 0.0159676 0.0263604 0.118359 -0.0328264 -0.0235059 0.0301312 0.0114084
-0.288772 0.0232874 -0.316928 -0.332026 0.0815466 0.708189 0.337552 0.590712 0.0899276 0.188215 -0.123734 -0.0784852 0.115808
0.12139 -0.0702216 0.0245846 -0.0812576 0.0323577 0.0799185 0.0197373 -0.0411359 0.173932 -0.0287177 -0.00794015 0.0201144 0.0544274
0.0189388 -0.0325938 -0.052307 -0.0350523 0.0454745 0.0716875 0.0524853 0.0080496 0.0846188 -0.0386928 0.00489365 0.00427195 -0.00323292
0.174373 -0.0788624 0.0419532 -0.0693179 0.0712009 0.0790282 0.0767105 -0.103595 0.153447 -0.0857393 -0.044644 0.0229958 0.105925
-0.0127592 0.0306729 0.0132536 -0.00509419 0.0387262 -0.0205204 0.0082272 -0.0137811 0.0117454 -0.0380381 -0.013953 -0.0356123 0.0272397
0.11669 -0.0790011 0.03305 -0.113719 0.0204823 0.0994105 0.0446962 -0.0622297 0.197516 -0.03213 0.00233023 -0.0181182 0.102038
0.153165 -0.0818974 -0.0190316 -0.137247 0.06445 0.148502 0.0976939 -0.00433699 0.216617 -0.119514 -0.0249511 -0.038805 0.0698572
0.214059 -0.217938 0.105768 -0.138498 0.00386975 0.0544672 0.133775 -0.133532 0.362121 -0.0859 -0.0142284 0.0095154 0.134276
-0.00330533 -0.016253 0.0338517 -0.0455694 0.00284034 -0.0104329 -0.0135751 0.00904756 0.0620408 0.0286445 -0.0285258 -0.00814583 -0.0169966
0.0669431 -0.0549935 -0.0354812 -0.0516546 0.0557288 0.0188255 0.0431867 -0.0102699 0.0376637 -0.00165435 -0.0267156 -0.0319918 0.0573105
0.308951 -0.189796 0.167644 -0.132553 0.0638378 0.0814857 0.170279 -0.286927 0.429705 -0.0909011 -0.0710181 -0.021743 0.157884
0.0129201 -0.0268482 -0.0405212 -0.0199129 0.0220463 0.0571233 0.0402453 -0.00645458 0.0562531 -0.0345596 -0.000887581 -0.0344417 0.0220583
0.0155095 -0.0484256 0.00123245 -0.0144692 -0.0275367 -0.00928734 0.0453847 0.00583558 0.0200097 -0.00428241 -0.00229015 0.0229372 0.0144297
-0.00175741 -0.0221353 0.00449984 -0.0151973 0.00976293 0.0231193 -0.010267 0.019271 0.042899 -0.0048809 -0.0390397 0.0308066 0.0116425
0.26915 -0.137795 -0.134406 -0.137532 0.0962836 0.0700639 0.0260018 -0.102275 0.225555 -0.122171 -0.0167262 0.118883 0.136957
0.0390614 -0.0769812 0.029293 -0.0165868 -0.00846152 0.0287672 0.02694 -0.0275262 0.0933453 -0.0605567 -0.00889156 0.0181458 0.0495117
-0.00895418 0.00619811 0.0156539 0.0225855 -0.00255294 0.0272082 0.0213309 0.0267077 0.0366425 0.0160214 0.00843778 -0.035427 -0.00309162
0.0500531 -0.0388136 -0.0471788 -0.0079335 0.0485508 0.0194624 -0.0122959 -0.0357769 0.0136303 -0.0124754 0.00109468 -0.00845269 0.0178164
-0.0264653 0.00830072 0.00253051 0.0380639 -0.0126489 0.0316092 0.00303416 0.0121507 0.00624308 0.0321794 0.0375031 0.0172407 -0.0124955
0.0864021 -0.0669421 0.0276205 -0.0828757 0.0376711 0.00792022 0.00366738 -0.0256705 0.105661 -0.067321 0.00661275 0.0270043 0.023609
-0.00484815 0.00498816 -0.0298502 -0.0339091 0.0207115 0.029097 -0.0128816 -0.0102765 -0.00510045 0.00632127 -0.0263698 0.0232637 0.0243265
0.39631 -0.240211 0.300873 -0.111051 0.0215511 0.100757 0.154991 -0.38924 0.530954 -0.0841454 -0.108366 0.0159825 0.182967
0.0158984 -0.00776587 -0.0151913 -0.0445233 0.0390708 0.0405241 0.00384287 0.0127987 0.047277 0.0157763 0.0103305 -0.0297408 0.0193242
0.0509232 0.0121099 -0.0114167 -0.032573 -0.0226818 0.012452 0.0445252 -0.0383735 0.0582342 0.0187465 0.0184611 0.0382497 0.0120186
0.00247677 -0.0323248 -0.0194904 -0.00499665 0.0287649 -0.0284521 -0.0174069 0.0184002 0.00189185 -0.00937484 -0.00121774 -0.0135441 -0.0238316
-0.0629483 -0.0579491 -0.51544 -0.184578 0.398485 0.118522 0.11844 0.208446 0.134963 -0.207841 0.256551 -0.0100609 0.108075
0.0262908 -0.0409616 0.00198142 -0.0187095 -0.0246642 0.0224405 0.0253338 0.0307505 0.0276747 -0.0328171 -0.0338844 -0.00126671 -0.0325324
0.00224361 -0.0392236 -0.004639 -0.00398041 0.0205607 -0.0139458 0.00951642 0.0176115 0.0232233 -0.0215738 -0.00588743 -0.00521348 -0.0228392
0.117804 -0.0711135 -0.0201731 -0.0962922 0.0622873 0.110588 0.0961136 -0.0843886 0.137075 -0.0221832 0.0208293 -0.0014358 0.0770546
0.00815178 -0.0480692 -0.00794038 -0.0210809 0.0125566 0.0286434 0.0475933 0.0174797 0.0502858 0.00902192 -0.02449 -0.0158318 -0.00336741
0.0557857 -0.0795499 -0.0886569 -0.161199 0.0392846 0.0769634 0.0989018 0.0608471 0.090423 -0.0514488 0.0563524 -0.0961463 0.0745341
0.00217271 0.011951 -0.0215904 -0.0198014 0.0165688 0.0289827 -0.0299129 0.0224394 0.0389675 -0.0111052 0.00614292 0.00239255 0.000904209
0.129188 -0.107223 -0.0299026 -0.133788 0.0714073 0.107681 0.122844 -0.0262749 0.241434 -0.0745649 -0.0063311 -0.0255329 0.106051
0.0509312 0.00833612 -0.00207215 0.0101848 0.0141204 0.00375775 0.0241314 -0.0374253 0.0394248 -0.00294086 0.0267431 0.00596397 0.0207909
0.013972 -0.0599197 0.0338228 -0.0492713 0.0301564 0.0307229 -0.0144393 0.00398136 0.01216 0.0197854 0.00621476 0.00134665 0.033864
0.317025 -0.173823 0.119068 -0.0926179 0.0439163 0.0976337 0.163211 -0.200269 0.334398 -0.0683411 -0.0766989 -0.0133995 0.136975
0.0457175 -0.00880119 0.0313673 -0.00651733 0.0158439 0.0286895 0.0069372 0.00954403 0.0878962 -0.0148653 -0.0466427 -0.024874 0.0257648
0.257534 -0.119684 0.0653774 -0.107176 0.0339784 0.0814269 0.0988014 -0.131309 0.288649 -0.0598083 -0.0292676 -0.0251808 0.0782843
0.0491089 -0.0047369 0.0171546 -0.0435517 0.0252845 0.0112908 -0.00580017 0.00684572 -0.00334693 -0.0361536 -0.032301 -0.0259726 -0.0220792
0.0518066 0.0117579 -0.0147799 -0.00671873 -0.0231308 0.0255282 0.00553955 0.0205011 0.0097192 0.0109634 0.00161586 0.013395 0.0455363
0.0962794 -0.0702443 -0.00870079 -0.0897288 0.0335213 0.0998936 0.029298 -0.0334017 0.128548 -0.0339741 -0.0122212 0.0191104 0.0531945
0.0310183 -0.0496659 -0.0061797 -0.0465845 0.0410951 0.0303164 -0.00780078 -0.0345737 0.0678988 -0.0435787 0.0393748 0.00622504 0.0404824
0.0379357 -0.0281997 -0.0207014 -0.0388626 0.0297205 0.0429593 -0.0149643 -0.00544568 0.00505015 0.0289408 0.000477466 -0.0154526 0.0326405
0.0229167 -0.0117282 0.00670849 -0.0324079 0.0266855 0.0311659 -0.0247636 -0.013742 0.00958048 0.0173704 0.0304625 -0.0147598 -0.0186273
0.222797 -0.147348 -0.108688 -0.120446 0.120664 0.036675 0.0383507 -0.0654624 0.238369 -0.183539 0.00648059 0.0443523 0.100139
0.151633 -0.076278 -0.0225462 -0.0823831 0.0247224 0.0497483 0.0427247 0.0132803 0.2042 -0.0690678 -0.0121948 -0.0238467 0.112867
0.0725043 -0.0545237 -0.00295565 -0.0676005 0.0449693 0.0776821 0.0819281 -0.0214965 0.103506 -0.0306767 -0.0227928 -0.000684187 0.038276
0.14819 -0.114157 0.0385962 -0.115858 0.0348155 0.139357 0.135224 -0.113295 0.232159 -0.0988685 -0.0249873 0.0182529 0.107527
0.0312535 -0.0097363 -0.0311812 -0.00693868 0.0281861 -0.0158008 -0.0182774 -0.0331705 0.026379 0.00323569 0.0259932 0.0376414 -0.016017
0.00731044 -0.0580582 0.0326702 -0.0294364 0.0155357 0.0590188 0.00271716 -0.0436164 0.0624475 0.0127682 0.0304029 0.0128722 0.00694104
0.0939014 -0.0293401 -0.0318565 -0.0410997 0.0460902 0.0342282 0.03338 -0.0140353 0.0913943 -0.0741556 0.0344443 0.018056 0.0826483
0.0413788 -0.0226087 0.0186643 -0.0343781 0.0462554 0.060439 0.0180876 -0.0285415 0.0495905 -0.0518277 -0.0273021 0.0219262 0.00345507
0.069767 -0.0379794 -0.0343669 -0.0577788 0.0298422 0.0469594 0.050248 -0.0243874 0.0639174 -0.0126334 -0.0197323 -0.0328637 0.0445398
0.0126332 -0.0432298 -0.0316668 0.0112144 -0.0248503 0.012924 -0.0199656 -0.0138188 0.0554909 -0.0372161 0.0237345 0.0321047 0.0365665
0.229783 -0.119125 0.104412 -0.0735425 0.0582201 0.108414 0.107673 -0.152229 0.288143 -0.0511168 -0.0311687 -0.0212825 0.128536
0.127625 -0.0562082 -0.00730996 -0.0563191 0.0470015 0.0630278 0.0850409 -0.0457777 0.178365 -0.0276232 -0.0287602 -0.0139202 0.0835645
0.0461923 -0.0123586 -0.0406816 0.00880894 -0.031307 -0.0113015 0.0102754 -0.0110441 0.000864345 -0.00293786 -0.00743972 0.0211139 0.0285992
0.0175434 0.0338409 0.0308487 -0.0369073 -0.0246509 -0.0261495 0.00780418 -0.0156438 0.0367483 0.0161569 -0.00186893 -0.0156468 -0.0166152
-0.021583 -0.0240859 0.0363775 0.00354114 -0.00949175 0.0428576 0.0347572 0.0187279 -0.013334 0.00117277 0.0334285 0.0190077 -0.018857
0.147019 -0.0601302 0.0226376 -0.0620932 0.0424662 0.0290807 0.0648333 -0.0315648 0.114086 -0.0586519 0.0214368 0.0348791 0.0780331
0.0116636 -0.129211 -0.18861 -0.104389 0.118546 0.145417 0.145826 0.076816 0.146017 -0.195504 0.0804374 -0.0261633 0.0576283
0.0512662 -0.000974808 0.0245374 0.0142676 0.014418 0.0128781 0.0280843 0.00212404 0.0429054 0.0170307 -0.0269118 -0.0240627 -0.0299386
-0.00728656 -0.0449703 -0.0212445 0.00752518 0.0416503 0.00992987 0.0155307 -0.0202856 0.0485177 -0.0228897 0.0171252 0.0322808 0.0506928
0.0378407 0.0306362 -0.0209611 -0.0224385 0.0439221 0.0329187 0.0139265 0.0149213 -0.00542581 0.0295386 -0.000778158 -0.0270646 0.0351943
0.092227 -0.0926977 -0.033052 -0.049752 0.0510482 0.0901311 0.110283 -0.0103351 0.137472 -0.076785 -0.0250044 0.0343609 0.0417514
-0.58433 -0.758947 -0.70396 -0.150525 0.099214 0.358889 -0.189982 0.686886 0.466579 -0.575705 -0.000784887 0.133693 -0.0270362
0.0703497 -0.00839683 -0.0102588 -0.0576847 0.0125288 -0.012976 0.0328563 -0.0484949 0.0254723 -0.0378247 0.0146926 0.0228278 0.0381843
0.235888 -0.115987 0.10088 -0.111305 0.0701626 0.0791569 0.123437 -0.160816 0.299165 -0.0976406 -0.0799559 0.023082 0.136943
0.0620412 -0.0110427 0.0151587 -0.0707121 0.0549164 0.0376071 0.0188991 0.016288 0.0905025 0.00634867 -0.00851478 -0.00151554 -0.0080213
0.348337 -0.142052 0.133878 -0.147688 0.0754886 0.0760127 0.117264 -0.247899 0.407887 -0.0410352 -0.0779526 -0.0158783 0.113835
0.0588464 -0.0377216 -0.0141116 -0.0278547 0.000123317 0.0195609 0.000578833 0.0103516 0.040701 -0.0216866 -0.0016517 -0.0280896 0.0140773
0.0885709 -0.0181773 -0.0346128 -0.043231 0.0189348 0.0633649 0.0347814 0.0228806 0.0972004 -0.0649154 0.0176128 -0.03149 0.0208516
0.0465623 -0.012099 0.0115676 -0.021841 0.00777733 0.0323803 0.0483532 -0.0339816 0.0815818 0.0126138 -0.0316005 -0.00482814 0.00505477
0.109091 -0.0874141 0.0351757 -0.0761379 0.0745919 0.0623754 0.0716821 -0.0277848 0.126115 -0.0741504 -0.0246876 -0.0158577 0.0879682
-0.00318199 -0.00061553 -0.00353675 -0.0189788 0.0341057 -0.00612531 0.0228008 0.0182538 0.0526356 0.0200102 -0.0367072 -0.0133106 0.0539465
0.0947771 -0.0500235 0.0163266 -0.0941709 0.0631188 0.0696389 0.0825113 -0.0110402 0.137245 -0.070715 -0.0207804 -0.0107084 0.0785398
0.0721375 0.000629028 -0.0393143 -0.00254455 0.0345006 0.0197391 0.0164145 -0.0133531 0.0714248 0.0017929 -0.0186618 0.0136559 0.0344611
0.11719 -0.137107 -0.125873 -0.131042 0.106864 0.0739254 0.0942261 -0.0183558 0.194611 -0.0846377 0.0162288 0.00783408 0.10052
0.0465365 -0.0315936 -0.0472566 -0.0474133 0.0169834 0.0115355 0.0449557 -0.0387006 0.0621746 -0.0629785 -0.0122866 -0.0328891 0.044034
0.0712621 -0.047609 0.0138111 -0.0343143 -0.0193049 -0.0155693 0.0268985 0.0141146 0.0304709 0.00133168 -0.016415 -0.0111262 0.0177998
-0.00113344 0.0195897 -0.0102678 -0.0238514 0.0413535 0.0206262 -0.00524822 0.00706739 -0.00574812 -0.0186351 0.0311734 -0.0148123 0.0459906
0.0530947 -0.0103022 -0.0131184 -0.00773867 0.0199836 0.0448501 0.0089374 -0.0350078 0.0613241 -0.046152 -0.0284199 -0.0180866 -0.00460037
-0.00252703 0.0203663 0.0289567 -0.0514084 0.0311616 0.0463409 -0.00532595 0.00509558 0.00212304 -0.0129109 0.00936949 0.00071483 -0.00373092
0.0451772 -0.0209507 0.0151409 -0.0267715 0.0181707 0.0311878 0.0165383 -0.0083483 0.0875212 -0.0273506 0.00423876 -0.0239096 0.0259184
0.612086 -0.363388 -0.887829 -0.357319 0.277126 -0.0315327 0.0969407 -0.00252735 0.49292 -0.534728 0.290015 0.425454 0.343911
0.032893 -0.050428 0.0220187 -0.0397498 0.0134973 0.0428273 0.0102002 -0.050475 0.044055 -0.0587134 0.0121797 0.0103729 0.000704755
0.12443 -0.0806551 -0.0833171 -0.121779 0.0751748 0.102364 0.138377 -0.0162748 0.177318 -0.134893 0.0314771 -0.03017 0.108285
0.0638608 -0.0235487 0.00751166 -0.0485622 0.0306889 0.0182137 0.0295389 -0.0425265 0.146426 -0.0479882 -0.00813974 -0.044545 0.0781439
0.0207109 -0.0363829 -0.0237742 -0.0297434 0.032876 -0.0175557 0.0234065 0.0403226 -0.0013738 -0.0156244 0.029339 -0.0306607 -0.0046704
0.0558207 -0.0345826 0.0302058 -0.0257449 0.00629727 0.0235327 0.0149737 -0.00470782 0.105273 -0.0608748 -0.00502684 -0.0373602 0.0683877
0.0811744 -0.0277327 0.0032483 -0.0532626 -0.00978145 0.0727829 0.0512586 -0.0244413 0.0779604 -0.0545303 0.00459444 0.0200362 0.0168724
0.00603597 -0.0510425 -0.0043649 -0.0551501 0.00187131 0.0124801 0.021947 -0.0373459 0.0725639 0.0190295 0.0180818 0.0295062 0.0550678
0.0219533 -0.0569117 -0.00983895 -0.0142055 0.00242854 0.0527319 0.00778559 -0.0285959 0.0423761 0.00348951 0.00101989 0.0197879 -0.00716356
0.0321173 -0.00897391 -0.0227619 -0.0725057 0.038712 0.0575822 0.0547875 -0.0223257 0.0852404 -0.0589548 -0.00340598 -0.0264397 0.0505743
0.0334327 -0.0310629 0.0309845 -0.0319747 0.0307165 0.0138176 0.0109931 -0.0275436 0.0318956 -0.0468742 -0.00626725 0.0368001 0.0362967
0.829019 -0.56211 0.907406 -0.0470763 0.163708 0.433791 0.831796 -0.89443 1.30452 0.0481437 -0.141414 -0.241435 0.323967
0.115957 -0.0700651 0.0348711 -0.0587715 0.0320651 0.0249991 0.0811632 -0.0325745 0.126452 -0.0407843 0.0180234 -0.0269661 0.0245141
0.102816 -0.0598607 -0.0538664 -0.0288316 0.0380425 0.013866 0.0580479 -0.035843 0.0690438 -0.0451728 0.0161727 -0.0103646 0.0276772
0.0187238 -0.0147067 -0.0370078 -0.0465968 0.00820108 -0.0134993 0.0589061 0.0168496 0.043937 0.00407421 0.00520586 -0.0257159 0.0194009
-0.0106618 0.00164561 0.00552479 0.000977577 0.0303903 0.00691017 0.0150587 -0.0178102 -0.0151587 -0.0137251 -0.0317544 0.0297458 0.0366379
-0.475302 -0.581407 -0.573351 -0.121655 0.118056 0.378282 -0.121396 0.546507 0.39015 -0.49727 0.0411373 0.12044 -0.0569431
0.0672905 -0.0484679 -0.0629517 -0.0839285 0.044279 0.0546905 0.0968267 -0.00868043 0.117586 -0.0801273 0.040863 0.0181253 0.0389573
0.0827697 -0.0442422 -0.0300828 -0.0518596 0.00306526 0.0366737 0.0181109 -0.0411968 0.0564056 -0.040041 -0.00888769 0.0412604 0.015997
0.0252806 -0.000576237 -0.0170443 -0.0239785 0.0299085 0.0074827 0.0450471 -0.0261957 0.0116167 -0.0038842 0.0103652 -0.011748 0.0298214
0.0281486 -0.0284208 0.0095957 -0.0324158 0.0238588 0.0465372 0.0158015 -0.0350678 0.023208 -0.0113583 -0.0402341 0.0192129 0.0423505
0.0115234 -0.0496263 0.0253449 -0.0549486 0.0378377 0.014079 0.0448472 0.0183534 0.0529159 0.0103496 -0.0401157 0.015566 -0.0187513
0.0874586 -0.0389781 0.00474044 -0.0716996 0.0145238 0.0374288 0.0881611 -0.0501394 0.116285 -0.0458807 -0.0059015 -0.0184808 0.0369794
0.0444925 -0.0306624 0.0297528 -0.003274 -0.00877749 0.0158612 0.0116853 0.0224798 0.0330168 -0.0198603 -0.00885866 0.0127426 -0.0008193
0.0816943 -0.0437228 -0.0279256 -0.113023 0.0798439 0.087462 0.0607335 -0.0415049 0.156213 -0.0484477 -0.00766617 -0.000575009 0.0306183
0.124732 -0.088807 0.00223459 -0.0728382 0.0816396 0.0812664 0.099269 -0.0828353 0.22797 -0.0400699 0.00684213 0.0216998 0.0992961
0.0204593 -0.0142078 -0.00799131 -0.00331237 0.0235325 -0.0113844 -0.019406 0.00750865 -0.00253967 -0.0283624 0.0204654 -0.0218857 0.0287098
0.0141174 -0.0378316 0.0202107 -0.0253807 -0.0112214 0.0215278 -0.0228274 0.0365538 0.0142941 -0.0364371 -0.00205556 -0.0225923 -0.0190499
-0.0170949 -0.0344516 -0.0342936 0.00875848 0.0444168 0.00668538 -0.0227392 -0.00758399 -0.000333277 0.0267328 0.0326826 -0.0110807 -0.0236217
0.0378318 -0.0206795 -0.0287005 -0.0497856 -0.0125033 0.0531275 0.0137801 -0.0104735 0.0364908 -0.021585 0.022774 0.0283508 -0.0242948
0.29353 -0.197674 0.11872 -0.0649658 0.0686736 0.0838478 0.127214 -0.17157 0.354556 -0.0647994 -0.0552912 0.0448994 0.0995722
0.129141 -0.0658198 -0.0922554 -0.084451 0.0898011 0.0669101 0.0527721 -0.0342768 0.219825 -0.0987134 -0.0298035 0.000924559 0.0562085
0.218483 -0.128833 0.021916 -0.130577 0.0567853 0.126604 0.11023 -0.0937711 0.291558 -0.0572231 -0.0139455 -0.00513695 0.097667
0.00566923 0.0192313 -9.52295e-05 -0.00939007 0.0381465 -0.006038 0.0429075 -0.00603535 0.0499395 0.00512508 0.00627148 0.0391239 -0.0108999
0.199901 -0.121851 -0.00859421 -0.0836523 0.0398447 0.0865544 0.0803358 -0.0693628 0.22433 -0.0949155 -0.0241988 0.03188 0.0956434
0.00230563 -0.00783291 0.000160641 -0.020433 0.00245076 0.0240599 0.0295885 -0.00333417 0.0407789 -0.0260535 0.0121627 -0.00463656 0.020397
-1.08036 0.0170164 -2.27838 -1.432 1.57452 4.43448 1.09951 3.57565 -0.292341 -0.603537 -0.386069 -1.28924 -0.113466
0.128017 -0.0529067 -0.0846337 -0.11457 0.0561433 0.0845971 0.0974455 -0.0405993 0.137538 -0.0849656 -0.0203938 -0.0235933 0.0913088
0.0537555 -0.0357447 0.0150687 -0.0569006 0.0504631 0.0193765 0.0487735 -0.00079815 0.0669885 -0.018049 0.00228514 -0.00636463 0.0178856
0.00783982 0.0123708 0.0097251 -0.017976 0.0438193 0.0102462 0.0109859 -0.00262099 -0.00123813 -0.0299871 0.0177452 -0.0163445 0.033698
-0.0102067 -0.0377041 -0.0275492 -0.0210422 -0.00638539 -0.0135487 0.0425616 -0.00710226 0.00971617 -3.14969e-05 0.0223119 0.0200498 -0.0177118
0.0869662 -0.0584779 0.0120563 -0.0287362 0.0198026 0.0663375 -0.00243422 0.0130978 0.0928448 -0.0527674 0.00875893 0.00422645 0.0609288
0.676111 -0.262339 -0.621341 -0.339368 0.210855 -0.0783118 -0.0756046 -0.0654196 0.492694 -0.450931 0.115958 0.452369 0.392882
0.0200476 0.0248673 0.0149134 0.00339156 -0.0200059 -0.00720475 0.00442161 0.00522496 0.0318299 0.00154413 -0.0359869 -0.0374201 0.0210102
-0.00964763 -0.00164927 -0.0179167 0.000450827 0.00760208 0.0449587 0.00500348 -0.0277556 0.0611718 0.00932927 0.017012 0.0160539 0.0160741
-0.0156648 -0.0180063 0.0108663 0.0194218 0.0383105 -0.0182235 0.0221186 0.0318617 0.0126887 0.0285335 -0.020636 0.013362 -0.0284379
-0.00491368 -0.0278012 -0.025243 -0.0322583 0.00208386 -0.00265195 0.0110999 -0.027304 0.0366466 -0.0277829 -0.0222245 0.0020132 -0.0286891
0.224781 -0.112318 0.0583384 -0.0739069 0.0301697 0.0757654 0.114182 -0.160881 0.345198 -0.0861043 -0.045956 -0.0182398 0.141859
-0.00051791 -0.029563 0.00219635 0.0169851 -0.0106799 0.0342232 -0.0291873 0.00699422 0.0454057 -0.00568641 0.0321624 0.00762978 0.00407488
0.0358015 0.00762149 -0.00361704 0.00853219 0.0392658 -0.00701155 0.0124964 0.0236628 0.0561583 -0.0530445 0.00826701 -0.00960373 0.0155766
0.0998943 -0.080108 -0.0289933 -0.0704809 0.0255353 0.0148437 0.051825 0.01414 0.0940168 -0.052219 -0.0168084 -0.0213933 0.0274192
0.0177399 -0.019655 -0.00625101 -0.0412427 -0.0029307 0.0274985 0.0466845 0.0333564 0.0405867 -0.00273337 -0.0188783 -0.0262215 0.0524013
0.0975153 -0.0361703 -0.00132726 -0.0508964 0.0485095 0.0618265 0.0612842 -0.0444944 0.177495 -0.0145577 -0.0473144 -0.0455948 0.0233215
0.121184 -0.100904 -0.11166 -0.106083 0.0478224 0.136001 0.0743414 -0.0162553 0.221191 -0.0789376 0.0225747 -0.0541993 0.0818202
0.0721361 -0.0363506 -0.0410762 -0.0404199 -0.0100232 0.0283673 0.0658859 -0.0207663 0.0333948 -0.0503248 -0.0127831 -0.0220717 0.0464705
0.0377562 -0.0268458 -0.0333724 0.0173191 0.00166371 0.0387661 0.0341777 0.0349141 -0.00209938 0.0060601 0.0310365 0.00767396 0.0300584
0.245731 -0.165455 0.116969 -0.117091 0.0290124 0.0836725 0.128552 -0.155094 0.377521 -0.115897 -0.0287769 -0.00101264 0.117027
0.147939 -0.0873181 0.0355388 -0.0766883 0.0157363 0.0471914 0.10417 -0.0532963 0.168832 -0.0397968 -0.0504249 0.00961867 0.091279
0.0472793 -0.00182012 -0.0122769 -0.0533443 -0.0142658 0.0437573 0.0374645 -0.0110212 0.0789534 -0.0266795 -0.0115508 -0.0216438 0.00805464
0.0851088 -0.10151 -0.0327188 -0.0582831 0.0439831 0.0645961 0.0713458 -0.0154914 0.126464 -0.0503457 -0.027986 0.00375884 0.0506976
0.024203 -0.0442927 -0.0232986 -0.0443323 0.0469098 -0.00217737 0.0358499 -0.000709038 0.0399052 -0.0475387 -0.0127803 0.00439654 -0.0142453
0.022415 -0.0373997 0.0383483 -0.0296517 -0.0100819 0.0387404 0.0114613 -0.0414434 0.0276996 -0.0323265 0.00572457 -0.0190221 0.0373931
0.0654684 -0.0752997 -0.0347388 -0.0666605 0.0321598 0.05399 0.072198 -0.0341627 0.0869974 -0.0603228 -0.00123102 0.0182483 0.055424
-0.503849 0.264032 -1.11222 -1.21254 1.2411 0.844676 0.32962 1.73607 -0.00977586 -0.700489 0.701982 -1.49392 0.0300094
0.00435299 -0.0178067 0.0221484 -0.0193512 0.0184621 0.0195551 0.0190836 0.00431354 0.0580589 -0.0203287 0.0190165 0.0320876 0.0292419
0.621809 -0.412744 0.535575 -0.127136 0.0390213 0.144828 0.300454 -0.641753 0.813726 -0.0686167 -0.185227 -0.0537256 0.287331
0.00738004 0.0267711 -0.0339549 0.0237625 0.0222566 -0.0338862 -0.014911 0.0107439 -0.0203194 -0.0139753 0.0110154 -0.0242114 0.0189591
0.104724 -0.106471 0.00354422 -0.0559992 0.0642969 0.0644142 0.0463566 -0.0677481 0.11588 -0.0816681 -0.0321161 0.0211292 0.0914929
0.0203454 -0.0178086 -0.0428528 0.00545398 0.00465437 -0.00528011 0.0504512 0.00911289 0.0203656 -0.0430291 -0.0355776 0.0149314 -0.011969
0.155621 -0.0666867 0.00049728 -0.103972 0.0254709 0.101605 0.0957511 -0.0103952 0.157747 -0.0517302 -0.0078827 -0.0277857 0.0893022
0.0695738 -0.0427282 -0.0330966 -0.0696503 0.019606 0.0621676 0.0191914 -0.0389015 0.120908 -0.0473462 0.0125617 -0.0217658 0.0758254
0.0407791 -0.0383782 0.0223035 -0.0582406 0.0430499 0.0698846 0.0709428 -0.0332309 0.122174 -0.000207323 0.0140198 -0.00196014 0.049268
0.0393179 -0.0108918 0.007438 -0.0437307 0.027814 0.0657157 0.0532487 0.0248422 0.0822676 0.00251338 -0.00950694 -0.0380248 0.0294622
0.0878171 -0.0215185 0.0347066 -0.0202284 0.0249559 0.0802788 0.0129723 -0.031505 0.119306 -0.0529601 0.0244589 0.0245317 0.0587503
0.0493902 -0.0295436 -0.0604432 -0.0546855 0.0353004 0.0983287 0.0484802 0.00550843 0.15955 -0.0793975 0.00479869 0.0246019 0.0433358
0.0562513 -0.0405761 -0.0541757 -0.0454602 0.0298229 -0.00474776 0.0205018 0.0289625 0.0661462 0.00504109 -0.00658961 -0.0203428 0.0127151
0.0248088 -0.0511202 -0.0135745 -0.00958855 0.0474218 0.0615726 0.0244324 0.0203071 0.0580582 -0.0336576 0.0161352 -0.00198369 0.0115138
0.0206697 -0.0231856 -0.0200207 -0.0500767 0.00516185 -0.00440966 0.0352384 -0.0082598 0.0327045 -0.00113792 -0.0107817 -0.0345197 0.0206783
0.146977 -0.152041 -0.00338419 -0.119977 0.0580168 0.13482 0.13312 -0.0922324 0.246221 -0.0459159 -0.0366011 -0.0520078 0.102981
0.0159786 0.0116418 -0.0359036 -0.00218938 -0.0201213 -0.0173957 -0.0239089 0.00302624 0.021544 -0.0249764 0.0107739 -0.0158826 -0.029367
0.0161141 -0.0431188 0.00432709 -0.0621935 0.0301791 0.0284809 0.0281456 0.0159611 0.0503344 -0.00903923 0.0236272 -0.0162141 -0.00632856
0.000993741 -0.0187558 -0.0429816 -0.0120279 0.0126699 0.00908836 0.0352025 -0.0213072 0.00939617 -0.0172017 -0.0165633 -0.0251597 0.0452638
0.119128 -0.085507 -0.101891 -0.0909425 0.0251318 0.0703277 0.0772846 0.0138826 0.146495 -0.102656 -0.00219693 0.0102169 0.0747717
0.0492123 -0.0261553 -0.0311368 -0.0429403 0.0497022 0.0451874 0.0309296 0.00172936 0.0527252 -0.00365305 -0.0216271 -0.0145205 -0.0194225
0.0131406 -0.0120611 -0.00287869 -0.0461413 0.0308745 0.0358937 0.0120979 0.020143 -0.00120754 -0.0347531 0.00150288 -0.0112811 -0.00672447
0.242198 -0.26644 0.124634 -0.112997 0.0397357 0.120997 0.108432 -0.145873 0.407606 -0.137008 -0.0279241 0.0385172 0.121477
0.0884977 -0.0422139 -0.0349085 -0.0555534 0.0660669 0.0423548 0.0609295 -0.0200891 0.0938281 -0.053876 0.00419903 -0.0114705 0.026536
0.222566 -0.151047 0.085437 -0.115938 0.00746428 0.0780232 0.119421 -0.13739 0.297741 -0.0584785 -0.0509084 -0.0358706 0.103972
0.0678244 -0.0820179 -0.0224087 -0.0329586 0.00813113 0.0734711 0.0202654 -0.0461088 0.112253 0.00503666 -0.0510188 0.0368463 0.0440406
0.109254 -0.0848214 0.00060414 -0.135968 0.0436035 0.133119 0.0990843 0.0078443 0.161309 -0.0430646 -0.012922 -0.00720414 0.0813579
0.0391752 -0.0196176 -0.0265213 -0.018845 -0.00241762 -0.000690173 0.00672019 -0.0311284 0.034058 -0.0223566 0.0171983 -0.0310665 0.0278132
0.010208 -0.0399674 0.0276981 -0.00608769 0.0356047 -0.000962023 0.0224279 -0.00126494 0.06994 0.00789345 0.0244148 0.0322913 0.0420153
0.0431031 -0.0598384 -0.0416661 -0.0136184 -0.00441015 0.0273441 0.018346 -0.0363049 0.0567858 -0.00329953 0.0206491 0.0166523 -0.00671023
0.0826574 -0.018326 0.0199592 -0.0368403 0.0167863 0.0528585 0.0317044 -0.0356059 0.0763129 -0.0308653 0.0144521 0.0115722 0.0655412
0.0629371 -0.0233568 0.0133285 -0.0303743 0.0260226 0.0669846 -0.0162021 -0.0431923 0.0242946 -0.00361939 0.00985448 0.00422244 0.043334
0.0118019 -0.0404571 -0.0210716 0.00449792 -0.00847693 0.0409029 0.00363254 0.0422501 0.0260826 0.01685 -0.0270776 0.0176352 -0.00466201
0.039543 -0.0595802 -0.0122179 -0.0588625 0.0274595 0.0695483 0.0119117 0.0266613 0.0323807 -0.0171873 -0.0197004 -0.0300162 0.0279017
0.149846 -0.10105 -0.0209263 -0.0587832 0.0751997 0.0820122 0.0432908 -0.04647 0.171775 -0.0449011 -0.0493339 -0.018807 0.0873798
0.0250555 -0.014519 -0.0109711 -0.050552 0.0294712 -0.0174559 0.0261646 -0.0094941 0.0307065 -0.0213754 0.0294705 -0.00564773 0.00969034
0.747934 -0.467363 -0.708671 -0.346559 0.307754 0.0443871 0.0273923 -0.211726 0.578746 -0.693897 0.112596 0.569825 0.56417
0.0463593 -0.0484091 -0.011326 -0.0626097 -0.00848313 0.0347652 0.0281293 0.0328013 0.0326953 -0.0458893 -0.0329903 -0.0435007 0.0302108
-0.0192819 -0.0183986 -0.0304297 -0.00375942 -0.0176045 0.00295614 0.028534 0.0173789 0.00309227 0.00316821 -0.0382064 -0.0234207 -0.0272852
0.183785 -0.0820956 -0.0115434 -0.118194 0.054723 0.103376 0.0800792 -0.0628753 0.191581 -0.0297862 -0.0593435 -0.0267933 0.102972
0.0927587 -0.0389824 0.0286674 -0.0711315 0.0753196 0.0584751 0.0733549 -0.0359424 0.152761 -0.0150746 -0.00949117 0.0147751 0.0154667
0.00330534 -0.00508709 -0.0372223 -0.00270292 0.00814405 -0.0189149 0.03057 0.0200082 0.0322213 -0.00982478 0.00596395 0.0178834 0.0344428
0.0634298 -0.0100497 -0.0215495 -0.0251501 0.0473473 0.00684454 0.0091007 -0.0094959 0.0736159 -0.0365799 -0.00452602 0.0131344 0.0371134
0.104147 -0.127319 -0.0317323 -0.126394 0.0981641 0.114113 0.100181 -0.0421477 0.187944 -0.0668095 0.0570963 -0.00313257 0.0636005
0.0528522 -0.0264337 -0.0326515 -0.0426433 0.0526272 0.0761061 0.0206743 0.0624139 0.0766008 -0.00190787 0.00504931 -0.0646783 0.00923875
0.116167 -0.0632094 -0.0841312 -0.0589314 0.0720818 0.0143599 0.0576761 -0.0343924 0.134616 -0.0452357 -0.020293 0.031318 0.0443761
0.118988 -0.0551984 0.000990136 -0.0470341 0.0538603 0.0445456 0.0121817 -0.00496707 0.0757631 -0.00865213 -0.045983 -0.00347454 0.0804468
-0.0163939 -0.0525135 -0.0171743 0.0138492 0.0419894 0.0220225 -0.0217388 0.000597694 0.0448262 0.00160165 0.013727 0.0147581 -0.0232168
-0.0135772 -0.0140144 -0.0329158 0.0129046 -0.018914 0.0217442 0.0329147 0.0162369 0.0374543 0.00427534 -0.0106818 -0.00742306 0.0261794
0.0809973 -0.0333531 0.00743164 -0.0293442 0.0617799 0.0462542 0.0544938 -0.039897 0.0911837 -0.0719436 0.0184805 0.0284108 0.0340535
0.0483168 -0.05622 -0.000581106 -0.0369572 -0.0116644 0.0220354 0.0476942 0.00398569 0.06305 -0.0343589 0.030553 0.00257609 0.00402119
-0.146351 -0.0523771 -0.10631 -0.178465 0.103336 0.502812 0.187507 0.301099 0.060806 0.0548145 -0.069764 -0.123474 0.0176668
0.134804 -0.100613 0.0117122 -0.0680711 0.0307958 0.0965224 0.0538917 -0.0643968 0.191892 -0.0576118 -0.0111765 -0.024159 0.0767835
-0.012431 -0.0235066 0.0102627 -0.027956 0.0142869 0.0193233 0.028063 0.00460515 -0.0141511 -0.0256845 0.0120619 0.00646897 -0.0128045
0.322234 -0.187377 0.226372 -0.0637102 0.0180155 0.0791583 0.189666 -0.303756 0.418898 -0.0546355 -0.0776169 -0.00591424 0.192277
0.00833289 -0.00669754 0.0284118 -0.0233812 0.0157025 -0.0129834 0.0138253 -0.0254273 0.0404556 0.0111663 -0.0133922 0.0174165 -0.0329106
0.263674 -0.212871 0.0331082 -0.0894234 0.033152 0.0540883 0.150108 -0.192876 0.332135 -0.114554 -0.0345884 0.0184035 0.14239
0.0169236 0.0137477 -0.00245174 0.0136875 -0.00127054 -0.0157882 -0.0168151 -0.0360699 0.0555155 -0.0288297 0.0193591 -0.00656058 -0.0212509
0.0760099 -0.00759762 -0.0346859 -0.0377119 0.00671608 0.00141473 -0.00526047 -0.0269077 0.0397727 -0.0070809 0.0325149 -0.017027 -0.00125451
0.0489151 0.0141142 0.0154473 -0.0545987 0.00117709 0.0143375 0.0487333 -0.00354676 0.0456746 -0.0415423 0.000778458 -0.00420872 -0.0150334
0.245478 -0.145244 0.110283 -0.0702321 0.0384549 0.0986202 0.065778 -0.192376 0.30016 -0.0487616 -0.0691647 -0.00306327 0.0985092
0.0369671 0.0035264 -0.0272812 -0.0410973 0.0138398 -0.0266627 0.0141801 0.00473987 -0.0274071 -0.0120851 -0.00552879 0.0326964 -0.00587491
0.0829571 -0.0818898 0.0376715 -0.055657 0.0131489 0.0498561 0.081998 -0.024739 0.151038 -0.0677061 0.00704004 -0.00461247 0.0853869
-0.00187097 0.0186874 0.00897681 -0.00810825 0.00135467 -0.0239817 0.0184915 -0.0114892 0.0380053 -0.00723987 -0.0331822 0.0286695 0.0343872
0.0418116 -0.0863144 -0.0242699 -0.0367161 -0.0010713 0.0878145 0.0607988 -0.0118595 0.0822612 -0.0423353 -0.0289695 -0.0204122 0.0613302
0.0260851 -0.0517072 0.0224073 -0.00171564 -0.00121009 -0.00420983 -0.0117311 0.0173433 0.0315951 -0.00659024 -0.0179621 -0.00552326 -0.00834629
0.0265803 -0.0559999 -0.0380342 -0.0167888 0.0314017 0.030424 0.00921381 -0.0387311 0.0244308 0.0212916 -0.0312195 0.0078057 0.0153558
0.0114528 0.0176418 -0.0203938 -0.0259172 0.0205399 0.04581 -0.0072001 0.0199078 0.011097 -0.0265919 -0.0183613 0.0170312 -0.00247898
0.341164 -0.203486 0.182603 -0.0528735 0.0167516 0.0272868 0.208224 -0.330208 0.455758 -0.0635318 -0.0361985 0.0414115 0.200461
0.111247 -0.0587592 -0.0289426 -0.049245 0.0314103 0.0808369 0.0801734 -0.020444 0.156784 -0.0116452 -0.0324826 -0.0173415 0.0713575
0.00129464 -0.000761148 -0.00428959 -0.0334444 0.021675 0.0238389 -0.0209481 -0.026566 0.0338463 -0.0476123 0.0196851 -0.00463251 0.0396201
0.0527008 -0.00774334 -0.0349357 0.0130788 -0.0231199 0.0562805 0.00444171 -0.0153847 0.0347895 -0.0431239 0.00680415 -0.032966 -0.013715
0.0690551 0.00595496 0.0186825 0.00103385 0.0165694 0.0183594 0.0498758 -0.00581237 0.088581 -0.0243403 -0.0208075 -0.02054 0.0555578
0.038726 -0.0487026 -0.0552166 -0.0379734 0.0633262 0.0371016 0.0832039 0.0252523 0.123249 -0.0598308 -0.00388682 -0.010167 0.0218725
0.023014 -0.030655 0.0231735 -0.0141393 0.00236592 0.0610533 0.0231863 -0.0421872 0.0401644 -0.0443046 -0.0221087 -0.00702737 0.0518449
0.147806 -0.203951 -0.0475967 -0.142369 0.0575522 0.152547 0.110221 -0.0337374 0.26693 -0.126832 0.0140411 0.0178033 0.0984229
-0.0222281 -0.00224326 0.0174701 -0.00762883 0.0239854 0.0377771 -0.000691316 -0.00351586 0.0394376 0.0225495 0.0395248 -0.00339509 0.0450671
0.0438692 0.0254558 0.0168203 -0.00705482 -0.0177916 0.0330386 -0.0216351 0.0333013 -0.00102729 0.0229673 0.00727207 0.0288153 0.0215342
0.15586 -0.0550586 -0.0208355 -0.0953541 0.0272722 0.0451558 0.0565558 -0.0657016 0.177474 -0.0775811 -0.0345591 0.00603439 0.0550767
0.0824888 -0.0261101 -0.0391464 -0.0382611 0.0722884 0.0895822 0.0789018 0.00140996 0.0906887 -0.043795 -0.018907 0.0195319 0.0233461
0.105228 -0.102559 -0.129516 -0.106702 0.0327414 0.120636 0.0526348 0.0114955 0.153645 -0.0897533 0.0493714 0.020014 0.0211558
0.0787269 -0.0670089 0.00652151 -0.0463117 -0.00885157 0.0506663 0.025426 -0.0206049 0.0696063 -0.051764 -0.0270907 0.0284355 0.0479013
0.146878 -0.114505 -0.116778 -0.111404 0.0958131 0.065543 0.0416419 -0.0633933 0.191462 -0.124163 0.040781 0.016591 0.080187
0.0358111 -0.0666029 -0.0391892 -0.0543737 0.0503533 0.0174136 0.058442 0.0127866 0.0949528 0.00878138 -0.00948898 0.0324753 0.0628117
0.0848641 -0.0576376 -0.000905892 -0.0744388 0.070085 0.025177 0.0415782 -0.0495866 0.0959312 -0.0104201 -0.0148627 0.0171803 0.0253094
0.0536983 -0.00800944 0.0114014 -0.037684 0.0391618 0.0146811 0.0458069 -0.00474538 0.0730967 -0.022342 0.00899915 -0.0285918 0.0275672
0.327332 -0.202482 0.144775 -0.12972 0.0393464 0.102071 0.0980899 -0.220101 0.40269 -0.0664984 -0.0923235 0.0213318 0.133581
-0.0274345 0.0146083 -0.0253523 0.0264118 0.0191668 -0.0167224 -0.002561 -0.0268714 -0.0182988 0.0352508 -0.00209245 0.000518003 0.0237086
0.0591467 -0.0208072 0.0226704 0.0110585 -0.00554125 -0.00985706 0.015796 -0.0222993 0.0567472 0.00345763 -0.03461 -0.0152418 0.00813063
0.0135972 -0.0443074 -0.00732555 -0.0429323 -1.52996e-05 0.0375653 0.0365028 0.0301331 0.0128421 -0.0227078 -0.00107358 0.00250472 0.0428618
0.0123488 -0.0422291 -0.0122383 -0.0460059 -0.0110572 -0.012736 -0.0157852 -0.0363648 0.0548263 -0.0315541 0.0264778 0.00701899 0.0160684
0.0375749 -0.0441722 -0.0310105 -0.0312769 0.00278721 0.0602985 0.00191895 -0.0187219 0.0658076 0.00131282 0.00862406 0.0212286 0.0331312
0.0866665 -0.0273996 0.0171119 -0.016878 0.0643417 0.00733675 0.0190824 -0.00413144 0.129454 -0.0331247 0.0285924 0.0108346 0.0625018
0.119326 -0.0596452 -0.0147951 -0.0653287 0.0731125 0.128708 0.103207 -0.0270171 0.130063 -0.0664016 0.0115565 -0.0184021 0.0895182
0.0691549 -0.0299417 -0.0346566 -0.0657971 0.00138942 0.0532804 0.0434762 -0.0350089 0.0367212 -0.0135436 0.026814 -0.0244327 0.00219508
0.0580566 -0.0408163 0.00174771 -0.0519571 -0.0301095 0.0340768 0.0237716 0.00688202 0.00643923 -0.0453056 -0.030346 -0.00485117 0.0196264
0.0712305 -0.0768375 -0.0568868 -0.100257 0.0360346 0.0677925 0.0737309 0.0228968 0.10003 -0.0699613 0.038636 -0.0410372 0.0436868
0.0389856 -0.106018 -0.109533 -0.125709 0.056738 0.144812 0.0927217 0.0608841 0.103926 -0.103917 0.0284231 -0.044707 0.0634133
0.0919857 -0.0445052 0.000156213 -0.0823845 0.0706169 0.0307061 0.0915679 -0.0319859 0.126279 -0.0162739 -0.0182461 0.0233717 0.0705118
0.0434643 -0.0354209 0.0135975 -0.0123058 0.00305125 0.0270724 0.0129394 -0.00810678 0.0348053 -0.0362467 0.0312155 0.0240044 -0.0172718
0.0254803 0.00845941 0.0226539 -0.0450098 -0.0171987 -0.0164901 0.0174498 0.0126827 0.02222 0.0199036 -0.0214463 -0.0127964 0.038479
0.654906 -0.316675 -0.616562 -0.32039 0.224128 -0.0845131 -0.0715826 -0.162707 0.454366 -0.408032 0.0826157 0.441079 0.338251
0.210166 -0.133359 0.062948 -0.112697 0.0503477 0.0819855 0.130278 -0.153065 0.261033 -0.10645 -0.0665432 -0.00828847 0.12692
0.0565358 -0.0309317 -0.0196503 -0.0125446 0.0377708 0.0190694 0.0308524 -0.0158454 0.0130295 -0.0051147 -0.0316944 0.00133705 -0.0176745
0.0101238 0.00420115 -0.00897792 -0.024193 0.0131317 0.0341312 0.0355722 0.011042 0.0208672 -0.0279133 -8.93681e-05 -0.0276831 0.011249
0.0829737 -0.0271131 -0.0176558 -0.0559257 0.057085 0.0485274 0.0336959 -0.0260844 0.0944418 -0.0117217 -0.0136102 -0.0241255 0.0330594
0.0311235 0.0307424 0.0128653 -0.00639204 -0.00930081 0.0309976 0.0236734 -0.0137994 -0.00623406 -0.0265142 -0.0109258 -0.00329833 -0.0181302
0.0198302 -0.00169414 -0.0269181 0.00369183 0.0158738 -0.035213 0.00811605 0.0314958 0.00745938 0.0189546 0.0212362 -0.0281313 0.0307468
0.0131077 -0.0214949 -0.00636477 -0.0257231 0.0378703 0.00223599 0.0338876 0.0179291 0.0391902 -0.0455345 0.00307403 -0.00919172 0.0411037
-0.00452849 0.0278957 0.0051451 -0.0383908 -0.0131584 0.00892958 0.0287157 -0.00731748 0.022099 -0.0326924 -0.0200913 -0.00437714 0.0353805
0.747721 -0.515207 0.789622 -0.216437 0.00460324 0.292138 0.605938 -0.768945 1.17257 0.0653829 -0.284525 -0.225808 0.306725
-0.0110201 0.0159718 0.0194761 -0.00494987 -0.0133198 0.033923 0.0361953 -0.00224386 -0.0321631 -0.00691993 -0.0188574 -0.0230217 -0.00663276
0.0320773 -0.0357686 -0.0241205 -0.0457227 -0.0136045 0.0219883 0.0378127 0.00505041 0.0788568 -0.0435488 0.0132269 -0.024122 -0.00209425
-0.00782079 -0.011918 -0.0402171 0.0169065 0.0396538 0.0165046 0.0427471 -0.0143463 0.0293074 -0.0401815 0.0252921 -0.0312105 -0.0121876
0.0649725 -0.0204589 0.0277806 -0.0445198 0.00600617 0.0176031 0.0177082 -0.0035775 0.0491084 -0.027116 0.0188973 -0.00536885 0.0614792
0.119103 -0.0994757 -0.0752408 -0.146161 0.090113 0.146905 0.0843573 -0.0345449 0.189923 -0.0741422 0.0434184 -0.0194221 0.105773
0.0242534 0.00594293 -0.0492341 0.00497093 0.00234207 0.0600106 0.0356989 -0.0304059 0.0388794 -0.0537957 -0.00851841 -0.0257457 -0.000422361
0.0752383 -0.0826248 -0.022789 -0.073202 0.0225662 0.0946837 0.0593093 -0.0491213 0.166355 -0.0110297 -0.00757567 -0.0057146 0.08339
0.0355507 -0.0468971 -0.06055 -0.0817899 0.0581503 0.0286329 0.0372749 -0.0189657 0.080571 -0.0581565 -0.0124413 -0.02129 0.0708319
0.134256 -0.0880227 -0.00470519 -0.106117 0.0260303 0.0592042 0.0812154 -0.0406145 0.135406 -0.0153347 -0.00944697 -0.0239086 0.09309
-0.0185503 -0.156027 -0.297589 -0.140785 0.157664 0.195345 0.102405 0.134956 0.0854519 -0.124627 0.132683 0.0509269 0.0557942
0.030982 0.00687003 -0.0254695 -8.69606e-05 -0.000112633 0.00922631 0.00446716 -0.0145962 -0.0141596 0.00303088 0.0342747 0.0089486 0.0127449
0.0502193 -0.0214549 -0.0272849 -0.048557 0.0271308 0.0318804 0.0336848 -0.030332 0.10247 -0.0572638 -0.0351231 -0.0269055 0.0501405
0.101952 -0.0628678 0.0220842 -0.0153325 0.0585389 0.0247024 0.0214352 -0.00414491 0.085584 0.00200302 -0.0181413 0.00481484 0.0496103
0.0821812 -0.0703808 -0.0215391 -0.0945558 0.0580268 0.0302239 0.0492103 0.0184949 0.0900895 -0.0785538 0.033051 -0.00499077 0.0287616
0.118411 -0.148712 -0.0431724 -0.104033 0.0829114 0.103868 0.096127 -0.0325777 0.241314 -0.108988 -0.00416328 -3.81754e-05 0.117376
0.042316 -0.0540295 -0.00342538 -0.0745027 0.0283129 0.0506826 0.0665961 -0.00751336 0.0686108 -0.0336525 0.0147238 -0.014454 0.0202518
-0.0136515 -0.0353 0.014282 -0.0140943 0.012249 0.0169804 0.0339658 0.0357029 -0.0223138 0.0325994 0.0328061 -0.0148586 -0.0140816
0.148972 -0.125586 -0.0106885 -0.0536761 0.0567312 0.0724493 0.101358 -0.0957381 0.181144 -0.0875585 -0.0127166 -0.0286044 0.095378
-0.0154472 -0.0118177 -0.0182424 -0.00123317 0.0207442 -0.0152835 -0.0332513 0.0191467 -0.0254467 0.00313541 0.0325845 -0.0410681 -0.0348193
0.0873179 -0.0835537 -0.00998035 -0.0424981 0.0445057 0.0660662 0.041919 -0.0362263 0.0961009 -0.0667008 0.000328009 -0.0210598 0.0716974
0.122067 -0.0472992 -0.102739 -0.086378 0.070429 0.101656 0.0602895 -0.00881079 0.14023 -0.0894902 0.0429578 -0.00301121 0.0287566
0.0732068 -0.0411897 -0.0539707 -0.067841 0.0553607 0.0107177 0.0820455 -0.0160649 0.0648253 -0.0081571 0.0408634 -0.0337627 0.0531008
0.11566 -0.0385214 -0.00124047 -0.0616631 0.0029929 0.0807755 0.0336911 -0.0658628 0.105899 -0.0467655 -0.039841 0.01059 0.0885929
0.0177796 -0.0397879 -0.0241424 0.0160061 -0.00508573 0.0163305 0.0378825 0.0293657 0.00579203 -0.0213454 -0.0113015 -0.00754017 0.0144934
0.0656819 -0.0386847 -0.0219167 -0.0237455 0.033244 0.046002 0.0376001 0.0249433 0.0588349 -0.0276445 -0.032014 -0.000739531 0.00466503
0.041481 -0.0291752 -0.00388602 -0.0525974 0.0109973 0.0255283 0.0408776 -0.0210534 0.0325992 0.000242841 0.0224502 -0.00198215 0.0111905
0.0969101 -0.0640245 -0.0348649 -0.0226432 0.03544 0.0235722 0.0250861 0.00650693 0.118719 -0.0609545 -0.0176644 -0.0122496 0.015896
0.407645 -0.211141 0.232031 -0.130156 0.0670858 0.0425765 0.192764 -0.345495 0.490988 -0.0586985 -0.0934008 -0.0203981 0.163732
0.0633113 -0.0344253 -0.0275324 -0.0700103 0.0487938 0.0704175 0.0288969 -0.0307322 0.0700725 -0.0380072 0.00452117 0.0356895 0.0810777
0.49831 -0.383113 0.285061 -0.0699082 0.00986387 0.0491599 0.261821 -0.452081 0.663555 -0.0799815 -0.121031 0.0496195 0.233658
0.190995 -0.150639 0.0229434 -0.0955252 0.0425473 0.0629112 0.0830924 -0.133329 0.235995 -0.0624342 -0.0692514 0.0199883 0.104643
0.0602726 -0.011635 0.0200901 -0.0357803 0.0255299 -0.0138631 0.0393244 -0.0434378 0.0494187 -0.031265 0.0167363 -0.0215277 0.0216031
0.0465711 -0.0311123 -0.0252659 -0.061914 0.00427705 0.0865456 0.0711043 0.0037309 0.0849305 -0.0635229 -0.0222028 0.0253926 0.0427615
0.00528522 0.000806565 0.00617385 -0.013216 -0.0378104 0.00261333 0.0277488 -0.00764814 0.0077045 0.00159123 -0.0344437 -0.0318428 0.0363058
0.96162 -0.455229 -1.15687 -0.586477 0.41166 0.0406099 0.0703915 -0.0203347 0.734065 -0.706809 0.25489 0.553076 0.547222
0.0350647 -0.0196269 -0.01721 -0.0261652 0.0473209 -0.0112448 0.024479 -0.0306133 0.0799846 -0.00319777 0.0256017 -0.00209489 0.0263435
0.0932778 -0.0703439 0.0207839 -0.0466447 -0.00859192 0.0576439 0.00644654 -0.00331206 0.0726726 -0.0543804 0.0194926 -0.024707 0.0267246
0.098065 -0.118471 -0.0172134 -0.0939583 0.02044 0.103845 0.0523421 0.00394423 0.13749 -0.0530683 -0.00285566 -9.72573e-05 0.0427827
0.00110926 -0.0422846 0.0193552 0.00262394 0.0305095 0.023818 0.0270396 -0.00100744 0.0376776 -0.0126605 0.0146885 0.0352903 0.00354052
0.0181421 -0.0367077 0.0154417 -0.062071 -0.014419 0.0306566 0.0228153 -0.0307464 0.0665938 -0.0297064 -0.00369036 -0.00591961 0.0242142
0.0918726 -0.0175177 0.023144 -0.059692 0.0189827 0.0391356 0.0480149 -0.00158359 0.13376 -0.0465647 0.0155093 0.0123172 0.0353489
0.205048 -0.129129 0.081717 -0.102752 0.0772027 0.0791844 0.128399 -0.186135 0.3204 -0.0600306 -0.0650609 -7.02387e-05 0.0909234
0.0181116 -0.0231876 0.012514 -0.00639986 0.0247846 0.00485274 0.0142615 -0.0167583 0.0168248 0.000986772 0.024653 -0.021545 -0.00801626
0.0177384 0.00721797 -0.0190242 -0.0477542 -0.0234124 0.0224262 -0.02084 -0.00513665 0.0639441 0.0236197 -0.00540756 0.0149947 0.00529767
0.0353852 -0.0112841 -0.0277384 -0.0129465 0.0313778 0.0188332 0.0308552 -0.0196329 0.0247577 -0.0182224 -0.0257668 0.0362341 -0.0280905
-0.00418431 0.0181577 0.0202464 -0.00888279 -0.0187128 0.0622452 -0.0177142 0.00900594 0.0671936 -0.0359145 -0.0391287 0.0145778 -0.0102659
0.440876 -0.258151 0.228736 -0.0871062 0.0060669 0.0402303 0.161035 -0.39201 0.56356 -0.107343 -0.114207 0.00644025 0.167667
0.810472 -0.457758 -0.626978 -0.313314 0.236165 0.0527241 -0.0236087 -0.296448 0.558069 -0.637671 0.0641293 0.550521 0.479015
0.0655707 -0.0409729 -0.029842 -0.0491575 0.0200956 0.052472 0.0560437 0.000881676 0.103099 -0.0442079 -0.0320317 0.0239792 0.0152904
0.790612 -0.440153 0.459417 -0.07747 0.198292 0.225188 0.502421 -0.792945 1.08527 -0.092779 -0.0881682 -0.0353763 0.350179
0.0924553 -0.06452 -0.0464427 -0.0198741 0.00915923 0.0388354 0.0275417 -0.0566868 0.11382 -0.0297595 0.0363723 0.0297311 0.0481288
0.0598686 -0.0259309 -0.0348925 -0.0510285 0.0361853 0.0502476 0.0510998 -0.0422253 0.065185 -0.0615748 -0.0259226 0.0282491 0.0509265
0.0335917 -0.0261295 -0.00667702 -0.0401226 0.0552368 0.0225797 0.0554034 0.00491502 0.0678065 -0.0133272 0.0269207 -0.0335295 0.0302729
0.0233672 -0.0132724 0.0115541 -0.037357 -0.0278034 -0.0111068 -0.00791476 -0.0351705 -0.00433536 0.0243768 -0.028731 0.00966383 -0.00710805
0.0673423 -0.0144892 -0.00395994 0.0144186 -0.0102527 0.0130532 0.0213835 -0.0109685 0.0232057 -0.00979804 0.0110392 -0.0373789 -0.00851719
0.00311287 -0.0171934 -0.029368 -0.0301799 -0.0222967 0.063534 0.0429397 -0.000576218 0.0155376 -0.00619213 -0.0404739 0.0264426 -0.00921308
0.0822246 -0.0747661 -0.0184731 -0.0535839 0.0322429 0.00623587 0.0348892 -0.0291291 0.110319 -0.0373917 0.00249951 0.026799 0.0430835
0.0322093 -0.0411834 -0.0136547 -0.019015 -0.00891955 0.0197076 0.0229309 -0.0363533 0.0278199 -0.0380249 -0.0226779 0.00926374 -0.00254472
0.0737652 -0.0841246 -0.0774273 -0.0737685 0.05782 0.0953197 0.0605693 -0.0248194 0.135189 -0.0720963 -0.0276795 0.0222019 0.076861
-0.00375755 -0.00436957 0.0209756 0.0266901 0.00356911 -0.0197047 -0.00854897 -0.00744584 -0.0175563 0.00320587 -0.00817363 0.0123027 -0.0178277
0.0894289 -0.0138654 -0.0237889 -0.0706221 0.022218 0.0165065 0.0688195 -0.0368364 0.0890044 -0.0354469 -0.00203753 0.0301569 0.0640783
0.0693229 -0.00451152 -0.0142074 -0.025413 -0.0142473 0.0553741 -0.00055842 -0.0437728 0.0757103 0.0133169 -0.00686516 -0.0328938 0.0292643
-3.16279e-05 -0.0355693 0.00966728 0.0318805 0.0373135 -0.00873997 0.0192894 0.0125007 0.0108206 -0.008494 -0.0290376 0.0302876 0.0254616
0.0675722 -0.0150268 0.0207566 -0.072577 -0.00211765 0.0833044 0.00501879 0.0173758 0.0345578 -0.0234586 0.00514387 0.0071353 0.0577853
-0.705658 0.018118 -1.0087 -1.15504 0.619421 0.637656 0.453073 1.66502 0.261839 -0.238899 0.120567 -0.680916 0.205732
0.216391 -0.136586 0.101348 -0.0806318 0.0901984 0.126524 0.114789 -0.125199 0.283479 -0.0336074 -0.0743862 -0.0130342 0.0569151
0.101047 -0.00792246 0.00177655 -0.0280625 0.0572872 0.000865396 0.0234708 0.00718719 0.0470218 -0.0637669 -0.0182761 -0.0099774 0.00705901
0.0295061 -0.0805117 -0.0383806 -0.0228661 0.0599853 0.0726808 0.0396001 0.0155324 0.0513664 -0.0286423 -0.0231201 0.0137517 0.0231936
0.0774384 -0.0391174 0.017851 -0.0477691 0.0381207 0.0821888 0.0664113 -0.00080944 0.14255 -0.0404616 -0.0200729 -0.0332478 0.0151069
0.0264776 -0.0201328 0.00537991 -0.096029 0.0796079 0.11948 0.092518 0.0799665 0.0647302 -0.0523568 -0.0342878 -0.0255923 0.00071512
0.0951438 -0.0498545 0.00702409 -0.0303183 0.0496278 0.0330646 0.0248927 -0.0139422 0.084085 -0.0598456 -0.0476569 0.0221633 0.0435419
0.0801398 -0.0208255 -0.00448113 -0.0369648 0.0422801 0.0270264 0.0418253 -0.0677031 0.115603 -0.00684393 -0.0227082 -0.0217698 0.0653964
0.0249897 0.000705448 0.00655282 -0.0480717 0.0448623 -0.0214073 -0.0230317 -0.0277245 0.0222727 -0.00306176 0.0392465 0.00671381 0.00107539
0.11794 -0.0474883 0.0266546 -0.094429 0.0661662 0.0729659 0.0337813 -0.000869408 0.111832 -0.0576467 -0.0403253 0.0326217 0.0157099
0.641179 -0.338905 0.567825 -0.168921 0.0578424 0.23112 0.397777 -0.640994 0.877962 -0.0879249 -0.192193 -0.0366181 0.29737
0.00527533 -0.0522093 0.0240201 -0.048841 0.031288 0.0189872 0.0523195 -0.0337372 0.0703464 -0.019786 0.0223227 -0.00285601 0.00428001
0.456823 -0.290348 -0.566407 -0.221242 0.164639 -0.0606339 0.0630711 -0.0888801 0.361364 -0.386621 0.24803 0.273895 0.214916
-0.034946 0.0181441 0.00844282 0.0276475 -0.0151735 -0.0174822 -0.0108954 0.00633482 -0.0141367 -0.0339915 0.0219768 0.00300804 -0.00967974
0.0677522 -0.0721864 -0.0451714 -0.0903747 0.0806724 0.0910111 0.0553081 -0.0337764 0.146061 -0.0757748 -0.0127438 -0.0163144 0.0771779
0.044545 0.00203947 -0.0300934 -0.0173837 0.0219917 0.03329 0.0472723 0.0353106 0.0515607 -0.00655326 -0.0359111 -0.016189 0.0462419
0.0956463 -0.0550826 -0.0351843 -0.0328903 0.0528374 0.0869442 0.0880616 0.00719582 0.0840578 -0.0174415 0.0273547 -0.0464283 0.0433014
0.0905658 -0.00588177 0.00230331 -0.00312721 -0.00453166 0.0484151 0.0681031 -0.0466837 0.0711482 -0.0260578 -0.0287319 0.0151844 0.023002
0.116666 -0.0929035 -0.0276613 -0.0389138 0.0503569 0.0889886 0.0507792 -0.0861292 0.136672 -0.0584954 -7.57853e-05 0.000348311 0.0357564
-0.00302217 -0.0285769 0.00620446 0.00551489 -0.0263947 -0.014312 0.0334912 0.018921 -0.0144357 -0.0377107 -0.0228242 -0.0154912 0.0268896
-0.0257526 0.0218614 -0.0388031 -0.0482776 -0.0210448 0.00719368 -0.00543994 0.0287086 0.00314973 0.0180455 0.0351728 0.02898 -0.00788965
0.148924 -0.0932345 -0.057444 -0.113959 0.0475712 0.143026 0.0838329 0.0176572 0.147705 -0.0858402 0.00185155 0.0113699 0.0844664
0.0738537 -0.0965179 -0.0717818 -0.0874461 0.0856523 0.126235 0.0685224 0.0119306 0.177364 -0.0775478 0.0203132 -0.0317056 0.0796762
-0.00223886 -0.0237522 0.0140828 -0.0331669 -0.000932411 0.00188409 -0.0127745 -0.02988 0.0200564 -0.0267071 -0.0347824 0.0267025 0.0357034
0.101022 -0.0645705 0.0188476 -0.0318697 0.0287864 0.0643411 0.0622081 -0.0636338 0.125962 -0.0528603 0.0152271 0.0020189 0.0595821
0.0505296 -0.0221175 0.0287758 -0.0380261 -0.00282921 0.033939 0.0254527 0.00762615 0.0404679 -0.0476742 0.0267179 0.0207901 0.014059
0.0283064 -0.0438196 -0.00574831 -0.0124122 0.0521372 -0.00248532 0.00142136 -0.0365449 0.0745765 -0.0477246 0.0202753 -0.0356138 0.046322
0.0960493 -0.0893456 0.0191465 -0.0974529 0.0835831 0.0609931 0.0581083 -0.0498528 0.194463 -0.0571296 -0.00913206 -0.0324748 0.108802
0.00151047 -0.0357474 -0.020633 -0.0241977 0.00352731 0.0291513 0.043485 -0.0392339 0.00590402 -0.0256777 0.00775303 -0.0275327 -0.0212033
0.140178 -0.0934885 -0.0350082 -0.0876033 0.0917711 0.0760623 0.0869921 -0.0613 0.208354 -0.112535 0.0195823 -0.0267765 0.0931086
0.097214 -0.147014 -0.0877569 -0.079983 0.0524175 0.120525 0.10191 -0.03922 0.186405 -0.112545 0.00819265 -0.0131756 0.0626583
0.103759 -0.116778 0.00879169 -0.106707 0.0625868 0.0390547 0.0285038 -0.0384393 0.156464 -0.064871 -0.0378539 -0.0101307 0.0928092
0.00279047 0.0207677 -0.0318048 -0.0295111 -0.0172042 0.0152174 0.0184759 0.0386054 0.0471282 0.0262967 -0.0123613 0.000190041 0.00841183
0.0253622 -0.0108291 0.00078133 -0.0206855 0.0297387 0.0402152 0.0343849 -0.0464961 0.0701178 0.000733754 0.00265091 -0.0281131 0.0123969
-0.806226 -0.749334 -1.34321 -0.487864 1.25677 1.10323 -0.200993 1.47984 0.229682 -0.940899 0.439987 0.493262 0.181258
0.385374 -0.264935 0.183382 -0.0819543 -0.0228136 0.0167962 0.180452 -0.358804 0.452626 -0.090751 -0.0320444 0.0593383 0.165817
0.0441113 -0.0501368 -0.00357864 -0.035091 0.0318741 0.0555289 0.0117385 -0.0163957 0.0489621 0.014392 -0.0195621 0.00934806 0.0510115
0.0436872 0.0153541 0.0020522 0.0159472 -0.0294357 -0.00636737 0.0307274 0.0163697 0.0177808 -0.0297408 -0.00351316 0.0155252 0.0296373
0.0717176 -0.0385503 -0.0610685 -0.0511199 0.0409335 0.0395068 0.0631023 -0.0012042 0.10293 -0.0145712 -0.0260792 0.0100541 0.0692819
0.0229338 0.00773581 -0.0114334 -0.0373833 0.043992 -0.000911492 0.0465496 -0.00119871 0.0450922 -0.0159757 0.0248498 0.0286599 0.00755395
0.0467931 -0.0197572 -0.0254884 0.0152332 0.0312405 -0.0122908 0.0176416 -0.0352481 0.0288618 0.0177984 0.0182717 0.0248783 -0.00190127
0.0677809 -0.0854103 -0.0403114 -0.0931065 0.0168649 0.0947365 0.0577067 0.0112281 0.116063 -0.0794642 0.0433376 0.0113366 0.0247299
0.0569035 0.0203832 0.00649194 -0.0355048 0.0471194 0.0462811 -0.00772925 0.0192239 0.0176794 0.0165737 -0.0417728 -0.0301136 0.0330149
0.0563379 -0.0450961 -0.000219215 0.0116126 0.0491191 0.026905 0.0387819 0.0265874 0.0293184 -0.0373808 -0.0211539 -0.0315338 0.00571884
0.245054 -0.103955 0.0461422 -0.120572 0.0516371 0.0945621 0.120288 -0.152092 0.259745 -0.0935833 0.00876237 -0.00151915 0.128019
0.0767513 -0.0210858 0.0124615 -0.081132 0.0625871 0.0292985 0.0201215 -0.0424726 0.146404 -0.0573161 -0.0506956 -0.052712 0.0692145
0.556935 -0.294741 -0.321404 -0.192893 0.153404 0.0162974 0.0140504 -0.212203 0.482171 -0.353261 -0.0240496 0.356245 0.361371
0.0610783 -0.11148 -0.0692555 -0.0682245 0.0888545 0.0945669 0.104839 -0.0359128 0.146914 -0.081329 -0.0125317 -0.0380943 0.0980822
0.140792 -0.0577005 -0.0103913 -0.0569833 0.03079 0.0308545 0.083929 -0.0296332 0.179839 -0.0341385 -0.0154437 -0.0338632 0.086857
0.0105064 -0.0185327 -0.0182776 0.00309763 -0.0173009 0.0121174 -0.016212 -0.0283421 0.00672805 0.00528239 -0.0227512 -0.0179529 -0.0192882
0.200026 -0.134695 0.0202491 -0.0983636 0.0815748 0.0885577 0.0744155 -0.109173 0.238537 -0.0707006 -0.0123423 0.0319727 0.139751
0.0200782 -0.0348948 -0.0337372 -0.0355476 -0.00625993 0.0172782 0.036705 0.00528597 0.0520984 -0.0118947 -0.00479395 -0.00349333 -0.0310929
0.0451697 -0.0204691 -0.0248251 -0.041764 0.0353571 -0.00379326 0.0129753 0.0151079 0.0914737 -0.0253908 -0.0383128 0.0254428 0.0636146
0.0219314 -0.0250819 -0.00870528 -0.0346697 0.0348328 0.0107232 -0.00348809 -0.00625271 0.0643602 -0.0320241 0.0248578 -0.0192195 0.0568344
-0.0028948 -0.0117308 0.031391 -0.0348538 -0.0169149 0.053331 0.01845 0.0237299 0.0621343 0.0108485 -0.0373586 0.0309004 -0.0183207
-0.029225 -0.0373262 0.00142884 -0.0288118 0.0394054 -0.00658242 0.00391559 -0.0197155 -0.0224136 0.00586619 -0.0273228 -0.0370014 -0.0133359
0.222989 -0.137195 0.087927 -0.088962 0.0660152 0.105181 0.111704 -0.101681 0.330264 -0.0692189 -0.0176142 0.0151512 0.130083
0.0484098 -0.0496467 -0.0826171 -0.0670129 0.0298244 0.117817 0.0574531 0.0355552 0.0596663 -0.068865 0.00873229 -0.0153077 0.0238594
0.152435 -0.0829142 0.0502825 -0.114136 0.0256741 0.0660302 0.112121 -0.0909698 0.182542 -0.0757301 -0.0235658 -0.0111047 0.117771
0.0367714 -0.0225533 0.0224293 -0.0374997 -0.034477 0.00949564 -0.0295608 0.00323764 -0.0372693 0.0125437 -0.0168523 0.00157756 -0.0299006
0.0513052 -0.0328191 -0.0136249 0.0205435 -0.0204678 0.0344911 0.024977 -0.00683345 0.0581391 0.0234672 -0.015243 -0.0219225 0.0350686
0.0463055 -0.0312411 0.0196096 -0.00939463 0.0372209 -0.00442928 -0.0244572 0.00121886 0.0441245 0.0113825 -0.0245285 0.0345396 -0.0165375
0.0107741 -0.0219164 -0.0273748 -0.0207741 0.0394418 0.0527093 0.0298572 -0.0356698 0.0928179 -0.0514995 0.0140156 0.0269084 -0.00769917
0.0287706 -0.0455517 -0.0159735 -0.0280832 0.00293898 0.0458885 0.047505 -0.0196007 0.11345 -0.0143877 0.0443806 0.00219122 0.0560563
-0.025847 0.0205438 -0.0329711 0.0035733 -0.00544025 0.00765899 -0.0030924 0.0160497 0.0290666 0.00998489 0.00817721 0.0121953 -0.00208879
0.0269132 -0.12035 -0.158443 -0.0993925 0.125012 0.209107 0.121841 0.0782015 0.0709973 -0.109927 0.0451038 -0.00551794 0.0637231
0.178384 -0.0688114 -0.0197064 -0.105847 0.0350074 0.0516506 0.100789 -0.0359112 0.197422 -0.0467138 -0.0496595 -0.0243655 0.0584502
0.14866 -0.142152 0.050419 -0.0917759 0.0826121 0.0614724 0.0915753 -0.0531549 0.23827 -0.0799088 -0.0107351 0.00784096 0.109428
0.132047 -0.161332 -0.173956 -0.128954 0.0943181 0.130291 0.177428 0.0169748 0.227632 -0.165347 0.0545377 -0.0336001 0.0835612
0.174958 -0.0856727 -0.0741118 -0.0821076 0.0899908 0.0838181 0.069924 -0.00394121 0.167336 -0.0861646 0.0598668 0.00673331 0.063989
0.125774 -0.0544866 -0.0500846 -0.0848112 0.0492132 -0.0258963 0.0682151 -0.0583803 0.163866 -0.104304 0.0353374 0.0180106 0.112848
0.0687037 -0.0919135 0.0211801 -0.0493535 0.0613665 0.0872679 0.0336647 -0.0485085 0.130338 -0.0730791 -0.0310438 -0.0137426 0.0460174
