252 8 5
0.0792297 -0.12764 0.158919 0.0236259 0.0197058 -0.000935439 -0.075276 -0.0655397
0.366955 -0.856465 0.528124 -0.0404217 -0.37447 -0.183411 -0.161757 -0.222657
0.425002 -1.09391 0.619883 -0.0497223 -0.739131 -0.0408824 -0.307745 0.286168
0.578964 -0.787732 0.785227 -0.0974964 -0.242227 -0.312002 0.172863 -0.665822
0.415903 -0.912767 0.545302 -0.146864 -0.673623 -0.379313 -0.280398 -0.0925813
-0.022257 0.0264221 0.650149 -0.229884 0.224469 -0.717411 -0.989336 -0.299862
0.388398 -0.486344 0.576516 0.145786 0.106807 -0.104367 0.000742761 -0.280754
0.537182 -1.1797 0.646243 0.0735098 -1.00652 0.0041011 -0.445132 0.244973
0.400144 -0.722953 0.61654 -0.0357597 -0.080389 -0.210035 -0.0481616 -0.490176
0.455751 -1.03623 0.477794 0.171743 -0.699397 -0.154043 -0.363573 0.245669
0.414001 -0.729078 0.705736 -0.0270887 0.0119839 -0.19394 0.0408945 -0.722059
0.580593 -0.690003 0.708528 -0.013565 -0.140209 -0.3342 0.0535185 -0.8222
0.36212 -0.632773 0.717773 0.00133722 0.0846841 -0.21321 0.0776939 -0.550684
0.440351 -0.956652 0.677514 0.0455602 -0.141648 -0.267186 0.192976 -0.818566
0.541332 -0.837872 0.471672 0.347093 -0.0504428 0.059791 0.09823 -0.108054
0.404499 -0.681405 0.601005 -0.00323955 0.0728212 -0.196847 -0.0602859 -0.582685
0.5051 -0.69965 0.71024 0.0303881 -0.178971 -0.163427 0.0987937 -0.425528
0.411334 -0.764437 0.451194 0.306424 -0.093494 -0.00887044 0.0628814 -0.135592
0.203573 -0.427732 0.447949 0.0907994 0.0433707 -0.128441 -0.0673414 -0.0894692
0.412317 -0.645706 0.624414 0.0739024 0.053472 -0.139289 0.0411999 -0.342092
0.415151 -0.769281 0.747916 -0.163828 -0.194648 -0.267426 0.0223253 -0.635701
0.357994 -0.607735 0.741153 -0.122589 -0.0207227 -0.479174 0.0605337 -0.639338
0.376042 -0.815657 0.694687 -0.0855913 -0.0265019 -0.306957 0.114183 -0.701457
0.324914 -0.675058 0.710495 -0.0571052 0.0558 -0.251614 0.0844524 -0.55628
0.0377017 -0.559683 0.198428 0.227002 0.453537 -0.200211 -0.373689 -0.0580166
0.227182 -0.408189 0.417898 0.118755 -0.0273921 -0.139504 -0.166996 -0.0996228
0.359259 -0.761235 0.693855 0.0262246 -0.0941873 -0.277214 0.136044 -0.458731
0.101293 -0.328298 0.259744 -0.00210859 -0.0343261 -0.0480059 0.0145961 -0.0585424
0.184765 -0.435582 0.420066 0.0944664 0.078657 -0.0784479 -0.108735 -0.205917
0.254917 -0.58155 0.565007 0.0946707 -0.037299 -0.187872 -0.0333294 -0.25567
0.347462 -0.6297 0.511098 0.0688776 -0.0431785 -0.111975 -0.0765561 -0.157848
0.353408 -0.492294 0.565512 0.0668499 0.12282 -0.225822 -0.0083694 -0.352489
0.254552 -0.464632 0.504159 0.0873696 0.0201221 -0.202254 -0.135288 -0.103169
0.368405 -0.743041 0.520784 0.0819426 -0.0558522 -0.13666 0.00827379 -0.251078
0.299696 -0.42472 0.436086 0.143392 0.0710744 -0.112051 -0.0372643 -0.120693
-0.017869 -0.0835773 0.0704807 0.00829211 -0.000957864 -0.0200817 0.00292546 -0.0673495
0.225142 -0.307016 0.304848 0.118139 0.0384344 -0.0751212 -0.0204893 -0.112261
0.250162 -0.355653 0.406923 0.099553 0.0655591 -0.139262 -0.0719975 -0.09642
0.188835 -0.315176 0.397197 0.00588234 0.0791341 -0.152265 -0.175917 -0.0568126
-0.0198375 -0.0809195 0.0435084 0.0701118 -0.0256113 -0.0632008 -0.0374903 -0.056965
0.27269 -0.389681 0.362488 0.206069 0.179161 -0.11186 -0.142306 0.0699365
0.0254848 -0.0640739 0.117828 -0.029037 -0.0240135 0.035499 -0.0646825 -0.0183649
0.417344 -0.715938 0.442231 0.287418 -0.0736413 -0.0300728 0.112651 -0.118221
0.144176 -0.224438 0.229438 0.0769495 -0.0164309 -0.130659 -0.078157 -0.0896811
0.0436918 -0.0262875 0.0746732 0.0611878 -0.00977235 -0.0691321 -0.0618859 0.0296434
0.00522191 -0.0826627 0.0727039 -0.0260592 0.0711561 0.00309826 -0.057618 -0.0738026
0.307464 -0.481357 0.403398 0.145202 0.0841464 -0.0854141 -0.071318 -0.182597
0.285659 -0.448609 0.357602 0.15533 0.183198 -0.108894 -0.0710109 -0.114534
0.191511 -0.348466 0.346537 0.100366 0.0727146 -0.0740144 -0.099208 -0.156659
0.22595 -0.453593 0.415284 0.136262 0.101753 -0.174379 -0.0979481 -0.176311
0.217425 -0.39575 0.347508 -0.000642891 -0.046119 -0.18659 -0.154015 -0.00857826
0.221338 -0.535813 0.397902 0.0698657 0.11377 -0.124905 -0.0607394 -0.0843149
0.231442 -0.269263 0.323479 0.0185026 0.068598 -0.121609 -0.0192903 -0.139201
0.208079 -0.396144 0.392087 0.0657238 0.0150722 -0.147743 -0.0698675 -0.0643982
0.407837 -0.581302 0.587627 0.115745 0.0395728 -0.173127 0.0170932 -0.286502
0.0796872 -0.172404 0.216895 0.0342748 0.079603 -0.131203 0.00900614 -0.0655598
0.244118 -0.308612 0.401148 0.162647 0.181991 -0.14503 -0.0792402 -0.0977041
0.0321798 -0.069286 0.0658333 0.0407654 0.00540306 -0.00139925 -0.041013 -0.0273595
0.220019 -0.454021 0.455693 0.0557446 0.0999916 -0.119539 -0.0523795 -0.0995981
0.00890885 -0.150545 0.164825 -0.0443536 -0.0385416 -0.0445927 -0.0662425 -0.0230063
0.233551 -0.350418 0.385321 0.0411226 0.0646444 -0.125481 -0.137464 -0.0815302
0.227108 -0.306525 0.254999 0.0429318 0.076473 -0.048735 -0.141824 -0.0566712
0.236654 -0.322969 0.349145 0.0389929 0.0991095 -0.0845445 -0.139111 -0.0906154
0.171096 -0.389601 0.359799 0.141873 0.194709 -0.132457 -0.166999 0.0139845
0.0106429 -0.0359134 -0.0185669 0.0330528 -0.00975563 0.027424 -0.0491269 0.0433525
0.292637 -0.485281 0.432165 0.150608 0.0561295 -0.148965 -0.0474972 -0.0907344
0.160478 -0.25174 0.323129 0.0800418 0.0821536 -0.0546865 -0.0681445 -0.041744
0.246041 -0.387352 0.413841 0.0557056 0.141931 -0.135319 -0.0822793 -0.0736637
0.227907 -0.391462 0.441913 0.201081 0.181045 -0.0587925 -0.0916967 0.0510394
0.180018 -0.17662 0.25904 0.00957708 -0.00222815 -0.0207062 -0.0127264 -0.11729
0.276614 -0.496209 0.445367 0.149312 0.0498872 -0.14402 -0.0494685 -0.0854394
0.323223 -0.462849 0.364303 0.184243 0.126796 -0.105714 -0.101271 0.0429551
0.259703 -0.42432 0.321744 0.160118 0.103548 -0.100094 -0.128997 -0.161946
0.247106 -0.366427 0.367245 0.0851103 0.064249 -0.0837749 -0.116941 -0.107786
0.207601 -0.408324 0.440836 0.125069 0.0932353 -0.17228 -0.0752293 -0.108706
0.164427 -0.314489 0.276772 0.0312376 0.0121092 -0.0676598 -0.0890346 -0.0429929
-0.0521568 -0.0311572 -0.0251412 0.0558718 0.0635773 -0.0190698 0.0462684 -0.0351498
-0.0184566 -0.0603403 0.038505 -0.0196784 0.0291313 -0.0121501 0.0469625 -0.0479539
0.31294 -0.529681 0.508539 0.027992 0.0355946 -0.297502 -0.117403 -0.285752
0.0773333 -0.0756765 0.0320556 -0.0433069 -0.00187494 -0.0280155 0.00148505 0.00266016
0.00289502 -0.0497171 0.051408 0.0463387 0.00281284 0.0514087 -0.0183176 -0.0473368
0.107069 -0.30512 0.313596 0.0870155 0.0260251 -0.0839098 -0.121055 -0.030562
0.252238 -0.347061 0.335302 0.146579 0.114827 -0.175693 -0.158058 -0.104907
0.141319 -0.256116 0.30095 0.0442278 0.0568216 -0.146852 -0.0829817 -0.132659
0.13728 -0.250639 0.138906 0.00781955 -0.0507665 -0.13409 -0.0805489 -0.0714312
0.182369 -0.319804 0.312182 0.131439 0.0667678 -0.120977 -0.0770837 -0.0694276
0.2217 -0.359529 0.322705 0.110432 0.0340422 -0.141146 -0.0703895 -0.18353
0.158069 -0.267267 0.227134 0.00465068 -0.0191478 -0.00586984 -0.0129909 -0.00445766
-0.0134832 -0.0140736 -0.0177481 -0.0126579 -0.0360332 0.0172706 -0.0168391 0.0504651
0.0308845 -0.0347791 0.0255971 -0.00905688 0.0595011 -0.0601012 0.0183221 0.0613698
0.0906064 -0.0962113 0.107405 0.0901844 0.0408178 -0.0151301 -0.0901847 -0.0829383
0.220636 -0.377584 0.294315 0.0728192 0.0581126 -0.126439 -0.144167 -0.0159942
0.0219462 -0.127108 0.0773892 -0.0150306 -0.0443936 -0.080928 0.0312591 -0.0409999
0.124123 -0.175657 0.2006 0.0595333 0.00887395 -0.0231168 -0.00869188 -0.0781094
0.031297 -0.0556319 0.101119 -0.0139565 0.0509141 -0.0580131 -0.0593138 -0.0334664
0.157373 -0.274496 0.232035 0.0446559 0.0405145 -0.0321702 -0.0590441 -0.0839959
0.154212 -0.286983 0.235066 0.0505904 0.0546612 -0.0761068 -0.0575351 -0.0888608
0.172752 -0.452193 0.396693 0.1014 0.0389827 -0.100081 -0.0966007 -0.0617708
0.0386954 -0.217919 0.154222 0.0590993 -0.0321434 -0.121254 -0.046205 -0.0629361
-0.0280316 0.0104126 0.0349452 0.0412534 -0.0477969 0.0320519 0.0173238 0.000605274
0.0364352 0.0103988 0.0378024 0.0584915 -0.0217158 0.0331097 0.0237515 0.0128803
0.0539077 -0.0953169 0.160513 -0.00300631 0.0714982 -0.0935615 -0.06558 -0.003376
-0.0138847 -0.096611 0.100561 0.0251504 -0.0461517 -0.0571613 0.00823986 -0.0724055
0.07432 -0.072986 0.12786 0.0781407 0.00201232 -0.0320663 -0.08267 0.0072328
0.0546018 -0.0157824 0.0786659 0.0104878 0.0538732 0.0218686 -0.0563136 0.0292301
0.0849181 -0.0247939 0.108526 0.0166597 -0.02537 0.0130785 -0.0570668 -0.0719583
0.112418 -0.207255 0.245989 -0.00138637 0.037354 -0.0754102 -0.095505 -0.124345
0.0966086 -0.0218528 0.0210641 -0.0366133 0.00430254 -0.0550693 -0.0531492 -0.0451335
0.14687 -0.185487 0.152798 -0.00202295 0.0453936 -0.0562475 -0.0458457 -0.105851
0.0593219 -0.262385 0.2069 0.040227 0.0891901 -0.0831568 -0.115138 -0.0987279
0.0501031 -0.0189133 -0.0396751 0.0171867 -0.0232437 -0.051283 0.056372 -0.0284995
0.0681211 -0.267871 0.204396 0.0453979 0.0969547 -0.118703 -0.0670184 -0.0844386
0.0877792 -0.219543 0.208053 -0.0105895 0.0550917 -0.119625 -0.0425266 -0.111989
0.0287324 -0.00996583 0.030493 0.00228874 -0.00692195 -0.0554386 -0.0448779 -0.0235322
0.0198277 -0.0970828 0.0245428 0.0389293 0.020543 0.00302178 0.0169243 -0.0149514
0.0926974 -0.178541 0.162349 0.0540993 0.0178626 -0.0184911 -0.046996 -0.00978228
-0.027184 -0.0449724 0.0472235 0.0351474 -0.00837413 -0.00695302 -0.053966 -0.0437979
0.00263956 -0.0986627 -0.00820592 0.00723626 -0.0285782 -0.00890845 -0.00117067 0.0204259
0.0126618 0.00596276 0.0782797 0.0688195 0.0381004 -0.0095015 0.0249714 -0.0267958
0.030153 -0.0579959 0.0936488 0.0623168 -0.00297171 -0.00102859 -0.0553349 0.0481613
0.10205 -0.130929 0.110814 0.034453 0.0486998 -0.023514 -0.0202772 -0.089565
-0.00333352 -0.121989 0.0596044 0.0124204 -0.0153472 0.0286015 -0.0724256 -0.0371482
-0.0458166 -0.0708748 0.00699305 0.0569288 0.027442 0.0187844 -0.0466053 -0.0278645
-0.0133844 -0.000427239 0.0919163 0.0145309 0.0372453 -0.0560926 -0.0456511 -0.00374913
0.0522832 -0.0595649 -0.0153254 0.0371586 -0.0133782 0.0344102 0.0173615 -0.0493574
-0.00658541 -0.11845 0.0915494 0.011509 0.00300766 -0.065099 -0.0335813 -0.0722953
-0.000280726 -0.0162672 0.00181347 0.0532427 -0.0275504 0.0123952 -0.0246207 0.0236567
0.00419067 -0.0288029 0.0311215 0.0190044 -0.028225 -0.000492691 0.0423065 -0.0292283
0.060882 -0.0486353 0.041527 -0.0484227 0.0284782 -0.0329363 0.0014698 -0.0260594
0.0166974 0.0218269 0.0588018 -0.0166898 -0.0200505 -0.0504608 0.0154005 -0.0156042
-0.0219032 -0.0448779 0.0579761 -0.0223045 0.00794285 -0.0518973 0.0231121 0.00456631
0.0378422 0.0106766 -0.00567217 -0.00268825 -0.0463726 0.0159228 0.00936961 -0.0488845
0.010932 -0.0299276 0.00950034 0.0608356 -0.0605996 -0.0179868 0.0407443 -0.0500867
0.0615853 -0.0134656 0.0691871 -0.031949 -0.0573785 0.0457978 -0.035944 -0.00554401
0.0728735 -0.116907 0.172516 -0.0487875 0.0720364 -0.0790446 0.0136441 -0.0844409
0.0132366 -0.0829676 0.0301109 0.0542243 0.0483621 -0.000210643 0.030503 -0.0597422
-0.0486695 0.00936847 0.0632477 -0.0417189 -0.0225176 -0.00506685 -0.046562 0.0554614
0.0352222 -0.00634098 0.00286806 -0.0212547 -0.051742 0.0459561 -0.00677819 -0.0558153
0.0225998 -0.0229695 0.0740601 -0.0338723 -0.017487 -0.0369323 0.0471298 -0.0132286
0.0164375 -0.0469331 0.0733598 0.0466659 0.0511693 0.0221677 0.0129904 -0.0701554
0.0106786 -0.0572925 -0.0171497 0.0385715 -0.0350078 -0.00554424 0.0431192 -0.0566857
-0.011671 -0.0608044 0.0186674 0.0200387 0.0576474 0.0502984 -0.0343082 0.0524643
0.0303607 -0.0425927 0.01734 0.064289 0.0571702 0.00855873 -0.0134909 0.033446
0.0517969 -0.0484802 0.00634472 -0.0474338 -0.00349492 -0.0544417 -0.0583262 -0.0564831
-0.0213881 -0.0188136 -0.00377196 -0.0302015 -0.0116196 0.0134321 -0.0404907 -0.0257039
0.045588 -0.0349219 -0.0386152 -0.0149398 0.0349815 -0.0183874 0.0324228 -0.0373297
-0.00204351 -0.00375667 0.00825025 0.020237 -0.0465665 -0.0440649 -0.000618569 -0.0322761
0.0507866 -0.0493856 -0.025244 -0.018114 -0.025419 -0.0394044 0.0500573 0.00106816
-0.0228376 -0.0519386 -0.0154024 -0.0461665 0.071891 0.0443804 -0.0683222 -0.0030046
0.00348643 -0.00146478 -0.0251646 0.0198956 0.0332764 -0.0551364 -0.0205531 -0.0319657
0.079708 -0.0832224 0.0462394 -0.0133551 0.0170572 -0.0285872 0.0262198 -0.0277771
0.0067627 -0.0237822 0.0585586 0.0604552 -0.0340347 0.0339898 0.0421545 -0.0490622
-0.0310309 0.0289811 -0.0250155 0.0146486 0.0549959 -0.0491324 0.000891462 -0.0539586
-0.0601495 -0.0650766 -0.0570276 -0.0386466 -0.0159389 0.0439795 -0.0580278 0.0321889
-0.0377888 -0.0493984 -0.0161528 -0.0451848 0.0418823 0.0433551 -0.026651 -0.0571384
0.0227703 -0.0273822 0.0559886 0.0526005 -0.0372184 0.0140402 -0.0267736 0.0471952
0.023354 -0.048909 0.0235707 -0.0563729 0.0305637 -0.0469149 0.0503794 0.0300039
-0.0313415 -0.0661497 0.102561 0.0204642 -0.0043468 0.00234519 -0.00347119 -0.027027
-0.0217099 -0.0224942 0.00371171 0.0596327 -0.044342 0.0107971 0.037105 -0.0459078
0.0230699 0.0489578 -0.050638 0.0434658 0.00951404 0.00343073 0.00433252 0.0582105
0.0352986 -0.0236668 -0.0233274 -0.0276351 -0.0292778 -0.0614976 0.0351449 0.0587819
0.0433661 -0.0392631 -0.0348138 -0.0064453 -0.0147978 -0.0233448 0.039963 -0.033776
0.0628069 0.0443894 0.0192665 0.00459551 0.0293367 0.0177174 -0.0302567 -0.0319767
-0.027853 -0.00391737 0.0213686 0.0235231 -0.00219111 -0.0132062 0.0514066 -0.0298209
-0.00023153 -0.0219991 0.0379954 0.0513167 -0.00168084 0.0297404 0.0509395 0.00337875
-0.0222495 0.0109112 0.0573068 -0.02974 0.00640278 0.0214729 -0.00660879 -0.0512402
0.0540395 -0.0191614 -0.0137633 0.0570412 -0.00431265 0.00385308 -0.0391447 -0.0116515
0.0731782 -0.0859141 0.0254483 -0.0293782 0.0165064 -0.0155364 0.0154887 0.0154598
0.0152049 -0.00507568 0.00741482 -0.0503679 0.00206214 0.024566 0.0160874 -0.0131309
0.0727137 -0.0622714 0.0431544 -0.0340445 -0.0193835 -0.0221349 -0.0686689 0.00563115
-0.0411225 0.0168808 -0.041248 -0.00758196 0.0292271 0.0349495 -0.032415 -0.0151492
-0.0186278 -0.0495818 0.0523818 0.045196 0.0241213 -0.0451273 -0.00940658 0.011391
-0.0448508 -0.014672 0.0648733 -0.00282168 -0.0165835 0.0160754 -0.000131503 -0.0115038
-0.0190217 -0.0636534 -0.043965 0.0498119 0.0217156 -0.0389692 0.0533498 -0.0534637
0.0582308 -0.0611674 0.0374838 -0.0480744 -0.0335971 -0.0624561 0.0446625 0.010327
-0.00208918 -0.0725552 0.0617796 0.034806 0.00360805 -0.0463476 -0.053581 0.0268846
-0.0374162 0.00956703 -0.0160377 0.0472639 -0.0277291 -0.00476286 -0.0159959 0.0391152
0.0579582 0.0316114 0.028143 -0.00991185 0.0501833 -0.0538068 0.0346769 -0.0577005
-0.0225801 0.0252136 -0.0491449 -0.0462613 -0.0553856 0.0301601 -0.00306107 0.0129366
0.0451241 0.0292581 -0.0268858 0.0407363 -0.0556058 0.0133284 0.0425074 0.0256184
-0.0193635 -0.0566539 0.0250828 -0.0454922 -0.0130496 0.0410481 -0.0251568 -0.0599728
0.020458 -0.00634189 0.000847004 0.0607292 0.050458 0.0393019 -0.0430745 0.0576654
-0.0130541 -0.0060279 -0.039183 0.0539324 -0.0290234 0.0136019 0.0546941 -0.0364409
0.00469283 0.0245717 -0.0109536 -0.0528493 0.0487446 -0.0490877 0.0148964 -0.0101421
0.000364325 -0.0516639 0.0425083 0.0343347 0.0339937 -0.0269923 -0.0567857 0.0602357
-0.051166 -0.0621647 -0.0095303 0.0171812 -0.0116288 0.00590253 0.0207918 -0.0327793
0.011704 -0.0562519 0.0509516 0.0199789 -0.0292231 -0.0139236 -0.0374865 -0.0303438
-0.00826715 -0.0054327 -0.0587596 0.0122317 0.0572777 -0.00382218 0.00501339 -0.0395585
-0.0406904 0.0420432 -0.0369014 0.0212926 -0.0142781 -0.0196227 0.0530599 -0.0156606
0.00315199 -0.0221844 0.0577831 0.0477378 0.0363422 -0.0204641 0.0153377 -0.0276194
0.0261575 -0.0648748 0.0457837 -0.00368865 0.0107105 0.0580209 -0.0136625 0.0364583
-0.028858 -0.0156921 -0.0161333 -0.043005 0.00679068 0.0208788 -0.0431326 0.0598084
-0.0124317 -0.0488856 0.0526905 -0.0595339 -0.0544869 -0.01119 0.0512866 -0.0516638
-0.00129486 0.0491925 0.0308281 0.0443748 0.00725505 0.0558947 0.0560584 -0.0497642
0.0622758 0.000757279 0.0523224 0.0100692 -0.0625198 0.0330304 0.0338424 0.0581748
0.0439926 0.0584329 0.0245763 0.00339008 0.035027 -0.00304698 0.023374 0.0288131
0.0424696 -0.0656965 0.0368643 0.0417041 0.0520787 -0.0633412 0.00809325 -0.0454556
0.00180306 0.0478039 0.0431349 -0.0456324 -0.021409 0.0411435 0.0547921 0.0246059
-0.032298 -0.0297155 0.0218925 0.0548387 0.0257593 -0.0131047 -0.023666 -0.00546517
-0.0453492 -0.0190824 -0.0257818 0.00975198 0.0631557 -0.0719889 -0.0336753 0.00760228
-0.036013 -0.0161956 0.00413597 -0.057046 0.0622696 0.034908 -0.0051606 -0.0309371
0.0557401 0.0461775 -0.0100508 0.044885 -0.0294218 -0.0133588 0.034784 -0.0614683
0.0165431 0.00790391 -0.027247 0.0229013 -0.0442538 -0.0163723 -0.0383319 -0.0517502
0.0380813 -0.00134616 0.00673768 0.0107202 0.00678878 -0.0013245 -0.0160649 0.0462951
-0.0174761 0.0138992 0.0609819 0.0275768 0.0438328 -0.0418273 -0.002186 -0.00691509
-0.0206459 0.0321209 -0.0167382 0.0232492 -0.0304547 0.0587051 0.0122705 -0.019381
0.014135 0.030172 -0.0305904 -0.00138267 0.0214295 -0.0586998 0.00601726 0.0573866
0.00609629 -0.0411666 0.0283731 0.00271164 0.0537135 -0.00226955 -0.0255275 -0.0432012
-0.0250657 -0.0183562 0.0620304 0.00507766 -0.0452223 -0.0449067 0.0121095 -0.062397
-0.00557552 -0.00586128 0.0700255 0.0392846 -0.0554826 0.0135404 -0.0498845 0.0405924
0.0598381 -0.0213998 0.0139661 -0.0233879 -0.0142632 0.0026246 -0.0411684 0.0401173
-0.0293427 0.039161 -0.0398529 0.0428225 -0.0531229 0.0390926 0.00840396 0.0380684
-0.00447099 -0.0401409 -0.0380861 0.0357391 0.0234051 0.00281704 0.0217787 -0.00337987
-0.0132979 0.00365257 0.0476877 0.0077704 -0.00130302 -0.0643377 -0.00899781 -0.0290052
0.0332025 -0.0139532 0.0325736 -0.0338489 -0.0103303 -0.00900887 -0.0574874 0.0399629
0.0617482 -0.0599038 0.0688867 0.0498608 -0.0301927 -0.0149618 -0.0176921 -0.0635772
-0.000801277 -0.0689638 -0.0136922 -0.0311555 0.0374497 -0.0511169 0.00517585 -0.0161323
-0.00078742 -0.0423425 0.0217296 -0.0359109 0.0558261 -0.063313 0.0427512 0.0471539
-0.0119296 -0.0457141 0.0680651 -0.0129746 0.038131 0.0358692 0.0233273 -0.00546899
-0.0257715 0.041295 0.0136842 -0.0610652 -0.00205856 0.0342176 -0.0414535 -0.0171075
0.0262689 0.0561842 0.0642278 0.00740507 -0.0329161 0.0209238 0.0365205 0.0205702
0.00992557 -0.0413307 0.0133822 0.0478477 0.0216151 -0.00446224 -0.0543665 0.033117
-0.0285725 0.0384231 -0.0382668 -0.0272454 -0.0277005 0.0124797 -0.0603229 0.0604116
-0.0409914 0.00243164 0.0182484 -0.0353615 -0.0525029 -0.0242499 0.0180744 0.0187716
0.0194224 0.0259559 0.0415065 -0.0359016 0.0497129 0.0454081 -0.0428616 -0.0321789
0.0546235 -0.0515228 -0.00885499 -0.0442331 -0.0532412 0.0460021 -0.0277781 0.0153604
0.0609494 -0.0503272 0.0279984 -0.05561 -0.0463281 -0.0126438 0.0430153 -0.0441047
0.00875881 -0.0672669 -0.00126894 0.00430715 -0.0386644 0.0367206 0.0169975 -0.029196
0.0453443 0.0398163 -0.0171233 -0.00139951 -0.0150006 0.052709 -0.0415303 0.0523906
-0.00446043 -0.0168694 -0.0545429 0.00870779 0.0298344 -0.0475232 0.0466402 -0.0576236
0.0285258 0.0185103 -0.0106797 0.0145118 0.0216225 0.0360381 -0.0253899 -0.043083
-0.0175401 0.0206667 0.0450191 -0.0120401 -0.0313671 0.0382945 -0.0127646 0.000963206
0.0523019 0.0543937 0.058936 0.00864902 0.0286724 0.0244789 0.0428885 -0.0540902
-0.0363261 -0.0469022 0.0495774 0.0241842 0.0492413 -0.055811 0.0314807 -0.0104442
-0.0356435 -0.0149537 0.0137723 0.0179451 -0.0144538 0.0530026 0.0260494 -0.0345916
0.0236439 -0.0040923 0.00350771 -0.0374319 -0.0204677 -0.0528588 -0.00665104 -0.00947303
0.0361451 0.0345749 0.0679223 -0.00551424 0.0522309 0.0339298 -0.0432401 0.0424529
0.0502702 0.0329542 0.000630913 -0.0168213 0.00819669 -0.0509819 0.0444747 -0.0127302
0.0393692 0.050571 -0.0299641 -0.0367318 0.0468076 0.0494112 -0.0165224 -0.0513759
-0.0071553 -0.0329986 -0.00136047 -0.060722 0.0383945 -0.0100842 0.0479465 -0.0165083
0.0559569 0.0130896 -0.00806947 -0.00966872 0.0511523 -0.00259517 0.0315983 0.0271273
-0.058351 -0.0134271 -0.0530541 0.0214378 0.0472684 -0.0578394 -0.0156325 0.0149094
-0.0206396 0.0561876 -0.0176352 0.0257616 -0.029725 0.0135324 0.0564629 -0.00567396
0.0287771 -0.03121 -0.0361802 -0.0236899 0.05789 -0.0115238 0.0404406 0.00466677
0.0383689 0.0224023 0.00448969 -0.0331655 -0.00865609 -0.0292184 -0.0234925 -0.0539486
0.0422128 0.031653 0.0309793 0.00254917 -0.057269 0.0481961 0.0229788 0.0525079
-0.0440176 -0.0581838 -0.0364205 0.0428016 0.0109059 -0.0603315 0.0311493 -0.000815794
-0.00857423 0.0438669 0.0161906 -0.0158982 -0.0429812 -0.0287935 -0.0491419 -0.0528758
-0.0202229 0.0287396 0.00137035 0.00986859 -0.0145212 0.0302339 -0.021048 -0.0562617
-0.0256719 0.0546649 -0.0296185 0.0431926 -0.0261969 -0.0271808 0.0349108 0.0287264
-0.0379925 -0.0250119 -0.0323305 0.0215311 0.0349579 0.00104747 0.0199433 0.00099101
0.0245769 0.0408875 -0.0418736 -0.0405333 0.0173239 0.0494079 -0.0154028 -0.0455275