5349 13 70
-0.0198269 0.0324681 -0.00547278 0.0243539 0.0187929 -0.00633841 -0.0157934 0.045566 0.0280369 0.0248829 0.00772187 0.007498 0.0204304
-0.0300663 0.0374326 -0.000788535 0.0356995 -0.00788492 -0.0284902 0.0318408 -0.0370439 0.0377005 -0.0382577 0.0320878 -0.0301776 0.00538654
-0.0588284 0.0436583 0.0716546 -0.00325472 -0.0463593 -0.023168 0.0189788 0.0076189 -0.0320956 0.0850336 0.0218625 0.000309869 0.0220776
-0.0743787 0.169175 0.047899 -0.0431883 -0.0124302 -0.0745576 -0.0173418 0.0639721 0.0184348 0.158375 0.101505 0.0438387 0.0649674
0.0200208 0.0297408 0.0182446 0.0118897 0.0127547 -0.0322522 -0.0151681 -0.00141545 0.0309979 -0.0034634 -0.0177301 0.0133718 -0.0214998
-0.0490086 0.0707243 0.0189368 0.0341374 -0.0460474 -0.00834234 -0.0202115 -0.010031 0.00423725 0.109035 0.0257559 -0.022041 0.0530585
0.00468465 0.00622918 -0.0118554 -0.0138422 -0.0124163 -0.00239724 -0.0283992 0.00955147 0.024085 0.0188804 0.0264981 0.0367868 0.0120577
-0.00760389 0.0143813 0.034849 -0.0343477 0.0271745 -0.000738949 0.00736137 -0.00645201 -0.00174709 0.0528668 0.0357796 -0.00835161 0.0487223
0.00160903 0.0267542 -0.024087 0.00432459 -0.0017701 -0.0357752 0.0174774 0.00503222 0.0129527 -0.0184379 -0.035745 -0.0355032 -0.00894496
-0.0204954 -0.0188453 -0.00256392 -0.00945061 -0.0045206 -0.0363757 0.0352785 0.0148685 0.0382516 -0.0371296 -0.0253749 0.0222263 -0.0143113
0.0048878 0.0338016 -0.0375389 0.0329578 -0.0177604 -0.00905904 0.0147105 0.0129305 -0.0148488 -0.0114477 -0.00318582 -0.0148085 0.0135859
-0.0622515 0.0408239 0.0816142 -0.0149601 -0.0375981 -0.0340036 -0.0598842 0.0541194 -0.0303296 0.0679293 0.0631571 0.0276891 0.0167942
-0.0364225 0.00448154 -0.0278152 -0.029867 0.0331089 0.0192067 -0.00382889 -0.0361785 0.0034941 -0.0139286 0.00288302 0.00244345 0.0197242
0.0291338 0.0318363 0.0140446 -0.0120234 -0.0195289 -0.0304557 -0.0249263 0.0128652 0.0366018 0.0251657 0.0219348 0.0261501 -0.017641
-0.000439718 -0.0173926 -0.0182592 -0.0410552 0.0394395 0.00185854 -0.0243441 0.00147763 0.0367322 -0.0225715 0.000622269 -0.0134708 0.0162558
-0.0287669 0.0115136 0.00203107 0.024389 -5.00988e-05 -0.0279734 0.0153379 -0.0192666 0.0152962 -0.0348584 -0.0212263 -0.00172789 -0.0131544
-0.0054636 0.330035 0.270528 0.030222 0.0220861 -0.230295 -0.192565 0.0602719 -0.0807982 0.428452 0.258636 0.0547991 0.164042
-0.0373205 0.0371266 0.0275785 0.0249135 -0.0410285 -0.0175012 -0.00688826 -0.0166348 0.0170294 0.0170437 0.0071073 0.035352 0.0194163
0.0166782 -0.00873883 -0.00882191 -0.0300597 -0.00939613 0.0200373 0.0028751 0.0295792 0.0188589 0.0471359 -0.0184381 0.0227358 -0.00814771
-0.015348 -0.0135512 -0.00392161 0.023723 0.0178013 -0.0455227 0.0259589 0.00791348 -0.0258423 -0.011122 0.0425684 0.0303282 0.0131664
-0.0380909 0.0254047 0.00532386 0.0239023 -0.0119 -0.0453552 -0.00631569 0.0026642 0.024434 0.0484109 -0.0195766 -0.0365254 -0.0282426
0.0146209 -0.0070027 0.0481723 -0.0432205 -0.00944501 -0.0380943 0.0268021 -0.0115326 -0.0145446 0.013925 0.0413167 0.0111875 0.0451108
0.00332396 0.1587 0.242365 -0.0236672 -0.0693206 -0.208059 -0.142053 0.0893901 -0.057831 0.322816 0.161628 0.110256 0.15578
-0.0339852 0.0873813 0.085066 0.0143484 -0.0309654 -0.0892254 -0.00510655 0.000187379 -0.0297373 0.105305 0.0775463 -0.0131809 0.0532769
0.0304259 -0.0113981 0.0135825 -0.0146579 -0.0217091 0.0281648 0.00845212 -0.0173123 0.00491872 0.0400835 0.000922192 0.0140324 -0.0305418
-0.0497685 0.0321479 0.0486928 -0.00742088 -0.05 -0.0502886 -0.00875474 0.000344681 0.0195231 0.0688313 0.0576294 -0.027283 0.0330346
-0.0171617 0.0298118 -0.0131919 0.0151784 0.00462568 -0.0381566 0.0027671 0.0376718 0.0251112 -0.0135855 -0.0101458 0.028679 0.0302853
-0.00672203 -0.022604 0.0123799 -0.0229325 -0.0238585 -0.0164431 -0.0308359 -0.0383791 -0.0331711 -0.0382093 0.0321477 -0.0272609 -0.00584806
-0.0955751 0.246017 0.150602 0.0209009 -0.0426689 -0.159429 -0.0596183 0.02547 -0.0237728 0.28128 0.117601 0.0332462 0.0910305
0.0157883 0.0217191 -0.000820028 0.00197391 0.0229689 -0.0246393 -0.0142 -0.0076927 0.0400426 0.0294471 0.040157 -0.00835396 -0.0337349
-0.0252537 -0.0152989 0.021695 -0.0356777 0.033678 -0.0386491 0.0168289 0.0157978 0.0250318 0.0333966 -0.0280629 -0.0130747 -0.0080109
-0.0236693 0.112139 0.0714908 -0.0110886 0.0268105 -0.100414 -0.00664015 0.0610777 -0.0278828 0.0871048 0.0583876 0.0242654 0.0568489
0.00358413 0.00541691 -0.0376466 0.0290533 -0.011765 -0.00275724 0.0320851 -0.0339442 0.0133829 -0.0210093 0.0270099 0.00197194 0.00353436
0.000601978 0.018342 0.022559 0.0103729 0.0195433 0.0156527 -0.000896946 -0.0309341 0.0102321 0.029848 0.0243342 -0.0111339 0.0165135
-0.138458 0.166921 0.118293 -0.046558 0.00544625 -0.150851 -0.0399263 0.0554827 -0.0610691 0.318494 0.0805674 -0.0219018 0.10875
0.02326 0.021629 -0.000603287 0.0131977 0.00184321 -0.0186137 -0.0270218 -0.0321862 0.0136439 0.0395816 -0.00461455 -0.0280091 0.0110182
-0.0823649 0.113385 0.105467 -0.00219151 -0.0387066 -0.0864292 -0.0667963 0.0288969 -0.010575 0.139702 0.0452108 -0.00270645 0.0848828
-0.00516791 -0.00504979 0.0105951 -0.0207061 0.0105692 0.0332863 0.020101 0.035247 -0.00519022 0.0307613 -0.0133855 -0.0246418 0.0250702
0.0254334 -0.00164997 -0.0328683 0.0081735 0.00567319 -0.0102432 0.0336445 0.033422 0.0335945 -0.0327741 0.00829498 -0.0200631 0.0164017
-0.0281096 -0.0256423 -0.0286317 0.0189571 0.0120902 -3.58194e-05 0.00510515 0.0120135 -0.0056494 0.0318831 0.0440725 -0.0218801 0.0241269
0.0170115 -0.0341388 0.0327614 0.00227213 0.0272793 -0.0276534 -0.00606441 -0.011021 -0.0122871 -0.0348394 -0.0335922 0.0035798 -0.0287427
-2.24413 1.79419 -0.313768 0.489655 -2.16439 -1.12734 0.10997 1.69621 1.37343 0.863326 0.470481 -1.61733 -0.46914
0.016654 0.0015475 -0.0297403 0.00896714 -0.036527 0.00886212 -0.0107816 -0.0122962 0.0268817 -0.00721074 -0.0185808 -0.0195309 -0.0249389
-0.0100303 -0.0263861 -0.00164623 0.00160366 0.0265512 -0.0111245 0.00269154 -0.0320658 0.0172905 -0.0136473 0.0303703 0.0131853 -0.0195953
0.0301037 0.0421265 0.00429595 -0.0101764 -0.0347015 -0.0277875 -0.0185152 0.0111609 0.00520792 0.0233703 0.0325925 0.0274973 0.00851311
-0.0235658 0.00883969 0.0118486 0.0379775 -0.00606106 -0.0207116 0.0153516 0.0230289 0.019004 -0.0205757 -0.0315087 -0.0279953 -0.0247671
0.0154048 0.0243582 0.00275677 -0.0164888 -0.0225913 -0.011878 -0.0265358 -0.0263925 -0.00216456 0.0206836 0.0220095 0.0011277 0.00606786
-0.037964 0.0412333 -0.000459256 0.0322074 0.00131244 -0.0495233 -0.0243601 -0.0189792 -0.0273336 0.0139811 0.0279929 0.0239959 0.0350366
-0.0386947 0.0697765 0.0262673 -0.0223266 -0.0454531 -0.100906 -0.0604969 0.0196108 -0.00935707 0.134076 0.0815851 -0.0126791 0.0555039
0.0305986 -0.0101735 -0.00347224 0.00887822 0.0251081 -0.00903895 0.00932647 0.00636509 -0.0162292 0.0292003 -0.0140849 0.0181823 -0.0199414
-0.028087 -0.00887501 -0.0176117 0.0165868 -0.0203264 -0.036319 -0.00469548 -0.00329123 -0.000252302 -0.00879732 0.0318446 0.0389088 0.0383757
0.0342588 -0.00265977 -0.00788438 -0.00104144 -0.00120611 0.0318604 0.0052306 0.0357567 0.0220004 -0.00446209 -0.0332252 0.0332972 -0.0368332
-0.0256079 -0.00171715 -0.00826814 -0.0295372 -0.0404267 -0.0363419 -0.00524692 -0.00966386 -0.00368315 0.0304635 0.018111 -0.00942184 -0.00252963
-0.000922703 0.0427625 0.0183294 0.0331099 0.0110713 -0.0155496 0.0126234 0.0374605 -0.0175117 -0.0144583 0.0381641 -0.030722 0.0215443
-0.0242438 0.0249321 0.0231373 -0.00170849 -0.000793322 0.0106446 -0.00325362 -0.0355254 -0.00575031 -0.0127686 0.024892 -0.0221455 -0.00270278
-0.0746733 0.109379 0.0796806 0.0332226 -0.0229641 -0.0427309 -0.00771842 0.0349789 -0.0170674 0.158554 0.0308362 0.0368086 0.0723092
-0.0202235 -0.0107338 0.0111775 -0.00982431 -0.0198174 0.0117149 -0.00372244 0.000340716 0.0285031 0.00707375 0.00975822 -0.0226015 0.0180843
-0.145943 0.269556 0.154577 -0.0269174 -0.0171826 -0.197374 -0.0395275 0.070475 -0.0345374 0.274741 0.131087 -0.0122193 0.107069
-0.110887 0.184719 0.0647405 -0.0733681 -0.00597438 -0.0863811 -0.0654203 0.0275015 -0.0081379 0.303198 0.0758898 0.0642481 0.135592
-0.0524242 0.0593265 0.00430054 0.0185476 0.00137824 -0.0293058 0.0183729 0.00449413 0.0140023 0.0296986 0.00983609 -0.00117234 -4.98664e-05
-0.0312788 -0.0045785 0.000892605 0.0144876 -0.0119731 -0.0128267 -0.00367221 0.0137049 -0.00226016 0.0354917 -0.0110963 0.0227106 0.00498204
-0.122834 0.212544 0.152673 -0.0385804 -0.00562526 -0.126567 -0.0822429 0.028538 -0.0474305 0.30132 0.147204 0.0652276 0.104826
0.0143726 0.00637154 -0.00437324 -0.0356093 0.00700434 -0.0549494 0.0245974 -0.000392942 -0.00977976 0.0180631 -0.00413162 -0.00275912 0.0194521
0.0328082 -0.00287522 -0.0234443 0.0171157 -0.0295893 0.0317098 0.0145374 -0.0136423 -0.00768856 0.00429523 -0.0121769 0.0119506 0.0130683
-0.0433098 0.0143238 -0.0330594 0.00485146 -0.0320288 0.0194998 -0.0386673 0.0278771 0.0404674 -0.0176866 0.0421957 0.0323443 0.00206656
0.0200936 0.0328817 -0.00136047 -0.0359892 -0.0206264 0.0341358 -0.0311788 -0.000727893 0.0279346 0.0114538 0.0077884 -0.00144553 -0.0243923
0.0223362 0.0187582 -0.0252538 -0.0211916 -0.0128847 0.015041 -0.0377699 0.0260135 -0.0362733 0.0350425 0.00605408 -0.000566727 -0.0206472
0.00299075 0.0337153 0.0212664 -0.0338269 0.00486266 -0.0142772 0.00199757 -0.00121272 -0.0177534 -0.0259781 0.0328404 -0.0361912 -0.0186822
-0.061638 0.0346546 0.0260745 0.0152238 -0.0472785 -0.0510104 -0.0066454 -0.0204665 0.0348656 0.0164847 0.00456799 3.88311e-05 0.0193209
-0.0352615 0.049396 0.00860478 0.0068717 0.0163076 0.0128651 0.00480843 0.029125 0.0360678 0.0515397 0.0177426 0.0394078 0.0418403
-0.1235 0.141208 0.0967947 -0.0225885 -0.0313059 -0.0996927 -0.088789 0.0540779 -0.0437343 0.192856 0.0735424 0.00256699 0.116018
-0.138546 0.206691 0.117536 -0.118197 0.139857 -0.143505 -0.145017 0.00363188 -0.160411 0.398818 0.111822 0.0690907 0.218397
0.022111 0.0329074 -0.0244752 -0.0224252 0.00874975 -0.0213887 0.00455213 -0.0340191 0.00613873 -0.0114734 0.00959514 0.0274935 -0.0254186
0.0179632 0.209768 0.230801 0.00490743 -0.0337772 -0.212523 -0.110287 0.0602877 -0.0361236 0.383639 0.138814 0.0928798 0.193583
-0.0224096 -0.0348903 -0.0373097 0.0118385 -0.00706214 -0.023876 -0.00694531 -0.0279586 -0.000319024 -0.0249438 -0.000878117 0.0216249 0.0100115
0.030194 -0.000878226 -0.00624881 0.0259515 0.00634122 0.0199776 -0.024108 -0.0138915 -0.000974462 0.0149564 -0.0107691 0.0014285 -0.036871
-0.0943774 0.173637 0.177339 -0.0491053 -0.0138714 -0.178986 -0.0960516 0.033046 -0.00265398 0.300322 0.153072 0.0205314 0.15123
-0.00435905 0.0197234 0.0330656 0.0267702 -0.0318532 -0.00540244 0.0263888 -0.0310571 -0.0148448 0.0266537 0.00266477 0.0109802 0.00371164
-0.0386481 0.300255 0.259065 -0.0321627 0.0235516 -0.206921 -0.0793461 0.0323339 -0.105246 0.356248 0.151846 0.0804686 0.162197
-0.995292 0.855499 -0.0930858 0.350114 -0.710467 -0.536227 0.054659 0.482267 0.603559 0.379875 0.348344 -0.709097 -0.427832
0.249813 1.10278 1.46937 0.291193 0.158228 -1.00975 -0.431436 0.20109 0.264075 1.20003 0.68699 0.823047 0.992702
-0.012138 -0.0163151 0.00364526 -0.0232616 -0.0262983 -0.0212304 -0.011861 0.0135072 -0.0252895 0.0284153 0.00356791 0.0257671 0.0373819
0.0239438 0.0485676 -0.0309376 0.000652081 0.00887231 0.0195905 0.00561693 0.00857302 -0.0307305 -0.0212888 -0.0123936 -0.0250398 0.0319873
-0.0139863 0.0630201 0.0348115 0.00797448 -0.0445688 -0.0568332 -0.0184524 0.000697939 0.0133176 0.0469418 0.0129682 0.0116555 -0.0047519
-0.0152638 -0.00921846 -0.00562895 0.0063386 -0.0104793 -0.005226 -0.0128697 0.00854308 -0.0342006 -0.0382735 0.0137871 0.0115384 0.0358284
-0.014516 0.0598376 0.065718 0.00740563 -0.0213295 -0.0614557 -0.0551872 0.0281181 -0.01453 0.0657794 0.0672126 -0.0355759 0.0448314
-0.0445073 0.118903 0.0745376 0.0174741 -0.0500897 -0.0554164 -0.00590652 0.0658226 -0.00200281 0.14603 0.0711466 -0.0158137 0.0887071
-0.0280602 0.0116123 -0.0360931 -0.0342586 0.00206164 -0.0161107 0.0329227 -0.0226793 0.00742309 0.0340299 -0.0327289 0.00173425 -0.0377738
-0.00460105 0.000632829 0.0435239 0.030167 0.0314892 -0.00352109 -0.0168013 -0.00519541 0.00902623 0.056364 -0.0225352 -0.00427105 -0.0119758
0.0277462 -0.00981739 0.0121999 0.0222802 -0.0305438 0.0286273 0.0145893 -0.0366971 -0.00535708 0.02336 -0.0139688 -0.0354434 0.00185912
-0.089577 0.100176 -0.0287868 0.0408447 -0.0784578 -0.0856062 -0.01866 0.051739 0.0322171 0.0366949 0.0184994 -0.0784172 -0.0314943
0.0174841 0.0245626 -0.0160421 -0.00907924 -0.0362337 -0.0282238 -0.0238359 -0.0292317 0.00394956 0.0143551 0.0227605 -0.0238491 -0.0217481
-0.0030517 0.0291418 0.00563622 -0.028896 -0.0308655 -0.011638 0.0157469 -0.0363098 0.0128094 0.00696902 0.0307744 -0.0235407 -0.0150608
0.0141065 0.0177119 -0.0313533 -0.0302395 -0.0319418 -0.030253 0.00677242 0.0144591 -0.0361399 0.0133263 -0.0266266 0.0207159 -0.0243778
0.00134349 0.046178 -0.00815978 0.012023 -0.00408167 0.0267267 -0.0306986 0.00279414 0.0258935 0.0149375 -0.00922601 0.00888818 -0.0139262
-0.0235278 -0.0336606 -0.0209568 0.0252564 -0.0166326 0.0292414 -0.0154015 -0.0284651 0.00771201 -0.0369717 0.0294686 -0.0202214 -0.0328487
-0.0574337 0.170648 0.121871 -0.0201328 -0.0156113 -0.0890139 -0.0130754 0.0674467 -0.0224942 0.25918 0.0771596 0.00505716 0.120205
-0.0143664 0.0369933 -0.00441977 -0.0074588 -0.0176808 0.0130184 -0.0236743 0.00419891 -0.0293157 -0.000667997 0.0145802 -0.0126836 0.00100975
0.0209528 -0.031043 -0.000383927 0.0132033 -0.0297946 -0.0104174 0.0122238 0.0185535 -0.0148963 -0.0271357 0.0236833 0.0212586 0.000637787
0.0053137 0.0445213 -0.0126481 0.0131315 -0.00818175 -0.0155108 -0.0137762 0.0409805 -0.0246568 0.0661417 0.0501155 0.0368856 0.0222102
-0.033072 0.0547048 0.05107 0.0191201 -0.0223473 -0.00132569 -0.0438491 0.0356519 0.0149513 0.0685244 0.0556456 0.00998302 0.0513563
0.00232635 0.0163565 -0.00776285 -0.0194455 -0.0138189 0.0138108 -0.00374762 0.0246443 0.01844 -0.0156676 -0.0177316 -0.0286375 -0.0276817
0.200766 0.272961 0.612207 -0.0806163 -0.164143 -0.393863 -0.323507 0.00644988 -0.0712212 0.715878 0.176874 0.317257 0.556696
-0.0290369 -0.0100922 0.00495719 -0.0167074 -0.0329447 0.0159514 0.0194435 0.0031519 -0.0170327 0.000382324 0.0178291 -0.0190717 0.00975933
-0.0574602 -0.00386977 -0.00487252 0.0207574 0.0234873 -0.0608333 -0.00045055 0.000848304 -0.028485 0.0815 -0.0132572 0.0272329 -0.00911708
0.0256539 0.0190343 0.0236977 -0.0302538 -0.0247989 0.0290281 0.0107971 -0.0329696 0.0112321 -0.00539621 0.00935256 -0.0295403 -0.0365866
0.00918977 0.0341783 -0.0367091 -0.017715 -0.0310946 -0.027615 -0.00254305 -0.0132727 0.00435397 0.0180845 0.0229153 0.0338982 0.000242493
-0.00250111 -0.0044326 0.0176275 0.0188739 -0.0369482 -0.0152703 0.0248651 0.0205382 -0.0218218 -0.00112085 -0.0322351 -0.0262462 -0.0155532
-0.006456 0.0839408 0.044033 0.00791089 -0.0398252 -0.0326494 -0.0365685 0.0153193 -0.0360514 0.0680292 0.034616 -0.010208 0.0557584
0.0313944 -0.00123712 0.0366623 -0.0118773 -0.0260285 -0.0306188 -0.0267787 0.0198764 0.00661756 0.00340298 -0.0324246 0.0188181 -0.012262
-0.056211 0.0704899 0.0445587 0.0379872 -0.0550705 -0.0331625 -0.00323541 0.0734147 0.00832443 0.0827342 0.051494 -0.0471367 0.0269409
-0.0165775 -0.0025762 0.00446974 -0.0270777 -0.0149756 0.00637989 -0.0202815 -0.00833308 -0.0368573 -0.00303812 -0.0316953 0.00650356 0.0228181
-0.172987 0.279522 0.155866 -0.0115009 -0.0342969 -0.142881 -0.0576841 0.0662215 0.0266012 0.279311 0.165266 -0.0263435 0.102947
-0.0688295 0.0459034 0.0206059 -0.0205195 -0.00913985 -0.0730366 0.000954899 0.0642487 0.0290948 0.0333287 0.04236 -0.0114801 -0.00430054
-0.0306458 0.0454386 0.0320266 0.032984 0.0224492 -0.0527628 -0.0304637 -0.0204126 -0.00733489 0.0200632 0.0204776 0.0450513 -0.00190949
-0.00174152 0.0233803 0.0260007 0.028934 -0.00104445 0.0380723 0.00192765 -0.0313865 0.00862194 0.00588839 0.0133387 0.00204084 0.000929573
-0.00526399 0.0442853 0.0289762 0.027674 -0.0359438 -0.0486865 -0.00569244 -0.00584284 0.0198635 0.0108298 0.0114704 0.0180583 0.0545224
-0.0351391 0.0300933 -0.0118578 -0.0194189 0.0176621 -0.00861356 -0.0262275 -0.035778 -0.0285156 -0.000931895 0.0194139 -0.0215863 -0.0143187
-0.0985139 0.179187 0.0738741 -0.0123248 -0.0290777 -0.0991183 -0.085267 0.05337 -0.0299428 0.167921 0.0576264 0.0530871 0.101319
0.0307525 -0.0269196 -0.0134958 0.0202289 0.0250278 0.0314216 0.0260654 0.00643368 0.00506843 0.0286095 0.022948 -0.0121955 0.0127462
-0.0246926 0.00408587 0.0430485 0.0147844 -0.0379724 0.0155275 0.00243253 0.00526441 0.00438173 0.0221908 -0.0255718 0.0214207 0.00985012
-0.10266 0.145488 0.0871928 -0.0677395 -0.00576835 -0.123696 -0.070276 0.0441777 -0.0153139 0.183099 0.0547218 0.0524715 0.0873348
-0.0166402 0.0566336 0.0660335 0.0353971 -0.0280411 -0.0307512 -0.00697682 0.0315912 0.0144692 0.0681157 0.0612588 0.0158722 -0.00377251
-0.0979116 0.16808 0.159416 -0.0513016 0.0247205 -0.1707 -0.129552 0.0627525 -0.0328753 0.298018 0.154801 0.0514893 0.146671
-0.0382445 0.0254041 -0.00595236 0.0186229 0.00366012 -0.0329711 -0.0184667 0.0423787 -0.0310257 0.0685203 0.0573188 0.0357318 -0.0128229
0.0279037 0.0359692 0.00735073 0.0259077 -0.0286983 0.00467125 -0.00792549 -0.0171164 -0.0135644 0.0208517 0.00314648 -0.0106125 0.00518092
0.0160448 0.00330069 0.0306726 0.0276641 0.0144639 0.0116598 -0.0357239 -0.0168725 -0.0077372 0.0315376 -0.0267415 0.0143003 -0.00307574
-0.0131722 0.273512 0.268199 -0.0934766 0.0526609 -0.206521 -0.163908 0.0629761 -0.179634 0.433063 0.243291 0.159518 0.257258
0.0107146 -0.00509093 0.0157645 -0.0302311 0.02389 0.0277672 -0.02425 0.038738 0.0307794 0.0273446 0.0255623 0.0257267 -0.0240261
-0.0234427 0.0256663 0.0366673 0.00811544 0.0243064 -0.0104986 -0.0392921 -0.0217169 -0.0221411 0.0257716 0.00211651 -0.00585246 0.0134031
-0.0331524 0.0248754 0.0389177 -0.00562234 0.00536669 -0.0196239 -0.0325186 0.0277262 -0.00688989 0.0422167 0.000943168 0.0405739 0.0145791
-0.0445715 0.0161778 -0.0109417 0.000780255 3.47222e-05 -0.0538874 0.00375456 -0.0170972 -0.0267829 0.0130268 0.0238133 0.0234954 0.0264088
0.00739872 0.0524405 0.00439357 0.0124259 -0.0059287 -0.0323379 -0.0279946 0.00401162 -0.00488668 0.0702547 0.000486101 0.0249149 -0.0117608
-0.0221709 -0.0321943 -0.0247509 0.0109953 0.0246909 0.000543969 -0.000357408 0.0114614 -0.00971563 0.024634 0.0030915 -0.0372656 0.0253008
-0.0712514 0.163615 0.127242 0.0340256 0.000333376 -0.140691 -0.0481436 0.0689474 -0.0275153 0.176458 0.106163 0.0199132 0.0904187
-0.0187867 0.0266291 0.00150559 -0.0403979 -0.0271706 0.0110778 0.0245499 0.0129968 0.020895 0.0175691 0.00626169 -0.018111 -0.0210524
0.0103068 0.0357981 0.027054 -0.00688935 -0.0293736 -0.0355403 -0.0361049 -0.00352715 0.0178211 -0.00447437 -0.0241433 -0.0151451 0.0387517
0.0161683 0.0151384 0.0164769 -0.0274452 5.9529e-05 -0.0319886 -0.00962477 -0.0131508 0.0403459 0.0495371 0.00370449 -0.00853876 -0.0271719
-0.0903535 0.0724379 0.0694439 -0.0364552 -0.00239618 -0.0688897 -0.0599398 0.0142887 0.0263095 0.114284 0.0293783 -0.0282118 0.0639381
-0.0476669 0.0428102 0.0208438 -0.0295718 -0.0436463 -0.00123643 0.00260418 0.0373209 0.0215084 0.0454814 0.0199909 -0.0425996 0.0169815
0.00593944 -0.0037014 -0.0224339 -0.0349247 -0.0405459 0.0214345 0.0242369 0.0357733 -6.90643e-06 0.0336026 -0.0164765 0.0215198 -0.0176153
0.0237247 0.229174 0.254991 0.0253736 0.0138107 -0.175524 -0.0840329 0.0122711 -0.00507467 0.210838 0.144846 0.112867 0.196622
-0.0288069 0.0614939 0.020246 0.0274507 -0.0384587 -0.0379051 0.0262036 -0.0242174 -0.0309581 0.0279126 -0.0102009 -0.0198663 -0.00484111
-0.00370538 0.0382785 -0.00763746 0.015286 0.0178516 -0.0159991 0.00817805 0.00553396 -0.00669447 0.00531264 0.025529 0.0238064 0.0226543
-0.0193955 0.00819435 -0.0169772 0.00372889 -0.00742334 -0.0271506 0.0380476 0.00531763 -0.0375766 0.0374357 2.91778e-05 -0.0354714 0.0217379
-0.0079565 0.0268344 -0.000570576 0.000560119 -0.0297116 -0.0381695 -0.0400824 0.035428 0.033883 0.0490856 0.0193626 0.00652303 -0.012403
0.134403 0.552237 0.777611 0.0890001 0.0939026 -0.446016 -0.201325 0.108458 0.0834442 0.615723 0.414998 0.409812 0.453283
-0.0344674 0.000399334 0.00139273 0.0246849 0.0109256 -0.0386733 0.0295582 -0.0142709 0.0187786 0.025598 -0.0208223 -0.0206109 0.0144359
-0.0928372 0.293285 0.24915 0.0330793 0.0171845 -0.173262 -0.11414 0.0136465 -0.116597 0.362309 0.186212 0.0276757 0.126721
-0.0404588 0.0778719 0.0724107 0.0293577 0.00036082 -0.0817714 -0.0637878 0.0592828 -0.0300784 0.118072 0.0528746 0.0159057 0.0443098
-0.00378155 0.0186821 -0.0377012 0.0367614 0.0125486 0.0194635 -0.0303855 -0.00917659 -0.0293198 -0.0174471 0.0230424 0.0132767 0.00179912
0.00960724 -0.00461004 -0.00371511 -0.0137826 0.00205437 -0.0367727 -0.0266331 0.0179082 0.0208818 0.0249278 0.0221442 0.0171161 -0.015333
0.0160379 -0.0171247 -0.0221926 0.0324548 0.0376684 0.0160825 0.0137302 -0.0281458 -0.0358806 0.0347864 -0.0372145 0.023563 0.0289067
-0.681294 0.530184 -0.164206 0.109358 -0.525964 -0.291084 0.117613 0.431752 0.422172 0.22511 0.164064 -0.396639 -0.214475
0.0247938 0.024645 0.015065 0.00191015 0.0126544 0.0249517 0.0134354 0.0351324 0.0411844 -0.0222067 0.00777755 -0.0280779 0.0134734
0.00205082 0.00352644 0.0158344 0.00497301 -0.0197351 -0.0108634 0.0288738 -0.035461 -0.0283669 0.0113491 -0.0348841 0.0351886 -0.0232147
-0.0343702 0.0217816 0.0227568 0.000500008 0.013878 -0.0376251 -0.0105291 -0.000508645 -0.0199931 0.0232616 -0.0306447 -0.0204709 -0.0304649
0.0198687 0.0239945 0.044584 0.0340875 0.00992146 -0.0493469 -0.0375437 0.0293543 0.0319393 0.075482 0.0249689 0.0290092 0.0155605
-0.0722912 0.0557795 0.0502293 0.0207603 -0.0247598 -0.0835443 -0.0392155 0.0410005 -0.00128624 0.0980869 0.0446823 0.0055803 0.0364512
-0.121522 0.185202 0.124165 -0.0012086 -0.0537133 -0.14685 -0.0947966 0.0502685 0.0121099 0.270058 0.118156 0.0085856 0.0769093
0.0177068 -0.0374289 -0.0332236 -0.0231437 0.00879639 0.0234888 -0.0364334 0.0151215 -0.0279121 -0.0181047 -0.0279038 0.00736641 0.0174182
-0.00490522 -0.00547232 -0.0266342 0.00745334 -0.0311784 -0.018573 0.0298893 -0.0118848 0.0349491 -0.0122847 0.00775039 0.027109 0.0231211
-0.0732749 0.0279198 0.0693958 0.0119677 -0.00223366 -0.018494 0.00760308 -0.00495731 0.00661872 0.0858637 0.064529 -0.00162297 0.0420318
-0.0168189 0.00139016 -0.0100388 0.0292546 -0.0327811 -0.0191931 0.0353575 -0.00124931 -0.00445582 -0.017957 0.0107177 -0.0105539 -0.0126025
0.00955439 0.0385226 -0.000340592 -0.0282106 0.0308066 0.00860849 0.0216313 0.00225955 -0.0323216 0.0335739 -0.0269025 -0.0158861 -0.0198154
-0.148713 0.130284 -0.0379937 0.0368246 -0.0889175 -0.115688 0.027089 0.100376 0.0521397 0.109326 0.0793774 -0.077129 -0.0422261
0.0101931 -0.0190272 -0.0291912 -0.039018 -0.03016 0.026921 -0.0215335 -0.000696464 -0.0148509 0.0153344 0.0174423 -0.0293225 -0.0128643
-0.117873 0.21335 0.152085 -0.112522 0.074611 -0.243733 -0.134627 0.0056454 -0.0915474 0.420379 0.196155 0.127168 0.189093
0.00749405 0.00713786 -0.00648941 -0.02225 0.0127266 -0.036887 0.0356513 0.0313667 0.00595739 0.0105387 0.0149607 0.00299874 -0.000929792
0.0223928 -0.0315532 -0.0315349 0.0285001 0.0057476 -0.0117633 0.0182023 0.0285917 0.00081744 -0.0138154 0.016667 0.024861 0.00983882
-0.10897 0.272432 0.206909 0.0047236 -0.063141 -0.138728 -0.11829 0.0673568 -0.00419385 0.315035 0.193694 -0.026232 0.114666
-0.00198339 -0.0347384 0.00717314 -0.0189417 0.0297373 -0.0128308 0.0382022 0.00168633 -0.0353779 0.0119124 -0.0244094 0.0062716 0.0256495
-0.019483 -0.0107009 -0.00965715 -0.00774001 0.0258795 0.00452728 0.016238 0.0283046 0.0295698 0.0315563 0.0025578 0.00187636 -0.0208552
-0.142912 0.220142 0.0936731 -0.0323234 -0.0304336 -0.107065 -0.0816524 0.0757348 -0.00608888 0.249244 0.0978579 -0.0169927 0.109587
-0.0413905 0.217049 0.309395 0.000781284 -0.0650314 -0.229783 -0.179196 0.0587575 -0.0972084 0.396466 0.236671 0.152679 0.206593
-0.0294481 -0.00824318 0.0350835 -0.00180779 0.00774039 -0.0174273 -0.0445677 -0.0232378 0.0177691 0.0220744 0.00523446 0.0362271 -0.00171132
-0.148338 0.181052 0.0592833 -0.145053 0.119972 -0.133011 -0.118187 0.0116844 -0.117151 0.413169 0.109404 0.0454108 0.125248
0.0131843 -0.0166989 0.025619 -0.0190543 0.00592472 0.00284732 -0.0174193 0.0141974 0.0315297 0.0358917 0.0308215 -0.00648288 0.00986594
0.016692 0.026779 0.0329159 -0.024062 0.0359214 0.0289447 0.0323081 0.0130958 -0.0160435 -0.0326533 -0.0269028 0.0161445 0.0260603
0.0239434 -0.00502551 -0.0210214 0.0300831 0.0115541 0.0094861 -0.0256729 -0.0069882 -0.00862639 -0.0108901 -0.00700976 0.0351964 -0.00529596
-0.0418174 0.0511569 0.0557257 -0.0294325 0.0256811 -0.0037349 0.018412 0.0178257 -0.0104589 0.0973739 0.0580129 -0.0234822 0.0344512
-0.0314973 -0.015626 -0.00192162 -0.0188049 -0.0286411 0.0234172 -0.0330371 0.0134893 0.0349652 -0.01122 0.00299162 0.0103527 0.03486
0.0161505 0.0345001 3.85831e-05 0.0197713 -0.0175777 0.0212925 -0.00178536 -0.00565488 -0.0250999 0.0457894 -0.0262075 0.0132396 -0.029748
-0.101322 0.156915 0.103625 -0.0727377 -0.0290186 -0.115075 -0.0503335 0.0429081 -0.0378874 0.326863 0.0894722 0.0809654 0.116861
0.0331163 -0.0272175 0.0353321 0.00940825 0.0242723 -0.00286178 -0.0393716 0.0381023 0.0364634 -0.0232047 0.0278946 -0.0268228 0.0177108
0.000699227 0.220257 0.22051 -0.145644 0.0808764 -0.184752 -0.0600211 0.0261886 -0.125586 0.502288 0.174085 0.135677 0.323918
-0.0146625 -0.0010221 0.0193214 -0.00950571 0.020309 0.00149228 0.0347656 -0.0317741 -0.0159701 0.0324046 0.0316866 0.0337462 -0.00949852
0.0110001 0.0193631 0.0299227 0.00216589 0.0276242 -0.00803658 0.0353669 0.0165276 -0.00689537 0.0299987 -0.0127146 0.0291165 -0.0182199
-0.0549208 0.150383 0.0847295 0.0348693 -0.0620331 -0.12561 -0.0657289 0.0490187 0.00596827 0.182153 0.0583349 -0.0274788 0.0522209
0.00364546 0.0194061 0.032875 -0.0282294 0.021003 -0.00177665 0.0042534 0.0211468 -0.0212498 0.0224464 -0.00226653 -0.0233924 0.00781276
-0.0365519 -0.0250922 0.0211494 -0.0245732 -0.0344586 -0.0215547 -0.0114621 0.0173596 -0.0244243 0.00490393 0.0371671 -0.0155594 -0.0296239
-0.031912 0.0275936 -0.0167399 0.0303659 0.00906081 0.0281808 0.00802746 -0.0176151 0.024934 0.0133673 0.00211239 -0.00162627 -0.0255264
0.0241094 0.00753748 0.0333368 -0.00211622 -0.00842147 -0.00196482 0.0210061 0.000942513 -0.00412697 0.0281968 0.00786453 -0.0113454 0.0212094
-0.014287 0.0141772 -0.024201 0.00701595 -0.009069 0.0155351 0.0144967 -5.15402e-05 -0.00281168 0.00199645 0.00830735 0.000400388 0.0336183
0.0322475 0.00411912 0.00219717 -0.0038066 0.0319766 0.0179109 0.0266274 -0.0214458 -0.0134533 -0.00804763 0.0289648 0.00371484 0.0111479
-0.0155609 -0.0045268 -0.020281 0.0379896 -0.0169304 0.017065 -0.0306503 0.0201279 -0.0310809 -0.00562394 -0.00966626 -0.0159073 -0.0117945
0.0224077 0.00198336 0.0229641 0.0237546 0.0125694 -0.043751 -0.0375006 -0.0115649 -0.0311481 0.0520714 0.00961594 0.00215468 0.0234705
-0.00646719 0.0521732 0.017362 -0.0343095 -0.0177893 -0.0169348 -0.00969681 0.00992839 0.0215817 0.0136718 0.00124468 0.000496604 -0.0295483
-0.0036078 -0.0163387 0.0357058 0.00866426 -0.00685001 -0.0137553 0.0158522 -0.0271028 -0.0250065 -0.0299522 0.0233809 -0.00775651 -0.0281465
-0.152292 0.212651 0.0710844 0.0590291 -0.111525 -0.128705 -0.00713158 0.123816 0.068035 0.166574 0.080719 -0.048664 0.0429958
-0.00513548 -0.0163521 0.018281 -0.0294407 -0.0419796 -0.0215489 -0.0292381 -0.00559655 -0.0160893 0.0332606 -0.0198105 -0.0055183 -0.035818
-0.0297387 0.0293298 0.00454962 -0.0345013 -0.00115201 -0.0703549 -0.0213146 -0.0222144 0.00201522 0.0657392 0.0345572 0.0313965 -0.00863783
0.00658141 0.0252343 -0.0245843 0.00955106 -0.0102225 -0.0188237 0.0140133 0.00726283 -0.0332056 -0.0176565 -0.0135521 -0.00720168 -0.011583
-0.0353362 -0.0255387 -0.0137327 -0.0270716 -0.0122078 0.0314251 -0.00689281 0.02742 -0.0222954 0.0291548 -0.0204847 0.0179966 0.00470299
0.00724282 0.00366039 0.0141775 -0.0222179 -0.0104085 -0.0198011 -0.0339128 -0.00913006 0.0264283 0.0029545 0.0088952 -0.00142852 0.0356643
-0.0243642 0.0988074 0.0591743 0.0345707 -0.0485152 -0.0690462 -0.0614041 -0.002317 0.0134777 0.068559 0.0293077 0.0156245 0.0607729
-0.0108172 0.0326167 -0.0202732 -0.0403614 -0.0257615 -0.0177916 0.0285431 0.00241408 0.00716267 0.0149722 0.0485618 -0.0243774 0.0254543
-0.0243287 0.0346559 0.00716868 0.0110004 0.0263332 0.00896477 -0.0101848 -0.0029488 -0.0197651 0.0369841 -0.00214446 0.0294205 0.0245598
0.0303509 0.0309423 -0.0166248 0.03477 0.000792512 0.0341749 0.0139888 -0.0240648 -0.0142018 0.0309637 0.0117777 -0.0365779 0.0288959
-0.112994 0.167059 0.222552 -0.20193 0.120778 -0.130934 -0.0777841 -0.0458533 -0.138538 0.468216 0.139002 0.189185 0.266944
-0.0166701 0.0539335 0.0408506 0.038302 -0.00555157 -0.0374021 -0.013333 0.0492816 0.0169485 0.0575279 0.0389846 -0.0249576 0.0225772
-0.0171072 0.00098497 -0.0217482 0.027947 -0.0154519 0.0163969 -0.0219045 0.0376417 -0.00783709 -0.0177502 0.0258246 0.0386631 0.00210437
-0.00419902 -0.0153894 0.00306961 0.0278413 0.0347274 -0.0229876 0.019436 -0.0077992 -0.0127931 0.0367629 0.0370081 0.00874287 -0.0267266
0.0153028 -0.00854338 0.0160901 0.0268734 -0.00192651 0.00289608 0.026202 -0.0359339 -0.022006 -0.0290421 -0.0253815 -0.0367592 0.0114516
0.000891439 -0.00360301 0.00503497 0.00520539 0.0167134 -0.00652959 -0.0282038 0.0257521 0.0260282 0.0172824 -0.00283086 0.00861111 -0.0299911
-0.0787209 0.11289 0.0530585 -0.00312256 -0.0495421 -0.0489605 -0.0253706 0.0352557 -0.0153251 0.125181 0.0637757 0.0371005 0.0526408
-0.00282711 0.0395324 0.054951 -0.0382508 -0.0264402 0.00896933 -0.0273963 0.0139526 -0.01595 0.0395021 0.0379606 0.00389063 0.0068757
0.00367712 0.0557816 -0.015795 0.0278672 0.00684812 -0.0338576 -0.00115321 0.0434094 0.041822 0.0686271 0.0302261 0.0274275 0.014808
-0.136237 0.184547 0.158128 -0.0659176 0.035528 -0.188951 -0.146523 0.0733001 -0.123461 0.380186 0.137763 0.0735919 0.221815
0.00655001 0.0241852 0.040007 0.0200736 -0.0243732 -0.00179005 -0.0269423 -0.00745705 -0.0219759 -0.0089646 0.00326908 0.00638092 -0.0111586
-0.0483098 0.0862802 0.0342257 0.00141935 -0.0307738 -0.0815258 -0.00647795 0.0013372 -0.0182311 0.143165 0.0447178 -0.0202949 0.0771855
-0.0335664 0.00965863 0.00579819 -0.017412 0.0325322 -0.0462504 -0.0444572 0.00687125 0.0037442 0.0109865 0.0522538 -0.0237392 0.0208631
-0.0538492 0.0508068 0.0326585 -0.0403873 -0.0076912 -0.0688749 -0.0341505 -0.0090861 -0.00412823 0.145309 0.0168711 0.00898262 0.0841262
-0.00462203 -0.0200975 -0.0264644 0.0224265 0.000539246 0.00388257 -0.0065557 -0.0115075 0.0135892 -0.00162899 0.0277056 0.0106108 0.0342147
-0.0499136 0.23731 0.149335 0.00134074 -0.0564932 -0.136276 -0.10521 0.037683 -0.0285633 0.227627 0.168726 0.0395364 0.116969
0.0330279 -0.0171725 0.00345108 -0.00431815 0.0184373 -0.00557107 0.0112928 -0.00424743 0.0166013 -0.0168428 -0.00746866 0.0112569 -0.0133969
-0.00604438 0.0342622 -0.0378914 -0.0197626 -0.0245059 0.00318293 -0.0198548 -0.0373059 0.0290394 0.0203905 -0.0135011 -0.0213957 -0.00385814
-0.0604094 0.0681003 0.0332371 0.0181057 0.0142065 -0.0671355 -0.00430659 0.00838478 0.0289922 0.117283 0.0731427 0.00425559 0.0483317
-0.010492 0.0138784 -0.00791407 -0.0288077 -0.0329689 -0.00020686 0.0151878 -0.00125079 -0.0237449 0.0457812 0.00651054 -0.024352 -0.0276349
0.0139971 0.0382058 0.0191479 -0.032846 -0.0265106 0.0349198 -0.0240232 -0.00252775 0.0326331 -0.020337 -0.0199061 -0.0231007 -0.0105791
-0.132135 0.25048 0.184195 -0.0541952 0.0249964 -0.169516 -0.091464 -0.0119357 -0.0981644 0.387787 0.104974 0.083151 0.191504
0.0145767 -0.0333401 0.0141798 0.0256316 -0.0138789 0.00195763 0.00508297 0.00806617 0.00251 0.0376035 -0.028321 -0.0187807 -0.0117853
-0.0178006 0.213098 0.164931 0.00127739 -0.0440654 -0.164512 -0.125444 0.0733797 0.0149913 0.266456 0.105921 0.045735 0.186196
0.0276634 -0.0169294 -0.030331 -0.0107488 -0.0199877 0.0211297 -0.0202761 -0.0368917 -0.00267032 0.0233187 -0.0191014 0.0050074 0.00246792
-0.0106186 0.026696 0.0157553 -0.0296332 -0.000813981 -0.0127915 0.022493 0.0265375 -0.0138103 0.0474992 -0.00315594 -0.0356347 -0.00818429
-0.0114976 0.0422586 -0.013081 -0.0347762 0.0238408 -0.00460392 0.0137296 0.0266129 -0.026188 0.0102563 0.0126696 -0.00372555 -9.84497e-05
-0.104171 0.202498 0.141541 0.0179733 -0.072306 -0.121242 -0.0917553 0.0424179 0.0136475 0.238193 0.108002 -0.00892141 0.0610755
-0.379282 0.0340201 0.25552 1.00726 -1.19713 -0.710574 -0.64061 0.17821 1.31032 0.0859085 -0.171991 -0.178373 0.654327
-0.125165 0.215859 0.130427 -0.104299 0.10203 -0.0833607 -0.112854 0.00132511 -0.0966782 0.401411 0.104051 0.00680362 0.146891
-0.0330055 -0.0144324 0.0280497 -0.0386742 -0.017274 -0.0396635 -0.0441845 0.0283208 0.0195 0.00911892 0.00478308 -0.031586 8.23137e-05
-0.0104393 -0.00418633 -0.0384289 -0.0136729 0.0083503 -0.0354502 0.00199464 -0.0285265 -0.0209109 0.00367926 -0.0222924 0.01339 0.0107094
-0.0509254 0.0386011 0.0531449 -0.0174521 0.0110967 -0.0453183 -0.0190802 0.043688 -0.0303752 0.027157 0.0238862 0.012489 0.0384672
-0.048324 0.0130429 0.0456972 -0.0359198 -0.00916001 0.000692151 -0.0388967 0.0439666 0.0246598 0.0764135 0.0236884 0.0343423 0.0326186
-0.0187593 -0.0018993 -0.0292497 0.0196874 -0.0033472 -0.0286283 0.0204145 0.0427811 -0.0046018 0.0241973 0.0171792 0.0250138 0.00537464
-0.00158626 0.0360928 0.0358504 -0.00270502 -0.0107517 -0.0265287 0.00532017 -0.00418835 -0.00550574 -0.0149991 0.0343883 -0.0262033 0.0252744
-0.0083946 0.00878613 -0.0297344 0.0378046 -0.0225061 -0.0388873 -0.0176173 0.017984 -0.00850026 0.00498647 0.0212032 0.0052722 -0.00872436
-0.0397949 0.0530432 0.0238729 -0.0132875 0.00524263 0.00539132 -0.00181681 -0.0318698 -0.0107442 0.0577773 0.0532097 0.0469896 0.0125732
-0.0280803 0.0420822 -0.0152562 -0.0282664 -0.0380638 -0.0129457 -0.00804079 0.0218922 0.00637483 0.000167154 0.0243916 -0.00884116 -0.00886844
-0.036573 0.0203448 0.00926253 -0.0207173 -0.00333892 -0.0375844 -0.00801282 -0.0301975 0.0224054 0.0030439 -0.034737 0.0157312 0.0251278
-0.00693335 0.0121061 -0.0336241 -0.00132376 0.00777555 0.0315859 0.0336485 -0.0101378 0.011254 0.00470763 -0.0329545 -0.0302179 0.0209971
-0.01669 -0.00984853 0.0312005 -0.00943408 -0.0236716 0.0308178 0.0368284 -0.0330702 -0.00197978 -0.0310979 -0.0346115 0.000140095 0.0172351
0.0251903 0.0447675 0.0379774 0.0333204 -0.0017172 0.0163759 0.00428097 -0.0157947 0.00225693 -0.0288228 0.00466944 -0.0140976 -0.0197817
-0.0759006 0.168812 0.0644562 -0.0190683 -0.0274416 -0.0789827 -0.0643696 0.042962 0.00350476 0.138404 0.0430792 -5.44398e-05 0.062683
0.0176354 0.0338359 -0.0140458 -0.0247193 0.00726126 0.0165638 -0.0268005 -0.0257369 0.0201978 0.0113133 0.0285293 0.0118823 -0.014096
-0.0337554 0.0234145 -0.0128171 0.00761958 0.0295022 0.0216338 0.0312673 -0.00741535 0.011663 0.0417526 0.0293759 0.0280264 -0.0264839
-0.0256404 -0.013352 -0.0302819 0.0145088 0.0135041 0.0138995 0.00658378 -0.0115823 -0.0061092 -0.0134186 -0.0145135 -0.0103795 0.0259258
0.00224465 -0.0329441 -0.00432323 -0.0261928 0.0013087 -0.0331375 -0.0169289 0.00899384 0.0324687 -0.0247168 0.0116878 -0.0329012 0.0121868
-0.0396624 -0.0183828 0.0446704 -0.0321652 0.0110351 0.0226578 0.0209579 0.0347068 -0.0361741 0.0630405 -0.0131652 0.0293553 0.0376416
-0.00962775 0.0269694 0.017826 0.0228376 0.0273108 -0.0185194 -0.0163291 -0.024703 0.0117801 0.0320294 -0.0183511 -0.0116754 0.0314216
-0.100986 0.213929 0.239575 -0.129771 0.11609 -0.10546 -0.0940589 0.0331422 -0.134706 0.475134 0.156212 0.157585 0.218814
-0.0917597 0.0895049 0.0577391 0.0183367 -0.0505286 -0.0995157 -0.0600404 0.0615741 -0.0442602 0.11484 0.0956422 -0.00962787 0.072126
-0.0149806 0.0333495 -0.033541 -0.0125767 -0.0130455 0.00198213 0.0338359 -0.00294183 0.0287223 -0.0311922 0.00929547 0.0278156 0.0251281
-0.070505 0.134392 0.127021 -0.0188406 0.00194361 -0.128761 -0.0401853 0.0383756 -0.0169454 0.174928 0.08841 -0.0111376 0.0539655
0.0152868 0.0231261 0.0239485 -0.0148848 -0.0151787 -0.0152805 0.0180241 -0.0274969 -0.0103103 0.0322672 0.0281829 0.0351962 0.00443181
-0.0183826 0.00538074 -0.0165237 -0.00699413 0.0270167 0.00579324 -0.037236 -0.0125462 -0.000277492 0.00906977 -0.0272152 0.023385 -0.0374024
0.00412294 0.0982922 0.111573 -0.0252658 0.00450933 -0.108438 -0.0373776 0.0215748 0.00384183 0.154138 0.0487142 0.0180997 0.0573463
0.0961936 0.280644 0.814002 -0.131042 -0.292244 -0.492639 -0.437415 0.200586 -0.320861 0.768256 0.603533 0.380475 0.556497
-0.0261588 -0.00333314 0.0326544 -0.00760639 -0.0194513 0.00356342 -0.0101443 0.0193412 0.00947279 -0.0184813 0.00752742 -0.0221003 -0.02362
-0.00718879 0.014411 -0.0346895 -0.000211776 -0.00508867 -0.00890982 0.0163325 0.00611416 -0.0248923 -0.0188128 0.0244073 -0.0251271 -0.00572541
-0.0178725 -0.00913261 0.0206652 0.0371264 0.0025387 -0.00427232 -0.0378744 -0.0171287 -0.0316221 0.0209902 0.0118421 0.00885398 0.024843
-0.0383494 0.0373314 -0.0189858 -0.00011358 0.021391 -0.00289044 0.00518024 -8.53305e-06 -0.0199642 0.0357639 -0.0339216 0.0235517 0.0258776
0.0192866 -0.00980418 -0.0325543 -0.0204374 -0.0116555 -0.00474448 0.00621954 0.0293266 0.00688357 -0.00494964 0.0130732 -0.00872465 -0.0100939
-0.0277802 0.0110056 0.0364998 0.0303847 -0.00379354 -0.006418 -0.00039881 0.0352905 -0.000625935 0.0347574 0.023368 0.00985782 -0.00916636
-0.0492027 0.313429 0.294669 -0.137757 0.106838 -0.262918 -0.0750935 -0.0215845 -0.180145 0.506804 0.194035 0.0988232 0.271619
-0.0170447 -0.00674296 0.0150687 0.0384099 -0.0266733 -0.0150846 -0.0103256 0.00206341 0.0180985 0.00697163 0.00432252 -0.0212129 -0.0228333
-0.105816 0.144931 0.0903317 0.0275534 -0.0192627 -0.0916178 -0.0758896 0.0346456 -0.00173756 0.160778 0.078552 -0.000494321 0.0484999
-0.0628681 0.0923812 0.00872328 0.0183758 -0.0321447 -0.0760062 -0.0462754 0.00376011 -0.00616172 0.101914 0.0380192 -0.0232434 0.0360481
-0.00400293 0.00284592 0.00459984 -0.0341853 -0.0118011 0.0139813 -0.0124459 0.00571714 -0.0318724 0.000574132 -0.0374874 0.0225851 0.000749515
-0.073864 0.0815922 0.0796876 0.0297811 -0.0523235 -0.0796923 -0.0354656 0.0195303 -0.0299256 0.136228 0.0508837 0.0119233 0.0462481
0.0107821 0.0653234 0.038117 -0.0108623 0.00725433 -0.0195476 0.0171292 0.0265191 0.0040017 0.11642 0.00641802 -0.016384 0.0717614
0.0297552 -0.00724394 0.0212188 -0.0278753 -0.00155666 0.0165928 -0.0421486 0.0205916 -0.0158225 0.0481712 -0.000710555 -0.0165762 -0.0195347
-0.00674889 0.00352718 -0.017715 0.0180905 -0.0322958 -0.0240225 0.00608295 0.00135775 0.00452999 -0.0285646 0.00322576 -0.00545342 0.0111172
-0.00326063 0.0601623 0.0161158 -0.0474691 0.00136481 -0.0069218 -0.0133378 -0.00617658 0.00395037 0.110439 0.0334367 0.00355408 0.0214614
0.0340366 0.00703366 -0.0265979 -0.0363625 -0.0248952 -0.0137012 0.00519105 0.0337883 0.020945 -0.00449702 -0.0329583 -0.0138583 -0.027998
0.0164003 0.0335969 -0.0263805 0.0159323 -0.0143412 -0.00708421 0.0177171 0.0279146 0.00291584 0.0286589 0.0377903 -0.00778516 0.0193334
0.0326604 0.0184756 0.00333002 -0.0117084 -0.0340991 -0.0176183 0.0157014 -0.0191833 -0.029218 0.00451088 0.0109256 -0.00793558 0.0378175
-0.0506111 0.283139 0.202277 -0.0882844 0.0940768 -0.228897 -0.170631 0.0348572 -0.0703941 0.388326 0.168989 0.121363 0.210171
-0.0263887 0.0245563 0.00329464 -0.0319676 0.0133332 -0.0252019 0.00453956 -0.011582 -0.0165508 0.00744682 -0.0267307 -0.0126401 -0.00630548
-0.0276364 -0.00310141 0.00861961 -0.0279444 0.0266411 0.0079798 -0.0248004 -0.0213796 -0.0277761 0.0451931 0.0273177 -0.0251995 -0.0251638
-0.0409945 0.0253946 -0.0229275 -0.0115932 0.0243353 0.0322926 -0.0258682 0.0326603 0.0180209 -0.0155461 0.0128955 -0.0200724 -0.00751527
-0.063878 0.0474851 0.0516432 -0.00513736 -0.0370301 -0.076171 0.00618187 0.0400243 0.0132065 0.0647891 0.010257 -0.0122932 0.0655765
0.005139 0.0378896 0.0514628 -0.00325401 -0.0232774 -0.0023683 -0.0443163 0.0137616 -0.0316329 0.0542657 0.0151483 0.0318911 0.010586
0.036903 -0.0089258 0.0180332 -0.0315099 0.0254112 -0.0241856 0.0191603 0.00709669 0.027903 -0.00544233 0.00244068 0.0265453 0.0123452
-0.145267 0.153931 0.0756497 -0.131961 0.0682753 -0.0799243 -0.0679235 0.015454 -0.125451 0.332731 0.0863623 0.0259969 0.121843
-0.0222391 0.0104977 0.0225777 -0.0254305 0.0168501 -0.0226361 -0.0219125 -0.0362878 0.00236547 0.00262373 0.0317583 0.000673538 -0.0237832
-0.107035 0.217066 0.166004 -0.130472 0.0883215 -0.165259 -0.0145071 0.0239932 -0.117684 0.501225 0.152526 0.155892 0.256153
-0.00694288 0.0130586 0.00904768 0.00107164 -0.00042266 0.0181507 -0.0150463 0.030133 0.0136749 -0.0377349 -0.00841282 -0.0236808 0.0330306
0.0289377 -0.0241572 0.0191178 0.0205203 -0.0353269 -0.00890621 0.0154837 -0.0274932 0.0042525 0.00538313 -0.0276918 0.0271983 -0.0245188
0.0381438 0.00949751 -0.0117797 -0.00960325 -0.0335325 -0.00714851 0.00642126 0.0181428 0.0228446 0.0275637 0.0332334 -0.0189502 -0.00529857
-0.0494797 -0.0190341 -0.0205833 -0.0174347 0.0327925 -0.0257173 0.0212154 0.0336284 -0.0128066 0.0299586 -0.0014665 -0.0272049 0.0295667
-0.0437937 0.0753545 0.12701 0.0200299 -0.0393599 -0.0882685 -0.0347173 0.0215457 -0.0152818 0.161347 0.112069 0.0102273 0.0472871
-0.00127674 0.0103322 -0.0138187 -0.00168845 -0.0183536 0.0161742 -0.0311065 0.012039 -0.00345949 0.014304 -0.01372 0.0358108 0.0147186
-0.107725 0.120548 0.0866153 -0.0421364 -0.0347091 -0.0664279 -0.0432857 0.0428984 -0.052174 0.243162 0.114144 0.0508635 0.09614
0.0360917 -0.0380752 -0.00171911 0.0102068 0.0328588 0.0188002 0.027001 -0.00577443 -0.0200156 0.0136172 0.0144139 0.0226975 -0.005025
0.0322418 0.0331337 0.0205346 -0.0257273 0.0273449 0.0324491 0.0134164 0.00239879 0.0152256 -0.0285351 0.0376767 -0.0230618 -0.00713827
-0.144196 0.225531 0.0963094 -0.0530649 0.0266269 -0.101495 -0.0908855 0.0778817 -0.0697037 0.341307 0.126703 0.0736133 0.117023
-0.00186817 -0.00110621 0.0076227 -0.0266437 0.035694 -0.0424771 -0.00942623 0.0371669 -0.0192248 0.0505343 0.0430615 -0.0124652 0.027251
0.00548195 0.00249438 0.00230727 -0.0126718 -0.016243 -0.0418063 0.000788881 -0.0345144 0.0370121 -0.000269254 0.0177165 0.0320336 -0.00510712
-0.000406333 -0.015894 -0.0170326 -0.0014164 0.0272283 -0.0409817 -0.0163575 0.014132 0.00697164 0.0254859 -0.012535 0.037844 0.00149379
-0.00155508 0.0666015 0.0430375 -0.0123768 -0.0293015 -0.0648449 -0.000878142 0.0102412 -0.022176 0.0207628 0.0199402 0.0302104 0.0468295
-0.0137075 -0.00627477 -0.0111945 0.0304447 -0.00591174 0.0231359 0.0144426 -0.0376727 0.0352327 -0.0343189 0.0259522 -0.0295633 0.0295308
-0.0195699 0.0278651 -0.0234312 0.0237205 -0.0312308 -0.0317846 -0.0208458 0.0142521 0.00208631 -0.014 -0.00925342 0.0266945 0.000925097
-3.2998 2.50356 -0.551039 0.562509 -2.37603 -1.56846 0.605946 1.73675 2.26379 1.27798 0.940557 -1.74647 -0.876393
0.015048 0.00747688 0.0207837 -0.0242914 0.0109191 -0.0202773 -0.0284953 -0.00055579 -0.0354949 0.0328639 0.0277674 -0.00785373 0.0308594
-0.00831062 0.0212536 -0.0244518 -0.0159151 -0.0308065 -0.0204215 -0.0262148 0.042368 -0.000200841 0.0223705 0.0229983 0.0200262 -0.0223093
0.0077732 0.0430782 -0.0148362 0.0218709 0.00337528 -0.0447678 -0.0174098 -0.0116575 0.0132484 -0.0141363 0.0441712 0.0220349 0.0425756
0.0252212 -0.00484884 0.013671 0.0117397 -0.0305489 0.00178643 -0.0202412 -0.0383184 -0.0213849 0.00847674 0.0233124 -0.0303991 -0.0235669
-0.0331939 0.0334383 0.0249167 -0.0193669 -0.00647563 0.0288078 -0.0206679 -0.0278899 0.0320411 0.00493091 0.000825366 0.0234666 -0.0121954
-0.00594887 -0.0164086 0.0237663 -0.010111 0.0214643 -0.0309418 0.0169129 -0.0220763 0.0357187 0.037119 0.0245274 -0.0373016 0.0113274
0.00321761 0.0579386 0.019423 0.00532671 -0.010201 -0.0187291 -0.016842 0.0403876 0.027709 0.050223 -0.0207795 -0.0359934 0.0245464
0.0145985 0.0267163 -0.016153 -0.00540722 -0.0071512 -0.00116066 -0.0360267 0.0259693 -0.0055367 0.00243744 0.0164609 0.0107504 -0.0284563
-0.140991 0.225161 0.182766 -0.00528505 0.029035 -0.168596 -0.0845002 -3.34153e-05 -0.0554084 0.36646 0.137463 0.0695672 0.184801
-0.151965 0.215711 0.145481 -0.0974918 0.0270537 -0.0931961 -0.0500888 0.000621232 -0.060358 0.33199 0.0925979 0.0680099 0.171372
-0.0207554 -0.0266131 0.0170858 0.0268814 -0.0379355 0.0124936 -0.00191559 0.041443 -0.0182559 0.0331677 0.0215486 0.007847 0.029692
-0.0196854 -0.0153294 0.0158432 0.0128062 0.0130885 -0.0353517 -0.0349633 -0.0283188 0.00807763 -0.0245151 0.0220898 -0.00710613 -0.0322935
-0.0578 0.229433 0.206367 -0.0423226 0.00225937 -0.194804 -0.0742474 0.0663074 -0.0383257 0.363925 0.152882 0.103533 0.132061
-0.18016 0.186059 0.0784611 -0.0427821 0.0216232 -0.114782 -0.0914027 0.0268167 -0.036468 0.28143 0.0766812 0.0641392 0.160119
0.00154276 0.0338082 0.0363594 -0.0324568 0.0115743 -0.00616973 0.00580318 0.0300121 0.0219946 0.0274858 0.0205208 -0.0266722 0.0398166
0.0267388 -0.0321288 -0.0228524 -0.00045348 -0.00337058 0.015732 0.0358469 -0.0308878 0.0199843 -0.03748 -0.0335737 -0.0160855 0.00868868
0.0331912 -0.013073 0.0310342 0.00613058 -0.0258472 -0.00552838 0.027697 0.0341158 -0.0175563 0.0317728 -0.0321116 -0.0245051 0.0318137
0.0149691 -0.0352517 0.012636 0.00892596 -0.0318855 -0.026695 0.00318446 -0.0157077 0.00755191 0.0196427 -0.0282151 -0.0056032 0.0135134
-0.00269596 -0.0102539 0.0331182 -0.0146056 0.0363347 -0.0445493 0.00626382 -0.0102749 0.0326041 -0.00336947 -5.72536e-05 0.0388143 0.0265741
-0.0733217 0.0834425 0.0733378 -0.0265868 -0.0303148 -0.0210812 -0.0166595 0.0120475 -0.00874294 0.131456 0.0372138 0.00890119 0.0673906
-0.015383 -0.0341937 -0.00624045 0.0353522 -0.0065467 -0.027492 0.00311085 -0.0300931 0.0128738 0.0311719 -0.0206887 -0.019129 -0.0130765
0.0914753 0.19529 0.330302 -0.0316696 -0.0458784 -0.243226 -0.197286 0.00847638 -0.0788753 0.471548 0.160212 0.165032 0.344928
-0.0303114 0.082696 0.0555166 -0.034938 -0.00222351 -0.0606688 -0.0470611 0.00557493 0.0152736 0.0284246 0.0620292 0.0383404 0.0669441
-0.00595212 0.0387235 0.0420588 0.00719482 0.0307378 -0.04933 -0.0267096 1.71866e-05 0.022721 0.00808967 0.0179135 0.0159226 -0.0168797
-0.0337918 0.0096681 0.019441 -0.0329196 0.00177563 -0.0145449 -0.0105713 0.00925119 -0.0335109 0.0316506 0.0058413 0.0214389 0.0076428
-0.0182416 0.038089 0.0268009 -0.00377189 -0.0254621 0.00288177 0.010359 -0.0140454 0.0104703 -0.0341532 -0.0174335 0.0360518 0.0352071
0.146839 0.612553 0.778007 0.12661 0.12239 -0.472649 -0.265079 0.0784334 0.0749316 0.642056 0.411463 0.390483 0.538353
-0.717069 0.62323 -0.0685659 0.242712 -0.498851 -0.433096 -0.0019973 0.353959 0.478776 0.325822 0.28614 -0.544482 -0.22849
0.0122507 0.0379855 -0.0287572 0.0100932 0.0320925 0.0267488 -0.0211691 0.0209832 -0.0225489 -0.0320438 0.0189931 0.0106424 0.0373233
-0.0239215 -0.0198821 0.0251032 -0.0369654 0.00626416 0.0083145 -0.0136164 0.0277846 -0.00342752 -0.0327202 0.0192475 -0.0250243 0.0261358
0.011053 0.00959402 -0.00595198 -0.0285241 0.00194252 -0.0095029 0.0162394 0.0430853 0.0291842 0.0612191 0.0274994 -0.0316941 0.0130379
-0.0135153 -0.0320602 0.0344987 0.0163335 0.0026211 -0.0194226 -0.00799178 -0.0160017 0.0356272 -0.0056627 -0.00960961 -0.0102544 0.0287014
-0.0301668 -0.0167082 0.0158725 -0.0114395 0.0172894 0.025298 0.000635201 0.00072378 -0.00722637 0.0128637 -0.0139976 -0.0228939 -0.000208126
-0.026465 0.0581735 0.0148699 -0.0159524 -0.0202369 -0.0289761 0.00357256 0.0148023 -0.0363459 0.0203025 0.00600783 0.0378219 -0.0110975
-0.00345234 0.0134172 0.0148618 0.0104348 0.0268104 -0.0324605 -0.0205272 -0.00744383 0.00741578 0.0322352 0.0228435 0.0039833 -0.0191565
-0.0852515 0.110247 0.0502312 0.0131227 -0.0317886 -0.0471423 0.0136621 0.029194 0.0578073 0.102308 0.0105269 0.00663562 0.00304034
-0.0145547 -0.0199207 -0.0255975 0.00356832 0.0214992 0.0305803 -0.0124476 -0.0216964 -0.0191318 0.0162951 -0.0345308 -0.00585582 0.0227161
0.00324302 0.0271768 0.0664293 -0.022283 -0.00923509 -0.0222186 0.0128976 0.0296405 0.0207591 0.0612646 -0.0118392 0.0450954 0.00486144
-0.00864822 -0.00653223 0.0154587 0.023494 -0.0194737 0.017044 -0.0446167 -0.0148211 0.00847554 0.0464448 0.0102208 0.0172677 0.0240557
-0.15118 0.151513 0.0891614 -0.0678765 0.0406189 -0.158922 -0.0540167 0.0481876 -0.0211926 0.299412 0.107012 0.0271929 0.0804156
-0.0293106 0.0463518 -0.0180307 -0.00981626 0.00568958 0.00297289 0.024198 0.0126338 0.0341055 -0.017815 0.0394428 -0.00125355 0.00185337
0.0012646 -0.0368457 -0.0198678 0.0104667 0.0296143 -0.027386 -0.030426 -0.00817931 0.0287212 0.0322321 -0.0265938 0.031032 -0.00682669
-0.188214 0.176988 0.149946 -0.170976 0.142581 -0.0931452 -0.150359 -0.0464361 -0.156588 0.419953 0.0878747 0.0534627 0.244214
0.0384537 0.003621 -0.0264866 0.03038 0.0280653 -0.0175987 -0.0378536 -0.0189077 -0.006222 7.1562e-05 -0.0105329 -0.00961916 0.00477318
-0.0583531 0.067958 0.0584947 -0.00174811 -0.018247 -0.0430487 -0.0168209 0.0585162 0.0189118 0.126959 0.0775963 -0.00305632 0.0546761
-0.0808055 0.278762 0.175572 -0.0401033 0.0254317 -0.23745 -0.122013 0.0359718 -0.0194038 0.37564 0.19569 0.0309864 0.184669
0.0194681 -0.0234018 -0.031075 0.0272426 -0.00272124 0.0378577 -0.0175664 -0.00370379 0.0255604 0.0164678 0.0238452 -0.033377 4.35206e-05
-0.021957 -0.02211 -0.0212032 -0.036201 -0.0198761 0.020779 -0.0392416 -0.0195331 -0.0320502 0.00630499 0.00496514 -0.028273 0.0299612
0.0297921 -0.0195034 -0.00779587 0.0160406 -0.034404 0.0299786 0.0243137 0.0017163 -0.0283524 -0.028968 -0.0193497 -0.0119096 0.0172243
-0.0785496 0.0620861 0.0703403 -0.0358928 0.00472302 -0.0625939 -0.0293915 0.0296217 0.0348527 0.0756692 0.0300118 0.00465969 0.0236974
0.0235545 -0.0213164 -0.000898076 -0.0134378 0.0272803 0.0138505 -0.0177634 0.0104091 0.00336606 -0.0165661 0.0175181 -0.00451233 0.0462021
0.000681505 0.0657095 0.0498151 -0.0195172 -0.0158226 -0.0129332 -0.0154704 0.0431569 0.0212661 0.0291498 0.0103072 0.0163029 0.016435
-0.0249957 -0.00639392 0.0241275 -0.0364715 -0.0361802 0.0080508 -0.00740122 -0.00582021 -0.000732382 0.0405867 0.0494362 -0.023513 -0.0196802
0.0202472 0.0185391 -0.0193582 0.0327924 0.0202026 -0.0160424 -0.0138569 0.0157968 0.0346582 -0.0175632 -0.0132914 0.00521675 0.00846681
0.0357966 -0.000691617 0.0329932 -0.00812178 -0.00197404 0.0238478 0.00427443 -0.0361707 -0.0348194 0.0086479 0.00822723 -0.00369905 -0.0176562
0.0156367 -0.0105974 -0.0122094 0.0121248 -0.024224 0.029862 0.0049553 -0.0166698 -0.0157053 -0.00917513 0.00745029 0.0263403 0.0282719
-0.0951639 0.250463 0.224019 -0.0353551 0.0553429 -0.156873 -0.118146 -0.0220244 -0.125556 0.415581 0.104119 0.104508 0.21316
0.00786823 0.0231471 0.00942041 0.0143625 -0.0125194 -0.0309074 -0.00526153 0.00860323 0.0123274 0.031806 0.0200252 -0.0342476 0.0127477
-0.0560673 0.165107 0.173816 -0.058861 0.0363506 -0.188586 -0.0565156 0.0455161 -0.0213129 0.318546 0.111951 0.121785 0.132295
-0.100836 0.155955 0.105276 0.00811986 -0.0477663 -0.131009 -0.0213656 0.0957521 0.00981884 0.138248 0.109001 -0.0287808 0.0609381
-0.10194 0.220534 0.107249 0.0141962 0.00509175 -0.122589 -0.0804339 0.0316822 0.0182927 0.237596 0.120355 0.00402481 0.0940084
-0.0100734 -0.00525858 0.0352948 0.0293973 -0.0174971 0.021501 -0.0163911 0.027877 -0.0228863 -0.0201679 0.00018659 0.00129921 0.00720357
0.038116 -0.0123933 -0.0363124 -0.0178535 -0.0333051 0.00749709 0.0107838 0.029494 0.0322452 0.00317049 -0.0298946 -0.0291819 0.00310566
-0.0244097 0.205613 0.247706 0.0294516 -0.0176583 -0.215151 -0.147759 0.0749763 0.0123429 0.246067 0.192951 0.0677439 0.161199
-0.0294342 0.000410693 0.0352495 -0.0337512 -0.00440083 -0.0266489 0.0246073 -0.0232542 0.0191355 0.0373448 0.0220866 -0.00128007 -0.0249979
-0.0435417 0.00296055 0.00833877 0.0213904 -0.0018397 -0.0462603 0.000362569 -0.0265479 0.0230488 0.0159003 0.00905931 0.0240567 -0.0141883
-0.0597853 0.195923 0.193831 -0.0394748 -0.0432952 -0.20512 -0.110958 0.0634913 -0.0108963 0.292629 0.14783 0.0165676 0.110688
-0.0548864 0.0737393 0.0479111 -0.0217747 -0.0390216 -0.042696 -0.0306661 0.0208415 0.0303997 0.0743891 0.0517946 0.00726821 0.0502162
-0.0122419 -0.0202049 0.0296007 0.029905 0.00165163 -0.0158766 -0.0169061 -0.00975389 0.0340884 -0.0259751 -0.0152504 -0.00367857 -0.0207068
0.13432 0.301228 0.457984 -0.0660785 -0.0946585 -0.308641 -0.204321 0.0101319 -0.0959777 0.613522 0.182781 0.268139 0.421935
0.000623459 0.0440943 0.0212153 -0.0413757 -0.0278411 -0.0350661 0.0108733 0.0298806 -0.0355305 0.0736406 -0.0070714 0.00844005 0.0295076
0.0111337 0.0458906 -0.0309003 -0.038443 0.0280037 0.00426746 0.0202961 -0.0249632 -0.0323343 -0.00512664 -0.0172845 0.0179957 0.0141567
0.0100952 -0.00315968 0.0146158 -0.0230893 0.00833346 -0.0111111 0.0165629 -0.022224 0.00251823 0.000808499 0.0337997 0.0260212 -0.0228
0.00809662 0.0448955 0.0545208 -0.0372465 -0.0363491 -0.0285702 -0.0365625 0.0252872 -0.0319093 0.0103822 -0.0126449 0.00298305 0.00980347
-0.041215 0.259515 0.256733 -0.0339527 -4.97693e-05 -0.219124 -0.0979963 0.0624681 -0.0614317 0.293567 0.188478 0.018465 0.176908
0.034493 -0.010399 0.0360061 -0.025783 -0.0198415 0.024274 -0.0174485 0.0232888 -0.0370717 0.00470809 0.0153853 -0.0212843 0.0113733
-0.0175506 -0.0197021 0.0127345 -0.0137718 0.0237505 -0.0136641 0.0343424 0.00170535 0.0333767 -0.0231425 -0.00194615 -0.0271781 0.02872
-0.0213044 -0.00738077 -0.00967942 0.0204254 -0.0246996 0.0274137 -0.0355651 0.0145078 0.0305597 -0.0317578 -0.0204289 -0.0148049 -0.0167796
-0.0494118 0.0414043 0.0226197 0.00505877 -0.00782328 -0.0133686 0.0262407 -0.0124397 -0.0010262 0.0405636 0.0433014 -0.0108971 0.00806806
0.0212627 -0.00513615 0.0186905 -0.0222961 -0.0214104 -0.0534917 0.00057697 -0.00256414 -0.00347186 0.0094033 0.0366103 0.0296544 0.0285569
0.0235765 -0.00952601 3.1291e-05 -0.00586636 0.0200749 0.0251029 -0.0145238 -0.0216973 -0.0112825 0.0226805 0.0365754 0.0339487 0.0140046
0.0290597 -0.00741959 0.0325991 0.0245121 -0.00308514 -0.038134 -0.0207485 0.0147696 -0.0248932 -0.0199888 0.0232247 -0.0215235 0.0189041
-0.0176345 0.0333629 0.00727816 -0.02204 0.00845598 -0.0202982 -0.0338568 0.00497302 -0.0242959 0.0117921 -0.0367969 -0.0318787 0.0302502
-0.00484582 0.0143154 0.038797 0.0315988 -0.0159678 0.016423 0.00160239 -0.00652798 0.0172027 0.0459366 -0.00711292 0.0175049 0.00430907
-0.109819 0.144227 -0.00216054 0.0377825 -0.0662002 -0.0731301 0.0227498 0.0430834 0.050805 0.118388 0.0806454 -0.080764 0.0195557
-0.0148707 0.0457885 0.0298447 -0.0198608 -0.0456891 -0.0491658 -0.0205673 0.0366875 -0.0280361 0.027307 0.0500341 -0.019725 0.0453466
-0.158363 0.237477 0.171284 0.0336299 0.0114044 -0.166851 -0.120077 0.0124779 -0.0591527 0.329887 0.162234 0.0372085 0.166563
-0.122523 0.234028 0.183146 0.0323781 -0.0384723 -0.216501 -0.122317 0.0764396 -0.00461613 0.35575 0.164908 0.0492457 0.0890727
0.0287617 -0.0184877 0.00130636 0.014147 0.0211661 -0.0290267 0.0296526 0.0136023 0.0230901 -0.0227707 -0.0318957 -0.0282584 0.030303
-0.119618 0.140474 0.17029 -0.0520697 -0.0446598 -0.16949 -0.0365623 0.0885918 -0.0180144 0.24718 0.108397 0.0268212 0.070163
0.013962 0.0160062 0.0200894 -0.0136402 0.032935 -0.0288859 -0.0372319 0.0371703 -0.00171673 0.00911916 -0.0193574 0.0176165 0.00820271
0.0262248 0.00835924 0.0164974 0.0063106 0.0113717 0.000884606 0.0165005 -0.0315478 -0.0236804 0.031635 0.0322305 0.0287585 -0.0107447
-0.0220829 -0.0165129 0.0436981 -0.030815 -0.00452698 0.0256091 -0.0181156 -0.000922854 -0.0146063 0.0408729 0.0201953 -0.0353849 0.0289774
-0.119424 0.0974789 0.00477011 -0.00790637 -0.0999179 -0.0672875 0.0340291 0.024937 0.0452233 0.0283594 0.0568224 -0.0289053 -0.0187351
-0.0348439 0.0434364 -0.024781 -0.0235129 0.0164707 -0.0473653 0.0263743 0.0152177 -0.00660461 0.0378296 0.0113284 -0.0122594 0.0415919
-0.00555071 0.015329 -0.0275488 -0.0235036 0.00922736 -0.0450687 -0.0386888 -0.0191644 -0.0105853 -0.0152841 0.034191 0.008774 -0.0332606
-0.0632624 0.276083 0.200214 -0.0312385 -0.00889457 -0.205487 -0.123664 0.0423693 -0.0457135 0.387415 0.205621 0.0630093 0.187251
-0.0145495 0.0520849 0.0166568 0.00300081 -0.00616489 0.0208917 0.030154 -0.014318 0.0276593 0.0134095 0.00508293 -0.0241089 0.00380126
0.0157942 0.240592 0.205338 -0.0097154 0.0262709 -0.172947 -0.0751337 0.0130289 0.0499729 0.272331 0.176686 0.0912185 0.189023
-0.0140398 -0.0240207 -0.00484413 0.00477827 0.00207377 -0.00279897 0.0185689 -0.0112497 0.0324091 0.0366138 -0.0225369 -0.030842 0.0298165
-0.0234911 0.00190066 -0.00520333 -0.0389426 0.0402114 -0.0116974 -0.0483687 -0.0190549 -0.0175243 0.0375978 0.00846317 0.00988181 0.0325082
-0.0797609 0.0455367 0.0338796 0.0277924 -0.00390407 -0.0382758 -0.0337891 -0.00239184 -0.00533828 0.0516543 -0.00106866 0.0283723 0.00439262
0.00889695 0.0112386 0.00892794 0.0288163 0.0187415 -0.0362771 0.0149386 -0.0159557 -0.0101682 0.0303717 0.0330773 0.00134843 0.04461
-0.0609739 0.00210511 -8.76521e-05 0.00243364 -0.0286978 -0.0151044 0.0154938 0.0108018 0.0189346 0.0149517 0.0172817 0.0124712 0.00468191
-0.355701 0.234001 -0.0928793 0.0377525 -0.219627 -0.180933 0.0295462 0.164579 0.167771 0.145738 0.0637818 -0.158462 -0.0800736
-0.00538272 0.0308258 -0.0161064 0.0263225 0.0278535 0.00928495 -0.0280202 0.0296707 -0.0166265 -0.00471032 0.0134524 0.0227263 0.0357113
-0.00678 0.0307776 -0.0290784 -0.0288698 0.0145041 -0.0101374 -0.0273149 -0.00297398 -1.34547e-06 0.00575111 0.0122378 0.0370647 0.0376307
0.0199116 -0.0331842 0.0176593 0.0306157 -0.0246372 -0.0269511 0.0192165 0.023962 -0.0369699 -0.0158283 -0.0298851 0.027584 -0.0368292
-0.0168506 -0.0305362 0.00419817 0.0371769 0.0281039 -0.0394525 -0.0261351 -0.0191491 -0.0264744 -0.0293153 0.00474874 0.00291244 -0.0170791
-0.177231 0.195209 0.00102084 0.0439005 -0.0886107 -0.137822 0.00099592 0.0823972 0.103687 0.115644 0.0823746 -0.0652444 0.0110262
0.0302502 -0.00372127 -0.0182738 -0.0285516 -0.00442258 0.0244971 -0.0150972 -0.0149447 0.0166679 0.0268196 -0.0202704 0.0297407 0.0391573
-0.0838712 0.152553 0.215099 -0.0430399 -0.0500814 -0.182826 -0.0789644 0.0726536 0.00205229 0.253793 0.175911 0.101616 0.113159
-0.000599431 -0.0126276 0.0247278 -0.0313509 -0.00847197 -0.0363198 -0.0279387 -0.00446405 0.0240349 0.0235016 0.0302721 0.0135429 -0.00270438
0.0162979 -0.0228767 0.00645675 0.0363046 -0.0279521 -0.000760086 0.0318414 -0.036449 -0.0325723 0.0342416 -0.00444568 -0.0378296 0.0133227
-0.0123242 -0.0296387 0.0287107 0.035983 0.0372974 0.00391879 0.0139281 0.0187247 -0.026299 0.0287406 0.0146585 -0.0308376 0.0305703
-0.0386752 0.114191 0.110785 -0.00283992 -0.0460287 -0.0999407 -0.0214511 0.0411945 -0.014836 0.18547 0.0529101 -0.0100577 0.0686289
-0.0113061 -0.0102407 0.0121771 0.0210333 -0.0114029 -0.030251 -0.00330237 -0.0165847 0.00370876 0.0269078 0.0280431 -0.0200789 -0.0114715
0.0185608 0.0342863 -0.00381036 0.00440109 -0.00137426 -0.0379082 0.032923 -0.018771 -0.011596 -0.0107188 0.00306684 -0.0143808 0.00136703
0.00900206 0.0853156 0.0428016 -0.0404001 0.00385521 -0.0657948 0.00914676 -0.000720448 -0.0394958 0.12783 0.0366767 0.0672781 0.0567907
-0.0348398 0.0288428 0.00877424 -0.0162651 0.0293785 0.000334642 -0.00444445 0.040414 0.0325267 0.010749 0.00328106 0.0402047 0.00214981
-0.0572541 0.0623127 0.00710256 0.00981012 -0.032041 -0.0357487 0.0124061 0.038826 0.0188439 0.0370091 0.0264509 0.0356813 0.0267029
-0.0123071 -0.0370925 0.0211503 0.0242319 0.0332283 -0.00943456 0.0247157 -0.0259408 0.0213885 -0.0111182 -0.0127242 -0.0141571 -0.00222255
0.0233319 -0.0102957 -0.0188353 -0.00716384 -0.0175402 -0.0158042 0.0230289 -0.0131897 0.0221334 -0.0304636 -0.00870432 -0.00102855 -0.0127816
-0.161286 0.230517 0.0789463 0.068408 -0.144357 -0.115863 -0.0194531 0.0938653 0.0384229 0.154339 0.0999976 -0.0657256 0.0644092
0.0334135 -0.0300892 0.00135726 0.00915179 -0.0105633 0.00773562 -0.0234562 -0.00380418 0.0172434 0.0154542 0.00196515 -0.0106353 -0.0229617
-0.0603014 0.0202578 -0.00905856 -0.0066734 0.00370209 -0.0274939 -0.013804 0.0440063 0.0451411 -0.00707077 -0.0171226 0.0269803 0.0181928
-0.0399665 0.00429992 0.00380829 -0.0146699 -0.0264424 -0.0263543 -0.0252889 0.000621705 0.0131583 0.0341664 -0.00244171 -0.0295325 0.0157569
-0.0455629 0.0143594 0.0239558 -0.00541534 -0.00845209 0.00441884 -0.0101407 -0.00580111 -0.0210879 0.0547927 0.0602461 0.00658598 0.0178279
-0.121109 0.177083 0.122457 -0.0165452 -0.00391525 -0.11279 -0.0782877 0.0777668 -0.0318877 0.22506 0.0940969 -0.0103856 0.116354
-0.0748317 0.0736076 0.00935215 -0.00624986 -0.0410242 -0.0526604 0.0210987 0.0572963 0.00992136 0.01739 0.0616539 -0.00658124 -0.0164889
0.0160129 0.0366122 0.0270949 -0.0204537 0.015489 0.0148089 0.00288374 -0.0173452 -0.0290591 0.045226 -0.0152036 -0.00592108 -0.0187158
0.0324251 0.0360694 0.0258187 0.0243589 -0.0331619 7.70176e-05 0.0164261 0.02526 0.0220414 -0.030976 -0.00675412 -0.0111763 0.035707
-0.106393 0.114758 0.0226115 0.00431469 -0.0640144 -0.0602976 -0.0344635 0.0743177 0.0253915 0.0701896 0.0625405 -0.0406984 0.0111009
-0.0108701 0.0352266 -0.00885921 -0.0177188 0.0278877 0.00148157 0.0153707 -0.0146858 -0.00145541 0.0363586 -0.0292796 -0.0298888 0.0232376
-0.0530743 0.00699969 0.0316521 -0.0178623 -0.034179 -0.00369253 -0.0109814 0.0437204 0.00493667 0.0759234 0.0288243 -0.000785392 0.0232632
-0.0277429 -0.021918 0.0280843 0.0275552 -0.00270259 0.00844868 -0.0343538 -0.0350309 0.0236652 -0.0195349 0.0341896 0.0277193 0.0230731
0.0161069 -0.0203689 0.0262509 -0.0260041 0.027621 -0.00807093 0.00298654 0.018687 -0.0207925 0.0140488 0.0184191 -0.0225593 -0.0254713
-0.0950008 0.0800621 0.0848306 0.00304607 -0.0244096 -0.0825686 0.0044255 0.014317 -0.0316993 0.158639 0.0936494 0.0273614 0.0361862
-0.0146908 0.024256 0.0052376 -0.0138633 0.0352785 -0.0483209 0.00900205 -0.0116645 0.00202753 0.0271098 -0.00911255 -0.0142527 0.056069
0.00952145 -0.0359147 0.0201849 0.0241874 0.0134919 0.0355539 -0.0266433 -0.0313493 0.0292384 -0.0185299 0.025311 -0.00190206 0.0109567
0.0330155 0.0262964 0.0028393 -0.0159366 0.0207263 0.0013075 0.00164221 -0.021063 -0.024223 0.0306682 -0.0283671 -0.0171986 0.0223233
0.014738 -0.0292534 -0.020026 -0.0245495 0.0165903 -0.0319985 0.00579338 0.0260477 -0.0200452 -0.00135126 0.0145617 0.0110486 -0.0278323
-0.00909498 0.0155766 0.00827407 -0.0108706 0.030252 -0.0226285 -0.0174155 0.0228969 0.0197976 0.0267068 -0.0302185 -0.0286011 0.0219869
-0.104256 0.0249176 0.0245746 -0.000487984 -0.080542 -0.00325711 -0.017726 0.075379 0.0188803 0.0398302 0.0258686 -0.056257 7.51298e-06
-0.00213186 0.0158232 0.00857425 0.0184583 -0.0217064 -0.0296258 -0.0373039 0.00822276 -0.0115423 -0.0278553 0.0273789 -0.00493521 0.0238745
-0.0810779 0.188151 0.216984 0.00685337 -0.0714868 -0.145732 -0.0689912 0.0635067 -0.0529764 0.251822 0.183732 0.0525179 0.169679
-0.0339229 -0.0294947 -0.00238906 0.0372987 -0.0385015 0.0253111 -0.0347435 0.0137369 0.0237227 -0.000946764 -0.0108814 -0.0245242 7.60561e-05
0.0313221 -0.0288883 -0.00552905 0.0217389 -0.00594161 -0.0323498 -0.0251772 -0.0021864 0.00515201 0.026614 0.0358598 0.0212801 0.0211772
-0.0718148 0.0552945 0.0499123 0.0241338 0.0151081 -0.0327157 -0.054088 0.000985368 0.0160533 0.0946436 0.00892263 0.0156002 0.0362836
-0.0991333 0.126212 0.0793034 0.0189911 -0.037273 -0.0904973 -0.0667623 0.0207188 0.00268125 0.161745 0.0628382 0.0346063 0.0348012
-0.0344147 0.0109175 0.0219929 -0.00242208 0.034373 0.00501682 0.0148404 -0.0117908 -0.0120853 -0.0137626 0.0141132 -0.0349905 -0.0207126
0.0192335 0.0239107 -0.0328559 -0.00148191 0.0139662 -0.0373394 -0.0171252 -0.0149291 0.0245894 0.0238468 0.00763885 -0.007388 0.0317458
-0.0356472 -0.0133638 -0.0133387 -0.0344905 -0.00470635 -0.0383913 -0.0148024 0.0393793 0.0279327 0.0138103 -0.0173431 -0.018868 0.0104826
-0.00408682 -0.0245052 0.033706 -0.0160338 0.0272965 0.0307303 0.0233743 0.0221025 -0.0325005 -0.0197941 0.0272991 0.0212677 0.0183385
-0.0137093 -0.00158065 0.0237633 0.0131725 0.00487768 0.00960274 -0.0136667 -0.0120722 -0.00860769 0.0302393 0.0264285 -0.0116944 0.0235201
-0.0993373 0.235951 0.150749 0.06455 -0.0649893 -0.208559 -0.0684391 0.0427138 0.021706 0.317223 0.149509 0.0273644 0.0732926
-0.00615401 0.0494147 0.0292666 -0.0223479 0.0262678 0.0201179 0.0312875 0.00426732 0.0236108 0.0391191 -0.0218301 -0.0264844 0.0206115
-0.00810262 -0.0344585 0.00205531 0.0269238 -0.0339613 -0.0367146 -0.0332557 0.00129074 0.0153896 0.00635999 -0.00682001 0.00441665 -0.0283021
-0.0206258 0.099107 -0.00663272 0.00151111 -0.026327 -0.0769508 -0.0320772 0.0418136 0.0216292 0.102413 0.0667121 0.00424774 0.0317455
0.0289634 -0.0128294 -0.0111091 -0.033535 0.0269629 0.0193718 0.0287967 -0.00446113 -0.00613837 -0.0377531 -0.0138273 -0.0170252 -0.0301774
0.016526 0.0113159 -0.0340759 -0.0377449 0.0218933 0.014072 -0.00533414 0.0339971 0.0166469 -0.0186489 0.0122622 -0.0326614 -0.0187863
-0.00186182 0.0456143 -0.0220917 -0.0297705 0.0131953 0.0252949 0.0211112 -0.00828287 -0.0343127 -0.0235361 -0.0203399 0.0219948 -0.0251604
-0.0481912 0.113878 0.0558551 0.035976 -0.0138278 -0.0533574 -0.0541493 0.0657609 -0.017103 0.0594833 0.0832582 -0.000277818 0.0249275
-0.222312 0.230478 0.109533 -0.0767223 0.118733 -0.146319 -0.0974202 0.0612227 -0.166691 0.415533 0.0870509 0.0142356 0.134181
0.0321775 0.047944 0.00639232 -0.0382445 -0.0167741 -0.0143154 -0.029133 0.0156405 -0.0416781 0.0165243 -0.0227473 0.0262068 -0.00738262
-0.0265034 -0.00454072 0.0282479 -0.0262353 -0.0359238 -0.0395867 0.0244056 -0.00872605 0.0321906 0.0495459 0.0194679 0.0142922 -0.000522391
-0.0020757 -0.000527017 0.0435582 -0.0285167 0.00289487 -0.00788384 0.0169567 0.0339204 0.0238722 0.018519 0.0287717 0.0233035 0.00593077
-0.377656 0.393735 0.194394 0.422452 -0.422176 -0.297729 -0.227695 0.0600836 0.347172 0.174562 0.181078 -0.31903 0.050309
-0.0213195 0.0149678 0.0270528 0.0174318 0.015198 0.014959 -0.00394098 -0.00132822 0.0345342 0.00163166 0.00191616 0.0281209 -0.0222882
0.0372147 0.0356402 -0.0345487 -0.00729121 -0.0240216 -0.038352 -0.00613547 -0.0179871 -0.017282 0.00952436 0.0277012 0.0241319 -0.000949024
-0.00698013 -0.00160588 -0.0233697 0.0111724 -0.0108508 -0.031654 0.0184803 0.00280672 -0.00421801 -0.0344643 0.0303405 -0.0063253 -0.0305202
-0.0253254 0.00240612 0.0290497 -0.0227913 0.0229459 -0.00678573 0.037752 0.0175789 -0.0074058 0.0341692 0.0171661 -0.0200224 0.0110299
-0.0366828 0.0300482 -0.00104193 0.0223287 0.0103087 -0.0285176 -0.00567981 -0.0123198 -0.0318042 0.0462908 0.0374215 0.0300559 -0.0185541
-0.0922731 0.161233 0.090872 -0.0170526 0.043895 -0.0905294 -0.0457023 0.0178767 -0.0593467 0.213877 0.106512 0.0128971 0.0829613
-0.0221234 0.020431 -0.00925306 -0.035095 -0.0195228 -0.0359881 0.0184441 0.024257 -0.0359671 0.0209513 0.0594876 0.030111 0.0398045
-0.000293529 -0.00593863 -0.0188709 -0.0308984 0.0203701 0.00538744 0.00640318 -0.00422137 0.0106915 0.000574717 -0.0352125 -0.0289061 -0.00520681
-0.00989607 -0.0177899 -0.0166911 0.0231158 0.00123003 0.00219842 0.0240989 -0.0116624 0.030212 0.00943547 0.00938333 0.00605339 0.0338947
0.00133229 0.0806874 0.05102 0.000559954 0.0260877 -0.0698881 0.00181991 0.0144 0.00934984 0.100455 0.0215553 -0.018275 0.0415256
-0.0223607 0.0344863 0.0340858 -0.000671806 0.00494092 -0.0184972 -0.00339638 0.0239417 0.00553039 0.0168444 0.0278821 0.0128969 0.0124461
0.0263157 -0.00890746 0.00333028 -0.0310301 -0.012912 0.0261759 0.0348284 0.0134513 0.00438423 0.0155806 -0.0297398 -0.00992272 0.0307501
-0.00453126 0.0564376 0.0585444 -0.00248202 0.0145303 -0.060081 -0.000457248 -0.00648765 0.0370047 0.0807193 0.0661004 0.0151078 0.0354976
-0.0234547 0.0186761 0.0258291 0.0245078 0.0165395 -0.0266925 0.00260831 0.0145395 -0.0103401 0.00242751 0.0057597 0.0203886 0.0152731
-0.0158959 0.0536527 -0.00509287 -0.0378788 -0.00937409 -0.0334081 0.00292798 0.00532813 -0.0267217 0.0270442 0.0112825 0.0177556 0.0474992
0.0963211 0.243258 0.462525 -0.00643228 -0.0399175 -0.278314 -0.236777 0.0458127 -0.0509983 0.560156 0.174395 0.237268 0.364331
-0.0957681 0.201155 0.170382 -0.00610494 0.00475114 -0.187116 -0.0970631 0.0400366 -0.069102 0.324806 0.163449 0.0491705 0.177376
0.0218557 0.0232695 -0.00952626 -0.0057906 0.0116547 -0.0343465 -0.0359356 0.036408 -0.0143449 -0.000315993 0.0347425 -0.00106195 -0.0346087
-0.101247 0.233138 0.242566 -0.0517624 -0.0111603 -0.178946 -0.071513 0.0922858 -0.0742656 0.323635 0.174726 0.0390905 0.151898
-0.0208593 0.0289694 -0.0235568 -0.00273699 -0.00378074 0.0308625 -0.0206233 -0.0126455 -0.0374015 -0.00621055 0.0130938 -0.0350841 -0.00728979
-0.11566 0.197108 0.114387 -0.0295732 -0.0364248 -0.143538 -0.0520636 0.0622618 0.00553754 0.267648 0.0908425 0.015643 0.0820103
-0.0262638 0.0260229 0.0186263 -0.0334963 -0.00835315 0.0154609 -0.0421352 0.00490257 0.0357756 -0.0203586 0.0334312 0.0392528 0.0263488
0.120086 0.444033 0.678626 0.0547404 0.0821802 -0.421619 -0.19913 0.127027 0.0451788 0.597891 0.288158 0.428248 0.511502
0.0132849 0.0283286 0.042934 0.0173708 0.0411258 0.024638 0.028519 0.009222 0.00281325 -0.00767402 0.0415071 -0.0104309 0.0238646
-0.0181535 0.00835778 -0.021434 0.00246981 0.0311037 0.00357749 0.0163311 -0.0258524 0.0371491 0.0133789 0.00491798 -0.0175651 0.0274536
0.0179518 0.031978 -0.022113 0.0373919 -0.0105911 0.0185503 -0.0179542 0.025167 0.0105688 0.0575053 0.0220903 -0.00496033 0.0317865
-0.0144538 0.0114753 0.0195396 -0.0223171 0.029195 -0.0254564 0.00509816 0.00275969 -0.0234172 -0.0135607 -0.033306 0.00499431 0.0229628
0.0100862 0.0592831 -0.0124458 0.0240759 0.00503707 -0.0114721 0.00913606 -0.0250547 -0.0140026 0.0145504 0.020574 0.0380856 0.0438355
0.0150517 -0.0210413 0.0259127 0.0296323 0.00438194 -0.00681586 -0.0139251 -0.0244823 0.037171 -0.0151655 -0.0112247 -0.0284135 -0.0121263
-0.00554572 0.0253619 -0.00352669 -0.0103311 -0.0236458 0.00843433 -0.0128128 -0.00849913 -0.02075 -0.0263879 -0.0100131 -0.0362749 -0.028242
-0.0188949 0.0515178 0.00697582 -0.0198217 0.035649 -0.00895992 0.0128882 -0.00821889 0.0130427 0.0427821 0.0349102 -0.00680542 0.00550723
-0.00965986 0.0162554 0.0199788 -0.0264786 0.00876604 -0.0196416 0.0320899 0.0309949 0.032332 0.0305219 -0.0340103 -0.0321964 -0.00187563
-0.00585929 -0.0278911 -0.0056806 0.00568349 -0.0227887 0.0195737 0.0162794 0.0297594 -0.0336467 -0.0209018 -0.0299613 0.0161062 0.0347214
-0.011977 0.030229 0.0069832 -0.0140841 0.0150827 -0.0403398 -0.0230785 -0.000176525 -0.0106109 0.0419099 0.00402954 -0.0190268 0.0231882
-0.000194287 -0.0318127 -0.00633644 0.0148927 -0.0338085 0.0139182 -0.000911729 -0.00688892 -0.00414843 -0.0241546 -0.0374229 -0.0227909 -0.0354478
-0.153012 0.178935 0.113907 0.0161817 -0.00153459 -0.0937289 -0.0779538 0.0904234 -0.0132676 0.255422 0.0973981 0.0237993 0.0890374
-0.0139105 -0.0217317 -0.0308027 0.0195432 0.0129315 -0.0198702 0.0328144 0.000298598 0.0323261 -0.0194402 -0.0264086 0.0179905 -0.00953446
-0.00264292 -0.0247757 0.0241652 0.0126179 -0.025404 -0.0289038 0.0214352 0.0360684 0.00938865 0.0486297 -0.00508841 0.0396498 0.0259931
-0.065783 0.0794777 0.0134069 -0.0269464 0.0297883 -0.0530734 -0.0367183 0.0458422 -0.0295535 0.0965388 0.0369412 -0.00197045 -0.00249687
-0.0480806 0.0880337 0.0842377 -0.0333479 0.0284248 -0.0353987 -0.0595111 0.0485911 -0.0204874 0.13664 0.0449436 0.0197508 0.0607967
0.00168856 0.00568561 -0.0119066 -0.00622408 0.0204571 0.0107791 -0.0396557 -0.0263339 0.00871126 0.0246889 0.0150972 -0.00718982 -0.0229242
-0.0173355 0.0231441 0.00876771 -0.022294 0.0330221 -0.0193531 -0.0218157 -0.000555033 -0.0250866 0.0452482 -0.0161307 0.00749471 0.0156479
0.0162446 -0.0296865 0.0331931 0.0162405 -0.0170657 -0.0233635 -0.0366874 -0.025766 0.02837 0.0083759 0.0376956 -0.0156518 0.0107668
-0.0298778 -0.01159 -0.031609 0.00230704 -0.0286501 -0.00711955 -0.0101591 -0.019923 -0.015019 0.0405429 0.0294204 -0.0236794 -0.010839
0.284965 0.397272 0.685754 -0.0158971 -0.168149 -0.417872 -0.349322 -0.0273092 -0.0847169 0.736968 0.263731 0.25582 0.557612
-0.0296473 -0.0128638 0.0165916 0.00725796 -0.0262545 -0.00078108 0.0292829 0.0249264 0.0177917 0.0276632 -0.00138873 0.00211769 -0.00539677
-0.0378689 0.014574 0.033905 0.0220778 -0.0323627 0.0216899 0.0186131 -0.031479 -0.019336 -0.0104193 -0.028234 0.00290502 0.0046455
0.000136926 -0.012061 -0.0256012 -0.0109166 0.0362246 -0.00190629 0.0352911 -0.037223 -0.0119692 -0.0189855 -0.02462 -0.00302544 -0.00572035
0.0238591 0.0206803 -0.0083422 0.0137166 -0.0251477 0.00760198 -0.0161657 0.00941057 0.0290043 0.017747 0.0149711 -0.0142447 0.019443
0.0292639 0.00481756 -0.00893932 0.026864 -0.00655899 0.00988009 -0.0330841 0.0346912 -0.00218921 0.012055 -0.00126256 -0.0258142 -0.0187619
-0.0763839 0.170807 0.201216 -0.0889752 0.0371073 -0.141466 -0.105901 -0.00957423 -0.069061 0.389322 0.133957 0.103904 0.225272
0.00154013 0.0101533 -0.0358259 0.00455633 0.0125833 -0.00441489 -0.0324705 -0.0245047 -0.0155099 0.02583 0.00143633 -0.0311225 0.00136962
-0.0292267 0.0190729 -0.0139303 -0.0146916 -0.0328016 0.00446068 0.00397716 0.000825242 -0.0124989 -0.00259956 0.00935763 -0.0360305 -0.00120624
0.0141755 0.0495669 0.00706677 -0.0168782 -0.0347199 0.00792249 0.0156096 0.0111912 -0.0217034 0.0711251 -0.0196334 0.00362181 -0.000590691
0.0124334 0.0109514 0.0357194 0.0274853 -0.0314465 -0.0305888 0.0278254 0.0293652 0.0134167 -0.0145579 -0.0329392 0.030098 -0.029383
0.0379514 -0.0162449 -0.0147631 0.0204571 0.0377808 0.0343853 -0.0226747 0.0226512 0.00894334 0.0320591 -0.00336233 -0.0356137 -0.0257906
-0.0383378 0.0327169 0.0428565 0.0188261 0.0209157 -0.0505399 -0.0267416 0.0432903 -0.0102241 0.0935767 0.029393 -0.00785759 0.0299511
-0.0180152 -0.0153921 -0.00010698 0.0211899 -0.030314 0.0062889 -0.0383223 -0.0264924 -0.0331586 0.00718323 -0.0277309 0.0223273 0.0269848
-0.0568989 0.136435 0.040492 -0.0301838 -0.0362244 -0.076814 -0.0359312 0.071027 -0.0213373 0.201033 0.0760066 -0.00423919 0.0586546
-0.132899 0.196865 0.0844614 -0.0252959 0.0357599 -0.110218 -0.0966618 0.0282611 -0.0229853 0.289529 0.114137 0.0288068 0.110399
-0.0808433 0.118266 0.122558 -0.0135281 -0.0530562 -0.0887454 -0.0436976 0.0232704 0.0385835 0.135478 0.107179 0.0213102 0.0821409
0.0210245 0.0189829 0.0321138 -0.00254853 -0.0332415 -0.0338862 0.0131704 -0.0315322 -0.0304219 -0.0253563 -0.0192774 -0.0332104 -0.000830051
0.0152165 -0.0103647 0.0264365 -0.0374744 0.00273033 0.0193815 -0.022939 -0.031724 -0.0174331 -0.00789237 0.00638501 0.0345359 0.0324085
-0.117358 0.228812 0.190319 -0.0693146 0.0462198 -0.223984 -0.137846 0.0129758 -0.080278 0.421757 0.161956 0.105075 0.205066
0.00919819 0.0331677 -0.0291189 -0.0283415 -0.0276412 -0.0239235 0.0222842 0.00616511 -0.0235882 -0.0360092 -0.00688556 -0.020467 -0.0214151
-0.00998319 0.0199502 0.0105721 0.0140169 0.00105985 0.00713912 0.0114966 -0.0249814 -0.015189 0.00905996 -0.0141304 0.0192796 -0.00720263
-0.0754691 0.109084 0.0493529 0.0123125 -0.0312241 -0.0543017 -0.0656398 0.0571951 0.0153136 0.122076 0.0319057 0.0160853 0.040504
-0.0301668 -0.0185575 0.0125467 -0.0207175 -0.0286631 0.0221446 -0.0177008 0.0205743 0.0122338 0.0427112 0.0113956 0.0265712 -0.0224811
-2.81436 2.06006 -0.419536 0.588331 -2.59008 -1.42209 0.224133 1.89694 1.76624 1.13825 0.596595 -1.89726 -0.461275
-0.0185853 0.0184657 0.0301871 -0.0391532 0.0333567 0.00325597 -0.0150665 0.00816239 -0.0111554 0.0546545 -0.0212377 0.0379221 -0.0153143
0.0235857 0.0464579 0.0123905 0.0298146 -0.0421204 -0.0151138 0.0245932 -8.99581e-05 0.0393964 0.00620775 0.0207622 -0.0144118 0.000287201
0.0303001 0.0198286 -0.00661072 -0.00286886 -0.0196644 0.0275904 -0.00850007 -0.0146814 -0.0121932 0.0390329 0.028321 0.0156318 -0.0166239
-0.0642254 0.131668 0.0518783 0.032628 -0.0670413 -0.089512 -0.0554487 0.00856949 0.0417731 0.144251 0.0759873 0.0183019 0.0240452
0.00406147 -0.0273521 0.0372177 0.00932374 -0.000661596 0.0167391 -0.0291393 -0.0258876 -0.0272411 -0.00730679 -0.0222024 0.0202059 -0.0119666
0.168865 0.56385 0.771214 0.099211 0.0770041 -0.53364 -0.208661 0.0826953 0.121474 0.637514 0.415147 0.423042 0.497355
-0.0132124 -0.00556087 -0.0344517 0.00821208 -0.00757042 0.0111112 0.00923407 -0.0226708 0.0189496 -0.0130295 0.0284379 0.0373518 0.0363284
-0.0541396 0.0404385 -0.0175614 -0.0277615 0.0242025 -0.0262457 0.000472143 -0.00456529 -0.00391067 0.0220129 -0.0139586 -0.0436574 -0.0312091
-0.0167861 -0.00213848 -0.0200117 -0.00829514 0.027434 0.0130502 -0.0259297 0.0257604 0.0283012 0.0393732 0.0334744 0.000725423 0.00329319
-0.00646728 0.00397809 0.0505554 -0.00545081 -0.0385406 0.0065175 -0.0211095 -0.0116264 -0.0297481 0.0315316 -0.0108067 0.00395834 0.00271569
-0.0213941 -0.018748 -0.0237255 -0.0372672 0.0374317 0.0149916 -0.0128246 0.0303426 0.0284384 0.0240653 -0.00645442 0.0301242 -0.0302028
-0.0215896 0.0259505 -0.0297894 -0.00439752 -0.0318375 0.00835754 -0.00794996 0.00536965 -0.0227427 -0.0107128 0.0149551 -0.00467593 0.0359009
0.0160455 0.0112176 -0.00219464 -0.0291968 0.0106674 -0.00474297 0.00635175 0.0119903 -0.0263094 0.0233395 0.0144603 -0.0155956 -0.00363492
-0.0530627 0.0166443 0.0345231 0.0135613 -0.0325366 -0.0224778 -0.0135754 -0.00301196 0.0404892 0.0105152 -0.0151389 0.0140649 -0.000328781
0.00176889 0.0354585 -0.00838158 -0.0116721 -0.0373291 -0.00584213 -0.0161151 -0.0179576 0.0345876 0.00724454 0.0230921 -0.0216603 -0.00816375
-0.0390609 0.0459154 0.0633859 0.0362638 -0.00534806 -0.0378862 -0.0498545 0.0143445 0.00626733 0.0347026 0.0249113 -0.0104841 0.0313468
-0.017034 0.0100624 -0.0145724 -0.025113 0.00880556 -0.0246697 -0.0108944 -0.0245307 -0.0263727 0.0430471 -0.0235081 0.00117259 0.0324426
0.0291648 0.0366225 -0.0229984 -0.0146934 0.0178913 -0.0375564 -0.0300855 0.00379595 -0.0044658 -0.0121446 0.0276013 0.0179367 -0.00213229
-0.135838 0.156293 0.0900071 -0.0603274 -0.000909784 -0.10495 -0.0734624 0.0566905 -0.0432066 0.205391 0.0617099 0.0107768 0.0936274
-0.0279764 0.0181639 0.0342116 0.00960326 -0.00160686 0.0195754 0.00898778 -0.0362492 0.0343351 0.0143642 0.0201553 -0.0261975 -0.0344855
0.0263789 -0.0130126 -0.016444 0.0313893 -0.0119926 -0.0304021 -0.0103364 0.0333973 -0.0232292 0.0525052 0.00414313 0.0394276 0.0116171
-0.0224559 0.0164255 -0.0150022 -0.0032652 0.0183425 0.0152888 0.0254788 0.0235395 0.0198849 0.0503928 -0.0113361 -0.00335652 0.00309342
-0.0263597 0.00457969 0.00463954 0.00743397 -0.0348031 0.0108731 0.0327155 0.0180514 -0.00408182 0.00604804 0.0237388 0.00354777 -0.00566631
-0.0815847 0.166335 0.142174 -0.0181661 -0.00361956 -0.135963 -0.0285655 0.0348051 -0.0357639 0.289672 0.139968 0.0471078 0.0841372
-0.0906471 0.154618 0.0844471 -0.0215249 0.0329254 -0.0995946 -0.0468807 0.064358 -0.00310405 0.227882 0.12179 0.0449478 0.0638012
-0.150661 0.230126 0.178527 0.029494 0.0299377 -0.170178 -0.117382 -0.0372158 -0.0253195 0.392017 0.138737 0.0647547 0.206747
0.0256367 -0.0294767 0.0303864 0.0305514 -0.0292812 0.0251001 -0.00956151 -0.0193384 -0.0290508 0.00942096 -0.00172648 0.0161243 -0.0104888
-0.772799 0.686374 -0.0662983 0.285387 -0.608629 -0.428569 0.0747199 0.364394 0.474266 0.263286 0.256762 -0.585292 -0.257715
-0.0166724 0.0192767 -0.0074751 -0.0107905 -0.0282145 0.0366187 0.0245776 -0.00676019 -0.0247349 -0.00910302 0.00112666 -0.00740976 0.0163264
0.00226943 0.0517164 0.00337315 0.00658776 -0.0116868 -0.0213261 -9.10928e-05 0.0571672 -0.0223516 0.0313302 -0.00312385 -0.0310147 -0.00231292
0.0149136 0.0135665 -0.034002 0.0353412 0.0114491 -0.0192219 -0.0221286 0.00222838 0.0288507 -0.000891514 -0.00702461 0.0250754 0.0351723
-0.0369019 0.0635257 0.100135 -0.004687 0.00228221 -0.107447 -0.0131977 0.0573543 -0.0270222 0.162933 0.0660992 -2.17146e-05 0.0381088
-0.0639237 0.0699475 0.0535902 -0.0259606 -0.0332681 -0.0188104 -0.0181784 0.0371052 0.0404305 0.0701627 0.0101209 -0.0239174 0.0078168
0.0142751 0.0525783 -0.00492233 -0.00755042 -0.0287412 0.0108119 -0.0317196 0.0394443 0.0141211 0.0177504 0.0221552 0.0399047 -0.0221723
-0.101779 0.0749916 0.0094104 0.00365815 -0.0647783 -0.0565829 -0.0194656 0.0452059 0.0541418 0.0542591 0.0511522 -0.0265536 0.0368187
0.0365329 -0.00967242 -0.0264505 -0.0121412 -0.0309302 -0.0244796 0.0193002 -0.000297272 0.0131565 -0.0140374 0.0271657 0.0108954 0.036251
-0.0196243 0.0283416 -0.00197652 -0.00871507 -0.0264612 0.0147951 -0.0367071 0.00385068 -0.00659368 -0.0298808 0.00674323 0.0105563 -0.0211722
0.0219906 0.0309651 0.00565465 0.00788896 -0.0146938 0.0179177 -0.0371705 -0.0140574 0.0309651 -0.0297545 -0.00326293 -0.0289512 0.00353475
0.00654478 0.0431499 0.0204943 -0.00594027 -0.0116348 0.0145732 0.0104223 0.00667346 0.00745607 -0.0151327 -0.0118799 0.00771347 0.0370031
0.0114544 -0.0234834 0.0141419 0.0170933 0.0138094 -0.0098981 0.030747 -0.00275552 0.00509699 0.018778 0.0357612 -0.0184605 -0.00514895
-0.147037 0.190675 0.126597 -0.123077 0.130824 -0.147711 -0.123088 -0.0160137 -0.108526 0.420988 0.134385 0.0660103 0.215787
-0.119632 0.153453 0.0891413 -0.0392354 0.0129552 -0.128791 -0.0279811 0.0600473 -0.0576816 0.247055 0.118214 0.0194594 0.115853
-0.0321961 -0.0233759 -0.0359072 0.0230922 -0.014715 -0.0130272 0.032358 0.0106359 0.0366168 0.00554289 0.0069957 -0.0250324 -0.0153746
0.0156674 0.0116279 -0.000447545 0.03763 -0.0119473 -0.00175801 0.00634891 -0.0103208 0.0349163 0.0838013 0.0508243 0.0219525 -0.00317551
-0.0142495 -0.0115385 0.0378257 0.0137274 -0.0351724 0.0181212 0.0287471 0.0391288 0.0105619 -0.013429 0.00537856 0.012004 0.0398591
-0.0560028 0.124353 0.054383 4.22687e-06 -0.0379837 -0.0660524 -0.0655865 0.0187149 0.0235375 0.113758 0.077526 0.00238332 0.0311054
-0.0777997 0.0978584 0.0716877 0.0117163 0.00597106 -0.0532898 -0.0676647 0.00818071 0.0414454 0.115324 0.0705633 -0.0101128 0.0219527
0.0256763 -0.00243241 0.0165438 -0.0347818 0.0188984 0.00648781 -0.016089 -0.0181551 -0.0249786 -0.010559 0.00996855 0.0155348 -0.0234886
-0.0505024 0.0765414 0.0634523 -0.0263675 -0.027637 -0.0741021 0.00796618 -0.0157508 -0.00860441 0.0432843 -0.00358688 0.0024106 0.0497934
-0.0890419 0.157885 0.000459759 0.023469 -0.0644621 -0.110069 -0.0316555 0.0385384 0.0319748 0.0795294 0.0915351 -0.00968314 -0.0295397
-0.0409631 0.103255 0.0665635 0.0244326 -0.0113456 -0.0199433 -0.00583108 0.00834775 -0.0165484 0.0611453 0.0173355 0.0348777 0.0475278
-0.0209072 -0.00568032 -0.0155144 -0.0255776 -0.0275171 -0.000355152 0.0224899 0.0202745 0.0298782 0.0153457 -0.0197491 -0.0141964 0.0177707
-0.0363268 -0.0340347 -0.0328093 -0.00446018 -0.0148039 -0.0222395 0.00860142 0.0170877 -0.0101366 -0.0294563 -0.0122969 -0.00173197 0.00297903
-0.0462155 0.0860447 0.106296 -0.00424602 0.0102837 -0.075605 -0.0687338 0.0746175 -0.00074853 0.13765 0.0355461 0.00836533 0.0334488
-0.0905621 0.181593 0.194954 -0.120971 0.0290864 -0.121535 -0.0540935 0.00957491 -0.0631277 0.410074 0.115588 0.161425 0.225399
0.0153333 -0.00557956 0.0342321 0.00104333 -0.00276955 -0.0381927 -0.0129392 0.0276296 0.0165017 0.0299598 -0.00670931 -0.00544676 -0.0248512
-0.0169429 -0.00700846 -0.0193616 -0.033806 0.00469825 -0.021347 -0.037424 0.0347458 0.0198076 -0.0153126 0.0187705 0.0205618 0.00225174
-0.128617 0.225069 0.146791 -0.017995 0.0255641 -0.162118 -0.0515153 0.0449974 0.0111798 0.315253 0.146214 0.0349077 0.116527
0.00111623 0.040391 -0.0163538 0.000776811 0.0202953 -0.0428903 0.0238388 0.0197539 -0.0125056 0.0108503 -0.0315383 -0.0214772 -0.0297237
-0.0109104 0.0790763 0.0432509 -0.0123006 0.0153712 -0.0478762 0.00945414 0.0402807 0.0386346 0.0481756 0.031545 -0.0186225 0.0203674
-0.0919881 0.231045 0.13706 -0.0174736 -0.0131468 -0.163441 -0.113989 0.0673631 -0.00393246 0.317431 0.153583 0.0344491 0.104586
-0.0162316 0.00354714 -0.00821601 0.0206333 -0.0269775 0.0331069 -0.0072806 0.0312539 0.0224905 0.0383311 0.0190697 0.00408236 -0.00697313
-0.000243207 0.0408472 0.0586934 0.0320881 -0.0445353 -0.0517329 -0.0249048 0.0399368 0.0197277 0.0746681 0.0464137 0.0236357 0.030101
-0.0976164 0.113054 0.0531823 -0.016362 0.0268442 -0.0775464 -0.022038 0.0337764 0.00185744 0.155142 0.0723841 0.0526004 0.107346
-0.0231734 0.0759323 0.0313118 -0.037291 -0.0148649 -0.00292094 -0.0232962 -0.0278553 -0.0196929 0.0645998 -0.00222562 0.0256154 0.019982
-0.0079587 -0.00569836 0.0286877 -0.0233792 -0.0240014 -0.0317368 0.0304478 -0.00767177 -0.0246394 -0.00344284 0.0126245 0.028316 0.0042916
0.00592357 -0.0089579 0.0134087 0.00318302 -0.013259 0.0126322 -0.036492 -0.0102978 0.0168412 0.0272272 -0.029147 -0.0224613 -0.033673
-0.00777088 0.0379439 0.0189468 0.0163663 -0.0106915 -0.0386135 0.00974723 0.012938 0.0269326 0.00398057 0.0159421 -0.02082 0.0206594
0.00253343 0.0255652 -0.00924366 -0.00724799 0.00366914 0.0290672 0.0209017 -0.0227884 0.0175016 0.00823101 -0.0024632 9.72558e-05 -0.0255796
0.00415768 0.0176968 0.0161485 0.00910514 -0.0155577 0.00620649 -0.0330978 0.0288343 0.021724 0.00394909 0.00733388 0.016005 0.0283924
-0.0267194 -0.0222331 -0.0163794 -0.0347613 -0.00434061 0.0210348 0.0164825 0.016058 0.0342997 -0.00955434 0.038781 -0.00380873 -0.0259537
0.014397 0.0206562 0.0301196 0.011773 0.00541671 -0.0166718 -0.0375486 -0.0370595 -0.00907929 0.0271567 -0.0235969 0.0118761 -0.0211983
0.022538 -0.0140178 -0.0181633 -0.00753126 -0.0276419 0.0373314 0.0142681 0.00276156 -0.0183677 -0.0202506 0.0215636 -0.03179 0.0122223
-0.0460003 -0.00782727 0.0122127 0.00541542 0.00449694 -0.0131108 0.0166136 0.0372598 -0.0192105 0.00984307 0.0287781 0.00257762 -0.00338508
0.00579897 -0.023694 -0.0125775 -0.00399167 0.00496457 -0.0211435 -0.0351492 -0.0190939 -0.0214724 -0.0346664 -0.0259603 0.00560314 0.0239502
0.0162171 0.0363362 -0.00509903 0.0181709 -0.015005 0.0290532 -0.0166686 0.0173289 -0.0358406 0.0299529 0.0253105 -0.00102618 0.00863874
-0.163871 0.130495 0.025606 0.0537089 -0.0956003 -0.0821567 0.0100573 0.128854 0.0972258 0.146245 0.0754918 -0.0972488 -0.0343238
-0.0497582 0.00659698 0.00687479 -0.0188019 0.0151827 -0.0150586 -0.038242 0.0491589 -0.0288072 0.0585904 0.02354 -0.0249744 0.0284167
-0.0283063 -0.0216785 -0.0358791 -0.022837 0.00727812 0.038253 -0.03821 -0.020325 -0.0380364 -0.0169001 0.0367079 0.0312328 0.00960935
0.00071334 0.0627206 0.034203 -0.00235874 -0.019607 0.00785809 -0.0196995 0.00415659 0.0119132 0.0490219 -0.018237 -0.00799349 -0.0134716
-0.166829 0.220879 0.150434 0.0376747 -0.0449631 -0.195417 -0.0723699 0.0453185 -0.00475177 0.251821 0.15907 0.030052 0.124052
0.122051 0.238167 0.742619 -0.100766 -0.2572 -0.480244 -0.439012 0.194677 -0.288183 0.768991 0.55912 0.338398 0.525415
-0.0104899 0.0335034 0.0164545 0.000849828 0.0158844 0.0232543 0.01426 -0.0305885 0.0151974 -0.002165 -0.027324 -0.0245225 -0.0216585
0.034295 -0.0153014 0.0192859 0.0299503 -0.00589451 0.00283946 -0.0264848 -0.009709 0.00433892 -0.00940203 0.0264704 -0.00959658 -0.00988183
-0.0143516 -0.00211716 -0.0112388 0.01578 -0.0148063 -0.0237561 0.0287552 0.0231141 0.00954973 -0.000414394 0.0252641 -0.0380337 -0.0314304
0.0309696 -0.0318417 0.0100959 0.0191453 0.036753 0.00729713 -0.0226722 -0.0226961 -0.00125172 -0.0236152 -0.0103511 0.0342348 -0.00973156
-0.0283733 -0.037945 0.027567 -0.0366442 -0.00203598 -0.00258624 0.00598646 -0.00795486 0.0104722 0.035325 -0.00753964 0.00592104 -0.0108204
-0.00793648 0.0375475 -0.0157768 0.0101282 0.0251413 0.0203141 -0.00852714 -0.00609529 -0.0269474 0.0042634 0.0100952 -0.0365449 -0.024995
0.0265836 0.0156821 -0.0108007 -0.0186474 -0.0290546 0.00618084 -0.00739631 0.019907 0.0320855 0.00928177 -0.0127665 -0.0304378 -0.0328182
-0.050418 0.000308455 -0.0178448 0.00997274 -0.0102182 0.0131109 0.0285621 0.00706675 -0.0249049 0.00563264 0.0257154 0.0293243 0.0380565
-0.0184074 0.0550503 0.0186269 0.0345311 -0.0550229 0.00790946 0.0273515 0.0358617 -0.0189215 0.0398642 0.015529 -0.0140789 0.049374
-0.0613731 0.0467179 0.0659778 0.0341083 0.000493666 -0.0754468 0.0138511 -0.016095 -0.0204578 0.0818996 0.0666141 1.43731e-05 0.0588582
-0.239257 0.15426 -0.0199723 0.0480428 -0.155026 -0.142497 0.0621333 0.145523 0.131179 0.110844 0.0355078 -0.112228 -0.042298
-0.123858 0.24975 0.115951 -0.0410005 0.00133559 -0.196321 -0.0719135 0.0592353 -0.0492987 0.319683 0.13341 0.0586723 0.141868
0.0992233 0.432941 0.538581 0.0796442 0.0217048 -0.363068 -0.160175 0.0397782 0.0793006 0.444124 0.313131 0.261508 0.36542
0.0250045 0.00447004 -0.0230285 -0.0178239 -0.020836 -0.0243983 -0.00187536 0.0269014 0.0157557 -0.00020304 0.0270619 -0.0253857 -0.00321852
-0.10319 0.15955 0.0676667 -0.0298081 -0.00160872 -0.0789213 -0.0389317 0.0518514 -0.00369361 0.209558 0.0610179 0.053504 0.0749529
-0.0251149 -0.0356059 -0.0111699 -0.0206911 0.0156833 -0.0315529 0.0366404 0.000477324 -0.0117855 0.0195888 -0.00648131 -0.000380532 0.0317169
-0.140189 0.111368 0.000360544 -0.0140398 -0.0532983 -0.0368562 0.00658196 0.0759165 0.0413178 0.10036 0.0652627 -0.0420756 -0.0299786
0.0211283 0.00315972 0.013666 0.022861 -0.000221404 -0.0249237 0.0268777 -0.0320058 0.0129981 -0.0241526 0.0396743 -0.00619644 0.0289973
-0.0246666 -0.00137944 0.0228177 0.00399376 0.015223 0.00179151 -0.0033249 0.0094388 0.0289407 0.00972113 -0.02118 -0.0313475 -0.00578726
0.0278199 -0.0278306 0.00966284 -0.0210604 0.00881637 -0.00958815 0.0301547 -0.0189644 0.0238248 -0.0175219 0.0247671 -0.0322028 -0.00337132
-0.145899 0.237014 0.199461 -0.255586 0.173817 -0.0976893 -0.0997375 -0.0667398 -0.287105 0.546106 0.183042 0.203571 0.189279
-0.126217 0.166339 0.120751 -0.040423 0.0181073 -0.131866 -0.0476751 0.029634 -0.0588535 0.302425 0.119681 0.0204036 0.0895947
0.0221483 0.0170886 -0.0142903 -0.000358945 0.0294306 0.00330785 -0.00756694 -0.00703699 -0.0377337 0.0225646 0.00297897 0.00588438 0.0188935
-0.000622008 -0.0291284 0.0228793 -0.0215289 -0.0156179 -0.0149514 0.00623128 -0.00714524 -0.033157 0.00557903 0.0347335 0.0213186 0.0174082
0.0367728 -0.0145372 -0.0365008 0.00269872 0.0267933 -0.0106667 -0.00317512 0.0133147 -0.0172614 0.00304651 -0.0189301 -0.00716871 0.0114887
-0.113752 0.196441 0.0804959 -0.0481394 -0.0151903 -0.0878638 -0.0843593 0.0332927 -0.00920681 0.2063 0.134415 0.0694519 0.104929
-0.0205938 0.0523675 0.00951961 0.0284639 -0.0159473 -0.0163001 -0.0273476 -0.0215109 0.00479299 -0.000965167 -0.00426311 0.00412498 0.0346581
-0.00541243 0.0315501 0.0271183 -0.0340616 0.029962 0.0162429 0.0294098 -0.0179298 -0.0124718 0.049798 -0.0213319 0.0236476 0.00641476
-0.0202966 -0.00328167 -0.020953 0.014712 -0.0364958 -0.0514011 -0.0343891 0.0334407 -0.00892683 0.0267141 0.0246672 -0.0233834 0.0358576
-0.0142744 -0.0185734 0.0110679 -0.00260787 0.0128408 0.0312026 0.0294004 -0.00773794 -0.0320774 -0.0217096 0.00339565 -0.0160838 0.0187627
-0.15836 0.227015 0.125848 -0.0422758 0.0666569 -0.137565 -0.0484872 0.0278065 -0.118719 0.30222 0.0993815 0.0206629 0.106437
0.00764356 0.0308242 0.0222996 -0.0212221 0.0274568 -0.0428715 -0.0422436 -0.0115709 0.0191268 0.0335956 -0.00242737 0.0323529 0.0230042
-0.103873 0.0820352 0.0414643 -0.00240354 -0.067597 -0.0915063 -0.00736953 0.0759031 0.0230468 0.118987 0.0653021 -0.0346647 -0.028424
-0.0191031 -0.00299907 -0.0309993 -0.0361647 0.00771968 -0.0370681 0.0286082 -0.0211315 0.0336792 0.0275941 0.0101739 0.021674 0.0381193
-0.000786045 -0.0228308 0.027702 0.0373615 -0.0189966 0.0177146 -0.0383336 0.0165379 -0.0023485 -0.0185178 -0.0164991 -0.0126097 -0.0126366
-0.11845 0.149714 0.0829182 -0.0427945 -0.00106243 -0.128775 -0.025071 0.0378156 0.0180978 0.227892 0.106636 -0.00871561 0.108678
-0.012506 0.0264127 0.0262625 -0.0111718 0.0150873 0.0262201 0.0195234 -0.0171593 -0.0115964 0.0026883 -0.0188747 -0.00693406 0.024373
-0.0109677 0.0430156 0.0312804 -0.0187139 -0.0108781 0.00501625 -0.0180485 -0.0329588 0.0031737 -0.0167915 -0.0237355 0.0168122 0.00114295
-0.0547429 0.124703 0.0760846 0.00826376 -0.0197392 -0.0768326 -0.0526798 0.0111727 0.0345495 0.10022 0.0587639 -0.00590403 0.0223239
0.0142963 0.0281804 -0.0373565 0.0264209 0.0374289 -0.0152867 -0.00905169 -0.012867 -0.0360358 0.0327073 -0.0232764 -0.00830351 -0.012787
0.0227473 0.000740186 0.00332973 -0.0105418 -0.00438341 -0.0329734 -0.0225209 -0.00954153 0.0204794 0.0604414 -0.00894274 0.0243706 0.0426376
-0.0547061 0.0169706 0.0286002 -0.00239221 0.00195002 -0.0636579 0.0164035 0.0179783 0.033322 0.0385363 0.0324022 -0.0243104 0.0187182
-0.00514167 -0.0104426 -0.0194861 0.0022774 -0.00471041 -0.0344165 0.00306046 0.01633 -0.0352296 -0.00386998 0.00684112 -0.0337029 0.00179208
0.000675621 -0.00150402 -0.0124268 0.00756153 0.014208 0.0241805 -0.0105128 0.00238758 0.0074254 -0.0149487 0.0149695 0.0146862 -0.00326418
-0.0158414 0.110871 0.0413934 -0.0263928 0.00653939 -0.0611848 -0.00884609 0.034817 0.0101106 0.11539 0.0463055 0.026844 0.0513208
-0.0259096 0.0620694 0.0109298 -0.0175603 -0.0459464 -0.0284066 0.018292 0.0310205 0.0174719 0.0428077 0.0305158 -0.0387122 0.0297027
-0.00316404 -0.0199816 -0.0136494 0.00851679 0.0293679 -0.00675198 -0.0141584 -0.0225715 -0.0280944 0.00492425 0.017164 0.0042879 -0.0215849
-0.0537118 0.13645 0.136808 0.00940968 0.0165103 -0.0970069 -0.092402 0.00599413 -0.0504925 0.20797 0.125042 0.0273213 0.110228
-0.0468317 0.0850557 0.0605456 -0.0141127 -0.0480215 -0.0901668 -0.0409149 0.0339709 0.0103687 0.166307 0.0667415 0.0393903 0.0389793
0.0102494 0.0299282 -0.0384588 0.0329378 0.0173888 -0.0187673 0.0197745 0.0207226 -0.0246682 0.0366531 -0.00883528 -0.0374973 0.0152721
-0.0404421 -0.000788077 0.021447 -0.00549999 0.0294888 0.0249875 -0.00919594 -0.010251 0.0117085 0.0270171 0.00309669 -0.0152975 -0.0119376
-0.014544 0.00176714 -0.0135642 0.0143096 0.0132214 0.0098978 -0.021879 0.0113004 -0.022316 0.0226726 0.00789326 0.015941 -0.0119412
-0.001451 -0.0114625 0.0142035 0.0256625 -0.042395 -0.0377225 -0.00666976 -0.0262463 -0.012561 0.0391496 -0.0169392 0.00162042 -0.0151483
0.0351811 0.0348587 -0.0161461 -0.0167165 0.00466843 0.0310232 0.0298765 -0.0221572 -0.0200986 -0.0158894 -0.0310877 -0.0101787 -0.0269753
0.0364325 -0.026509 -2.54746e-05 -0.0174399 -0.0263353 -0.0286946 0.000183746 -0.022781 0.0194444 -0.0099993 -0.0118817 -0.025327 0.0131857
-0.0369119 0.0256373 -0.000337166 -0.0140809 0.0215505 -0.00266263 -0.00405457 0.0060857 0.0282583 -0.00412568 0.00847485 0.0137291 -0.0257774
-0.00393042 0.0456353 0.0419192 -0.0318325 0.0150942 -0.0195601 -0.0307292 0.0529018 -0.00217632 0.0949736 -0.00531486 0.0237231 0.0322188
0.0142235 -0.0205256 -0.0143029 -0.000535912 -0.0266406 0.0126468 0.0210663 -0.0349614 0.0256313 0.018794 0.0216331 0.0140579 0.00484397
0.0278368 0.0370556 0.00900534 -0.00858009 0.0322388 0.0183121 -0.0292539 0.00676669 0.0175244 0.024402 0.0177199 -0.0278907 -0.0189151
-0.0157396 0.0410107 -0.0152567 -0.0319015 0.0303322 -3.41894e-05 -0.0264777 0.0216008 0.0342736 0.0360937 0.00289294 0.0337175 0.0212546
0.0328474 0.0297683 -0.0146193 -0.0352288 -0.0110099 0.0212827 -0.0369918 0.0317141 0.0087172 -0.00395867 0.0100806 0.0382635 0.0234993
-0.022758 0.0254617 0.0283629 -0.00362159 0.0250661 -0.0337934 0.0317771 0.0266015 0.000167878 -0.0108557 0.017651 -0.0139075 -0.00515982
0.00597448 -0.0228527 -0.00895602 0.019741 0.0135357 -0.00584394 0.0204494 -0.0249882 0.0265709 -0.0328848 0.00127675 0.00795325 -0.000930796
-0.0109634 0.036065 0.0316054 0.0120714 0.0288895 0.00869535 0.00763041 -0.0278575 -0.0337007 0.0614488 -0.00852081 -0.0149317 0.0445865
-0.0330426 0.0197953 -0.00282877 -0.0130095 0.0260184 -0.031021 -0.0283081 0.0270866 0.031194 -0.00858631 -0.0382493 -0.00281555 0.0115373
-0.0110146 0.0171215 0.0368401 -0.0193083 -0.0286487 0.00791357 -0.0289459 -0.0106789 0.0379804 0.028118 0.0155414 0.00232072 0.0218208
-0.0326103 0.0164827 -0.00927292 0.0221046 -0.0109687 0.0236393 -0.0141016 -0.014304 0.0280935 -0.00757636 0.0279652 0.034698 0.0091764
-0.0397584 0.0117455 0.00823567 0.0205321 -0.00602727 -0.0130574 0.0202645 -0.0127638 -0.03428 -0.00392738 0.033934 0.0373997 -0.00162916
0.016835 0.0155653 -0.00528063 -0.0311317 -0.0215444 0.0354182 -0.0185329 0.0310216 0.0322169 -0.0282578 0.0221253 -0.017997 0.00296587
0.0584819 0.297107 0.493034 0.0608407 0.0286402 -0.318892 -0.15248 0.0467274 0.0086482 0.399944 0.214127 0.252109 0.31919
-0.11103 0.250044 0.214692 -0.0450035 0.103561 -0.148657 -0.0994867 0.000556554 -0.0776091 0.43067 0.115107 0.0654351 0.186465
-0.0137032 -0.0106646 -0.0179488 0.0310837 -0.0272652 0.0101591 -0.026637 -0.0180155 -0.0377014 0.0150195 -0.0338395 0.0079609 0.0140782
-0.0890306 0.15955 0.102585 -0.00653378 -0.0154863 -0.114438 -0.0750736 0.0710682 0.0270952 0.289159 0.146649 -0.00209673 0.10152
0.00969612 -0.0229082 -0.0176499 0.0146048 -0.0256795 -0.0235341 0.018547 0.0327283 0.0276201 0.0312247 -0.0321251 -0.0157738 0.0328752
-0.0220988 0.0199151 -0.0152738 0.0145697 -0.0191517 -0.00585931 0.0318742 -0.0373894 -0.0127435 -0.000584012 -0.0207569 0.0300784 -0.0311621
-0.0437607 0.0258071 0.0367611 0.00790752 -0.014664 -0.0325786 -0.0367043 0.0158209 0.0234698 0.0265407 0.00551711 -0.0388057 -0.00706088
-0.00010728 -0.0223772 -0.0273947 0.0355586 -0.0135173 -0.00640729 -0.0294907 -0.00346542 -0.0175003 -0.0291592 0.0313506 0.0180823 -0.00343353
-0.128277 0.144204 -0.0177064 0.0159062 -0.0570372 -0.0884913 -0.026703 0.0830963 0.0301675 0.0813882 0.0638835 -0.0855434 0.0319934
-0.120781 0.235282 0.145612 0.0509468 -0.0595596 -0.12309 -0.0727471 0.03408 -0.000424211 0.225241 0.125855 0.00354813 0.0941388
-0.00182241 0.0313216 -0.0285484 -0.0153576 0.0365119 -0.000126359 -0.0375051 -0.0129103 0.0153136 0.0369127 -0.0255874 0.00252899 -0.0361684
0.00340163 0.00436272 0.0227797 -0.00105154 -0.030307 -0.0230398 -0.0250049 -0.018662 -0.000951951 0.00528704 -0.0211174 -0.00368966 -0.00805988
-0.0664278 0.102381 0.0804711 0.0162119 -0.0565709 -0.0748335 -0.0566475 0.0462858 0.0403941 0.16524 0.058163 -0.0224182 0.0491632
-0.0122154 0.0482511 -0.0130289 -0.0179695 -0.0301536 0.0208134 0.0331209 0.0303608 -0.0143746 0.00571792 0.0188527 -0.0117473 0.0444222
-0.00440402 0.0213508 -0.0290095 0.0231084 -0.0329308 0.0136473 0.0261281 0.0104398 -0.0357047 -0.0181183 -0.0060758 -0.0199144 0.00144446
-0.0529232 0.0212154 0.0255494 0.00883989 -0.0229268 -0.0660902 -0.0238855 -0.00950184 -0.0448696 0.0325778 0.0144911 0.0348128 0.0504934
0.00613913 0.0226912 0.0378426 0.025554 0.0359875 0.0347074 0.0239487 0.00586795 -0.0161594 0.0127405 -0.034174 0.0231502 0.029073
0.031416 -0.00103839 -0.0129036 -0.0102099 -0.0149252 0.0151582 0.0147009 0.000407433 0.0383203 0.0280349 0.00544086 -0.0314384 -0.0084419
0.0141563 0.022652 0.0124664 -0.00203403 -0.0194761 -0.0120258 -0.0300066 0.0379393 0.0387737 0.0353075 -0.00288809 -0.00599879 -0.0181337
-0.0447521 0.0987889 0.0173028 0.00303036 -0.00844987 -0.0367026 0.00500358 0.0326044 0.0376505 0.113766 0.0310355 -0.0203381 0.0569437
0.00268518 -0.0244683 0.00898713 0.0164776 0.0358707 -0.0124238 -0.00696518 0.03433 -0.0185817 0.0106992 -0.00475662 0.00170995 -0.00372296
-0.0041415 0.031519 -0.0145531 -0.0257077 0.00416327 -0.0215787 0.0240937 0.0114887 0.00760631 0.00254469 0.0204891 -0.000563645 0.016541
-0.181009 0.278311 0.144192 -0.0896151 0.182503 -0.156577 -0.123036 -0.127 -0.425527 0.583335 0.0321889 0.00505003 0.177717
-0.0134604 -0.00715087 -0.016657 -0.031611 -0.0379379 -0.0238581 -0.0378624 -0.0238971 -0.00802335 -0.0327507 -0.026825 0.0231564 -0.00690036
-0.097753 0.171654 0.111248 -0.0644655 -0.00328646 -0.0876079 -0.0789521 0.0220069 -0.0391138 0.22437 0.101742 0.00964129 0.128814
-0.028824 0.00468369 0.00719505 0.0250302 0.0264588 0.0223916 0.0145969 0.0368703 -0.0110074 -0.0073666 -0.0272165 0.0240791 -0.0205384
0.0105575 0.035387 -0.0229813 -0.0243247 -0.0273595 0.034617 -0.0123954 -0.0132085 0.0266077 0.0209789 0.00853844 -0.00483756 -0.00546661
-0.10097 0.125418 0.0690552 0.00894573 -0.0840614 -0.0785205 -0.0391053 0.0940197 0.0580913 0.122899 0.0636512 -0.0731279 0.0500519
-0.024216 -0.0335484 -0.0101663 -0.0146004 -0.0092505 -0.0338712 -0.0325724 0.0309192 0.0216399 -0.028439 -0.0191214 0.011786 0.00848239
0.0103022 -0.0171466 0.00960018 -0.0144392 -0.0283476 0.016999 -0.0165921 0.0376801 -0.0216295 0.044121 0.0117423 -0.0272249 0.0235355
0.0129994 0.0456524 0.0072452 0.0202914 -0.00159073 -0.0278102 -0.00719588 0.0298895 0.0300669 0.0692788 -0.0123587 -0.00855311 0.00188533
-0.0612816 0.0736219 0.0215325 -0.0208455 -0.0138655 -0.0284323 -0.0281614 0.0405313 -0.0211773 0.108978 0.0319357 0.0175367 0.0421773
-0.0202177 0.0438142 0.0152117 0.00827526 -0.0236801 0.0118818 -0.0377374 -0.0126169 -0.0180806 0.0586649 0.0156383 0.00397124 0.030111
0.014039 0.00178234 0.0203604 -0.00217774 0.0277238 -0.0320231 0.0234089 0.0166621 -0.0117866 -0.00902711 0.0479914 -0.0206547 0.00205972
