115 7
-0.350544 -0.464072 -0.079437 0.0659435 -0.576852 -0.39578 0.258926
-0.38425 -0.500886 0.107177 0.167276 -0.77349 -0.285288 0.46683
-0.268971 -0.412829 -0.115835 -0.0364679 -0.304357 -0.471802 0.19132
-0.465151 -0.441191 0.0593747 0.235953 -0.626931 -0.373248 0.598399
-0.305544 -0.0960152 0.562938 -0.786608 -0.93629 -0.399586 -0.12734
-0.436641 -0.472036 -0.0622759 0.110639 -0.514624 -0.3266 0.414153
-0.294977 -0.430191 -0.102482 0.0333234 -0.335468 -0.655761 0.224206
-0.392997 -0.30406 -0.0372098 0.0749468 -0.570071 -0.507343 0.360386
-0.0829536 -0.512392 0.0662952 0.010749 -0.518482 -0.78863 -0.0662175
-0.384558 -0.312146 -0.00408325 0.160456 -0.361589 -1.36276 -0.422376
-0.291309 -0.526847 -0.264781 -0.15924 -0.0287894 -1.08807 -0.265189
-0.309167 -0.47976 -0.0299927 0.104063 -0.649597 -0.407613 0.402569
-0.269744 -0.406853 -0.0981076 -0.137592 -0.220696 -0.765146 -0.0481247
-0.0709578 -0.531639 -0.321609 0.184327 -0.843775 -0.483431 0.223258
-0.38225 -0.413575 -0.0858653 0.115442 -0.124492 -1.29246 -0.3986
-0.363549 -0.324427 -0.122035 -0.11375 -0.357037 -0.379358 0.246205
-0.54068 -0.315191 0.0422961 0.324413 -0.891542 -0.438198 0.538972
-0.222842 -0.568858 -0.185509 0.0162716 -0.566891 -0.430999 0.446565
-0.271728 -0.517206 -0.142053 -0.0288939 -0.206994 -0.761768 0.0144655
-0.157527 -0.308516 -0.0802729 -0.130496 -0.230373 -0.336813 0.107159
-0.389926 -0.238709 -0.0399072 0.182178 -0.789231 -0.590034 0.2393
-0.320747 -0.509433 0.124679 0.161419 -0.871375 -0.292707 0.246717
-0.402046 -0.472527 -0.0730075 0.211238 -0.571584 -0.413971 0.53577
-0.37021 -0.386939 -0.135978 0.0491737 -0.359582 -0.390335 0.215848
-0.434749 -0.312736 -0.06747 -0.104474 -0.771487 -0.262445 0.342131
-0.228138 -0.491456 -0.340087 -0.200475 -0.499307 -0.295912 0.0586001
-0.212356 -0.326676 -0.115729 -0.110622 -0.345051 -0.423854 0.213185
-0.0248937 -0.0534397 -0.102101 -0.000828444 -0.105146 -0.108733 0.107687
-0.194576 -0.158214 -0.0576258 -0.0370467 -0.257326 -0.249626 0.182961
-0.158765 -0.226538 -0.0830535 -0.00507144 -0.188598 -0.330886 0.112988
-0.371616 -0.445368 0.0208238 0.122492 -0.652376 -0.414829 0.305658
-0.382968 -0.365697 -0.099409 0.075409 -0.639537 -0.368084 0.400165
-0.308052 -0.332051 -0.160324 -0.0955795 -0.277832 -0.329455 0.221133
-0.283185 -0.504218 0.0124808 0.173291 -0.821416 -0.356317 0.397522
-0.458989 -0.428041 -0.0531867 0.372203 -0.650186 -0.416743 0.728621
-0.3466 -0.389379 -0.14216 -0.0810592 -0.326064 -0.300354 0.227952
-0.263787 -0.499667 -0.140754 0.0317129 -0.367341 -0.52635 0.282851
-0.281421 -0.312655 -0.0978677 -0.0219067 -0.408708 -0.38366 0.308947
-0.203651 -0.40811 -0.116356 -0.155616 -0.253713 -0.41213 0.159918
-0.396923 -0.417227 -0.10862 0.0444076 -0.389107 -0.440911 0.255756
-0.386341 -0.30116 0.00293557 -0.0104058 -0.67627 -0.358063 0.374616
-0.247724 -0.310535 -0.0818458 -0.119454 -0.32024 -0.381027 0.209266
-0.234927 -0.309116 -0.0685158 -0.071205 -0.324587 -0.369852 0.261067
-0.271465 -0.29709 -0.135873 0.0248137 -0.229914 -0.290652 0.172623
-0.295425 -0.242768 0.00142913 -0.107911 -0.31505 -0.218741 0.147082
-0.284946 -0.422479 -0.202504 -0.0138251 -0.253725 -0.473767 0.171545
-0.250883 -0.352888 -0.144093 -0.0296445 -0.269279 -0.384766 0.215189
-0.27592 -0.366951 -0.146165 -0.0646873 -0.30313 -0.300861 0.223639
-0.226626 -0.318441 -0.0656013 -0.123471 -0.384844 -0.321925 0.176679
-0.208237 -0.294702 -0.144487 -0.143004 -0.2187 -0.421854 0.19078
-0.157934 -0.267629 -0.113324 -0.11366 -0.303662 -0.327201 0.163804
-0.0987892 -0.1311 -0.0662296 0.0401925 -0.133044 -0.113723 0.109537
-0.309587 -0.350272 -0.211304 -0.0672958 -0.254425 -0.421771 0.242494
-0.15594 -0.280942 -0.144109 -0.0817823 -0.180644 -0.277736 0.0952976
-0.317852 -0.355274 -0.178461 -0.0219462 -0.348707 -0.301689 0.243444
-0.137717 -0.174265 -0.0224429 -0.0875935 -0.273497 -0.345421 0.184761
-0.267131 -0.276287 -0.0493216 0.0153978 -0.19844 -0.352039 0.195837
-0.276003 -0.292895 -0.030612 -0.0871997 -0.248362 -0.351929 0.184992
-0.246862 -0.380046 -0.1072 0.0322326 -0.289871 -0.452559 0.142718
-0.265676 -0.36451 -0.106456 -0.0148088 -0.313117 -0.355648 0.115797
-0.0388577 -0.146758 0.0317138 -0.0471247 -0.141765 -0.154186 0.0952315
-0.261697 -0.349576 -0.142608 -0.039063 -0.310917 -0.379454 0.233135
-0.248904 -0.407717 -0.206917 -0.0019354 -0.284331 -0.735986 0.184955
-0.289678 -0.487708 -0.164575 -0.0651661 -0.196557 -0.711794 -0.0140168
-0.201056 -0.326354 -0.147777 -0.0573587 -0.265658 -0.429964 0.0907365
-0.298518 -0.294783 -0.0968819 -0.00292832 -0.297977 -0.357489 0.209818
-0.268113 -0.363557 -0.0976036 -0.0312684 -0.297651 -0.340164 0.236583
-0.270659 -0.341083 -0.256888 -0.0284606 -0.161493 -0.463133 0.25862
-0.257787 -0.29512 0.00211399 -0.0436261 -0.273903 -0.342854 0.139989
-0.20673 -0.380008 -0.0235834 -0.0952117 -0.293467 -0.327923 0.122946
-0.226722 -0.341158 -0.153138 -0.00886777 -0.422638 -0.306427 0.344607
-0.197534 -0.228163 -0.14459 -0.117043 -0.199999 -0.340483 0.188922
-0.291815 -0.467326 -0.132419 -0.0542433 -0.285649 -0.545754 0.130116
-0.0438148 -0.174001 -0.0859925 -0.0683269 -0.0567894 -0.150972 0.065712
-0.146361 -0.205244 -0.0561471 0.0150164 -0.226939 -0.290705 0.204799
-0.211811 -0.186133 -0.00149384 -0.111228 -0.27883 -0.2398 0.182718
-0.00902896 -0.138708 -0.0660701 -0.0743048 -0.0978693 -0.180278 0.0356704
-0.0594757 -0.026953 -0.0405714 0.0183132 0.0155476 0.00523542 0.0551445
-0.250394 -0.332469 -0.056882 -0.0751406 -0.28057 -0.380446 0.104778
-0.259713 -0.335297 -0.00771777 -0.0924332 -0.300739 -0.330222 0.125239
-0.23129 -0.342718 -0.124482 0.0102415 -0.322608 -0.409901 0.192446
-0.259228 -0.303526 -0.0172087 -0.344978 -0.427249 -0.297409 0.0186119
-0.162595 -0.122165 -0.0328846 0.0115202 -0.142928 -0.174719 0.0164055
-0.0942056 -0.0795774 -0.0759354 -0.0124017 -0.138034 -0.199781 0.0394418
-0.320621 -0.312524 -0.090473 0.00415799 -0.3091 -0.317529 0.19665
-0.271815 -0.275337 -0.149198 -0.0284919 -0.215863 -0.339175 0.191045
-0.232544 -0.251426 -0.116446 0.00429619 -0.288884 -0.304558 0.155912
-0.27702 -0.254078 -0.102921 -0.0368747 -0.225406 -0.318882 0.0951635
-0.237594 -0.264305 -0.0186937 -0.100206 -0.250333 -0.181965 0.0863831
-0.219238 -0.130569 0.0369508 -0.0478184 -0.195122 -0.237299 0.113836
-0.173989 -0.205971 -0.00621968 -0.0636439 -0.165492 -0.190778 0.0536726
-0.111783 -0.197853 0.019913 0.0189018 -0.193305 -0.289984 0.0811592
-0.127612 -0.0827934 0.0261042 0.00075801 -0.146902 -0.125905 -0.0103768
-0.151999 -0.220177 -0.0627305 0.0135217 -0.172529 -0.179842 0.125988
-0.301704 -0.275578 -0.125622 -0.0877865 -0.384351 -0.226802 0.124215
-0.0815403 -0.0961912 -0.0726032 0.0087736 -0.120831 -0.136301 -0.000693611
-0.0930047 -0.0774703 -0.0933641 -0.0453943 -0.0240742 -0.0510499 0.0697755
-0.102158 -0.112337 -0.0576476 -0.0881502 -0.0323846 -0.0518119 0.0647275
-0.108879 -0.0576107 -0.0722072 -0.016091 -0.110422 -0.0904318 0.0653336
-0.234558 -0.179821 -0.0638221 -0.0228476 -0.247034 -0.257688 0.120032
-0.142734 -0.229088 -0.046166 -0.0740694 -0.217605 -0.284429 0.126072
-0.23066 -0.199722 -0.0964321 0.0065943 -0.221467 -0.276411 0.238157
0.00314622 -0.111552 0.0386579 -0.00485992 -0.0884247 -0.121967 0.00488094
-0.0577748 -0.103074 -0.015987 0.0631518 -0.0972453 -0.0944018 -0.0146203
-0.0798403 -0.159539 -0.0154106 -0.00917259 -0.159065 -0.0750402 0.0428317
-0.0622392 -0.0886695 -0.079855 0.01666 -0.0324658 -0.030401 -0.0145308
-0.195953 -0.15228 -0.0744352 -0.0245494 -0.113273 -0.0970391 0.0880873
-0.0110484 -0.0392754 -0.0599091 -0.0604755 -0.100364 -0.159283 0.127199
-0.0565493 -0.147271 -0.00758755 -0.0157864 -0.0841504 -0.139324 0.112711
-0.110765 -0.148182 -0.0489417 -0.0222437 -0.0195294 -0.0624462 0.0828497
-0.0447655 -0.0235337 0.0452854 -0.0188564 -0.0990603 -0.0191755 0.0831097
-0.0409225 -0.144961 0.00640782 0.0106589 -0.168662 -0.184286 0.111673
-0.066287 -0.133746 -0.0906706 0.0356006 -0.102055 -0.116519 0.116426
-0.101419 0.00590482 0.0479761 -0.05207 -0.0585854 -0.107044 0.0443634
-0.0895637 0.0143907 -0.0727958 -0.033677 0.0188216 -0.109188 0.0370636