103 7
-0.0303661 0.241701 0.0416055 -0.0870624 0.192205 -0.0232391 -0.03051
-0.163381 0.540938 0.281499 -0.206147 0.471873 -0.0361661 0.039019
-0.00685809 0.555359 0.221465 -0.168345 0.543938 0.12537 -0.138955
0.00783988 0.54003 0.24285 -0.0540179 0.495593 0.00220116 -0.0231101
-0.000752808 0.587724 0.136151 -0.0883145 0.572356 0.176492 -0.0117765
-0.129414 0.668396 0.167003 -0.169612 0.408884 0.0221241 0.104154
-0.0148308 0.577622 0.220516 -0.0515189 0.469679 0.026369 -0.0160779
0.0834838 0.652974 0.259114 0.682076 0.333093 0.0448116 0.217746
-0.0972898 0.482238 0.172001 -0.0714872 0.487332 0.0553061 -0.0745424
0.0352847 0.570426 0.225481 0.0447479 0.48298 0.0751177 -0.0856099
-0.0968526 0.60689 0.174748 -0.125597 0.457313 0.042031 -0.0987524
0.00044585 0.577454 0.260688 -0.0949543 0.461534 0.163282 -0.077688
-0.115093 0.623964 0.133799 -0.0873793 0.410484 0.0262353 0.0345342
0.0194603 0.298722 0.130537 0.0498034 0.185037 0.0130905 0.0414216
-0.0595787 0.513269 0.194411 -0.0435301 0.470417 0.0667006 -0.0235254
0.0635608 0.00157779 -0.0208136 0.0443774 0.0494714 0.0328528 -0.00488929
-0.10282 0.518577 0.242896 -0.0239039 0.542896 0.106203 -0.100897
-0.0906031 0.601775 0.15497 -0.0245448 0.427482 0.0527907 -0.0494194
-0.0149478 0.282764 0.140817 0.0417844 0.184528 0.0967011 0.00484323
-0.0972819 0.536491 0.241448 -0.0830964 0.452188 0.0393215 -0.0176922
-0.0325665 0.473713 0.288215 -0.125912 0.566035 0.0503777 -0.07914
-0.0510671 0.485045 0.14955 -0.192786 0.425674 0.0875044 -0.107282
-0.0276154 0.148911 0.0380948 -0.0398002 0.0230766 0.0456689 -0.0597526
-0.0808747 0.582193 0.157661 -0.23654 0.466264 0.112997 0.0234209
-0.111257 0.587643 0.157377 -0.0353374 0.385901 0.0229524 0.0305471
-0.0486726 0.551141 0.137489 0.0291188 0.500694 0.143941 -0.10683
-0.0482692 0.597122 0.146559 -0.15887 0.484368 0.0143885 -0.0501758
-0.040691 0.558022 0.0923456 -0.116605 0.413727 0.11701 0.0275249
-0.00405343 0.232141 0.106597 -0.070714 0.236422 0.00492877 0.0117487
-0.0513177 0.48345 0.0852578 -0.0817671 0.42403 0.113423 -0.0311894
-0.0158754 0.600132 0.165942 -0.0564295 0.437085 0.143582 0.027566
-0.0456715 0.396398 0.0938438 0.0322149 0.265965 0.0261299 0.0466977
-0.0371349 0.419258 0.135456 -0.0303331 0.446652 0.0760509 -0.0232593
0.0314705 0.327433 0.143706 -0.0118342 0.288393 0.0853707 -0.0117728
-0.0760548 0.221368 0.0333908 -0.0685744 0.218782 0.0377028 0.0489899
0.000649951 0.208224 0.0669094 -0.0353956 0.0772468 0.0767129 -0.0350994
-0.105615 0.560688 0.172663 -0.0983583 0.404279 0.0295713 -0.0724241
-0.0992846 0.318995 0.114823 0.0238183 0.294194 0.00514102 0.00852897
-0.0550169 0.114473 0.0402354 -0.0194127 0.0484649 -0.0182193 -0.0445119
-0.0904122 0.330659 0.114702 -0.0581878 0.315114 0.00932152 -0.0351675
0.00691563 0.0663816 0.0529504 -0.00451685 0.00827957 -0.0604303 -0.0187819
-0.0595624 -0.0479419 0.0394616 -0.0478524 -0.00667443 -0.0134922 -0.0209444
-0.0942006 0.246082 0.0920937 -0.0888649 0.288125 -0.0115003 -0.0601704
-0.123707 0.388476 0.218648 -0.129732 0.43478 0.0856547 -0.086374
0.0199717 0.536725 0.0923476 -0.0237816 0.323916 0.100029 -0.0561483
-0.0250316 0.386527 0.0854475 0.00309117 0.35865 0.0812671 -0.0550574
-0.042537 0.376232 0.185861 -0.117576 0.364023 -0.00224096 0.0280573
-0.0537724 0.326611 0.0788523 -0.00813337 0.283274 0.062454 -0.0551864
0.0391894 0.153572 0.0275523 -0.0283021 0.0642485 0.0255506 -0.009043
-0.0562499 0.0559386 0.00255661 -0.00717429 -0.00610094 0.0309069 0.0146266
-0.0608857 0.220605 0.0976114 -0.0387386 0.277641 0.0244206 -0.0275278
-0.0632534 0.350204 0.11078 0.0234591 0.309889 0.0397078 -0.0379346
-0.0490186 0.219339 0.0862548 -0.0321731 0.243517 -0.00370682 0.0572782
-0.0845766 0.450444 0.18948 -0.125903 0.273401 0.0291681 -0.0819443
0.025043 0.291913 0.107978 -0.0191886 0.26097 0.0800137 0.0162259
-0.0930046 0.392506 0.140654 -0.0725588 0.337635 0.0260087 -0.0449851
-0.0329583 0.445348 0.164632 -0.0200438 0.433413 0.127795 -0.0727752
-0.061398 0.193429 -0.0199079 0.0485096 0.0545197 -0.030035 -0.0560982
-0.00969674 0.181256 0.0228497 -0.0143114 0.196858 0.0585185 -0.0406313
0.0299481 0.0531185 -0.0402212 0.0453773 0.108342 0.00182364 0.0559575
-0.0904647 0.411858 0.0973724 -0.00617732 0.23737 0.105588 -0.00362478
-0.0709001 0.0387542 0.0760519 -0.0529363 0.0501003 0.00405388 0.0316269
-0.0771145 0.116875 0.0619222 0.0493077 0.00132928 0.0542511 0.0605329
0.0317588 0.22164 0.0708215 0.0334128 0.204235 0.0772091 -0.0406304
0.0151895 0.400312 0.0660903 0.0215673 0.332332 0.0373915 0.0483552
-0.110055 0.307209 0.170997 -0.0289633 0.309105 -0.0250536 0.018094
0.0148211 0.00954407 0.0113862 0.0520962 0.0706251 -0.0472888 0.0540502
-0.0182534 0.310039 0.16532 -0.103714 0.274283 0.0387957 0.0418801
0.0199991 0.00910646 0.00277247 -0.0422945 0.0434674 0.0191672 -0.0698012
0.0110013 0.147149 0.11467 -0.0551395 0.123253 -0.0514499 -0.0113041
-0.0900226 0.400834 0.0792758 0.0303717 0.238867 0.114899 -0.0163292
0.0188669 0.361719 0.14638 -0.0470131 0.400047 0.0657174 -0.0245112
0.00577322 0.0416641 0.0480929 -0.00656123 0.000721131 -0.0160098 0.00244581
0.0305982 0.238459 0.0657609 0.00310895 0.12453 0.0592451 0.00528889
-0.059729 0.284595 0.0377681 -0.0637104 0.294846 -0.0350868 -0.0295522
0.040589 0.0948536 -0.0269011 -0.072792 0.0340609 -0.0645393 0.0443185
-0.0140527 0.160366 0.0727759 0.0519435 0.127018 0.0340606 0.0601158
-0.0210827 0.165739 0.0329603 -0.106764 0.253676 0.0268151 -0.0207601
0.013481 0.295744 0.0793398 -0.0746103 0.199793 0.0170161 -0.0622139
-0.100122 0.275144 0.122935 -0.06375 0.249978 -0.0445407 -0.0464405
-0.0676684 0.0604773 0.0396541 0.0267625 0.0493655 -0.0174387 -0.0279372
-0.0247501 0.146835 0.00868356 -0.0623646 0.0721257 0.0276604 0.0158196
-0.0513685 0.0997271 -0.0212567 0.0012117 -0.0272948 0.0187874 -0.0240651
0.01637 0.240284 0.108818 0.0379192 0.170894 -0.0179062 0.0427865
-0.104837 0.502714 0.129181 -0.093097 0.314555 0.0110172 0.0115104
-0.0381921 0.0725251 0.068743 0.0318094 0.0102359 0.0704183 -0.0656553
-0.0488448 0.0368897 0.080959 0.0181025 0.0420859 0.0073255 -0.0332332
-0.000428896 0.0767504 0.0252618 0.0260241 -0.00355996 0.0346064 0.0352446
-0.0375892 0.0974591 -0.0264451 -0.0541658 -0.00213726 0.0072213 0.0457884
-0.0766266 0.0860522 0.00525938 -0.0598066 0.0405126 0.0332763 0.0170183
-0.0760474 0.211427 0.059632 -0.0893171 0.252225 0.0284731 -0.0602708
-0.0540539 0.307017 0.11545 -0.0593196 0.321053 -0.0250536 -0.0500621
-0.0415793 0.115708 0.075751 0.0311658 0.194167 -0.0389047 -0.012676
0.0396125 0.253715 0.125404 0.0203382 0.232039 -0.0128526 -0.0432672
-0.0249169 0.10091 0.0233695 0.0377378 0.122579 -0.0299467 0.0372012
0.0665614 0.0732128 -0.0551024 0.0553107 -0.0134212 -0.0604777 -0.0340493
0.0534498 0.149356 0.0732599 -0.0471173 0.0584702 0.0519043 0.055892
-0.0322974 0.253695 0.0216547 -0.00335265 0.135636 -0.0456565 0.0617125
0.00197715 0.015794 0.0186383 -0.0192267 0.0695789 0.0353456 0.0645514
-0.0511655 0.151826 0.0219266 -0.0775809 0.166965 0.0510473 -0.0753683
-0.0761622 0.173524 -0.00591369 0.0470491 0.114781 -0.0419637 -0.0118705
-0.0384716 0.208031 0.108692 -0.0535793 0.191689 -0.00956835 -0.0781771
0.0590223 0.079601 0.0361176 -0.0531639 0.0341037 0.0441009 -0.0148887