177 8
-0.225793 0.390473 0.0163264 -0.503413 0.373215 0.116315 1.1831 -0.822463
-0.875201 0.226475 0.4326 -0.392868 0.372069 0.256344 -0.216534 0.623698
0.272101 0.136706 -0.500636 -1.30482 0.209399 1.32746 -0.299235 0.1212
0.455981 0.735755 0.192711 -1.46025 0.660872 0.197337 -0.828435 -0.377265
0.418755 -0.117599 -0.947742 -1.08154 1.07241 0.902242 -0.51905 0.388508
0.071869 0.0211963 -0.286834 -1.35536 0.276552 1.14648 -0.321125 0.118807
0.373654 0.520144 0.0383914 -1.14059 0.776408 0.16152 -0.780652 -0.352442
0.450114 0.464847 -0.577148 -1.24776 0.655662 0.719051 -0.28616 0.656861
0.436294 0.465232 -0.604036 -1.17078 0.687144 0.53797 -0.336852 0.377903
-0.13358 0.631696 -0.115462 -1.06248 1.03041 0.121671 -1.1925 -1.09594
0.260909 1.01781 -0.993369 -0.870342 0.737196 0.209081 0.0120676 0.939416
0.151682 0.0724197 -0.579432 -1.39384 0.109 0.502688 -0.118106 0.13871
0.0143444 -0.198371 -0.606353 -1.45334 0.450511 0.671719 -0.416381 0.335153
0.512521 0.273413 -0.323044 -1.34152 0.416202 1.02423 -0.180191 0.302384
0.501537 1.20886 0.24508 -1.17604 0.340123 0.319129 -0.723668 -0.541649
-0.15261 1.43855 -0.666822 -0.594307 0.439197 1.1359 -0.680456 -0.683801
0.0669659 0.182773 -0.0760648 -0.434917 0.591889 0.102304 0.770559 -0.566765
0.235028 -0.182571 -0.477884 -1.50493 0.142603 0.852012 -0.0992663 0.106558
0.0179081 0.512668 -0.0594901 -0.853206 0.901735 -0.217313 -0.733916 -0.616301
-0.116421 0.045399 0.0888475 -0.349224 0.350871 0.0883858 0.416483 -0.143747
0.33238 0.169325 0.169854 -0.948917 -0.0434066 1.14919 0.297637 -0.0454355
-0.310292 0.385774 -0.903742 -1.40398 0.237662 0.241159 -0.342127 0.512491
0.301752 0.848244 -0.0919264 -0.933728 0.600848 0.197068 -0.796902 -0.361835
0.0674715 -0.260544 -0.893439 -1.28334 0.546906 0.388887 -0.17623 0.190823
0.0858848 -0.343521 -0.879815 -1.55141 0.514062 0.520252 -0.147463 0.283261
0.181562 0.996213 -0.510161 -0.891778 0.747424 -0.0678071 -0.569886 -0.71683
-0.0573013 -0.497662 0.216691 0.11466 1.214 0.549566 0.289194 -0.182949
-0.31252 0.15896 0.0801536 -0.320803 0.300545 -0.0165705 0.511114 -0.178049
0.267964 0.399408 -0.26999 -0.75432 0.313001 0.489275 0.0305783 -0.113548
0.192632 0.503101 -0.771272 -0.798396 0.377065 0.984864 0.137167 0.322074
0.771446 0.0238257 0.513898 -1.0842 0.610889 0.776983 0.0228076 0.418251
-0.0165992 0.203917 -0.00144659 -0.56125 0.241284 0.237511 0.213984 -0.0832544
0.466194 0.243372 -0.0728908 -1.11114 0.226984 0.802956 -0.00852676 0.229336
0.525881 0.529678 0.283459 -1.16852 0.121738 1.15993 -0.180535 0.0444272
0.281213 0.940287 0.247261 -0.585797 0.460523 0.563711 -0.471303 -0.440739
0.161839 0.255002 -0.0436706 -0.824109 0.180893 0.714138 0.184943 0.520211
-0.261476 0.0197686 0.0656204 -0.252356 0.358646 0.0507501 0.545882 -0.0718535
-0.121075 0.151824 0.109567 -0.326861 0.398011 0.0989151 0.308479 -0.278091
-0.0673198 0.12224 0.0989014 -0.369802 0.356155 0.151361 0.356531 -0.285871
-0.129965 0.0549675 0.0803154 -0.257527 0.290268 0.124991 0.133952 -0.103936
-0.240728 0.113907 0.178967 -0.176279 0.434779 0.0336758 0.53265 -0.260401
0.192553 0.25532 -0.23428 -0.560644 0.594692 0.293094 0.628168 -0.650099
0.012997 0.117195 -0.159919 -0.543047 0.36559 0.303432 0.104581 -0.0827541
0.051376 -0.0381425 -0.0291438 0.000692507 0.0775677 0.0336971 0.0265904 -0.0656251
-0.393834 0.0268208 0.0784756 -0.294101 0.254554 0.157723 0.597075 -0.0666646
-0.0895597 0.04821 -0.00177243 -0.449423 0.29058 0.115437 0.525882 -0.106537
-0.194197 0.0239593 0.00399531 -0.273115 0.457947 0.145297 0.348413 -0.0616978
-0.316705 0.18795 -0.0651344 -0.207852 0.481012 0.0151782 0.241569 -0.183627
-0.354273 0.00428813 0.0423396 -0.199253 0.400244 -0.0298172 0.695263 -0.177534
-0.0387858 -0.0202833 -0.11373 -0.564964 0.316297 0.184084 0.309003 0.0146469
-0.35914 0.197319 0.200868 -0.103573 0.458036 -0.0980382 0.641005 -0.519268
-0.258134 -0.00971561 0.181591 -0.164251 0.412032 -0.00312797 0.754913 -0.258277
-0.210353 0.0893202 0.0345933 -0.362165 0.340127 0.108661 0.329685 -0.181243
-0.239826 -0.0273388 0.0992417 -0.295618 0.314825 0.128151 0.657257 -0.116022
-0.100467 0.361074 0.231281 -0.616111 0.456956 0.0185071 -0.177912 -0.20523
0.400412 0.399898 0.255142 -1.06369 0.29383 0.183906 -0.246313 -0.101314
0.182244 0.131717 0.0156638 -0.778714 0.213923 0.422932 -0.00399017 0.036467
-0.103713 0.158361 0.047339 -0.332985 0.210049 0.0796067 0.147259 -0.0441248
0.0959437 0.107743 -0.0579558 -0.668755 0.365185 0.33059 0.209809 0.046384
-0.199225 0.220929 -0.0665765 -0.212355 0.400916 0.0702119 0.588824 -0.351524
-0.418981 0.094696 0.184064 -0.146056 0.360418 -0.103048 0.676677 -0.332496
-0.369133 0.0400182 0.303851 -0.175756 0.394418 0.033538 0.517666 -0.134856
-0.0117817 0.0779309 -0.00749631 -0.275186 0.126162 0.0767564 0.0270594 -0.0123235
0.122698 0.239585 -0.240137 -0.802704 0.310013 0.678316 0.192451 0.19372
0.146006 0.436692 0.0797191 -0.692322 0.282976 0.275849 -0.272028 -0.288243
-0.123211 0.131532 -0.0759119 -0.331597 0.368001 0.0894755 0.222424 -0.182817
-0.0107362 0.0564195 0.046854 -0.194657 0.156849 0.0709886 -0.00919698 -0.0288739
-0.143564 0.190108 0.068929 -0.30874 0.284264 0.0932702 0.172289 -0.0819432
-0.479103 0.113691 0.245526 -0.131652 0.471484 -0.138321 0.747512 -0.475171
-0.334987 0.0189457 0.13648 -0.247863 0.375682 0.039216 0.532513 -0.162047
-0.425484 0.132439 0.298276 -0.110785 0.401076 -0.0933526 0.693191 -0.420218
0.0143363 0.0660145 -0.0403346 -0.118129 0.132162 0.0978425 -0.0353161 -0.0177505
-0.00251856 0.0515403 -0.0491315 -0.555317 0.304679 0.171013 0.29142 -0.0595751
-0.0128592 0.1704 0.0259172 -0.308171 0.253093 0.196331 0.153401 -0.023047
-0.244327 -0.00104551 0.150174 -0.262984 0.410973 0.0310423 0.767797 -0.251433
-0.214434 0.0347861 0.105116 -0.294004 0.352372 0.0852056 0.625405 -0.166012
-0.138284 0.0550814 0.10061 -0.352733 0.340772 0.0982216 0.423651 -0.121507
-0.0517687 0.0576436 0.0306867 -0.0955775 0.0630286 0.0588915 -0.004014 -0.0486084
0.0232356 0.0143062 0.0515163 -0.0812894 0.00310479 -0.0480071 0.0737316 0.00815996
-0.158586 0.163865 0.0763603 -0.304236 0.303575 0.0768154 0.103096 -0.13193
-0.10436 0.149486 0.126711 -0.312505 0.292132 0.0619361 0.177027 -0.0609544
0.0139112 0.130703 0.0425916 -0.157869 0.102324 0.0350795 0.0779474 -0.0250467
-0.673748 0.234228 0.293487 -0.0263106 0.512916 -0.221436 0.802804 -0.685947
-0.288493 -0.127012 0.0891086 -0.255429 0.304643 0.0524211 0.758632 -0.137945
-0.163614 0.14899 0.0348615 -0.291037 0.287619 0.00556579 0.17895 -0.208687
-0.150273 0.0266193 -0.0616006 -0.43745 0.339494 0.20963 0.389157 -0.0592816
-0.300609 0.17938 0.208906 -0.172386 0.400713 0.00920116 0.337656 -0.190895
-0.240251 0.21114 -0.179274 -0.353923 0.511671 -0.039496 0.000997151 -0.218306
-0.118413 0.157668 0.110241 -0.385842 0.303547 0.106386 0.229472 -0.121241
-0.209433 0.0368267 -0.0397238 -0.370979 0.324779 0.184598 0.65485 -0.0499506
-0.155034 0.137076 0.0782196 -0.285043 0.288452 0.0511558 0.192 -0.113081
0.00838196 0.135088 0.014501 -0.260277 0.200809 0.0377396 0.0598658 -0.117342
-0.0581727 0.0436502 -0.0554749 -0.292673 0.203131 0.165782 0.0191986 -0.0287185
-0.03559 0.0991188 -0.0278393 -0.0944255 0.0768693 0.078817 0.014855 -0.0795721
-0.233023 0.316224 0.183545 -0.382229 0.476385 0.0546829 0.136837 -0.125414
-0.152103 0.155625 0.073599 -0.425572 0.274392 0.146169 0.1291 -0.113065
-0.0478332 0.13204 0.0612748 -0.158298 0.0397512 -0.00937358 0.0180924 -0.103459
-0.189233 0.19313 0.0383524 -0.322566 0.368686 0.0584941 0.332717 -0.210127
-0.0915974 0.155338 -0.0330905 -0.441859 0.344657 0.248678 0.221195 -0.0797414
0.0106213 0.0870598 -0.000117534 -0.087182 0.0386391 0.0856679 -0.0272426 -0.0408293
-0.0309955 -0.0308372 0.00417249 -0.104291 0.0862711 -0.0152973 0.0892397 0.00411831
-0.182059 0.11568 0.0715113 -0.389859 0.270893 0.167381 0.187843 -0.151222
-0.098741 0.1015 0.0184285 -0.271431 0.22702 0.132879 0.144272 -0.0538042
0.0601133 0.0683114 -0.0326439 -0.301037 0.220804 0.108114 -0.0128002 0.0423023
-0.177938 0.111241 0.135667 -0.384043 0.34235 0.0583295 0.175165 -0.107239
-0.104393 0.0997087 0.0597335 -0.176069 0.209392 0.0606026 0.15299 0.00149365
-0.119043 0.0696262 0.0166812 -0.180737 0.182806 0.143905 0.148683 -0.0873451
-0.0395765 0.0154484 0.0773766 -0.106995 0.117415 0.0182437 0.14274 -0.0746506
-0.0965484 0.163563 0.0494936 -0.330725 0.208766 0.208701 0.0669645 0.00830221
0.0108245 0.00578956 -0.00980837 -0.0139488 0.0491619 0.069411 0.0568978 -0.0388768
-0.00628727 0.0174362 -0.0165721 -0.0858756 0.0667638 0.0431105 -0.0557236 -0.0249963
-0.138802 0.0618517 -0.0248539 -0.113704 0.0835723 -0.00454107 0.0666206 -0.0672595
-0.0639513 0.174474 -0.00321407 -0.227549 0.293248 0.0652538 0.19649 -0.114226
-0.027541 0.125863 -0.000593729 -0.289384 0.225509 0.144646 0.103091 -0.0944949
0.0209013 0.0127101 0.0497111 -0.0895753 0.0778855 0.0423278 0.0629223 -0.0470961
-0.0125797 0.0375449 -0.0391755 -0.146487 0.104484 0.0552902 -0.0246039 -0.00523746
-0.0562826 0.0660511 0.0202759 -0.258612 0.243428 0.0578416 0.0223219 -0.00682916
-0.224814 0.130367 0.147295 -0.250885 0.398834 0.025449 0.483528 -0.109154
-0.0546005 0.0121036 0.00413996 -0.210734 0.10042 0.0254783 0.0452323 -0.0219756
-0.0123883 -0.0244096 -0.0316636 -0.0512448 0.0477758 0.0684322 0.0752736 -0.0182538
-0.196154 0.126519 0.0734247 -0.275939 0.29624 0.0291029 0.227806 -0.197681
-0.134189 0.0721728 -0.0240592 -0.197222 0.215748 0.0208666 0.18531 -0.1288
-0.0527253 0.117119 -0.0294254 -0.198173 0.0834042 0.0405993 0.0104147 -0.085301
-0.0416028 0.0151202 0.0380816 -0.145565 0.0790192 0.00497451 -0.0132579 -0.0703497
-0.140091 0.29157 -0.138287 -0.531328 0.419032 0.0781124 -0.123416 -0.103392
-0.094032 0.068678 0.03681 -0.0687741 0.0667911 -0.0282999 0.0731783 0.00620904
0.00427301 -0.00934397 0.0395369 -0.192212 0.1486 0.108162 0.0516543 -0.0376292
-0.0314831 0.0352326 0.00191702 -0.102132 0.0217943 0.0203445 -0.0129105 -0.024668
0.00444865 0.0758158 0.0247732 -0.155616 0.111811 0.0764344 -0.0211248 -0.00298671
0.0697778 -0.027746 0.0165134 -0.0727025 0.0599019 0.0598009 0.0130827 -0.07841
-0.00801551 -0.0280897 -0.00518769 -0.0665173 0.0281196 0.0165401 0.032955 0.0167043
-0.0345851 0.0285061 -0.0637815 -0.0451677 0.0499299 0.0632105 0.0279735 -0.0469135
-0.0171168 0.0688191 -0.0702902 -0.297022 0.165493 0.183579 0.079784 -0.0727151
-0.151491 0.0840338 -0.0372146 -0.308439 0.219335 0.0436357 0.302055 -0.160226
0.0531756 0.0714987 0.0170205 -0.0673388 0.0304042 0.0824983 0.0410054 -0.0361734
-0.0478405 0.0914853 -0.0549041 -0.163271 0.0901856 0.0650004 -0.0118387 -0.0448161
-0.0695782 0.0346864 0.0389159 -0.0808692 -0.00646105 -0.00789308 -0.0355943 0.0110337
-0.0570476 0.0669152 -0.0220693 -0.0887468 0.107949 -0.0146282 -0.020051 -0.0444717
-0.0152698 0.0722316 0.0667135 -0.0528894 0.018034 0.03213 0.0478701 -0.0593788
-0.0543372 -0.00060928 -0.060309 -0.0196303 0.0103613 0.0421519 -0.0507082 -0.0382293
0.00466136 0.0564128 0.0412243 -0.0604649 -0.0339362 0.0457963 -0.0342927 -0.0402043
-0.0555436 0.0472185 0.0556867 -0.0870065 0.0195114 0.0595984 0.0236557 -0.0608026
-0.0586258 0.0512281 -0.0271796 -0.133912 0.0975993 0.00950278 0.0302665 -0.0644465
-0.00773963 0.0386731 0.0143727 -0.10618 0.106565 0.00666567 0.0862027 0.0210486
-0.0768638 0.140005 -0.0540779 -0.206231 0.197865 0.0791692 0.143302 -0.0811629
-0.100689 0.121261 0.0131079 -0.117851 0.0763582 0.0105895 0.0117277 -0.0532346
0.0481467 0.0555879 -0.00387593 -0.219352 0.148214 0.061958 0.0441946 -0.107308
-0.0365298 0.0424744 -0.0733978 -0.121473 0.0398771 0.0818675 -0.0406069 -0.0378715
-0.0573187 0.112422 0.0560888 -0.277887 0.227417 0.0823976 0.0235521 -0.0134437
-0.10092 0.0731365 0.0440606 -0.0827884 0.130865 0.0758187 0.0942503 -0.0778024
0.00517936 0.0217384 -0.0256034 -0.00881524 0.0627653 0.00948639 0.0368545 -0.0557016
-0.0187134 0.0213221 0.0650964 -0.126548 0.114204 0.104714 0.0167854 0.0477568
-0.0489786 0.0860524 0.0416394 -0.161505 0.132362 0.0195216 0.125383 -0.0099207
0.0369351 -0.0221093 -0.00177472 -0.0370958 0.073595 0.0824626 0.0354473 0.0318938
-0.0709949 0.00928017 -0.0418531 -0.0190835 0.0694852 0.0518011 0.0286362 0.00857295
0.00956886 0.0705039 -0.0681773 -0.118628 0.0273382 0.0531793 0.0496594 -0.0142853
-0.0204137 0.00547058 -0.0150929 -0.0912671 0.0853555 0.00722542 0.058364 0.0269429
-0.0700286 -0.0232949 0.0349319 -0.0052861 0.0023436 -0.0313251 0.0640106 -0.04135
0.00207786 0.0266131 0.012627 -0.0197168 0.0348929 0.0596618 -0.033496 -0.0207761
-0.0287918 0.0815065 0.0186594 -0.0929498 -0.00253738 -0.00756063 0.0669448 0.0257396
-0.0305282 -0.0470234 0.0116688 -0.034394 0.00403779 -0.0594541 0.0675438 -0.0600043
0.0145484 0.072306 0.0488704 -0.0564881 0.0855052 -0.0255703 0.0864331 -0.0578023
-0.0677428 0.0443889 0.0619878 -0.0344509 0.0980651 0.00826558 0.0830667 -0.111417
-0.0701258 0.0620573 0.0129735 -0.106356 0.096195 -0.00370121 -0.00845262 -0.016051
-0.0159834 0.0744912 -0.0155306 -0.155844 0.129771 0.0458544 0.134981 -0.103394
-0.0782527 0.0879993 -0.0531571 -0.043129 0.103225 -0.0107527 0.0865579 -0.106981
-0.022676 0.0803064 -0.0391155 -0.169845 0.162101 0.0614796 0.101473 -0.0913412
-0.0300665 -0.0176351 0.0418207 -0.00344087 0.0745134 0.0482236 -0.0335361 -0.0389051
-0.0400557 0.134294 0.0615738 -0.214472 0.193324 0.0681893 0.1238 -0.11059
-0.000144506 -0.00474555 -0.0555812 -0.0600267 0.0712995 -0.00996064 0.0553872 -0.00605487
-0.0643754 -0.0184871 -0.0389587 0.0134827 0.0423742 0.004448 0.0300964 0.0172808
-0.0462783 0.0507318 -0.0398151 -0.0258531 0.106298 -0.0331235 0.058027 -0.0706634
-0.023371 0.0515192 -0.00967636 -0.0398491 0.0469369 -0.0290468 -0.00301492 -0.0635291
-0.033959 0.0541592 0.0360545 -0.0802063 0.0654113 -0.00917842 -0.00409727 0.0345407
-0.0522572 0.0367903 -0.0200424 0.0233234 0.0267316 0.0375114 -0.00182305 -0.0606456
-0.0675068 0.073391 -0.0360065 -0.0280775 0.0205823 0.0659983 0.0371954 -0.0566641
-0.0456544 0.00178875 0.00979795 -0.0882804 0.0269632 0.02551 0.0756886 -0.00658454