108 7 2
0.159285 0.0276164 -0.0854401 0.0850929 -0.201637 0.235286 -0.0559254
0.409232 0.0362661 -0.275122 -0.0259871 -0.392362 0.390813 -0.168161
0.296031 0.0913124 -0.207947 0.0784806 -0.368944 0.371814 -0.117259
0.297308 0.0809934 -0.133702 0.0833424 -0.418279 0.472121 -0.0927261
0.29585 0.0900353 -0.180527 0.115777 -0.333813 0.301528 -0.102748
0.25056 0.132746 -0.217488 -0.00558393 -0.455029 0.402452 -0.0670178
0.271938 0.0865237 -0.157671 0.121021 -0.29393 0.378317 -0.166343
0.19477 0.0162829 -0.151545 0.0380865 -0.320622 0.213975 -0.0462104
0.116472 0.0491003 -0.123787 0.0667157 -0.121149 0.152798 -0.0955225
0.327964 0.11087 -0.105791 0.108732 -0.405382 0.349627 -0.150974
0.337527 0.104016 -0.13896 0.0362328 -0.328349 0.439975 -0.154271
0.222189 0.16612 -0.239819 0.104562 -0.447897 0.413249 -0.0931138
0.270665 0.0639776 -0.172005 0.00608518 -0.425284 0.414625 -0.073789
0.328264 0.150833 -0.146619 0.0832199 -0.472452 0.351018 -0.19901
0.267571 0.0214939 -0.116057 0.118488 -0.46673 0.412528 -0.130301
0.34792 0.0965209 -0.188139 0.00871538 -0.35018 0.352458 -0.158692
0.272488 0.0659908 -0.168684 0.0908141 -0.464822 0.399254 -0.0979937
0.364862 0.0370375 -0.237883 0.0170666 -0.365632 0.408425 -0.105325
0.246069 0.154609 -0.197914 0.127243 -0.441929 0.426116 -0.139886
0.158835 0.0169202 -0.105912 0.0543254 -0.198578 0.184071 -0.0734204
0.0276614 0.0849948 -0.097892 0.0344483 -0.079402 0.0945102 0.0400655
0.131044 -0.0124341 -0.0241492 -0.0186208 -0.16937 0.125644 -0.104895
0.161704 0.0560189 -0.0348746 0.0647847 -0.0795677 0.169995 -0.0372364
0.263466 0.0349918 -0.190339 0.118547 -0.323857 0.222846 -0.120301
0.145962 0.0819935 -0.064507 0.0785374 -0.170034 0.189057 -0.0186225
0.246712 0.126027 -0.199713 0.0783302 -0.355152 0.344739 -0.0539213
0.0973319 0.0771155 -0.1605 0.0560006 -0.144211 0.156367 -0.129478
0.2687 0.0656958 -0.107986 0.0873947 -0.42278 0.370345 -0.0418151
0.132482 0.0750862 -0.0425217 0.000985978 -0.180997 0.281442 -0.122343
0.261021 0.0592679 -0.148405 0.12739 -0.403523 0.271409 -0.160831
0.239159 0.0106067 -0.0903392 0.0308121 -0.394139 0.370679 -0.082792
0.12877 0.101301 -0.122091 0.0722772 -0.123486 0.140274 -0.0297956
0.299428 0.065189 -0.191834 0.0792781 -0.324813 0.225695 -0.0375492
0.264526 0.0462224 -0.124508 0.10752 -0.434352 0.355361 -0.0497559
0.108589 0.0119876 -0.0939502 -0.0470367 -0.134802 0.1322 -0.0034736
0.0956122 -0.0138619 -0.110238 -0.0282356 -0.123026 0.172865 -0.0359365
0.166101 -0.0159092 -0.138817 0.109867 -0.208956 0.252583 -0.110522
0.0354614 -0.0413026 -0.0948939 0.0251557 -0.0779232 0.139065 -0.053227
0.0801266 0.0429058 -0.0247208 0.0805132 -0.0154658 0.0783618 -0.05527
0.168967 0.0983782 -0.0170648 0.000192885 -0.183871 0.0783308 0.00478839
0.121128 0.0409076 -0.0104433 0.0797032 -0.222114 0.141745 -0.0330497
0.0775595 0.0226854 -0.0421682 0.0785938 -0.0735129 0.0622754 -0.0752373
0.0174495 0.0510369 -0.0921022 -0.0374615 -0.0887302 0.118129 0.0234876
0.0188203 0.0086499 0.04901 -0.00546524 -0.0671324 0.0700554 0.0624936
0.242989 0.0354763 -0.138923 0.0284284 -0.353373 0.3944 -0.0963022
0.0676023 0.0402999 -0.0507271 -0.00104733 -0.0914877 0.000182246 -0.0856656
0.0754492 0.0658059 -0.0301384 0.0659886 -0.108092 0.147787 -0.0598399
0.183315 0.0167283 -0.168286 0.0585571 -0.220025 0.274854 -0.0154688
0.103845 0.0397356 -0.0425746 -0.0429669 -0.111987 0.00691574 -0.0394879
0.158568 0.0790967 -0.0153676 0.083751 -0.112354 0.216477 -0.0596331
0.0844467 0.0395998 -0.124165 0.0392188 -0.159592 0.216427 -0.0464054
0.00303903 -0.066865 -0.000886252 0.0486831 0.00926491 0.000952277 -0.00750983
0.0947824 0.0387666 -0.0415421 -0.0389267 -0.0820534 0.0954525 -0.0507915
0.14864 0.0195684 -0.117551 0.00244846 -0.115729 0.0496455 -0.0755256
0.00473788 0.0235871 -0.0728013 -0.000694201 0.0146355 0.00854758 0.0296456
0.0666103 0.035275 -0.0999765 0.00567837 -0.101971 0.122837 -0.0773834
0.0706708 -0.000234425 -0.0622106 -0.00302328 -0.114574 -0.0115405 0.00986593
0.0946141 0.0285377 -0.0585197 0.0496457 -0.0203427 0.0575911 -0.0201429
0.0903547 0.0463593 -0.029109 0.0164352 -0.0554194 0.0824374 -0.07067
0.10044 0.0166318 -0.0108623 -0.0401062 -0.135282 0.146375 0.0237903
0.0391345 0.0569606 -0.0522333 0.0192256 -0.138565 0.0548582 -0.0726668
0.160156 0.0208509 -0.0421113 0.0584404 -0.0909716 0.1912 -4.65735e-05
0.0121298 0.0600394 -0.0356782 0.0119988 -0.000348583 0.0902433 0.0476575
0.0540305 -0.0270771 -0.0371741 0.0746875 -0.083654 -0.00073399 -0.0144821
-0.0126808 0.0523795 -0.0174348 0.0714964 -0.0269461 0.0518298 -0.0192977
0.123955 -0.00776011 -0.037862 -0.00757018 -0.165156 0.0753964 0.0330022
0.0234204 0.0561468 0.0213762 -0.0393644 -0.0972137 0.102615 -0.0243333
-0.00257262 0.056641 0.0240992 0.00551787 -0.11449 0.00592226 0.0234742
0.068415 0.0185211 0.0336491 0.0241469 -0.0709581 0.0676966 0.053391
0.135684 0.0411007 -0.0828931 -0.0373636 -0.0521365 0.112425 -0.0503346
0.0980151 0.0348346 -0.0749511 -0.00059867 -0.076345 0.109786 -0.0955506
0.0773863 0.0288265 -0.0743149 0.0445595 0.00637928 -0.00133106 0.0554722
0.0435852 0.0545484 -0.0667256 0.0610498 -0.106292 -0.0112271 -0.0497735
0.0281821 -0.0444611 0.0170513 0.0910644 -0.12148 0.149072 -0.0024318
0.141517 -0.00384129 -0.0568398 0.0798931 -0.0915608 0.0955805 -0.0164973
0.114961 -0.00810656 -0.106337 0.0838293 -0.0289319 0.00467673 -0.0323685
0.206971 -0.000565063 -0.142086 0.0962688 -0.318486 0.174717 -0.118239
4.8622e-06 0.0359176 -0.0864036 0.0389227 0.0170825 0.0725915 -0.0159263
0.0648638 -0.0432885 0.0212075 -0.0412549 -0.100516 0.0760448 0.0396519
0.0713156 -0.028609 -0.0585008 0.0537463 -0.0752825 0.0776252 -0.0135271
0.00686831 0.0466816 -0.0210214 -0.059697 -0.107862 0.0498246 -0.0558368
0.187319 0.0327085 -0.120627 0.0606846 -0.266671 0.13323 -0.0541603
-0.0245812 -0.0637902 -0.0414078 -0.0567166 0.0507976 0.0569816 0.0369453
0.143717 0.0271708 -0.149808 0.0782586 -0.175895 0.163162 0.00019812
0.159062 0.022902 -0.105889 0.067799 -0.195926 0.166203 -0.00388069
0.0809153 -0.0345786 -0.0415815 -0.0221074 -0.106639 0.049103 -0.0737032
0.0380335 0.0686643 0.0476855 -0.0506342 -0.0811086 -0.0236002 -0.0618606
0.0223323 -0.0086566 -0.0241239 -0.0484785 -0.0698649 0.07894 0.0124156
0.139664 -0.0300293 -0.0301773 -0.0452234 -0.0708118 0.0400712 -0.00289141
0.114067 0.00987139 -0.0349825 0.0455497 -0.0410061 0.0842939 -0.0685833
-0.0130655 0.0457182 0.0297158 0.0631843 -0.100732 0.0375305 -0.0813282
0.0382446 -0.00208661 -0.0583588 0.0632032 -0.0812265 0.0488891 -0.0582752
0.0251745 0.0707261 0.0294168 0.0340608 -0.0742761 0.0459816 -0.0275339
0.070243 0.00490384 -0.0094382 -0.0179547 -0.0223343 0.123623 0.0252012
0.0709663 -0.00211233 0.00401313 -0.0518773 0.0161097 0.0223016 0.0572003
-0.027206 0.069837 0.0148419 0.0749035 0.0281474 0.0489508 0.0380202
-0.000183481 -0.0135193 -0.0225808 0.0335915 -0.0480161 0.0781514 0.0360903
0.0729612 -0.00638059 -0.00793849 0.0606481 -0.0740467 -0.0184905 -0.0793896
0.0112463 -0.0226705 -0.045412 -0.0465298 -0.000691283 0.066753 -0.0138573
0.0959814 -0.0146261 -0.0480866 0.0697253 -0.0216271 -0.0124761 0.00217338
0.0809266 0.00253555 -0.0449737 -0.0238791 0.0204814 0.0301669 0.0503706
0.0559474 0.064703 -0.0319829 0.00956133 -0.06867 0.041237 -0.0307583
0.0336817 0.0181938 -0.0018105 -0.0096467 -0.139485 0.11375 0.0243921
-0.0161705 -0.0468375 0.0163211 -0.0353797 -0.0782095 -0.00889222 0.0183987
0.0489006 -0.0360373 0.0493898 -0.062585 -0.0413571 0.0180168 -0.0593697
-0.0144832 0.0155429 0.031675 -0.0187023 0.0488497 0.0030366 0.0630885
0.06795 -0.0104147 -0.0393599 -0.0364319 0.000954194 0.0584831 0.00769803
-0.0334087 0.0673823 0.00278461 0.0136877 -0.0419809 -0.0561815 0.0518059