103 7 2
0.127249 -0.0301621 -0.0878421 0.0871085 0.121059 -0.0512797 0.0325735
0.553465 0.18579 -0.202568 0.230279 0.273853 -0.215426 0.00902685
0.499294 0.0579973 -0.151264 0.213122 0.20032 -0.28825 -0.122768
0.464096 0.161245 -0.171428 0.213625 0.300306 -0.172779 -0.0875647
0.537223 0.165737 -0.203598 0.243189 0.174546 -0.259245 -0.0297973
0.498301 0.135113 -0.139729 0.280992 0.31502 -0.263185 -0.0508729
0.423191 0.152663 -0.0645272 0.153542 0.239747 -0.221546 -0.0771384
0.489657 0.123277 -0.170018 0.236613 0.389803 -0.227266 -0.14868
0.476574 0.0805031 -0.172812 0.199134 0.166156 -0.124118 -0.137162
0.518675 0.183965 -0.138972 0.27982 0.258514 -0.180914 -0.147494
0.397394 0.103985 -0.140068 0.17949 0.206847 -0.191675 -0.116978
0.441822 0.0313413 -0.142098 0.207828 0.29079 -0.25361 -0.0937767
0.474319 0.103335 -0.210912 0.205551 0.246689 -0.186357 -0.0657032
0.165556 -0.0452461 -0.0776136 0.0801445 0.0711175 -0.0569381 -0.0406412
0.35816 0.131979 -0.161924 0.217378 0.148599 -0.126428 -0.111609
0.065463 -0.0618504 -0.0391394 0.0401831 -0.00287617 0.0070229 -0.054116
0.499937 0.0486328 -0.167688 0.279108 0.242328 -0.272343 -0.0571794
0.398402 0.113056 -0.190391 0.145776 0.257749 -0.16032 -0.12632
0.0735238 -0.0118456 -0.0191975 0.0811408 0.0613058 -0.059126 -0.0615225
0.415938 0.090421 -0.200388 0.235141 0.182528 -0.194392 -0.141833
0.536971 0.0892666 -0.120995 0.203422 0.329192 -0.268951 -0.0133057
0.346011 0.0470933 -0.0681453 0.116297 0.0750314 -0.167484 -0.0367097
0.0167899 0.0167156 0.0367449 0.0895212 -0.0305911 0.00991719 -0.0454727
0.566805 0.0986768 -0.159528 0.265761 0.24007 -0.160829 -0.135383
0.44082 0.167895 -0.114241 0.239494 0.232065 -0.148485 -0.0964884
0.496066 0.0533925 -0.194442 0.216588 0.236999 -0.220862 -0.151813
0.536617 0.0475983 -0.2402 0.311769 0.189576 -0.161083 -0.0682013
0.438018 0.0725999 -0.135396 0.262199 0.175581 -0.212953 -0.00290446
0.189768 0.0429593 -0.0689046 0.0804804 0.0871411 -0.0114686 -0.0850547
0.304046 0.108728 -0.0473053 0.120232 0.128227 -0.19006 -0.120204
0.458586 0.0638531 -0.223554 0.282084 0.257348 -0.260279 -0.040774
0.246964 0.00643858 -0.0772967 0.0962646 0.0647173 -0.0740256 -0.0955908
0.286164 0.104687 -0.11796 0.159402 0.157472 -0.0746395 -0.0621408
0.230769 0.0869166 -0.0146812 0.133019 0.0883674 -0.0231658 -0.0623608
0.0675357 0.0540802 -0.0675597 0.102069 0.066725 -0.0370765 0.0187174
0.0763683 -0.00172844 -0.0438893 -0.0271884 0.0538148 0.0103616 -0.0461725
0.375477 0.13068 -0.15018 0.261672 0.268347 -0.142903 -0.0529162
0.195684 0.0871588 -0.0791533 0.113876 0.0735891 -0.0383138 -0.0511201
0.0157433 -0.000323694 -0.0674176 0.072213 0.0211723 0.00499906 0.0430736
0.151858 0.0563747 -0.0144729 0.140062 0.0365509 -0.122747 -0.0432347
-0.0286827 -0.0583079 -0.0197011 -0.0203283 -0.031261 -0.00905885 -0.0210475
0.0674264 0.0286118 0.047553 0.0245314 0.0293512 0.0114676 0.0206597
0.138899 0.0910562 -0.104391 0.109571 0.120084 -0.0275356 0.0162971
0.278097 0.113714 -0.102768 0.173913 0.141885 -0.124271 0.00860541
0.290369 0.00461756 -0.130447 0.152483 0.190651 -0.125314 -0.0432442
0.210143 0.0481159 -0.109638 0.173313 0.0646675 -0.0434287 -0.0665857
0.218652 0.0828427 -0.0505492 0.137587 0.197946 -0.151613 -0.0131279
0.218226 0.00445418 -0.0836576 0.1085 0.157474 -0.00618405 -0.0271588
0.109539 -0.00633208 -0.0553689 0.0595497 0.0944563 -0.0916003 0.0570979
0.0407273 -0.0366005 -0.076303 0.0778216 0.00482409 -0.0705339 -0.06555
0.0714494 0.0668868 -0.00368853 0.133038 0.121642 -0.0954576 -0.0285693
0.14117 0.00524962 -0.110524 0.0479676 0.154147 -0.0648531 -0.0823779
0.091769 0.0616686 0.0167981 0.00792063 0.0530362 -0.0247079 -0.0264644
0.225916 0.0739937 -0.0527822 0.0454211 0.0537603 -0.0848637 -0.00951457
0.185142 0.0249427 -0.110459 0.0787622 0.0431025 -0.0984112 -0.0684362
0.173478 0.0770002 -0.0824351 0.0614347 0.113999 -0.115986 0.0311709
0.214492 0.0991548 -0.147441 0.106046 0.159411 -0.150563 -0.0914027
0.0128998 -0.0251552 -0.0524838 0.0212951 0.00428112 -0.0706571 -0.0562723
0.164294 0.086072 -0.105955 0.105005 0.0743295 0.013106 -0.0834852
-0.00744137 0.055463 0.0245421 -0.0404901 -0.0201843 0.00770544 0.0277474
0.226294 0.101507 -0.110328 0.10262 0.082969 -0.0839233 0.0410765
0.0450613 -0.052058 0.00754762 -0.0196148 0.0271741 0.0372252 0.0544293
0.0166396 -0.0631289 -0.0705429 0.027719 0.0650482 0.0432332 -0.0719879
0.0780279 0.0208222 -0.0730902 0.0292682 0.0376139 -0.0828977 -0.0742982
0.171765 0.00876054 -0.118687 0.164587 0.043767 -0.0685154 0.0252792
0.202623 -0.0304396 -0.0337993 0.0555879 0.0589402 -0.042586 -0.009676
0.0763196 0.0169965 -0.0207282 0.0253306 0.0618981 -0.0140944 0.00302824
0.146175 0.0101506 -0.113732 0.00715284 0.124855 -0.102205 0.0100254
-0.00925462 -0.0540241 -0.0643929 -0.0425066 0.0351343 0.0146182 0.0400535
0.0347096 0.00195766 -0.0898396 0.0890688 0.0730998 -0.00219062 -0.0598162
0.191818 0.0334076 -0.0918179 0.168006 0.0657492 -0.119947 -0.0657499
0.304793 0.00154985 -0.117095 0.126363 0.149824 -0.0680434 -0.0705993
0.0570549 -0.00544162 -0.0650447 0.0475689 0.085151 -0.034981 0.0573495
0.0873778 0.057355 0.0301038 0.0207788 0.0256199 0.0285953 -0.0730568
0.178932 0.00130751 0.00869931 0.101902 0.129723 -0.140227 -0.0379109
0.000251069 -0.00357798 -0.0802521 -0.0421235 0.0567445 -0.0698457 -0.00303548
0.063984 4.18818e-05 0.00445029 0.0450456 0.0342545 -0.050215 -0.0352761
0.079342 0.0916774 -0.0979337 0.0738273 -0.00565158 -0.0403866 -0.0168815
0.141432 0.0947649 -0.118858 0.0719166 0.0171381 -0.0349797 0.0309995
0.142509 0.0288377 -0.110981 0.0221559 0.00802185 -0.0229827 0.037754
0.05847 0.0342922 -0.0235247 -0.0136663 0.0415588 0.0259572 0.0556522
0.115723 0.0264197 -0.0766187 0.00933477 0.0373844 -0.0810996 -0.0594061
0.0213261 0.0289682 0.00616363 -0.0653137 0.071697 -0.0660944 0.0385433
0.0543671 0.0898425 -0.0109294 0.10517 0.0236299 0.00252714 -0.0492983
0.246765 0.0842933 -0.135003 0.196211 0.0997569 -0.194582 -0.0909364
-0.0348866 0.0653754 -0.00622052 -0.00830945 -0.0244286 -0.000576303 0.063894
0.074353 0.0353831 -0.0444434 0.0785355 0.0116537 -0.0338068 -0.0546304
0.04494 -0.0657277 -0.00561666 8.23895e-06 -0.00825492 -0.0379126 -0.0708185
0.0360238 0.0666032 -0.0672974 0.0533291 -0.0424229 0.0308918 0.015234
0.0262887 0.0562273 0.051919 0.0752155 0.0502505 -0.0720668 0.0236628
0.184231 0.0514025 -0.113631 0.0289837 0.0714715 -0.0592402 -0.0761802
0.170947 0.0313611 -0.0563974 0.149854 0.138355 -0.113003 -0.0806624
0.0325745 0.0249332 -0.030404 0.0524199 0.0167744 -0.0732408 0.0283334
0.106634 0.0524682 -0.0255956 0.0765692 0.0864505 -0.0278876 -0.000788909
0.0933174 0.0275535 0.0347247 -0.0342637 0.0695699 -0.0446976 -0.0401634
0.0628869 0.0254974 0.0109277 0.0212412 0.00137969 0.0255177 -0.0439862
-0.0134715 0.00143869 0.0419506 0.0503436 -0.0230635 -0.00246287 -0.0469632
0.0319102 0.0685316 0.00480312 -0.00293334 0.101883 0.0305645 0.0353201
-0.0176435 0.0348833 0.0511612 0.040328 0.0271051 -0.00343817 0.0197904
0.119656 0.0857972 0.00835123 -0.0121923 0.0740406 -0.0924938 0.0256917
0.0559389 0.0504652 -0.0518899 0.0870364 0.0847172 0.0179864 0.0490347
-0.00863719 0.00807094 -0.0197793 0.0469403 0.0722955 -0.058672 0.0242708
-0.0327124 -0.0298818 0.00573868 -0.0289276 -0.0473501 -0.0043079 0.00358791