103 7
-0.0443559 -0.0621332 0.0895071 -0.0515433 -0.0137617 -0.0887837 -0.280956
-0.320226 -0.093604 0.0889257 -0.405878 0.323589 -0.0612227 -0.628256
-0.0603315 -0.240113 0.133688 -0.35349 0.0576471 -0.20798 -0.653182
-0.144238 -0.264256 0.0370254 -0.283598 0.0363517 -0.281087 -0.574535
-0.0567989 -0.320929 0.0665613 -0.303089 -0.0331396 -0.267681 -0.65758
-0.236018 -0.242884 0.157426 -0.318075 0.205668 -0.106348 -0.647124
-0.139692 -0.193312 0.00229617 -0.358643 -0.0190509 -0.227086 -0.618603
-0.0209741 -0.399199 -0.243176 -0.16878 -0.385457 -0.668017 -0.483824
-0.069806 -0.16471 0.00454413 -0.349818 0.0238765 -0.10461 -0.602483
-0.0449188 -0.193191 0.0382344 -0.328691 -0.120996 -0.165298 -0.67354
-0.106117 -0.22873 0.011453 -0.370696 0.0529643 -0.136469 -0.61612
-0.140448 -0.239446 0.103575 -0.401978 -0.044475 -0.220913 -0.579998
-0.0290388 -0.269321 0.0743686 -0.366192 0.0034899 -0.147683 -0.584972
-0.00382703 -0.107017 -0.0181883 -0.106751 0.0368134 -0.154636 -0.307514
-0.100838 -0.249674 0.0621179 -0.350275 -0.0232626 -0.126453 -0.549136
-0.0482874 0.0162842 -0.0624578 0.0272771 0.0656017 0.0540746 -0.105356
-0.181756 -0.308741 0.154954 -0.348513 0.016492 -0.117438 -0.61761
-0.0770259 -0.241344 0.0426078 -0.33245 -0.0232213 -0.218824 -0.587509
-0.0268718 -0.0768419 0.0490363 -0.187212 -0.0386332 -0.0228554 -0.296101
-0.0642268 -0.227049 0.0226718 -0.331958 -0.0314908 -0.216812 -0.58322
-0.132778 -0.250011 0.181339 -0.345479 0.201425 -0.23269 -0.588609
-0.150895 -0.153297 0.101246 -0.294463 0.0618651 -0.0437509 -0.561843
0.0412394 -0.0155703 0.0534046 -0.0188852 0.0665592 -0.0833686 -0.17805
-0.207043 -0.154414 0.146654 -0.410173 0.226707 -0.13081 -0.599041
-0.171154 -0.176376 0.0779339 -0.324678 0.0470347 -0.165608 -0.580798
-0.0680178 -0.25538 0.0107698 -0.391558 0.0186658 -0.181993 -0.588942
-0.075007 -0.276938 0.152602 -0.347125 0.0567495 -0.175155 -0.609971
-0.0694226 -0.231571 0.00582892 -0.351693 0.094568 -0.110731 -0.572959
-0.0474215 -0.141434 0.0455144 -0.18285 -0.0564912 -0.105461 -0.304977
-0.144814 -0.171359 0.0818895 -0.270661 0.0454039 -0.176589 -0.516461
-0.0241403 -0.231959 0.0939768 -0.269527 -0.0968987 -0.293853 -0.639027
-0.0884361 -0.0909591 0.0203483 -0.241455 -0.0023016 -0.0426018 -0.398716
-0.13697 -0.173362 0.0282409 -0.312876 -0.0238756 -0.0811748 -0.502748
-0.0669481 -0.14371 0.00124163 -0.183299 0.0388766 -0.071155 -0.368953
-0.0526135 -0.0409087 0.0608818 -0.200721 -0.0540148 -0.0570549 -0.210594
-0.0762387 -0.0158973 0.0100558 -0.0683752 -0.0303038 -0.00652959 -0.197198
-0.0601626 -0.252967 0.0214533 -0.282598 0.0587763 -0.175525 -0.594016
-0.0153468 -0.191864 0.045474 -0.238108 0.0764593 -0.0464617 -0.385383
-0.046397 -0.0213618 -0.0532335 -0.0164985 -0.0202197 -0.100272 -0.053288
-0.0545499 -0.172897 0.0890982 -0.204268 0.0324987 -0.139901 -0.368979
-0.0389789 0.0548183 -0.0335307 0.0477023 0.023467 -0.0242849 0.0317551
-0.030526 -0.0686914 0.06445 0.0489451 0.0259424 -0.0706601 -0.023559
-0.0541773 -0.107025 0.00368135 -0.107009 0.0166013 -0.0666929 -0.335424
-0.124089 -0.153459 0.0503409 -0.320578 -0.0171658 -0.0660747 -0.499844
-0.0995263 -0.233516 0.0703041 -0.254397 0.033646 -0.146556 -0.508598
-0.148369 -0.203889 0.0392032 -0.302957 -0.036712 -0.0628695 -0.409563
-0.0809994 -0.137453 0.104813 -0.313569 0.0133138 -0.0629349 -0.422617
-0.103643 -0.121661 -0.00892664 -0.260631 -0.0254515 -0.0363222 -0.301107
-0.0477662 -0.0829501 0.0142664 -0.0706165 0.0494589 -0.00776458 -0.182698
-0.0205389 -0.051948 0.0725686 -0.0992272 -0.0440835 -0.0370972 -0.052255
-0.135672 -0.129473 0.0277029 -0.189499 0.0380393 -0.0876647 -0.264629
-0.11217 -0.10361 0.0564462 -0.169425 0.0223339 -0.118069 -0.385897
-0.0687016 -0.100704 -0.0138094 -0.137293 0.0499937 -0.0731204 -0.314153
-0.154226 -0.158775 0.123749 -0.309605 0.0800741 -0.074263 -0.407125
-0.102017 -0.156433 -0.00780852 -0.159861 0.00750967 -0.0516693 -0.312674
-0.116441 -0.125119 -0.0217392 -0.245066 -0.0369661 -0.0660676 -0.434945
-0.0444941 -0.166398 0.0593267 -0.343207 -0.0571346 -0.150158 -0.513547
0.00358684 0.0186496 0.0149393 -0.128486 0.0672099 -0.0930563 -0.169682
-0.0923353 -0.0563826 0.0710259 -0.0919037 -0.0379398 -0.0545051 -0.261012
0.00196879 -0.0834605 0.0641786 -0.0287384 -0.0548487 0.0242151 -0.10373
-0.0293441 -0.20396 0.0407899 -0.288729 -0.0230991 -0.0915942 -0.355764
0.0438965 -0.021586 0.0157554 -0.0899105 -0.0397246 -0.0166646 -0.0984473
0.0167361 -0.086846 0.0756564 -0.0787658 -0.0269189 0.00938357 -0.12156
-0.0602896 -0.150556 0.0288479 -0.175953 0.0338521 -0.0837394 -0.206505
-0.0314894 -0.131846 0.0839438 -0.192352 -0.0391792 -0.100657 -0.41095
-0.123944 -0.135122 -0.0328307 -0.238453 0.00285342 -0.116157 -0.383286
0.015111 -0.0558798 -0.00904437 -0.0246254 -0.0318689 0.0540442 -0.0116283
-0.0630208 -0.0979113 0.0130486 -0.243969 -0.0144667 -0.0277865 -0.342621
-0.0157298 0.0421653 0.0663514 -0.0517777 -0.0588694 0.0431885 -0.0893374
-0.00454291 -0.11126 0.044548 -0.0852997 0.0454489 -0.0780146 -0.159794
-0.0664026 -0.218774 0.0153785 -0.178404 -0.0545557 -0.0559057 -0.356361
-0.0919852 -0.214197 0.0724337 -0.269368 0.0518257 -0.117355 -0.423973
-0.00342019 -0.0399188 0.0501889 -0.0122236 -0.0311953 -0.057951 -0.0158638
-0.0742674 -0.0190953 -0.00801472 -0.0961867 -0.060194 -0.0678084 -0.164884
-0.0204004 -0.156401 0.00962562 -0.199048 0.0675641 -0.118266 -0.333963
-0.0391156 0.0402294 0.0226795 -0.0181436 -0.0347699 -0.0751197 -0.126152
-0.0860718 -0.0687376 -0.0424201 -0.0404444 -0.0209153 -0.101667 -0.148068
-0.0765299 -0.0216756 0.0162816 -0.0870336 0.091049 -0.0221904 -0.282222
-0.118566 -0.113851 -0.0176 -0.161429 -0.0340743 -0.0602849 -0.298747
-0.076531 -0.0542095 0.0746126 -0.0988972 0.0409915 -0.068213 -0.333319
-0.0871709 0.00426772 0.0163001 -0.0937586 -0.0276579 -0.0751662 -0.149612
-0.00992809 -0.0471167 0.0506071 -0.159121 0.0744364 -0.070642 -0.098922
-0.037313 -0.00119475 -0.0137334 -0.0824801 0.0645946 0.0368139 -0.0173742
-0.111598 -0.138991 -0.0484306 -0.139505 0.0336233 -0.0962372 -0.189744
-0.132028 -0.209493 0.0304922 -0.286623 0.103473 -0.0533844 -0.487563
-0.0228326 -0.049721 0.00837017 0.0201821 0.0337334 -0.0189387 -0.0707294
0.0389771 -0.0897075 0.0246683 -0.0577992 -0.0176222 0.0391299 0.00190164
-0.0740036 -0.0769697 0.0239581 0.00410319 -0.0699295 0.00432671 -0.0406427
-0.0813638 -0.0652625 0.0148497 -0.0575767 0.0678081 -0.0387938 -0.126069
-0.0351187 0.0511887 0.0503633 -0.100383 0.00565728 -0.00270936 -0.0799035
-0.0803157 -0.146869 -0.0239801 -0.0938845 0.014579 -0.0548097 -0.245869
-0.00668377 -0.157345 0.0556729 -0.206132 -0.00121005 -0.0307428 -0.411251
0.0109671 -0.0839024 2.21715e-05 -0.0857167 0.0588838 -0.00621857 -0.161647
-0.127452 -0.0920709 0.0520886 -0.147376 0.0125182 -0.0900871 -0.256775
-0.0639895 0.0429896 -0.0145105 0.0292758 -0.0326398 -0.0838126 -0.0176734
0.0392769 -0.0343522 0.0298798 -0.0368228 -0.0147444 -0.0214327 -0.0742489
-0.0712875 -0.0662163 0.0626001 -0.0992534 -0.059364 -0.0112156 -0.132778
-0.0119602 -0.0453719 0.00562234 -0.122979 -0.0233425 -0.0191618 -0.183574
0.0566978 -0.0372468 0.000511363 -0.0189197 0.0331963 -0.0500304 -0.0534729
-0.00851057 -0.0575076 0.0915737 -0.171798 -0.0277128 -0.0588138 -0.165586
-0.0152111 -0.0704746 0.038993 -0.087217 -0.027842 -0.0105959 -0.249488
-0.0329413 -0.0759774 -0.0563428 -0.0924596 0.0255387 -0.0792957 -0.243357
0.0587755 -0.0858203 0.052206 -0.0494724 -0.0548862 -0.0041115 -0.101374