187 8
0.0225362 -0.0748766 0.141931 0.15664 0.0131474 -0.167369 0.205882 -0.209378
0.0647274 -0.020695 0.147613 0.121104 -0.0327793 -0.159675 0.382636 -0.248176
-0.00344006 0.00490025 0.275757 0.202594 -0.13724 -0.261117 0.460774 -0.413484
-0.0262708 -0.0245613 0.190434 0.135802 -0.0754535 -0.167457 0.166236 -0.112915
-0.0306662 0.0413131 0.073184 0.0578904 -0.0741108 -0.100632 0.12651 -0.0379822
-0.0117791 -0.047627 0.162539 0.0507634 -0.0717789 -0.108926 0.173219 -0.172361
0.0523896 -0.0821376 0.176658 0.186671 -0.0387034 -0.171932 0.33321 -0.162258
0.0350274 -0.0625182 0.288774 0.198086 -0.0463535 -0.214824 0.500386 -0.305693
0.0146271 -0.083991 0.153876 0.0592853 -0.0890659 -0.132758 0.241578 -0.113015
-0.00649778 0.00697013 0.101316 0.0616196 -0.0206529 -0.181171 0.251785 -0.206109
0.00366625 -0.0658741 0.217474 0.193596 -0.0677381 -0.241917 0.49927 -0.355664
0.161107 -0.036304 0.525979 0.374907 -0.188131 -0.480321 0.632811 -0.391218
0.049793 0.0164247 0.0668083 0.0371647 0.0203957 -0.0539395 0.0492575 -0.117081
0.0127076 -0.162821 0.267548 0.313949 -0.0149913 -0.304196 0.487673 -0.407781
0.0996808 -0.137039 0.255285 0.256487 -0.135055 -0.353443 0.473694 -0.309222
0.0515742 -0.130592 0.251853 0.322212 -0.0911265 -0.285592 0.455093 -0.412515
0.093716 -0.119753 0.244942 0.163732 -0.0112862 -0.243288 0.297222 -0.245226
0.0191789 -0.0191653 0.149048 0.183549 -0.030009 -0.180813 0.34485 -0.266784
0.0401971 -0.0118503 0.00878142 -0.0267293 -0.00229553 0.0128786 0.0878342 -0.0575955
0.0504654 -0.0509096 0.162009 0.111172 0.0258169 -0.122273 0.226947 -0.0848099
-0.020227 -0.159059 0.380705 0.243531 -0.0244952 -0.379054 0.578128 -0.380796
0.0403808 -0.0955185 0.152963 0.0752702 -0.0240755 -0.178198 0.248967 -0.19982
0.0567705 0.019917 0.0675338 0.0261598 -0.0727645 -0.0756806 0.140036 -0.137142
0.0427888 -0.064269 0.269784 0.248812 -0.105086 -0.384098 0.481502 -0.341167
0.0749656 -0.0640473 0.244766 0.22176 -0.0317502 -0.193471 0.260972 -0.198348
0.0333582 -0.0462655 0.0663589 0.087692 -0.088962 -0.113647 0.233975 -0.138191
0.0407622 -0.0553417 0.122992 0.0298725 -0.048501 -0.0927718 0.106124 -0.157336
-0.0154154 0.00479545 0.139616 0.195592 -0.0741448 -0.237332 0.259233 -0.190678
0.000168602 0.0107524 0.0845933 0.147251 0.0240883 -0.195014 0.248096 -0.115727
0.0757791 -0.0048596 0.232299 0.162431 -0.0983598 -0.258848 0.476775 -0.364528
0.0281055 0.00361649 0.14352 0.149332 0.00910259 -0.0887278 0.188317 -0.180545
0.0329313 -0.0100085 0.0492269 0.0275294 -0.0336681 -0.109273 0.0896453 -0.0224324
-0.0375874 -0.00922472 0.0730754 0.0429992 -0.05944 -0.18104 0.17617 -0.108706
-0.00886544 -0.144285 0.259091 0.279698 -0.0921921 -0.311034 0.522395 -0.389693
0.0427751 -0.0531843 0.0386838 0.110933 0.0448208 -0.0204951 0.0797265 -0.102197
0.0240855 -0.0690324 0.178725 0.155664 -0.0900379 -0.237219 0.358718 -0.299574
-0.0324982 -0.0164157 0.00577705 0.0201136 0.02066 -0.0287842 0.17622 -0.125958
0.0625404 -0.0671577 0.139909 0.137586 -0.0810015 -0.0775712 0.228819 -0.129262
-0.0123466 -0.0494825 0.0688963 -0.0230102 0.000329055 -0.0295913 0.034519 -0.0483459
0.00834027 -0.00718845 0.022183 0.00797772 -0.0252812 0.0096492 0.0413985 -0.0597505
-0.0113556 -0.000539893 0.102884 0.155546 -0.0276916 -0.0795348 0.25886 -0.167325
-0.028467 -0.0384781 -0.0282666 0.017074 -0.0065065 0.0273088 0.0149967 -0.0305642
0.0496229 -0.057926 0.141302 0.154513 -0.0559948 -0.129312 0.210698 -0.0723651
-0.0239808 -0.0153691 0.24573 0.221965 0.0151275 -0.248405 0.321969 -0.195568
0.000463509 -0.00407517 0.194998 0.110321 -0.0805804 -0.24333 0.336509 -0.255762
0.0493636 -0.033822 0.285138 0.253138 -0.0129072 -0.245318 0.371664 -0.34864
0.074502 -0.076571 0.273272 0.178744 -0.0606733 -0.241542 0.372666 -0.22106
0.0301384 0.0129909 0.120671 0.18664 0.00317917 -0.185325 0.288666 -0.194486
0.0625636 0.0387812 0.0509442 0.0268373 -0.055492 0.00150207 0.0836789 -0.0426111
-0.0109234 0.0304399 0.0758481 0.0507362 0.00558834 -0.0546646 0.0165676 -0.0275987
0.0140988 -0.0133684 0.225493 0.147956 -0.0961181 -0.229292 0.358108 -0.234524
0.0509248 -0.00488323 0.0618488 0.00641464 0.0429406 -0.0699394 0.0509223 -0.00219811
0.0373977 -0.0235101 0.0268939 0.0430652 0.0211458 -0.122927 0.203606 -0.0981183
0.0594609 -0.0411526 0.0186392 0.0404269 -0.0675695 -0.0747905 0.147397 -0.0692123
0.0456238 -0.0776358 0.211343 0.135093 0.00299024 -0.231338 0.302256 -0.256896
0.0768341 -0.0743987 0.145258 0.1708 -0.105059 -0.258565 0.328828 -0.282262
0.0456168 -0.00597739 0.215556 0.14533 -0.103416 -0.22317 0.500166 -0.388302
0.0236265 -0.0492153 0.180054 0.135989 -0.0038934 -0.155266 0.378496 -0.189276
-0.00883126 0.02727 0.0225859 0.013805 -0.0156875 -0.0621052 0.164012 -0.0517905
-0.0356872 0.020776 0.147639 0.13985 -0.0827282 -0.0843859 0.177773 -0.208468
0.0365142 0.0340555 0.0557967 0.0719984 0.00591935 -0.136248 0.136091 -0.0602829
0.0370838 -0.0512322 0.0320226 0.0721488 0.0235549 -0.105679 0.105938 -0.0796035
-0.0281439 -0.0202206 0.0367583 -0.0282409 0.0341011 -0.0418017 0.0135826 -0.0265041
-0.00185049 -0.0840296 0.102987 0.138202 -0.0118852 -0.0679185 0.137141 -0.0980021
-0.0207981 -0.0620796 0.081902 0.146094 -0.0777335 -0.0982506 0.129493 -0.0753773
-0.0527899 0.0512798 0.0626537 0.0614066 -0.0340026 -0.0683341 0.0126078 0.0162464
-0.0416874 -0.026323 -0.000887811 0.0348232 -0.0667321 -0.099889 0.0529473 -0.0933562
0.0596315 -0.0198277 -0.0271448 0.0414344 -0.0332519 -0.0263963 0.0779841 -0.0326859
0.0411802 -0.0582749 0.0128496 0.0462674 -0.016065 -0.0238661 -0.0308477 -0.0054342
0.00745122 -0.0585219 0.088618 0.0322831 -0.0320996 -0.15268 0.110356 -0.0712174
0.0130927 0.00132426 0.0676449 0.0205131 -0.00794569 -0.0181147 0.0370692 -0.0523713
0.0439817 0.0399206 -0.0487885 -0.00857688 -0.0579548 0.0361331 0.0730637 0.00713731
0.0593183 -0.00688268 0.0985279 0.07376 0.00923133 -0.0421278 0.216082 -0.0931771
0.0377065 0.03073 -0.0341858 0.01151 0.0428342 -0.0154937 0.000598551 -0.00734275
0.0418417 -0.0295936 0.0526175 0.0105784 -0.0493368 -0.0161804 0.11519 -0.112815
0.0141848 -0.0376915 0.162272 0.197055 -0.0446203 -0.151499 0.301787 -0.164835
0.0138946 0.0288093 0.105662 0.0529929 -0.00331324 -0.0512376 0.0729693 -0.0214368
0.00352117 -0.0693685 0.00783628 0.00932868 -0.0591295 -0.0826939 -0.00710605 -0.0774223
0.0628039 0.0350789 0.0490462 0.0871801 -0.0523901 -0.104811 0.0246121 -0.0323536
0.0246688 0.0191615 0.0365697 0.0356017 -0.0313178 -0.131273 0.127966 -0.163689
-0.00221157 -0.053476 0.073013 0.0302617 0.0315618 -0.0383181 0.124656 -0.0876973
-0.0529951 0.033642 0.0277903 -0.00793863 0.0282254 0.0439607 0.0390774 0.00850978
0.019195 0.0156617 0.11977 0.159525 -0.0117942 -0.143604 0.20019 -0.146931
0.0259786 -0.0707683 0.0826773 0.0335231 -0.0393625 -0.0157109 0.0291986 -0.0676114
0.0262285 0.0242027 0.0607413 0.0370636 -0.0398094 0.0115744 0.0582323 -0.00882555
0.0688347 -0.0228166 0.180706 0.13954 -0.0443883 -0.179002 0.289333 -0.193381
0.0581032 -0.0524355 -0.0167804 0.0392512 -0.0573305 -0.0901411 0.0731673 -0.00644737
0.0395772 -0.0518636 0.0956886 -0.0105872 -0.0587812 -0.0723194 0.151466 -0.0406384
0.0213481 0.0283441 0.0885711 0.128719 0.017853 -0.0873474 0.249272 -0.174235
0.0172102 -0.0120665 0.119897 0.036971 -0.0589582 -0.0992669 0.149432 -0.0481466
-0.0437182 0.00141241 0.0403122 0.0944642 0.0322855 -0.10167 0.10524 -0.0874466
0.019783 -0.0268725 0.0901474 0.07342 -0.0658324 -0.117947 0.188735 -0.0956269
0.0328468 -0.0138512 0.159202 0.0913015 -0.0574946 -0.0683548 0.183786 -0.153794
-0.0124855 -0.0223367 -0.0119797 0.00999011 -0.00153018 0.0291283 -0.00183679 -0.0592946
0.0593929 -0.0238513 0.0136598 0.0422196 0.00312749 -0.0607803 0.0908697 -0.0248588
0.0174467 -0.0355875 0.0379322 0.00722923 0.0255789 0.039594 0.0729115 0.0283337
-0.0437112 -0.0553899 0.0503667 -0.00882847 -0.0146423 -0.00169595 0.0307265 0.012485
0.00844372 -0.0183657 0.00604889 -0.0276761 -0.00291091 0.0247801 -0.0309955 -0.00560692
-0.0554039 0.0522357 -0.00701423 0.0219876 0.0143794 -0.0463616 0.0967375 0.0104732
0.0488796 0.0057386 -0.0399094 0.0309212 -0.04039 -0.0535294 -0.0465587 -0.0566003
0.0323108 -0.0216235 0.14262 0.131214 -0.0783217 -0.069744 0.192811 -0.158986
-0.0217632 0.0439324 0.0539254 0.0755887 0.0350523 -0.0819199 0.0816918 -0.0131695
0.0474826 -0.0284115 0.147847 0.0788218 -0.0192656 -0.0734625 0.17269 -0.171619
0.0736225 -0.021323 0.12248 0.046435 -0.0673512 -0.0618164 0.124045 -0.0542803
0.0308022 -0.0289587 0.0454938 0.0555792 0.0418931 0.0109881 0.0107492 -0.0721032
0.0462136 0.0104554 0.0774592 0.0379983 -0.0490329 -0.0678815 0.117934 -0.125397
0.0317473 -0.0557463 0.0788648 0.00510918 -0.0610092 -0.0615283 0.114968 -0.0120249
0.0433996 -0.0637228 0.0899267 0.0544685 -0.0416874 -0.0117362 0.123154 -0.0375861
-0.023956 -0.048819 0.0521184 0.0465902 -0.048124 -0.112363 0.103961 -0.0348153
-0.0388196 0.0417527 0.0105105 0.0979427 -0.00510065 -0.100322 0.0969236 -0.123375
0.0188854 -0.0457094 0.134445 0.043933 -0.0415863 -0.106163 0.152803 -0.0647775
-0.0147892 -0.0370525 0.0317649 0.0726776 0.0374276 -0.0184337 0.0537974 -0.0739117
-0.0311992 0.033763 0.0816782 0.0567837 -0.0267316 -0.0947343 0.0821544 -0.0289382
0.023952 -0.0299003 0.00840543 0.0952765 -0.045586 -0.0155381 0.131055 -0.0251481
0.00534416 -0.015688 0.103343 0.0201027 -0.0334211 0.0108345 0.129242 -0.0677309
0.0361518 -0.0335319 0.06992 0.0216925 0.0370052 -0.061 0.0995719 -0.0128079
-0.0100837 -0.0288018 0.0866172 0.0165426 -0.0266397 -0.11563 0.126783 -0.0349896
0.0115507 0.0154239 0.0835681 -0.0289589 0.0174972 -0.00833187 0.0636316 -0.0483556
0.0146787 0.0178724 0.12459 0.0181386 -0.0645617 -0.110382 0.141923 -0.114431
0.0303554 0.0180539 0.076353 0.145892 -0.0228679 -0.0999656 0.166535 -0.08436
0.0320185 -0.0697831 0.199188 0.0876337 -0.0925019 -0.15993 0.271674 -0.223995
0.0505547 -0.00535515 0.00930399 0.0564231 -0.0309187 0.0228398 0.00883928 -0.0551687
-0.0150209 -0.0446809 0.030917 0.0458819 0.0263367 -0.0349412 -0.0103426 0.0450814
-0.00574322 -0.0611555 0.081852 0.052388 -0.0564684 -0.105455 0.137988 -0.0562734
0.0498638 -0.0458128 0.031423 0.0355088 -0.0547538 -0.0900716 0.134946 -0.0632856
-0.0412353 -0.0389449 -0.0103098 0.039714 -0.0496854 0.0147134 -0.00433629 -0.0630396
-0.0393829 -0.029914 -0.035791 0.00425999 -0.0195137 -0.0225947 0.0644213 -0.0146431
-0.0118044 -0.0802301 0.0896826 0.0571273 -0.0503815 -0.0402727 0.14786 -0.153891
-0.00249831 0.0333451 0.111979 0.0972493 -0.0472695 -0.0782525 0.102722 -0.0207814
-0.00453363 0.0465292 0.053603 0.0461969 -0.0503029 -0.101495 0.0141698 -0.037465
0.0060695 -0.0810531 0.0422697 0.152756 -0.0637134 -0.0890611 0.176434 -0.136299
-0.0293519 -0.038872 0.0961891 0.174628 -0.0685462 -0.107501 0.201649 -0.154476
-0.0359368 0.0154572 0.066649 0.0200381 0.0145432 -0.0878723 0.0996163 -0.0556437
0.0340268 -0.0223118 0.0331188 -0.0236183 -0.0290558 1.50515e-05 -0.00152438 -0.0583933
-0.0472252 0.0236842 0.0664628 0.0478275 -0.0467154 -0.0707068 0.168797 -0.133457
0.0428242 -0.0333697 0.101023 0.00573542 0.000887146 -0.121087 0.143236 -0.116679
-0.00153301 -0.0815205 0.0325068 0.0688663 -0.0252552 -0.0602278 0.14133 -0.109718
0.0455452 0.00369287 -0.0446385 0.00408086 0.0549359 -0.0361365 0.00834901 -0.0653676
-0.0232202 0.0228335 0.055344 0.0229915 0.0402036 -0.117529 0.0496592 -0.0233266
-0.0209378 -0.0107299 0.0825443 0.0801617 0.0077512 0.0173141 0.0662304 -0.00608315
-0.00223067 -0.0725421 0.111434 0.0531624 0.00985536 -0.00554609 0.110201 -0.0110011
0.0588332 -0.0141866 -0.0348299 0.0374511 -0.0267334 0.029846 0.0497597 -0.0323892
0.0610914 0.0152983 0.0225567 -0.0260695 -0.0162852 -0.022378 0.0267943 0.0334696
-0.0279059 -0.0510954 0.07574 -0.0295274 -0.00934498 0.037203 -0.0036469 -0.00920231
0.0622375 -0.0214241 0.0152738 0.0376057 -0.0583694 -0.0403367 0.093197 -0.00129679
0.0790138 -0.0180379 0.164234 0.1194 -0.0825119 -0.190683 0.240933 -0.151019
0.0763216 -0.0362025 0.362999 0.288938 -0.1056 -0.349027 0.509723 -0.386342
0.0586253 -0.0146109 0.015285 -0.00994095 0.00383358 0.0229726 0.113108 -0.0189083
0.00589169 -0.0042179 0.301636 0.276854 -0.0383003 -0.287905 0.484497 -0.306576
0.0488372 -0.11771 0.462228 0.337307 -0.0266946 -0.444088 0.553692 -0.43276
0.00459228 -0.0297837 0.306006 0.328693 -0.132142 -0.343902 0.504401 -0.325098
0.016034 -0.0279938 0.275355 0.163244 -0.0996364 -0.287461 0.355946 -0.313116
0.0371905 0.0189265 0.125637 0.149521 -0.0812819 -0.141976 0.211991 -0.173111
0.0133636 -0.080121 0.375392 0.271445 -0.109651 -0.334896 0.466334 -0.394946
-0.0151192 -0.0599626 0.34323 0.295825 -0.0683001 -0.263581 0.471032 -0.347792
0.0296709 -0.0254165 0.120192 0.0947636 -0.0539483 -0.00681644 0.14513 -0.103151
0.00167832 -0.0374816 0.316753 0.326528 -0.123914 -0.322464 0.420673 -0.425159
0.038949 -0.0525597 0.264825 0.227719 -0.0287523 -0.384212 0.476172 -0.393338
0.0696868 -0.00485073 0.165401 0.146519 -0.0992332 -0.20154 0.324397 -0.217505
0.0155736 -0.0252716 0.0852518 0.0503278 0.0326302 -0.0934868 0.198704 -0.170643
-0.00897091 -0.0234347 -0.0101285 0.0182154 -0.0555267 -0.0636669 0.100719 -0.0659957
0.0716109 0.0428171 0.0351497 0.0562788 0.00691521 -0.0774153 0.176362 -0.0499245
0.0464099 0.0027623 0.173933 0.132866 -0.0926748 -0.136455 0.239443 -0.139305
-0.0332518 -0.050515 0.338782 0.247774 -0.0886181 -0.329247 0.446829 -0.349353
0.0894534 -0.0242457 0.441245 0.340942 -0.0611057 -0.378007 0.502627 -0.440905
-0.00672798 -0.0558613 0.0239963 0.0343374 -0.0557387 -0.0619833 0.135755 -0.0496194
0.00479397 -0.0628155 0.102457 0.113076 0.0127207 -0.0496246 0.0736938 -0.142218
-0.00820951 -0.0132491 0.241112 0.175673 -0.119225 -0.260488 0.367665 -0.207896
0.0650382 -0.0918732 0.211312 0.154912 -0.0729992 -0.17433 0.225111 -0.174243
0.0466885 -0.0331088 0.133855 0.0818991 -0.0373181 -0.195439 0.165614 -0.113232
0.0549946 0.0299399 0.140775 0.0455449 -0.0800862 -0.0781525 0.22553 -0.180178
0.0693469 -0.0444465 0.213342 0.124497 -0.0759776 -0.166592 0.210956 -0.231264
-0.0429823 -0.0559362 -0.00714322 0.0159765 0.00618507 -0.0707699 0.110971 -0.0681504
-0.0130267 -0.0343421 0.079958 0.0674929 -0.0612873 -0.146604 0.275415 -0.192501
0.0500708 0.0216575 0.0439025 0.0612002 -0.0338067 -0.111283 0.133851 -0.140511
-0.0147549 -0.0328073 0.0446526 0.00679734 0.00416999 -0.0633859 0.120876 -0.123518
-0.0461517 0.0411159 0.0935899 0.0567752 -0.0461432 -0.0910531 0.00770728 -0.0158037
0.0512175 -0.0786966 0.261041 0.214326 -0.0532075 -0.144357 0.361924 -0.181526
-0.0278219 0.0382843 -0.00631265 0.0554555 0.00184477 -0.00399465 0.122879 -0.0728168
0.046733 0.0439776 0.0284927 0.0477409 0.0447276 -0.0325563 0.0236169 0.0206198
0.0156218 -0.0436447 -0.0165792 0.0379134 0.054026 -0.0209159 0.0981724 0.022394
-0.0505717 -0.0315998 0.0353463 0.033332 -0.03815 -0.0570405 0.0178412 -0.00359521
-0.028383 0.04429 0.00245559 0.0174816 -0.0402929 0.0239496 0.0414398 0.00942882
0.031415 0.0445713 0.103596 0.000826256 0.0162877 -0.0174923 0.088292 -0.0226635
0.0454577 0.0418174 0.0136247 0.0293372 -0.0381066 0.0111458 0.0302687 0.00419867
-0.00657806 0.025814 -0.0201045 -0.00985584 -0.0406737 -0.073961 0.0212282 0.00513277
0.00279875 0.0151002 0.0436303 0.00989303 0.0239485 -0.0588779 0.0832364 -0.0935137