103 7
0.111534 -0.0898293 0.0501795 0.055712 -0.00531172 0.0556632 -0.0468822
0.564531 -0.168472 0.360183 0.103401 0.0117637 0.0411625 -0.252146
0.511739 -0.223262 0.198858 0.0102267 -0.0481291 0.101928 -0.329633
0.555155 -0.154802 0.205504 0.0984999 -0.0933614 0.040817 -0.257525
0.508016 -0.22514 0.274002 0.0345426 -0.0634878 0.0511265 -0.341588
0.56755 -0.160597 0.299838 0.0322886 -0.113172 0.0264813 -0.288404
0.459795 -0.14856 0.17749 0.012191 -0.00401026 0.0529852 -0.229445
0.583705 -0.215154 0.135312 0.0101547 -0.125041 0.0682512 -0.397447
0.491878 -0.153289 0.258429 -0.0345999 -0.0113419 0.0202236 -0.227818
0.591253 -0.140459 0.299616 0.100839 -0.077751 0.0606306 -0.236858
0.408681 -0.18473 0.220984 0.0556559 -0.0821097 0.0470362 -0.275318
0.496099 -0.159788 0.288646 0.0258515 -0.0386289 0.110274 -0.230864
0.534673 -0.222701 0.229987 0.0263897 -0.000274194 0.00672377 -0.214969
0.153267 -0.0645526 0.123799 -0.0103599 -0.0338694 0.0237002 -0.0582012
0.382742 -0.203731 0.196478 0.0712915 -0.0487582 0.0929371 -0.242266
0.0500075 -0.0486177 0.00125866 0.00802957 0.0345556 0.0312387 0.0448449
0.5422 -0.203129 0.194825 0.1102 0.0209285 0.123184 -0.324733
0.494356 -0.131614 0.171152 0.0292163 -0.0312987 0.0107218 -0.250731
0.138069 -0.0737328 0.0250437 0.0313356 -0.0695357 0.0575838 -0.0679869
0.455324 -0.144351 0.276737 -0.00755046 -0.00430222 0.0215826 -0.288748
0.540989 -0.167332 0.312783 -0.0334929 -0.0272663 -0.0359507 -0.326692
0.287284 -0.107038 0.165177 -0.00629523 -0.0147545 0.104608 -0.16349
0.102865 0.00781081 0.0733726 -0.0540942 -0.0592949 0.0651477 -0.0879999
0.543095 -0.188626 0.339234 0.0622153 0.0107724 -0.0137796 -0.293319
0.428631 -0.208057 0.269545 0.0155884 -0.0579868 0.0845793 -0.255138
0.574818 -0.13971 0.249364 0.0190608 0.00829787 0.0574084 -0.217674
0.53282 -0.206767 0.280863 0.0721206 -0.0663782 0.0565186 -0.293135
0.419348 -0.138673 0.29446 0.047223 -0.0211977 0.0171274 -0.257615
0.162794 0.00679859 0.048412 0.05378 -0.0511088 -0.0125981 -0.14494
0.355538 -0.166973 0.140911 0.0626809 -0.0201357 0.0972874 -0.135899
0.506187 -0.226055 0.269651 0.0409075 -0.0818696 0.0267315 -0.295307
0.254407 -0.0665471 0.067264 0.00933019 -0.00375597 0.0884997 -0.0898235
0.319077 -0.0394641 0.093487 0.000694421 -0.0652229 0.09428 -0.175992
0.259189 -0.0518489 0.0719515 0.00711568 0.0274296 0.0139349 -0.138575
0.0757335 -0.0802086 0.0779376 -0.0270087 -0.0664508 0.0497015 0.0028179
0.106328 -0.055366 -0.00984579 -0.0398542 -0.0380384 0.0624935 -0.0376659
0.440619 -0.137695 0.269155 -0.00691603 -0.0342037 0.0658846 -0.253918
0.231593 -0.06693 0.0606676 0.0570385 0.00436357 0.0684047 -0.176648
0.0571197 -0.0121626 0.0293347 0.0734629 -0.0210426 -0.025048 0.0036571
0.18911 -0.0550084 0.0975883 0.00104698 -0.0718136 -0.0249949 -0.0774613
-0.0183429 0.0375929 0.0182007 0.0293379 0.0479453 -0.0308959 0.0546089
0.0408128 -0.0376936 -0.0377468 -0.0533444 0.00122952 0.0236893 0.00600634
0.151228 -0.0888266 0.0692049 0.0423141 0.0222942 0.0179042 -0.077196
0.364778 -0.0935756 0.185889 0.0182885 0.0210304 0.0252047 -0.210361
0.310625 -0.148463 0.128853 0.00277866 -0.0207882 0.0920417 -0.139948
0.286635 -0.0624433 0.0986783 0.0664812 -0.0557869 0.0285713 -0.0775765
0.305151 -0.116185 0.0941995 0.0666056 0.0186636 0.0818217 -0.0831822
0.172159 -0.0313124 0.173265 0.0243345 0.00410451 0.0258041 -0.181832
0.120898 -0.000736389 0.0144688 0.0673679 -0.0363091 -0.0299351 -0.0485217
0.082109 0.0320726 0.000835325 0.0028946 -0.0640378 0.0110643 -0.00697209
0.11688 -0.0733429 0.111907 -0.0188909 -0.079414 -0.0521894 -0.0378487
0.220066 -0.0371362 0.0733038 -0.00325388 0.0335738 0.075392 -0.146209
0.212008 0.0190158 0.0379468 -0.0326295 0.00770521 -0.0464268 -0.0352079
0.1908 0.00204052 0.129848 -0.0438536 -0.0189616 -0.00591165 -0.0779343
0.132846 -0.0309091 0.0474531 0.0378705 -0.0155551 0.0611736 -0.0267774
0.265357 -0.0492409 0.128589 0.07239 0.0357698 -0.00418088 -0.0840121
0.314626 -0.140712 0.100467 0.0805641 0.0340711 0.0712184 -0.191768
0.0401882 0.0291331 0.0595184 0.0642037 -0.07629 0.0724404 6.258e-05
0.17422 -0.0872153 0.0872885 0.0570388 0.00218233 0.0202551 -0.0581985
0.0460682 -0.0539197 0.0427269 -0.0328452 -0.0336857 -0.0249424 -0.00591403
0.214276 0.00138025 0.108989 -0.0482897 0.0339819 0.0679701 -0.119086
0.0946634 0.0429765 -0.0305541 0.0294734 -0.000834704 -0.0384905 0.0529113
0.0410172 -0.010359 0.0507401 0.0404274 0.0353708 0.0177177 0.0253566
0.111877 -0.0319365 0.0577112 -0.0269802 0.0564316 0.0798092 -0.0564426
0.161682 -0.119973 0.153043 -0.0174368 0.00374644 0.0667227 -0.127154
0.226013 -0.0147884 0.0990713 0.0231424 0.00244726 -0.0465362 -0.0264142
-0.0246129 0.00404221 0.0744838 0.00574001 0.000237654 0.0565411 -0.0236516
0.130391 -0.0411465 0.0863443 -0.0144721 0.0375134 0.0381778 -0.130476
0.0162952 -0.0812997 0.022494 0.0576899 -0.0440567 0.0675145 0.0251459
0.0441029 -0.0576871 0.0551953 0.0714835 -0.0626006 0.0417138 -0.0546803
0.316919 -0.0428615 0.0504755 -0.0122504 -0.0793751 0.0133846 -0.0609385
0.296004 -0.152091 0.173564 0.0645449 0.0264129 0.0626912 -0.130343
0.11098 0.0529818 0.0405644 -0.0632143 0.0657847 0.00399046 -0.0256618
0.0442817 -0.0833341 0.114785 -0.0559875 0.0386651 0.0569569 -0.0646241
0.217083 -0.0536675 0.0995208 0.0656342 -0.064612 0.0272828 -0.107854
0.106104 0.0151274 -0.0398117 0.00340373 -0.0562026 0.0659425 0.0016533
0.084985 -0.083866 0.0965669 0.0521699 -0.0665306 0.0464853 -0.0554804
0.0504432 -0.0283056 0.0291018 0.0504475 0.00575216 0.0171196 -0.0190447
0.121558 -0.028613 0.0570156 0.00977961 -0.0685518 -0.0430348 -0.157545
0.179738 -0.0363437 0.0293157 0.0274454 -0.0515947 -0.0518475 -0.07692
0.0582041 -0.0101627 0.0630347 -0.0200876 -0.000224982 -0.0562913 -0.0464954
0.146499 -0.000798987 0.050587 -0.0453152 -0.0687771 -0.00619539 0.00877414
-0.0267577 -0.0718819 -0.0206685 -0.0183059 0.0634691 0.0739818 -0.0268275
0.158286 -0.11083 0.00936454 -0.00445497 0.0294795 0.0812851 -0.0057768
0.353802 -0.158279 0.186382 -0.0248561 -0.0709726 0.0797117 -0.116838
-0.0443182 0.0580306 0.0238553 0.0328518 -0.0411912 -0.0528263 0.0135606
0.102388 -0.0785861 0.0708776 -0.0553086 0.00833648 0.0222866 -0.016541
0.0253197 0.0104256 -0.0428048 -0.0469574 -0.0253076 -0.0497777 -0.0844958
-0.0250905 0.0498532 0.0537117 0.0498518 -0.042858 0.0143062 -0.0123042
0.0180444 0.0109772 0.045914 -0.0232168 0.0265945 -0.0464385 -0.0365672
0.171831 -0.0331151 0.0942637 0.0647383 -0.0295434 0.0831226 -0.0506618
0.222161 -0.0937922 0.169274 -0.0284678 -0.000296385 0.0299376 -0.071858
0.129379 -0.00576765 0.0835221 0.0235818 0.0121823 0.0139004 -0.0693962
0.114509 -0.115385 0.0666841 -0.0254235 -0.0256027 -0.0132788 -0.0493043
0.0530695 -0.0528386 0.0711064 -0.005315 0.0360501 0.0158908 -0.0552402
0.0780595 0.0506998 -0.0229078 -0.0191053 0.0538274 0.0338204 0.0441557
0.0281162 0.0257121 -0.0351026 -0.0547551 -0.0627932 -0.0105135 0.013455
0.0215548 -0.0408956 0.0857141 -0.0012076 0.023264 -0.00438429 -0.0456923
-0.013142 0.0174758 0.0283961 0.00363144 -0.0241462 -0.0371976 -0.0426391
0.133624 0.0312769 0.0532562 0.0343076 -0.0219383 0.0375144 -0.0906582
0.131297 -0.076597 0.0312982 0.0574768 -0.0584865 -0.015492 -0.00700053
0.05244 -0.0783079 0.0754225 -0.00803323 0.0222198 -0.0186642 0.0453886
0.00553698 0.0212159 -0.0423199 -0.0412164 -0.0661376 -0.0480199 -0.0525565