111 7
0.334329 -0.343433 0.259827 0.329786 0.252689 0.314791 -0.139462
0.373839 -0.205194 0.237007 0.487947 0.365355 0.31448 -0.0619588
0.26033 -0.125948 0.137458 0.235542 0.147132 0.275797 0.00549878
0.323638 -0.380234 0.30557 0.420636 0.326212 0.300563 -0.0920796
0.702367 0.291269 0.28173 0.428071 0.277629 0.288264 0.16963
0.322294 -0.296446 0.276579 0.380437 0.249044 0.368329 -0.0154713
0.307079 -0.26321 0.301304 0.207555 0.147253 0.28996 -0.14359
0.419235 -0.242706 0.300209 0.358112 0.293589 0.217967 -0.136974
0.359103 -0.41558 0.340329 0.339542 0.263871 0.257215 -0.123808
0.472647 -0.385141 0.328146 0.2392 0.0860526 0.361708 -0.163967
0.392412 -0.505058 0.380215 0.190846 0.135694 0.316044 -0.107834
0.312248 -0.324744 0.298262 0.433401 0.290043 0.341076 -0.0984168
0.418999 -0.275879 0.238216 0.284793 0.255484 0.288825 -0.123512
0.319858 -0.387627 0.287166 0.386355 0.364706 0.241582 -0.086492
0.354836 -0.540389 0.334296 0.177458 0.19033 0.379916 -0.0803835
0.30601 -0.281024 0.255927 0.348727 0.213939 0.253364 -0.0363772
0.387812 -0.304863 0.222029 0.487892 0.401886 0.302257 -0.10805
0.316567 -0.35531 0.312621 0.407041 0.225725 0.325209 -0.07664
0.357493 -0.343715 0.33065 0.303898 0.202883 0.286653 -0.086632
0.213686 -0.0502634 0.146687 0.0718771 0.0378664 0.164127 0.0149285
0.300846 -0.323898 0.334437 0.463928 0.241805 0.358898 -0.0638809
0.369313 -0.325152 0.242194 0.437691 0.340276 0.300331 0.0435327
0.399932 -0.296893 0.290601 0.415362 0.273602 0.268304 -0.121355
0.229468 -0.205597 0.189462 0.209827 0.188513 0.144389 0.0277022
0.446782 -0.258869 0.228211 0.418771 0.267776 0.268334 -0.03562
0.430629 -0.287183 0.23012 0.345341 0.205357 0.228074 -0.0701955
0.32409 -0.258812 0.205497 0.249355 0.202598 0.324562 -0.0681639
0.0489782 -0.0484599 0.0669545 0.0607815 0.0912296 0.0061336 0.0158272
0.233313 -0.0773662 0.173773 0.0659419 0.0426163 0.12822 0.0042919
0.129034 -0.12815 0.11206 0.158647 0.0519779 0.130393 -0.0795076
0.342196 -0.254045 0.272156 0.364296 0.318678 0.386178 -0.118833
0.433457 -0.239562 0.206834 0.340097 0.193742 0.298776 -0.0139837
0.36262 -0.2323 0.204554 0.196996 0.225407 0.301656 -0.119931
0.381967 -0.253435 0.232729 0.396516 0.271168 0.351786 -0.0846445
0.328817 -0.34968 0.359473 0.499032 0.31455 0.268995 -0.0485958
0.160841 -0.0929069 0.213551 0.218839 0.192924 0.158662 -0.00830347
0.302714 -0.266459 0.244234 0.190191 0.139871 0.242871 -0.115293
0.216456 -0.175592 0.184507 0.263627 0.169817 0.180548 -0.0691117
0.380051 -0.239066 0.185352 0.26618 0.264943 0.281174 -0.0326472
0.386898 -0.315522 0.239492 0.308515 0.194998 0.253702 -0.111069
0.290038 -0.218582 0.279453 0.293457 0.193922 0.319035 -0.0433958
0.282774 -0.269216 0.168372 0.334294 0.14499 0.225975 -0.0103971
0.331394 -0.150604 0.132699 0.16865 0.101115 0.216064 -0.0353682
0.204986 -0.152399 0.102108 0.0719568 0.137271 0.140111 0.0132594
0.165873 -0.155335 0.13645 0.195017 0.163275 0.138285 -0.0676589
0.236532 -0.251848 0.280766 0.201539 0.192593 0.193788 -0.0924272
0.301041 -0.153567 0.218362 0.249454 0.197646 0.268057 -0.0354261
0.273092 -0.108412 0.193191 0.230812 0.101825 0.156224 0.00119074
0.258707 -0.229823 0.213154 0.289628 0.240364 0.220601 -0.0464692
0.326563 -0.164468 0.210814 0.260355 0.187063 0.219564 -0.118179
0.263098 -0.108406 0.155071 0.118467 0.13018 0.24047 0.0241648
0.0996133 -0.0415369 0.0258219 -0.0196152 0.0257931 0.0764415 -0.0681352
0.32401 -0.248756 0.278669 0.229448 0.147469 0.182721 -0.0952842
0.0802206 -0.0158411 0.0454637 0.14951 0.116821 0.0435265 -0.0709151
0.376897 -0.198075 0.252625 0.221825 0.136187 0.267083 -0.0282001
0.22298 -0.143068 0.2203 0.162306 0.106653 0.133023 -0.111681
0.186653 -0.104249 0.186007 0.17746 0.150977 0.202699 -0.0554339
0.227988 -0.177766 0.175553 0.204518 0.135701 0.224436 -0.0889927
0.260212 -0.173071 0.122995 0.182487 0.103858 0.232222 -0.0869344
0.238211 -0.177839 0.108492 0.148325 0.159266 0.177312 -0.0207741
0.121837 -0.0509746 -0.0084378 -0.00750785 0.09581 0.0680585 -0.0692797
0.232613 -0.17437 0.241599 0.281328 0.202571 0.227355 -0.105933
0.357748 -0.281435 0.242853 0.263681 0.265556 0.20902 -0.0963414
0.267828 -0.277838 0.263355 0.21271 0.235403 0.228019 -0.114179
0.257775 -0.169782 0.188992 0.321476 0.164638 0.212486 -0.070351
0.271543 -0.236808 0.208312 0.155277 0.14195 0.232704 0.00687454
0.243451 -0.227319 0.176906 0.150222 0.208125 0.170218 -0.0938178
0.361978 -0.180298 0.170717 0.262295 0.236235 0.236349 0.00109477
0.241613 -0.0866577 0.12431 0.112689 0.113631 0.208872 -0.0975806
0.224233 -0.214027 0.22058 0.240917 0.192315 0.228699 -0.0968913
0.308091 -0.225842 0.189553 0.147806 0.163137 0.237473 -0.0939881
0.190496 -0.0826775 0.131824 0.104405 0.0596658 0.0976996 -0.054974
0.282051 -0.158448 0.176417 0.277615 0.26146 0.214026 -0.129864
0.150998 -0.0373537 -0.00413812 0.0877953 0.0748447 0.0166298 0.019757
0.144702 -0.0664881 0.113703 0.125914 0.105935 0.100766 0.016306
0.206256 -0.0661069 0.176882 0.127841 0.1001 0.102064 -0.0554523
0.0622975 -0.0116917 0.0324875 0.0646759 0.075188 0.0410209 -0.0668842
0.0755855 -0.0520021 0.00451222 0.0357144 -0.0121807 0.0252616 0.0316163
0.206601 -0.0858922 0.0889383 0.12476 0.112953 0.1693 -0.070587
0.263934 -0.187153 0.199037 0.195755 0.0768868 0.15861 -0.0508452
0.277664 -0.183469 0.133003 0.170631 0.123459 0.177612 -0.0166905
0.376093 -0.178801 0.211827 0.298153 0.203355 0.192566 -0.0639835
0.000377694 0.035045 -0.00710816 0.0378539 0.0806884 0.0303226 -0.0427931
0.0814532 -0.0361037 0.104421 0.0131036 0.059704 0.105456 -0.0351684
0.31757 -0.200212 0.195783 0.170785 0.118992 0.220857 0.0106929
0.26161 -0.185837 0.0964327 0.167805 0.152678 0.210419 -0.0799676
0.158507 -0.0675667 0.172856 0.161417 0.161449 0.137032 -0.0432323
0.224589 -0.0770796 0.101161 0.193559 0.137763 0.203381 -0.0969522
0.145642 -0.0957099 0.0912469 0.112945 0.0271871 0.160352 -0.0927483
0.0836731 -0.105002 0.0507422 0.115938 0.0304662 -0.0116971 0.0527317
0.119462 0.00574704 0.0589465 0.0424008 0.0414746 0.0726444 0.0192374
0.0609116 -0.0889805 0.079572 0.0742451 0.115385 0.0390192 -0.0526399
0.0276913 0.0328833 0.0132101 0.02011 0.0677015 -0.00393579 0.00875265
0.101731 -0.0517479 0.0444794 0.0604292 -0.0144496 0.115462 -0.0716771
0.180056 -0.124955 0.0832516 0.175992 0.155381 0.133904 -0.0703112
0.0115981 0.0119369 0.0712646 0.0115273 0.0451019 0.11946 -0.0314269
-0.00650057 0.0203513 0.0906166 0.00626648 0.0118709 -0.00895358 -0.0637672
0.00166627 -0.013397 0.0666431 0.0311183 -0.0341123 0.0110897 -0.00916695
0.0501158 0.0196794 0.0258611 0.0436658 0.048051 0.0500621 0.0433881
0.167191 -0.0994762 0.109024 0.228101 0.089047 0.179751 -0.0829552
0.120073 -0.1344 0.00905089 0.03533 0.0424914 0.0755552 -0.0205465
0.13607 -0.0992226 0.134474 0.178411 0.0267463 0.0505529 -0.0738476
0.0200933 0.0272332 0.0750997 0.0312896 0.0561407 0.00232552 0.0187273
-0.00264887 -0.0756612 0.0925468 0.013858 0.0575484 0.0673631 -0.0690622
-0.0130575 -0.0867131 -0.0188807 -0.0401804 0.0877673 -0.0265742 -0.00272509
0.0315714 -0.0401204 0.0676639 -0.00670735 0.106224 0.0267259 -0.058515
0.121799 -0.0117985 0.00427515 0.0226779 0.0256686 0.0785271 -0.040379
0.0700197 -0.0621453 0.00769091 0.0833279 0.0442548 0.0766607 0.00872521
-0.0304535 -0.0578377 0.0117394 0.0297586 0.0648981 -0.0177137 -0.0780188
0.084299 -0.074925 0.106358 0.05709 0.0490844 0.00805878 -0.0438176
0.0297233 -0.0178804 0.108267 0.0878135 0.0237538 0.0469852 0.038746