103 7
0.0416762 -0.163007 -0.0838333 -0.193992 -0.0533037 -0.0936576 0.0218296
-0.263897 -0.509328 -0.148578 -0.401884 0.0359431 -0.300838 0.360979
-0.0276042 -0.447328 -0.195464 -0.527976 -0.0183067 -0.325195 0.217269
0.0811554 -0.379318 -0.139759 -0.525907 -0.0240978 -0.299003 0.174475
0.0708029 -0.454926 -0.289817 -0.490671 0.0256316 -0.303002 0.239905
-0.16568 -0.420633 -0.260674 -0.433599 0.0174316 -0.402413 0.214512
0.0959054 -0.414523 -0.194367 -0.536245 -0.0603604 -0.295868 0.145256
0.550786 -0.159158 -0.378056 -0.581688 0.19901 -0.325593 -0.0181973
-0.0937518 -0.38799 -0.120157 -0.428915 -0.0247673 -0.387697 0.189199
0.10801 -0.367793 -0.205055 -0.562211 -0.0486202 -0.255494 0.248658
0.0474034 -0.463091 -0.237419 -0.391582 0.0047968 -0.35542 0.252823
0.03787 -0.451176 -0.230319 -0.465438 -0.0389769 -0.322001 0.221335
0.106031 -0.328232 -0.171572 -0.515628 0.0811277 -0.345765 0.172102
0.0710271 -0.160974 -0.135687 -0.164302 -0.0635024 -0.200635 0.0671091
0.078449 -0.378859 -0.219161 -0.448455 0.038051 -0.315206 0.139742
0.0308625 0.00312155 0.0268521 -0.0899352 0.0418541 -0.076879 -0.0445749
-0.0628255 -0.411518 -0.212344 -0.473905 -0.0460909 -0.366034 0.278545
0.0320846 -0.437295 -0.197872 -0.393218 -0.0763125 -0.373295 0.231956
0.0474893 -0.197016 -0.0277 -0.226782 0.0440537 -0.174124 0.0702289
0.00907329 -0.394776 -0.240098 -0.427071 0.0752997 -0.33269 0.212645
-0.256178 -0.521749 -0.183165 -0.424108 -0.0476992 -0.341723 0.255932
-0.0841017 -0.469652 -0.190475 -0.357619 -0.0978587 -0.241255 0.175772
0.062515 -0.127487 -0.107213 -0.033147 -0.0378556 -0.102102 0.0375012
-0.163408 -0.431584 -0.122722 -0.445067 -0.0653034 -0.34057 0.350772
-0.10809 -0.371208 -0.182263 -0.397838 0.0220202 -0.351623 0.30045
0.108085 -0.463015 -0.232912 -0.470046 -0.0787681 -0.239944 0.233103
0.0284942 -0.470837 -0.211684 -0.464761 0.0582295 -0.28018 0.243254
-0.009751 -0.430197 -0.0919104 -0.487518 0.0584336 -0.268305 0.149225
-0.0506572 -0.11881 -0.153007 -0.282193 -0.00337883 -0.13962 0.0983922
0.118628 -0.323269 -0.0928977 -0.438791 -0.0255263 -0.297593 0.191148
0.134979 -0.323953 -0.276812 -0.510706 0.095106 -0.359699 0.153874
-0.0170296 -0.238567 -0.174273 -0.314601 -0.0053807 -0.210082 0.11951
-0.00919675 -0.353231 -0.213214 -0.339973 -0.0460187 -0.318941 0.149003
0.0458496 -0.180418 -0.129048 -0.310003 -0.00340465 -0.232003 0.181562
-0.0505955 -0.158091 -0.0360218 -0.198065 0.0371218 -0.130947 0.123391
-0.0247605 -0.0852276 -0.028161 -0.107177 -0.0705079 -0.099386 0.0214177
-0.00448952 -0.402213 -0.172744 -0.424789 0.0371209 -0.347577 0.130496
-0.0278688 -0.298983 -0.174923 -0.271494 -0.0675276 -0.198886 0.0803314
-0.0648911 -0.115236 0.0116111 -0.152892 0.0387431 -0.0279168 0.0465069
-0.0274851 -0.178916 -0.184086 -0.299791 0.0279926 -0.174175 0.153415
0.0293479 -0.0167964 0.0340063 -0.051438 -0.0625935 0.00971403 0.026181
0.0227655 -0.0425256 -0.069339 0.00133844 0.0651646 0.0201181 -0.0359813
0.0421486 -0.225646 -0.110698 -0.228652 -0.0454147 -0.164756 0.135637
-0.079385 -0.349226 -0.0984188 -0.387849 0.0147197 -0.30304 0.16593
0.0723993 -0.34867 -0.094018 -0.373665 0.0543064 -0.316107 0.192584
-0.0020459 -0.271902 -0.190121 -0.313779 -0.0345912 -0.251818 0.214753
-0.0643058 -0.275037 -0.0968372 -0.320087 0.0480802 -0.304321 0.122566
-0.055272 -0.1886 -0.106603 -0.276996 -0.0262336 -0.139495 0.136563
0.00930546 -0.146185 -0.0902501 -0.0866629 0.0393509 -0.0362218 0.10746
-0.00402741 -0.0605443 0.0516022 0.0294547 -0.0356328 -0.0421208 0.0701016
0.0570452 -0.188919 -0.161732 -0.274413 -0.00440605 -0.153769 0.0508932
-0.00494821 -0.260408 -0.104758 -0.289531 0.0637218 -0.242176 0.0745424
-0.0164658 -0.225833 -0.036332 -0.24852 0.0358991 -0.0953926 0.118365
-0.114398 -0.228464 -0.17339 -0.344653 0.0292914 -0.264327 0.193407
0.0326863 -0.263492 -0.125421 -0.215588 -0.0582075 -0.119533 0.0601861
-0.0481377 -0.290348 -0.104279 -0.32606 -0.059734 -0.223005 0.135102
0.0600705 -0.393523 -0.136498 -0.431441 -0.0613792 -0.220095 0.16917
0.0483827 -0.0243009 -0.0441975 -0.0748222 0.0475426 -0.057127 0.0724668
-0.025362 -0.167892 -0.131368 -0.215796 -0.0625027 -0.162529 0.0571349
-0.037538 -0.0148081 -0.0827816 -0.0634266 0.0102272 -0.0532933 -0.0310227
0.0261177 -0.2813 -0.162071 -0.307464 0.0197758 -0.188931 0.0984443
0.00128194 -0.0433546 -0.0777096 -0.105575 -0.00316749 -0.103439 0.0516785
-0.0195044 -0.127793 -0.0902413 -0.032533 0.0229964 -0.0148718 0.0586223
-0.0619498 -0.164816 -0.00491025 -0.227392 0.0240502 -0.0861126 0.0805293
-0.000148855 -0.299021 -0.0689017 -0.334545 0.0593481 -0.191354 0.192835
0.0479863 -0.254799 -0.130587 -0.287901 0.0288073 -0.185221 0.159869
0.0728263 -0.0334914 -0.0407119 -0.0671145 0.0127268 -0.0679496 0.00787857
0.0654034 -0.224416 -0.0618302 -0.323632 0.025421 -0.13225 0.103597
0.0445357 0.0020375 0.00652869 0.0193141 -0.00949454 0.021184 0.0664042
0.0439177 -0.0876632 -0.0268758 -0.142353 0.0161519 -0.101619 0.0485742
0.0170265 -0.23612 -0.180113 -0.292097 0.00497286 -0.206897 0.132228
-0.0207243 -0.30019 -0.077431 -0.333602 -0.055869 -0.23751 0.203125
0.00817853 -0.0824339 -0.0430781 -0.0631697 0.00585122 -0.00511019 -0.0365221
-0.0307897 -0.150072 -0.117118 -0.193372 0.0352368 -0.104428 0.069843
0.0822689 -0.14357 -0.0490321 -0.280567 0.0050109 -0.201113 0.108984
-0.0409565 -0.114015 -0.0289787 -0.00774266 -0.00223963 -0.00897085 0.0661086
0.00975525 -0.0475764 -0.00535675 -0.162099 0.0118714 -0.124021 0.109366
-0.0100823 -0.107854 -0.0303401 -0.209945 0.0634608 -0.18952 0.119695
0.00170396 -0.160127 -0.0632561 -0.198998 0.0175302 -0.234051 0.192961
-0.0614579 -0.190773 -0.108897 -0.198882 -0.0433246 -0.113221 0.155655
-0.0255797 -0.058884 0.0287911 -0.117092 0.00210247 -0.00694198 -0.0257362
0.0216899 -0.0636348 -0.0430063 -0.147285 0.0402691 -0.123845 0.0280219
0.0602736 0.0137808 0.0139384 0.0286258 0.0506829 -0.026895 0.0110266
-0.00417065 -0.12815 -0.141475 -0.231218 -0.0543647 -0.125766 0.114312
-0.0347033 -0.298615 -0.107724 -0.420791 -0.0629198 -0.254988 0.190634
-0.0352677 0.0192538 0.0347536 -0.0936265 -0.00976146 -0.0544162 0.0391179
-0.0204275 -0.092679 0.00607776 -0.0629131 0.0291696 -0.0948647 0.029333
0.0563439 -0.0987979 -0.0109143 -0.0519522 0.0661195 -0.00803097 0.0567187
-0.0506344 -0.101324 -0.0719633 -0.00204481 0.0247548 0.0218721 0.0283627
0.0538424 -0.05932 -0.085019 -0.00962512 -0.0521015 -0.0342152 0.00435178
0.0423424 -0.14823 -0.0648367 -0.184739 0.0462165 -0.132986 0.144892
0.0265963 -0.204615 -0.146372 -0.309037 -0.0330582 -0.225783 0.163774
0.00858952 -0.104315 -0.0407009 -0.154668 0.0207454 -0.130485 0.0233725
0.0386935 -0.204407 -0.107396 -0.213773 0.034386 -0.144561 0.0660274
0.0195194 -0.0692563 -0.0446156 -0.0346208 0.0251295 -0.0331411 0.0765023
0.0589213 -0.085107 0.032856 0.0149576 -0.0253513 -0.0799359 -0.0389193
-0.0599681 -0.113612 0.00932946 -0.0978676 0.0390139 -0.0772002 -0.0288527
-0.0220557 -0.0883827 -0.0107977 -0.209519 0.0474623 -0.0946667 0.120364
-0.0505135 -0.0292573 0.0297655 -0.0564239 -0.0490481 -0.0948559 0.0657427
-0.0132975 -0.0985131 -0.107816 -0.196637 0.00380971 -0.0688239 0.0976588
0.0646067 -0.0840142 -0.0944603 -0.16418 -0.0188387 -0.12695 0.0474365
0.0694393 -0.135995 -0.0800536 -0.143382 0.069629 -0.107023 0.021149
0.0280957 0.0156635 0.0318834 -0.0863148 -0.0437654 0.00514331 0.0145241