170 8
0.144775 0.0496336 0.93365 0.0594783 -0.372928 -0.257593 -0.0212073 -0.639744
-0.067731 0.376222 0.140761 -0.693273 -0.476949 -0.929449 -0.0123099 0.879946
0.094933 0.377918 0.597095 0.290121 -0.112443 -0.300267 0.0390103 -0.298151
0.0205372 0.0408731 0.425442 -0.165205 -0.472509 -0.195232 0.352518 -0.186258
0.0359373 0.0234068 0.527683 0.134928 -0.0124029 -0.488885 0.0367232 -0.172415
-0.124664 0.208221 0.474002 0.0732747 -0.350085 -0.195857 0.154087 -0.289542
-0.0618154 0.0627711 0.485787 -0.0722722 -0.272595 -0.280008 0.0578425 -0.147973
-0.108602 0.101789 0.43374 -0.054866 -0.324914 -0.251551 0.192002 -0.28308
-0.0519208 0.0426364 0.609311 0.0284701 -0.00666102 -0.395324 -0.0412622 -0.168268
-0.162614 -0.0512883 0.521101 -0.130598 -0.220905 -0.269069 0.139616 -0.20767
-0.00704533 0.0775819 0.384668 -0.107188 -0.253923 -0.278736 0.111588 -0.1121
-0.121633 0.0623859 0.557554 -0.258359 -0.402033 -0.0632185 0.394432 -0.292748
0.0272195 0.0683751 0.458584 0.0139102 -0.1501 -0.414874 0.0350044 -0.215658
-0.167658 0.0493207 0.525186 -0.141293 -0.238703 -0.245275 0.120947 -0.216923
-0.0197099 0.0880646 0.463429 -0.118449 -0.48179 -0.143819 0.276377 -0.291531
-0.0513739 0.106916 0.437846 -0.0519597 -0.451116 -0.20834 0.214932 -0.202504
-0.103721 0.0628079 0.515523 -0.0615001 -0.371362 -0.182624 0.207747 -0.174542
0.0221372 0.0903951 0.181545 -0.0254181 -0.147002 -0.0985252 0.0740796 -0.0449024
-0.0727586 0.148526 0.499578 -0.158377 -0.316314 -0.242855 0.117871 -0.229105
-0.00395565 0.101715 0.469834 -0.0476938 -0.411941 -0.190548 0.323401 -0.24405
0.0565903 0.116423 0.454748 0.0345406 -0.193289 -0.390832 0.106284 -0.0961221
-0.13802 0.0525995 0.535772 -0.0717678 -0.321286 -0.186663 0.208362 -0.217705
0.0100662 0.117299 0.426347 0.000169477 -0.369322 -0.255285 0.321856 -0.197648
0.745236 0.639506 0.462932 1.11548 -0.87822 -0.574132 1.11699 0.405072
0.484298 0.14165 0.312806 0.0388346 -1.3786 -0.238751 1.13269 -0.0354945
-0.105619 -0.253101 0.0586076 0.12986 -1.38752 -0.427565 0.849708 -0.138028
-0.155677 0.305808 0.0110355 -0.00378988 -0.900798 -0.442393 0.973513 -0.193081
0.786845 0.690038 -0.370635 0.594756 -1.37215 -1.0696 0.506284 -0.394931
-0.0727852 0.126313 0.383468 -0.0167738 -0.347163 -0.243756 0.24518 -0.128099
-0.0329884 0.840869 0.236801 0.311493 -1.36399 -0.134735 0.966009 -0.114866
-0.0100081 0.104117 0.317917 -0.0324756 -0.29892 -0.277131 0.178868 -0.104679
0.732085 0.737934 0.0922989 0.967037 -0.61305 -0.881251 0.896271 -0.0922589
-0.13194 0.15124 0.133184 -0.0259046 -1.01516 -0.27357 1.02202 -0.294437
-0.115939 0.227251 0.293746 -0.120656 -0.622676 -0.201074 0.690057 -0.106489
0.0330042 0.101369 0.401955 0.0663099 -0.29765 -0.320155 0.185296 -0.133839
0.326993 -0.0292187 0.265956 -0.0996818 -1.32447 -0.229858 1.12225 -0.2146
-0.0603524 0.348269 0.369546 -0.186007 -1.21628 -0.039114 1.20028 -0.161094
0.367143 0.561319 0.173029 0.48624 -0.827637 -0.435461 0.641339 -0.0462794
0.227608 1.24871 0.174453 -0.572544 -0.566926 -0.334566 1.14764 -0.334664
-0.568028 1.27162 0.525037 0.636484 -1.21444 0.181962 0.758764 -0.103016
0.122025 0.284332 0.291713 0.119804 -0.691811 -0.220443 0.520109 -0.32761
0.0926987 0.151846 0.564605 -0.00644962 -0.23011 -0.270744 -0.0401034 -0.131666
0.715876 0.493643 0.0684628 0.739054 -0.665494 -0.812912 0.506056 -0.201402
-0.0278884 0.131264 0.299464 -0.242731 -1.03619 -0.147538 0.893731 -0.036531
0.332237 0.813246 0.269849 -0.188023 -0.968232 -0.17915 1.14652 -0.222723
-0.124784 0.0986075 0.320358 0.229957 -1.01716 -0.272671 0.915803 0.175679
0.0604943 0.357089 0.397997 -0.253887 -1.10758 0.0140066 0.917991 -0.263753
0.0043107 0.10497 0.34322 -0.203158 -0.899786 -0.0848168 0.673779 -0.251345
-0.112574 0.375108 0.32745 -0.0182804 -0.888793 -0.074476 0.766168 -0.0638365
0.106871 -0.005417 0.857548 -0.175597 -0.0110074 -0.490674 -0.272439 0.00926115
0.0238303 -0.0139403 0.119281 0.0383549 -0.0985589 0.0155021 -0.0174377 -0.0503568
0.0998159 0.2225 0.351753 0.0879466 -0.391504 -0.365428 0.234654 -0.0158982
0.0295471 0.0975408 0.412586 0.0333612 -0.373172 -0.343653 0.282447 -0.0835252
0.0830247 0.264088 0.268787 0.144651 -0.280062 -0.379205 0.33105 -0.0527249
-0.170324 0.0892683 0.486721 -0.12841 -0.57651 -0.0874782 0.444811 -0.221045
0.514219 0.267111 0.175615 0.430569 -0.4052 -0.717573 0.257411 0.0366509
0.0747617 -0.141433 1.32544 -0.258508 -0.307745 -0.395769 -0.272563 -0.786731
-0.098257 -0.0723911 0.525555 0.0100108 -0.148735 -0.324091 0.00282699 -0.117817
0.0600789 0.223579 0.223971 0.0698875 -0.277511 -0.377357 0.258773 -0.0113494
0.0859533 0.0752469 0.597977 -0.00613461 -0.238805 -0.299992 0.0264371 -0.21555
0.022642 0.0762582 0.421626 -0.0490802 -0.201447 -0.273541 0.039282 -0.168847
-0.229338 -0.0855872 0.638461 -0.110247 0.00849891 -0.380933 -0.0781256 -0.271253
-0.127404 -0.0570177 0.640178 -0.0663172 -0.0136131 -0.35907 -0.05876 -0.277639
-0.206162 -0.0146099 0.774402 -0.162749 0.0491831 -0.379485 -0.144351 -0.188941
-0.0760119 -0.0283973 0.520835 -0.120017 -0.0746822 -0.400254 -0.134924 -0.205086
-0.346004 -0.0918461 0.962102 -0.28587 0.280741 -0.496687 -0.384148 -0.276836
0.14999 0.104257 0.300006 0.0478972 -0.898563 -0.282426 0.721699 0.154654
0.0944104 -0.309255 1.77236 -0.529576 -0.318659 -0.731492 -0.759161 -0.860949
-0.304098 -0.180154 0.903565 -0.166491 0.131344 -0.360783 -0.163754 -0.221487
-0.084314 0.024109 0.574022 -0.102229 -0.0256895 -0.317717 -0.0389348 -0.14197
-0.152198 0.000124459 0.542905 -0.142205 -0.0665697 -0.382775 -0.0308939 -0.00352605
0.032313 0.0961888 0.18269 -0.00509519 -0.12938 -0.0866642 0.12131 -0.0513149
-0.0547355 0.0515451 0.173935 0.0320574 -0.0791093 -0.142586 0.0864129 -0.129756
-0.059622 0.0170474 0.233669 0.0299638 -0.137547 -0.088089 0.0488488 -0.0696433
0.0537488 0.0281887 0.546106 0.0334881 -0.276502 -0.288253 0.0822219 -0.265351
0.0405442 0.0275793 0.382746 -0.100214 -0.365273 -0.277987 0.227748 -0.199093
0.0101111 0.0763246 0.238816 -0.00188762 -0.123077 -0.183451 -0.0205287 -0.0266299
-0.0236447 0.141673 0.306826 -0.037961 -0.300739 -0.205861 0.134668 -0.0935349
0.0116115 0.0771601 0.485169 -0.0583269 -0.215174 -0.268458 0.163127 -0.106986
-0.0240844 0.00350869 0.248386 0.00246406 -0.0840254 -0.185196 0.0841856 -0.118429
-0.00831833 -0.0123222 0.135393 -0.0522466 -0.0839788 -0.142026 -0.0023104 -0.0693636
-0.0470058 0.000495094 0.12106 0.000500314 -0.0764826 -0.117045 0.0582597 -0.00732091
0.0306717 0.0149687 0.10488 0.0052906 -0.102509 -0.0493452 0.0096548 -0.0965987
-0.0507769 0.167457 0.400782 -0.0343639 -0.513671 -0.165427 0.399923 -0.133285
-0.183596 0.0292124 0.610339 -0.0769804 -0.0948838 -0.315074 -0.0791198 -0.178395
-0.0119143 0.0662588 0.254596 -0.0527626 -0.281777 -0.177529 0.144534 -0.0570185
-0.0310633 0.0375416 0.116165 -0.00166098 -0.101336 -0.0541128 0.0439715 -0.103071
-0.0599437 0.0459981 0.194248 -0.026533 -0.0798824 -0.109979 0.0479568 -0.0745762
0.0358281 0.0880142 0.027176 0.00641851 -0.13187 -0.0495554 0.0958157 0.00232695
-0.0460753 0.0769153 0.101536 -0.0531491 -0.120895 -0.110758 0.12334 -0.0268125
-0.0390874 0.0692472 0.189393 0.0487075 -0.200635 -0.109454 0.128736 -0.135702
0.0520835 0.0386772 0.266093 -0.0644211 -0.232914 -0.108241 0.0857314 -0.0360061
-0.146034 0.0093598 0.566697 -0.112188 -0.0278617 -0.321763 -0.0352973 -0.234111
-0.0508451 0.057546 0.358202 -0.0615267 -0.194236 -0.247832 0.110556 -0.0158495
0.0148544 0.0141044 0.0477207 0.0475383 -0.0928622 -0.0533824 0.0181569 0.00219082
-0.118589 -0.0119639 0.539448 -0.0640336 -0.100917 -0.336463 -0.0470294 -0.0887249
-0.0378667 0.100325 0.342915 -0.0833722 -0.330378 -0.217047 0.156017 -0.0979015
-0.00783721 0.00708419 0.0823755 0.0257463 -0.0632917 -0.0803045 -0.037245 0.00275922
-0.00916373 0.0185729 -0.00101317 -0.0176594 -0.0433088 -0.046388 0.0532695 -0.0654239
-0.038203 0.0525482 -0.00660236 -0.0354244 -0.0759371 -0.0184419 0.0553513 -0.0559089
-0.0265097 0.0734162 0.407932 0.00484362 -0.289802 -0.305945 0.132375 -0.108519
-0.0365163 -0.027358 0.0637891 -0.0205645 -0.0427713 0.00918366 -0.0175811 -0.010044
-0.0709855 0.032438 0.394505 -0.0166206 -0.195581 -0.253392 0.104643 -0.135608
-0.0183606 0.0463756 0.104113 0.028769 -0.0745229 -0.0133817 0.0229567 -0.0731797
-0.0630422 0.0642235 0.0225542 -0.00144962 -0.014157 0.00998837 0.0696304 0.0290223
-0.0193191 -0.0276162 0.0892101 -0.0259787 -0.121106 0.00242217 0.0755679 -0.0302516
-0.0596714 -0.0472202 0.0372568 0.0175262 -0.0551378 -0.0186064 0.0570391 -0.0624939
-0.0617557 -0.0301616 0.0359991 -0.0133357 -0.0518827 -0.0757738 0.0807944 -0.0312097
-0.0110701 0.0684384 0.0847624 -0.0392004 -0.059376 -0.0491526 0.0375002 -0.012805
-0.0327521 0.0906346 0.0644702 -0.0425989 -0.0941293 -0.0459488 -0.0201115 -0.0702696
0.0564852 0.0628732 0.224841 -0.00779512 -0.12104 -0.167045 0.0964514 -0.101636
-0.0129812 0.0134575 0.167704 -0.0209365 -0.108333 -0.130838 -0.00855458 0.00983184
-0.0373042 0.0700345 0.101349 -0.0596644 -0.100089 -0.124224 0.0359149 -0.0143987
-0.075321 0.0918613 0.317077 -0.0349579 -0.168387 -0.273916 0.105675 -0.106569
-0.0364021 0.0708315 0.0910906 0.0382167 -0.0167776 -0.0824475 0.0205114 0.00308515
-0.0536445 -0.0164601 0.177434 -0.039412 -0.121826 -0.0638194 0.0595027 -0.00706645
-0.0191639 -0.0330992 0.0952503 -0.0457588 -0.0179267 -0.0791952 0.021867 0.0114834
0.00882055 0.0766061 0.0207242 -0.0030138 -0.0511633 -0.0255506 0.0130166 -0.078165
0.0519516 0.0733956 -0.0136903 0.053204 -0.0456245 -0.0426703 0.0899359 -0.0726883
-0.0273371 -0.0168298 0.0701547 -0.0611852 -0.0102937 -0.0858668 0.0657263 0.0461633
-0.0597599 0.0418516 0.0923566 0.0343757 -0.026851 -0.0244564 0.080363 -0.0600699
0.0249771 0.0908259 0.118282 0.0372748 -0.179639 -0.0589225 0.0837237 -0.0660111
0.0227719 0.0208429 0.0785985 0.0481982 -0.086358 -0.0176921 0.0586394 -0.0525871
0.0513721 0.0415728 0.217018 0.0503578 -0.173531 -0.1358 0.0756757 -0.0118854
-0.00289307 -0.0375543 0.0186361 0.0392094 -0.0725339 0.000118503 -0.0199476 0.0169577
-0.0583639 0.0475073 0.0308175 -0.0392289 0.00371706 -0.00545158 -0.0178237 -0.0408629
-0.0264688 0.0232082 0.00450263 -0.0217496 0.00341238 0.030397 0.0447024 -0.00054353
0.0257071 0.0695353 0.031269 0.028914 -0.0644576 -0.0736808 0.0383342 -0.0435343
0.0474215 0.071475 0.0993588 0.051221 0.0140031 -0.0795219 0.0444556 -0.00750338
0.0569892 0.063261 0.13462 -0.051455 -0.0146858 -0.0195504 -0.0271409 -0.104202
-0.00705636 0.0027447 -0.0503066 -0.05342 0.0404878 0.0387453 -0.0304708 -0.0189721
0.0592812 -0.0408446 -0.00133137 -0.0165919 -0.0512705 -0.0689265 -0.0442535 -0.0310722
0.0203713 0.07091 0.0411638 -0.0272122 -0.00305885 -0.129041 0.0215987 -0.0605294
-0.0506996 0.0382586 0.095764 0.0619296 -0.113326 -0.146666 0.0450522 -0.0252546
-0.0240686 -0.0340101 0.0935814 -0.0261829 -0.051853 -0.0727102 -0.0190793 0.00197815
0.0309839 -0.0393277 0.130529 -0.0543809 -0.0413128 -0.118795 0.028361 -0.0288089
0.0195929 -0.0320734 0.00854538 -0.0106347 -0.00997572 0.00975868 -0.012995 0.0277799
0.0134455 0.0616477 0.0397157 -0.00747793 0.0203128 -0.00434636 0.0403157 0.0155667
0.0258783 0.00517829 0.0364968 0.0413553 -0.0784901 0.00167632 -0.0242518 -0.0594344
0.00611774 0.065754 0.00886942 0.0376883 -0.0450238 -0.00878193 0.000366906 -0.00277783
-0.0044717 0.0404248 0.201285 0.00074498 -0.0753426 -0.169681 0.0636602 -0.0136701
0.0473073 0.0135208 0.01744 0.0386051 0.00162174 -0.0543036 0.0628803 -0.0563416
-0.0166036 -0.0254063 0.0742301 -0.0330489 -0.0758876 0.0037533 0.0711613 -0.0183259
-0.0609408 -0.0277491 -0.033646 0.0459218 0.0123161 -0.00522283 0.0645652 0.0499203
0.0536213 -0.00153066 0.0741109 -0.0497367 -0.00689561 -0.0603178 -0.0284479 0.000250151
0.0426322 0.00467824 0.242416 0.0260228 -0.0632547 -0.169202 0.100361 -0.0342675
0.0025292 -0.00260664 -0.00257796 -0.02199 0.0376212 -0.046532 0.0500454 -0.0205497
-0.0464222 -0.0169836 -0.00572174 -0.057664 -0.0105705 0.0276606 0.0387169 -0.0239029
0.0151466 -0.0547278 0.0185402 -0.0259606 0.0084569 -0.010987 0.0290476 -0.00117623
-0.0364096 0.0377641 -0.0182999 -0.0477057 -0.0435876 -0.0334826 -0.00810485 0.0560561
-0.00363901 0.00253948 -0.0347647 0.0637529 0.0314574 0.0312816 -0.0390983 0.0137211
0.0503236 0.0116774 0.0327924 -0.0414735 -0.0705288 -0.0805075 0.0554197 -0.0843486
-0.0212886 -0.0375888 -0.0283835 0.0634544 0.0463059 -0.0578945 -0.027973 0.0240892
-0.020304 -0.00539583 0.104581 -0.0401091 -0.0702681 0.00199225 -0.0102805 -0.0330049
-0.0171096 0.00122774 0.141204 -0.0288156 -0.0536558 -0.110879 0.10343 -0.0218689
-0.0120225 -0.0172884 0.00757405 0.0557545 -0.00997443 -0.0280568 0.0550128 -0.0377928
-0.0579326 -0.0113683 0.0809667 -0.049283 0.0255889 -0.113327 -0.0324404 -0.0327888
0.0126102 -0.00266278 0.0399186 -0.0557898 -0.0395977 0.0156987 -0.00887208 -0.064574
0.00124239 0.0654751 0.0912137 -0.0125343 -0.0725404 -0.0496086 -0.0231011 0.0370763
0.0518543 -0.0304614 0.0987407 0.0385785 -0.019602 -0.0585964 0.000547554 -0.0221083
-0.00152027 -0.00912055 -0.00957864 -0.00488306 0.0160919 -0.0286928 -0.0189868 0.00372381
-0.0182091 -0.00446366 0.00668597 0.0389901 -0.0141303 -0.0295332 -0.0203916 -0.02021
0.0134001 -0.0599151 0.0156205 0.030472 0.0283226 -0.00160511 0.0145295 -0.0280657
-0.0248284 -0.0066648 0.0371369 -0.0282577 -0.0712491 0.0368225 0.0072173 -0.0679402
0.0412917 0.0571936 0.00152755 -0.0213466 0.0140514 -0.0085977 -0.0148204 -0.0163933
-0.00586675 -0.0420605 0.0453015 -0.0583686 -0.0369388 0.013131 0.0403651 0.0255807
0.0168321 -0.00507694 -0.0182696 -0.0280771 0.0264048 -0.0175023 -0.0583485 0.0298802
0.0564893 -0.00313299 -0.0305354 -0.0503186 -0.0153126 0.0360555 -0.00559914 -0.00431698
-0.0136578 0.0481112 0.0109913 -0.00171206 0.0132273 0.0272298 -0.0127112 0.011927
0.0177069 -0.0479003 -0.022265 0.0526456 0.0260776 0.0592956 0.0585898 -0.0293323