103 7
-0.192435 0.0289113 -0.0921078 0.173752 0.0569746 -0.0620528 -0.0836728
-0.117732 0.172653 0.0259711 0.562649 0.429541 -0.271903 -0.42809
-0.398148 -0.0621431 -0.0808082 0.489928 0.182008 -0.35864 -0.348723
-0.372961 -0.120536 -0.179477 0.512787 0.152244 -0.289277 -0.194848
-0.455214 -0.0927426 -0.18919 0.45592 0.246842 -0.300358 -0.302281
-0.337318 0.0199257 -0.0306977 0.587042 0.235363 -0.195869 -0.381867
-0.390705 -0.106886 -0.0820757 0.513831 0.149636 -0.309188 -0.265467
-0.367804 -0.233238 -0.741942 0.346635 0.173783 -0.355227 0.0351041
-0.35517 -0.0330215 -0.11327 0.423041 0.269453 -0.24403 -0.28941
-0.382299 -0.178643 -0.116606 0.545883 0.128133 -0.294217 -0.219734
-0.417719 -0.0337035 -0.0208515 0.464156 0.218733 -0.331388 -0.283455
-0.375586 -0.0803491 -0.171329 0.45814 0.250175 -0.289864 -0.326985
-0.369657 -0.00502527 -0.096602 0.511915 0.181422 -0.276078 -0.267322
-0.209347 -0.0728696 -0.0566296 0.194199 0.166414 -0.0729682 -0.10563
-0.372115 -0.0467574 -0.0577621 0.512017 0.258835 -0.194578 -0.181858
-0.0208626 -0.0162069 -0.0759573 0.0857363 0.0724311 -0.0380658 0.00669467
-0.343062 0.0130757 -0.067379 0.510417 0.314143 -0.250617 -0.368071
-0.362209 -0.0749202 -0.0794699 0.511361 0.192504 -0.313874 -0.211561
-0.125449 -0.0517104 -0.0269192 0.242366 0.0533105 -0.183633 -0.114124
-0.322401 -0.109008 -0.127629 0.495924 0.1593 -0.325063 -0.244943
-0.243608 0.168725 0.0162447 0.449619 0.49483 -0.267373 -0.452576
-0.228814 -0.0612828 0.0312574 0.494116 0.20369 -0.236002 -0.318774
-0.0368326 0.0496045 -0.0884686 0.14555 0.0725903 0.0149172 -0.0231222
-0.329104 0.0364966 0.0703178 0.554223 0.295582 -0.248559 -0.279907
-0.28539 -0.0242138 -0.109621 0.527865 0.216103 -0.229229 -0.261219
-0.395215 -0.106833 -0.0703052 0.470757 0.145638 -0.30441 -0.335881
-0.384918 -0.106727 0.00410328 0.51337 0.176617 -0.300676 -0.33522
-0.35598 -0.0833442 -0.153584 0.403369 0.166682 -0.35473 -0.242896
-0.137802 -0.00855221 -0.0487079 0.201108 0.105917 -0.171268 -0.139331
-0.339361 0.0129702 -0.143698 0.425219 0.216683 -0.216285 -0.18462
-0.393672 -0.0798103 -0.0849834 0.497572 0.184137 -0.330616 -0.233841
-0.263275 0.00236527 -0.0421444 0.333405 0.114814 -0.118441 -0.169756
-0.326614 0.0315009 -0.101777 0.364864 0.158137 -0.235062 -0.274152
-0.154124 -0.0433144 -0.119356 0.321855 0.169362 -0.185708 -0.161229
-0.118273 -0.0832777 -0.0861329 0.263195 0.0374173 -0.111987 -0.0604976
-0.155445 0.00908684 -0.0831373 0.121457 0.0475581 -0.0168408 -0.0981373
-0.375044 -0.0587397 -0.147712 0.449282 0.128197 -0.294696 -0.242664
-0.23651 -0.00330863 -0.0496614 0.295901 0.0973109 -0.221064 -0.173301
-0.0274047 0.0189511 -0.0310452 0.0602719 0.0472118 -0.0616623 -0.0189331
-0.226338 -0.0375167 -0.0582643 0.278801 0.121835 -0.185887 -0.210685
0.029238 0.0686974 -0.00244533 0.0586332 -0.0341917 0.0256819 -0.0050787
0.0351766 -0.00729851 -0.00259558 -0.0461056 0.0185606 0.0527174 0.0256116
-0.199772 -0.0205712 -0.0765079 0.222304 0.153835 -0.0963432 -0.167464
-0.24082 -0.00690592 -0.0762848 0.355806 0.237732 -0.286275 -0.298299
-0.261323 -0.0212822 -0.052821 0.365673 0.236761 -0.268716 -0.279513
-0.268011 0.0290928 -0.0287752 0.404149 0.200577 -0.168829 -0.141975
-0.176486 0.0107749 -0.0709251 0.404278 0.219707 -0.2013 -0.226741
-0.214876 0.0016083 -0.033048 0.319947 0.132217 -0.0969166 -0.165931
-0.0329776 -0.029925 0.00940873 0.168887 0.00173128 -0.0659546 -0.0711556
-0.0254288 -0.03541 -0.0270594 -0.000926722 0.0508439 -0.00853009 -0.0883953
-0.19324 -0.0901779 -0.0808856 0.224012 0.151303 -0.108707 -0.118326
-0.208349 -0.0551994 -0.119726 0.274574 0.203759 -0.160073 -0.231255
-0.163515 -0.0449376 -0.106495 0.22991 0.10021 -0.0843516 -0.097963
-0.212581 -0.0455591 0.00236023 0.308188 0.237329 -0.262455 -0.206582
-0.191289 0.00458219 -0.0881552 0.190384 0.0568861 -0.204342 -0.10096
-0.232065 0.0292915 -0.104256 0.347396 0.176888 -0.223234 -0.208413
-0.335246 -0.0606448 -0.0702203 0.365183 0.235519 -0.28988 -0.222132
-0.0710698 0.0399439 -0.0435304 0.119756 0.086004 -0.0921212 -0.084152
-0.111286 -0.0676519 -0.0325942 0.217393 0.0657109 -0.178925 -0.0686447
-0.045964 0.0518696 0.0516755 0.127914 0.0117884 -0.0300216 -0.0662169
-0.257002 -0.0130756 -0.07335 0.303004 0.113919 -0.214183 -0.154351
-0.0780056 0.0278525 -0.030066 0.0518922 0.0908315 -0.0123816 -0.0523188
0.0157092 -0.0568615 0.0587864 0.0010695 0.0834524 0.0237802 -0.106844
-0.0741321 -0.000556041 -0.0161268 0.217417 0.125574 -0.0848743 -0.060878
-0.290308 0.000708807 -0.00618537 0.26202 0.134501 -0.22646 -0.125386
-0.193394 -0.0907737 -0.0201999 0.262554 0.143387 -0.21469 -0.199031
-0.0864781 -0.0141795 -0.0318328 0.0723068 0.0326593 -0.0791615 0.0115248
-0.215808 -0.0483917 -0.127594 0.276087 0.175791 -0.15803 -0.156443
-0.0827009 -0.0480757 -0.0494783 0.0779732 0.0507984 -0.0793322 0.00662214
-0.0748035 0.0422295 0.0121933 0.11842 0.021019 -0.069552 -0.0762178
-0.179016 -0.0566943 -0.0975885 0.309502 0.106457 -0.141875 -0.233583
-0.250904 -0.0635569 -0.0177874 0.377133 0.231483 -0.177847 -0.210035
0.0128409 0.0134294 0.0131055 0.0972366 0.0404323 -0.0493662 0.000427661
-0.16788 -0.0500989 0.0326843 0.230759 0.0232246 -0.0377108 -0.0817282
-0.223948 -0.027095 -0.0365111 0.291797 0.071631 -0.131515 -0.191478
-0.0348148 -0.0723787 0.0281135 0.00212422 0.0265663 -0.0777006 -0.0686154
-0.0429711 -0.0512277 -0.0166414 0.163472 0.0702264 -0.0393517 -0.0577222
-0.0864028 0.041458 -0.089834 0.170961 0.155151 -0.108171 -0.076282
-0.220495 -0.0850919 -0.103242 0.225673 0.168539 -0.179022 -0.0929499
-0.100735 0.0095907 -0.0734794 0.210499 0.0967873 -0.116769 -0.149281
-0.117472 -0.0401549 -0.00870049 0.0448227 -0.023397 -0.0328025 0.00301133
-0.128278 0.0393757 -0.0635356 0.142062 0.125093 -0.045669 -0.0848594
-0.00503539 -0.0343068 -0.0566282 0.068934 0.0449658 0.0445332 -0.0588332
-0.125565 0.0370987 0.000512146 0.172501 0.0493492 -0.103667 -0.0887922
-0.213042 0.0279379 -0.131859 0.438875 0.197199 -0.247126 -0.196273
-0.0758535 0.0358086 0.00344246 0.0610074 -0.0544293 -0.0288161 -0.0772581
0.0167307 -0.0011724 0.0261495 0.000189378 0.00239385 -0.014143 0.0355014
-0.0431389 0.00603716 0.00213014 0.0395818 0.0758711 0.0374287 -0.0380416
-0.0302131 0.0352758 0.0194731 0.089998 0.0304212 0.023677 -0.0118095
-0.099054 0.0485061 0.0330123 0.0813093 0.0898868 -0.0809291 0.0104621
-0.120797 -0.0493859 0.0185252 0.241753 0.125963 -0.17112 -0.178206
-0.175407 -0.0424881 -0.0484814 0.263857 0.208457 -0.131409 -0.223687
-0.0809161 -0.00480051 -0.0480851 0.179593 0.041736 -0.0813782 -0.11704
-0.203424 -0.0863442 -0.0317376 0.239273 0.096134 -0.134265 -0.0878754
0.0139649 -0.0562587 -0.0456822 0.0821233 0.00165205 0.0155092 -0.090255
-0.087343 -0.0390224 -0.0273756 0.0195211 -0.0435681 0.0375529 -0.0787991
-0.0038874 -0.0429391 -0.0361754 0.119775 0.0631206 0.00862903 -0.108211
-0.109601 0.0299896 -0.0855506 0.14941 0.0784269 -0.153192 -0.0179336
-0.0489565 0.0174404 0.0568543 0.0104591 0.0199617 -0.0933185 0.0215913
-0.127762 0.0199736 0.0232639 0.161568 0.0256976 -0.0525445 -0.159996
-0.129158 -0.0448385 -0.00260339 0.115718 0.123693 -0.0696821 -0.0909936
-0.143188 0.0149367 -0.0621899 0.119635 0.074635 -0.0908506 -0.109629
0.0385645 -0.052856 0.0581958 0.090597 -0.0478083 -0.0453139 0.0219617