103 7
0.0823791 -0.0803445 0.0241484 -0.135762 -0.0239898 0.0234166 0.0136915
0.183549 -0.340055 0.15585 -0.520606 0.309238 -0.138301 -0.103934
0.0480245 -0.258794 0.292957 -0.484091 0.214297 -0.168188 -0.0583209
0.142661 -0.242617 0.280871 -0.470809 0.223271 -0.10371 -0.112727
0.0480644 -0.256137 0.31556 -0.549653 0.163694 -0.174255 -0.0483908
0.0545703 -0.320446 0.248706 -0.574312 0.210009 -0.113831 -0.0484957
0.0571702 -0.186096 0.266065 -0.391918 0.211544 -0.180677 0.00983517
0.183793 -0.27423 0.342821 -0.562769 0.113015 -0.226451 0.0739788
0.133496 -0.301408 0.167513 -0.391978 0.216185 -0.191295 -0.0581439
0.0661349 -0.365788 0.233413 -0.514344 0.183148 -0.169388 -0.118578
0.133867 -0.259429 0.158717 -0.400966 0.150064 -0.16365 -0.0349843
0.0731229 -0.28257 0.155052 -0.472502 0.245357 -0.152746 -0.0944843
0.0628837 -0.207934 0.207761 -0.473357 0.274237 -0.218035 -0.0601231
-0.0224248 -0.0709043 0.028787 -0.171808 0.030152 0.016346 -0.00788311
0.139993 -0.18168 0.168321 -0.375107 0.205753 -0.163416 -0.066948
0.0178282 -0.0545198 -0.0118988 -0.0645188 0.0770021 -0.0213668 -0.0144233
0.110059 -0.313816 0.262202 -0.496946 0.246499 -0.135385 -0.0478847
0.0539059 -0.249244 0.164845 -0.458021 0.175984 -0.0910433 -0.0481606
-0.0213714 -0.0163733 0.0297037 -0.139276 0.00538856 -0.0836382 0.0153232
0.109104 -0.194535 0.149522 -0.525213 0.123723 -0.153554 -0.110859
0.189761 -0.317578 0.237112 -0.473575 0.274731 -0.159775 -0.13053
0.0427998 -0.142489 0.0954447 -0.309143 0.173826 -0.127147 -0.0133877
-0.0495847 -0.0623032 0.0870137 -0.0990264 0.0859231 -0.0171269 -0.0514903
0.0678287 -0.22352 0.219962 -0.561977 0.276704 -0.179341 -0.0691643
0.133773 -0.307205 0.146248 -0.434639 0.158538 -0.126987 -0.085835
0.158387 -0.326502 0.18593 -0.494303 0.144651 -0.139725 -0.0701085
0.153088 -0.256347 0.257155 -0.566544 0.150362 -0.0777364 -0.133673
0.144019 -0.218406 0.156472 -0.46789 0.173841 -0.0974018 -0.010596
-0.0317289 -0.0488872 0.0347667 -0.206989 0.0450094 -0.0493459 -0.0674204
0.0278488 -0.209421 0.163006 -0.315902 0.186687 -0.0483247 -0.0711132
0.0638101 -0.228608 0.264295 -0.525561 0.221919 -0.143947 -0.103142
0.110426 -0.11582 0.0839021 -0.183131 0.138691 -0.108685 -0.0172929
0.108078 -0.154704 0.104411 -0.292881 0.181986 -0.0434743 -0.00277794
0.0134653 -0.123927 0.145226 -0.147816 0.10326 -0.0358415 0.0164621
0.0320339 -0.0548694 0.100614 -0.147332 -0.00814534 -0.0153288 -0.0780585
-0.0228203 -0.0532478 0.0477487 -0.0430968 -0.010217 -0.0705835 -0.0691387
0.143922 -0.171 0.211266 -0.454142 0.171161 -0.1816 -0.0850627
0.0800836 -0.0696443 0.0627695 -0.25328 0.0637576 -0.0779902 0.0328922
0.0306672 -0.0718251 0.00942245 -0.0558821 0.019399 0.0374322 0.00726333
0.0535455 -0.071793 0.0356776 -0.197892 0.0811986 -0.0761993 -0.0345286
0.0127272 -0.0678307 -0.0209825 0.0674316 0.0640285 0.0272714 0.0375773
-0.0669046 0.0323571 0.0361097 -0.0481248 -0.0652168 0.058504 0.0252643
-0.0145824 -0.0360843 0.112053 -0.183579 0.0910745 -0.025776 -0.0511462
0.107021 -0.164526 0.141748 -0.314435 0.11214 -0.0485153 -0.0923373
0.1095 -0.110451 0.101212 -0.294284 0.194219 -0.108554 -0.0207827
0.0182038 -0.0733074 0.0507474 -0.226941 0.0610804 -0.0490145 -0.0616316
0.0395284 -0.141717 0.0579668 -0.29675 0.119785 -0.0780822 -0.102788
0.0135533 -0.0933889 0.0652198 -0.212913 0.0260811 -0.106725 -0.0317714
0.0277088 -0.028049 0.00690345 -0.135901 0.0556228 0.00974534 -0.0229047
-0.0351256 0.0127147 0.037957 -0.0485014 0.0401868 -0.010757 -0.0446496
0.0149928 -0.0442401 0.121665 -0.176971 0.0745942 -0.0707014 -0.0390388
0.00373867 -0.0630263 0.121672 -0.153442 0.0229545 -0.121282 -0.0258645
0.0694388 -0.0661255 0.0558231 -0.12089 -0.00278856 -0.0220644 0.0153206
0.0219822 -0.11004 0.0190926 -0.211922 0.0847518 -0.00218037 0.0325946
0.00802762 -0.0520741 0.118774 -0.179207 0.0832537 -0.088598 0.0119852
0.0969953 -0.0504143 0.107783 -0.212816 0.151012 -0.113187 0.0367802
0.104274 -0.157662 0.140188 -0.251758 0.127678 -0.086001 -0.0358503
0.0279112 0.0217567 0.0955209 -0.0272951 0.0713606 0.00181041 -0.0510311
0.061957 -0.131568 0.0729018 -0.0853164 0.067375 -0.10251 0.0372891
-0.0326675 -0.00966561 -0.0448539 -0.00435102 0.0684325 -0.039189 -0.0149429
0.0519658 -0.119893 0.058299 -0.213249 0.0231203 -0.0149461 -0.0890805
0.0108847 0.0464048 -0.014416 0.0208002 0.0517399 -0.00700701 0.0427383
0.0616125 -0.075435 -0.055164 -0.0831791 0.0277176 -0.0536099 -0.0311156
0.0161485 -0.0855422 0.0525712 -0.090679 0.0734016 -0.0885552 0.0361313
0.0535761 -0.149478 0.0243654 -0.218982 0.102663 -0.06725 -0.00100316
-0.0295578 -0.0452726 0.0814709 -0.212781 0.133348 -0.0997188 -0.0598428
-0.0211793 -0.0138519 -0.0175787 0.0318838 0.0194337 0.011402 -0.00442663
0.0152512 -0.0960156 0.126429 -0.168557 0.111428 -0.0377054 0.00303403
-0.0503201 -0.0516819 0.0480924 -0.0352641 0.0116046 -0.0380468 -0.0484793
0.0634237 -0.0175284 0.0869869 -0.0261207 0.0624768 -0.00156608 0.0548269
0.0379704 -0.0698381 0.125948 -0.186156 0.116453 -0.111782 -0.0901929
0.0312507 -0.194327 0.0848465 -0.339974 0.107917 -0.0667676 0.0168609
-0.0482868 0.0223338 0.0780272 -0.0917864 -0.050366 -0.0364486 -0.0349456
0.0141218 -0.0213196 0.0464042 -0.0814378 0.100903 -0.0968504 0.016802
0.110775 -0.0953618 0.073095 -0.148341 0.147852 0.000531043 0.0036905
0.00221644 -0.0724501 -0.0479168 -0.0689707 0.0504882 -0.0464263 0.0191027
0.00631643 0.0236644 0.0946893 -0.0229532 0.0198537 -0.0522986 0.0284938
-0.0119173 -0.0679937 0.105148 -0.0373749 -0.0107084 -0.0609206 0.0366326
-0.026754 -0.101915 0.0157636 -0.127431 0.127733 -0.0891279 0.0466853
0.0089496 -0.0807478 0.0660689 -0.166708 0.0541018 0.0124437 -0.0603808
0.0422083 0.00196027 0.00112773 -0.0727045 -0.0385317 0.0496898 0.0161592
-0.00818857 0.0114232 0.0530435 -0.0705054 0.0677546 -0.00305966 -0.0183591
0.0535147 -0.0221727 0.0486556 0.0478949 -0.00762807 -0.00254457 0.024201
-0.0200238 -0.0624194 0.0429894 -0.0936656 0.0390502 -0.034151 -0.0209545
0.0136794 -0.176158 0.206632 -0.302163 0.0961188 -0.0564101 -0.103634
0.0274304 0.0131575 0.0196494 -0.0312157 -0.0563832 -0.0285357 -0.0497432
-0.0357897 0.0365193 -0.0213114 0.0262513 -0.0325979 -0.0737755 0.000356493
-0.0612985 -0.0500678 -0.044488 -0.0650518 0.0264172 -0.0531198 0.0605174
0.00106809 -0.0135458 0.0490851 -0.0693607 0.0367581 -0.066926 0.0593635
0.0117038 -0.0555724 -0.0462899 -0.0581962 -0.00163434 -0.0393872 0.00384692
0.0627873 -0.0233273 0.00960957 -0.127024 0.0606317 -0.106701 -0.0122921
0.0989895 -0.108498 0.0961196 -0.194737 0.0207986 0.00483661 -0.0886882
0.0698268 -0.107589 0.0589948 -0.0738256 -0.0325442 -0.006317 -0.030452
0.0817181 -0.0966131 0.0536257 -0.117365 0.125736 -0.0444725 -0.00397804
-0.0153252 -0.0469418 0.000860855 -0.106677 0.0663939 0.034787 0.0512464
-0.0135477 0.0213766 0.0438086 -0.0657683 -0.0514848 -0.0510987 0.0200403
0.073192 -0.0198297 0.088528 0.0005357 -0.0417099 0.0556915 0.00673004
0.0664484 -0.0431873 -0.00290302 -0.137194 0.0464337 -0.0356201 0.0403181
-0.00368505 0.030285 0.0316837 -0.0885598 0.0531336 -0.054985 0.00305638
0.0195234 -0.0177164 0.0389023 -0.109975 0.044464 0.0389763 -0.0421911
0.0544069 -0.0688235 0.0900948 -0.051642 0.0893943 -0.0463337 -0.0161884
-0.0541592 -0.0665968 0.0135092 -0.0691343 0.0527866 -0.0262051 0.0319047
-0.0449965 0.0171743 -0.0592775 0.0562065 0.0433647 0.00334428 0.00972631