100 7
0.206613 -0.124022 0.0356207 0.0441984 0.00798572 -0.00618633 -0.132136
0.488047 -0.38846 0.0289523 0.0305719 0.243289 -0.117078 -0.391507
0.592606 -0.32914 -0.0646219 0.0425617 -0.056208 -0.0252899 -0.451634
0.552998 -0.342765 -0.091322 0.027895 -0.00243327 -0.12447 -0.365834
0.60316 -0.348282 -0.0446181 -0.0487643 -0.0537738 0.0216165 -0.501668
0.471582 -0.501435 -0.120741 0.0790289 0.139681 -0.139622 -0.328121
0.548736 -0.271627 -0.135591 0.070257 0.0663624 -0.0237798 -0.465263
0.186141 -0.637418 0.135849 0.0275104 0.0400618 -0.217118 -0.459044
0.51268 -0.293781 0.018502 -0.00320765 0.120052 -0.161357 -0.366854
0.585808 -0.325073 -0.14694 0.0330022 -0.0777347 -0.0662575 -0.422374
0.563237 -0.301609 -0.024059 -0.0102366 0.0329745 -0.12173 -0.425327
0.534693 -0.338043 -0.117495 0.0826236 -0.0312012 -0.11801 -0.432455
0.481796 -0.332383 0.00729484 0.0525985 -0.0182698 -0.134868 -0.451652
0.289347 -0.150274 0.00412517 0.0394435 0.0315472 -0.125621 -0.171271
0.493637 -0.293638 -0.0578492 0.007272 -0.041011 -0.124716 -0.409385
-0.00369082 -0.0475733 0.0275267 -0.00583535 0.0647702 -0.0804683 -0.0380773
0.57228 -0.353509 0.017548 0.0116852 -0.0175315 -0.129937 -0.425447
0.462344 -0.399672 -0.0213721 0.00254139 0.0262869 -0.0725739 -0.412998
0.287918 -0.162972 -0.0219899 -0.0584487 0.00805323 -0.10382 -0.162417
0.459529 -0.307889 -0.103863 -0.0636032 0.0466381 -0.0322013 -0.506063
0.411386 -0.446247 0.141175 -0.0353619 0.237686 -0.134889 -0.422035
0.129851 -0.04009 -0.0418893 -0.0322847 0.0319935 0.0354148 -0.0409776
0.541197 -0.410276 -0.049304 -0.0169326 0.126943 -0.0785749 -0.333578
0.377294 -0.400362 -0.0482802 -0.0250938 0.0632788 -0.0732479 -0.426553
0.516776 -0.277503 -0.0935572 -0.0483114 0.0147166 -0.0492522 -0.439554
0.577385 -0.313513 -0.125442 0.0164661 -0.0721959 -0.0877661 -0.443952
0.45295 -0.343333 -0.0944652 -0.073614 -0.0136962 -0.051359 -0.443963
0.292848 -0.155471 0.00575916 0.0458072 0.0641951 -0.0931638 -0.164806
0.437367 -0.225567 -0.0633417 0.00506628 -0.0530899 -0.131151 -0.390154
0.512094 -0.361188 -0.125095 0.00807305 0.0125792 -0.0287645 -0.433132
0.311206 -0.28414 0.00575323 0.0162342 0.0974913 -0.0606446 -0.25319
0.377122 -0.320125 0.0333983 -0.0671596 0.109538 -0.106472 -0.384134
0.285891 -0.225778 0.00360391 -0.0274752 0.0471337 0.000254336 -0.267775
0.158139 -0.202291 -0.0420486 -0.0178853 -0.012653 -0.0350298 -0.238439
0.104262 -0.133622 -0.0333435 -0.0324637 -0.0248669 -0.0312934 -0.0525585
0.421101 -0.31549 -0.143772 -0.0443333 -0.050546 -0.160958 -0.462616
0.293503 -0.210125 -0.0659829 0.0452418 0.0764648 -0.1084 -0.268314
-0.00663454 -0.0816588 0.00204819 -0.011162 -0.0379462 -0.0613807 -0.0554385
0.251352 -0.249781 0.0283157 0.0453873 0.0565272 -0.0654548 -0.262191
0.0197059 0.0153571 0.0464417 -0.00109618 0.0287969 -0.0665993 -0.00210187
0.0129439 0.0141058 0.0646579 -0.0308599 -0.0524714 -0.00812791 0.0449745
0.289927 -0.192939 -0.0889063 0.00722667 -0.0081649 -0.0951122 -0.188261
0.479454 -0.291807 -0.0628575 -0.0632396 0.0564483 -0.0949961 -0.306305
0.407258 -0.284459 -0.0290034 0.0256939 -0.0279852 -0.0444772 -0.398633
0.377923 -0.213155 -0.084774 -0.054388 0.00612962 -0.0876362 -0.282672
0.410141 -0.211264 -0.0383029 -0.0103833 0.0443357 -0.0454269 -0.281422
0.285829 -0.147459 -0.0281319 -0.00881605 0.0116398 0.00469101 -0.27718
0.216647 -0.147182 0.00154075 0.000107384 -0.0171357 -0.0303503 -0.122884
0.017784 -0.0224296 0.0466465 -0.0159736 0.0619543 -0.00916592 -0.0524459
0.273889 -0.225008 0.0286952 0.0591995 -0.0420412 -0.00731848 -0.207396
0.355404 -0.246041 -0.0418978 -0.0209272 0.0805215 -0.00921563 -0.250221
0.254296 -0.156387 0.0458397 -0.00417185 0.0480976 -0.0983396 -0.218986
0.308623 -0.132888 0.0069846 0.0306272 -0.00570879 -0.0933421 -0.217943
0.292116 -0.249251 -0.0885932 -0.0165033 0.0754822 -0.026037 -0.323899
0.411909 -0.287983 -0.0501823 -0.0122319 0.108239 -0.133852 -0.361256
0.101631 -0.137305 -0.0664518 0.0665529 -0.00375046 -0.0461897 -0.148317
0.192671 -0.0915239 0.0282584 0.0300998 0.0832147 -0.0866147 -0.109394
0.0993444 -0.0942017 0.0355543 -0.0104072 0.0519805 -0.0353932 -0.0361927
0.336793 -0.205131 0.0018152 -0.00153632 0.0685926 -0.0748657 -0.323326
0.0399255 -0.022721 -0.0582092 -0.00726731 0.0366184 -0.0590791 -0.0943834
0.052863 -0.141214 -0.0407231 0.0208393 0.0598932 -0.0358844 -0.0883971
0.229728 -0.185636 -0.0584022 -0.053059 0.000330623 -0.018601 -0.171378
0.34234 -0.243527 -0.0547542 -0.00505838 -0.028857 -0.0344981 -0.295401
0.24877 -0.264755 0.00150683 -0.0690542 0.0164576 -0.120301 -0.275182
-0.0121267 -0.0142564 -0.0629308 -0.0359777 0.0477553 -0.0367574 -0.0347788
0.264039 -0.175857 -0.0846217 0.0605316 0.0219226 -0.0343521 -0.305984
0.00643236 -0.0849889 -0.0136118 0.00498665 0.00939843 -0.0612204 -0.069112
0.135259 -0.107714 -0.0785936 -0.0285755 0.0322051 -0.0527963 -0.140157
0.249213 -0.290432 -0.0452952 -0.0448635 0.0611435 -0.126519 -0.257162
0.374707 -0.242218 -0.0758371 0.0426027 0.0226718 -0.073503 -0.331474
0.00673107 -0.0353063 0.0154703 -0.0404184 -0.0511252 -0.0805719 -0.0978763
0.149084 -0.126717 0.0409402 -0.0146125 0.0418046 0.035854 -0.130272
0.238619 -0.17365 -0.0913992 0.0618013 0.0662637 -0.0616955 -0.221794
0.0214919 0.0240031 -0.0181019 0.0291006 0.0658422 -0.0546177 -0.0706278
0.172425 -0.0572782 -0.00407697 -0.0431062 0.0847117 0.0246435 -0.0814076
0.245562 -0.117184 0.00475098 0.0135645 0.061233 0.00366088 -0.273671
0.190667 -0.137204 0.0319108 0.070162 0.0876685 -0.0503457 -0.236502
0.168515 -0.083407 -0.0287116 0.019344 0.0177438 0.0243028 -0.0788579
0.175554 -0.0691312 -0.0185504 -0.0213151 0.0195412 0.00386863 -0.157762
0.0585554 0.0161724 -0.0465885 0.0200016 -0.0198713 -0.0689564 -0.0674708
0.174748 -0.0823157 -0.00187404 -0.0479407 -0.0135795 -0.00479224 -0.177162
0.459569 -0.292037 0.0283063 -0.0614202 -0.0229974 -0.128671 -0.360388
0.0166329 0.00831951 -0.0652516 0.0359624 -0.0206492 0.0586743 -0.0216161
-0.0241061 -0.094156 0.00812683 0.0334058 0.0365922 0.0248367 -0.0582943
0.0521339 0.0208191 -0.0482632 0.0131969 -0.044671 -0.077022 -0.102325
0.042525 -0.103135 0.0123718 0.0605392 -0.0336888 -0.0544775 -0.0243633
0.0528865 -0.0858599 -0.0561961 0.0511706 0.0330482 -0.0684555 -0.0426993
0.254121 -0.075666 -0.0767753 0.0458061 -0.0134841 -0.083316 -0.109715
0.295944 -0.168897 0.0143142 0.0554963 0.0913955 -0.099247 -0.309538
0.103156 -0.161751 0.0311431 -0.00531461 0.0647754 -0.00395393 -0.157715
0.260476 -0.205441 -0.028333 0.0301148 0.00575964 -0.0687466 -0.202985
0.0469621 -0.0396559 -0.0203292 0.0157667 -0.0273255 -0.0402362 -0.0610535
0.0128729 0.0112558 -0.0539579 0.0128492 0.0139238 -0.075559 0.000355094
0.0572831 -0.0262349 -0.0725552 0.0161041 -0.0510176 -0.0340953 -0.107514
0.183741 -0.219342 0.0331607 -0.0461084 0.021572 -0.0229941 -0.121992
-0.0189015 0.0496448 0.0612342 -0.0667647 -0.0510107 -0.0203659 -0.0638143
0.218012 -0.147052 -0.0838921 -0.039578 0.0042155 -0.0535458 -0.156484
0.0929967 -0.104495 0.0580649 0.0562548 -0.00913299 -0.00237463 -0.134871
0.128609 -0.146071 0.0490755 0.046712 0.0798948 0.00409228 -0.126481
0.0805781 -0.0730427 -0.0244933 -0.031677 0.0556293 -0.0140962 -0.0346624