108 7 2
0.139752 -0.174247 -0.0820964 -0.269192 -0.184066 -0.0560438 -0.0530378
0.421626 -0.178963 -0.132219 -0.480833 -0.216046 -0.239016 -0.204113
0.31662 -0.211247 -0.0358574 -0.443626 -0.229401 -0.21219 -0.0961398
0.353352 -0.314779 0.00278304 -0.464625 -0.236039 -0.207224 -0.0511981
0.30983 -0.227043 -0.0999471 -0.374056 -0.225783 -0.0553611 -0.109559
0.410013 -0.242014 -0.130825 -0.394047 -0.311006 -0.10922 -0.0119748
0.265584 -0.231843 -0.0640346 -0.404181 -0.240065 -0.149187 0.00137751
0.207985 -0.115 -0.00325659 -0.29806 -0.154222 -0.181589 -0.0603863
0.164224 -0.0300524 -0.00290076 -0.126679 -0.108869 -0.100695 -0.0188747
0.320314 -0.290207 -0.0114659 -0.451074 -0.226028 -0.124326 -0.0420547
0.378279 -0.271975 -0.104058 -0.397617 -0.264092 -0.128332 -0.0218456
0.339081 -0.313638 -0.0879446 -0.40213 -0.319625 -0.212287 -0.0273576
0.336278 -0.236159 -0.118007 -0.431925 -0.2816 -0.144488 -0.031285
0.342973 -0.355812 0.00100726 -0.474602 -0.308903 -0.0950644 0.0177677
0.33535 -0.267902 -0.0934728 -0.428676 -0.279236 -0.220406 -0.00998926
0.358695 -0.174463 -0.125394 -0.427075 -0.215224 -0.181058 -0.0746256
0.357071 -0.234393 0.00885613 -0.441557 -0.351401 -0.167 -0.00544245
0.38921 -0.205908 -0.109484 -0.440731 -0.270125 -0.170584 -0.093164
0.427322 -0.175156 -0.0548928 -0.460145 -0.28209 -0.173559 -0.0266539
0.169347 -0.151958 -0.0502716 -0.175017 -0.142213 -0.112995 -0.0836603
0.0687724 0.00763412 -0.0504339 -0.132045 -0.110701 -0.0543826 -0.0391173
0.142897 -0.14987 -0.0037048 -0.12169 -0.037488 -0.100708 -0.068235
0.183207 -0.13081 -0.0309473 -0.0715601 -0.0542197 -0.0816421 0.0366941
0.300979 -0.212121 0.00375193 -0.279245 -0.255611 -0.0953018 -0.0595078
0.0872706 -0.122937 0.00612323 -0.211215 -0.122074 -0.080616 0.0136858
0.359682 -0.260771 -0.101806 -0.32398 -0.255874 -0.0772305 -0.0216545
0.213043 -0.124454 -0.0235043 -0.237817 -0.0879931 -0.054167 -0.05181
0.310787 -0.208459 -0.00659648 -0.468982 -0.20569 -0.132688 -0.0100682
0.160524 -0.121689 -0.0733323 -0.206596 -0.14147 -0.0478003 -0.0927831
0.312541 -0.233347 -0.0625601 -0.388068 -0.20716 -0.0784559 -0.00122068
0.352939 -0.177286 -0.0608385 -0.318284 -0.260546 -0.142916 -0.0682469
0.176389 -0.168884 -0.0332781 -0.154545 -0.049472 -0.102455 -0.0741755
0.309481 -0.238427 -0.0988482 -0.330449 -0.131541 -0.0898749 -0.0687379
0.305554 -0.277614 -0.12286 -0.342358 -0.293082 -0.149297 -0.0594471
0.08335 -0.0577477 0.034712 -0.11415 -0.14317 -0.0446175 -0.062137
0.176804 -0.114603 0.0399787 -0.0951017 -0.0780278 -0.0528242 -0.00851624
0.165557 -0.137837 -0.0405101 -0.322774 -0.155245 -0.112565 -0.0254073
0.0802658 -0.0331353 0.0376802 -0.082673 -0.115373 -0.0310573 0.0407328
0.0982026 -0.0754635 0.00570671 -0.131614 0.0283739 -0.0415656 0.0422859
0.120105 -0.0753088 -0.090772 -0.125707 -0.0578953 -0.097073 -0.0475662
0.132715 -0.149043 -0.0448877 -0.145128 -0.138803 -0.0161278 0.00424923
0.0256098 -0.0637437 0.0507491 -0.108265 -0.101836 0.0104648 0.00291846
0.0522997 -0.0805169 -0.0648968 -0.16589 -0.0940939 -0.0450433 -0.034883
-0.0419209 -0.0499649 0.00667068 0.0409311 -0.0010938 0.0560559 0.0354256
0.286007 -0.228343 -0.0712601 -0.336225 -0.314137 -0.103545 -0.0825701
0.0688384 -0.0632528 0.037353 -0.0962267 0.028337 -0.0731 -0.0342817
0.0910729 -0.00888928 -0.0672667 -0.0765616 -0.118635 -0.10161 -0.00932296
0.176364 -0.143884 -0.0170226 -0.27469 -0.20175 -0.11033 -0.0119262
0.101403 0.0157161 0.0203509 -0.107215 -0.0222197 -0.0379145 -0.0463138
0.125068 -0.133566 0.0151792 -0.124226 -0.092647 -0.00971546 0.0455542
0.0809359 -0.0371817 0.0375317 -0.238867 -0.0792194 -0.107117 0.0227411
0.0668223 0.0276253 -0.0144681 -0.0282791 0.0281934 -0.0583546 -0.00199728
0.0953985 -0.0715271 -0.0871361 -0.113604 -0.0269111 -0.0156932 0.0287484
0.126686 -0.142371 0.00475858 -0.0802648 -0.0470878 -0.111966 0.0272987
-0.000806011 -0.0415686 -0.0416713 -0.0400831 0.00388415 -0.0770228 -0.064308
0.0558653 -0.0462107 0.0300173 -0.180801 -0.0164245 -0.00244562 -0.0186848
0.0402565 -0.0135308 -0.0222131 -0.0548589 -0.0527366 -0.0622357 -0.0378633
0.0838086 0.00825976 -0.0777875 -0.00929452 0.0265016 -0.0654699 0.0563562
0.061785 -0.00566695 0.00367292 -0.10709 -0.00527748 -0.0855837 -0.0619076
0.0408274 -0.00702141 -0.0427715 -0.146188 0.00189566 -0.0471651 0.0572396
0.0515657 -0.116243 -0.0140335 -0.153109 -0.0495138 -0.0396 -0.0156133
0.122434 -0.122581 -0.0898749 -0.142822 -0.0290139 -0.0160025 0.0072085
-0.0382805 -0.00244171 -0.0426271 0.0222224 -0.0282221 0.00246852 0.0352065
0.0977429 -0.0393186 0.0136283 0.00688779 -0.00793116 0.0539845 -0.0264216
0.00254923 -0.0260271 -0.0227744 0.00793654 0.00164099 0.0592077 -0.0221814
0.162814 -0.122354 0.0505628 -0.0715193 -0.0553496 0.0078289 -0.00996654
0.0148296 -0.0199497 -0.0237851 -0.130636 0.0219209 -0.0663994 0.0134814
0.0701424 0.00954507 0.0211928 0.00114015 -0.06417 -0.0378232 -0.058784
-0.0162737 0.0483987 -0.00756813 0.00413999 0.00536026 0.0395009 0.0535904
0.0195591 -0.0550014 0.0315398 -0.109191 -0.072732 -0.102858 -0.0547335
0.0394538 -0.121325 0.0232029 -0.0770057 -0.0584764 -0.035124 -0.0339558
0.0611235 -0.0436679 -0.00550631 0.0089995 -0.0279235 0.0137997 0.0468708
0.0480941 -0.0195167 -0.0345885 0.0178475 -0.0904551 -0.055199 0.0588698
0.0867587 -0.0338755 -0.0845965 -0.165004 -0.0875567 -0.00425089 -0.033406
0.160578 -0.111415 -0.0233583 -0.131337 -0.051799 -0.0761174 -0.0666491
0.0124276 -0.100467 -0.0281046 -0.0419938 -0.078145 -0.0782567 -0.0112401
0.266365 -0.146982 -0.0807838 -0.271911 -0.124743 -0.17063 0.0375451
0.0362004 -0.0142416 0.0188963 -0.0101997 -0.0124008 -0.0624193 0.0490775
0.0604318 -0.0646174 -0.0637423 -0.0529777 0.0019725 -0.080926 0.0322899
-0.0208306 0.00637433 0.0153259 0.0418039 0.0202293 -0.0360443 -0.0150187
0.0410044 0.029465 -0.0231363 -0.109827 -0.0167909 -0.0594697 0.0541306
0.195284 -0.11179 0.0114708 -0.247142 -0.169381 -0.0410357 -0.00914278
0.0143349 -0.0644495 0.0443189 -0.088524 0.0457191 -0.0266639 -0.0577111
0.130997 -0.0807245 -0.0788528 -0.237836 -0.171976 -0.055106 0.0482056
0.0784175 -0.160549 -0.0283757 -0.139494 -0.0383745 -0.0672672 -0.0324396
0.0704968 -0.0137131 0.0318888 -0.104505 -0.0936761 -0.0763727 0.00647269
-0.05057 -0.065276 0.0620984 -0.00869311 -0.0057786 -0.0514059 -0.0527974
0.0141153 -0.023403 0.024639 -0.0843335 -0.110909 -0.0212067 0.0413581
0.112734 -0.101995 -0.0273972 -0.143912 -0.0456863 -0.0784725 -0.0388677
0.112762 -0.00411385 -0.00879144 -0.0883548 -0.105249 -0.0953106 -0.000666156
0.0731053 0.020674 -0.0693113 -0.118578 -0.0202872 0.0195254 -0.0285056
0.0394805 0.0139106 -0.0674219 0.0214664 -0.0740647 -0.00566555 -0.0278833
0.0388891 0.0255782 -0.0605632 0.0184716 0.0189093 -0.0339254 0.00733482
0.137078 0.00196772 0.0104328 -0.114646 -0.0164277 0.015961 0.012282
0.0767048 -0.074162 -0.0199273 -0.0304192 -0.0269216 -0.014605 0.0281185
0.0685943 0.0429769 -0.0332268 0.0220265 -0.00765514 -0.00527671 -0.00533986
0.010682 0.0285634 -0.0167921 -0.0179362 0.0154248 0.0136139 -0.0441354
0.00661066 -0.0044242 -0.0143659 -0.0105432 -0.0891826 -0.0533377 -0.034738
0.00405783 -0.0176725 0.0453677 -0.10512 -0.0961827 -0.00643463 -0.00623356
0.0278231 0.0336146 -0.0407615 -0.0529994 -0.0525126 -0.0290635 0.00416596
-0.0408665 -0.066387 -0.0135103 0.0123498 0.034981 0.0599386 -0.0481198
0.0248955 0.0056187 0.0661414 0.0207851 -0.087024 0.0377441 -0.0270098
0.140163 -0.0699742 -0.0525675 -0.0207967 -0.0716176 -0.0585433 -0.0608777
0.0846945 -0.00397016 -0.0109674 -0.0168616 -0.0741166 0.025792 0.00435375
0.0361293 0.0398778 0.063893 0.0325137 -0.0527089 0.040121 -0.0130028
-0.0123657 -0.0682456 -0.0532175 -0.0620336 0.0607915 -0.00825858 0.0137788
-0.0483228 -0.0161794 -0.026887 0.0219475 -0.0129255 -0.0317481 -0.0249768
-0.0528888 -0.066698 0.0546043 -0.0488507 -0.0593102 0.0661143 -0.0579213