100 7
0.035255 0.124721 -0.110818 -0.0921865 -0.171283 0.0855832 0.0797995
0.176493 0.496424 -0.39458 -0.0530649 -0.181687 0.358037 0.21942
0.125103 0.447189 -0.399209 -0.137759 -0.317159 0.401771 0.0708572
-0.0457738 0.451376 -0.262008 -0.140946 -0.306142 0.390078 0.139598
0.0872285 0.508617 -0.331182 -0.040186 -0.200903 0.540237 0.126979
0.0975538 0.548888 -0.271646 -0.0635731 -0.218974 0.404387 0.235228
0.097243 0.445381 -0.331313 -0.122817 -0.244983 0.425986 0.0930744
-0.659587 0.37368 -0.570508 -0.0891832 -0.350047 0.224463 -0.261249
0.0398674 0.480749 -0.322036 0.00148895 -0.261719 0.332614 0.128338
-0.0393716 0.432151 -0.318876 -0.0422582 -0.313268 0.472646 0.055283
0.0535653 0.418646 -0.325151 -0.0516286 -0.314055 0.451304 0.107296
0.0748911 0.421861 -0.395079 -0.147541 -0.272666 0.392638 0.152919
0.0476412 0.453145 -0.33744 -0.144826 -0.223471 0.379855 0.161414
0.0580913 0.244994 -0.195078 -0.104632 -0.105673 0.158989 0.0281711
-0.0131297 0.394769 -0.287139 -0.0709136 -0.238291 0.438742 0.0594256
0.0132567 0.0348922 -0.0641999 0.000317653 -0.0733205 0.0382677 0.00231819
0.0730991 0.443624 -0.359514 -0.0758636 -0.292766 0.423104 0.19303
0.026728 0.419967 -0.339884 -0.151584 -0.230859 0.400607 0.102855
0.0598771 0.252383 -0.10165 -0.0929843 -0.161531 0.243451 0.0551696
-0.0272633 0.46799 -0.275006 -0.108229 -0.262184 0.397895 0.138458
0.108436 0.595923 -0.448195 -0.0426625 -0.137696 0.23861 0.0570549
-0.0431157 0.13117 -0.0959874 -0.0403779 -0.052117 0.0616081 0.066252
0.177042 0.526174 -0.358449 0.00495938 -0.121578 0.405304 0.215792
0.0645784 0.374091 -0.359994 -0.0512777 -0.215095 0.389138 0.168967
0.057075 0.386379 -0.394365 -0.0190388 -0.220818 0.425054 0.0707927
0.0625292 0.477494 -0.355946 -0.14525 -0.283923 0.375385 0.144141
0.132622 0.393153 -0.328711 -0.0641244 -0.269457 0.419539 0.0783084
0.0711267 0.246735 -0.148533 0.0108216 -0.0832205 0.226755 0.075587
-0.0753672 0.270377 -0.321795 -0.0698528 -0.278866 0.344108 0.1031
-0.0579195 0.356788 -0.371054 -0.11878 -0.251999 0.472459 0.163544
-0.040512 0.282452 -0.243863 -0.00158261 -0.130154 0.223465 0.123876
0.0238059 0.392607 -0.251851 -0.086613 -0.159966 0.371808 0.0777973
-0.0239012 0.225732 -0.146098 -0.0424116 -0.209424 0.265005 -0.00081428
0.011093 0.169797 -0.144483 -0.078219 -0.105199 0.20765 0.120332
0.0474622 0.0855713 -0.114542 -0.0469691 -0.0928498 0.139974 0.0785491
0.068672 0.390013 -0.360714 -0.152875 -0.275427 0.329436 0.139692
-0.0177848 0.323334 -0.199856 -0.114897 -0.150486 0.214207 0.036769
0.0270236 0.123522 -0.0260184 0.0607472 -0.0360549 0.0370834 0.0170695
-0.0214937 0.267715 -0.2026 -0.0592323 -0.171205 0.249352 0.0078869
0.0216513 0.0385213 -0.0632543 0.0635506 0.0346658 -0.0510335 -0.0105842
-0.0369027 0.0091759 0.0592279 -0.0493636 -0.0605387 -0.0183968 0.0556354
0.0127513 0.216031 -0.213832 -0.0398839 -0.119365 0.2137 0.0484385
-0.0317539 0.363436 -0.27046 -0.112707 -0.247394 0.293144 0.163907
-0.013354 0.376582 -0.221791 -0.140482 -0.239451 0.309907 0.164196
0.0159362 0.349102 -0.282234 -0.0303865 -0.199993 0.215309 0.0989131
-0.0587319 0.370418 -0.225507 -0.0550334 -0.161553 0.244684 0.153539
0.0659324 0.281117 -0.16682 -0.0580737 -0.0961236 0.160575 0.0690303
0.0578363 0.128816 -0.0811512 -0.0734473 -0.0915382 0.167725 0.0108234
-0.0318126 0.0975412 -0.0230695 -0.0315669 -0.0197933 0.0466787 0.0355427
0.0263649 0.27424 -0.228318 -0.0461277 -0.0988314 0.185774 0.00700157
-0.038794 0.314196 -0.214386 0.0112329 -0.192618 0.255106 0.117348
0.00786836 0.190027 -0.236369 -0.0647163 -0.138122 0.124914 0.0766522
0.019629 0.227771 -0.113954 -0.039075 -0.18089 0.225725 0.103417
0.0776839 0.327818 -0.265289 -0.0461791 -0.0950975 0.295025 0.0667011
0.0318381 0.300159 -0.313717 -0.125131 -0.242867 0.359778 0.146259
0.0752208 0.051627 -0.117904 0.0055678 -0.119834 0.0673623 0.0416748
-0.00398334 0.084961 -0.0809883 -0.0507171 -0.103249 0.0831086 0.0472804
-0.00855138 0.0922543 -0.0489162 0.0590998 0.0352132 0.0998592 0.0747016
0.0553342 0.315427 -0.210336 -0.11194 -0.215677 0.304785 0.0497001
0.0183797 0.0602373 -0.126539 0.0413558 -0.0133805 0.0104515 -0.0138733
-0.0268741 0.0548236 -0.0668298 0.0158406 -0.0740493 0.0687437 -0.00848441
0.061629 0.117098 -0.119528 -0.0478532 -0.105154 0.152637 -0.0198092
-0.048239 0.266372 -0.21353 -0.0377783 -0.135897 0.217548 0.113013
-0.023576 0.21376 -0.210376 -0.0887327 -0.195431 0.232784 0.106436
-0.060621 -0.0243011 -0.0563229 -0.0752634 0.0231006 0.0235774 0.0592899
-0.0254433 0.266357 -0.253293 -0.0651788 -0.204338 0.186004 0.0777292
-0.0161783 0.0549769 -0.0627391 0.035613 -0.0522349 0.0674325 -0.00210434
0.00119767 0.132675 -0.0886925 -0.0913302 -0.0733306 0.130107 0.053295
0.00107383 0.224492 -0.211707 -0.0223063 -0.195872 0.244801 0.0967442
0.0057815 0.299393 -0.308059 -0.0314045 -0.1363 0.302064 0.0497819
-0.0330589 0.0182837 -0.0182621 0.0607516 0.0363368 0.0983309 -0.0205712
-0.0376422 0.137279 -0.107221 0.0193933 -0.083834 0.0458743 0.00293226
-0.0186318 0.281399 -0.186021 0.00769633 -0.0840114 0.149977 0.127819
-0.00126894 0.102807 -0.0188979 -0.0383889 -0.0865757 0.0644711 0.0279838
0.0430949 0.0862738 -0.0686214 0.0262022 -0.12066 0.105663 0.0978996
-0.0601193 0.214731 -0.152313 -0.0623317 -0.100339 0.169125 0.0134334
0.0783914 0.256776 -0.116306 -0.0665035 -0.15657 0.172061 0.0953088
0.0143565 0.104252 -0.0650183 -0.065662 -0.0840591 0.13966 0.0086503
0.0813266 0.182195 -0.107365 -0.0109489 -0.11024 0.136471 -0.00552623
-0.0264025 -0.00477483 -0.0705592 0.0140484 0.0307629 0.100034 0.0651268
0.00464109 0.207595 -0.110253 0.0411935 -0.135522 0.0922111 0.113465
-0.0326015 0.396063 -0.293531 -0.0288673 -0.263793 0.323986 0.145346
0.0185845 -0.00362563 -0.0251058 -0.0379041 -0.0233723 0.0655539 -0.0528715
0.0345966 0.0865045 0.0126518 0.0604111 0.0151367 0.0667699 -0.0403295
-0.029365 0.0149797 -0.0025183 -0.0586832 0.0286147 0.0619074 0.0269396
-0.0075098 0.00384975 -0.0423748 -0.0731023 -0.0565101 0.103723 0.0861868
-0.0733109 0.0519532 -0.00573813 0.0189843 -0.0605773 0.00673622 0.0589172
0.0506475 0.140373 -0.196339 0.0341481 -0.119654 0.110693 0.0485227
-0.044546 0.288163 -0.211057 -0.0711859 -0.175394 0.207531 0.120821
0.0127846 0.136954 -0.045179 0.0386721 -0.0926012 0.0628468 0.0752618
-0.0530086 0.204177 -0.150104 -0.110437 -0.0931534 0.15297 0.0939541
-0.0558908 0.0272412 -0.0135024 -0.0354851 0.0153515 -0.0278116 -0.0395173
-0.0407757 0.0957548 -0.0455424 0.0129318 0.0334388 0.0156886 0.0802049
0.0595199 0.0372345 -0.0498461 0.00710781 0.0178031 0.0381361 0.0194912
-0.0486836 0.16218 -0.218619 0.0262316 -0.12419 0.114011 0.0212545
0.0294918 0.0945208 0.00956713 -0.0253083 -0.0502602 0.0146495 0.00925477
0.0174528 0.192093 -0.123569 -0.00804264 -0.0801227 0.128856 0.0969007
-0.0273873 0.174488 -0.027201 -0.081966 -0.0552391 0.0656041 -0.00342191
0.0274278 0.208529 -0.0717243 -0.00837722 -0.0667581 0.137054 0.0476819
0.00946128 0.126383 -0.00394975 -0.0470015 0.0234411 0.0396768 -0.0315369